svm_type c_svc
kernel_type linear
nr_class 2
label 0 1
total_sv 500
nr_sv 250 250
rho 1.4444231987e-01 8.0516815186e-02
SV
-2.3731245100e-01 -5.3417511284e-02 1:-4.9470812082e-01 2:-3.9656057954e-01 3:6.2920093536e-01 4:-7.4639850855e-01 5:-5.6362104416e-01 6:-8.4848207235e-01 7:6.6657170653e-02 8:-7.1896934509e-01 9:-2.2393985093e-01 10:-1.5246381983e-02 11:-6.1856043339e-01 12:-5.2947777510e-01 13:4.5483008027e-01 14:-7.6218169928e-01 15:1.3304527104e-01 16:8.6574178934e-01 17:-4.9733296037e-01 18:-4.5795774460e-01 19:6.0537385941e-01 20:5.2960354090e-01 21:-4.3514749408e-01 22:7.9650586843e-01 23:2.4651123583e-01 24:-3.3080306649e-01 25:-4.6803137660e-01 26:5.3362065554e-01 27:-2.1270859241e-01 28:-1.6400629282e-01 29:3.3647915721e-01 30:-2.9393488169e-01 31:4.7974061966e-01 32:3.7444978952e-01 33:7.0252352953e-01 34:4.7270089388e-01 35:-7.0374351740e-01 36:6.0014462471e-01 37:-6.9637525082e-01 38:6.0697370768e-01 39:-5.3490048647e-01 40:-2.7367889881e-01 41:4.5607149601e-01 42:-1.8614862859e-01 43:-2.8127095103e-01 44:-5.1962333918e-01 45:2.1782346070e-01 46:-1.8545733392e-01 47:-6.0258495808e-01 48:-6.7161780596e-01 49:7.8533053398e-01 50:-4.1574978828e-01 51:-6.6743385792e-01 52:-7.8067839146e-01 53:-5.7029902935e-01 54:-2.6773446798e-01 55:-6.1729264259e-01 56:-7.4488812685e-01 57:5.8687704802e-01 58:7.1281152964e-01 59:-2.2133800387e-01 60:8.9166456461e-01 61:6.1411969364e-02 62:7.7278620005e-01 63:-6.2013912201e-01 64:3.0051195621e-01 65:-3.3225375414e-01 66:-5.6946736574e-01 67:5.6358790398e-01 68:-7.3749595881e-01 69:7.2011655569e-01 70:1.7715497315e-01 71:6.1461645365e-01 72:-1.0007905215e-01 73:1.1809871346e-01 74:4.8800167441e-01 75:7.3635244370e-01 76:-7.8482431173e-01 77:-2.2020447254e-01 78:-1.0418093204e-01 79:5.6021130085e-01 80:-4.6140286326e-01 81:-5.2003657818e-01 82:-4.0498244762e-01 83:7.4268126488e-01 84:-5.6960248947e-01 85:-4.2273750901e-01 86:7.5726938248e-01 87:7.2510790825e-01 88:-5.2242088318e-01 89:4.5010811090e-01 90:5.8800005913e-01 91:-4.9785831571e-01 92:-5.7762187719e-01 93:-4.1961979866e-01 94:-3.8307562470e-01 95:4.7852888703e-01 96:4.1074413061e-01 97:-6.2564772367e-01 98:-4.4188871980e-01 99:7.0660328865e-01 100:-2.1360008419e-01 101:-5.1287347078e-01 102:6.1639785767e-01 103:1.9097004831e-01 104:7.5993937254e-01 105:-4.0330457687e-01 106:5.7224756479e-01 107:-1.9983033836e-01 108:-8.2914352417e-01 109:7.1743381023e-01 110:6.4697080851e-01 111:1.7835547030e-01 112:-4.1841426492e-01 113:-7.7262133360e-01 114:-3.3065050840e-01 115:-5.8825831860e-02 116:-7.6645307243e-02 117:-8.1915628910e-01 118:4.7054409981e-01 119:-7.1341031790e-01 120:-2.6579335332e-01 121:-5.3811496496e-01 122:-8.5479038954e-01 123:-8.1056356430e-01 124:-8.4314459562e-01 125:7.1812009811e-01 126:6.3630543649e-02 127:7.5165230036e-01 128:-4.1776084900e-01 129:2.3677654564e-01 130:-2.8070494533e-01 131:-6.2824219465e-01 132:-2.5689864159e-01 133:2.8666538000e-01 134:-3.9654552937e-01 135:1.2018414587e-01 136:-6.0227164067e-03 137:-6.1153483391e-01 138:8.1792294979e-01 139:-4.4937038422e-01 140:-5.2289557457e-01 141:-6.9704586267e-01 142:-8.1174141169e-01 143:-4.5861104131e-01 144:2.8384274244e-01 145:-5.4464906454e-01 146:-5.0004643202e-01 147:4.1209828854e-01 148:-6.0961586237e-01 149:-5.3476232290e-01 150:-8.2050532103e-01 151:2.3975126445e-01 152:6.2900048494e-01 153:6.4248186350e-01 154:-6.6317147017e-01 155:-3.0006766319e-01 156:6.7095756531e-01 157:-6.4187324047e-01 158:5.4822742939e-01 159:3.4061300755e-01 160:4.6035158634e-01 161:5.7649803162e-01 162:-7.8020936251e-01 163:8.5081344843e-01 164:-1.5932017937e-02 165:-4.7378459573e-01 166:2.5550073385e-01 167:-8.3794635534e-01 168:7.4719148874e-01 169:-4.3659836054e-01 170:6.4928030968e-01 171:-5.6152939796e-01 172:-1.5448884666e-01 173:-1.5436509252e-01 174:5.2640348673e-01 175:1.7418533564e-02 176:-6.5503478050e-01 177:5.6680327654e-01 178:9.1353511810e-01 179:-7.0586341619e-01 180:4.5841351151e-01 181:-8.3871203661e-01 182:-2.9254817963e-01 183:6.4462107420e-01 184:2.4540255964e-01 185:-3.7785306573e-01 186:4.4625493884e-01 187:5.5627870560e-01 188:-3.8086074591e-01 189:-6.9764393568e-01 190:-3.2417735457e-01 191:-3.8486886770e-02 192:9.3043577671e-01 193:6.1732167006e-01 194:1.0150477290e-01 195:-9.6089291573e-01 196:-6.8612617254e-01 197:5.6609356403e-01 198:-6.3489490747e-01 199:6.8788152933e-01 200:1.4945398271e-01 
3.1333327293e-01 -6.4026385546e-02 1:-5.4217183590e-01 2:-2.2115235031e-01 3:6.9460910559e-01 4:-6.3699787855e-01 5:-8.2814300060e-01 6:-7.6146888733e-01 7:-2.0025135577e-01 8:-5.8406043053e-01 9:3.5379871726e-01 10:2.4483695626e-01 11:-5.3129911423e-01 12:-1.4291672409e-01 13:6.9546192884e-01 14:-5.7264858484e-01 15:4.8557227850e-01 16:5.0092399120e-01 17:-5.6177848577e-01 18:-4.6810251474e-01 19:3.3276218921e-02 20:5.5991500616e-01 21:-6.2052494287e-01 22:8.8043910265e-01 23:3.2883787155e-01 24:3.7448406219e-02 25:-6.3975495100e-01 26:6.9367885590e-01 27:-4.0712749958e-01 28:-7.9842619598e-02 29:4.3437948823e-01 30:-6.1328744888e-01 31:4.5014098287e-01 32:2.5578159094e-01 33:6.2095355988e-01 34:4.6437135339e-01 35:-7.8478062153e-01 36:8.3280301094e-01 37:-6.9435012341e-01 38:8.4878802299e-01 39:1.8540650606e-01 40:-1.9881041348e-01 41:4.0893259645e-01 42:-3.7566745281e-01 43:-4.5379588008e-01 44:-4.8854297400e-01 45:5.5318498611e-01 46:3.1206995249e-01 47:-7.2110384703e-01 48:-4.6564278007e-01 49:1.8156182766e-01 50:-3.6030384898e-01 51:-6.5383428335e-01 52:-6.1853897572e-01 53:-2.1318072081e-01 54:-3.7093538046e-01 55:-4.8666119576e-01 56:-5.9614348412e-01 57:5.7232272625e-01 58:3.9926177263e-01 59:6.8166747689e-02 60:6.5824407339e-01 61:-4.1782206297e-01 62:2.7468088269e-01 63:-3.9033424854e-01 64:2.9439342022e-01 65:-6.3006353378e-01 66:-4.5624476671e-01 67:5.0318223238e-01 68:-5.5073243380e-01 69:7.3832982779e-01 70:4.5117732882e-01 71:5.9002357721e-01 72:-1.0057848692e-01 73:-1.4979594946e-01 74:6.6551715136e-01 75:6.7878425121e-01 76:-5.9672945738e-01 77:4.2751479894e-02 78:-6.4604443312e-01 79:-2.8405025601e-01 80:-5.1616442204e-01 81:-1.9714765251e-01 82:-4.7345902771e-02 83:-3.6202055216e-01 84:-5.3334581852e-01 85:1.7607921362e-01 86:6.2048590183e-01 87:5.8432888985e-01 88:-2.8615966439e-01 89:6.2218087912e-01 90:5.9742093086e-01 91:-4.9866166711e-01 92:-6.5956687927e-01 93:1.2177040428e-01 94:-3.8686442375e-01 95:4.7593230009e-01 96:3.1158739328e-01 97:-6.8590724468e-01 98:-1.4952862263e-01 99:6.8329370022e-01 100:-3.7703785300e-01 101:-5.3444027901e-01 102:5.0458681583e-01 103:3.8340607285e-01 104:8.6387985945e-01 105:-5.5705147982e-01 106:4.2521396279e-01 107:-1.6933467984e-01 108:-2.6978537440e-01 109:1.6002991796e-01 110:4.3894079328e-01 111:3.6585065722e-01 112:-4.3685165048e-01 113:-7.8270262480e-01 114:-4.4242924452e-01 115:6.1100924015e-01 116:-5.0629287958e-01 117:-6.4288634062e-01 118:6.9311374426e-01 119:-7.7270543575e-01 120:-3.3820143342e-01 121:-5.1428294182e-01 122:-5.3646898270e-01 123:-4.1168552637e-01 124:-3.9000719786e-01 125:7.7195954323e-01 126:4.8057258129e-01 127:8.4217870235e-01 128:-3.0392435193e-01 129:-2.1258056164e-01 130:-1.2745395303e-01 131:-6.0635828972e-01 132:-2.2606246173e-01 133:8.4901905060e-01 134:-2.0916324854e-01 135:-8.4753759205e-02 136:2.9718744755e-01 137:-5.3274250031e-01 138:7.0429855585e-01 139:-3.8069859147e-01 140:-8.7843114138e-01 141:-3.4471523762e-01 142:-9.6319176257e-02 143:-4.2653587461e-01 144:3.7422320247e-01 145:-4.5056629181e-01 146:-7.1191573143e-01 147:5.9726828337e-01 148:-6.5615379810e-01 149:-8.8954204321e-01 150:-7.0793825388e-01 151:4.4547888637e-01 152:1.0000000000e+00 153:3.7453439832e-01 154:-7.3451042175e-01 155:-3.8534525037e-01 156:7.8703194857e-01 157:-7.1175336838e-01 158:2.3096497357e-01 159:3.4420812130e-01 160:6.3524574041e-01 161:2.1194547415e-01 162:-4.8496764898e-01 163:3.7094524503e-01 164:-8.0668129027e-02 165:-3.7981018424e-01 166:3.8732844591e-01 167:-6.6223406792e-01 168:6.6407757998e-01 169:-5.3483694792e-01 170:6.4559131861e-01 171:-3.2614216208e-02 172:-3.4045916796e-01 173:7.6585441828e-01 174:6.7866608500e-02 175:5.5736713111e-02 176:-7.0349401236e-01 177:8.0525624752e-01 178:6.6742694378e-01 179:-6.4595073462e-01 180:5.1615661383e-01 181:-1.9451217353e-01 182:-9.6017932892e-01 183:8.6372399330e-01 184:1.2133798748e-01 185:-2.6850187778e-01 186:1.4355866611e-01 187:7.8298038244e-01 188:-3.2329320908e-02 189:-7.3744559288e-01 190:2.0109042525e-01 191:1.9286531210e-01 192:8.0848872662e-01 193:5.8946865797e-01 194:5.7225430012e-01 195:-4.0174478292e-01 196:-6.3741970062e-01 197:5.4182314873e-01 198:-4.1473773122e-01 199:6.7147529125e-01 200:2.8036442399e-01 
2.5659620762e-02 -3.2566804439e-03 1:-4.2075431347e-01 2:-8.3919055760e-02 3:6.5969234705e-01 4:-6.5277230740e-01 5:-5.7547396421e-01 6:-7.3792076111e-01 7:-1.9636997581e-01 8:-5.3719121218e-01 9:-3.2598751783e-01 10:-3.5009231418e-02 11:-9.2340523005e-01 12:-4.9493268132e-01 13:4.1645199060e-01 14:-3.0661064386e-01 15:5.7346129417e-01 16:4.0489515662e-01 17:-6.4559125900e-01 18:-4.2300933599e-01 19:1.0092637688e-01 20:3.9133673906e-01 21:-6.1678320169e-01 22:6.4958173037e-01 23:4.6646755934e-01 24:7.7429227531e-02 25:-7.3614048958e-01 26:6.9957876205e-01 27:-5.2818143368e-01 28:-2.1457335353e-01 29:5.1441591978e-01 30:-6.7539983988e-01 31:3.2587584853e-01 32:3.7653478980e-01 33:3.5167855024e-01 34:2.6658990979e-01 35:-8.8307434320e-01 36:9.2579537630e-01 37:-6.4706730843e-01 38:6.2214708328e-01 39:-2.7062684298e-01 40:-4.0305465460e-01 41:3.9312118292e-01 42:-2.1573230624e-01 43:-3.7325933576e-01 44:-6.2901300192e-01 45:4.7326648235e-01 46:-1.7140106857e-01 47:-9.7560042143e-01 48:-3.1948295236e-01 49:2.7915224433e-01 50:-3.4926643968e-01 51:-8.2429039478e-01 52:-6.8386048079e-01 53:-4.4845268130e-01 54:-2.3331424594e-01 55:-6.3705486059e-01 56:-4.6141859889e-01 57:7.9271787405e-01 58:6.9426083565e-01 59:4.3857324123e-01 60:7.6908630133e-01 61:2.9400792718e-01 62:4.5818760991e-01 63:-7.5517731905e-01 64:5.7251828909e-01 65:-5.8972328901e-01 66:-5.3951078653e-01 67:5.8071190119e-01 68:-5.4260343313e-01 69:5.7106465101e-01 70:3.9317527413e-01 71:5.9679311514e-01 72:-4.4885295630e-01 73:-1.8034911156e-01 74:7.9305994511e-01 75:6.1207526922e-01 76:-6.2511593103e-01 77:-4.7016623616e-01 78:-2.9062649608e-01 79:-2.3472131789e-01 80:-4.3868795037e-01 81:-5.2959585190e-01 82:-2.3296770453e-01 83:4.4237768650e-01 84:-3.6598426104e-01 85:-8.5480339825e-02 86:7.0404946804e-01 87:6.7583513260e-01 88:-3.4565246105e-01 89:5.4549401999e-01 90:3.0909612775e-01 91:-8.3144605160e-01 92:-5.9384465218e-01 93:-3.9825546741e-01 94:-3.3814355731e-01 95:4.2520835996e-01 96:3.5838222504e-01 97:-6.8800812960e-01 98:-4.7333408147e-02 99:6.9690126181e-01 100:-1.3695979118e-01 101:-5.4043400288e-01 102:5.2670830488e-01 103:1.0382743180e-01 104:9.1495800018e-01 105:-5.7760912180e-01 106:4.8446485400e-01 107:-2.1186088026e-01 108:8.8834084570e-02 109:3.9644822478e-01 110:7.1375858784e-01 111:4.8187196255e-01 112:-4.4728198647e-01 113:-8.0073475838e-01 114:-3.5867840052e-01 115:5.8231383562e-01 116:-3.0310609937e-01 117:-8.3011287451e-01 118:4.6058762074e-01 119:-5.0711828470e-01 120:-4.9626886845e-01 121:-7.0000326633e-01 122:-6.1635577679e-01 123:-7.1162134409e-01 124:-4.7799301147e-01 125:7.1718466282e-01 126:6.9280678034e-01 127:5.1502561569e-01 128:-7.5796222687e-01 129:3.1131595373e-01 130:-4.4101703167e-01 131:-7.6138544083e-01 132:1.0771799088e-01 133:4.9977862835e-01 134:1.7645864189e-01 135:-3.7882602215e-01 136:2.1630094852e-03 137:-6.7185395956e-01 138:6.0796523094e-01 139:-3.2769885659e-01 140:-6.7512285709e-01 141:-1.2121771276e-01 142:-1.6580383480e-01 143:-2.1105248481e-02 144:2.2765724361e-01 145:-6.5269893408e-01 146:-3.2010883093e-01 147:6.7615973949e-01 148:-6.3487744331e-01 149:-6.4434570074e-01 150:-6.6221082211e-01 151:2.6202324033e-01 152:3.6818641424e-01 153:4.9246764183e-01 154:-7.9255336523e-01 155:-4.9015486240e-01 156:5.5132025480e-01 157:-6.4756834507e-01 158:8.7914699316e-01 159:5.2872300148e-01 160:3.9228948951e-01 161:1.7609901726e-01 162:-7.4726527929e-01 163:5.7627040148e-01 164:-4.6298062801e-01 165:-2.0098434389e-01 166:3.4914195538e-01 167:-1.4427956194e-02 168:4.1239181161e-01 169:-5.0578671694e-01 170:5.4101347923e-01 171:-6.1386346817e-01 172:-2.3155817389e-01 173:-2.9589241743e-01 174:4.8068504781e-02 175:8.3320386708e-02 176:-5.3516304493e-01 177:8.3401513100e-01 178:7.8776335716e-01 179:-6.9172143936e-01 180:2.6388263702e-01 181:-4.5821711421e-01 182:-4.7562184930e-01 183:7.7200371027e-01 184:2.4597077072e-01 185:-6.3828593493e-01 186:5.5277293921e-01 187:6.5303170681e-01 188:-2.8089293838e-01 189:-8.2545137405e-01 190:-4.6378921717e-02 191:9.8661407828e-02 192:6.3816797733e-01 193:3.0933997035e-01 194:4.9982371926e-01 195:-1.6975383461e-01 196:-7.6558125019e-01 197:4.6944880486e-01 198:-3.1751865149e-01 199:8.0509763956e-01 200:4.7692093253e-01 
3.7444811314e-02 5.1344063133e-02 1:-6.8532156944e-01 2:4.2654365301e-01 3:4.1703867912e-01 4:-6.8054163456e-01 5:-3.9383101463e-01 6:-8.3664745092e-01 7:-1.0559932142e-01 8:-4.3299511075e-01 9:-4.3993777037e-01 10:-6.8278992176e-01 11:-7.4579721689e-01 12:-3.7482452393e-01 13:4.2592054605e-01 14:-9.1632813215e-01 15:1.5400215983e-01 16:3.9452680945e-01 17:-4.6186468005e-01 18:-3.8313060999e-01 19:3.0139708519e-01 20:4.5171076059e-01 21:-4.4229021668e-01 22:6.3895237446e-01 23:1.8504938483e-01 24:-3.8543814421e-01 25:-5.9919399023e-01 26:6.7065292597e-01 27:-5.0579905510e-01 28:-7.4283128977e-01 29:4.2569023371e-01 30:-6.2246775627e-01 31:1.3236901164e-01 32:6.2518918514e-01 33:6.4330595732e-01 34:4.7266855836e-01 35:-7.3078089952e-01 36:8.4903115034e-01 37:-6.1664783955e-01 38:4.9761721492e-01 39:-1.0000000000e+00 40:-2.9587522149e-01 41:2.3630212247e-01 42:-4.1303020716e-01 43:-3.5847818851e-01 44:-5.0062716007e-01 45:5.6738173962e-01 46:-1.3585851993e-03 47:-5.0183892250e-01 48:-8.4054553509e-01 49:-2.1763402224e-01 50:-2.5441524386e-01 51:-7.4173176289e-01 52:-8.0480182171e-01 53:-6.0899204016e-01 54:-1.4133039117e-01 55:-7.5818437338e-01 56:-6.5711241961e-01 57:8.0567318201e-01 58:4.8963814974e-01 59:3.5776281357e-01 60:7.3993498087e-01 61:-5.4648274183e-01 62:6.4952063560e-01 63:-6.5587216616e-01 64:3.6653354764e-01 65:-3.2683700323e-01 66:-5.2719742060e-01 67:7.1198004484e-01 68:-6.4134335518e-01 69:6.0641717911e-01 70:5.2206194401e-01 71:5.1961791515e-01 72:-5.3980350494e-01 73:-6.8928819895e-01 74:7.1849638224e-01 75:6.4305323362e-01 76:-7.2331333160e-01 77:-1.8713992834e-01 78:4.2901929468e-02 79:1.9670104980e-01 80:-4.6865400672e-01 81:-7.3103493452e-01 82:-6.3969838619e-01 83:-3.5531405360e-02 84:-4.9628764391e-01 85:-2.7037939429e-01 86:6.3084566593e-01 87:9.3160766363e-01 88:-6.1390572786e-01 89:5.4460352659e-01 90:1.2412402779e-01 91:-2.8940609097e-01 92:-4.4915252924e-01 93:-1.7183864117e-01 94:2.4191120267e-01 95:6.3777273893e-01 96:1.1288990080e-01 97:-5.7865679264e-01 98:-3.9960983396e-01 99:6.3354003429e-01 100:-5.7966625690e-01 101:-5.5739158392e-01 102:7.5158220530e-01 103:-4.2772427201e-02 104:6.6525125504e-01 105:-6.4017617702e-01 106:6.8756937981e-01 107:-6.0189146549e-02 108:-1.1521278322e-01 109:6.0646867752e-01 110:4.8550662398e-01 111:5.4398739338e-01 112:-5.0335270166e-01 113:-5.8862358332e-01 114:-3.9901071787e-01 115:4.8598501086e-01 116:-2.0576639473e-01 117:-7.7889573574e-01 118:6.3735097647e-01 119:-7.6926475763e-01 120:-1.7165753245e-01 121:-6.5646058321e-01 122:-5.5488032103e-01 123:-7.6627659798e-01 124:-2.9609596729e-01 125:8.1135243177e-01 126:2.0228998363e-01 127:8.6594033241e-01 128:-6.2171870470e-01 129:6.3767619431e-02 130:-2.0520640910e-01 131:-5.7519853115e-01 132:-1.1472127587e-01 133:5.7998019457e-01 134:-1.1956528760e-02 135:-2.3677007854e-01 136:-5.9352353215e-02 137:-7.4968272448e-01 138:8.1152778864e-01 139:-3.6051318049e-01 140:-3.8905781507e-01 141:-6.2709110975e-01 142:-3.0505263805e-01 143:-5.6769722700e-01 144:7.1617823839e-01 145:-5.5582463741e-01 146:-5.2017492056e-01 147:6.4165633917e-01 148:-6.8336063623e-01 149:-6.9304007292e-01 150:-7.0743799210e-01 151:-1.2019330263e-01 152:7.2261172533e-01 153:1.1022895575e-01 154:-7.4189567566e-01 155:-6.5435665846e-01 156:6.4215427637e-01 157:-5.0809407234e-01 158:4.9928051233e-01 159:2.3608589172e-01 160:4.0036571026e-01 161:2.9566967487e-01 162:-5.7701009512e-01 163:3.0059018731e-01 164:-1.0000000000e+00 165:-4.2459225655e-01 166:1.9638954103e-01 167:-4.6292456985e-01 168:5.7945418358e-01 169:-3.7093380094e-01 170:7.7437919378e-01 171:-2.9125809669e-01 172:-6.0073608160e-01 173:2.8978851438e-01 174:4.4513395429e-01 175:-8.8688725233e-01 176:-8.5223370790e-01 177:5.9143972397e-01 178:8.1223386526e-01 179:-4.2199170589e-01 180:4.4569146633e-01 181:-7.0797711611e-01 182:-4.0607753396e-01 183:6.7517954111e-01 184:7.7344846725e-01 185:-3.3699336648e-01 186:7.4379312992e-01 187:3.1417271495e-01 188:-3.0531245470e-01 189:-6.4803355932e-01 190:-8.2255810499e-02 191:4.5029735565e-01 192:6.8844377995e-01 193:6.0334157944e-01 194:5.1415181160e-01 195:-1.8353065848e-01 196:-8.1840455532e-01 197:4.7130623460e-01 198:-6.1689859629e-01 199:7.7536970377e-01 200:3.0577024817e-01 
-1.8035605550e-01 1.5210510232e-02 1:-7.7177083492e-01 2:-8.3053886890e-01 3:8.4776401520e-01 4:-5.9753245115e-01 5:-6.1572659016e-01 6:-9.2003548145e-01 7:-9.0099582449e-03 8:-5.1401376724e-01 9:4.0209673345e-02 10:3.8161996007e-01 11:-7.1176779270e-01 12:-3.9097583294e-01 13:4.6237620711e-01 14:-4.0167641640e-01 15:-4.5836262405e-02 16:6.4822149277e-01 17:-9.4450628757e-01 18:-9.0109616518e-02 19:4.8856484890e-01 20:2.4777801335e-01 21:-8.0150169134e-01 22:7.9433530569e-01 23:4.2653197050e-01 24:4.5611158013e-01 25:-7.0571357012e-01 26:5.9043139219e-01 27:-9.0936195850e-01 28:-7.3543953896e-01 29:1.8263337016e-01 30:-3.0226388574e-01 31:-1.1002848297e-01 32:6.9016039371e-01 33:2.9225331545e-01 34:4.5986607671e-01 35:-8.5158526897e-01 36:8.6585444212e-01 37:-6.6554301977e-01 38:7.5460237265e-01 39:1.0584455729e-01 40:-3.1332775950e-01 41:7.1422654390e-01 42:-6.2836581469e-01 43:-3.2737734914e-01 44:-3.6756622791e-01 45:1.0234412551e-01 46:-1.0000000000e+00 47:-3.9806151390e-01 48:-7.1639788151e-01 49:4.5959565043e-01 50:-6.5885227919e-01 51:-6.3330537081e-01 52:-8.3283048868e-01 53:-7.0907765627e-01 54:-1.3819506764e-01 55:-5.8807164431e-01 56:-4.9555674195e-01 57:6.3080322742e-01 58:6.5219110250e-01 59:1.9938845932e-01 60:7.5558543205e-01 61:-4.9574187398e-01 62:5.4945981503e-01 63:-1.0000000000e+00 64:3.6537215114e-01 65:-1.9368432462e-01 66:-5.4012489319e-01 67:7.8932952881e-01 68:-5.8190977573e-01 69:7.3741507530e-01 70:4.0602263808e-01 71:7.5049012899e-01 72:-3.9131951332e-01 73:-6.0567909479e-01 74:5.9433501959e-01 75:7.9510754347e-01 76:-7.4930870533e-01 77:-5.0046939403e-02 78:-3.9881193638e-01 79:6.6033118963e-01 80:-6.0307002068e-01 81:-4.1459590197e-01 82:-1.5734294057e-01 83:-1.9918940961e-02 84:-8.2608032227e-01 85:3.0906766653e-02 86:5.9663802385e-01 87:4.0356189013e-01 88:-4.9126204848e-01 89:6.1873275042e-01 90:2.5718551874e-01 91:-3.9284738898e-01 92:-5.5227553844e-01 93:-5.7856726646e-01 94:-4.4681999087e-01 95:5.7788938284e-01 96:4.8098531365e-01 97:-6.0735166073e-01 98:-1.8594054878e-01 99:6.0431694984e-01 100:-1.9365821779e-01 101:-2.3203127086e-01 102:4.9646645784e-01 103:3.8566124439e-01 104:8.1560492516e-01 105:-4.7681242228e-01 106:5.6166267395e-01 107:3.4920486808e-01 108:1.8012893200e-01 109:4.3546748161e-01 110:6.8817627430e-01 111:3.5989576578e-01 112:-5.4491245747e-01 113:-6.9934540987e-01 114:-4.7896283865e-01 115:-3.2548722625e-01 116:-5.5260527879e-02 117:-6.4086711407e-01 118:6.2149292231e-01 119:-5.9393256903e-01 120:-4.6790197492e-01 121:-5.2382534742e-01 122:-5.9798306227e-01 123:-5.2773553133e-01 124:-6.7201358080e-01 125:8.1731414795e-01 126:3.4586933255e-01 127:3.6012658477e-01 128:-6.0758370161e-01 129:1.9789297879e-01 130:-4.5536911488e-01 131:-7.8438633680e-01 132:-2.6253661513e-01 133:7.4433457851e-01 134:-1.8992394209e-01 135:-5.7219769806e-02 136:-3.0607104301e-01 137:-5.5042988062e-01 138:8.7272179127e-01 139:-5.2868753672e-01 140:-4.8760509491e-01 141:-6.2181029469e-02 142:-6.2764473259e-03 143:-4.0869203210e-01 144:7.2598391771e-01 145:-5.0184947252e-01 146:-6.3404446840e-01 147:3.7708309293e-01 148:-5.8283668756e-01 149:-4.9218803644e-01 150:-7.0163720846e-01 151:-3.3661681414e-01 152:6.7794030905e-01 153:3.3750036359e-01 154:-7.5061804056e-01 155:-4.6534135938e-01 156:9.3176615238e-01 157:-6.4781397581e-01 158:8.5177487135e-01 159:4.3680587411e-01 160:4.2787829041e-01 161:9.0313893557e-01 162:-4.0916889906e-01 163:5.5658912659e-01 164:-2.4315826595e-01 165:2.6910525560e-01 166:5.1039195061e-01 167:-5.2654242516e-01 168:4.1711881757e-01 169:-5.4702794552e-01 170:8.7714153528e-01 171:-1.4599129558e-01 172:-7.4831926823e-01 173:9.2417737469e-03 174:3.6420696974e-01 175:3.2226841897e-02 176:-6.7154496908e-01 177:6.5497392416e-01 178:6.7283481359e-01 179:-6.1613428593e-01 180:4.7350999713e-01 181:-2.4622689188e-01 182:-2.3994460702e-01 183:7.5375920534e-01 184:7.4010714889e-02 185:-3.5339447856e-01 186:4.4521287084e-01 187:6.6922318935e-01 188:-7.5000870228e-01 189:-6.1719244719e-01 190:1.5388921835e-02 191:-3.2062906027e-01 192:8.2871371508e-01 193:4.4413331151e-01 194:4.3762147427e-01 195:1.9725710154e-01 196:-9.0860408545e-01 197:7.9591286182e-01 198:-4.1154941916e-01 199:9.0111500025e-01 200:3.4686526656e-01 
8.1874571741e-02 -1.1484314688e-02 1:-5.4737704992e-01 2:-6.9111210108e-01 3:5.6098049879e-01 4:-6.1140674353e-01 5:-8.1634658575e-01 6:-8.4012711048e-01 7:-4.6430212259e-01 8:-5.8916175365e-01 9:3.3288654685e-01 10:-1.7375001684e-02 11:-7.0332759619e-01 12:-2.9518121481e-01 13:3.2129833102e-01 14:-6.6776967049e-01 15:1.3752411306e-01 16:5.9638696909e-01 17:-5.6529045105e-01 18:4.9900898337e-01 19:7.6587057114e-01 20:5.2968120575e-01 21:-6.5497219563e-01 22:6.9123500586e-01 23:4.8233634233e-01 24:-9.9842615426e-02 25:-7.3379266262e-01 26:4.2861989141e-01 27:-6.1561435461e-01 28:-5.5627417564e-01 29:5.1126581430e-01 30:-6.5903711319e-01 31:4.9832266569e-01 32:5.6627064943e-01 33:4.7555309534e-01 34:3.6501693726e-01 35:-7.2007536888e-01 36:6.0669738054e-01 37:-4.8226788640e-01 38:6.0367029905e-01 39:-9.8546415567e-02 40:-2.2785836458e-01 41:2.9869997501e-01 42:-3.6673247814e-01 43:-2.1923679113e-01 44:-4.0014481544e-01 45:8.0541133881e-01 46:-3.0541542172e-01 47:-3.8405188918e-01 48:-6.8659925461e-01 49:2.1625967696e-02 50:-4.9139666557e-01 51:-8.3746343851e-01 52:-7.2891044617e-01 53:-5.9114968777e-01 54:-2.4877010286e-01 55:-6.6424155235e-01 56:-6.0420292616e-01 57:7.0968520641e-01 58:8.7923729420e-01 59:9.6382305026e-02 60:6.5975719690e-01 61:-3.2860693336e-01 62:7.7257484198e-01 63:-6.2781262398e-01 64:5.0730687380e-01 65:-3.3581036329e-01 66:-5.8602035046e-01 67:6.0517877340e-01 68:-5.2369785309e-01 69:8.4301024675e-01 70:4.5889681578e-01 71:7.7862888575e-01 72:-5.5896139145e-01 73:2.0355719328e-01 74:6.9856107235e-01 75:8.5189437866e-01 76:-9.8322021961e-01 77:-4.5872384310e-01 78:-3.9417645335e-01 79:4.3769791722e-01 80:-3.9308908582e-01 81:-4.8275586963e-01 82:-5.4834485054e-01 83:8.5250446573e-03 84:-1.2034956366e-01 85:2.1175454557e-01 86:7.7192741632e-01 87:7.0804119110e-01 88:-6.5143948793e-01 89:6.6609954834e-01 90:4.8613426089e-01 91:-6.6654616594e-01 92:-7.5004351139e-01 93:-3.2033413649e-01 94:2.3396013677e-01 95:3.7738609314e-01 96:5.5970215797e-01 97:-7.3745632172e-01 98:-5.8297377825e-01 99:7.6790964603e-01 100:-7.5313943624e-01 101:-6.4175760746e-01 102:4.0439873934e-01 103:-2.2193437815e-01 104:8.6419415474e-01 105:-6.7519134283e-01 106:8.0346179008e-01 107:2.6187714934e-01 108:-1.4746326208e-01 109:5.5724835396e-01 110:6.0369277000e-01 111:3.9241018891e-01 112:-4.4682496786e-01 113:-7.1016597748e-01 114:-6.8664687872e-01 115:2.5995594263e-01 116:-4.1548964381e-01 117:-5.3247427940e-01 118:1.0000000000e+00 119:-5.6397455931e-01 120:-5.5185385048e-02 121:-6.8099647760e-01 122:-4.2088684440e-01 123:-5.9130513668e-01 124:-4.1807496548e-01 125:2.5789687037e-01 126:5.2679061890e-01 127:6.2733501196e-01 128:-3.1061035395e-01 129:1.5561288595e-01 130:-3.7753742933e-01 131:-7.2255295515e-01 132:5.6292440742e-02 133:1.0000000000e+00 134:-5.0339621305e-01 135:1.1686985940e-01 136:2.3981246352e-01 137:-4.9078232050e-01 138:7.5088423491e-01 139:-1.2141187489e-01 140:-4.0800690651e-01 141:-5.0869852304e-02 142:-3.5669797659e-01 143:1.1036721617e-01 144:6.0649287701e-01 145:-4.6117615700e-01 146:-6.8480682373e-01 147:5.8058053255e-01 148:-7.9468029737e-01 149:-5.0017738342e-01 150:-7.3865985870e-01 151:5.8843862265e-02 152:7.2941106558e-01 153:1.9402730465e-01 154:-1.0000000000e+00 155:-3.0168932676e-01 156:3.2089203596e-01 157:-8.3498126268e-01 158:5.6010794640e-01 159:2.2976781428e-01 160:2.1349003911e-01 161:5.3754770756e-01 162:-2.7425265312e-01 163:2.7448296547e-01 164:3.1385475397e-01 165:-2.3503395915e-01 166:3.1983187795e-01 167:-8.5366868973e-01 168:8.0331635475e-01 169:-5.0107657909e-01 170:8.8540202379e-01 171:-2.5584232807e-01 172:-5.7441502810e-01 173:1.2385182828e-01 174:5.1223474741e-01 175:4.7962921858e-01 176:-6.0514289141e-01 177:5.5665934086e-01 178:6.5369117260e-01 179:-4.5472279191e-01 180:5.6675678492e-01 181:-6.0708636045e-01 182:-2.1298702061e-01 183:8.0937778950e-01 184:1.5733458102e-01 185:-2.8402993083e-01 186:4.0324363112e-01 187:6.5216404200e-01 188:-4.0450388193e-01 189:-6.6431945562e-01 190:3.6542078853e-01 191:7.7537700534e-02 192:6.2676477432e-01 193:5.2072370052e-01 194:3.0124321580e-01 195:-6.2773829699e-01 196:-8.1501138210e-01 197:7.7883964777e-01 198:-6.1126708984e-01 199:6.6938853264e-01 200:5.7392281294e-01 
1.5801657736e-01 -3.9516851306e-02 1:-7.5685393810e-01 2:2.6356145740e-01 3:5.0101828575e-01 4:-5.7497811317e-01 5:-5.8033680916e-01 6:-5.6617957354e-01 7:-7.9421877861e-02 8:-7.1562248468e-01 9:5.4538757540e-03 10:-6.9366693497e-02 11:-6.9581192732e-01 12:-4.0658232570e-01 13:5.0841581821e-01 14:-4.9595794082e-01 15:3.2480698824e-01 16:5.1244956255e-01 17:-7.8687375784e-01 18:1.6254387796e-01 19:9.7716122866e-02 20:2.1303518116e-01 21:-6.6357409954e-01 22:9.7530144453e-01 23:4.0690368414e-01 24:-3.3278334141e-01 25:-7.1673619747e-01 26:8.1336003542e-01 27:-3.8556876779e-01 28:-7.2082929313e-02 29:5.2783739567e-01 30:-4.9346888065e-01 31:-2.7280168608e-02 32:5.0068628788e-01 33:2.7272436023e-01 34:1.6607065499e-01 35:-6.6626626253e-01 36:6.6898804903e-01 37:-7.2615581751e-01 38:5.8944821358e-01 39:1.2312258035e-01 40:9.2541672289e-02 41:9.1582812369e-02 42:-5.4838156700e-01 43:-4.7909191251e-01 44:-5.2110308409e-01 45:3.3080536127e-01 46:-4.5810425282e-01 47:-6.4241570234e-01 48:-4.7631007433e-01 49:1.3008669019e-01 50:-4.8741629720e-01 51:-7.3562347889e-01 52:-7.1888923645e-01 53:-3.6260327697e-01 54:-3.6136645079e-01 55:-6.3207691908e-01 56:-8.5347789526e-01 57:7.7085310221e-01 58:8.2335811853e-01 59:1.7309473455e-01 60:7.9817390442e-01 61:-7.5781708956e-01 62:6.5302163363e-01 63:-5.1715981960e-01 64:7.7224934101e-01 65:-2.5637730956e-01 66:-4.7224494815e-01 67:7.1048969030e-01 68:-5.2924132347e-01 69:5.7603681087e-01 70:3.1662726402e-01 71:7.7814912796e-01 72:-5.4678744078e-01 73:-3.8632670045e-01 74:5.5395734310e-01 75:7.5899213552e-01 76:-5.4268407822e-01 77:-6.2695138156e-02 78:-3.7251681089e-01 79:4.9570643902e-01 80:-3.5447165370e-01 81:-6.2667584419e-01 82:-2.6159515977e-01 83:1.1940392852e-01 84:-4.8482915759e-01 85:1.4206600189e-01 86:8.3329731226e-01 87:6.4162963629e-01 88:-6.8559122086e-01 89:6.6971445084e-01 90:4.1255962849e-01 91:-7.0757204294e-01 92:-6.8137818575e-01 93:-6.5903747082e-01 94:-6.9744849205e-01 95:6.1522668600e-01 96:1.7779859900e-01 97:-7.7429854870e-01 98:-2.0330268145e-01 99:9.4299238920e-01 100:-3.4539097548e-01 101:-5.0596880913e-01 102:5.0507235527e-01 103:2.0594944060e-01 104:5.9039908648e-01 105:-7.6189047098e-01 106:4.5281976461e-01 107:7.3337519169e-01 108:-2.1457324922e-01 109:5.9052944183e-01 110:4.9535617232e-01 111:5.1387912035e-01 112:-1.0000000000e+00 113:-6.6132622957e-01 114:-4.7500646114e-01 115:-2.4184195325e-02 116:-6.8256795406e-01 117:-6.0409259796e-01 118:7.7834743261e-01 119:-5.4938858747e-01 120:-6.8001055717e-01 121:-5.8469372988e-01 122:-6.3021808863e-01 123:-6.1744195223e-01 124:-5.5851536989e-01 125:7.1326923370e-01 126:1.3947824016e-02 127:6.4064097404e-01 128:-6.0940682888e-01 129:-2.0226037502e-01 130:-5.0278025866e-01 131:-5.7139104605e-01 132:1.3498498499e-01 133:6.7060512304e-01 134:-7.8733801842e-01 135:-3.9759565145e-02 136:2.7261090279e-01 137:-6.9742721319e-01 138:6.5577650070e-01 139:-7.1263867617e-01 140:-2.4976050854e-01 141:-3.1631031632e-01 142:-5.0603985786e-01 143:-1.6168805957e-01 144:4.0175530314e-01 145:-5.5951911211e-01 146:-3.9693439007e-01 147:9.6986912191e-02 148:-5.7811063528e-01 149:-3.9779835939e-01 150:-7.4639618397e-01 151:-5.0247211009e-02 152:4.0602540970e-01 153:7.2315162420e-01 154:-8.0736708641e-01 155:-3.7535795569e-01 156:4.3792635202e-01 157:-7.6313692331e-01 158:7.0544999838e-01 159:1.1933697015e-01 160:4.3759310246e-01 161:4.6124222875e-01 162:-6.0854870081e-01 163:3.9860326052e-01 164:-5.2546614408e-01 165:2.1668662131e-01 166:2.7709296346e-01 167:-3.4498992562e-01 168:6.2314558029e-01 169:-5.8741801977e-01 170:8.5192245245e-01 171:1.9628833234e-01 172:-2.0746040344e-01 173:4.8214113712e-01 174:-6.3545279205e-02 175:1.1734234542e-01 176:-6.9758564234e-01 177:3.7551844120e-01 178:8.0356037617e-01 179:-9.5126807690e-01 180:2.6692196727e-01 181:-3.6383804679e-01 182:-6.4793890715e-01 183:7.5246638060e-01 184:1.9371297956e-01 185:-2.9404917359e-01 186:5.1060611010e-01 187:5.1866388321e-01 188:-4.6035268903e-01 189:-6.9943100214e-01 190:7.8443586826e-01 191:9.7204409540e-02 192:7.7621781826e-01 193:8.4434610605e-01 194:3.4261617064e-01 195:-2.0354989171e-01 196:-8.2541680336e-01 197:6.9579237700e-01 198:-4.4599419832e-01 199:8.3714705706e-01 200:3.2119393349e-01 
2.5230988860e-01 3.1370259821e-02 1:-7.8748160601e-01 2:-6.7827010155e-01 3:5.8805483580e-01 4:-7.0894438028e-01 5:-6.0913550854e-01 6:-6.5835171938e-01 7:-5.5385798216e-01 8:-6.7889094353e-01 9:3.2652807236e-01 10:-8.0105783418e-03 11:-7.9299348593e-01 12:-5.2367663383e-01 13:3.1732025743e-01 14:-5.4144048691e-01 15:1.3339734077e-01 16:3.9659315348e-01 17:-4.6516519785e-01 18:-1.8903961778e-01 19:1.0000000000e+00 20:2.0423780382e-01 21:-5.0322073698e-01 22:5.6470566988e-01 23:7.0192325115e-01 24:5.8119595051e-01 25:-6.6657966375e-01 26:5.1504695415e-01 27:-6.7288863659e-01 28:-2.5903385878e-01 29:4.7782295942e-01 30:-6.1377382278e-01 31:9.3947075307e-02 32:5.7416707277e-01 33:3.6477005482e-01 34:7.0103937387e-01 35:-9.4705986977e-01 36:7.4457293749e-01 37:-7.6734095812e-01 38:6.7494553328e-01 39:1.9475810230e-01 40:-8.0737060308e-01 41:4.8120748997e-01 42:-6.1092191935e-01 43:-5.4720902443e-01 44:-6.8885123730e-01 45:7.3554068804e-01 46:7.3968559504e-02 47:-2.9596233368e-01 48:-5.4970127344e-01 49:4.6553313732e-01 50:-5.2530920506e-01 51:-5.0674217939e-01 52:-8.5942667723e-01 53:-5.2316677570e-01 54:-6.7037445307e-01 55:-7.4490910769e-01 56:-7.3933708668e-01 57:6.9170582294e-01 58:5.5465060472e-01 59:4.9167301506e-02 60:7.4720948935e-01 61:-5.5213975906e-01 62:4.2667725682e-01 63:-2.9596060514e-01 64:5.6193423271e-01 65:-4.0057235956e-01 66:-4.8057943583e-01 67:5.7180279493e-01 68:-6.5755099058e-01 69:5.2959036827e-01 70:4.1186329722e-01 71:5.6078797579e-01 72:-6.5480285883e-01 73:-2.3438000679e-01 74:5.8948630095e-01 75:7.2625142336e-01 76:-7.4324810505e-01 77:1.4569142461e-01 78:-4.2872300744e-01 79:9.7398452461e-02 80:-4.0149086714e-01 81:-5.4816037416e-01 82:-2.5618898869e-01 83:7.2700977325e-01 84:-5.5619180202e-01 85:2.3313653469e-01 86:7.9555106163e-01 87:7.0363807678e-01 88:-5.6306445599e-01 89:2.6816961169e-01 90:3.1724569201e-01 91:-7.1828889847e-01 92:-8.6187529564e-01 93:-1.5475143492e-01 94:-5.8516180515e-01 95:3.3671292663e-01 96:5.3956025839e-01 97:-4.8601835966e-01 98:-4.1930171847e-01 99:4.4932460785e-01 100:-6.3748794794e-01 101:-4.3305379152e-01 102:3.3331853151e-01 103:-5.6659495831e-01 104:7.2024005651e-01 105:-6.7481625080e-01 106:5.7908445597e-01 107:-1.0608408600e-01 108:-4.7997820377e-01 109:3.2181122899e-01 110:7.3498713970e-01 111:5.2955371141e-01 112:-8.4679657221e-01 113:-7.5853782892e-01 114:-3.0975112319e-01 115:5.7188536972e-02 116:-7.4126920663e-03 117:-7.1668398380e-01 118:6.6335701942e-01 119:-6.8606287241e-01 120:-6.3424712420e-01 121:-8.7486219406e-01 122:-6.6775095463e-01 123:-6.9919288158e-01 124:-6.0018765926e-01 125:5.8548772335e-01 126:2.4102611840e-01 127:6.1745470762e-01 128:-5.5238318443e-01 129:-2.3648866918e-03 130:-1.8847037852e-01 131:-6.5875864029e-01 132:-5.9750932455e-01 133:2.7204510570e-01 134:-3.4614431858e-01 135:3.5196515918e-01 136:2.6788350195e-02 137:-7.1695303917e-01 138:6.5491533279e-01 139:-5.8202838898e-01 140:-8.0925703049e-01 141:-4.6008664370e-01 142:-5.3893351555e-01 143:-2.5449734926e-01 144:4.9955061078e-01 145:-5.4906052351e-01 146:-3.9956602454e-01 147:1.4881089330e-01 148:-8.2827252150e-01 149:-3.8876053691e-01 150:-5.4794967175e-01 151:1.1736776680e-01 152:6.3861322403e-01 153:4.7391688824e-01 154:-6.2647336721e-01 155:-6.1167693138e-01 156:5.2919030190e-01 157:-7.5451630354e-01 158:6.0784912109e-01 159:-5.9967260808e-02 160:4.1493305564e-01 161:3.2860511541e-01 162:-7.1174371243e-01 163:4.9083468318e-01 164:1.2120835483e-01 165:-3.7240815163e-01 166:-8.0317512155e-02 167:-4.2286169529e-01 168:6.7367684841e-01 169:-7.6947897673e-01 170:7.6660138369e-01 171:-4.0080055594e-01 172:-5.3671741486e-01 173:5.0020116568e-01 174:-1.4813552797e-01 175:2.4184140563e-01 176:-4.0039622784e-01 177:6.7055845261e-01 178:7.2285890579e-01 179:-1.9168330729e-01 180:6.4502900839e-01 181:-4.6221020818e-01 182:-2.9539790750e-01 183:6.9651901722e-01 184:4.2300045490e-01 185:-5.4935711622e-01 186:4.8930084705e-01 187:1.0000000000e+00 188:-1.6778711975e-01 189:-5.4591888189e-01 190:-2.0465849340e-01 191:5.3242021799e-01 192:9.1700512171e-01 193:6.4994192123e-01 194:7.2657310963e-01 195:7.4678070843e-02 196:-9.0951919556e-01 197:4.1425153613e-01 198:-6.0798591375e-01 199:8.7045335770e-01 200:3.3686730266e-01 
1.4647243544e-02 -1.8163323402e-02 1:-4.0315735340e-01 2:-5.6094807386e-01 3:7.4165928364e-01 4:-6.5937119722e-01 5:-6.6928285360e-01 6:-6.7724722624e-01 7:-2.3042362928e-01 8:-3.7373426557e-01 9:3.6524701864e-02 10:5.0619781017e-01 11:-7.8142166138e-01 12:-4.2974722385e-01 13:5.4247617722e-01 14:-8.1578540802e-01 15:2.0158316195e-01 16:5.3271687031e-01 17:-5.9999185801e-01 18:-4.1516485810e-01 19:4.9101299047e-01 20:4.0310060978e-01 21:-3.3094915748e-01 22:7.6940202713e-01 23:1.6244687140e-01 24:5.0625330210e-01 25:-6.8967705965e-01 26:5.2846890688e-01 27:-4.0874877572e-01 28:-3.8614770770e-01 29:4.0746492147e-01 30:-7.8854298592e-01 31:1.0105654597e-02 32:6.8942171335e-01 33:5.9446191788e-01 34:4.9307641387e-01 35:-6.8542796373e-01 36:8.0343270302e-01 37:-8.2965600491e-01 38:5.0425469875e-01 39:3.7155303359e-01 40:-6.0014450550e-01 41:1.5250928700e-01 42:-3.9532765746e-01 43:-3.0045941472e-01 44:-4.6503233910e-01 45:3.9383175969e-01 46:-4.1083768010e-02 47:-8.0805832148e-01 48:-6.5673112869e-01 49:3.3903467655e-01 50:-4.4831293821e-01 51:-4.3659675121e-01 52:-6.7152649164e-01 53:-3.2796162367e-01 54:-4.5475125313e-01 55:-7.8368091583e-01 56:-7.3201596737e-01 57:7.3268210888e-01 58:5.5703997612e-01 59:5.4728811979e-01 60:8.0981284380e-01 61:-5.3212440014e-01 62:5.1370984316e-01 63:-5.4004085064e-01 64:5.8965474367e-01 65:-4.4998782873e-01 66:-6.5151256323e-01 67:5.6290411949e-01 68:-5.5570161343e-01 69:8.1024891138e-01 70:4.5961964130e-01 71:7.1509420872e-01 72:-2.7275431156e-01 73:-6.9318389893e-01 74:6.6291564703e-01 75:6.6570335627e-01 76:-7.5757354498e-01 77:-4.5441535115e-01 78:-4.3687462807e-01 79:-6.3753718138e-01 80:-5.1388508081e-01 81:-6.9163435698e-01 82:5.7721797377e-02 83:1.9730508327e-02 84:-6.6591596603e-01 85:3.6621543765e-01 86:6.2790721655e-01 87:7.2919821739e-01 88:-3.6559194326e-01 89:4.3554887176e-01 90:6.2484389544e-01 91:-4.6713706851e-01 92:-5.5165880919e-01 93:-1.6501396894e-02 94:-3.4691897035e-01 95:5.7384300232e-01 96:1.5457260609e-01 97:-6.6758424044e-01 98:-6.6629618406e-01 99:8.4054106474e-01 100:-1.1986424774e-01 101:-4.4913145900e-01 102:5.9143429995e-01 103:-3.6113637034e-03 104:6.0241156816e-01 105:-6.0863792896e-01 106:6.0994148254e-01 107:1.9718632102e-01 108:-4.3277129531e-01 109:5.5636805296e-01 110:7.5115102530e-01 111:4.8715159297e-01 112:-5.5081278086e-01 113:-7.8915232420e-01 114:-3.5024333000e-01 115:4.8146995902e-01 116:-4.9839895964e-01 117:-9.2063736916e-01 118:5.5066901445e-01 119:-3.7466380000e-01 120:-1.8234346807e-01 121:-8.0646598339e-01 122:-1.7966230214e-01 123:-6.5369808674e-01 124:-6.7088621855e-01 125:6.6577011347e-01 126:1.9412446022e-01 127:4.5641866326e-01 128:-5.9783393145e-01 129:2.4475078285e-01 130:-7.4122287333e-02 131:-7.0884466171e-01 132:-1.1882056296e-01 133:4.9268510938e-01 134:-3.6550733447e-01 135:1.4433230460e-01 136:-3.5246372223e-02 137:-7.0958018303e-01 138:7.1720671654e-01 139:-4.7094729543e-01 140:-7.2261381149e-01 141:-4.4278293848e-01 142:-2.2555315495e-01 143:-8.0329024792e-01 144:4.0685373545e-01 145:-5.8581370115e-01 146:-3.3340528607e-01 147:-1.4069770277e-01 148:-5.7198828459e-01 149:-1.5109212697e-01 150:-8.0080616474e-01 151:4.8789390922e-01 152:7.5750583410e-01 153:6.6146713495e-01 154:-7.9919999838e-01 155:-5.2446156740e-01 156:4.1317781806e-01 157:-5.6224232912e-01 158:-4.4834684581e-02 159:-1.6532635316e-02 160:6.5606230497e-01 161:5.2394932508e-01 162:-6.6635233164e-01 163:3.0134752393e-02 164:-2.4234378338e-01 165:-3.0749374628e-01 166:5.2834945917e-01 167:-5.6061249971e-01 168:3.5267502069e-01 169:8.6838282645e-02 170:7.9252028465e-01 171:-8.4213018417e-01 172:-4.4629207253e-01 173:-7.8231483698e-02 174:5.3375077248e-01 175:4.5149773359e-02 176:-3.8091430068e-01 177:6.6079741716e-01 178:7.5093233585e-01 179:-7.4588882923e-01 180:8.6666834354e-01 181:-6.0233610868e-01 182:-2.2903452814e-01 183:7.8873610497e-01 184:4.3254587054e-01 185:-4.8047491908e-01 186:6.5465044975e-01 187:7.4431741238e-01 188:-4.0307617188e-01 189:-7.6263529062e-01 190:1.3858562708e-01 191:4.5690485835e-01 192:8.0917030573e-01 193:5.8061707020e-01 194:8.7140642107e-02 195:-3.2438611984e-01 196:-7.8056102991e-01 197:2.6793816686e-01 198:-4.5591026545e-01 199:7.3893314600e-01 200:4.4924005866e-02 
6.1430018395e-02 7.5030758977e-02 1:-6.9815003872e-01 2:3.4722384065e-02 3:6.1554455757e-01 4:-7.9467999935e-01 5:-3.1722548604e-01 6:-8.5380595922e-01 7:-1.5677987039e-01 8:-5.6013339758e-01 9:7.6379880309e-02 10:5.8430689573e-01 11:-7.4036312103e-01 12:-5.6763583422e-01 13:7.4435859919e-01 14:-6.2102639675e-01 15:6.1235245317e-02 16:5.7287824154e-01 17:-6.6664659977e-01 18:-4.7505018115e-01 19:2.2506070137e-01 20:2.5177124143e-01 21:-6.6381120682e-01 22:6.8086355925e-01 23:2.0213963091e-01 24:-1.2411817908e-01 25:-6.9853335619e-01 26:7.5979679823e-01 27:-6.4146095514e-01 28:-4.2942908406e-01 29:5.6737011671e-01 30:-5.2306914330e-01 31:2.8705260158e-01 32:6.8000745773e-01 33:3.1924721599e-01 34:6.4861333370e-01 35:-7.0737177134e-01 36:6.3013237715e-01 37:-7.6407963037e-01 38:7.0263707638e-01 39:-7.2717957199e-02 40:-5.9455907345e-01 41:-6.1482008547e-02 42:-4.3949326873e-01 43:-6.8022876978e-01 44:-6.7149597406e-01 45:3.9001449943e-01 46:-1.9982323050e-01 47:-5.2869755030e-01 48:-1.0000000000e+00 49:7.2692447901e-01 50:-3.2900145650e-01 51:-5.0298440456e-01 52:-6.6501045227e-01 53:-5.9127914906e-01 54:-4.2955020070e-01 55:-7.1723669767e-01 56:-6.1242920160e-01 57:8.1145155430e-01 58:7.8798633814e-01 59:5.7882070541e-01 60:7.0552998781e-01 61:-4.8334234953e-01 62:4.5919442177e-01 63:-7.5497257710e-01 64:4.4734734297e-01 65:-2.4519135058e-01 66:-5.3001552820e-01 67:7.7075743675e-01 68:-8.0246418715e-01 69:5.9636825323e-01 70:9.7937780619e-01 71:5.7289642096e-01 72:-5.1692175865e-01 73:6.6261753440e-02 74:6.4143937826e-01 75:9.0642660856e-01 76:-8.3239775896e-01 77:-4.9487566575e-03 78:-3.6286106706e-01 79:-2.0227625966e-01 80:-1.1632293463e-01 81:-4.6187323332e-01 82:-2.6906862855e-01 83:2.0003992319e-01 84:-3.7937894464e-01 85:-3.5445982218e-01 86:7.6517641544e-01 87:7.3000931740e-01 88:-3.9407306910e-01 89:4.5858305693e-01 90:5.0675350428e-01 91:-4.7424134612e-01 92:-7.3505872488e-01 93:-3.4952443838e-01 94:-2.6389077306e-01 95:4.6156013012e-01 96:3.0784952641e-01 97:-6.5483450890e-01 98:-8.7348240614e-01 99:8.4437656403e-01 100:-7.6541060209e-01 101:-7.4808758497e-01 102:7.5621330738e-01 103:-4.4325772673e-02 104:6.4023613930e-01 105:-7.3730111122e-01 106:4.6688532829e-01 107:3.4824082255e-01 108:-3.0034655333e-01 109:5.8986705542e-01 110:5.2637922764e-01 111:5.7817059755e-01 112:-4.0030908585e-01 113:-7.6931566000e-01 114:-4.3220496178e-01 115:8.8704913855e-02 116:-4.0687596798e-01 117:-6.5916907787e-01 118:5.1648777723e-01 119:-3.7792468071e-01 120:-3.3820697665e-01 121:-5.7269120216e-01 122:-6.3502579927e-01 123:-7.8791993856e-01 124:-4.7093015909e-01 125:5.9289383888e-01 126:5.6858181953e-01 127:6.1648684740e-01 128:-5.6508088112e-01 129:1.5030598640e-01 130:-4.3492415547e-01 131:-7.6672899723e-01 132:7.7706500888e-02 133:3.8620716333e-01 134:-1.6810758412e-01 135:8.5818685591e-02 136:7.0476520061e-01 137:-4.3428599834e-01 138:8.4081751108e-01 139:-5.7428580523e-01 140:-3.8761508465e-01 141:-2.9609131813e-01 142:-8.6536549032e-02 143:-4.7542607784e-01 144:5.2005285025e-01 145:-7.6921039820e-01 146:-2.2068017721e-01 147:6.5379726887e-01 148:-9.2724174261e-01 149:-4.3113076687e-01 150:-1.0000000000e+00 151:8.9951224625e-02 152:4.1793167591e-01 153:5.1453578472e-01 154:-7.1773272753e-01 155:-4.7534489632e-01 156:7.4928337336e-01 157:-7.6764786243e-01 158:-5.3845006973e-02 159:3.0707418919e-01 160:5.8799713850e-01 161:4.3181380630e-01 162:-3.9097741246e-01 163:4.7393307090e-01 164:2.1354216337e-01 165:-1.1926445365e-01 166:6.2506997585e-01 167:-1.0356699675e-01 168:6.4222383499e-01 169:-8.3635592461e-01 170:6.3651204109e-01 171:-3.8484624028e-01 172:-4.3674215674e-01 173:3.7449026108e-01 174:9.9514894187e-02 175:-8.9554302394e-02 176:-5.7643330097e-01 177:5.9179168940e-01 178:5.6614977121e-01 179:-3.6743006110e-01 180:5.2705687284e-01 181:-3.4934106469e-01 182:-2.3648554087e-01 183:7.3176807165e-01 184:4.5682895184e-01 185:-7.7931737900e-01 186:5.7112979889e-01 187:8.5045355558e-01 188:-5.3983759880e-01 189:-4.9254083633e-01 190:2.5845754147e-01 191:-1.6877485812e-01 192:7.9742616415e-01 193:8.0272144079e-01 194:7.0627355576e-01 195:-6.1483383179e-01 196:-6.5148091316e-01 197:7.6405298710e-01 198:-4.5853269100e-01 199:6.7636924982e-01 200:3.7282353640e-01 
2.5263113901e-02 1.7618609592e-02 1:-5.1895695925e-01 2:-3.8680365682e-01 3:5.7826590538e-01 4:-4.4701260328e-01 5:-4.6920850873e-01 6:-7.8823161125e-01 7:-6.0772126913e-01 8:-2.8830537200e-01 9:-3.2809197903e-01 10:1.0891799815e-02 11:-7.4055522680e-01 12:-6.0345542431e-01 13:-3.8031313568e-02 14:-6.4090228081e-01 15:3.5559305549e-01 16:9.1301429272e-01 17:-2.0586185157e-01 18:-3.1520459056e-01 19:3.8823798299e-01 20:-2.4283705652e-01 21:-3.9120310545e-01 22:5.7128244638e-01 23:5.3621375561e-01 24:1.8103327602e-02 25:-6.9590783119e-01 26:7.7263659239e-01 27:-9.8201525211e-01 28:-1.9935083389e-01 29:4.1240572929e-01 30:-5.3095787764e-01 31:-2.9271784425e-01 32:4.3128666282e-01 33:4.7693800926e-01 34:4.5749703050e-01 35:-6.8965351582e-01 36:6.9854134321e-01 37:-6.8416845798e-01 38:5.2978003025e-01 39:-1.5852706134e-01 40:-2.1257990599e-01 41:6.7436677217e-01 42:-3.0931761861e-01 43:-4.0280580521e-01 44:-5.3651285172e-01 45:6.2467974424e-01 46:5.5269654840e-02 47:-3.5167914629e-01 48:-4.4718825817e-01 49:3.7226065993e-01 50:-3.8138967752e-01 51:-8.0013704300e-01 52:-6.2924033403e-01 53:-5.5429351330e-01 54:-2.9345500469e-01 55:-6.4574462175e-01 56:-6.2642204762e-01 57:8.3997339010e-01 58:1.0000000000e+00 59:-4.2850226164e-01 60:7.2557663918e-01 61:-2.3058064282e-01 62:4.8179882765e-01 63:-8.4812152386e-01 64:4.2169627547e-01 65:-9.3078255653e-01 66:-5.1872837543e-01 67:5.8547413349e-01 68:-4.4483932853e-01 69:7.3602974415e-01 70:3.8085037470e-01 71:5.4661989212e-01 72:-1.6604514420e-01 73:-1.7687527835e-01 74:6.0018241405e-01 75:5.3392821550e-01 76:-6.2447100878e-01 77:-6.3185882568e-01 78:-1.8434230983e-01 79:2.0940797403e-02 80:-7.2552406788e-01 81:-7.7004182339e-01 82:-4.4896486402e-01 83:3.3848863840e-01 84:-8.0211955309e-01 85:2.0289441943e-01 86:7.6142776012e-01 87:4.9757626653e-01 88:-6.6388922930e-01 89:6.9179308414e-01 90:2.6336619258e-01 91:-6.7605847120e-01 92:-5.5602109432e-01 93:-8.9433602989e-02 94:-5.1857280731e-01 95:5.5926752090e-01 96:4.7777354717e-01 97:-7.5267100334e-01 98:-2.6304247975e-01 99:8.1097811460e-01 100:-3.4516826272e-01 101:-5.9777414799e-01 102:5.8213007450e-01 103:-4.5442163944e-01 104:6.7278444767e-01 105:-7.0889532566e-01 106:4.8804640770e-01 107:4.9765214324e-01 108:-2.2137930617e-02 109:2.5851705670e-01 110:6.7741870880e-01 111:3.9992174506e-01 112:-3.8374170661e-01 113:-5.5615997314e-01 114:-4.4248655438e-01 115:1.3103261590e-02 116:-5.4944169521e-01 117:-7.7112507820e-01 118:6.8814915419e-01 119:-3.9395532012e-01 120:-1.7900606990e-01 121:-6.7627382278e-01 122:-3.6729341745e-01 123:-6.0364252329e-01 124:-5.6095939875e-01 125:7.5815355778e-01 126:7.0184814930e-01 127:4.4243761897e-01 128:-6.3701593876e-01 129:2.9528126121e-01 130:-8.2011336088e-01 131:-8.1552755833e-01 132:-3.2737043500e-01 133:4.2690098286e-01 134:-5.2864217758e-01 135:-1.4844118059e-01 136:-1.4739494026e-01 137:-5.1540297270e-01 138:5.2107489109e-01 139:-6.6670823097e-01 140:-5.8667337894e-01 141:-7.0072066784e-01 142:-8.0998635292e-01 143:-4.7605684400e-01 144:2.4417501688e-01 145:-5.5198860168e-01 146:-2.5121459365e-01 147:2.9778340459e-01 148:-4.3732675910e-01 149:-1.7048455775e-01 150:-8.0930233002e-01 151:-1.2751851976e-01 152:4.2501899600e-01 153:6.4769124985e-01 154:-8.9116472006e-01 155:-4.7551515698e-01 156:5.3790444136e-01 157:-8.3097428083e-01 158:3.7536421418e-01 159:9.5359116793e-01 160:4.2298692465e-01 161:4.3408831954e-01 162:-7.6657742262e-01 163:1.2000226974e-01 164:-6.1435925961e-01 165:9.5192229748e-01 166:5.3721505404e-01 167:-4.7580781579e-01 168:7.5799745321e-01 169:-6.2459111214e-01 170:8.3490586281e-01 171:-4.1072848439e-01 172:-6.4532631636e-01 173:1.2320826761e-02 174:5.4440557957e-01 175:-1.2790682912e-01 176:-6.7791640759e-01 177:5.6539887190e-01 178:6.7090094090e-01 179:-8.0479174852e-01 180:3.6572134495e-01 181:-6.8026411533e-01 182:-2.0751254261e-01 183:7.3264664412e-01 184:4.8559165001e-01 185:-7.9447788000e-01 186:9.4013595581e-01 187:8.5012799501e-01 188:-5.5050015450e-01 189:-8.9235305786e-01 190:1.8277196586e-01 191:3.3332002163e-01 192:8.5445857048e-01 193:7.3061949015e-01 194:3.8434329629e-01 195:-5.6207660586e-02 196:-6.6850048304e-01 197:6.0755348206e-01 198:-1.9642983377e-01 199:8.4888362885e-01 200:4.4722837210e-01 
1.0636555403e-01 -2.3138364777e-02 1:-3.3183974028e-01 2:-1.0944636166e-01 3:5.3539872169e-01 4:-8.6678576469e-01 5:-8.9657598734e-01 6:-7.2991210222e-01 7:-7.3930329084e-01 8:-5.7243156433e-01 9:-5.6376248598e-02 10:2.8403980657e-02 11:-7.0280808210e-01 12:-9.4218842685e-02 13:4.6550351381e-01 14:-4.7759419680e-01 15:5.5786770582e-01 16:5.4874628782e-01 17:-5.5298811197e-01 18:-4.1544282436e-01 19:5.0295829773e-01 20:2.3297204077e-01 21:-2.2683572769e-01 22:5.5501794815e-01 23:2.6187393069e-01 24:1.4675199986e-01 25:-4.9104741216e-01 26:7.4267023802e-01 27:-7.8559994698e-01 28:-4.9050071836e-01 29:4.6446144581e-01 30:-5.8220356703e-01 31:6.4956836402e-02 32:4.4375839829e-01 33:6.3678050041e-01 34:1.8525201082e-01 35:-7.2551351786e-01 36:6.6901564598e-01 37:-7.3667198420e-01 38:7.5466752052e-01 39:9.0475268662e-02 40:-6.1181563139e-01 41:2.3712728918e-01 42:-4.7180527449e-01 43:-3.0304363370e-01 44:-5.6603085995e-01 45:5.8405977488e-01 46:1.0907788575e-01 47:-6.1769092083e-01 48:-6.7384690046e-01 49:-1.2217716128e-01 50:-4.9015557766e-01 51:-4.8624664545e-01 52:-7.2134852409e-01 53:-4.5300212502e-01 54:-4.4661387801e-01 55:-6.4098536968e-01 56:-5.7282680273e-01 57:8.3436071873e-01 58:6.9035887718e-01 59:-3.3960908651e-01 60:7.3604297638e-01 61:-5.9368240833e-01 62:4.1224232316e-01 63:-6.2649744749e-01 64:9.6038155258e-02 65:-5.0758922100e-01 66:-5.7028496265e-01 67:6.2324029207e-01 68:-3.7705492973e-01 69:7.2253733873e-01 70:3.4801065922e-01 71:7.0397979021e-01 72:-2.1744479239e-01 73:5.7667553425e-01 74:5.5114299059e-01 75:9.1177701950e-01 76:-7.1549212933e-01 77:-1.1307717301e-02 78:-2.2837828100e-01 79:6.7163461447e-01 80:-3.4508600831e-01 81:-2.8029489517e-01 82:-4.6432551742e-01 83:-2.7407011390e-01 84:-5.6028491259e-01 85:1.6979627311e-01 86:8.8452017307e-01 87:7.2937577963e-01 88:-5.5393034220e-01 89:5.2603983879e-01 90:6.2652122974e-01 91:-4.9565112591e-01 92:-7.1346479654e-01 93:1.6152543947e-02 94:9.1265016794e-01 95:6.1061555147e-01 96:-3.2464042306e-02 97:-6.3052421808e-01 98:1.1002712883e-02 99:8.5049146414e-01 100:-3.2370105386e-01 101:-1.0000000000e+00 102:3.1206214428e-01 103:9.5011107624e-02 104:6.6519528627e-01 105:-6.0717475414e-01 106:5.1792246103e-01 107:-9.0214706957e-02 108:-1.4093635976e-01 109:3.0859380960e-01 110:7.4903815985e-01 111:5.2699905634e-01 112:-6.0056179762e-01 113:-1.0000000000e+00 114:-5.5774283409e-01 115:-9.6784639359e-01 116:-1.1772949994e-01 117:-7.7371054888e-01 118:6.2935715914e-01 119:-4.7654008865e-01 120:-4.5825779438e-01 121:-5.4344880581e-01 122:-7.2178822756e-01 123:-7.4381685257e-01 124:-5.1038080454e-01 125:6.6780859232e-01 126:4.4958192110e-01 127:6.1829268932e-01 128:-4.7352281213e-01 129:-1.5782764181e-02 130:-4.8168176413e-01 131:-6.4538305998e-01 132:-3.0481579900e-01 133:5.5124789476e-01 134:-3.4779715538e-01 135:5.8169703931e-02 136:4.5475062728e-01 137:-6.2525993586e-01 138:5.1070666313e-01 139:-5.4918378592e-01 140:-1.7691583931e-01 141:-3.4585556388e-01 142:-9.0115702152e-01 143:-5.4701256752e-01 144:5.7836610079e-01 145:-6.0891681910e-01 146:-4.9393084645e-01 147:-9.7994908690e-02 148:-7.5644218922e-01 149:-5.1553332806e-01 150:-7.7198678255e-01 151:2.6267799735e-01 152:5.8774709702e-01 153:6.3543355465e-01 154:-8.7973058224e-01 155:-6.9597637653e-01 156:6.9275927544e-01 157:-7.9342806339e-01 158:6.5568315983e-01 159:5.9334492683e-01 160:5.3622937202e-01 161:2.1638846397e-01 162:-4.8589283228e-01 163:4.7760862112e-01 164:2.2819039226e-01 165:4.3168731034e-02 166:1.2939561903e-01 167:-3.6542057991e-01 168:4.0635883808e-01 169:-5.2092260122e-01 170:6.2011790276e-01 171:2.2687826306e-02 172:-5.6738656759e-01 173:-1.3253188133e-01 174:7.4673420191e-01 175:-6.8592451513e-02 176:-7.8049993515e-01 177:7.9332578182e-01 178:6.2386029959e-01 179:-6.6367536783e-01 180:4.2450404167e-01 181:-5.6580674648e-01 182:-6.7590028048e-01 183:6.9636905193e-01 184:-8.1213004887e-03 185:-4.5762231946e-01 186:5.1004427671e-01 187:6.4144021273e-01 188:-3.5406222939e-01 189:-6.4165246487e-01 190:-1.3073842227e-01 191:7.2400659323e-01 192:7.8700554371e-01 193:7.4865174294e-01 194:4.9579349160e-01 195:1.2429334223e-01 196:-9.1275423765e-01 197:5.4183101654e-01 198:-4.1135609150e-01 199:7.3043054342e-01 200:-7.9986505210e-02 
1.0595153272e-01 -1.3760766014e-02 1:-4.6445548534e-01 2:-2.9772577807e-02 3:4.2488253117e-01 4:-7.1540236473e-01 5:-7.6735830307e-01 6:-7.6095551252e-01 7:-3.7929943204e-01 8:-4.1470992565e-01 9:-1.6355055571e-01 10:-7.8507024050e-01 11:-6.7315220833e-01 12:-5.3228402138e-01 13:4.4720336795e-01 14:-6.5562021732e-01 15:-3.4769836813e-02 16:5.5098688602e-01 17:-9.0044170618e-01 18:-2.5183150545e-02 19:1.2142895907e-01 20:4.5704674721e-01 21:-6.4539659023e-01 22:5.5720752478e-01 23:2.9810446501e-01 24:6.1838626862e-01 25:-8.0755609274e-01 26:9.2941462994e-01 27:-7.3544704914e-01 28:-5.9726566076e-01 29:6.2358236313e-01 30:-3.2041350007e-01 31:2.7538880706e-01 32:4.0667879581e-01 33:6.4220970869e-01 34:3.4386998415e-01 35:-6.8191659451e-01 36:7.0759397745e-01 37:-6.6977149248e-01 38:4.8700365424e-01 39:-2.4491943419e-01 40:-1.5232974291e-01 41:5.3084516525e-01 42:-5.9494888783e-01 43:-4.5832094550e-01 44:-5.8312970400e-01 45:1.1213590205e-01 46:-1.3714925945e-01 47:-7.3863869905e-01 48:-7.8577679396e-01 49:8.4494829178e-02 50:-3.1978425384e-01 51:-6.0616582632e-01 52:-7.4657595158e-01 53:-5.7561725378e-01 54:-4.2983204126e-01 55:-5.2866035700e-01 56:-6.5704309940e-01 57:6.9355076551e-01 58:2.6323425770e-01 59:2.7624234557e-02 60:8.2903409004e-01 61:-9.5422334969e-02 62:6.0565644503e-01 63:-4.0406388044e-01 64:4.0961432457e-01 65:-5.4065430164e-01 66:-3.9894258976e-01 67:7.4481493235e-01 68:-6.7327672243e-01 69:5.8073323965e-01 70:2.8856897354e-01 71:6.5727317333e-01 72:-4.0763530880e-02 73:-7.1461653709e-01 74:4.7258186340e-01 75:9.7252631187e-01 76:-8.6153388023e-01 77:-1.9214239717e-01 78:-6.5010821819e-01 79:-2.5637644529e-01 80:-5.9147703648e-01 81:-9.6683424711e-01 82:-5.2738684416e-01 83:1.0225358605e-01 84:-4.0135517716e-01 85:-1.8116670847e-01 86:6.9218480587e-01 87:5.5961126089e-01 88:-5.3734749556e-01 89:5.7262343168e-01 90:6.1943620443e-01 91:-5.6226652861e-01 92:-5.9846985340e-01 93:-2.6374635100e-01 94:-4.1386169195e-01 95:4.4786405563e-01 96:5.3769928217e-01 97:-8.1739813089e-01 98:-5.5598628521e-01 99:8.8139337301e-01 100:-6.1170732975e-01 101:-3.0084142089e-01 102:5.1434874535e-01 103:-2.9864838719e-01 104:3.9035111666e-01 105:-2.5184476376e-01 106:5.4734462500e-01 107:7.0360243320e-01 108:-4.4068369269e-01 109:7.4586403370e-01 110:5.9319698811e-01 111:4.3064334989e-01 112:-6.6053175926e-01 113:-7.2068178654e-01 114:-4.4330489635e-01 115:-1.1647789180e-01 116:-6.2447786331e-01 117:-8.0187523365e-01 118:8.4468829632e-01 119:-4.3097135425e-01 120:-1.9923716784e-01 121:-6.7228955030e-01 122:-3.8869440556e-01 123:-8.4272056818e-01 124:-7.2855162621e-01 125:6.4379352331e-01 126:-3.1285136938e-02 127:4.5410698652e-01 128:-8.1619989872e-01 129:5.8715003543e-03 130:-4.0264195204e-01 131:-7.6058238745e-01 132:-2.2091776133e-01 133:6.0067099333e-01 134:-1.3275489211e-01 135:5.0855535269e-01 136:2.9733264446e-01 137:-7.5300002098e-01 138:7.7571493387e-01 139:-3.6868670583e-01 140:-1.6112877429e-01 141:-2.4577850476e-02 142:-4.2996361852e-01 143:-3.7473160028e-01 144:4.8699852824e-01 145:-6.3861984015e-01 146:-3.9357089996e-01 147:3.6498805881e-01 148:-4.3886846304e-01 149:-6.2526583672e-01 150:-6.9362533092e-01 151:4.6889102459e-01 152:5.0523138046e-01 153:4.0093773603e-01 154:-7.1097809076e-01 155:-4.6863886714e-01 156:5.9778374434e-01 157:-8.3547675610e-01 158:3.3067291975e-01 159:4.7052600980e-01 160:2.8885892034e-01 161:3.5464599729e-01 162:-4.6608737111e-01 163:4.1622474790e-01 164:2.7118411381e-03 165:-2.8584712744e-01 166:6.3938933611e-01 167:-9.3948346376e-01 168:2.7180248499e-01 169:-4.0637648106e-01 170:4.4581264257e-01 171:-2.6900646091e-01 172:-3.9901411533e-01 173:1.5680043399e-01 174:-4.4348288327e-02 175:-4.4681830332e-03 176:-7.0019257069e-01 177:6.0320210457e-01 178:7.1703416109e-01 179:-5.9300380945e-01 180:4.9741151929e-01 181:-7.0562756062e-01 182:-2.1082469821e-01 183:8.2527303696e-01 184:3.6212444305e-01 185:-6.4119702578e-01 186:6.8898683786e-01 187:7.1166706085e-01 188:-3.1766995788e-01 189:-7.2996658087e-01 190:5.8587748557e-02 191:1.9562913477e-01 192:5.8213120699e-01 193:7.5731241703e-01 194:2.9879796505e-01 195:-5.4226618260e-02 196:-8.9165288210e-01 197:7.2473913431e-01 198:-4.2429551482e-01 199:8.3228999376e-01 200:4.2439341545e-01 
-2.0860426128e-01 4.2847201228e-02 1:-6.4265024662e-01 2:-3.2654348016e-01 3:5.3804922104e-01 4:-9.3371814489e-01 5:-6.5348452330e-01 6:-9.2815262079e-01 7:-5.6758955121e-02 8:-5.1597744226e-01 9:4.0692213178e-01 10:-1.3660158217e-01 11:-8.5771876574e-01 12:-1.9383431971e-01 13:2.1618318558e-01 14:-9.1058301926e-01 15:3.0328126624e-02 16:6.9221377373e-01 17:-3.3316725492e-01 18:-7.3969250917e-01 19:3.6483025551e-01 20:4.6109563112e-01 21:-5.7749158144e-01 22:7.5589281321e-01 23:5.4272372276e-02 24:7.0216292143e-01 25:-4.6733099222e-01 26:7.0461612940e-01 27:-6.2477850914e-01 28:-2.1426615119e-01 29:3.2803696394e-01 30:-5.6014668941e-01 31:3.5975250602e-01 32:8.9273422956e-01 33:3.5769188404e-01 34:7.4208420515e-01 35:-8.2911080122e-01 36:6.5293860435e-01 37:-7.8506183624e-01 38:6.1961448193e-01 39:-5.4085528851e-01 40:-1.6104751825e-01 41:1.4024852216e-01 42:-4.3792736530e-01 43:-5.2512347698e-01 44:-5.1628434658e-01 45:6.4575034380e-01 46:-5.7357609272e-01 47:-8.0304598808e-01 48:-7.5309789181e-01 49:7.3671519756e-01 50:-4.2028337717e-01 51:-8.7189906836e-01 52:-8.0835258961e-01 53:-9.1722249985e-01 54:-3.2715913653e-01 55:-7.1312826872e-01 56:-5.8436244726e-01 57:7.5813567638e-01 58:7.1140235662e-01 59:1.6416893899e-01 60:7.1433395147e-01 61:-7.7254509926e-01 62:4.6964663267e-01 63:-7.1868449450e-01 64:3.0943965912e-01 65:-5.7045114040e-01 66:-7.0931345224e-01 67:7.2085398436e-01 68:-4.9086204171e-01 69:4.2474946380e-01 70:4.4039776921e-01 71:7.3449575901e-01 72:-2.9875230789e-01 73:-8.5720777512e-01 74:6.6075295210e-01 75:8.3108806610e-01 76:-6.2365126610e-01 77:-1.8800897896e-01 78:-6.1361533403e-01 79:7.4854546785e-01 80:-4.5241567492e-01 81:-5.1167720556e-01 82:-1.7124004662e-01 83:2.2997519001e-02 84:-5.4471284151e-01 85:3.0144652724e-01 86:6.2593150139e-01 87:7.6416862011e-01 88:-5.4006451368e-01 89:3.8648405671e-01 90:2.5456514955e-01 91:-6.1831945181e-01 92:-7.6232051849e-01 93:-5.1420819759e-01 94:-3.3261990547e-01 95:3.8922452927e-01 96:6.2241530418e-01 97:-4.1752055287e-01 98:-6.8689566851e-01 99:7.2499376535e-01 100:-2.3865102232e-01 101:-6.2702310085e-01 102:9.1424107552e-01 103:2.6248982549e-01 104:7.5827318430e-01 105:-6.2838971615e-01 106:4.3640822172e-01 107:1.0066347569e-01 108:-1.1722245812e-01 109:2.2815349698e-01 110:5.4524320364e-01 111:5.3303080797e-01 112:-4.9614304304e-01 113:-7.1085488796e-01 114:-4.5197600126e-01 115:5.2397590876e-01 116:-6.2531000376e-01 117:-5.2195918560e-01 118:7.8100979328e-01 119:-9.2721468210e-01 120:-5.2516019344e-01 121:-5.6777006388e-01 122:-6.1344003677e-01 123:-4.8068872094e-01 124:-3.9668199420e-01 125:5.1444166899e-01 126:9.7444795072e-02 127:4.6586170793e-01 128:-5.2783310413e-01 129:3.7957593799e-01 130:-2.3353631794e-01 131:-8.3509820700e-01 132:4.4108484872e-04 133:6.0821825266e-01 134:-7.5632579625e-02 135:4.8686140776e-01 136:-2.6473522186e-01 137:-5.7084327936e-01 138:5.9680432081e-01 139:-4.5088702440e-01 140:-3.0697384477e-01 141:-4.6042397618e-01 142:-5.6449759752e-02 143:-4.6465662122e-01 144:4.8319271207e-01 145:-5.5731707811e-01 146:-1.9014899433e-01 147:5.7366883755e-01 148:-3.1404286623e-01 149:-5.6920063496e-01 150:-6.9607037306e-01 151:-3.3356553316e-01 152:4.3234285712e-01 153:5.4510927200e-01 154:-8.3893960714e-01 155:-4.4991341233e-01 156:6.2799817324e-01 157:-6.9575452805e-01 158:4.3869820237e-01 159:3.0988776684e-01 160:4.3588078022e-01 161:4.0548536181e-01 162:-6.6798466444e-01 163:3.1392490864e-01 164:3.6295625567e-01 165:2.1346522868e-01 166:1.4848811924e-01 167:-5.5001527071e-01 168:3.6367726326e-01 169:-7.0216774940e-01 170:7.3934495449e-01 171:-3.2366329432e-01 172:-2.8582143784e-01 173:3.3063124865e-02 174:4.7679868340e-01 175:-1.0020633228e-02 176:-7.1559053659e-01 177:1.0000000000e+00 178:7.5056940317e-01 179:-8.6315619946e-01 180:5.1329684258e-01 181:-6.3925665617e-01 182:-6.6829973459e-01 183:8.8818168640e-01 184:7.1554988623e-01 185:-1.6090767086e-01 186:4.4266375899e-01 187:5.7771044970e-01 188:-5.3380841017e-01 189:-6.2563729286e-01 190:5.0088405609e-02 191:3.0148383975e-01 192:8.7448483706e-01 193:4.8873645067e-01 194:4.8502808809e-01 195:-9.0485316515e-01 196:-8.9392614365e-01 197:3.7807729840e-01 198:-4.7361895442e-01 199:8.0228632689e-01 200:2.7876064181e-01 
3.1290292740e-01 -1.9125239924e-02 1:-6.9394505024e-01 2:-6.0092908144e-01 3:6.9483995438e-01 4:-7.6814043522e-01 5:-7.3286646605e-01 6:-5.9420394897e-01 7:-2.8689438105e-01 8:-6.9602763653e-01 9:6.8622954190e-02 10:4.7491082549e-01 11:-5.7947224379e-01 12:-3.8280087709e-01 13:4.8155823350e-01 14:-7.2942113876e-01 15:2.1648919582e-01 16:5.9068363905e-01 17:-2.2713066638e-01 18:-4.6026402712e-01 19:6.9012671709e-01 20:6.3670021482e-03 21:-6.1740124226e-01 22:8.1076961756e-01 23:5.3821724653e-01 24:-4.8720654100e-02 25:-9.0283566713e-01 26:7.7478230000e-01 27:-7.9446953535e-01 28:-5.4038190842e-01 29:7.5082761049e-01 30:-6.7459386587e-01 31:5.3447312117e-01 32:3.8960298896e-01 33:7.7079606056e-01 34:3.8428860903e-01 35:-6.1318945885e-01 36:8.1558221579e-01 37:-7.1816045046e-01 38:5.4336470366e-01 39:-4.5426088572e-01 40:-4.4927030802e-01 41:1.5293179452e-01 42:-7.2715079784e-01 43:-3.4988474101e-02 44:-5.6007653475e-01 45:5.3731805086e-01 46:-3.0873975158e-01 47:-2.3258988559e-01 48:-6.8683147430e-01 49:2.5250993669e-02 50:-2.0230042934e-01 51:-6.2594032288e-01 52:-8.1260108948e-01 53:-3.8573491573e-01 54:-1.8984183669e-01 55:-7.5137084723e-01 56:-5.2835452557e-01 57:6.9917958975e-01 58:8.4029513597e-01 59:3.7610206008e-01 60:6.7899316549e-01 61:-3.2326814532e-01 62:7.0667970181e-01 63:-4.7760096192e-01 64:2.7311456203e-01 65:-6.7173987627e-01 66:-5.3375816345e-01 67:8.6878007650e-01 68:-6.1370527744e-01 69:6.6670250893e-01 70:7.1082025766e-01 71:7.6602458954e-01 72:3.6686873063e-03 73:-3.0399927497e-01 74:6.1486434937e-01 75:9.5455098152e-01 76:-8.0910187960e-01 77:-1.5425021946e-01 78:2.0673328638e-01 79:7.6754592359e-02 80:-3.7987723947e-01 81:-7.1779572964e-01 82:-3.9747753739e-01 83:2.5607392192e-01 84:-3.0257898569e-01 85:3.2716462016e-01 86:6.1923176050e-01 87:7.8591328859e-01 88:-5.5461579561e-01 89:4.9751228094e-01 90:5.3216707706e-01 91:-5.7392042875e-01 92:-6.6991877556e-01 93:-5.4902195930e-01 94:4.0015017986e-01 95:5.0785452127e-01 96:6.5644048154e-02 97:-5.8386725187e-01 98:-4.2127308249e-01 99:7.8932803869e-01 100:-4.3319272995e-01 101:-6.9469910860e-01 102:6.8397021294e-01 103:7.4927955866e-01 104:5.8850067854e-01 105:-6.6940784454e-01 106:3.5963886976e-01 107:2.2080968320e-01 108:-3.3433324099e-01 109:4.8387527466e-01 110:2.6224794984e-01 111:4.7415161133e-01 112:-5.5471450090e-01 113:-6.5551507473e-01 114:-2.7269539237e-01 115:2.1149718761e-01 116:-3.0088216066e-01 117:-3.2605880499e-01 118:4.1533842683e-01 119:-4.5916163921e-01 120:-4.7765827179e-01 121:-5.7216644287e-01 122:-5.6364023685e-01 123:-8.7757575512e-01 124:-3.6563766003e-01 125:7.6403445005e-01 126:3.7452825904e-01 127:5.4444885254e-01 128:-7.9383313656e-01 129:-1.1142896861e-01 130:-3.8163372874e-01 131:-7.4022930861e-01 132:1.3851416111e-01 133:6.7379593849e-01 134:-4.9741607904e-01 135:1.6574621201e-02 136:2.3944187164e-01 137:-4.6882703900e-01 138:6.1126029491e-01 139:-4.6347987652e-01 140:-5.0271463394e-01 141:-6.0101580620e-01 142:-3.6171213724e-03 143:-5.2393859625e-01 144:5.2805221081e-01 145:-6.1561268568e-01 146:-2.6464611292e-01 147:1.0000000000e+00 148:-4.6943464875e-01 149:-3.3117011189e-01 150:-8.5359191895e-01 151:-1.2077106535e-01 152:5.9271514416e-01 153:6.5192818642e-01 154:-7.0296680927e-01 155:-3.8385412097e-01 156:7.9857426882e-01 157:-5.7190358639e-01 158:5.7640463114e-01 159:2.4113552272e-01 160:5.3919017315e-01 161:3.9344072342e-01 162:-3.6676546931e-01 163:4.9354034662e-01 164:2.2218821105e-03 165:-1.8056486547e-01 166:2.6511079073e-01 167:-5.3359049559e-01 168:5.1447701454e-01 169:-5.3581988811e-01 170:5.2476543188e-01 171:-2.9302558303e-01 172:-3.8564315438e-01 173:2.0450282097e-01 174:3.5223537683e-01 175:-3.8959658146e-01 176:-7.2518819571e-01 177:6.9069296122e-01 178:7.0616197586e-01 179:-5.4038989544e-01 180:1.9540835917e-01 181:-5.8293271065e-01 182:-5.2929913998e-01 183:7.5767904520e-01 184:9.5509260893e-02 185:-2.5774450041e-03 186:5.3342318535e-01 187:6.1266088486e-01 188:1.3629163802e-01 189:-7.1371448040e-01 190:-1.1047918350e-01 191:8.8910281658e-02 192:9.2271202803e-01 193:7.9411250353e-01 194:4.7192418575e-01 195:-1.0007440299e-01 196:-6.6709619761e-01 197:5.1062220335e-01 198:-2.2580035031e-01 199:8.2120591402e-01 200:1.3312032819e-01 
-1.7521345615e-01 6.4485788345e-02 1:-6.4114761353e-01 2:3.3686298132e-01 3:5.5175703764e-01 4:-7.4751043320e-01 5:-6.7683869600e-01 6:-5.5813634396e-01 7:-3.6237955093e-01 8:-5.2016526461e-01 9:-2.3948475718e-01 10:-3.2391514629e-02 11:-6.4485138655e-01 12:-6.7520570755e-01 13:8.2706159353e-01 14:-6.7971801758e-01 15:-1.8022857606e-02 16:5.9361201525e-01 17:-6.0582077503e-01 18:5.4283965379e-02 19:2.4389804900e-01 20:3.0398607254e-01 21:-5.4638338089e-01 22:8.1471008062e-01 23:2.4712392688e-01 24:5.7937103510e-01 25:-7.1251910925e-01 26:7.9361122847e-01 27:-5.5047816038e-01 28:-4.1065606475e-01 29:5.0369721651e-01 30:-5.7030242682e-01 31:8.6562228203e-01 32:5.2150684595e-01 33:3.4681615233e-01 34:7.5232103467e-02 35:-7.5696533918e-01 36:8.9917331934e-01 37:-7.9365277290e-01 38:7.9949581623e-01 39:-7.5658336282e-02 40:-1.7730653286e-02 41:5.3342476487e-02 42:-3.0971530080e-01 43:-5.0410729647e-01 44:-5.5854946375e-01 45:6.8735408783e-01 46:-3.7638795376e-01 47:-4.6925884485e-01 48:-5.0270676613e-01 49:-1.5896995366e-01 50:-2.0619900525e-01 51:-6.6559278965e-01 52:-8.5780477524e-01 53:-4.2381829023e-01 54:-5.8026087284e-01 55:-6.9145715237e-01 56:-7.1269804239e-01 57:6.1356049776e-01 58:6.9860434532e-01 59:5.0049710274e-01 60:7.3819738626e-01 61:-2.2864137590e-01 62:5.9915792942e-01 63:-3.5956233740e-01 64:5.4373437166e-01 65:-5.6084960699e-01 66:-5.1693862677e-01 67:7.0370775461e-01 68:-5.5841273069e-01 69:8.4275877476e-01 70:4.5327386260e-01 71:5.9027409554e-01 72:-5.3922379017e-01 73:1.8236036599e-01 74:7.5518226624e-01 75:5.4855543375e-01 76:-7.5933742523e-01 77:-2.7775931358e-01 78:-4.4712355733e-01 79:1.0602037609e-01 80:-2.8249180317e-01 81:-8.0222123861e-01 82:-3.7476399541e-01 83:4.2537275702e-02 84:-8.0584859848e-01 85:-5.5034905672e-02 86:8.8428127766e-01 87:7.2400540113e-01 88:-4.5129704475e-01 89:7.0709842443e-01 90:3.7067568302e-01 91:-6.3965374231e-01 92:-5.3942495584e-01 93:-2.7649059892e-01 94:-1.1618914455e-01 95:5.4762893915e-01 96:6.6147381067e-01 97:-7.4129241705e-01 98:-4.7318521142e-01 99:7.4008792639e-01 100:-4.3568444252e-01 101:-5.5361527205e-01 102:7.0645219088e-01 103:2.9274666309e-01 104:8.6383157969e-01 105:-7.5572264194e-01 106:3.1361579895e-01 107:7.4289393425e-01 108:9.1023869812e-02 109:3.7048211694e-01 110:4.2956390977e-01 111:5.4649829865e-01 112:-3.8496053219e-01 113:-7.8230452538e-01 114:-6.2594485283e-01 115:-2.1223995090e-01 116:-5.1301765442e-01 117:-5.8658826351e-01 118:7.5113999844e-01 119:-6.0366296768e-01 120:-3.2038873434e-01 121:-6.6542333364e-01 122:-4.9940037727e-01 123:-5.4883414507e-01 124:-6.9065469503e-01 125:6.2740767002e-01 126:4.2951393127e-01 127:4.4317996502e-01 128:-5.3116512299e-01 129:-1.9420476258e-01 130:-5.7024222612e-01 131:-5.8783894777e-01 132:-2.5815472007e-01 133:4.2267197371e-01 134:-2.5604483485e-01 135:2.2233276069e-01 136:-1.5908643603e-01 137:-5.0955760479e-01 138:6.9680184126e-01 139:-5.3022235632e-01 140:-6.1810576916e-01 141:-3.2343271375e-01 142:-4.4650550932e-02 143:-5.2278828621e-01 144:7.8383874893e-01 145:-5.4593706131e-01 146:-3.8069570065e-01 147:6.7513996363e-01 148:-7.0697236061e-01 149:-2.5580264628e-02 150:-7.5009083748e-01 151:7.6888069510e-02 152:5.4188960791e-01 153:3.7988421321e-01 154:-8.0823063850e-01 155:-5.3033524752e-01 156:5.2146929502e-01 157:-7.6613676548e-01 158:5.7265329361e-01 159:5.7412302494e-01 160:7.1309226751e-01 161:8.5920798779e-01 162:-4.7223085165e-01 163:-1.3399173040e-03 164:-4.8604765534e-01 165:-6.9027699530e-02 166:1.8285654485e-02 167:-7.3826920986e-01 168:6.9738787413e-01 169:-2.6771771908e-01 170:5.8043676615e-01 171:-7.2494037449e-02 172:-3.1600537896e-01 173:-2.6308041066e-02 174:2.8209313750e-01 175:-3.8432654738e-01 176:-6.8570208549e-01 177:6.4633345604e-01 178:8.6380738020e-01 179:-4.9585825205e-01 180:5.3788143396e-01 181:-4.9401497841e-01 182:-1.2059447169e-01 183:7.7116245031e-01 184:2.7578434348e-01 185:-4.7106954455e-01 186:5.3330731392e-01 187:5.3755748272e-01 188:-6.2508624792e-01 189:-6.7511159182e-01 190:3.5621586442e-01 191:1.6317912936e-01 192:9.0241968632e-01 193:5.2086138725e-01 194:3.2156392932e-01 195:2.3884142935e-01 196:-8.9348065853e-01 197:6.8255710602e-01 198:1.1169300228e-01 199:8.4539157152e-01 200:3.4717261791e-01 
-8.8354952633e-02 2.1069325507e-02 1:-4.7624915838e-01 2:-5.2758928388e-02 3:4.5643872023e-01 4:-5.9524172544e-01 5:-6.9864809513e-01 6:-7.2670298815e-01 7:-3.9044299722e-01 8:-6.0402685404e-01 9:2.3117604852e-01 10:3.4429273009e-01 11:-5.3044623137e-01 12:-3.8244670630e-01 13:5.3085267544e-01 14:-6.7418855429e-01 15:3.1892886758e-01 16:3.4901148081e-01 17:-3.4269505739e-01 18:-5.7509541512e-01 19:2.7833205462e-01 20:2.3543363810e-01 21:-6.2491297722e-01 22:6.9491910934e-01 23:5.5182373524e-01 24:-3.0996236205e-01 25:-7.6398485899e-01 26:6.5388423204e-01 27:-7.6592934132e-01 28:-4.3153524399e-02 29:3.8434621692e-01 30:-4.8388233781e-01 31:1.1691620946e-01 32:5.5240434408e-01 33:6.0150241852e-01 34:5.1222872734e-01 35:-7.6618647575e-01 36:7.1936517954e-01 37:-5.7348591089e-01 38:7.6951998472e-01 39:-2.6565241814e-01 40:-4.9982288480e-01 41:-8.9810341597e-02 42:-8.1451630592e-01 43:-4.2087978125e-01 44:-5.7858717442e-01 45:2.7894529700e-01 46:-4.0468314290e-01 47:-6.2801384926e-01 48:-7.8500860929e-01 49:-2.6882767677e-01 50:-3.0048722029e-01 51:-8.3334165812e-01 52:-5.1036447287e-01 53:-3.0865985155e-01 54:-6.0388028622e-01 55:-7.4403208494e-01 56:-7.7316403389e-01 57:7.7928930521e-01 58:8.6784601212e-01 59:-4.5880895108e-02 60:7.7875262499e-01 61:-4.7125527263e-01 62:4.6326220036e-01 63:-6.8484878540e-01 64:4.2447796464e-01 65:-4.9297925830e-01 66:-5.7631641626e-01 67:7.5441443920e-01 68:-5.3595733643e-01 69:6.8508440256e-01 70:3.9809599519e-01 71:4.5130065084e-01 72:-3.6001572013e-01 73:-6.6135615110e-01 74:8.1835412979e-01 75:6.1283165216e-01 76:-8.7948334217e-01 77:-4.7289878130e-01 78:-4.9434778094e-01 79:-7.2156473994e-02 80:-3.7185293436e-01 81:-4.9194756150e-01 82:-4.5397701859e-01 83:1.3298314810e-01 84:-3.4611374140e-01 85:5.2449600771e-03 86:7.5334185362e-01 87:7.8964072466e-01 88:-4.8584839702e-01 89:3.9063319564e-01 90:8.8729435205e-01 91:-7.7514868975e-01 92:-6.9039702415e-01 93:-6.7428660393e-01 94:2.4214272201e-01 95:4.7119522095e-01 96:6.6321963072e-01 97:-4.9920293689e-01 98:-5.1605916023e-01 99:6.9587725401e-01 100:-5.8107352257e-01 101:-8.8940376043e-01 102:7.0555293560e-01 103:-1.3622641563e-02 104:7.5381016731e-01 105:-5.2010923624e-01 106:8.6101782322e-01 107:3.3574092388e-01 108:9.5558036119e-03 109:5.0559765100e-01 110:8.0020189285e-01 111:5.1897811890e-01 112:-4.5423588157e-01 113:-6.6684430838e-01 114:-2.8831303120e-01 115:2.6592302322e-01 116:-4.4483339787e-01 117:-6.0390883684e-01 118:5.2686530352e-01 119:-2.5015190244e-01 120:-3.0772987008e-01 121:-6.9944709539e-01 122:-7.4929642677e-01 123:-5.8091628551e-01 124:-6.9095474482e-01 125:5.6109505892e-01 126:5.2773511410e-01 127:6.9842439890e-01 128:-6.3092070818e-01 129:6.1824750900e-01 130:-2.2423633933e-01 131:-8.3514750004e-01 132:-1.1675546318e-01 133:5.6743031740e-01 134:-6.2004095316e-01 135:-1.3604813814e-01 136:-8.6987204850e-02 137:-5.1470661163e-01 138:6.2793993950e-01 139:-6.0034590960e-01 140:-6.3202297688e-01 141:-3.7105247378e-01 142:1.8840086460e-01 143:-4.5672959089e-01 144:6.7371100187e-01 145:-5.7662737370e-01 146:-3.9526274800e-01 147:4.9351170659e-01 148:-5.9778040648e-01 149:-1.8178248405e-01 150:-8.5976839066e-01 151:-5.9136744589e-02 152:7.9318684340e-01 153:6.9169402122e-01 154:-7.1372473240e-01 155:-4.4500315189e-01 156:6.4575475454e-01 157:-9.1258424520e-01 158:4.4041484594e-01 159:5.9922277927e-02 160:4.6567219496e-01 161:5.8553481102e-01 162:-5.1486301422e-01 163:2.9023540020e-01 164:7.3538184166e-02 165:3.5106402636e-01 166:2.3454231024e-01 167:-1.0000000000e+00 168:7.5756078959e-01 169:-4.0782442689e-01 170:7.5453442335e-01 171:-5.7599043846e-01 172:-7.1077710390e-01 173:1.3732948340e-02 174:5.6930524111e-01 175:-5.1291340590e-01 176:-7.6766443253e-01 177:4.6533825994e-01 178:6.5196222067e-01 179:-3.7167084217e-01 180:3.3436113596e-01 181:-4.7688534856e-01 182:-3.2723531127e-01 183:7.8281784058e-01 184:4.8861142993e-01 185:-5.7651782036e-01 186:6.4148950577e-01 187:8.1943696737e-01 188:-1.9730666280e-01 189:-5.1910501719e-01 190:-1.2062764913e-01 191:-2.9521608353e-01 192:8.2664602995e-01 193:5.3802531958e-01 194:2.6037764549e-01 195:-8.2953989506e-02 196:-7.9299694300e-01 197:6.8143773079e-01 198:-5.6654804945e-01 199:8.3874166012e-01 200:1.1699502170e-01 
2.5184819102e-01 -3.2297059894e-02 1:-4.8103147745e-01 2:-5.2487134933e-01 3:7.7616477013e-01 4:-7.3853659630e-01 5:-4.6198633313e-01 6:-5.9300774336e-01 7:-6.1695218086e-01 8:-3.5107141733e-01 9:-7.8746095300e-02 10:-5.3435247391e-02 11:-8.7364405394e-01 12:-4.9895992875e-01 13:3.4587261081e-01 14:-5.0704878569e-01 15:-3.2177907228e-01 16:9.5020759106e-01 17:-5.2769601345e-01 18:-4.3419721723e-01 19:5.9832519293e-01 20:2.6079702377e-01 21:-4.6035218239e-01 22:8.1988132000e-01 23:2.6579791307e-01 24:-2.4960821867e-01 25:-7.0377647877e-01 26:7.1321666241e-01 27:-6.9225353003e-01 28:-2.9948607087e-01 29:3.2313776016e-01 30:-4.2662632465e-01 31:5.5435401201e-01 32:4.4663339853e-01 33:3.4378126264e-01 34:2.4220798910e-01 35:-7.9776918888e-01 36:7.3186504841e-01 37:-7.1535831690e-01 38:7.7595323324e-01 39:3.0708891153e-01 40:-1.5232159197e-01 41:5.7134967297e-02 42:-6.8727171421e-01 43:-3.1966468692e-01 44:-8.7319207191e-01 45:4.7318831086e-01 46:5.2955910563e-02 47:-5.6665897369e-01 48:-6.4191114902e-01 49:3.1925085187e-01 50:-1.2660457194e-01 51:-9.2493611574e-01 52:-7.2164404392e-01 53:-4.8480427265e-01 54:-1.4498218894e-01 55:-9.3145018816e-01 56:-5.9182894230e-01 57:6.6486853361e-01 58:4.9568620324e-01 59:5.6375104189e-01 60:7.9721713066e-01 61:-4.1954979300e-01 62:5.1339310408e-01 63:-7.7782005072e-01 64:5.7790184021e-01 65:-5.7932788134e-01 66:-5.5191862583e-01 67:5.4137611389e-01 68:-6.4295130968e-01 69:5.9736490250e-01 70:3.1508442760e-01 71:7.1849453449e-01 72:-2.9581204057e-01 73:-2.7828875184e-01 74:4.5753630996e-01 75:7.2984218597e-01 76:-8.1485790014e-01 77:-2.0654045045e-01 78:-2.9344704747e-01 79:1.4831733704e-01 80:-3.8180279732e-01 81:-5.5223679543e-01 82:-1.7068667710e-01 83:1.5231502056e-01 84:-5.8618116379e-01 85:-5.4668253660e-01 86:6.0061103106e-01 87:7.9893702269e-01 88:-4.2668938637e-01 89:4.8128017783e-01 90:4.7972652316e-01 91:-6.6895341873e-01 92:-6.4849907160e-01 93:-1.6476536170e-02 94:-3.2284197211e-01 95:4.7124439478e-01 96:3.0568099022e-01 97:-4.3336728215e-01 98:-2.6762682199e-01 99:7.5609314442e-01 100:-4.5636159182e-01 101:-4.9166002870e-01 102:5.1269733906e-01 103:-1.9483044744e-01 104:7.4605780840e-01 105:-4.8608282208e-01 106:3.6878255010e-01 107:7.6761268079e-02 108:-5.1062858105e-01 109:5.3584498167e-01 110:3.4209176898e-01 111:3.5876297951e-01 112:-3.9424997568e-01 113:-9.1610801220e-01 114:-3.4928998351e-01 115:-2.2738681734e-01 116:-3.4774130583e-01 117:-7.0001441240e-01 118:6.1555951834e-01 119:-3.0218815804e-01 120:-3.5867029428e-01 121:-7.4976170063e-01 122:-3.7708288431e-01 123:-7.2926682234e-01 124:-5.3465443850e-01 125:6.9727206230e-01 126:3.9860597253e-01 127:1.5105335414e-01 128:-6.1353194714e-01 129:1.7212955654e-01 130:-4.6889206767e-01 131:-8.2525593042e-01 132:5.5186673999e-02 133:2.3951417208e-01 134:-2.3198738694e-01 135:4.7859174013e-01 136:9.8278885707e-03 137:-5.2425789833e-01 138:4.7718748450e-01 139:-5.8713042736e-01 140:-2.4258859456e-01 141:-4.6670487523e-01 142:-6.5459662676e-01 143:-4.5252493024e-01 144:4.2585232854e-01 145:-7.6293557882e-01 146:-2.0454530418e-01 147:7.7903139591e-01 148:-5.1725602150e-01 149:-3.8751277328e-01 150:-7.3423147202e-01 151:-1.9934163988e-01 152:7.7502304316e-01 153:4.1032782197e-01 154:-8.1661528349e-01 155:-7.7313226461e-01 156:7.1313405037e-01 157:-9.0925627947e-01 158:4.9320474267e-01 159:-2.6319447905e-02 160:2.8245651722e-01 161:1.9280458987e-01 162:-4.1410666704e-01 163:3.9512616396e-01 164:-6.8600632250e-02 165:-6.6500425339e-02 166:1.1959636956e-01 167:-2.4543851614e-01 168:8.3379662037e-01 169:-4.1766294837e-01 170:5.0313532352e-01 171:-2.5064653158e-01 172:-1.9907011092e-01 173:3.9980617166e-01 174:7.9881185293e-01 175:5.2531998605e-02 176:-7.2297704220e-01 177:2.3454789817e-01 178:6.3649809361e-01 179:-6.5686178207e-01 180:3.5317906737e-01 181:-5.6404370070e-01 182:-5.1790809631e-01 183:7.3307174444e-01 184:4.1728338599e-01 185:-6.7536765337e-01 186:5.9296756983e-01 187:4.3229457736e-01 188:-6.0897380114e-01 189:-7.0672947168e-01 190:2.7009260654e-01 191:5.2888333797e-01 192:8.1315737963e-01 193:6.5739053488e-01 194:2.7939808369e-01 195:-7.1132171154e-01 196:-7.0361751318e-01 197:7.8448265791e-01 198:-1.0841889679e-01 199:5.1004672050e-01 200:2.1763554215e-01 
7.8967995942e-02 -4.1892196983e-02 1:-5.7555085421e-01 2:-2.0474876463e-01 3:4.9113088846e-01 4:-6.6243922710e-01 5:-9.7600251436e-01 6:-7.0620590448e-01 7:-2.8410631418e-01 8:-1.7929613590e-01 9:3.4401056170e-01 10:7.5733992271e-03 11:-5.9810155630e-01 12:-5.3283918649e-02 13:8.3816242218e-01 14:-6.2033832073e-01 15:2.6863414049e-01 16:3.6677736044e-01 17:-2.8468716145e-01 18:-5.4675644636e-01 19:3.3004432917e-01 20:1.2712557614e-01 21:-5.5447340012e-01 22:5.6537204981e-01 23:2.1453210711e-01 24:2.2982465103e-02 25:-1.0000000000e+00 26:8.8322120905e-01 27:-1.8994547427e-01 28:-3.7869113684e-01 29:4.1335299611e-01 30:-5.1532900333e-01 31:2.8642842174e-01 32:7.1666401625e-01 33:5.6669735909e-01 34:5.1838195324e-01 35:-8.1828743219e-01 36:8.0537998676e-01 37:-6.3334816694e-01 38:8.1701540947e-01 39:-2.4554122984e-01 40:1.3836488128e-01 41:2.4235348403e-01 42:-5.8274543285e-01 43:-3.5509487987e-01 44:-8.2560420036e-01 45:6.3907063007e-01 46:3.4018096328e-01 47:-6.7551076412e-01 48:-5.9356886148e-01 49:1.0485963523e-01 50:-5.5696111917e-01 51:-5.8435010910e-01 52:-6.9739687443e-01 53:-5.0299048424e-01 54:-4.5589897037e-01 55:-8.6575770378e-01 56:-4.7893118858e-01 57:6.4640378952e-01 58:5.4710537195e-01 59:8.6110971868e-02 60:6.9722068310e-01 61:-5.2422833443e-01 62:7.9050999880e-01 63:-6.0955005884e-01 64:4.2567265034e-01 65:-7.0437109470e-01 66:-7.9429429770e-01 67:5.6900000572e-01 68:-5.2829355001e-01 69:7.8066301346e-01 70:3.7213021517e-01 71:6.6236823797e-01 72:-4.8631095886e-01 73:-4.2545545846e-02 74:4.7468027472e-01 75:5.6318986416e-01 76:-8.8422113657e-01 77:-5.0042414665e-01 78:-3.0813568830e-01 79:-1.0954827070e-01 80:-4.5977598429e-01 81:-2.3539902270e-01 82:-5.4314512014e-01 83:2.4574474990e-01 84:-5.4278737307e-01 85:3.4705263376e-01 86:6.3169193268e-01 87:7.0291513205e-01 88:-6.1647516489e-01 89:3.8448533416e-01 90:2.6047801971e-01 91:-7.6408249140e-01 92:-6.0959285498e-01 93:-1.0733014904e-02 94:-3.4231182933e-01 95:5.9314256907e-01 96:3.2865166664e-01 97:-5.6574451923e-01 98:-4.3333694339e-01 99:9.8602151871e-01 100:-3.9287772775e-01 101:-4.1971680522e-01 102:5.0548326969e-01 103:2.4011178315e-01 104:9.1689550877e-01 105:-6.5491837263e-01 106:6.4570021629e-01 107:5.2455925941e-01 108:-2.2311545908e-01 109:5.8036011457e-01 110:4.6423664689e-01 111:3.9251813293e-01 112:-3.6454924941e-01 113:-8.2443743944e-01 114:-5.4231786728e-01 115:-2.0143076777e-01 116:-5.7926410437e-01 117:-6.8995577097e-01 118:6.8310642242e-01 119:-5.0057464838e-01 120:-3.9612802863e-01 121:-5.6600475311e-01 122:-3.0246901512e-01 123:-4.1812494397e-01 124:-5.4607272148e-01 125:6.4432919025e-01 126:2.5138714910e-01 127:6.3555866480e-01 128:-7.3907905817e-01 129:2.0570231974e-01 130:-1.5497948229e-01 131:-7.7631807327e-01 132:-4.3595856428e-01 133:3.2920283079e-01 134:-8.5807174444e-01 135:-7.7364265919e-01 136:-6.4998336136e-02 137:-7.9756939411e-01 138:7.3185080290e-01 139:-3.9364564419e-01 140:-2.5204434991e-01 141:-2.7609160542e-01 142:-2.1634627879e-01 143:-5.8916759491e-01 144:5.4967832565e-01 145:-6.3385462761e-01 146:-2.1904984117e-01 147:4.1851076484e-01 148:-4.2580839992e-01 149:-2.8333428502e-01 150:-7.4841910601e-01 151:-1.2280194461e-01 152:7.4079543352e-01 153:6.5344202518e-01 154:-9.3014049530e-01 155:-6.0068631172e-01 156:6.1418491602e-01 157:-6.4693200588e-01 158:7.7940595150e-01 159:7.3759931326e-01 160:1.6221186519e-01 161:5.4714405537e-01 162:-4.9113297462e-01 163:5.6672126055e-01 164:-5.7920771837e-01 165:-1.0000000000e+00 166:2.2317284346e-01 167:-5.8562082052e-01 168:4.2217552662e-01 169:-3.9813151956e-01 170:7.4847030640e-01 171:-3.8623699546e-01 172:-2.4726104736e-01 173:9.3054276705e-01 174:7.0713514090e-01 175:-1.9275823236e-01 176:-7.7757835388e-01 177:6.4268106222e-01 178:5.9661889076e-01 179:-4.1072040796e-01 180:5.5510991812e-01 181:-5.9303122759e-01 182:-4.2972835898e-01 183:7.6626354456e-01 184:1.2141367048e-01 185:-2.6108074188e-01 186:3.7406739593e-01 187:5.8439034224e-01 188:-6.8617504835e-01 189:-7.6310390234e-01 190:-4.6190777421e-01 191:1.2150377780e-01 192:7.1039211750e-01 193:6.3669681549e-01 194:5.7904338837e-01 195:-2.6089712977e-01 196:-7.0504915714e-01 197:5.6271070242e-01 198:-3.3015310764e-01 199:7.6745402813e-01 200:3.2835078239e-01 
1.0535898805e-01 4.7679703683e-02 1:-8.3946084976e-01 2:1.9834865630e-01 3:6.5195113420e-01 4:-6.9142901897e-01 5:-5.7591640949e-01 6:-8.5197591782e-01 7:-4.8728835583e-01 8:-6.5465241671e-01 9:3.7802881002e-01 10:-6.6743090749e-02 11:-7.5735318661e-01 12:-3.9680081606e-01 13:5.5612087250e-01 14:-5.5130141973e-01 15:2.5075149536e-01 16:8.6598575115e-01 17:-6.5177118778e-01 18:-6.6481029987e-01 19:5.6342792511e-01 20:4.3890860677e-01 21:-4.0139508247e-01 22:7.3718142509e-01 23:4.0042889118e-01 24:6.8259316683e-01 25:-7.4642068148e-01 26:6.8309044838e-01 27:-3.6875274777e-01 28:-5.7204014063e-01 29:6.3319599628e-01 30:-6.8368536234e-01 31:4.6261820197e-01 32:4.6101769805e-01 33:5.3724718094e-01 34:5.4890829325e-01 35:-6.2823563814e-01 36:5.2298974991e-01 37:-6.9963282347e-01 38:8.9310789108e-01 39:-1.8284085393e-01 40:-2.1332313120e-01 41:-2.4899025261e-01 42:-2.6291137934e-01 43:-4.9302297831e-01 44:-5.1098853350e-01 45:1.8092404306e-01 46:5.5276621133e-02 47:-3.7772488594e-01 48:-6.5956395864e-01 49:-2.5961449742e-01 50:-1.8165701628e-01 51:-6.9191139936e-01 52:-8.1994324923e-01 53:-5.6355297565e-01 54:-4.0326833725e-01 55:-8.8404446840e-01 56:-4.6480897069e-01 57:8.2181000710e-01 58:6.8572074175e-01 59:3.0203729868e-01 60:6.7948257923e-01 61:-7.2274047136e-01 62:4.5849853754e-01 63:-4.7492298484e-01 64:6.7739570141e-01 65:-1.6171924770e-01 66:-5.6205874681e-01 67:6.4074748755e-01 68:-7.3893332481e-01 69:7.9364836216e-01 70:4.5261374116e-01 71:5.3509289026e-01 72:1.0245067626e-01 73:-2.1413536370e-01 74:6.9629126787e-01 75:8.7641859055e-01 76:-8.7395536900e-01 77:-7.1431660652e-01 78:-2.2388392687e-01 79:-4.9117859453e-02 80:-3.5224813223e-01 81:-5.6802988052e-01 82:-9.1645795107e-01 83:3.6532625556e-01 84:-6.8898093700e-01 85:-1.2630335987e-01 86:9.3854224682e-01 87:5.9208130836e-01 88:-2.3365892470e-01 89:1.0000000000e+00 90:3.4731012583e-01 91:-5.9216517210e-01 92:-6.9176316261e-01 93:-3.5192897916e-01 94:-6.6268891096e-01 95:3.9131870866e-01 96:2.2339329123e-01 97:-4.9976000190e-01 98:-5.9913545847e-01 99:6.6330271959e-01 100:-2.8869590163e-01 101:-2.7555876970e-01 102:5.6575065851e-01 103:3.4551519901e-02 104:6.4044803381e-01 105:-5.4122930765e-01 106:6.0521101952e-01 107:6.2240731716e-01 108:3.3460667729e-01 109:-2.9324503615e-02 110:5.5607146025e-01 111:3.6276558042e-01 112:-5.0179672241e-01 113:-3.8263598084e-01 114:-4.0752941370e-01 115:5.9613156319e-01 116:-4.5907240361e-02 117:-4.8061981797e-01 118:7.5003314018e-01 119:-5.9148371220e-01 120:-6.5543818474e-01 121:-8.6428266764e-01 122:-3.3705216646e-01 123:-5.3070658445e-01 124:-6.8556410074e-01 125:5.1180911064e-01 126:3.3208647370e-01 127:8.0641174316e-01 128:-5.3683149815e-01 129:4.3822136521e-01 130:-5.5686455965e-01 131:-8.2687675953e-01 132:3.2946160436e-01 133:2.3957988620e-01 134:-3.5582609475e-02 135:-2.5834167004e-01 136:9.7442731261e-02 137:-6.1280196905e-01 138:6.9707423449e-01 139:-6.6473424435e-01 140:-4.8374485970e-01 141:-2.0783214271e-01 142:-6.7443817854e-01 143:-2.7215844393e-01 144:5.3233391047e-01 145:-6.5487331152e-01 146:-8.8026827574e-01 147:5.1991987228e-01 148:-5.0987172127e-01 149:-2.3101545870e-02 150:-7.1476519108e-01 151:-1.3390639424e-01 152:6.4626389742e-01 153:4.8034346104e-01 154:-6.7973852158e-01 155:-4.9705964327e-01 156:5.4516464472e-01 157:-9.5920294523e-01 158:6.5836572647e-01 159:2.8160399199e-01 160:5.6436562538e-01 161:3.3999109268e-01 162:-6.2720811367e-01 163:1.8759381771e-01 164:-3.2431417704e-01 165:-5.9520844370e-02 166:2.3817451298e-01 167:-6.8692064285e-01 168:6.2292963266e-01 169:-5.8245372772e-01 170:7.0278185606e-01 171:-1.8456365168e-01 172:-5.2144354582e-01 173:-1.9032171369e-01 174:8.1495416164e-01 175:-9.7346946597e-02 176:-6.5964388847e-01 177:6.4122527838e-01 178:5.5046707392e-01 179:-5.7779246569e-01 180:8.4606856108e-01 181:-4.1340774298e-01 182:-2.5730437040e-01 183:7.8832650185e-01 184:7.3648971319e-01 185:-6.9078087807e-01 186:4.1972610354e-01 187:6.1086237431e-01 188:-3.9706525207e-01 189:-8.6122596264e-01 190:2.8521534801e-01 191:3.8190084696e-01 192:7.9422008991e-01 193:5.5126881599e-01 194:1.7080390453e-01 195:-1.5600690246e-01 196:-7.6496112347e-01 197:7.2571015358e-01 198:-2.7922248840e-01 199:7.3799353838e-01 200:5.5705899000e-01 
-2.0003706217e-01 7.4713304639e-03 1:-8.3923166990e-01 2:-1.0691957921e-01 3:5.0078880787e-01 4:-8.7203550339e-01 5:-6.0063081980e-01 6:-8.0591988564e-01 7:-3.3490520716e-01 8:-5.1751279831e-01 9:3.2049828768e-01 10:-3.0106654763e-01 11:-7.6533323526e-01 12:-5.4194384813e-01 13:4.9383863807e-01 14:-4.6606004238e-01 15:3.6575818062e-01 16:4.8052093387e-01 17:-7.7501964569e-01 18:5.1142770052e-01 19:4.9384403229e-01 20:4.2335885763e-01 21:-7.0746630430e-01 22:7.1427917480e-01 23:1.4680701494e-01 24:4.2451250553e-01 25:-7.0885628462e-01 26:7.0311039686e-01 27:-4.5549666882e-01 28:1.2902046740e-01 29:3.1259846687e-01 30:-6.2276029587e-01 31:4.4020497799e-01 32:5.4495012760e-01 33:6.4805197716e-01 34:4.8429718614e-01 35:-5.2072066069e-01 36:6.8333941698e-01 37:-7.1063780785e-01 38:5.7284379005e-01 39:-2.8251528740e-01 40:-7.6828545332e-01 41:3.5707396269e-01 42:-1.9090896845e-01 43:-7.6573359966e-01 44:-6.8792235851e-01 45:7.1417212486e-01 46:-9.2662793398e-01 47:-9.7116947174e-01 48:-5.3585499525e-01 49:7.0591944456e-01 50:-2.6507076621e-01 51:-6.2981408834e-01 52:-7.2205817699e-01 53:-5.9236395359e-01 54:-4.1919353604e-01 55:-8.8053345680e-01 56:-4.7800928354e-01 57:5.8564811945e-01 58:2.9104560614e-01 59:-7.3859798908e-01 60:7.5673401356e-01 61:-3.1835475564e-01 62:5.5132645369e-01 63:-5.2001672983e-01 64:5.4141235352e-01 65:-3.9882263541e-01 66:-6.4143061638e-01 67:6.1550188065e-01 68:-6.6828227043e-01 69:5.5453097820e-01 70:4.7763681412e-01 71:5.0487178564e-01 72:-3.5950973630e-01 73:-9.3885861337e-02 74:5.7442784309e-01 75:6.5857386589e-01 76:-7.7214282751e-01 77:-2.4266511202e-01 78:-3.2704681158e-01 79:-4.3764398433e-03 80:-2.2602768242e-01 81:-6.2876236439e-01 82:-6.5910732746e-01 83:5.2540246397e-02 84:-3.6100223660e-01 85:-4.6152493358e-01 86:8.2384395599e-01 87:5.4075479507e-01 88:-4.5943564177e-01 89:6.2360948324e-01 90:8.0634063482e-01 91:-6.7951244116e-01 92:-8.0744928122e-01 93:-1.9777776301e-01 94:-9.5402738079e-03 95:5.8682847023e-01 96:5.1337224245e-01 97:-6.1959528923e-01 98:-4.2411249876e-01 99:6.8661671877e-01 100:-3.1550130248e-01 101:-8.0794394016e-01 102:6.0080361366e-01 103:5.9921205044e-01 104:6.2194246054e-01 105:-4.4225472212e-01 106:4.5773765445e-01 107:1.3421855867e-01 108:-3.5011106730e-01 109:6.7208045721e-01 110:2.0470879972e-01 111:5.3184890747e-01 112:-5.6512928009e-01 113:-6.2841343880e-01 114:-4.5740291476e-01 115:1.7764294147e-01 116:-2.8694522381e-01 117:-7.4949514866e-01 118:5.8079946041e-01 119:-3.5744959116e-01 120:1.9977442920e-02 121:-9.0813481808e-01 122:-5.5592012405e-01 123:-5.8210134506e-01 124:-4.9876269698e-01 125:8.3770495653e-01 126:5.4264777899e-01 127:6.8700748682e-01 128:-6.0020923615e-01 129:4.5834627748e-01 130:-6.9096267223e-01 131:-6.8871104717e-01 132:-1.8255960196e-02 133:7.1743118763e-01 134:-4.0722090006e-01 135:-9.1682016850e-02 136:5.1524858922e-02 137:-4.9257886410e-01 138:5.9335613251e-01 139:-5.1800638437e-01 140:-3.2362228632e-01 141:-5.4388284683e-01 142:-2.2329676151e-01 143:-4.2530074716e-01 144:4.2456042767e-01 145:-4.7327834368e-01 146:-2.0802670717e-01 147:5.2885609865e-01 148:-7.1363013983e-01 149:-3.7777650356e-01 150:-7.7429413795e-01 151:-1.6793160141e-01 152:4.6727040410e-01 153:8.7253540754e-01 154:-8.0603861809e-01 155:-5.8464676142e-01 156:5.7880353928e-01 157:-7.8956043720e-01 158:7.3017836548e-03 159:3.4300643206e-01 160:4.5901909471e-01 161:4.4456571341e-01 162:-4.6090143919e-01 163:1.2860713899e-01 164:-4.8606610298e-01 165:-3.7279152870e-01 166:6.4454221725e-01 167:-2.8606840968e-01 168:7.9958897829e-01 169:-5.9423846006e-01 170:7.4885451794e-01 171:-4.4202208519e-01 172:-4.5425382257e-01 173:2.9745745659e-01 174:5.8497142792e-01 175:5.1122379303e-01 176:-5.5096375942e-01 177:7.9012030363e-01 178:7.7865672112e-01 179:-5.1954209805e-01 180:5.5993080139e-01 181:-4.1650643945e-01 182:-5.6890738010e-01 183:7.4771970510e-01 184:4.7407764196e-01 185:-5.1579731703e-01 186:3.6717554927e-01 187:5.3160607815e-01 188:-4.3048778176e-01 189:-7.9863274097e-01 190:-7.6289065182e-03 191:3.3623111248e-01 192:6.5548932552e-01 193:6.0066866875e-01 194:4.2436704040e-01 195:-3.1602111459e-01 196:-9.4496899843e-01 197:5.1257258654e-01 198:-3.2164692879e-01 199:7.5070303679e-01 200:-9.6122175455e-03 
2.9250013828e-01 -3.3025462180e-02 1:-3.8832774758e-01 2:4.4730269909e-01 3:5.3984963894e-01 4:-6.9626790285e-01 5:-6.8804389238e-01 6:-8.3106034994e-01 7:-1.1103016883e-01 8:-5.3704452515e-01 9:-2.4613215029e-01 10:-8.2956835628e-02 11:-7.3709189892e-01 12:-7.5025433302e-01 13:4.7775658965e-01 14:-7.1077251434e-01 15:-1.3169965148e-01 16:4.4570237398e-01 17:-6.9618034363e-01 18:-2.0033228397e-01 19:1.7784753442e-01 20:3.5406735539e-01 21:-3.4676760435e-01 22:7.8220242262e-01 23:3.6477404833e-01 24:3.1917363405e-01 25:-6.9931554794e-01 26:7.4585634470e-01 27:-5.3176808357e-01 28:-3.1059300900e-01 29:2.9160523415e-01 30:-3.2692703605e-01 31:-4.7970142215e-02 32:3.6876571178e-01 33:3.8609689474e-01 34:6.8162697554e-01 35:-6.8173527718e-01 36:6.6422110796e-01 37:-5.4358530045e-01 38:7.7321028709e-01 39:4.4499820471e-01 40:-2.9833912849e-01 41:4.7377565503e-01 42:-6.6619777679e-01 43:-7.4029481411e-01 44:-4.6613603830e-01 45:1.9481401145e-01 46:-6.6596448421e-01 47:-6.8023610115e-01 48:-7.6716631651e-01 49:6.0052591562e-01 50:-2.1474830806e-01 51:-6.0171765089e-01 52:-7.8110617399e-01 53:-3.5187602043e-01 54:-1.5023231506e-01 55:-5.0531011820e-01 56:-7.1638029814e-01 57:7.3805505037e-01 58:6.3915652037e-01 59:1.4148849249e-01 60:8.0735164881e-01 61:-4.9670493603e-01 62:5.1433956623e-01 63:-5.1167219877e-01 64:2.0820690691e-01 65:-5.2882969379e-01 66:-5.8416128159e-01 67:5.5827260017e-01 68:-4.6637719870e-01 69:7.4206566811e-01 70:5.8472007513e-01 71:8.4964478016e-01 72:-6.7979216576e-01 73:-4.0112605691e-01 74:3.8952472806e-01 75:6.8153309822e-01 76:-9.9421501160e-01 77:-5.0327736139e-01 78:-3.4114047885e-01 79:1.7532889545e-01 80:-5.8473312855e-01 81:-7.2438567877e-01 82:-8.8957118988e-01 83:4.2594486475e-01 84:-3.9404600859e-01 85:1.9102065265e-01 86:6.4459896088e-01 87:6.8203586340e-01 88:-3.6795771122e-01 89:5.7395821810e-01 90:4.2747345567e-01 91:-5.0133532286e-01 92:-7.4766695499e-01 93:-1.0000000000e+00 94:1.8770369887e-01 95:5.3886145353e-01 96:2.1825242043e-01 97:-7.6920711994e-01 98:-4.8536610603e-01 99:7.0175677538e-01 100:-3.8646331429e-01 101:-4.7224652767e-01 102:5.9688431025e-01 103:9.6840977669e-02 104:6.9402593374e-01 105:-4.4437807798e-01 106:4.5802125335e-01 107:1.8929383159e-01 108:-5.8081066608e-01 109:6.6180080175e-01 110:1.0000000000e+00 111:6.2509799004e-01 112:-7.1882534027e-01 113:-5.7208311558e-01 114:-6.5551984310e-01 115:9.3854928017e-01 116:2.1880997717e-01 117:-8.8005417585e-01 118:7.7553313971e-01 119:-3.2543146610e-01 120:-7.4650131166e-02 121:-6.7902934551e-01 122:-5.9851360321e-01 123:-7.3105621338e-01 124:-5.9722542763e-01 125:5.5687886477e-01 126:5.9330964088e-01 127:5.6967020035e-01 128:-7.7474045753e-01 129:1.6378571093e-01 130:-1.8278889358e-01 131:-7.2901767492e-01 132:-2.0738357306e-01 133:5.2540534735e-01 134:1.0614152253e-01 135:1.9295929233e-03 136:1.1584097892e-01 137:-2.9652938247e-01 138:8.3972984552e-01 139:-3.5491007566e-01 140:-5.6112062931e-01 141:-2.2869293392e-01 142:-2.9795268178e-01 143:-4.5589932799e-01 144:2.4010331929e-01 145:-5.3075265884e-01 146:-2.6950436831e-01 147:2.3841513693e-01 148:-2.6334035397e-01 149:-7.5269378722e-02 150:-6.6283744574e-01 151:-3.2378178835e-01 152:8.0095916986e-01 153:5.1965570450e-01 154:-8.6712974310e-01 155:-6.0470849276e-01 156:6.7969667912e-01 157:-6.2380921841e-01 158:1.8886376917e-01 159:3.5149011016e-01 160:4.0444183350e-01 161:1.4636765420e-01 162:-4.7125276923e-01 163:4.0263134241e-01 164:-2.7859011292e-01 165:-5.4050177336e-01 166:6.3807410002e-01 167:-4.3946298957e-01 168:6.9158118963e-01 169:-6.4625936747e-01 170:5.8114433289e-01 171:-2.6565852761e-01 172:-4.8226118088e-01 173:1.5882731974e-01 174:1.5200752020e-01 175:-4.5648899674e-01 176:-5.6891900301e-01 177:4.6064645052e-01 178:9.2070388794e-01 179:-4.3226814270e-01 180:1.9420723617e-01 181:-3.8576292992e-01 182:-4.7561430931e-01 183:6.7641776800e-01 184:8.1454443932e-01 185:-1.7126071453e-01 186:2.0987200737e-01 187:2.3840591311e-01 188:-5.0600355864e-01 189:-7.6277011633e-01 190:-5.1415383816e-01 191:-4.7667510808e-02 192:7.5230234861e-01 193:3.0902859569e-01 194:4.1718354821e-01 195:2.0202723145e-01 196:-8.7641578913e-01 197:4.6759372950e-01 198:-3.5765713453e-01 199:8.2742291689e-01 200:-1.7285017297e-02 
1.4425006509e-01 -7.7353552915e-03 1:-4.9743372202e-01 2:-8.9640490711e-02 3:7.3889315128e-01 4:-4.7475162148e-01 5:-7.9350441694e-01 6:-7.9334539175e-01 7:-2.3761749268e-01 8:-4.0442180634e-01 9:-2.1183142066e-01 10:-2.2951872647e-01 11:-7.4311107397e-01 12:-4.1473171115e-01 13:5.1532942057e-01 14:-8.3879262209e-01 15:-6.7216359079e-02 16:3.4173569083e-01 17:3.6625754088e-02 18:7.9803280532e-02 19:3.1878802180e-01 20:2.9629647732e-01 21:-6.4954084158e-01 22:6.4588356018e-01 23:1.2014780194e-01 24:1.2708742917e-01 25:-7.4217909575e-01 26:7.3450028896e-01 27:-5.5737036467e-01 28:-7.6256161928e-01 29:3.2076758146e-01 30:-6.0116469860e-01 31:1.4750535786e-01 32:2.4309839308e-01 33:3.1946575642e-01 34:4.9865588546e-01 35:-7.0655041933e-01 36:8.5723578930e-01 37:-7.2469532490e-01 38:5.8603668213e-01 39:-2.5441927835e-02 40:-1.6003945470e-01 41:5.5156016350e-01 42:-6.3048011065e-01 43:-3.5799378157e-01 44:-4.2017453909e-01 45:2.2548514605e-01 46:2.8464199975e-02 47:-6.1048501730e-01 48:-4.1570463777e-01 49:4.9138262868e-02 50:-2.4035236239e-01 51:-6.7054504156e-01 52:-6.7435705662e-01 53:-5.8279180527e-01 54:-5.3955608606e-01 55:-7.2901147604e-01 56:-7.2058451176e-01 57:6.9653701782e-01 58:6.5598613024e-01 59:-2.9188212752e-01 60:9.5512431860e-01 61:1.5170967579e-01 62:1.9264839590e-01 63:-7.1091049910e-01 64:2.8293308616e-01 65:-6.3241142035e-01 66:-4.9451601505e-01 67:5.9847074747e-01 68:-5.3430968523e-01 69:7.1274018288e-01 70:5.0530755520e-01 71:6.9404417276e-01 72:-7.1060264111e-01 73:-2.4411600828e-01 74:5.0669246912e-01 75:5.0334322453e-01 76:-8.7105655670e-01 77:-6.0117357969e-01 78:-2.3727490008e-01 79:-2.4618817866e-01 80:-2.2537986934e-01 81:-7.7631831169e-01 82:-7.3892688751e-01 83:6.6644787788e-01 84:-6.2782436609e-01 85:5.0642216206e-01 86:8.0954629183e-01 87:6.1905854940e-01 88:-5.3354310989e-01 89:5.3257346153e-01 90:3.7485820055e-01 91:-2.8357169032e-01 92:-7.3073744774e-01 93:9.2238277197e-02 94:5.6344085932e-01 95:4.7366037965e-01 96:5.3904354572e-01 97:-6.4954710007e-01 98:-3.8210773468e-01 99:8.6886751652e-01 100:-2.4946328998e-01 101:-3.4863811731e-01 102:5.7706969976e-01 103:6.1864691973e-01 104:4.0736806393e-01 105:-6.0293269157e-01 106:6.0954833031e-01 107:1.8039193749e-01 108:-2.9668721557e-01 109:7.1192336082e-01 110:6.6192954779e-01 111:3.8617667556e-01 112:-2.6572993398e-01 113:-5.6306535006e-01 114:-4.7475057840e-01 115:4.0356162935e-02 116:-9.7153587267e-03 117:-7.5494050980e-01 118:9.1635304689e-01 119:-5.4220300913e-01 120:-5.5062395334e-01 121:-5.9561353922e-01 122:-8.0827170610e-01 123:-7.0177567005e-01 124:-7.8725361824e-01 125:5.4699134827e-01 126:5.4672533274e-01 127:4.9716702104e-01 128:-4.6286451817e-01 129:1.7269758508e-02 130:-2.9371094424e-03 131:-7.3152714968e-01 132:-6.5744984150e-01 133:2.4880678952e-01 134:-3.0778601766e-01 135:-3.4322443604e-01 136:-1.6521539539e-02 137:-7.8675454855e-01 138:6.7732530832e-01 139:-4.1652843356e-01 140:-5.0147461891e-01 141:-2.7836799622e-01 142:-4.9961856008e-01 143:-1.8001498282e-01 144:6.2887030840e-01 145:-8.2277292013e-01 146:-3.0316579342e-01 147:3.1648501754e-01 148:-5.7971036434e-01 149:-3.2326105237e-01 150:-6.9425135851e-01 151:4.6437683702e-01 152:3.3024278283e-01 153:4.2279288173e-01 154:-8.5886341333e-01 155:-6.5528339148e-01 156:4.4199627638e-01 157:-6.4131742716e-01 158:4.7238525748e-01 159:4.7868993878e-01 160:4.6671697497e-01 161:3.6335110664e-01 162:-5.3265345097e-01 163:3.1614407897e-01 164:-1.7611099780e-01 165:3.2730561495e-01 166:5.3443932533e-01 167:-7.6360702515e-01 168:5.5068248510e-01 169:-7.7432858944e-01 170:6.6584753990e-01 171:-1.9854123890e-01 172:-9.4574189186e-01 173:1.3234020770e-01 174:-2.0292857289e-01 175:8.3893224597e-02 176:-6.2511783838e-01 177:5.3788077831e-01 178:5.2543419600e-01 179:-4.1400802135e-01 180:5.1874184608e-01 181:-6.1761063337e-01 182:-6.6122955084e-01 183:7.5825595856e-01 184:5.7010895014e-01 185:-2.6896017790e-01 186:4.8405897617e-01 187:9.8121476173e-01 188:-2.6659452915e-01 189:-8.0374729633e-01 190:-5.1458016038e-02 191:2.1706186235e-01 192:7.8256958723e-01 193:7.3147064447e-01 194:5.3719651699e-01 195:-5.5824989080e-01 196:-7.7234077454e-01 197:6.9033080339e-01 198:-8.4003752470e-01 199:8.2909953594e-01 200:5.0631695986e-01 
