svm_type c_svc
kernel_type rbf
gamma 0.0050251256281407036
nr_class 2
total_sv 214
rho 0.000868060939319636
label 1 -1
nr_sv 110 104
SV
0.066847789428567783 1:7.0434358 2:-5.1954731 3:-3.788248 4:-1.7098536 5:4.54531 6:9.6287297 7:-9.3641193 8:-5.4266496 9:6.1674476 10:5.9080861 11:-6.3142434 12:3.5989639 13:-7.3056442 14:-10.000081 15:-4.9324957 16:4.2359111 17:6.5127447 18:2.6057201 19:-7.583242 20:-1.5905111 21:-2.2582085 22:2.642049 23:-9.040855 24:9.7436919 25:-1.4408061 26:3.8506982 27:-1.4207411 28:-2.203153 29:4.273776 30:6.7038109 31:5.8848194 32:4.1127225 33:5.8749026 34:7.0965757 35:7.0033467 36:3.4447487 37:6.5207492 38:6.5988939 39:-9.6646324 40:-3.2891552 41:-1.4666994 42:-0.70717586 43:0.45830076 44:-11.68771 45:1.2585707 46:7.0309483 47:-11.324085 48:-5.4700993 49:-6.7837887 50:6.6820454 51:1.2362366 52:-1.932952 53:5.5695769 54:-8.7002768 55:-1.0454872 56:-3.7262399 57:10.376861 58:-10.234505 59:-1.3582745 60:-6.9214148 61:4.7681547 62:-4.9580831 63:9.6028928 64:0.78970236 65:1.7651935 66:-2.1408213 67:-4.4177507 68:9.2288716 69:10.835435 70:-3.685866 71:0.7148067 72:4.0718832 73:-0.45517346 74:5.1988214 75:-5.2713798 76:2.342326 77:0.89312375 78:-9.792083 79:1.5019466 80:6.6781025 81:-4.6210608 82:-2.518792 83:4.0915139 84:5.0743614 85:7.4639078 86:7.2141788 87:-3.4036357 88:-6.8595215 89:-0.5494613 90:-7.1266149 91:-2.7039814 92:-7.6402528 93:7.7658331 94:-7.6421276 95:-8.6808945 96:-7.7800543 97:9.7589631 98:-8.9031212 99:-6.1842895 100:-1.5680615 101:3.1135923 102:-5.7190698 103:8.1817872 104:-5.7270467 105:-5.8701079 106:-7.2358803 107:3.0417896 108:-4.1952476 109:-9.4677582 110:3.4171979 111:9.4113282 112:6.4081517 113:9.0331789 114:-7.7835349 115:8.1971899 116:-8.282486 117:-5.1906692 118:3.7655028 119:1.661864 120:3.352418 121:8.0463214 122:4.3014254 123:-8.2774351 124:-3.4251652 125:2.992569 126:6.2390254 127:-7.1809177 128:0.54079583 129:5.6083964 130:5.4577083 131:-2.4560339 132:-0.804155 133:9.9292461 134:1.4437819 135:-1.6505342 136:6.353853 137:-3.7805676 138:7.5694604 139:-10.99319 140:0.87934679 141:-10.896905 142:-7.9503579 143:6.4384129 144:2.8678059 145:2.6322633 146:-4.3847818 147:-2.680291 148:-7.8429375 149:-1.5700934 150:-0.81947742 151:-4.6284152 152:4.3832502 153:4.2237199 154:-4.2170536 155:-7.7199078 156:-8.5105921 157:6.5898006 158:-2.8826765 159:-2.4660415 160:0.26699778 161:5.1855769 162:8.2353625 163:-8.9155186 164:0.75593124 165:8.3424873 166:1.1804049 167:-4.1565848 168:-6.3541018 169:1.8269288 170:-2.4790705 171:-8.6108 172:-7.8164875 173:-5.0138051 174:8.6260108 175:-1.9141562 176:-4.9698351 177:8.4596576 178:-4.0355963 179:-2.9812028 180:-5.3873402 181:3.5653064 182:6.0479874 183:6.7425165 184:-0.042166966 185:1.1974447 186:-4.2721437 187:-4.7278277 188:-1.4871577 189:9.8275302 190:6.912358 191:-9.7453865 192:-2.1259144 193:5.687809 194:-8.392163 195:2.8151243 196:-7.6999411 197:-9.2792312 198:-6.337644 199:-4.1753467 200:-6.0454227 
0.0088545297191882019 1:7.6385483 2:-5.1060962 3:-5.0462546 4:-3.6263115 5:4.4875598 6:11.179121 7:-10.837607 8:-5.3820648 9:6.1768313 10:4.9800532 11:-6.3638041 12:2.9289734 13:-6.3401003 14:-11.513963 15:-6.204416 16:6.0564323 17:5.6518486 18:1.5663655 19:-6.4289078 20:-1.5046469 21:-3.1550114 22:2.294716 23:-6.290314 24:8.8450594 25:0.1865142 26:6.0283427 27:-0.71295597 28:-2.2608213 29:4.9936952 30:7.0920741 31:6.3341855 32:4.5725479 33:5.6165551 34:6.1277119 35:6.2468837 36:3.8339038 37:4.4139298 38:5.2222013 39:-7.5860035 40:-4.366992 41:-0.24476967 42:1.1831362 43:-1.1118368 44:-7.5773885 45:4.2196167 46:7.1635453 47:-9.5573211 48:-3.6650644 49:-7.2598035 50:7.3917747 51:2.2529803 52:-3.1801495 53:6.9519818 54:-10.539668 55:-3.5164222 56:-4.2564607 57:8.1688578 58:-10.09911 59:-2.6761901 60:-8.0834351 61:6.8051803 62:-7.5888578 63:10.175163 64:-0.14963601 65:1.478736 66:-3.2059176 67:-5.4906444 68:9.6970386 69:10.655093 70:-6.3372711 71:0.78655289 72:3.1571248 73:-2.4476991 74:5.2414439 75:-4.5499504 76:4.2091565 77:1.3266368 78:-8.6759703 79:1.7787073 80:4.4712816 81:-5.0058123 82:-5.0120777 83:3.4859849 84:6.4747651 85:6.9167739 86:5.5682658 87:-3.2145133 88:-7.3386524 89:-1.2446406 90:-6.1695829 91:-3.3045672 92:-7.4850153 93:6.2000843 94:-7.5319872 95:-4.676785 96:-7.7259786 97:10.264505 98:-7.9739161 99:-8.1044684 100:-1.9135485 101:4.9049974 102:-5.7196455 103:7.3945135 104:-5.5095181 105:-5.1071961 106:-7.6682354 107:1.3291393 108:-3.123557 109:-8.0796347 110:6.6709131 111:8.9309699 112:6.8541433 113:9.619922 114:-5.4677195 115:8.7060548 116:-7.0281116 117:-4.1382818 118:4.4174368 119:0.68817088 120:1.3108704 121:7.9839111 122:2.5601013 123:-8.6323014 124:-3.0907264 125:4.0311114 126:6.7330108 127:-9.4660084 128:-1.5030348 129:6.3515896 130:4.7894671 131:-4.4798101 132:-2.8411757 133:8.7199758 134:0.6757318 135:-4.7840252 136:5.2676832 137:-1.5898817 138:7.141054 139:-8.4121713 140:1.0743708 141:-11.142333 142:-5.620796 143:6.9279314 144:3.4721693 145:0.33944804 146:-6.6483011 147:-1.2767486 148:-9.7133854 149:-2.2390507 150:-1.9641603 151:-3.2482606 152:6.1569642 153:4.9323814 154:-4.9868199 155:-8.5318683 156:-5.5255707 157:8.060718 158:-2.254195 159:-2.5647757 160:2.8983371 161:4.6793165 162:7.5639015 163:-8.1532758 164:3.7883119 165:7.6715167 166:3.1789949 167:-4.7653112 168:-6.1123914 169:2.2176596 170:-1.9950619 171:-12.068217 172:-9.8344703 173:-5.1234403 174:7.866729 175:-3.7601552 176:-6.0573213 177:8.4863081 178:-2.7700963 179:-2.646345 180:-4.4603792 181:2.6918468 182:8.7584 183:5.5309803 184:-0.4435404 185:1.4499445 186:-5.75657 187:-4.3785225 188:-2.4815037 189:9.0105064 190:5.3615691 191:-8.9232239 192:-2.0450798 193:5.5282393 194:-6.6547232 195:0.070687163 196:-6.1336384 197:-12.098943 198:-7.8753082 199:-5.2979354 200:-5.2882696 
0.092339866527792053 1:7.3162874 2:-2.4019854 3:-5.2611115 4:-4.1886222 5:4.1881977 6:9.4645314 7:-9.7371022 8:-5.8122966 9:7.3726536 10:5.6779137 11:-7.8647095 12:1.8500971 13:-7.8422881 14:-10.114408 15:-4.678664 16:5.3956069 17:6.1218847 18:3.1214765 19:-6.7140329 20:-2.1091142 21:-2.2015663 22:0.51538054 23:-6.6022495 24:8.7419301 25:-1.4652235 26:5.8702719 27:-0.33622701 28:-2.8465368 29:4.8490204 30:4.5930888 31:7.4885479 32:5.2516861 33:7.4074256 34:6.3395397 35:6.5983397 36:4.5916347 37:7.9695114 38:5.8952661 39:-9.562593 40:-6.3615418 41:-1.2868383 42:-0.064366994 43:-2.3513559 44:-9.3647243 45:2.2358967 46:8.4521197 47:-8.0596421 48:-2.6792124 49:-7.9966377 50:7.0661692 51:3.5705255 52:-1.6054354 53:7.8968769 54:-7.8892269 55:-2.6963326 56:-3.3884227 57:9.0617519 58:-8.897315 59:-2.8071685 60:-6.5490719 61:7.7907579 62:-7.8899656 63:8.7192241 64:0.76903752 65:0.33183458 66:-2.1122333 67:-6.3331606 68:7.6976883 69:8.2329774 70:-3.9765857 71:1.3740784 72:0.80960653 73:-2.3840794 74:5.6461815 75:-3.428577 76:1.185651 77:1.024126 78:-6.5301122 79:0.75715735 80:7.5528623 81:-4.5324153 82:-4.9202772 83:1.6191402 84:6.1637748 85:7.9644861 86:9.2432623 87:-2.6998091 88:-7.8041014 89:-0.61566811 90:-5.6642053 91:-4.2580478 92:-5.5010979 93:8.769338 94:-6.8240768 95:-5.3587592 96:-7.4552491 97:9.1123869 98:-6.7245063 99:-6.6915606 100:-1.3372627 101:4.046137 102:-3.2194588 103:5.647282 104:-5.9373769 105:-5.1014985 106:-7.2030111 107:2.1824531 108:-1.9894968 109:-8.9556403 110:5.736237 111:8.8672449 112:5.2718958 113:6.8251987 114:-5.7659725 115:9.4387029 116:-7.879267 117:-3.5893929 118:5.1871594 119:2.4253486 120:4.101227 121:6.4156794 122:5.6511524 123:-7.9547829 124:-3.8535872 125:3.4860112 126:7.1407512 127:-8.2484104 128:-1.6402922 129:6.2603725 130:3.9163361 131:-3.8040184 132:-2.2760982 133:9.413285 134:1.2154141 135:-6.1819479 136:6.1341574 137:-1.1949524 138:7.0019241 139:-8.0157488 140:1.778797 141:-9.2975522 142:-7.0438481 143:6.1690371 144:1.9759212 145:0.38649847 146:-6.0924984 147:-2.8443156 148:-6.4597465 149:-2.314176 150:-1.0538674 151:-3.5955498 152:4.7088513 153:1.3067303 154:-4.2617415 155:-8.9311262 156:-5.1076575 157:7.9439915 158:-2.9411474 159:-1.2921997 160:0.90493251 161:3.8580225 162:7.1825893 163:-8.5492055 164:4.1253993 165:7.0629298 166:1.7449652 167:-4.6585988 168:-8.0437262 169:1.9965668 170:-3.4574101 171:-8.7189896 172:-8.3760707 173:-5.6279449 174:8.1816137 175:-3.3253004 176:-8.419814 177:6.7165962 178:-1.8934332 179:-4.6296047 180:-4.4442412 181:2.2123515 182:6.3618129 183:4.9575615 184:0.52159853 185:2.4990095 186:-2.3942811 187:-1.9853253 188:-0.77380125 189:7.9046993 190:6.2038831 191:-8.552872 192:-2.0343308 193:7.1302761 194:-8.7140998 195:1.4466104 196:-9.8700865 197:-9.1493432 198:-6.7139031 199:-3.8528658 200:-8.2548451 
0.025158710049174523 1:7.5887856 2:-3.6724873 3:-4.5696039 4:-2.7068709 5:3.5932732 6:11.947832 7:-8.8214102 8:-5.3415921 9:7.3115378 10:5.2153182 11:-6.8924536 12:3.3796658 13:-6.9401787 14:-8.1270501 15:-5.1373947 16:3.8422234 17:6.0329542 18:3.5005454 19:-7.5123841 20:-0.47950811 21:-1.9764101 22:3.7218929 23:-8.1316026 24:9.3351248 25:-0.179508 26:2.6518321 27:0.29796955 28:-1.3588518 29:3.5063492 30:6.1401847 31:5.8667886 32:2.8729459 33:4.407074 34:6.3982168 35:8.873428 36:4.4223046 37:5.8320124 38:6.2143319 39:-7.679135 40:-4.1003277 41:0.18340066 42:0.11724842 43:0.78388955 44:-7.4854761 45:1.3307977 46:5.8748663 47:-10.133197 48:-4.4263283 49:-9.2539639 50:7.3619576 51:3.0854731 52:-2.0524014 53:5.2334801 54:-8.1820302 55:-1.8681443 56:-6.7445536 57:9.3434425 58:-6.9921759 59:-2.0507238 60:-4.5022372 61:8.8804475 62:-6.8157372 63:8.56693 64:0.86242323 65:1.4629458 66:0.91440239 67:-4.2582958 68:7.3314909 69:10.831604 70:-4.2693237 71:-0.41290846 72:1.7758407 73:-0.90008165 74:5.948471 75:-3.1651261 76:1.356623 77:3.9080991 78:-8.9396357 79:0.36825308 80:6.5735176 81:-6.4035956 82:-3.6868308 83:3.4253846 84:6.0053456 85:8.7419855 86:6.2248213 87:-2.9771519 88:-7.431075 89:-0.84814641 90:-5.8166999 91:-5.4187565 92:-6.5615745 93:8.0227441 94:-6.6903867 95:-5.7847157 96:-8.8781842 97:9.9038464 98:-5.8192261 99:-7.0745725 100:-1.8377322 101:4.434508 102:-3.8352874 103:7.3052524 104:-8.2300322 105:-6.0255827 106:-7.8344571 107:-0.60593812 108:-5.0770455 109:-10.361107 110:5.3938758 111:8.6173843 112:6.938249 113:8.7522767 114:-5.4579042 115:7.6563952 116:-7.8739506 117:-4.9848668 118:5.225263 119:0.9200837 120:2.6819184 121:9.0490603 122:2.3915929 123:-5.8061036 124:-2.8310007 125:3.4862765 126:7.7863563 127:-7.2020698 128:-0.75409887 129:6.8508122 130:5.4555771 131:-0.21664176 132:-1.7228967 133:7.9680154 134:0.53831014 135:-3.9524694 136:6.5847953 137:-2.5376594 138:7.1039013 139:-9.0413897 140:0.43589233 141:-9.9490548 142:-6.8110173 143:7.4112865 144:4.0479677 145:-0.24095777 146:-5.6537665 147:-1.9666809 148:-8.5046647 149:-2.2865371 150:-1.6480638 151:-4.4900397 152:5.1533354 153:2.5281602 154:-2.9030524 155:-8.8137892 156:-7.3414713 157:6.8589628 158:-1.4996631 159:-1.0893501 160:2.2167491 161:4.8776884 162:7.790667 163:-9.8622629 164:1.1889987 165:9.8185641 166:1.0389941 167:-3.1683892 168:-5.4120845 169:4.3046424 170:-1.1581283 171:-10.495029 172:-8.0301945 173:-5.5573657 174:6.2370984 175:-4.2699501 176:-6.787529 177:4.8500248 178:-4.7053033 179:-4.7290569 180:-3.7005691 181:1.9374555 182:7.5590277 183:5.8080808 184:2.1264476 185:1.55358 186:-4.7750943 187:-4.4322706 188:-1.394725 189:6.8139707 190:6.21711 191:-9.8219153 192:-0.98367954 193:4.9949367 194:-7.8170733 195:0.12094655 196:-7.2212912 197:-9.8694182 198:-7.4048809 199:-3.4222721 200:-7.5091097 
0.13610375915202808 1:7.3694185 2:-4.1805541 3:-5.8576078 4:-2.6553889 5:2.1372537 6:9.6665926 7:-7.5470626 8:-5.1919563 9:7.6285173 10:5.4893433 11:-7.334116 12:4.9825219 13:-6.719249 14:-8.3685987 15:-5.4532196 16:3.2789928 17:5.0554945 18:3.3858922 19:-7.1564367 20:-3.0991704 21:-2.1953585 22:1.6580498 23:-7.4800985 24:6.820432 25:-0.049673036 26:2.102889 27:-1.197777 28:-1.5087742 29:3.7087218 30:6.6211364 31:6.3545504 32:4.2248164 33:6.6408463 34:6.3025568 35:5.8911222 36:4.315338 37:5.7826191 38:4.5477874 39:-6.4686121 40:-4.2247676 41:-1.1031928 42:-1.9396026 43:-1.7366621 44:-10.090302 45:3.3729925 46:4.7761556 47:-8.0698432 48:-6.0939408 49:-7.8110329 50:7.1071901 51:4.7373128 52:-0.029430845 53:7.207116 54:-8.4844787 55:-2.7496567 56:-2.0354985 57:8.8352975 58:-9.1080754 59:-0.84179762 60:-6.8524815 61:8.2683978 62:-5.0960202 63:8.8191152 64:0.30360469 65:-0.5033823 66:-2.2579463 67:-3.9676502 68:9.5627676 69:8.8206291 70:-5.1238999 71:-0.17127432 72:3.7307329 73:-1.5804851 74:3.9052485 75:-3.493879 76:1.8910635 77:2.2269123 78:-9.0428595 79:2.7691195 80:5.9393034 81:-4.8550888 82:-3.8547753 83:3.1686387 84:4.6032694 85:5.5731958 86:5.0875705 87:-5.3586552 88:-8.0633845 89:-0.66424404 90:-7.3585327 91:-4.8945061 92:-7.4922364 93:9.6927226 94:-9.6851641 95:-6.0969907 96:-7.9940289 97:9.0560875 98:-8.7009943 99:-7.4570737 100:-2.1771635 101:5.2129885 102:-4.4456326 103:6.9380628 104:-5.8728328 105:-5.7290145 106:-6.0090614 107:2.6963187 108:-1.9616023 109:-10.053112 110:5.4580838 111:9.4045974 112:6.4092529 113:7.9593062 114:-6.8042457 115:10.624353 116:-9.0993639 117:-5.2070138 118:4.8783468 119:2.2594286 120:5.0514973 121:9.9287345 122:2.4511297 123:-6.413052 124:-4.6928507 125:4.0009976 126:9.4415399 127:-7.9218804 128:-0.12777319 129:4.4403542 130:5.6568314 131:-2.8350423 132:-1.2531661 133:9.5571302 134:-1.0344483 135:-4.3875251 136:6.6903277 137:-3.7557763 138:7.0635383 139:-8.5705146 140:1.6097366 141:-9.2893901 142:-5.9489675 143:6.9888566 144:1.4224923 145:1.0030844 146:-4.6518068 147:-1.3268595 148:-9.0173543 149:-3.0745466 150:-2.4207932 151:0.25090168 152:3.5123587 153:3.6382691 154:-2.7188128 155:-8.8804936 156:-8.3464267 157:6.6921818 158:-1.3519847 159:-3.6413308 160:2.7536067 161:4.3021816 162:9.2213702 163:-9.667812 164:4.5745434 165:9.2989223 166:0.29039828 167:-5.6509778 168:-7.5500553 169:5.1593313 170:-2.9253293 171:-8.9622556 172:-10.069854 173:-4.5590844 174:8.5190673 175:-4.4077281 176:-5.3808524 177:6.8913646 178:-4.1940191 179:-2.2343076 180:-4.3971277 181:3.0820366 182:5.7100729 183:6.1442475 184:-0.5507702 185:2.9111616 186:-3.5860344 187:-3.6695917 188:-3.0243642 189:9.6324759 190:7.3880874 191:-8.5732776 192:-3.9738882 193:7.6824613 194:-7.130114 195:1.5238259 196:-8.8424572 197:-9.3656859 198:-9.229562 199:-3.5863298 200:-6.0614816 
0.11254056239415117 1:8.0205351 2:-3.4526168 3:-2.5681154 4:-2.3006935 5:4.8406568 6:8.3763313 7:-7.7779881 8:-7.3007859 9:6.1180003 10:4.7457174 11:-9.2955907 12:4.2125412 13:-7.4535869 14:-10.328267 15:-4.9765544 16:3.5291824 17:6.0244069 18:0.62881934 19:-6.6336139 20:-2.3014966 21:-2.897214 22:0.7064158 23:-7.8150441 24:7.4941491 25:0.44891869 26:4.5476991 27:0.39959639 28:-3.216199 29:3.9820076 30:4.81239 31:4.6319671 32:4.4324008 33:5.8640322 34:6.6448129 35:6.285448 36:4.5716244 37:4.131423 38:6.0367569 39:-9.0309568 40:-2.07049 41:-2.4500833 42:-0.76161306 43:-2.1010015 44:-8.7465661 45:2.7541605 46:4.6958838 47:-10.555199 48:-2.8122589 49:-7.9012232 50:7.2720718 51:3.5892212 52:-1.3575956 53:6.8745044 54:-9.1980827 55:-1.8336542 56:-3.4919801 57:8.5714949 58:-7.6936023 59:-0.84803991 60:-4.7682934 61:5.4951511 62:-4.8108594 63:8.8939391 64:0.96770513 65:0.93372496 66:-1.5301391 67:-6.8679866 68:9.339247 69:9.3586263 70:-4.6437055 71:-0.0078723199 72:3.8481632 73:-1.2563027 74:5.4440429 75:-4.3142967 76:1.0390103 77:4.0542315 78:-7.8599247 79:1.2742337 80:8.0952836 81:-4.2107195 82:-5.7953824 83:2.8426163 84:5.3412654 85:7.7256297 86:7.6601417 87:-1.7820983 88:-8.8187524 89:1.3582383 90:-5.8591342 91:-4.6773602 92:-6.9997755 93:8.6835187 94:-9.0297427 95:-4.7990616 96:-7.9552413 97:9.2168149 98:-9.0817926 99:-7.3830595 100:1.0989638 101:4.61403 102:-5.4191097 103:6.345839 104:-4.9651103 105:-4.6040341 106:-7.2680394 107:2.6211624 108:-3.5148275 109:-8.9710811 110:5.5660934 111:11.004801 112:5.9526944 113:7.5650712 114:-7.0020209 115:10.42379 116:-7.8186751 117:-3.3151062 118:3.1370571 119:2.4193508 120:2.3078025 121:10.889519 122:4.5575767 123:-6.4416661 124:-2.3317514 125:5.0722506 126:4.9073093 127:-6.922213 128:-1.5593664 129:6.4745827 130:4.8495113 131:-2.3027665 132:-1.6739881 133:10.304574 134:0.51111416 135:-5.0066397 136:6.9129808 137:-3.274081 138:6.3874506 139:-7.7290186 140:-1.1266345 141:-9.9464366 142:-8.6873815 143:6.3139637 144:2.9165064 145:0.62671176 146:-6.8270974 147:-2.5658593 148:-8.5558714 149:0.36180407 150:0.83474713 151:-2.0012107 152:5.4119789 153:4.1980126 154:-5.1573011 155:-9.5472609 156:-7.1883429 157:9.1059461 158:-3.8178343 159:-1.2025307 160:2.2076857 161:3.3612653 162:6.4290539 163:-9.9650935 164:3.8406451 165:10.703054 166:2.0161612 167:-3.8387208 168:-3.7369622 169:3.8711324 170:-2.9340703 171:-8.6624607 172:-7.746077 173:-5.8853232 174:7.8114818 175:-2.9430888 176:-6.4844389 177:5.9400174 178:-3.9761286 179:-3.3965161 180:-5.2185685 181:1.0652139 182:7.5537341 183:4.5953966 184:0.41478988 185:3.4435368 186:-5.2935058 187:-3.2640181 188:-0.57495854 189:9.7604165 190:4.9489061 191:-9.5889298 192:-4.5760516 193:8.2472053 194:-5.7896419 195:1.4354741 196:-6.7740619 197:-9.3123414 198:-6.3839881 199:-3.5257674 200:-7.4103165 
0.059656784931167238 1:7.9169151 2:-3.4980471 3:-4.8344167 4:-3.1818957 5:5.3952463 6:10.975233 7:-8.3379968 8:-4.4759667 9:4.6546727 10:6.9279185 11:-8.528705 12:1.8391122 13:-7.6238518 14:-10.20934 15:-3.479932 16:3.6155691 17:4.9374162 18:2.4808566 19:-7.0047766 20:-0.26796192 21:-3.2534858 22:0.9690456 23:-6.6591404 24:8.1990986 25:-0.054027052 26:3.9291366 27:0.41198674 28:-1.4525975 29:4.8903798 30:8.2349667 31:7.8267402 32:3.0164995 33:6.3048355 34:5.9628743 35:6.2797118 36:4.0289324 37:5.1800766 38:4.0935704 39:-10.756049 40:-4.0966029 41:-1.040365 42:2.932379 43:-1.6418641 44:-7.8594448 45:3.6149551 46:7.950217 47:-10.454178 48:-6.0359003 49:-9.4611169 50:9.0771922 51:3.8954784 52:-3.2735957 53:8.7298727 54:-8.1129873 55:-2.7285331 56:-2.3772922 57:7.4663026 58:-7.8382875 59:-1.330818 60:-5.8045287 61:7.467237 62:-5.8883911 63:8.5420698 64:1.9910652 65:0.15198878 66:-1.0168513 67:-4.4787291 68:9.3715785 69:8.8884185 70:-5.7396813 71:0.12487069 72:1.8791201 73:-1.4759083 74:4.7213351 75:-2.7580612 76:1.5947163 77:2.3444337 78:-10.843123 79:0.18129193 80:7.38396 81:-5.7982063 82:-2.6734448 83:0.57530183 84:5.3171755 85:8.5130761 86:7.437149 87:-3.0603623 88:-8.5580903 89:-0.27348143 90:-7.4709759 91:-4.2135765 92:-6.6879143 93:8.2588141 94:-6.8680695 95:-6.0126489 96:-8.9971454 97:10.079969 98:-7.5755055 99:-6.9519178 100:0.40678814 101:5.1268293 102:-3.8909941 103:5.226574 104:-8.6052475 105:-5.9429364 106:-7.4370651 107:1.0554246 108:-4.5510291 109:-11.354531 110:3.9549961 111:9.0831037 112:4.4089623 113:7.8278711 114:-5.1943057 115:8.1556983 116:-7.4578017 117:-3.908064 118:3.4357968 119:2.7287894 120:1.8023982 121:7.8920981 122:3.5857112 123:-7.0875797 124:-3.3926529 125:5.1447468 126:6.4480562 127:-10.556461 128:0.5248473 129:6.3305934 130:4.5766913 131:-2.5181854 132:-4.2536764 133:8.7727587 134:-1.0281451 135:-3.4898023 136:7.3916317 137:-2.418087 138:8.7026895 139:-7.8034606 140:1.3535875 141:-12.399635 142:-6.4624807 143:6.8463903 144:2.5893702 145:0.65341433 146:-7.4141379 147:-0.26919313 148:-9.0977249 149:-2.6837595 150:-0.019109497 151:-3.2728419 152:5.3912434 153:2.7255764 154:-3.0481058 155:-8.5612868 156:-6.8245137 157:8.0744589 158:-2.2904295 159:-1.5466849 160:1.8495785 161:3.8176858 162:6.3204047 163:-7.903635 164:3.6415228 165:8.4060297 166:1.845479 167:-3.9645054 168:-6.9839837 169:2.4011057 170:-1.6807867 171:-10.683032 172:-7.3362004 173:-3.8113351 174:6.1723108 175:-2.8085108 176:-6.4857553 177:5.6537795 178:-0.92464424 179:-4.257963 180:-5.3005103 181:2.4243569 182:8.4196029 183:5.4576204 184:1.2847039 185:1.218443 186:-5.7845161 187:-3.269035 188:-1.3096397 189:7.8243994 190:6.3038406 191:-10.807717 192:-3.6366443 193:8.2341631 194:-5.8373728 195:0.78056368 196:-9.4135215 197:-8.587732 198:-9.0351113 199:-2.991467 200:-7.3124439 
0.042376899199082094 1:6.5693505 2:-3.5643526 3:-4.2075215 4:-2.9622463 5:4.1043228 6:10.658962 7:-8.6275144 8:-6.2092203 9:6.4623374 10:6.9935309 11:-6.6179281 12:3.9487816 13:-8.3334042 14:-9.663741 15:-4.2456823 16:3.8322705 17:4.3906365 18:2.034759 19:-4.9633411 20:-0.3510287 21:-2.8323545 22:1.5602053 23:-6.5723974 24:8.9377612 25:-1.1532482 26:3.3421796 27:-0.75762391 28:-2.331696 29:4.5706999 30:7.4168699 31:7.7367251 32:5.6922207 33:7.1634595 34:5.9593856 35:6.8755194 36:4.1732318 37:7.5240514 38:6.703273 39:-7.3301826 40:-3.6404183 41:-0.85529362 42:0.57290281 43:-1.8483606 44:-7.1300183 45:2.9122811 46:5.4505638 47:-10.640676 48:-4.3060198 49:-6.1950122 50:7.8629923 51:2.611167 52:-2.8198742 53:4.8366885 54:-10.353238 55:-2.4415923 56:-4.1758268 57:8.4337355 58:-9.2013729 59:-2.5336026 60:-8.0997531 61:10.456493 62:-4.5547668 63:10.196835 64:0.47256163 65:0.045476577 66:-2.4759037 67:-6.1772623 68:9.1619816 69:9.7084531 70:-4.6315027 71:1.1110331 72:3.071946 73:-1.4384983 74:5.011957 75:-4.2405636 76:3.1161286 77:0.71965827 78:-10.921215 79:2.1459832 80:5.8079149 81:-6.1850965 82:-4.0435106 83:2.3856821 84:5.5321602 85:9.162085 86:7.1298191 87:-2.0271082 88:-7.7319078 89:-1.6887165 90:-8.4789047 91:-5.684019 92:-5.7291387 93:5.9741231 94:-5.6785941 95:-5.1446914 96:-8.0956459 97:9.3887438 98:-7.2228419 99:-6.5277702 100:-1.024709 101:5.5203146 102:-3.0718612 103:6.0128983 104:-7.8247858 105:-4.6420535 106:-8.5947342 107:-0.66174267 108:-1.3518375 109:-11.138077 110:6.1782716 111:10.844032 112:5.3996082 113:7.8788775 114:-5.1781704 115:8.8899571 116:-8.3236253 117:-4.73744 118:4.4242573 119:1.6135349 120:3.3011817 121:7.82704 122:4.4697029 123:-7.6430081 124:-4.223919 125:3.1858101 126:6.1819049 127:-9.2857127 128:-0.62117957 129:6.606764 130:4.7985953 131:-3.436771 132:-1.2345049 133:9.6474112 134:-0.0040644313 135:-2.6585562 136:7.6872067 137:-2.3928726 138:4.5288836 139:-8.0631572 140:-1.0908497 141:-10.093188 142:-8.1204044 143:6.2431474 144:2.2714688 145:-0.27128228 146:-6.2037874 147:-1.4452315 148:-7.9084211 149:-1.7900029 150:0.9811781 151:-3.8478806 152:5.3287481 153:2.983596 154:-3.8305115 155:-9.8489344 156:-10.211924 157:7.8267886 158:-1.4232286 159:-1.1159877 160:3.0162666 161:5.1159674 162:8.7492626 163:-8.1451075 164:3.6305003 165:10.121236 166:0.66090832 167:-5.2167383 168:-5.1891205 169:2.8888542 170:-3.2314501 171:-9.0547497 172:-9.3523293 173:-5.9035088 174:7.0896658 175:-3.706959 176:-5.3721604 177:6.9637919 178:-2.7594276 179:-3.7937637 180:-3.2910606 181:2.1815119 182:5.9911306 183:5.8171939 184:0.36347143 185:5.0820533 186:-6.652395 187:-3.6374816 188:-0.44109372 189:10.997002 190:6.8224438 191:-10.772084 192:-1.6932389 193:5.5044573 194:-8.1225722 195:0.3333883 196:-8.9848821 197:-9.8040314 198:-7.3827702 199:-5.0229455 200:-8.6769802 
0.091110290560319079 1:8.0966834 2:-3.2322044 3:-4.8448411 4:-2.4177871 5:4.9961729 6:8.4366852 7:-12.041132 8:-3.2060354 9:5.8844559 10:5.1185897 11:-6.909807 12:2.9718233 13:-6.9383777 14:-11.411608 15:-6.399525 16:3.327721 17:6.8731663 18:3.4071172 19:-6.5950449 20:-1.0508047 21:-3.286293 22:1.7198956 23:-7.3700875 24:8.1593328 25:3.1484727 26:5.7275134 27:0.94148962 28:-3.1081588 29:4.110187 30:6.7540903 31:7.5570126 32:4.4108627 33:6.3612036 34:8.1521874 35:4.9682218 36:4.2541434 37:6.6922321 38:6.6694739 39:-9.051789 40:-4.087942 41:-1.9141918 42:0.19141757 43:-1.7142069 44:-9.5720597 45:2.2191584 46:6.0761692 47:-10.343673 48:-4.9614713 49:-9.5824176 50:7.1687034 51:5.0509415 52:-3.181954 53:9.1218648 54:-8.7237648 55:-1.9564218 56:-4.0035944 57:7.7557918 58:-9.0366748 59:1.1819463 60:-8.2031699 61:7.6620144 62:-5.8019304 63:10.565019 64:0.49842287 65:-0.14494607 66:-3.5927274 67:-3.7248843 68:7.8261563 69:8.3664729 70:-3.5229917 71:2.0004604 72:2.2650328 73:-0.16821445 74:5.9488055 75:-3.3934284 76:2.3050293 77:0.55440036 78:-10.491358 79:2.3405718 80:5.745536 81:-4.9511501 82:-2.8532072 83:0.38016118 84:5.5343856 85:7.7263468 86:8.4811084 87:-1.441028 88:-8.1095593 89:-1.2789802 90:-7.9996429 91:-5.3602884 92:-6.874027 93:8.6729732 94:-7.1400726 95:-6.2779496 96:-6.2807022 97:11.299233 98:-7.9868459 99:-5.5536993 100:-2.313201 101:4.6861174 102:-5.8837843 103:6.6047847 104:-7.3949954 105:-7.2619537 106:-8.5792118 107:-0.18553637 108:-4.686952 109:-10.887714 110:5.4176362 111:10.399755 112:6.064195 113:7.5141082 114:-6.4806366 115:7.5055041 116:-7.501317 117:-4.3309838 118:2.6449942 119:2.8505036 120:2.2724436 121:9.6183233 122:4.7076904 123:-6.9440861 124:-2.4656403 125:5.838187 126:4.9604118 127:-8.5320215 128:-1.0167685 129:7.0807415 130:4.7651223 131:-3.6131137 132:-2.3425886 133:10.128934 134:-0.49429561 135:-3.56212 136:8.8478741 137:-2.0421202 138:5.8378046 139:-6.6594731 140:1.8616524 141:-10.540075 142:-8.1994017 143:6.3533508 144:4.7032945 145:0.21148151 146:-8.2865749 147:-1.7323498 148:-8.3882484 149:-0.75654642 150:0.28112571 151:-4.124324 152:4.4678184 153:3.2275486 154:-3.5957079 155:-7.5392411 156:-6.5628233 157:8.7929245 158:1.0629253 159:-2.8790284 160:2.5500146 161:4.9184419 162:9.1370229 163:-7.7998402 164:3.1848226 165:8.3248028 166:1.1147753 167:-4.9432985 168:-6.5587708 169:3.8933341 170:-1.4450864 171:-8.3327436 172:-7.8348931 173:-4.1766028 174:7.4760778 175:-3.4412059 176:-6.0455656 177:9.0261077 178:-2.4293381 179:-4.9390591 180:-3.201457 181:2.4962503 182:4.9576363 183:5.9190705 184:-2.8208486 185:2.0755462 186:-4.7804123 187:-3.4331052 188:-1.6448262 189:8.0887453 190:7.2153783 191:-8.9499219 192:-1.6054354 193:6.5487516 194:-6.8980671 195:0.36249804 196:-7.9011291 197:-8.9409902 198:-5.8662517 199:-4.155675 200:-8.1584744 
0.1194112533887673 1:6.6752529 2:-2.9092671 3:-5.1353701 4:-2.540381 5:3.2387185 6:10.79001 7:-8.8662126 8:-5.7484099 9:7.3261717 10:6.1498601 11:-7.3298099 12:4.1346727 13:-7.2550259 14:-9.0534949 15:-3.509925 16:3.0469461 17:7.8267851 18:1.5785141 19:-5.7179036 20:-1.4923361 21:-1.6555148 22:2.1345055 23:-7.084697 24:8.8720615 25:0.31241306 26:2.937753 27:1.6544725 28:-2.9447742 29:6.2626264 30:6.8725021 31:6.6039829 32:3.6265741 33:7.0311698 34:6.886787 35:6.2982219 36:4.5562462 37:6.5465867 38:7.4349695 39:-6.8520467 40:-2.0203641 41:-1.1283277 42:-0.54489081 43:-1.0277788 44:-6.9537637 45:2.241635 46:6.3675377 47:-8.0654732 48:-5.2100545 49:-7.8490679 50:6.1059396 51:5.0502456 52:-1.3783669 53:7.533091 54:-10.355647 55:-4.5714797 56:-2.3645316 57:8.972292 58:-9.511133 59:-3.8355353 60:-4.2025847 61:6.8617319 62:-5.3796447 63:8.895929 64:-0.084657965 65:1.4355263 66:-2.2509374 67:-7.1011453 68:8.052241 69:7.6106484 70:-4.7446709 71:0.73155008 72:1.3335644 73:-1.7735742 74:7.2753253 75:-3.0844198 76:3.0131884 77:0.97336534 78:-9.1178523 79:1.9812447 80:6.2266813 81:-4.54912 82:-2.0627468 83:3.2071483 84:4.9269234 85:8.0528492 86:7.1754647 87:-2.5807847 88:-8.7090878 89:-0.3832762 90:-9.1966638 91:-4.1685157 92:-7.1100451 93:9.0815614 94:-6.4187469 95:-6.6824333 96:-7.2974148 97:11.207035 98:-7.3717844 99:-6.681093 100:0.4324176 101:5.0960136 102:-2.8374023 103:5.8985302 104:-9.4901227 105:-3.1806582 106:-6.3461057 107:0.46116459 108:-3.8851695 109:-10.582755 110:5.0337762 111:8.5534863 112:6.4844287 113:8.1391193 114:-3.9490038 115:7.8071572 116:-7.34524 117:-3.3045477 118:4.1877709 119:4.3305902 120:2.0766759 121:8.1870347 122:3.1546894 123:-9.368414 124:-4.6882729 125:5.7640073 126:5.1982167 127:-8.8131887 128:-0.74429919 129:6.5429927 130:2.7466657 131:-3.5645288 132:-3.5406826 133:7.0417823 134:-1.6290501 135:-1.6182778 136:6.328754 137:-4.8207626 138:7.1690001 139:-9.7302282 140:-0.73598862 141:-9.9241293 142:-8.4530248 143:7.4868039 144:3.6943644 145:1.2862199 146:-6.4111234 147:-1.2964188 148:-7.2364072 149:-1.4436839 150:-0.8150607 151:-3.4169657 152:5.8519494 153:3.3875363 154:-3.1870455 155:-9.8620574 156:-6.7270266 157:7.0673119 158:-3.6532232 159:-3.2188339 160:4.8765035 161:2.5409107 162:8.4235696 163:-9.4227187 164:2.2354326 165:8.2669066 166:0.69586454 167:-3.947599 168:-5.9504002 169:3.2401884 170:-1.0710061 171:-8.9272684 172:-7.7754882 173:-5.5112421 174:8.7719209 175:-3.1828729 176:-4.9367389 177:9.3884651 178:-4.3121999 179:-3.7520826 180:-4.0654103 181:3.0085404 182:6.0742985 183:4.8074256 184:0.993113 185:2.6887266 186:-4.2473755 187:-3.7291728 188:0.78796789 189:10.30681 190:7.6586818 191:-8.9027155 192:-2.8375118 193:6.2395154 194:-7.6095149 195:0.34892154 196:-7.8670186 197:-10.216069 198:-7.5861355 199:-4.7264368 200:-6.6796902 
0.14824579760455284 1:8.9943857 2:-3.6132521 3:-4.780375 4:-3.2602142 5:6.253612 6:11.568013 7:-9.3750973 8:-4.8074693 9:6.104411 10:4.6955464 11:-9.7711541 12:4.1899071 13:-8.5708564 14:-9.2001376 15:-3.3171338 16:5.0446712 17:4.8023265 18:2.0152572 19:-7.7104927 20:-1.0244725 21:-2.1351876 22:2.2621938 23:-7.5398713 24:7.422162 25:-1.2284239 26:4.3493542 27:-0.88010258 28:-2.3341724 29:4.0800018 30:7.1050706 31:6.2299212 32:3.3196126 33:6.0023869 34:6.6078392 35:7.8336612 36:4.3272346 37:4.807573 38:6.9015736 39:-8.5964305 40:-4.1462697 41:-1.0378355 42:0.92763585 43:-0.1689027 44:-9.2148658 45:1.1283974 46:5.9024219 47:-9.544819 48:-4.5967477 49:-9.8377509 50:7.6412312 51:2.3154945 52:-0.57137476 53:7.4969445 54:-7.9035572 55:-3.7670494 56:-4.1389417 57:6.6697352 58:-9.4463135 59:-1.5093637 60:-3.7093024 61:7.4818839 62:-4.5527525 63:8.0811393 64:-1.1082658 65:0.18343962 66:-0.58140529 67:-5.6066614 68:9.5616406 69:9.5506494 70:-4.6180436 71:-0.20281541 72:4.3829611 73:-0.68171367 74:5.523499 75:-3.7655867 76:1.6559336 77:2.0207872 78:-10.397903 79:2.1233076 80:6.9764442 81:-5.6417221 82:-3.8029699 83:1.7632876 84:5.6890338 85:7.7850347 86:5.2045719 87:-2.3112616 88:-7.7878668 89:-3.4058742 90:-5.7101909 91:-5.4769775 92:-8.0846181 93:9.1483913 94:-6.1407863 95:-3.6732422 96:-7.1176523 97:9.0175308 98:-8.4540831 99:-7.7717949 100:-2.5541616 101:6.923837 102:-5.498403 103:5.9018867 104:-6.8223132 105:-6.3675214 106:-6.6076722 107:2.2875213 108:-4.8882965 109:-10.446679 110:4.7980259 111:9.9261861 112:8.3627297 113:8.0253504 114:-6.1207808 115:8.8517811 116:-9.0543087 117:-5.9064036 118:4.2735144 119:3.6688536 120:3.5819787 121:7.5065792 122:3.3203393 123:-7.4362146 124:-4.1011095 125:6.8347804 126:6.1006294 127:-9.0232599 128:-1.2985366 129:6.6105852 130:4.0134032 131:-2.091836 132:-1.7752158 133:9.8798746 134:-0.45477742 135:-2.6504675 136:8.1280636 137:-3.847696 138:7.1803986 139:-9.1025289 140:1.8582243 141:-10.567959 142:-6.0286553 143:5.9801786 144:5.1495249 145:1.0240945 146:-7.3715228 147:0.19223024 148:-7.6839376 149:-2.6888846 150:-1.3452682 151:-1.5435903 152:5.8564409 153:3.1878111 154:-3.6232005 155:-8.1288535 156:-6.4433202 157:6.4432967 158:-2.2445073 159:-2.8566129 160:0.037716508 161:6.0430991 162:7.5941257 163:-9.4099375 164:3.2981591 165:9.2543327 166:1.9432616 167:-3.5002262 168:-6.4987821 169:4.1528348 170:-2.6442196 171:-9.8983561 172:-9.1882868 173:-5.481645 174:8.2414513 175:-3.8899989 176:-3.6304674 177:6.2236079 178:-4.0641834 179:-2.4826458 180:-4.7487197 181:3.6390196 182:7.2417437 183:4.4427837 184:-0.40504065 185:1.9275577 186:-6.1003203 187:-4.7500666 188:-1.0359952 189:13.206168 190:5.5359617 191:-12.628835 192:-3.6888162 193:8.5700752 194:-7.0900659 195:1.5849175 196:-8.5759804 197:-11.481554 198:-9.1390226 199:-3.8825561 200:-9.1209701 
0.036089907229854265 1:6.7171997 2:-4.9571543 3:-3.6082841 4:-3.4179032 5:4.4842048 6:10.912847 7:-10.732548 8:-3.3987934 9:6.0213259 10:4.5752688 11:-7.329852 12:4.3119299 13:-7.4193977 14:-10.124122 15:-4.5904341 16:2.6251852 17:5.6927003 18:0.46946436 19:-9.6083074 20:-1.4986629 21:-2.6249444 22:3.4676825 23:-7.0383907 24:10.033397 25:1.4544036 26:3.1387217 27:-0.63703019 28:-1.3045446 29:4.6721142 30:6.7218579 31:4.4887485 32:4.3263292 33:5.7202565 34:5.136166 35:6.3455805 36:4.8492166 37:4.74138 38:5.3546663 39:-8.9046006 40:-5.92174 41:-0.93309209 42:0.032989392 43:-1.6822852 44:-8.5939141 45:0.45176644 46:5.3649483 47:-11.044121 48:-2.3354476 49:-9.3534257 50:6.6096276 51:4.4609513 52:-2.7261116 53:8.7469938 54:-7.9115 55:-2.2386343 56:-2.253023 57:7.8909443 58:-10.627781 59:-2.528656 60:-6.8605009 61:8.0214492 62:-4.2204468 63:9.691368 64:0.067982653 65:1.6320658 66:-0.53138783 67:-4.7153858 68:7.9937743 69:8.7521056 70:-5.1690857 71:0.86214573 72:2.7770596 73:-1.1742931 74:3.8592376 75:-2.2667272 76:2.9112387 77:1.4796325 78:-9.4572436 79:1.6120488 80:7.2858436 81:-4.0814472 82:-4.7731742 83:2.2106898 84:5.6335005 85:6.8165717 86:6.7100582 87:-1.9846799 88:-9.2775424 89:-1.4482541 90:-7.4896603 91:-2.996028 92:-5.2833186 93:7.3950902 94:-6.8941152 95:-4.0544925 96:-6.2015995 97:10.060701 98:-8.0857154 99:-6.7018161 100:-0.16920745 101:4.6426331 102:-4.0918047 103:8.6158816 104:-6.1186099 105:-4.9478271 106:-7.8022671 107:0.67575129 108:-4.5054259 109:-10.083658 110:5.6659882 111:7.4792607 112:7.975495 113:9.0191217 114:-6.5318209 115:10.252172 116:-7.234403 117:-3.9267608 118:3.6552795 119:2.7450049 120:2.6250423 121:7.6849918 122:3.8353719 123:-8.8292295 124:-4.0400988 125:4.1592682 126:7.439437 127:-9.3587218 128:-1.6277347 129:4.2014917 130:7.4084997 131:-2.0082069 132:-2.7876255 133:9.2139241 134:-0.35765883 135:-3.4230833 136:6.6514869 137:-3.7526518 138:7.0741893 139:-7.6595499 140:1.8327278 141:-9.8841571 142:-6.7073206 143:5.9124773 144:5.6464725 145:1.7174621 146:-6.0141487 147:-3.5724526 148:-7.3621142 149:0.68311357 150:-2.0635375 151:-1.5897658 152:5.2776765 153:5.2600029 154:-3.8447009 155:-10.68512 156:-5.7063645 157:6.2438794 158:-0.16307456 159:0.023373109 160:1.7403333 161:5.2898836 162:7.8539522 163:-8.3048976 164:2.2437668 165:9.2448371 166:0.81377937 167:-4.5123557 168:-6.1926066 169:2.8768345 170:-1.4444424 171:-9.8191859 172:-9.378808 173:-3.4592762 174:7.1672661 175:-3.0347295 176:-5.3558661 177:6.9421297 178:-3.6027602 179:-3.3538132 180:-3.8060507 181:2.9534913 182:7.9296081 183:7.0413 184:0.79175429 185:3.4478955 186:-3.1154097 187:-4.8730527 188:-1.6460967 189:8.5862301 190:6.7676114 191:-10.207102 192:-2.548751 193:6.1935851 194:-7.1736565 195:1.1186111 196:-7.2276511 197:-8.6156216 198:-8.1058592 199:-5.3104251 200:-6.0953525 
0.16302335757627023 1:7.4100485 2:-5.7351947 3:-4.1131014 4:-2.5532054 5:5.1064521 6:10.80516 7:-10.205616 8:-5.6332375 9:6.5118435 10:6.5666095 11:-7.74841 12:3.1674959 13:-8.9544756 14:-9.5347414 15:-5.4714464 16:1.5047851 17:6.7525703 18:1.0893831 19:-8.6394305 20:-1.3709744 21:-2.7242263 22:3.5087833 23:-7.2706729 24:9.9680446 25:2.8772342 26:3.8311496 27:-0.90891615 28:-1.1947779 29:6.1693969 30:9.7759541 31:5.7669456 32:2.6346397 33:5.6820751 34:5.367214 35:8.0624386 36:5.7719194 37:5.4005763 38:7.8303055 39:-8.9516381 40:-3.6249033 41:-0.81559862 42:1.0815319 43:1.0156238 44:-10.83566 45:2.4878707 46:6.8212172 47:-9.3078019 48:-2.7115136 49:-8.0009436 50:6.6212402 51:6.4229086 52:-3.5811013 53:5.7710505 54:-7.8667693 55:-1.2892575 56:-3.6302308 57:8.6122547 58:-8.9588419 59:-1.7128799 60:-6.9944303 61:7.5519655 62:-6.9310392 63:7.9544579 64:0.55448989 65:-0.41765196 66:-1.2503007 67:-4.2384538 68:8.0343468 69:10.321968 70:-4.0674625 71:0.30998735 72:2.7849794 73:-1.2846046 74:3.0159175 75:-3.4043728 76:2.8887647 77:0.98091762 78:-10.251987 79:2.6074665 80:7.471441 81:-5.7000017 82:-4.4270667 83:2.1360121 84:6.5555289 85:5.2050715 86:7.3129835 87:-2.6381822 88:-8.5967541 89:-1.3801771 90:-6.5156209 91:-6.5101186 92:-5.9784099 93:9.875042 94:-9.2448331 95:-5.186467 96:-7.218184 97:10.642995 98:-7.2973569 99:-8.0686865 100:-1.1104296 101:3.6575724 102:-4.8425219 103:6.2029349 104:-7.3664171 105:-5.225617 106:-5.3517162 107:-0.29528329 108:-2.4918519 109:-9.0798368 110:3.8843917 111:11.09784 112:6.8541445 113:10.531623 114:-5.6897875 115:9.4011257 116:-9.3510533 117:-2.5750145 118:3.2149545 119:0.80597304 120:3.9080664 121:7.7630697 122:4.1047765 123:-6.3152446 124:-2.8652051 125:6.657532 126:5.1588603 127:-8.8719559 128:-1.4344686 129:4.9781689 130:4.7417194 131:-4.2901156 132:-2.2259197 133:8.4677884 134:-0.831117 135:-3.9937892 136:7.3042177 137:-3.0334089 138:6.9077476 139:-9.4027926 140:0.84240133 141:-9.7205053 142:-6.7527513 143:4.9379619 144:2.2605512 145:1.3880114 146:-6.071346 147:-3.4873681 148:-8.6557854 149:-2.3333318 150:-1.1048284 151:-4.9245866 152:4.9464755 153:2.1187903 154:-4.2621876 155:-8.243512 156:-7.3028888 157:6.7643195 158:-2.2991639 159:-3.5237968 160:3.2567016 161:4.5523985 162:6.9254385 163:-9.5430306 164:4.1740691 165:7.9571485 166:-0.087661698 167:-4.1180081 168:-6.5658453 169:3.6194181 170:-3.1527191 171:-10.3033 172:-8.6490645 173:-6.2626153 174:8.8550546 175:-3.5733373 176:-5.3023006 177:8.4459204 178:-3.0245384 179:-3.8557959 180:-2.7469601 181:2.9844232 182:6.859478 183:4.6182832 184:0.69442207 185:3.9415401 186:-6.3433849 187:-1.2262619 188:-2.8746505 189:10.306516 190:5.6774544 191:-9.9732352 192:-3.8040972 193:6.7399294 194:-7.9127106 195:0.69989171 196:-7.1372558 197:-8.3838445 198:-7.6911225 199:-5.5306287 200:-10.724815 
0.15192472327359249 1:6.9923986 2:-3.189363 3:-4.5614904 4:-2.3934346 5:3.3889887 6:11.355954 7:-10.009077 8:-5.7784465 9:5.3945921 10:7.7425514 11:-9.5606909 12:2.5854224 13:-6.8575917 14:-10.6656 15:-5.8058123 16:4.6013563 17:5.2039881 18:2.6183318 19:-5.5862831 20:0.1759902 21:-0.79630046 22:2.1614825 23:-8.6917026 24:7.7230807 25:1.3558644 26:4.2795053 27:0.71827666 28:-1.4283282 29:4.0294246 30:5.2051101 31:6.5601178 32:4.2901804 33:7.0973946 34:6.3049499 35:6.1312157 36:5.0558797 37:5.6636839 38:7.0095863 39:-5.5934251 40:-3.3852489 41:-1.9999097 42:-1.533222 43:-0.93482586 44:-8.6832896 45:1.1331068 46:7.7983858 47:-11.176879 48:-5.2875423 49:-8.3583004 50:6.8187302 51:4.2009206 52:-2.4042473 53:6.9931388 54:-8.9478274 55:-3.4569506 56:-4.1571515 57:9.1679863 58:-8.7204541 59:-0.94497156 60:-8.289142 61:6.4973392 62:-6.4344695 63:9.2414029 64:2.2637005 65:-0.14630653 66:-1.5298116 67:-5.1160924 68:6.8397414 69:9.6094653 70:-4.9104477 71:-1.5674466 72:2.6606244 73:-1.2942352 74:6.6622291 75:-3.8457715 76:1.4386141 77:4.1198556 78:-10.028933 79:-0.18494988 80:6.0486466 81:-6.1583503 82:-4.4210744 83:2.4133992 84:6.5371541 85:8.5517537 86:5.9586622 87:-1.8929656 88:-9.3035103 89:-0.16722275 90:-7.1508926 91:-5.3047735 92:-6.9408645 93:9.1171032 94:-7.2178404 95:-5.4302262 96:-9.0475475 97:11.102202 98:-6.5744083 99:-5.568856 100:-0.1734486 101:2.7863441 102:-5.6643063 103:9.3248724 104:-8.3561084 105:-6.8260941 106:-6.5877359 107:2.0055487 108:-3.3409218 109:-9.771478 110:5.6896678 111:9.6352655 112:7.5885657 113:8.1296725 114:-5.5140289 115:8.3082253 116:-9.2708837 117:-2.831489 118:2.7266274 119:1.7531875 120:3.3414138 121:7.7607258 122:3.5478028 123:-5.6535804 124:-2.7628555 125:3.3298222 126:5.3712537 127:-9.0170733 128:-1.3720055 129:4.5584217 130:4.3225709 131:-3.8140935 132:-2.6044484 133:9.2677756 134:0.74854977 135:-1.6933829 136:8.5488364 137:-2.2098702 138:6.6314929 139:-8.4473524 140:1.3976045 141:-8.5948904 142:-6.7865268 143:4.2721748 144:4.7949804 145:-0.52185482 146:-7.3189669 147:0.9974387 148:-6.8916618 149:-1.3376433 150:0.39237229 151:-3.0652561 152:5.9634459 153:1.5529272 154:-5.6582749 155:-9.7978135 156:-6.3035758 157:6.2254867 158:-2.9339901 159:-4.3503755 160:2.2751899 161:2.8709639 162:6.2209572 163:-9.8394898 164:1.5410623 165:9.7167017 166:2.2237463 167:-3.7097319 168:-7.8915249 169:2.4594435 170:-3.8726727 171:-11.073726 172:-9.2122668 173:-6.2444825 174:7.0593877 175:-3.9321039 176:-3.5056299 177:6.3683433 178:-2.6149664 179:-5.0473259 180:-3.9507713 181:2.7040787 182:7.7050336 183:6.6597675 184:-1.1320203 185:1.6973113 186:-4.8958051 187:-4.8339013 188:-1.2942682 189:9.6260944 190:5.9317115 191:-10.017729 192:-2.1213187 193:4.6224785 194:-4.9474416 195:0.096745928 196:-8.6800804 197:-8.8855992 198:-7.7893842 199:-3.6629487 200:-7.769309 
0.22010384093993929 1:7.6994283 2:-4.7086866 3:-5.3932657 4:-1.5122008 5:4.6821696 6:10.509816 7:-11.987176 8:-4.6244264 9:7.3032459 10:4.6271543 11:-7.4609202 12:4.1781224 13:-8.6719373 14:-11.443072 15:-4.3611013 16:3.6220205 17:5.8082517 18:2.4817711 19:-6.8522354 20:0.11463958 21:0.1786961 22:3.0741082 23:-7.8637668 24:8.7946956 25:0.95247282 26:1.8409083 27:-0.42998038 28:-3.6954967 29:3.8263521 30:7.0007797 31:6.7324786 32:5.838276 33:5.3215345 34:6.9951805 35:7.0363659 36:3.6065045 37:7.6392511 38:7.8479464 39:-6.2704697 40:-4.6886867 41:-1.6816361 42:-0.36904722 43:-1.5725413 44:-6.6308534 45:2.2058352 46:7.3064011 47:-9.4877363 48:-3.7409301 49:-7.6455376 50:7.3379584 51:4.3034468 52:-2.1784366 53:9.0850008 54:-8.5351117 55:-2.4613481 56:-2.4834307 57:7.5067695 58:-9.092243 59:-2.4534297 60:-5.8130406 61:7.0800462 62:-5.3814136 63:7.6508527 64:1.1883976 65:-1.0709285 66:-3.3269874 67:-5.1118331 68:7.7382689 69:10.555592 70:-4.0859806 71:-1.4322712 72:1.1310463 73:-1.2044586 74:6.5570844 75:-5.3120649 76:3.3476276 77:2.7403087 78:-8.1588034 79:1.5428233 80:7.3579525 81:-6.6415073 82:-2.882689 83:1.5164368 84:5.4986461 85:8.6509752 86:4.8208397 87:-2.0004803 88:-6.3057828 89:0.50337464 90:-6.2492888 91:-7.615269 92:-7.4222341 93:6.6988223 94:-10.579674 95:-3.7915928 96:-6.2535179 97:10.057422 98:-8.6541071 99:-6.2110559 100:-1.9897143 101:4.5582451 102:-4.3259939 103:5.7247431 104:-7.0311229 105:-3.8671439 106:-9.1533506 107:0.8295366 108:-2.8039914 109:-9.480393 110:6.3839996 111:10.452032 112:7.8905846 113:7.4015243 114:-4.721769 115:8.8075991 116:-5.8852634 117:-2.0676446 118:4.2782224 119:2.650336 120:3.9425286 121:8.112855 122:3.8730651 123:-8.7770439 124:-1.1285272 125:4.1440186 126:7.0843664 127:-10.183678 128:-0.3436767 129:5.7594233 130:5.6223629 131:-3.4799721 132:-2.7812968 133:10.312557 134:1.0879307 135:-4.1533801 136:6.707131 137:-4.3896392 138:6.2901567 139:-9.097856 140:-0.73407222 141:-8.3714548 142:-7.4816645 143:6.4454545 144:3.0744491 145:-0.28931803 146:-7.6905734 147:-2.4289548 148:-8.5360615 149:-2.7473277 150:-2.0342539 151:-3.5345529 152:4.535855 153:2.2904052 154:-4.8104564 155:-6.9456961 156:-5.5748146 157:8.708587 158:-1.8141077 159:-2.3940476 160:-0.054669875 161:3.4112355 162:9.3677222 163:-8.4333651 164:1.9088309 165:11.248019 166:3.219674 167:-4.8484069 168:-8.5948798 169:3.6448453 170:-2.8534274 171:-7.9789698 172:-9.8034242 173:-7.0575475 174:9.0148076 175:-1.7965953 176:-5.3393577 177:7.9079133 178:-2.4581273 179:-3.8437034 180:-4.1619052 181:1.6253595 182:5.573384 183:4.0386536 184:-0.29468466 185:0.90379327 186:-2.3173819 187:-4.3281233 188:-1.5297665 189:8.8115689 190:5.7488939 191:-7.7072099 192:-1.5300417 193:6.9785715 194:-5.4042078 195:2.0845771 196:-7.651426 197:-8.8569092 198:-9.0380581 199:-4.0389667 200:-8.4821585 
0.049810987777577719 1:6.9042712 2:-4.976607 3:-4.2991288 4:-3.0862051 5:4.3270424 6:11.990643 7:-9.8615294 8:-6.8189458 9:8.7618568 10:3.9037766 11:-8.1961101 12:3.7574308 13:-9.3424807 14:-12.627318 15:-4.6714561 16:3.7923655 17:4.962535 18:2.8228157 19:-7.0628197 20:-0.89808405 21:-1.8801777 22:1.7790903 23:-6.6799007 24:8.3938488 25:-0.41674256 26:3.9432336 27:1.1517464 28:-2.0160175 29:5.4215899 30:7.4200815 31:5.6606764 32:4.0465939 33:6.5976509 34:4.9336244 35:6.3325983 36:4.4881713 37:6.2743639 38:7.1875492 39:-6.9221301 40:-4.3132869 41:-2.0674624 42:-0.14788309 43:0.97072627 44:-8.3183059 45:0.43750534 46:7.8744395 47:-8.6257211 48:-4.0637333 49:-7.7817027 50:7.6897744 51:4.8965802 52:-2.4529774 53:6.2151687 54:-8.1903564 55:-2.4803063 56:-3.6293448 57:8.7027122 58:-8.2130754 59:-0.56646856 60:-6.0735879 61:6.943174 62:-5.7268212 63:10.86488 64:-0.11269803 65:1.370702 66:-2.789252 67:-5.6961548 68:6.6607774 69:9.27427 70:-3.593153 71:0.96385467 72:2.0693419 73:0.86447106 74:5.8902007 75:-3.5876789 76:1.639569 77:1.8228685 78:-8.2194534 79:2.7284483 80:6.0945494 81:-5.458004 82:-2.6011312 83:1.7157426 84:6.2858692 85:7.8150626 86:5.5537085 87:-3.4693787 88:-6.3505565 89:-1.5564844 90:-5.0870056 91:-3.3557212 92:-7.643501 93:8.4613115 94:-8.154305 95:-3.7108695 96:-7.8704849 97:9.8792832 98:-7.0652632 99:-7.091685 100:-0.28934133 101:5.0461286 102:-3.9719541 103:5.498313 104:-7.8264568 105:-6.2000314 106:-6.8408648 107:-0.070457248 108:-3.632311 109:-8.8365538 110:6.5896943 111:7.8402146 112:7.0457265 113:8.7961104 114:-3.520449 115:8.2427294 116:-7.1840489 117:-4.321343 118:4.3075519 119:-0.43668875 120:1.5671103 121:8.5972753 122:3.2082688 123:-9.4470795 124:-4.0211194 125:3.5554371 126:8.6777707 127:-8.8880483 128:-0.71271297 129:4.5427358 130:5.3202374 131:-3.6226794 132:-2.914366 133:9.5784664 134:0.91183809 135:-3.496641 136:5.8551222 137:-2.9780451 138:6.27411 139:-9.3349529 140:-0.71763578 141:-11.299469 142:-7.1563307 143:7.826271 144:3.2321456 145:2.2237832 146:-4.2553939 147:-1.0368739 148:-7.9514404 149:-2.4734117 150:-0.43465024 151:-2.6855508 152:5.5576057 153:3.2556438 154:-3.4297781 155:-10.819416 156:-5.2927599 157:7.640074 158:-1.2683732 159:-3.4368301 160:2.5654747 161:4.203613 162:7.6125761 163:-10.510608 164:2.8530762 165:7.8174558 166:1.7167313 167:-5.2325559 168:-5.4386882 169:4.6233125 170:-3.5234934 171:-7.5496315 172:-7.0100115 173:-7.096663 174:7.8332776 175:-4.3243822 176:-3.7646743 177:6.0317926 178:-3.8154488 179:-3.2411479 180:-3.1470212 181:2.8937205 182:6.7797801 183:6.447864 184:-3.0076251 185:2.2472799 186:-4.2641598 187:-6.3718357 188:-1.4213131 189:9.4008715 190:7.4391423 191:-8.8941562 192:-1.3346583 193:4.8124187 194:-7.4529736 195:1.915508 196:-6.2762266 197:-9.1147379 198:-9.0381086 199:-5.7976357 200:-6.5473581 
0.11985536184368054 1:7.970382 2:-4.517874 3:-5.5429452 4:-5.5064115 5:3.9804447 6:7.9027931 7:-10.870273 8:-6.4452671 9:4.9678399 10:4.3653442 11:-5.7413509 12:2.8733346 13:-7.2479642 14:-8.1711933 15:-6.8364557 16:2.5309634 17:6.208349 18:4.3889855 19:-7.0601475 20:-1.6955128 21:-1.2329445 22:-0.29515841 23:-7.644579 24:8.8804223 25:0.90460809 26:3.1816464 27:0.45499948 28:-2.1140366 29:4.6014275 30:5.1930329 31:5.6951751 32:3.7857641 33:7.3504096 34:6.3148041 35:7.9017174 36:4.3244874 37:4.8893537 38:6.7131778 39:-7.6061951 40:-4.1354519 41:-0.86165147 42:1.6585006 43:-0.84922249 44:-8.9828873 45:1.9537696 46:6.7990095 47:-10.092118 48:-5.2117609 49:-8.5381035 50:7.351131 51:4.4001273 52:-3.5129497 53:6.9142115 54:-7.5500693 55:-2.353246 56:-3.9650295 57:9.488848 58:-8.7768812 59:1.3944838 60:-8.0276295 61:6.8426673 62:-6.3556389 63:9.4314344 64:-0.38107827 65:-1.2492044 66:-1.3512338 67:-4.0801976 68:7.4083809 69:10.049509 70:-6.4727231 71:1.3226483 72:2.9272182 73:-1.2550172 74:3.8623562 75:-3.1028787 76:1.0009646 77:4.6262362 78:-8.9958338 79:-0.31904871 80:4.5554957 81:-3.355418 82:-3.2480839 83:3.3343308 84:7.2022717 85:7.0748125 86:8.9274839 87:-3.1965236 88:-7.8890469 89:-1.413189 90:-7.6670085 91:-5.8324765 92:-5.3152664 93:9.1111888 94:-8.5471273 95:-5.9690623 96:-6.916614 97:7.8175762 98:-7.8233078 99:-6.5855411 100:-1.6263889 101:2.5740851 102:-4.9130162 103:5.8904166 104:-5.8425269 105:-4.1416182 106:-8.189785 107:1.2698987 108:-4.0453857 109:-10.007291 110:4.0171573 111:10.088586 112:7.4296284 113:7.6375767 114:-7.117327 115:9.52676 116:-7.1992443 117:-2.6697751 118:3.6749097 119:2.1555246 120:1.9576864 121:9.1372532 122:3.1861903 123:-5.2040015 124:-2.3147631 125:5.0940084 126:7.2107022 127:-8.2753142 128:-0.40860959 129:7.5587952 130:7.2149736 131:-5.1849154 132:-1.959331 133:9.402367 134:0.48006479 135:-3.8422009 136:8.1170551 137:-1.3278101 138:5.2199321 139:-9.2764451 140:0.56645029 141:-10.525771 142:-9.3138804 143:6.632302 144:2.1451388 145:0.58523086 146:-5.6553568 147:-1.4153103 148:-8.3169155 149:-2.8773855 150:-3.0447628 151:-2.6702326 152:5.9206755 153:3.0612871 154:-5.2869205 155:-8.8826346 156:-5.6367639 157:6.3232733 158:-1.8530087 159:-2.4152736 160:3.3226484 161:4.6287632 162:7.6425259 163:-7.8322191 164:3.1609639 165:10.228789 166:1.7165701 167:-3.1051317 168:-4.9039004 169:2.0901727 170:-1.2924707 171:-11.147288 172:-8.4704545 173:-6.1628072 174:5.2117643 175:-5.6755678 176:-4.0598434 177:6.4000889 178:-3.0591406 179:-4.6999603 180:-2.499525 181:3.1098517 182:7.6787617 183:6.3791761 184:0.12002643 185:1.3828995 186:-3.8324638 187:-5.7830141 188:-3.3912589 189:10.065221 190:6.0765959 191:-9.1603584 192:-3.962334 193:6.8086538 194:-8.4010447 195:1.1927617 196:-7.393218 197:-8.3018904 198:-8.0371974 199:-4.5759805 200:-7.1729454 
0.12142140628941586 1:9.1658506 2:-5.3423189 3:-5.4654823 4:-3.3346756 5:5.2207007 6:8.9037069 7:-8.9024467 8:-4.8781828 9:5.2176546 10:4.7559844 11:-7.0583458 12:3.159173 13:-8.6042508 14:-9.0580429 15:-5.089262 16:3.9448865 17:5.9828606 18:3.0955514 19:-7.6477381 20:-1.996844 21:-4.6048041 22:2.4006757 23:-7.0078087 24:7.8157524 25:2.1197759 26:4.664411 27:0.35036919 28:-1.045951 29:5.3596499 30:7.0129219 31:3.441406 32:4.3431279 33:6.4749729 34:6.0204876 35:6.3153611 36:4.3872268 37:6.5706928 38:4.8300202 39:-8.0331426 40:-4.4979259 41:-1.2710296 42:1.0180299 43:-0.87127845 44:-10.215891 45:1.1417422 46:5.0379564 47:-8.0839273 48:-5.0919672 49:-7.0924963 50:8.0986619 51:3.5582463 52:-2.6680898 53:6.0358901 54:-7.5249471 55:-2.5926861 56:-3.3448819 57:8.8107726 58:-10.304819 59:-0.52866709 60:-5.1819686 61:6.5782406 62:-5.883488 63:10.767752 64:1.1152228 65:0.23041955 66:-2.7264918 67:-5.3632967 68:8.098923 69:9.1494092 70:-3.001398 71:-0.95930387 72:2.4079102 73:-0.035144846 74:4.9374267 75:-4.609994 76:1.8293159 77:1.9872683 78:-8.8975018 79:1.2364271 80:4.3974973 81:-6.9247791 82:-2.4055928 83:0.73589042 84:6.6945203 85:7.6558606 86:8.1363531 87:-2.6590224 88:-8.6399964 89:-0.54810201 90:-6.989096 91:-5.2746333 92:-7.1793812 93:10.701898 94:-7.4472107 95:-4.9700654 96:-9.2257464 97:8.8091199 98:-9.4886181 99:-5.1572511 100:-0.89788388 101:3.7496135 102:-5.4568227 103:7.364084 104:-7.7529505 105:-3.2499001 106:-5.4781931 107:2.9349231 108:-2.4442559 109:-9.5454026 110:2.8659062 111:12.094968 112:5.1739695 113:10.065526 114:-4.7401395 115:8.998438 116:-5.9807291 117:-2.5797671 118:4.3713804 119:1.1123226 120:0.86804034 121:8.0193553 122:3.9572302 123:-5.4288469 124:-5.1681128 125:5.6014107 126:8.1146138 127:-6.9989493 128:-0.76151293 129:6.3982812 130:5.7045971 131:-7.431895 132:-3.1934044 133:10.802445 134:0.40943405 135:-4.6516527 136:7.7830064 137:-4.4406697 138:7.3287991 139:-8.3742447 140:1.6239034 141:-8.1228792 142:-7.4410801 143:6.503785 144:3.7360497 145:0.52645668 146:-6.3166566 147:-2.0205255 148:-7.366521 149:-2.196049 150:-2.3060867 151:-3.9841953 152:4.8397894 153:4.6981215 154:-4.0421408 155:-8.6339112 156:-7.6007462 157:7.0677158 158:-2.0511849 159:-1.5657736 160:1.3486441 161:4.3111607 162:6.7918555 163:-8.8891229 164:1.5574532 165:9.0337388 166:0.63222107 167:-3.996935 168:-4.4667878 169:3.3471297 170:-1.7425686 171:-10.967688 172:-8.7949037 173:-3.6544074 174:8.171207 175:-4.6382384 176:-4.8457673 177:8.272058 178:-3.2647015 179:-3.6589741 180:-4.2498262 181:3.5118664 182:6.4830951 183:3.8917279 184:-0.35595274 185:1.4569217 186:-2.5760482 187:-5.8194404 188:-0.82766356 189:7.708744 190:6.5671973 191:-8.2108498 192:-4.4110801 193:5.0670419 194:-8.2472132 195:0.48132571 196:-5.7342712 197:-9.3801444 198:-7.937537 199:-2.7116736 200:-7.3288238 
0.051786497757353687 1:6.0186351 2:-3.6398158 3:-4.6656824 4:-2.5225654 5:4.8484888 6:9.215418 7:-8.510824 8:-4.3988496 9:5.324943 10:4.6735428 11:-4.8926642 12:1.8761197 13:-8.4571584 14:-9.6768825 15:-7.1609127 16:3.603736 17:4.6164906 18:1.9362796 19:-6.7692478 20:-2.8364203 21:-1.0890398 22:3.2924309 23:-7.3115669 24:8.6238636 25:-1.0972314 26:4.7406696 27:-0.56782086 28:-0.06435186 29:4.8030484 30:6.584682 31:6.1287086 32:3.9009607 33:7.7164838 34:6.7427925 35:6.7030439 36:4.4735714 37:4.607173 38:5.3221466 39:-8.7345168 40:-2.4446937 41:-1.9257259 42:1.5477838 43:-1.0777504 44:-8.8839628 45:5.0443306 46:7.0536767 47:-8.1212743 48:-6.4143534 49:-8.5270211 50:5.4961576 51:3.88625 52:-1.9286874 53:6.7154435 54:-8.2746228 55:-3.3894003 56:-4.7856611 57:8.0168131 58:-8.1427082 59:-1.5773917 60:-6.8885015 61:6.0968614 62:-7.0246128 63:9.7437685 64:0.83508015 65:0.15455235 66:-3.4450627 67:-6.4029872 68:6.9708154 69:7.3436924 70:-4.7943124 71:1.0613482 72:1.7580903 73:1.1777153 74:5.7903505 75:-3.0349973 76:3.065026 77:2.6561689 78:-10.875403 79:2.3259224 80:5.0292048 81:-5.8690699 82:-2.3571696 83:3.3133676 84:6.1389857 85:8.4199332 86:6.0088164 87:-3.1020498 88:-7.2634639 89:-0.64859517 90:-6.971749 91:-5.6741005 92:-6.7479059 93:9.3459976 94:-7.2808509 95:-7.0868577 96:-8.1810315 97:9.9937197 98:-6.8935996 99:-6.6765691 100:-0.76576425 101:7.415294 102:-4.1764109 103:7.2671276 104:-8.6021292 105:-5.7156716 106:-6.3869438 107:-0.22266839 108:-2.958661 109:-8.8209946 110:6.6744972 111:9.6259654 112:6.62463 113:8.5837632 114:-6.6162805 115:9.7217585 116:-5.7401004 117:-4.0876376 118:6.2302819 119:3.1177691 120:2.9679687 121:8.226309 122:4.2736443 123:-6.5229491 124:-4.1535502 125:5.7338497 126:6.1875032 127:-8.4460004 128:-1.7274714 129:6.4047949 130:5.6162979 131:-3.8513034 132:-3.1211453 133:9.4910138 134:-1.6842732 135:-3.8412926 136:8.5126487 137:-2.4686531 138:8.6530277 139:-8.9055856 140:0.78831013 141:-8.2059151 142:-8.2856409 143:6.8595571 144:3.1982178 145:1.9112579 146:-3.9272135 147:-1.4516041 148:-7.3358648 149:-3.5373696 150:0.12174805 151:-3.0558692 152:6.9137508 153:2.4595711 154:-4.8921982 155:-8.1296736 156:-7.4381053 157:6.0526639 158:-1.4977951 159:-3.2953571 160:0.276859 161:2.5124148 162:8.4019915 163:-9.3235277 164:3.1627337 165:8.384286 166:2.4751553 167:-3.5722512 168:-5.1075935 169:4.1228117 170:-0.94143082 171:-8.7201975 172:-6.7784099 173:-4.9219466 174:7.727113 175:-1.3613791 176:-6.8517323 177:6.7549326 178:-4.1116444 179:-4.7285336 180:-3.6171416 181:3.3859695 182:7.6646029 183:5.9900331 184:-0.98182665 185:1.7588742 186:-4.6065623 187:-3.4431467 188:-3.0694951 189:9.7759849 190:7.8809363 191:-8.2757385 192:-4.2362955 193:6.2882455 194:-7.0466292 195:1.3986275 196:-6.7217961 197:-9.3430117 198:-7.5139862 199:-2.534182 200:-6.6556382 
0.021460113624578649 1:8.6842426 2:-2.8041364 3:-5.6173377 4:-2.3311176 5:1.5831842 6:11.284144 7:-9.4872285 8:-6.7287112 9:7.2905516 10:3.2197568 11:-8.031313 12:1.8868651 13:-7.7339972 14:-9.3131985 15:-5.6038611 16:4.8483389 17:6.8559365 18:0.8188967 19:-8.4259812 20:-0.67753426 21:-3.1343176 22:2.1029974 23:-5.4821541 24:8.7540219 25:0.21887995 26:3.5923621 27:-0.34370772 28:-0.96156664 29:5.0106289 30:6.4949684 31:5.1632839 32:3.5565648 33:6.3686913 34:5.0808447 35:7.1424024 36:3.1979078 37:6.4465272 38:6.8149443 39:-8.5694613 40:-2.2734124 41:-1.130524 42:-1.0657366 43:-2.6995479 44:-9.3193503 45:1.5681652 46:6.4330039 47:-9.4095633 48:-4.5840779 49:-6.3844919 50:8.8146269 51:4.0856742 52:-0.7591308 53:9.2633901 54:-9.9722025 55:-1.1775338 56:-2.5548849 57:8.9878401 58:-9.2365653 59:0.3893081 60:-5.7251908 61:6.8848288 62:-5.2287131 63:8.6489528 64:1.8837829 65:-0.22266422 66:-1.5456075 67:-6.206545 68:9.2576936 69:10.703783 70:-4.5829341 71:1.9089035 72:2.7082732 73:-1.4701204 74:5.4183843 75:-3.039177 76:1.3066313 77:-0.25238543 78:-11.689157 79:2.9844899 80:6.3205367 81:-3.2639043 82:-3.4990933 83:3.3956416 84:5.4318053 85:7.1272173 86:5.9494491 87:-2.5796314 88:-8.2879199 89:-1.0655119 90:-8.1734209 91:-2.7574825 92:-8.9950607 93:8.4026877 94:-8.1175571 95:-3.708738 96:-6.2453314 97:8.4052592 98:-6.7448074 99:-5.7150622 100:-0.80496765 101:7.0938076 102:-4.1962551 103:6.1110321 104:-7.2324058 105:-5.2933142 106:-7.2498406 107:1.6068168 108:-4.4701627 109:-9.0566809 110:5.5986326 111:11.542091 112:7.095479 113:7.9215442 114:-5.2223071 115:9.2238568 116:-8.8594509 117:-3.2408077 118:3.8287826 119:2.1902112 120:2.3927061 121:9.6962636 122:2.9992665 123:-7.166703 124:-2.5171295 125:3.0013338 126:7.0128811 127:-7.0802153 128:-0.36796619 129:3.3401159 130:4.401984 131:-1.1738942 132:-1.6132008 133:10.069969 134:-1.3421078 135:-3.9020451 136:7.5540071 137:-0.58312873 138:7.5583793 139:-7.2433462 140:1.5250877 141:-10.735143 142:-8.7711475 143:4.9960433 144:4.8310484 145:1.0849593 146:-5.5047185 147:-0.7062959 148:-8.686297 149:-1.1393333 150:-0.76887664 151:-5.0128974 152:5.0515854 153:3.3464258 154:-3.0646074 155:-9.7910421 156:-6.4929225 157:8.2115736 158:-2.0731872 159:-1.9747907 160:3.5534306 161:5.2336891 162:7.664734 163:-9.7491228 164:1.0505087 165:9.5000801 166:2.0561973 167:-4.7498271 168:-5.0070178 169:3.419426 170:-2.0710374 171:-10.491679 172:-9.1786164 173:-5.594197 174:7.6358234 175:-4.3549159 176:-4.9643148 177:7.7372514 178:-4.4112297 179:-3.465201 180:-5.5379774 181:4.2760036 182:6.1167276 183:6.226429 184:-0.81021133 185:0.9079752 186:-5.60407 187:-4.4579445 188:-1.2100062 189:8.8247392 190:6.4190693 191:-10.03499 192:-0.89456471 193:6.7959926 194:-7.024449 195:-0.080220154 196:-7.6687074 197:-8.525081 198:-6.5131004 199:-4.9986718 200:-6.4495673 
0.047481713425445535 1:7.2713458 2:-4.2920984 3:-5.2107108 4:-2.7262146 5:4.25489 6:9.2905308 7:-8.5891768 8:-7.4238658 9:7.2209154 10:5.7929584 11:-7.5328916 12:4.2875203 13:-7.0930392 14:-9.4973944 15:-4.9205831 16:3.1640759 17:6.0560521 18:1.7810888 19:-6.8747944 20:-0.91633274 21:-3.3683783 22:0.79886332 23:-6.3542168 24:9.7068344 25:0.27482268 26:2.84822 27:1.4687662 28:-2.7068026 29:4.6210328 30:8.271793 31:4.9397831 32:3.5167575 33:5.970501 34:4.5073045 35:6.6128371 36:3.8817086 37:5.8871087 38:5.8649247 39:-7.3412581 40:-4.6722967 41:0.61290489 42:0.75288566 43:-0.25827372 44:-8.1293773 45:2.1299089 46:6.480955 47:-9.1596321 48:-5.7158404 49:-8.6039663 50:7.4773002 51:2.6592971 52:-3.011866 53:8.878433 54:-8.8957035 55:-3.4467937 56:-2.8465236 57:8.7494972 58:-9.7374458 59:-2.1377465 60:-4.310488 61:5.0983803 62:-5.082687 63:9.2289457 64:0.75356727 65:-0.2733914 66:-2.5391621 67:-4.2846127 68:7.4375394 69:9.6205251 70:-4.5992782 71:1.7547677 72:0.33961833 73:-2.5493536 74:4.6164006 75:-2.5169768 76:2.0642419 77:1.8641793 78:-7.6437418 79:-1.4906827 80:6.049607 81:-5.5613553 82:-3.9527613 83:4.4605922 84:5.9213889 85:8.2260578 86:8.4291204 87:-2.1030458 88:-7.9691511 89:0.095862899 90:-7.0143718 91:-4.1631158 92:-5.6138144 93:9.1722805 94:-5.0250084 95:-5.457754 96:-7.7620744 97:11.410318 98:-9.2798655 99:-7.6571905 100:-1.9569939 101:5.4693235 102:-4.6221595 103:5.7365723 104:-5.2667428 105:-4.8088116 106:-6.7482107 107:0.40723137 108:-3.0526843 109:-11.300133 110:5.7839414 111:11.148275 112:6.6068681 113:9.3250505 114:-4.265514 115:8.4147077 116:-9.0871589 117:-3.5239118 118:3.9971795 119:2.6602155 120:3.375491 121:9.4073459 122:2.8434615 123:-7.1455793 124:-0.45393291 125:3.8660048 126:7.0242816 127:-8.9400906 128:-3.3804181 129:7.0990453 130:5.6212361 131:-2.1469981 132:-3.8428468 133:7.9843296 134:-1.2823917 135:-4.0313997 136:8.192851 137:-2.3425484 138:7.9154119 139:-8.5186262 140:1.0864023 141:-10.024752 142:-7.7566573 143:6.2333924 144:1.9478109 145:1.3615987 146:-5.4648044 147:-0.73696057 148:-8.6760024 149:-1.096431 150:-1.1538444 151:-3.0183151 152:6.1898395 153:2.9112727 154:-3.6944192 155:-9.5613421 156:-7.4644773 157:7.7341667 158:-3.0631519 159:-3.0169635 160:0.45822344 161:3.4295124 162:9.1829276 163:-8.2541793 164:2.8372015 165:9.5216287 166:1.0807852 167:-3.7791182 168:-4.6852349 169:3.6073228 170:-1.2317992 171:-12.290802 172:-9.7999521 173:-7.5093174 174:7.4388088 175:-5.2404999 176:-6.2971687 177:7.9513939 178:-3.5930981 179:-4.6647949 180:-3.8762246 181:1.4285843 182:4.8648746 183:6.8689847 184:-0.34129651 185:3.8803042 186:-4.1505621 187:-1.5732401 188:-2.8104593 189:9.9702249 190:6.9833112 191:-9.0327257 192:-3.6201179 193:7.427673 194:-5.8512177 195:0.82378977 196:-7.404269 197:-7.9861648 198:-7.7601133 199:-3.843095 200:-8.7814969 
0.089568105880706975 1:7.6213596 2:-4.04559 3:-4.5140089 4:-5.0872909 5:5.4282465 6:12.274259 7:-8.2788271 8:-5.2873593 9:6.0789647 10:5.0318153 11:-7.2163554 12:3.3099189 13:-8.2715523 14:-11.058903 15:-4.0435843 16:3.3529232 17:4.3131352 18:3.9560274 19:-6.7968532 20:-3.576929 21:-2.1807419 22:2.048166 23:-7.8277797 24:8.7438728 25:1.8120274 26:3.5253163 27:0.88539613 28:-3.2037889 29:4.8359244 30:7.6464272 31:4.8546496 32:4.6269676 33:6.5813063 34:7.7306198 35:6.9675176 36:3.3143546 37:5.1649894 38:4.9742277 39:-8.1967139 40:-3.4449289 41:-0.83541685 42:-1.08821 43:-1.6861279 44:-9.6628215 45:2.0946471 46:5.7969441 47:-8.4448146 48:-7.3526654 49:-7.0853678 50:5.4761933 51:4.4148054 52:-3.7826787 53:8.7369436 54:-8.953916 55:-2.9349219 56:-4.2416094 57:9.8895077 58:-6.3083796 59:-1.132216 60:-6.9014392 61:7.8486488 62:-3.4780541 63:9.9977704 64:1.3840164 65:-0.25225669 66:-4.0130768 67:-5.9653493 68:7.2694033 69:8.8468061 70:-5.8382144 71:0.36317417 72:2.5931279 73:-2.6992931 74:4.4277795 75:-2.2029124 76:1.9559354 77:2.5235389 78:-9.81441 79:2.0527672 80:7.0359424 81:-6.2457613 82:-1.9727423 83:1.6258643 84:7.0432392 85:8.4473819 86:8.1438971 87:-2.6128438 88:-9.5257441 89:-0.35296091 90:-7.3517129 91:-4.5003842 92:-7.8671345 93:7.869767 94:-7.7851345 95:-5.9188158 96:-8.5713907 97:8.8895022 98:-6.5898384 99:-6.8184607 100:-0.43215194 101:4.4597963 102:-2.0460576 103:7.6675432 104:-7.5049256 105:-4.5252021 106:-8.2621167 107:2.400851 108:-2.5370613 109:-8.4710213 110:3.7635185 111:9.0688805 112:5.0031571 113:8.0855685 114:-7.1860941 115:8.7942814 116:-6.292515 117:-5.3009507 118:5.0449741 119:4.0224712 120:2.3582685 121:7.0970652 122:2.16851 123:-5.2059521 124:-2.2319572 125:3.7434866 126:4.8784267 127:-8.9329927 128:-1.0600193 129:8.0200946 130:7.2273109 131:-3.067045 132:-3.3575232 133:9.764506 134:3.0645965 135:-3.4638081 136:7.4633911 137:-2.082935 138:8.2504775 139:-7.577907 140:2.1055865 141:-10.09965 142:-7.1156819 143:7.1845148 144:4.0657453 145:0.50804698 146:-6.7086332 147:-2.1700933 148:-9.9633147 149:-1.701469 150:-2.2560364 151:-4.4772794 152:4.2232332 153:3.7078077 154:-4.0490254 155:-8.9444234 156:-7.2794071 157:7.0924561 158:-2.6932639 159:-1.6894218 160:0.2461684 161:4.3252508 162:7.5162867 163:-8.7121336 164:5.154839 165:9.2320455 166:1.6399611 167:-3.1911644 168:-5.210983 169:2.8437492 170:-3.6188845 171:-9.2187093 172:-8.4019626 173:-6.7410463 174:7.1266093 175:-2.5891358 176:-2.5788027 177:9.078049 178:-2.8832063 179:-3.0098214 180:-2.8747089 181:3.7068403 182:5.9503278 183:6.5294422 184:-0.34804277 185:2.9260461 186:-3.8337856 187:-6.3712935 188:-3.7723755 189:8.6913539 190:7.3035494 191:-10.573568 192:-2.0448532 193:6.9783352 194:-8.1955296 195:0.80296373 196:-8.1339515 197:-8.9051169 198:-7.9428169 199:-5.5657823 200:-7.3676256 
0.057885509705069109 1:8.5136746 2:-3.5091952 3:-5.427351 4:-3.7041523 5:4.6797942 6:9.8867148 7:-9.5136176 8:-7.3622387 9:6.2935466 10:5.7926589 11:-7.6013774 12:4.4295634 13:-7.5247003 14:-9.8042281 15:-6.5207092 16:4.752734 17:6.4962443 18:2.4304626 19:-7.4149783 20:0.48290952 21:-2.3499793 22:3.5155468 23:-5.4454643 24:9.869516 25:0.10341626 26:3.4218884 27:0.076281927 28:-2.5479091 29:3.8843391 30:5.91924 31:5.8179733 32:3.052482 33:5.8410685 34:4.3144261 35:7.5300972 36:4.3925259 37:6.6315318 38:4.8158294 39:-7.4368143 40:-4.0663029 41:-1.5432035 42:-1.2859379 43:-2.1807316 44:-8.2544395 45:2.1604308 46:5.8267053 47:-10.233533 48:-5.3929742 49:-6.6927777 50:10.092343 51:4.3514153 52:-4.505576 53:6.3102077 54:-8.1071578 55:-2.2554971 56:-2.8967143 57:8.2207271 58:-7.5451075 59:-1.5116822 60:-4.6272317 61:7.0492133 62:-4.8216917 63:8.8997539 64:-0.6728697 65:-0.47798778 66:-3.3388452 67:-5.9610411 68:7.2738048 69:6.5095993 70:-5.2836176 71:0.18142698 72:2.5836035 73:0.437376 74:4.1613713 75:-4.9962024 76:2.9582541 77:1.0128116 78:-8.5659837 79:1.9180397 80:6.1378755 81:-5.0813584 82:-3.5171574 83:2.7063754 84:5.3904164 85:7.3384606 86:4.8760637 87:-3.6550289 88:-7.8311247 89:-2.9119027 90:-7.8065316 91:-4.4971238 92:-7.3166808 93:9.1217823 94:-8.416695 95:-4.8039166 96:-8.4329561 97:8.9779325 98:-8.2108875 99:-7.6829549 100:-0.72757102 101:4.9787263 102:-5.0172343 103:5.8169663 104:-4.3225393 105:-6.3247281 106:-7.3945876 107:0.025224481 108:-3.6439926 109:-9.6049262 110:6.2455231 111:8.2994133 112:5.5917295 113:7.2102867 114:-7.0619408 115:10.430442 116:-8.1540076 117:-3.2875886 118:3.083238 119:2.6254756 120:5.1431115 121:9.8254277 122:1.4674319 123:-6.5768478 124:-1.9336671 125:1.8167522 126:6.8786778 127:-7.9301448 128:0.58929127 129:6.1378269 130:5.2091767 131:-3.2528902 132:-2.3280857 133:11.221018 134:-1.7645744 135:-2.6304206 136:8.6713595 137:-1.4564123 138:7.6569285 139:-7.773939 140:-0.97190124 141:-9.9323659 142:-8.3551069 143:6.3436159 144:5.8040959 145:2.6734508 146:-6.324662 147:-0.77508269 148:-6.3144314 149:-1.6905057 150:-2.0711857 151:-4.2838939 152:6.088 153:3.5124509 154:-2.9174082 155:-8.965009 156:-5.631456 157:7.4468264 158:-1.9361132 159:-1.2060977 160:2.869837 161:3.8547073 162:5.060765 163:-9.3777348 164:3.0263499 165:8.9935461 166:2.1566973 167:-4.1152211 168:-3.8105177 169:2.7379738 170:-2.3998532 171:-9.0967888 172:-8.9485636 173:-3.5367911 174:6.9455099 175:-3.3998097 176:-4.1829004 177:6.5262286 178:-3.6330908 179:-3.6003864 180:-3.8402274 181:2.1660058 182:5.3356788 183:7.4249746 184:0.25585776 185:2.8279349 186:-3.9904931 187:-2.876971 188:-2.4489726 189:8.6142709 190:5.4906066 191:-10.077372 192:-4.3552021 193:5.940439 194:-6.2529925 195:0.10672265 196:-8.9583014 197:-8.2442169 198:-8.1013012 199:-5.143649 200:-7.5884635 
0.051306665778985273 1:7.3607868 2:-3.3788499 3:-5.9896577 4:-2.1033127 5:3.7137826 6:9.5150983 7:-9.8454912 8:-6.0166928 9:7.8113012 10:4.3516583 11:-7.837274 12:1.2809424 13:-8.1334498 14:-9.6076638 15:-5.5362764 16:2.8114638 17:5.9388224 18:2.4239808 19:-7.3034989 20:0.093004272 21:-3.1924164 22:1.7035231 23:-8.6845165 24:8.167637 25:-0.11528585 26:3.7449601 27:0.64158683 28:-4.5706839 29:6.3226019 30:6.9073256 31:5.8291525 32:3.8071118 33:5.1224202 34:7.7058805 35:6.723347 36:7.5790134 37:4.650136 38:6.9196313 39:-7.5560253 40:-5.2123272 41:-0.72085794 42:1.4339372 43:-0.41433817 44:-9.7492084 45:1.9573524 46:7.5235622 47:-8.1782489 48:-4.7331803 49:-7.1546356 50:8.7068072 51:2.6360371 52:-2.5276749 53:5.0229397 54:-8.5011387 55:-4.4473646 56:-3.6977244 57:7.9872493 58:-10.112122 59:-1.7461474 60:-6.4753074 61:7.9265591 62:-5.0241501 63:10.224349 64:-0.46388725 65:-0.35054597 66:-2.9990383 67:-2.9949597 68:5.9450796 69:8.0964819 70:-5.8739115 71:1.5349165 72:2.4284218 73:0.97894647 74:3.9258393 75:-3.217612 76:2.3228714 77:0.77286355 78:-7.8191299 79:1.1403667 80:5.7878943 81:-4.4876825 82:-3.5375779 83:3.0547083 84:6.4501343 85:6.7799219 86:6.7692625 87:-5.7924289 88:-8.4526975 89:-0.81661289 90:-7.4538479 91:-5.1378079 92:-6.3969884 93:8.7719096 94:-7.661497 95:-5.401194 96:-7.1718487 97:10.312963 98:-7.7219115 99:-6.9299633 100:-1.5075413 101:4.8665306 102:-5.6565735 103:7.0638833 104:-7.4656039 105:-4.7133201 106:-8.5227804 107:0.29403105 108:-4.2583235 109:-10.396489 110:5.2181213 111:8.8243371 112:4.7403859 113:10.114064 114:-5.7212916 115:8.4628409 116:-8.5891519 117:-4.8659639 118:3.6166538 119:2.1596679 120:1.7897427 121:9.2781496 122:4.4059702 123:-6.6085863 124:-2.2334456 125:4.1613042 126:6.8563592 127:-6.2738578 128:-1.3598476 129:5.7421803 130:4.127848 131:-3.1195789 132:-2.6153772 133:9.5460906 134:1.6647749 135:-4.4225611 136:8.2418739 137:-3.8104029 138:7.3693614 139:-9.6725649 140:1.2735601 141:-11.896517 142:-7.9313856 143:5.056804 144:3.5819511 145:0.70847417 146:-6.4985871 147:-1.9220984 148:-5.7428932 149:-2.8834802 150:-0.23062481 151:-3.2068628 152:5.0130156 153:2.0852779 154:-5.0234324 155:-6.7557814 156:-7.3967839 157:7.1518725 158:-3.6050932 159:-2.3018454 160:2.2289662 161:3.8633678 162:9.1755788 163:-10.359927 164:2.7407796 165:7.6417331 166:1.5876633 167:-3.8562953 168:-3.287505 169:3.4821879 170:-2.7277625 171:-10.336322 172:-9.36718 173:-6.4745042 174:7.9387708 175:-2.0920382 176:-4.353646 177:7.1999131 178:-3.3770229 179:-2.8858191 180:-4.1040972 181:1.0063116 182:6.4668173 183:5.4798019 184:0.82483387 185:3.919725 186:-4.3886275 187:-4.2985124 188:0.33711291 189:10.500665 190:8.4636116 191:-11.342117 192:-2.0390369 193:4.9251623 194:-8.5105547 195:0.79441856 196:-8.6752688 197:-9.6597577 198:-7.4067186 199:-3.839402 200:-6.2480437 
0.0026227885193762018 1:7.1821148 2:-4.6417455 3:-5.550618 4:-1.2448179 5:4.7104445 6:10.66793 7:-10.269203 8:-4.7531054 9:8.3056801 10:6.7435195 11:-7.0585706 12:3.9403761 13:-9.3052257 14:-8.9278263 15:-4.3775399 16:3.1612511 17:5.0031868 18:3.5875327 19:-6.2991485 20:-3.3626915 21:-0.86917191 22:2.9815215 23:-7.2823981 24:7.7301587 25:0.91539563 26:3.4849927 27:1.1783485 28:-3.7421314 29:5.4601092 30:6.523198 31:6.293162 32:3.6580398 33:5.4108824 34:5.0988895 35:5.8926967 36:5.4730211 37:8.1269526 38:5.0388535 39:-9.473202 40:-4.6077652 41:-1.381901 42:-1.2362085 43:-1.2716646 44:-8.5021304 45:1.3901826 46:5.8673273 47:-9.3595345 48:-4.2276683 49:-9.3469129 50:5.7639246 51:4.5092068 52:-3.5720234 53:5.5857895 54:-8.5840578 55:-2.0713918 56:-3.5399299 57:9.5247279 58:-8.5670657 59:0.40734962 60:-5.8637029 61:7.1745285 62:-6.5789576 63:10.915976 64:-0.023544756 65:-0.6992915 66:-1.5804842 67:-5.835279 68:8.2880611 69:10.067848 70:-5.5607531 71:-0.42196605 72:1.7682959 73:-0.10551038 74:6.5747331 75:-4.2499419 76:2.4659431 77:0.93516021 78:-9.0874518 79:0.91654703 80:3.9035115 81:-7.478184 82:-2.9248963 83:3.4950471 84:7.9002542 85:7.5343942 86:6.9623467 87:-5.3674716 88:-8.0311438 89:-0.81763229 90:-8.007726 91:-4.4252128 92:-5.0579892 93:7.9516898 94:-7.8844336 95:-4.7827364 96:-8.5127225 97:9.9684309 98:-8.5275695 99:-7.8590472 100:-1.4570218 101:3.917952 102:-3.7336585 103:6.6614958 104:-5.5774478 105:-4.191799 106:-8.9405121 107:3.4276948 108:-3.0025929 109:-7.8657805 110:4.8258309 111:9.4993423 112:4.7775095 113:9.2357794 114:-7.598508 115:9.0868173 116:-5.9939432 117:-3.8695729 118:5.9776249 119:1.9329098 120:2.7456208 121:8.7307272 122:4.5594889 123:-7.6114995 124:-2.4371675 125:4.7992158 126:7.5609597 127:-8.298377 128:-1.704937 129:5.3663989 130:6.7277809 131:-1.9200747 132:-4.4314938 133:10.105539 134:1.4896909 135:-3.896335 136:6.9318366 137:-1.7396566 138:5.4152537 139:-10.033763 140:-0.32621834 141:-10.328326 142:-9.8439358 143:6.0448026 144:3.505952 145:1.9423605 146:-5.9824128 147:-1.3029899 148:-8.3099555 149:-2.7354811 150:-1.9144445 151:-2.3904762 152:6.7056274 153:2.6641471 154:-3.3460774 155:-9.4931151 156:-5.5360696 157:7.4622778 158:-1.6452988 159:-1.3372564 160:3.3761687 161:4.2642626 162:5.901479 163:-8.9241931 164:2.0951183 165:7.8467362 166:2.2209343 167:-3.7595351 168:-6.5958313 169:3.9470158 170:-0.50222462 171:-9.7051582 172:-8.1595263 173:-5.2809395 174:7.2927702 175:-1.5797519 176:-7.2106374 177:7.3484817 178:-5.0206422 179:-3.0031212 180:-4.3224806 181:3.5419996 182:7.0231737 183:4.3049461 184:0.12392234 185:1.8652191 186:-4.4045496 187:-5.2583663 188:-0.26949255 189:10.199427 190:5.3223392 191:-10.034119 192:-4.4187593 193:7.5684565 194:-5.7753283 195:2.6089345 196:-9.3525695 197:-8.1465841 198:-7.6946667 199:-4.9488102 200:-7.8251767 
0.030984519621655267 1:7.0890641 2:-4.5153659 3:-5.5784328 4:-0.51613633 5:6.8588716 6:11.259521 7:-8.8618485 8:-5.5618555 9:8.6787867 10:4.5770269 11:-8.2005924 12:3.2957584 13:-9.4723324 14:-9.2525366 15:-3.0769442 16:6.3863567 17:4.37535 18:3.9271758 19:-6.9780553 20:-1.1263596 21:-1.5986777 22:2.7774103 23:-7.8033313 24:8.5850045 25:1.6327381 26:3.7060833 27:0.4380993 28:-1.9769393 29:2.9138501 30:5.5376414 31:5.3149974 32:5.1155131 33:7.2644147 34:7.2605792 35:6.2308393 36:2.7036016 37:5.6286643 38:6.4463001 39:-7.8096912 40:-5.1366884 41:-1.6361539 42:-0.021393029 43:-0.19922301 44:-10.343105 45:3.2008039 46:6.1536845 47:-9.6813939 48:-4.8538174 49:-6.9720905 50:6.1202352 51:4.5542945 52:-1.9302296 53:6.4833631 54:-8.7767752 55:-3.4794555 56:-4.7009092 57:9.2286318 58:-7.1853853 59:-3.6177579 60:-5.7572726 61:6.428789 62:-5.9183276 63:8.5838835 64:-0.051892187 65:0.94568388 66:-2.1649504 67:-6.9742189 68:7.123202 69:9.6994413 70:-6.1259601 71:1.4508294 72:1.9198537 73:-1.0593008 74:6.352732 75:-2.7613683 76:3.6391235 77:2.2298592 78:-9.9136009 79:0.63728137 80:4.525655 81:-3.9065762 82:-4.3879181 83:2.7733454 84:6.7697636 85:8.0889604 86:6.3755655 87:-2.434251 88:-8.2549717 89:-0.41146526 90:-8.1524049 91:-4.4301707 92:-6.2901487 93:9.7240971 94:-7.1361027 95:-4.8643285 96:-7.3102073 97:9.6423018 98:-8.106273 99:-6.365182 100:-1.786688 101:4.6287189 102:-5.31867 103:7.4242568 104:-7.6695236 105:-5.478734 106:-7.0710547 107:1.1482238 108:-3.5122716 109:-10.303191 110:6.0384733 111:8.9060654 112:6.0949918 113:9.3806969 114:-6.7344864 115:9.6627649 116:-6.886951 117:-3.2594681 118:5.7887438 119:5.0766583 120:0.93386234 121:8.0685136 122:3.5791351 123:-7.6070255 124:-3.6944859 125:2.4285342 126:6.5658504 127:-10.054276 128:-0.17786675 129:5.8902364 130:5.4633545 131:-3.7772724 132:-4.6618751 133:10.358294 134:-0.045800332 135:-3.0842478 136:6.7663722 137:-3.3837619 138:7.7066425 139:-8.8826898 140:0.48921464 141:-10.367066 142:-6.1204204 143:6.0439235 144:2.9102949 145:0.48998226 146:-5.5360284 147:-4.0920007 148:-9.3092308 149:-2.5844564 150:-2.7567698 151:-4.2132241 152:8.533848 153:2.8426539 154:-3.8923995 155:-10.457871 156:-6.2506691 157:8.2143998 158:-1.1605774 159:-3.0959351 160:3.0444107 161:4.2644408 162:6.5023982 163:-9.7814851 164:1.9162486 165:9.3532605 166:3.6824732 167:-5.4174946 168:-4.2019641 169:3.8156517 170:-2.3661535 171:-10.395228 172:-10.138835 173:-4.9691602 174:9.2487024 175:-2.9187802 176:-5.2706005 177:8.9940813 178:-4.8321994 179:-3.0302517 180:-4.5508526 181:1.0696314 182:5.4532965 183:6.0872834 184:-0.060780014 185:2.1653805 186:-5.0891829 187:-4.0972071 188:-3.3929556 189:10.641254 190:5.909168 191:-9.3599779 192:-4.020193 193:6.0839117 194:-6.124864 195:-0.38472097 196:-6.4114491 197:-9.4738942 198:-6.7059355 199:-5.1939458 200:-6.3911323 
0.055064924202822767 1:8.9210624 2:-5.5071015 3:-3.5819304 4:-4.0612076 5:5.4565826 6:10.320092 7:-10.940149 8:-6.9109478 9:6.4283156 10:5.6945355 11:-8.1167127 12:4.0484729 13:-7.6216999 14:-9.3371489 15:-4.8041051 16:2.4590399 17:5.9450422 18:3.155568 19:-6.9704307 20:-2.0343198 21:-2.2541473 22:0.25383903 23:-5.0495921 24:8.5454012 25:0.37280405 26:4.1058192 27:0.44513488 28:-4.513129 29:6.0739395 30:5.7511447 31:7.5183886 32:4.3365411 33:5.2499113 34:6.0213507 35:7.743138 36:4.3090353 37:6.3331743 38:7.3369725 39:-8.1161092 40:-3.4502668 41:0.30664004 42:0.099965037 43:1.3819635 44:-8.5923009 45:2.3937694 46:6.7668142 47:-9.2414409 48:-7.1006868 49:-6.534713 50:7.4871178 51:5.7892916 52:-1.6835243 53:8.2502587 54:-6.7518395 55:-2.0444141 56:-2.5016419 57:7.183917 58:-7.7712442 59:-1.0515037 60:-6.9374817 61:6.0308765 62:-5.3702454 63:9.4020988 64:1.328098 65:0.42688162 66:-2.606522 67:-6.3633495 68:8.4167353 69:8.4404025 70:-3.9416137 71:0.26939886 72:2.235584 73:-1.1931727 74:4.3084126 75:-4.0560092 76:0.35002454 77:2.4720843 78:-8.860083 79:1.6391656 80:7.3073841 81:-5.6277019 82:-3.7492938 83:1.6914825 84:3.9473149 85:8.1070479 86:7.5735177 87:-4.6585807 88:-7.1516165 89:-0.37803459 90:-6.6571199 91:-4.0503689 92:-7.4152806 93:7.5058599 94:-8.5999207 95:-4.4817276 96:-5.4994377 97:10.884795 98:-5.5159813 99:-8.0064986 100:-1.2968805 101:4.5053265 102:-3.1853503 103:6.0913461 104:-6.9770344 105:-2.927462 106:-7.9988139 107:0.74696763 108:-3.1009343 109:-8.7469082 110:6.6047531 111:10.404353 112:6.8098705 113:8.8025796 114:-8.1892633 115:9.8287155 116:-8.3576491 117:-4.0136097 118:3.4691495 119:3.6562383 120:5.0182402 121:7.0331362 122:3.9895131 123:-7.2287203 124:-1.5232198 125:3.5440868 126:5.5320964 127:-6.6837913 128:-0.69100077 129:5.8627194 130:4.9346249 131:-3.8052715 132:-0.8468193 133:9.9394455 134:-1.5482666 135:-3.3256278 136:6.5322453 137:-1.7802333 138:7.2111472 139:-9.4714637 140:-0.57977861 141:-10.098932 142:-5.9711995 143:7.5766964 144:2.3305852 145:-0.30652372 146:-6.9466209 147:-2.30231 148:-6.3531476 149:-2.069521 150:0.21171628 151:-3.5608885 152:7.1954894 153:3.5362945 154:-4.2385592 155:-8.6511812 156:-7.4487616 157:9.1957767 158:-1.3034736 159:-2.0106085 160:0.23631985 161:5.891887 162:7.5199932 163:-7.2026794 164:4.4590221 165:8.6632985 166:3.7174193 167:-3.613009 168:-7.0295817 169:4.6904784 170:-2.7823193 171:-11.396415 172:-7.9124592 173:-5.8907518 174:8.0917648 175:-3.7244462 176:-6.383363 177:6.1677305 178:-3.1479859 179:-5.3236082 180:-3.7751186 181:2.9472591 182:7.9863201 183:3.6705286 184:-2.0326004 185:3.2651518 186:-4.4520346 187:-3.7518131 188:-1.3067697 189:9.1179947 190:5.5119321 191:-8.6439685 192:-3.0007206 193:6.6572559 194:-5.8887419 195:0.98732041 196:-7.9248831 197:-11.134219 198:-9.3596002 199:-3.6815927 200:-6.1721564 
0.036993416705390691 1:8.1664981 2:-4.024461 3:-5.8784182 4:-2.4878684 5:6.2478487 6:10.47182 7:-7.9301251 8:-5.8493635 9:6.0138354 10:6.0692339 11:-6.5111879 12:5.1379567 13:-8.3771038 14:-9.3900477 15:-5.2958592 16:4.0098062 17:7.3569869 18:3.4427271 19:-7.0395687 20:-2.8068576 21:-2.3932385 22:3.2983033 23:-7.3341999 24:8.7549432 25:-0.083442644 26:3.9051098 27:-1.9167944 28:-2.6484705 29:5.1668083 30:7.0370349 31:5.233064 32:5.2063419 33:6.8133617 34:6.599532 35:5.4079041 36:3.2949671 37:5.8044804 38:7.103471 39:-10.685252 40:-2.9829293 41:-1.5721934 42:1.3441105 43:-2.1963665 44:-9.2130537 45:2.4281795 46:6.9589164 47:-9.4476755 48:-5.0124708 49:-7.2264759 50:7.806649 51:4.2459725 52:-2.6927412 53:6.0912229 54:-11.629032 55:-2.8039737 56:-4.4616773 57:10.031616 58:-10.365683 59:1.6160086 60:-4.6646582 61:5.0962463 62:-6.3682354 63:10.235365 64:1.7553095 65:0.16759817 66:-2.6807393 67:-5.2030545 68:6.6985988 69:9.2961827 70:-3.140269 71:0.41368724 72:3.6105527 73:-1.9379156 74:4.283096 75:-4.3685798 76:-0.97508094 77:1.5993952 78:-9.8088179 79:2.7713641 80:6.0690687 81:-6.885432 82:-4.342295 83:2.7774004 84:6.0114042 85:6.1228095 86:7.3907533 87:-0.86103166 88:-7.4667517 89:-3.0400235 90:-7.0935374 91:-6.1514306 92:-6.3445747 93:7.8712351 94:-9.0900305 95:-4.4230671 96:-5.3121434 97:9.74143 98:-8.0818737 99:-7.0473598 100:-2.142714 101:5.0475845 102:-5.1597712 103:7.8156928 104:-7.1169126 105:-5.4921967 106:-6.361487 107:4.2410959 108:-3.7750465 109:-8.9310765 110:5.1123863 111:11.114484 112:5.731078 113:9.7789749 114:-5.3554866 115:9.3038669 116:-8.4024241 117:-3.0439644 118:4.0563118 119:2.0600442 120:4.6895218 121:8.6795007 122:4.1950602 123:-8.0192072 124:-3.3250086 125:4.1852833 126:5.4457105 127:-7.7654308 128:-0.88903723 129:6.1028202 130:5.7125274 131:-3.0638669 132:-3.0480457 133:9.8535376 134:-1.0122056 135:-4.5227895 136:7.0115572 137:-3.177208 138:8.1751328 139:-8.2579893 140:0.36919979 141:-9.3159216 142:-9.1046482 143:5.5434267 144:3.7679896 145:1.7029621 146:-7.3263106 147:-2.6841224 148:-8.6017373 149:-1.3550405 150:-1.5153454 151:-3.053489 152:6.6425171 153:3.7385407 154:-5.8188986 155:-10.321647 156:-5.8096519 157:6.9403144 158:-1.7340587 159:-1.6357699 160:1.8501317 161:5.7622182 162:7.8358819 163:-8.3015722 164:2.8447692 165:10.368647 166:2.5566098 167:-3.2671358 168:-4.5055004 169:3.3514333 170:-1.6218029 171:-8.3478592 172:-9.9276955 173:-4.5956403 174:9.4843455 175:-1.4553541 176:-3.8522453 177:7.975802 178:-3.9151998 179:-5.2132996 180:-4.272499 181:2.7192146 182:6.7911504 183:5.7064124 184:-0.50758786 185:2.5341083 186:-6.0811996 187:-3.1959476 188:-2.7592831 189:9.9056708 190:5.5597596 191:-10.734291 192:-2.5803316 193:8.1489802 194:-7.5527448 195:0.60052232 196:-6.5986359 197:-7.8919784 198:-7.3089202 199:-2.5594592 200:-4.9073388 
0.21203395394274177 1:9.4276255 2:-2.2973384 3:-4.1280371 4:-5.0580624 5:3.4948562 6:9.7510628 7:-10.889243 8:-5.5757062 9:5.1374126 10:3.2841976 11:-8.5050322 12:1.1532717 13:-7.7346563 14:-8.0557602 15:-5.5244158 16:4.3191783 17:6.5593004 18:2.3616328 19:-8.6261953 20:-3.2820345 21:-1.9529149 22:5.1693441 23:-7.0867963 24:9.6257285 25:0.99695654 26:3.5830061 27:-0.5045461 28:-3.2405184 29:4.5975099 30:7.1027108 31:6.9620151 32:4.3065986 33:4.7044186 34:5.5267173 35:6.7747412 36:6.5395068 37:4.5940654 38:7.179083 39:-6.9698019 40:-3.1657056 41:0.53226231 42:0.64082151 43:0.67093802 44:-9.8237119 45:1.0625656 46:7.0828991 47:-10.150016 48:-5.1762417 49:-7.3432822 50:8.5444107 51:4.8847103 52:-1.3384705 53:4.3118711 54:-9.9958189 55:-2.985245 56:-3.1939718 57:8.6019145 58:-7.9435412 59:-1.9000563 60:-6.6927021 61:7.0582576 62:-4.7848804 63:10.03433 64:2.0169951 65:-0.26750426 66:-2.0795066 67:-7.0223896 68:7.9460186 69:8.9165839 70:-4.5165492 71:2.1318014 72:2.635744 73:-0.30476017 74:6.8130259 75:-3.616806 76:0.96521833 77:1.5130369 78:-10.313173 79:0.21326059 80:7.6210271 81:-4.7027807 82:-2.7809211 83:2.7767329 84:5.1664004 85:6.9433452 86:6.7843534 87:-2.2477732 88:-8.873834 89:-0.75340769 90:-4.9741963 91:-5.7366751 92:-6.2421346 93:8.138305 94:-7.3660256 95:-5.6495583 96:-6.5171253 97:10.103874 98:-7.2434891 99:-7.4993263 100:-1.9173123 101:3.59952 102:-5.3043274 103:7.2001925 104:-9.3565379 105:-4.8260912 106:-8.1815826 107:-0.13074724 108:-2.5653665 109:-8.0896732 110:5.5279162 111:10.396576 112:5.8962878 113:8.0682047 114:-6.7612909 115:7.8623746 116:-8.0863496 117:-2.8266987 118:5.0642754 119:0.81596223 120:2.7256186 121:9.3339235 122:3.0768181 123:-7.4029987 124:-3.4287945 125:4.1387019 126:5.6939366 127:-9.0095127 128:0.87565788 129:6.1392982 130:4.6921244 131:-3.6023228 132:-1.6771741 133:9.3964852 134:0.79205454 135:-4.58172 136:7.2414729 137:-3.3828222 138:8.0504555 139:-9.1414463 140:-0.70095233 141:-6.7451169 142:-8.5085216 143:5.4745983 144:2.7705691 145:0.98663674 146:-4.6131529 147:-1.5344783 148:-9.7998114 149:-1.2261993 150:-2.2987485 151:-6.0001827 152:1.8743483 153:2.8551074 154:-4.5104717 155:-9.1867129 156:-7.2482772 157:6.6725193 158:-3.6351353 159:-4.925499 160:1.2291757 161:3.0924813 162:8.210933 163:-10.659165 164:1.3092872 165:8.3429059 166:0.33404753 167:-5.0847845 168:-6.3234823 169:3.2400052 170:-1.1104854 171:-11.107249 172:-7.3843927 173:-4.9793926 174:7.6532272 175:-2.9164931 176:-5.2753048 177:7.3773472 178:-4.3521869 179:-2.2288425 180:-4.9884908 181:1.7373245 182:7.5515273 183:5.9474061 184:0.49273807 185:3.3297298 186:-7.1517813 187:-4.3326774 188:-2.3731421 189:8.070573 190:8.5406679 191:-8.6347731 192:-5.2200875 193:5.9963516 194:-6.6414209 195:-0.99268688 196:-8.6511668 197:-10.629746 198:-7.6413655 199:-3.8914043 200:-7.0511976 
0.045027243638432697 1:8.8497765 2:-3.774051 3:-6.8645296 4:-2.5514534 5:5.4511348 6:9.4800384 7:-9.291758 8:-4.0925522 9:7.6166911 10:7.5346586 11:-6.9937854 12:0.86680533 13:-7.7924157 14:-10.199652 15:-3.7774967 16:5.313834 17:6.4994795 18:2.423001 19:-7.0555624 20:-0.70829693 21:-1.3669486 22:2.8759198 23:-7.6682327 24:7.4797824 25:0.7556538 26:2.6116449 27:-0.53632323 28:-0.83614697 29:5.1854201 30:8.2657807 31:6.6189715 32:5.080937 33:7.3426534 34:4.740976 35:6.3914529 36:4.6771757 37:6.1662514 38:5.5659598 39:-8.0656226 40:-3.0157904 41:-0.88394749 42:-1.8465368 43:-1.1979441 44:-8.9321155 45:2.964234 46:7.1679145 47:-10.446113 48:-4.5719264 49:-8.317374 50:7.5913753 51:5.3365769 52:-2.2717694 53:7.0364876 54:-9.2216309 55:-2.1626128 56:-4.38877 57:7.1530399 58:-8.7345387 59:-1.0396248 60:-6.7474591 61:7.8131654 62:-6.6560033 63:10.638446 64:2.0779467 65:-0.69687145 66:-4.3189558 67:-4.4036971 68:8.5415545 69:9.3570239 70:-3.8691687 71:-1.6779176 72:2.7691253 73:-2.5807553 74:3.4151017 75:-4.6765007 76:0.95834263 77:2.7701417 78:-12.642913 79:0.56293193 80:7.2095845 81:-4.6189449 82:-2.8607192 83:3.2560302 84:5.5074287 85:6.4260361 86:6.4743667 87:-1.9950112 88:-7.1558354 89:-2.6237783 90:-6.5572681 91:-3.6073122 92:-7.6955041 93:6.3911135 94:-9.1764508 95:-5.7082463 96:-6.0831644 97:7.7849039 98:-9.9220408 99:-6.1078868 100:-1.8957731 101:2.8502364 102:-3.412957 103:8.5824237 104:-7.1276837 105:-3.7632269 106:-6.9781024 107:0.80810382 108:-2.3815626 109:-7.8845614 110:6.4153343 111:7.7373606 112:6.1166984 113:9.1094046 114:-7.3456138 115:9.770447 116:-8.6112886 117:-3.190658 118:4.8560036 119:3.3544165 120:2.6079313 121:8.7722848 122:3.99836 123:-6.8460338 124:-2.1645182 125:3.1365729 126:6.4891008 127:-8.9322158 128:0.12318382 129:6.2623655 130:4.3983639 131:-2.0538874 132:-0.64790485 133:8.4199306 134:-0.40588809 135:-4.2186029 136:7.1077962 137:-1.6950884 138:5.3081656 139:-8.8288854 140:-0.93423085 141:-8.1263187 142:-8.1916236 143:6.017743 144:2.8344427 145:-0.33810132 146:-6.6950448 147:-2.1197787 148:-8.3442883 149:-0.68376241 150:-1.4536334 151:-1.3777082 152:4.7743519 153:2.1592251 154:-4.8996607 155:-8.3691697 156:-8.9250861 157:7.3192082 158:-1.8064311 159:-1.3171003 160:3.3233263 161:2.878079 162:5.8193314 163:-10.134765 164:2.3559094 165:8.0830435 166:1.5671348 167:-4.8118152 168:-6.0389419 169:3.1851998 170:-1.3239948 171:-10.102267 172:-8.4137615 173:-7.1893569 174:8.4129104 175:-3.4875647 176:-4.4502613 177:7.8552953 178:-3.3081766 179:-3.4419806 180:-3.9099496 181:1.8750749 182:7.2218927 183:5.2434486 184:-1.7824609 185:4.5000685 186:-4.0872579 187:-4.9097561 188:-1.800606 189:7.6100987 190:7.5548167 191:-8.9849349 192:-3.6247967 193:6.7585417 194:-6.5624129 195:-0.19679201 196:-8.8524677 197:-8.8124141 198:-8.1234095 199:-2.9867135 200:-7.3737678 
0.023518721163269751 1:7.5646405 2:-4.2480363 3:-3.5941848 4:-2.5879962 5:3.6329815 6:8.6710177 7:-8.3705949 8:-4.9735116 9:4.7217545 10:6.0670342 11:-6.605008 12:3.760026 13:-9.8077272 14:-10.076111 15:-5.9272727 16:4.9334897 17:7.3903197 18:3.1793522 19:-5.0210226 20:0.13764679 21:-3.5828788 22:0.80473083 23:-8.863271 24:9.8105371 25:-0.63127771 26:4.585771 27:0.45005954 28:-2.2844537 29:4.7157781 30:7.3673802 31:6.6765507 32:3.948076 33:5.8539649 34:7.533525 35:8.130055 36:3.5886026 37:5.4052207 38:6.9082277 39:-8.5575706 40:-4.349496 41:-1.843598 42:0.53814427 43:0.089099045 44:-10.095101 45:2.5280419 46:6.4223159 47:-9.5376107 48:-4.2756435 49:-9.0545814 50:7.2921848 51:3.3063285 52:-2.752006 53:6.2095 54:-8.6968356 55:-4.4605307 56:-4.2204727 57:8.7223102 58:-8.1430417 59:-1.8722157 60:-7.3128278 61:6.1256645 62:-5.0075141 63:12.511766 64:-0.35766271 65:0.50905921 66:-1.1367272 67:-5.3667221 68:8.2465221 69:8.6211489 70:-2.5015405 71:0.95078976 72:3.1402306 73:-0.079310268 74:6.020164 75:-1.9975626 76:1.7988208 77:2.4438329 78:-8.0890791 79:1.295881 80:7.2280142 81:-6.5881482 82:-4.8544606 83:2.6705162 84:6.6659779 85:8.5014886 86:6.7519902 87:-3.4949154 88:-8.1272415 89:-1.2875299 90:-5.696062 91:-4.6483753 92:-7.5321314 93:8.9523041 94:-7.5332 95:-4.1540382 96:-7.4348131 97:10.21487 98:-6.6421392 99:-6.6024874 100:-0.62380474 101:5.0850654 102:-4.2197794 103:5.2257623 104:-6.6433259 105:-5.0535464 106:-8.4914091 107:0.32391068 108:-5.0989874 109:-11.514221 110:5.5223028 111:7.9314947 112:5.5497845 113:10.006953 114:-7.1158921 115:9.0999813 116:-7.1184026 117:-3.068733 118:3.272058 119:2.980158 120:4.4250046 121:10.948593 122:3.3379454 123:-7.1419837 124:-2.18784 125:5.1051003 126:8.5168641 127:-7.0354332 128:0.31081238 129:7.6562286 130:4.8779659 131:-4.2066076 132:-2.0958956 133:10.982721 134:2.4082757 135:-4.6863461 136:6.451355 137:-3.0661316 138:6.761348 139:-9.8940749 140:0.53827574 141:-9.793923 142:-9.1490793 143:5.9961487 144:3.6026848 145:0.29783385 146:-5.5694563 147:-2.3863911 148:-9.2277149 149:-1.1787705 150:-1.5053537 151:-3.8072751 152:4.7237455 153:1.5903436 154:-4.0558738 155:-8.5651865 156:-6.0535786 157:7.9616136 158:-0.68898596 159:-4.1955119 160:1.7682583 161:6.3558339 162:6.9041197 163:-8.4504032 164:4.2708196 165:9.7556399 166:1.8562182 167:-2.00346 168:-5.5647293 169:4.2604478 170:-1.7268121 171:-11.301982 172:-8.327812 173:-6.7548928 174:8.914124 175:-4.5556743 176:-6.5425641 177:6.0746216 178:-2.7682346 179:-2.4067034 180:-3.1524924 181:4.6686144 182:6.4082207 183:6.113963 184:-1.5788085 185:1.9436288 186:-6.0078371 187:-6.4134293 188:-1.9192873 189:9.1140877 190:5.4345542 191:-9.4198068 192:-2.4767971 193:5.3961801 194:-6.64812 195:0.11180228 196:-7.2926623 197:-8.1828128 198:-7.9627303 199:-6.0249294 200:-8.1762277 
0.054465605350848337 1:6.6160454 2:-3.8531197 3:-3.7760366 4:-2.4118162 5:3.5858516 6:9.5141779 7:-9.9900834 8:-5.5681801 9:5.2348503 10:7.8638364 11:-8.9048993 12:3.6843931 13:-7.4952228 14:-9.3129016 15:-3.1474977 16:4.6546974 17:6.197582 18:3.8052937 19:-5.0840091 20:-0.38503988 21:-2.9994385 22:2.4979577 23:-7.7625884 24:8.6001313 25:-1.4058966 26:3.2062396 27:-0.52843669 28:-1.5766689 29:6.4320584 30:4.7815937 31:8.0663267 32:3.7148684 33:6.0976369 34:7.5640636 35:5.281543 36:5.1620653 37:4.5030705 38:4.9927998 39:-7.5079428 40:-4.1201974 41:-1.6752116 42:1.5960234 43:-2.0950363 44:-8.2957516 45:2.1287694 46:8.7359276 47:-9.3184821 48:-3.3580835 49:-7.0167283 50:8.1354208 51:4.9598091 52:-2.5574318 53:6.6377694 54:-6.13858 55:-1.13443 56:-2.6911555 57:6.4793444 58:-5.7211905 59:-1.0153685 60:-6.5990334 61:6.4372825 62:-5.4653651 63:9.7719709 64:1.0558696 65:2.5914382 66:-1.4302297 67:-4.9497436 68:6.723812 69:8.6234151 70:-5.1253888 71:-0.48302104 72:3.347662 73:-0.83985986 74:4.9031463 75:-3.3382659 76:1.0887599 77:1.5150109 78:-12.138197 79:0.5267912 80:5.0195757 81:-4.4524175 82:-2.2715442 83:2.7892911 84:5.6361317 85:7.7220126 86:6.8383887 87:-3.8486579 88:-8.7346152 89:-0.87951043 90:-7.2051589 91:-4.5903487 92:-6.8053077 93:7.8321615 94:-8.0551694 95:-6.8342118 96:-5.3425626 97:10.912557 98:-8.0277205 99:-7.7595843 100:-2.529012 101:4.2827832 102:-4.5908709 103:6.7917031 104:-6.5248176 105:-5.6912873 106:-8.0640774 107:1.5004345 108:-4.6264204 109:-10.160762 110:6.2647524 111:8.6387119 112:6.0918203 113:7.3867745 114:-4.8482961 115:7.4157148 116:-9.8222787 117:-2.8125446 118:3.6884071 119:2.2110695 120:2.5271545 121:8.1571644 122:2.5892567 123:-7.0119861 124:-2.4264071 125:3.5129481 126:5.1345234 127:-9.9215938 128:-0.88747883 129:5.1961175 130:4.6484043 131:-4.004267 132:-2.9630938 133:8.70692 134:0.55319464 135:-4.3231362 136:6.7297593 137:-3.9785848 138:6.4475068 139:-8.5862746 140:-0.62733938 141:-11.380892 142:-6.4584758 143:5.791779 144:3.1068026 145:-0.24310527 146:-4.5487266 147:-1.881986 148:-8.338479 149:0.014947037 150:-2.8191071 151:-4.1984517 152:3.6997321 153:2.1766713 154:-3.4567352 155:-6.4723443 156:-6.8067931 157:6.2534348 158:-3.0549201 159:-3.4533973 160:1.9127106 161:5.4752023 162:6.50424 163:-10.547095 164:0.63831201 165:8.3877025 166:0.93585512 167:-3.7300651 168:-5.7522061 169:3.31378 170:-3.0092033 171:-8.0681331 172:-9.7648873 173:-6.0920024 174:6.9827926 175:-1.694872 176:-5.6830338 177:8.4655058 178:-4.5814412 179:-2.6542848 180:-4.9766613 181:1.9338957 182:5.2226771 183:4.766865 184:-0.14654833 185:3.5003792 186:-4.6122456 187:-3.8917252 188:0.36080895 189:9.9199341 190:6.7515023 191:-10.081673 192:-1.8813441 193:6.9913265 194:-6.4542103 195:1.7915049 196:-7.4792508 197:-9.0931033 198:-6.9516847 199:-5.0202311 200:-6.9258076 
0.09314881765986649 1:8.3673753 2:-5.3087935 3:-3.5657548 4:-3.2511957 5:3.9023705 6:11.345465 7:-10.434712 8:-4.9593837 9:7.9016732 10:7.5527097 11:-7.7300891 12:3.9519684 13:-8.0945836 14:-11.217571 15:-4.3762824 16:3.2768296 17:4.779042 18:2.2621247 19:-6.6460019 20:-0.82539164 21:-1.2244306 22:1.1884618 23:-8.642046 24:8.6234291 25:2.0742023 26:5.28298 27:-0.17824751 28:-3.5536732 29:3.9452035 30:6.821829 31:7.198512 32:4.6650226 33:6.1726124 34:7.4995668 35:7.8810706 36:2.8928733 37:5.8916945 38:5.1950794 39:-10.057395 40:-5.3359667 41:-0.47248546 42:-0.60620789 43:-1.4851054 44:-7.3478169 45:1.1487492 46:7.0542101 47:-10.379854 48:-5.1208948 49:-7.378867 50:8.1063394 51:5.1779472 52:-3.4923592 53:6.866249 54:-9.0612864 55:-2.7022047 56:-2.5463094 57:9.2051644 58:-11.394014 59:-3.1814775 60:-7.9939549 61:7.4436761 62:-5.144883 63:9.6096011 64:-1.5017923 65:-0.1767621 66:-2.1308474 67:-6.6006723 68:7.7179731 69:7.9718878 70:-3.6837434 71:-0.97090836 72:1.8068505 73:-1.5145582 74:4.6768661 75:-3.3553935 76:1.6688737 77:2.1880852 78:-7.368049 79:-0.54174337 80:6.807121 81:-5.1362264 82:-2.8528939 83:0.87572581 84:4.1783155 85:9.0110158 86:7.4429648 87:-1.8317347 88:-7.9243869 89:0.28114512 90:-6.248605 91:-4.2558838 92:-7.3901509 93:7.4169744 94:-9.2312376 95:-4.6260182 96:-6.6461451 97:9.3389434 98:-8.785516 99:-7.7303354 100:-1.4658252 101:5.0887251 102:-3.7400667 103:7.2068684 104:-6.4201492 105:-3.2321201 106:-7.7777451 107:3.3333956 108:-3.2175228 109:-9.3288502 110:4.4196874 111:10.251566 112:4.5545899 113:9.263606 114:-4.0497236 115:9.0847485 116:-8.6451506 117:-4.1062905 118:6.0760956 119:2.3003203 120:3.3062603 121:9.0479955 122:3.0697764 123:-8.0120243 124:-3.3254936 125:3.0561356 126:5.127272 127:-10.249701 128:0.12626451 129:6.9442407 130:5.5444331 131:-4.0313937 132:-3.3725677 133:9.2515999 134:-1.507705 135:-1.1286865 136:7.3569668 137:-1.9143667 138:8.0624212 139:-7.4699914 140:0.38868351 141:-7.9889883 142:-7.1722856 143:6.1376409 144:2.693884 145:3.5638912 146:-5.7913568 147:-3.1087326 148:-7.6631325 149:-1.765922 150:-2.8410637 151:-3.0465612 152:6.4938345 153:1.694766 154:-3.5541697 155:-9.5057781 156:-7.3593609 157:6.1737922 158:-2.6250625 159:-4.1500602 160:1.7967542 161:3.7294717 162:8.0323437 163:-8.9841947 164:3.6057368 165:7.8957337 166:-0.10798446 167:-4.8904393 168:-5.4414097 169:2.2711126 170:-1.2903003 171:-9.4982849 172:-7.0441581 173:-5.977886 174:8.1190829 175:-3.9556944 176:-4.9592497 177:7.6170542 178:-3.0508718 179:-3.0475303 180:-1.9039254 181:1.838237 182:7.4356018 183:5.557614 184:0.2910585 185:2.7205533 186:-4.1135973 187:-4.6074408 188:-0.97266119 189:10.367144 190:6.3675917 191:-10.873821 192:-1.8149962 193:7.1817573 194:-6.2905751 195:-1.0855914 196:-4.7840605 197:-9.353761 198:-6.7110231 199:-4.4128176 200:-5.5460587 
0.085499621965316491 1:8.0179429 2:-5.5905293 3:-3.1334035 4:-1.2185934 5:3.5160978 6:9.5471631 7:-8.9151437 8:-6.1991257 9:5.4915221 10:3.3099144 11:-8.4762471 12:2.4159102 13:-9.271343 14:-10.891978 15:-2.7453215 16:3.5962666 17:4.8689063 18:5.4601101 19:-7.0766277 20:-1.8998744 21:-1.9956848 22:0.69507145 23:-9.0036341 24:9.8775827 25:0.893355 26:4.3501779 27:0.3869118 28:-3.2781894 29:6.4221266 30:7.8240446 31:6.3623542 32:4.5686238 33:5.879623 34:6.4639375 35:5.1368252 36:4.0939111 37:5.8315701 38:5.0923262 39:-8.9412451 40:-4.643749 41:-2.2932159 42:-0.1187492 43:-2.0212111 44:-8.9219649 45:3.053036 46:7.3090895 47:-9.497159 48:-4.6681618 49:-7.6724849 50:8.8527508 51:2.7716444 52:-3.5259037 53:8.1014183 54:-7.7507794 55:-1.5113178 56:-4.3861261 57:8.6874464 58:-7.3670576 59:-2.4789225 60:-5.4688563 61:7.9145342 62:-5.6399036 63:9.6113536 64:2.0480399 65:1.4413799 66:-1.0178261 67:-6.4343628 68:8.5922546 69:8.4040902 70:-4.5292844 71:1.5491087 72:2.8831831 73:-0.27921762 74:5.4113031 75:-3.1378528 76:2.1741884 77:2.5145566 78:-8.9835818 79:2.5792013 80:4.7648171 81:-6.2983474 82:-5.1026443 83:1.2051401 84:7.1876011 85:8.0878798 86:5.9824969 87:-1.0259871 88:-7.6055678 89:-2.7633081 90:-5.717405 91:-3.0426114 92:-5.1497433 93:7.8057861 94:-7.387622 95:-6.0583776 96:-7.0756755 97:9.7755889 98:-8.6557513 99:-7.2265653 100:-0.52149913 101:2.9681597 102:-4.1489938 103:5.5275694 104:-8.2448015 105:-5.5412684 106:-7.3742428 107:-1.0126864 108:-7.100668 109:-10.087436 110:4.2346375 111:9.9087054 112:4.6810452 113:7.6097364 114:-6.6288355 115:9.1802322 116:-5.4181684 117:-4.2909517 118:2.7560132 119:3.1486764 120:4.0010769 121:7.11785 122:4.5401382 123:-7.7925691 124:-2.2881601 125:3.5096847 126:5.940141 127:-8.7946076 128:-2.3646176 129:5.3424331 130:5.1653092 131:-4.251329 132:-1.2876827 133:11.339174 134:0.086723016 135:-3.9768004 136:7.2134974 137:-4.7978366 138:7.45094 139:-8.9284398 140:0.90540055 141:-9.3488026 142:-7.7798489 143:5.3566642 144:2.1900268 145:-1.5648821 146:-6.8008084 147:-2.5853543 148:-7.1980338 149:-0.51680724 150:-1.935095 151:-2.4880107 152:7.9486769 153:2.8633671 154:-3.978572 155:-8.9417789 156:-7.4385926 157:6.0014381 158:-1.5633853 159:-2.6235853 160:1.6024484 161:3.8663149 162:8.912304 163:-8.3376985 164:2.9990516 165:7.9942613 166:0.91482477 167:-4.1200203 168:-7.0388036 169:3.5854333 170:-1.6302418 171:-9.1776815 172:-9.6971255 173:-5.2959954 174:7.7365921 175:-4.6286128 176:-4.0286244 177:7.7821486 178:-2.324176 179:-2.51184 180:-4.700451 181:4.8329709 182:6.6996336 183:4.5174013 184:-1.5662435 185:3.0002753 186:-4.477011 187:-3.7215526 188:-0.042655657 189:9.6026611 190:8.0990521 191:-8.2044675 192:-2.6436669 193:6.7215193 194:-7.0904142 195:0.19716658 196:-6.9552287 197:-8.3858596 198:-7.5447905 199:-4.0221988 200:-6.1378158 
0.15968188385414242 1:10.359832 2:-3.6691494 3:-6.3657662 4:-3.0934603 5:2.3798474 6:11.868506 7:-8.7956128 8:-3.6959297 9:7.1705408 10:3.8811103 11:-7.8322675 12:2.0102459 13:-9.0835012 14:-10.705018 15:-6.1541611 16:3.2965974 17:5.1785402 18:3.2477305 19:-8.0606459 20:-0.48559305 21:-0.30459285 22:2.687528 23:-7.2599083 24:10.182037 25:-0.22150767 26:3.4266307 27:0.98280842 28:-2.4328648 29:4.7047768 30:5.8629579 31:5.2751766 32:4.30833 33:5.0776204 34:8.4113662 35:7.1693823 36:3.1878547 37:6.625565 38:5.2351369 39:-10.72464 40:-4.0762293 41:-0.73313453 42:-0.44896539 43:-0.69892793 44:-8.6105626 45:1.7506318 46:7.2727725 47:-9.5047905 48:-4.9845497 49:-7.3075085 50:9.6383182 51:3.32065 52:-1.6341941 53:7.7460897 54:-10.85543 55:-1.6780947 56:-3.8481804 57:9.1029845 58:-7.6419949 59:-1.0047533 60:-6.4454654 61:6.6427158 62:-6.5440905 63:8.2736658 64:1.3051511 65:0.67843172 66:-0.2497597 67:-6.3365221 68:6.9450656 69:8.7702124 70:-4.5955482 71:1.7797945 72:4.3703702 73:-1.6361063 74:6.5734368 75:-4.7119372 76:3.2073071 77:1.9929266 78:-9.7386224 79:2.5239248 80:6.7039824 81:-3.7321646 82:-2.9672009 83:4.3392151 84:5.2033093 85:7.2546466 86:6.8094252 87:-2.9261422 88:-7.8040862 89:0.12355061 90:-7.1174719 91:-2.1121941 92:-7.3361623 93:10.268973 94:-9.3960259 95:-5.4077998 96:-7.7810366 97:9.6784963 98:-7.0519456 99:-7.2306976 100:-1.044185 101:5.8338629 102:-2.1003464 103:6.9967861 104:-7.8532039 105:-4.9057371 106:-8.7662201 107:-0.46547758 108:-4.194802 109:-9.3326997 110:6.3717266 111:9.3651402 112:6.0691741 113:8.2971191 114:-5.6898454 115:10.562906 116:-7.1764978 117:-4.4616079 118:5.6450923 119:3.3845 120:3.2421468 121:8.8964683 122:2.5001228 123:-7.8615836 124:-3.1344573 125:5.464205 126:6.022311 127:-9.1837726 128:1.2894512 129:3.2895764 130:3.818981 131:-2.577662 132:-3.3422134 133:7.2380986 134:-0.21408486 135:-2.7767932 136:5.0095709 137:-4.5679705 138:6.5337251 139:-8.4788605 140:0.067867812 141:-9.7455963 142:-7.0976095 143:6.0187881 144:3.1490455 145:0.38274921 146:-5.6969991 147:-1.2355523 148:-6.6860594 149:-0.35307434 150:-1.1291797 151:-3.3918143 152:6.7188953 153:4.568833 154:-1.6840947 155:-7.6960284 156:-5.5667713 157:7.6474555 158:-2.9206189 159:-2.9841731 160:1.812918 161:4.3474668 162:8.6753404 163:-8.7408311 164:1.3073915 165:8.7914169 166:0.52763169 167:-3.2030228 168:-4.3589237 169:4.0198977 170:-2.4051856 171:-9.1067818 172:-7.4475565 173:-5.2831706 174:7.649532 175:-5.991614 176:-6.0879969 177:6.3149675 178:-1.8885188 179:-2.9110583 180:-4.2817882 181:1.764 182:4.8901333 183:5.9577114 184:-1.2074933 185:1.4343857 186:-7.351821 187:-4.0512899 188:-0.18283721 189:10.245557 190:7.0321718 191:-9.1879348 192:-3.3854082 193:6.442688 194:-5.3149218 195:1.1335755 196:-6.8229403 197:-9.8602142 198:-7.2899593 199:-7.0285218 200:-6.8407421 
