# This model file has been created at 2023-06-05 14:23:25
svm_type c_svc
kernel_type polynomial
degree 3
gamma 0.005
coef0 0
nr_class 2
label -1 1
total_sv 500
nr_sv 250 250
rho -0.03754797807246568
SV
7.3958878581e-05 1:3.5733248401e+00 2:4.5851443571e+00 3:5.8276157930e+00 4:1.0828748173e+01 5:-7.6397441089e+00 6:1.6916260712e+00 7:-3.8774695618e+00 8:-5.4164490751e+00 9:-6.5285430874e+00 10:-5.3294074558e+00 11:9.2597849728e+00 12:-2.6543176027e+00 13:-6.5399332766e+00 14:-5.7625237913e+00 15:-7.5221547692e+00 16:5.0277945232e+00 17:-4.1565471920e+00 18:6.0303490955e+00 19:-1.4584289521e+00 20:-1.9842506439e+00 21:-2.9992542339e+00 22:-7.7265401606e+00 23:-9.2675660106e+00 24:-2.4688237812e+00 25:-1.7688232568e+00 26:3.3668533728e+00 27:9.7406957243e+00 28:5.9596536825e-01 29:-6.9132603391e+00 30:8.6943901716e+00 31:-1.6105162937e+00 32:-1.2374530368e+00 33:-9.0894825638e+00 34:2.5234825005e+00 35:-4.2096841653e+00 36:-2.4607671937e+00 37:6.9984324928e+00 38:4.8612914215e+00 39:1.6916418659e+00 40:-9.4537941893e+00 41:-2.8711391666e+00 42:3.9170474182e+00 43:-6.8933567609e+00 44:9.6276063908e+00 45:9.8525717602e+00 46:-2.2025632347e+00 47:7.2232141839e+00 48:-7.1531180052e+00 49:-3.4166196271e+00 50:3.6352850629e+00 51:-5.7367265564e+00 52:5.7686071182e+00 53:8.5688205343e+00 54:-6.6628985067e+00 55:6.1080346919e+00 56:3.7841807908e+00 57:-2.5845690244e+00 58:7.9571839772e+00 59:2.0047085742e+00 60:-2.7055032978e+00 61:5.9384513923e+00 62:-6.7784254960e-01 63:-1.8847021940e+00 64:-2.1832083307e+00 65:-1.6128337286e+00 66:-5.6386209911e+00 67:-9.4166072983e+00 68:-8.8684175539e+00 69:1.0763457080e+01 70:8.6742286330e+00 71:6.2952361196e+00 72:9.3544556894e+00 73:1.1635976812e+00 74:6.3916506753e+00 75:-1.4135850053e-01 76:5.3223717353e+00 77:-3.0092034697e+00 78:-1.2543863444e+00 79:9.2063056698e+00 80:9.0270954787e+00 81:-1.7252930697e+00 82:7.8368322107e-02 83:-9.0706814035e+00 84:-3.7912888518e+00 85:-2.4403898213e-01 86:7.6922255576e+00 87:2.9162795785e+00 88:-4.5382303034e+00 89:-4.7111538572e+00 90:1.3904187200e+00 91:-3.4814554240e+00 92:-5.7991762397e+00 93:-7.8667272906e-01 94:-2.2777256440e+00 95:-5.0331267421e+00 96:5.4049114153e+00 97:6.2750680275e+00 98:-1.0387451965e+01 99:-4.1168384071e+00 100:-2.0040563702e+00 101:4.3585046391e+00 102:4.7136889429e+00 103:5.3285010804e-01 104:-2.4788362271e+00 105:-4.9301153788e+00 106:-1.0311425032e+00 107:2.4198678139e+00 108:-2.0173756753e+00 109:-1.1692595530e+00 110:-3.2410314237e+00 111:5.6263845308e+00 112:6.9689905842e+00 113:8.5378140485e+00 114:5.5337259282e-01 115:8.7350002053e+00 116:9.6455487747e+00 117:-9.7946147774e+00 118:1.9096857735e+00 119:7.6325422155e+00 120:5.9546051450e-01 121:2.7929379179e+00 122:-4.6837660577e+00 123:2.7340833112e+00 124:8.1505882912e+00 125:3.2807051587e+00 126:-4.0101516869e-01 127:8.1968113009e+00 128:9.4101353771e+00 129:6.4135555823e+00 130:-8.4950098243e-01 131:-5.8679951543e-01 132:-1.7474624369e+00 133:-7.1342077641e-01 134:-9.1841157122e-02 135:8.8170684062e+00 136:-7.5267273970e+00 137:-4.1509159038e+00 138:-4.8611043686e+00 139:-2.8057348294e+00 140:-3.2458980095e-01 141:-4.1039931383e+00 142:5.8917320483e+00 143:-2.1622650413e+00 144:-5.7714670181e+00 145:-1.4407953809e+00 146:-6.7209605942e+00 147:8.7640955259e+00 148:-1.8457478996e+00 149:5.3479282102e+00 150:6.5127001508e+00 151:5.6619111698e+00 152:-1.0306276460e+01 153:-2.7203578341e+00 154:3.4834421534e+00 155:5.0006108311e+00 156:9.4885986973e-01 157:-3.9919462113e+00 158:8.2520498246e-01 159:3.7873978973e+00 160:5.8542109975e+00 161:-2.4532820324e+00 162:-4.4606845228e+00 163:-5.8051547591e+00 164:8.1580496740e+00 165:4.2646417344e+00 166:6.4240164932e+00 167:6.5044286823e+00 168:-1.6163074025e-01 169:-5.4449296454e+00 170:4.2649169658e+00 171:3.4893185826e+00 172:-1.7705605720e+00 173:4.1189022226e+00 174:-9.0403196717e+00 175:2.3930113893e+00 176:2.7893546413e+00 177:7.3797609827e+00 178:1.0883372638e+00 179:-3.8659614204e+00 180:-1.5427885816e+00 181:-5.0178881584e-01 182:7.5698160674e+00 183:4.8522504639e+00 184:-4.4657070230e+00 185:-7.3599260947e+00 186:-6.9633541451e+00 187:-4.4194839825e+00 188:3.5553071969e+00 189:-7.9704964530e+00 190:3.6923097292e+00 191:6.2899681547e-01 192:7.8338895358e+00 193:8.7135745966e+00 194:7.1968562835e+00 195:1.7212663014e+00 196:6.4748028161e+00 197:9.4491177957e+00 198:2.5422159835e+00 199:1.7346381050e+00 200:-2.4318956519e+00 
-1.7528122123e-04 1:3.9897049947e+00 2:4.5129764792e+00 3:6.3823974170e+00 4:8.7924990546e+00 5:-9.1302626849e+00 6:-6.8503407200e-01 7:-2.9118736176e+00 8:-2.1281984267e+00 9:-6.6820463458e+00 10:-5.2076636591e+00 11:6.7356333622e+00 12:-5.8998030495e+00 13:-7.5800875565e+00 14:-4.9156326428e+00 15:-7.9600010284e+00 16:4.0170176359e+00 17:-5.4796400197e+00 18:5.9730067523e+00 19:5.6891450376e-01 20:-2.6425539389e+00 21:-9.9674302559e-01 22:-9.7428840676e+00 23:-9.9447858812e+00 24:-1.7152323612e+00 25:-1.9441585995e+00 26:4.2190029573e+00 27:7.4806181423e+00 28:-6.7866521772e-01 29:-8.9768329817e+00 30:8.7216437719e+00 31:-6.0521378695e-01 32:-9.1122783857e-01 33:-8.6307676355e+00 34:3.3066999305e+00 35:-3.4565521814e+00 36:-3.0644520485e+00 37:7.1084540680e+00 38:4.3778618149e+00 39:4.0943482110e+00 40:-9.0445074647e+00 41:-3.3678026176e+00 42:4.8629955575e+00 43:-9.2695446148e+00 44:1.0997193973e+01 45:9.8234897936e+00 46:-8.5168736303e-01 47:8.5056654401e+00 48:-8.3335757079e+00 49:-3.7689280333e+00 50:2.7320338196e+00 51:-7.5979774395e+00 52:5.6073735317e+00 53:5.4867844722e+00 54:-6.7307568649e+00 55:7.4220152703e+00 56:5.7402683814e+00 57:-1.2296310588e+00 58:6.0993198589e+00 59:2.5454082846e+00 60:-2.6480772081e+00 61:7.3357073975e+00 62:-8.0343735077e-01 63:-2.5493970616e+00 64:-2.6108155422e+00 65:-2.7797107669e+00 66:-5.9462006525e+00 67:-9.9596261564e+00 68:-1.0777600278e+01 69:8.3515577295e+00 70:8.5626408397e+00 71:7.4149268474e+00 72:1.0589560921e+01 73:-4.0760816685e-01 74:7.1564167760e+00 75:1.1259028823e+00 76:3.9776806736e+00 77:-9.6769660335e-01 78:-2.8993104938e+00 79:8.6776976691e+00 80:8.7556226919e+00 81:-8.0163436906e-01 82:1.3911303592e-01 83:-8.0729743267e+00 84:-2.2854790918e+00 85:-4.8394355819e-01 86:5.7833753343e+00 87:-2.3842873007e-02 88:-5.7987119708e+00 89:-3.7304021832e+00 90:9.6684075054e-01 91:-6.7408173016e+00 92:-4.2864156039e+00 93:-1.7311741644e-01 94:-2.0847483724e+00 95:-4.7256183228e+00 96:5.5103886936e+00 97:6.6807264539e+00 98:-9.9491576750e+00 99:-4.3963629834e+00 100:-1.7828973252e+00 101:2.3443354570e+00 102:3.8164288308e+00 103:5.5270568344e-01 104:-3.7664140253e+00 105:-5.8544531858e+00 106:-1.8939346445e+00 107:1.6364412475e+00 108:-6.3091337570e-01 109:-1.8707461408e+00 110:-7.8877910155e-02 111:6.3532013155e+00 112:5.8956727845e+00 113:9.4107314030e+00 114:9.9634855982e-01 115:9.1081569951e+00 116:8.6680110643e+00 117:-8.0239266860e+00 118:1.6344119959e+00 119:8.6273186439e+00 120:1.9051043393e+00 121:2.3063521125e+00 122:-4.5516462437e+00 123:1.9379729536e+00 124:1.0403259003e+01 125:2.9847546011e+00 126:-6.6424957559e-01 127:7.2692226286e+00 128:8.0199964087e+00 129:3.8749779676e+00 130:-1.8184462805e-02 131:-2.8907575127e+00 132:-3.7418364442e+00 133:-1.5357193265e+00 134:2.2763641672e+00 135:9.4259410077e+00 136:-3.9401132030e+00 137:-5.0573971810e+00 138:-3.3027020281e+00 139:-2.9340142973e+00 140:3.0344869298e-01 141:-4.8821690808e+00 142:5.1524928994e+00 143:-3.4554396397e+00 144:-3.8930749327e+00 145:-5.0636524744e-01 146:-6.7524887930e+00 147:1.0872187636e+01 148:-2.3983821410e+00 149:5.6019698697e+00 150:7.0123436934e+00 151:6.8192324809e+00 152:-1.0209508971e+01 153:-4.0352155971e+00 154:4.3795327593e+00 155:4.6806434295e+00 156:6.4542811365e-01 157:-6.0024860454e+00 158:1.1518976049e+00 159:3.9956829310e+00 160:7.7926769925e+00 161:-3.7542581825e+00 162:-1.6129720119e+00 163:-6.2172604970e+00 164:8.1893023175e+00 165:3.9447933121e+00 166:8.6739753166e+00 167:8.4795226632e+00 168:6.5533246383e-01 169:-6.4426157865e+00 170:5.5346787886e+00 171:2.6855920803e+00 172:-1.4077635340e+00 173:1.5937010603e+00 174:-7.6011897906e+00 175:7.4077986281e-01 176:3.8961467666e+00 177:6.5391067173e+00 178:2.0471769508e+00 179:-4.1028762503e+00 180:-1.7415328582e+00 181:9.1868069335e-01 182:4.9666005689e+00 183:3.9088899209e+00 184:-5.6289038084e+00 185:-8.6525082990e+00 186:-4.9653340364e+00 187:-1.9280686095e+00 188:2.8073420306e+00 189:-1.0773294743e+01 190:5.5614852721e-01 191:2.1779799711e-01 192:7.3276332256e+00 193:8.3253761409e+00 194:6.7613109569e+00 195:1.8593869632e+00 196:5.5707586922e+00 197:1.1416723714e+01 198:2.0468698056e+00 199:1.6548449593e+00 200:-1.6095474343e+00 
5.8792892363e-05 1:3.1684860088e+00 2:3.7006044134e+00 3:6.3374558254e+00 4:1.0485918546e+01 5:-6.4200012358e+00 6:-2.0597396868e-01 7:-3.9335228341e+00 8:-4.1448355251e+00 9:-5.8253408663e+00 10:-6.8106329277e+00 11:6.2730874636e+00 12:-5.5925977207e+00 13:-7.9175975045e+00 14:-6.2599991533e+00 15:-8.8157266149e+00 16:5.4534617510e+00 17:-2.1441555206e+00 18:4.0348184553e+00 19:4.0035316111e-01 20:-9.6317155812e-01 21:-2.5798731566e+00 22:-7.7399898632e+00 23:-1.0630490372e+01 24:-4.2205670250e+00 25:-2.4817165841e+00 26:2.9592272586e+00 27:1.0455685662e+01 28:5.7800019507e-01 29:-8.9606438153e+00 30:5.8377363582e+00 31:-1.7720766297e-01 32:-6.1452636047e-01 33:-9.8083503680e+00 34:2.4437277037e+00 35:-4.3440273989e+00 36:-3.4891448231e+00 37:5.5228870775e+00 38:4.1396965454e+00 39:1.1431851754e+00 40:-8.8108704639e+00 41:-2.8185330427e+00 42:4.9751910475e+00 43:-8.0422499782e+00 44:9.4131026068e+00 45:7.8641788012e+00 46:-3.6111632310e+00 47:6.5769417061e+00 48:-8.0795962086e+00 49:-4.4383286416e+00 50:3.3148679894e-01 51:-7.3508507760e+00 52:4.7077039325e+00 53:6.1709131024e+00 54:-8.9208392483e+00 55:7.6127651214e+00 56:4.1588726099e+00 57:-3.2869981161e+00 58:5.6420438524e+00 59:2.6682808887e+00 60:-5.1520070372e+00 61:7.2622368921e+00 62:-4.9479419048e-02 63:-4.3062822512e+00 64:-3.9194573886e+00 65:-1.3586250386e+00 66:-6.3415734390e+00 67:-1.1561205053e+01 68:-9.5521937555e+00 69:7.9364920517e+00 70:7.1015524922e+00 71:6.2770358694e+00 72:9.9776931154e+00 73:9.0134595794e-01 74:6.9192479253e+00 75:-1.1085161196e+00 76:4.1083966808e+00 77:-1.5933396833e+00 78:-8.4934721417e-01 79:7.9115395561e+00 80:8.4441741775e+00 81:-7.7355701853e-01 82:1.0336265472e+00 83:-9.8295539827e+00 84:-1.0357154239e+00 85:-2.8014980071e-02 86:7.5522753501e+00 87:2.6312430369e+00 88:-6.2333235263e+00 89:-2.6843101618e+00 90:2.4232634109e-01 91:-2.9044171887e+00 92:-5.6588728679e+00 93:1.8054507683e+00 94:-7.5259950801e-01 95:-4.0189548057e+00 96:6.2677936801e+00 97:7.9657068299e+00 98:-1.0209844772e+01 99:-4.3023678226e+00 100:-4.9908449507e+00 101:3.6439559010e+00 102:4.9474398120e+00 103:1.7403457383e+00 104:-3.2776618009e+00 105:-4.4882684430e+00 106:-3.6996766147e+00 107:-9.1351069423e-01 108:1.5241670285e-01 109:-2.7297736239e+00 110:-1.1374048375e+00 111:4.9525328671e+00 112:7.6037966734e+00 113:9.4951910487e+00 114:2.3503746154e+00 115:7.4383334022e+00 116:8.1904196235e+00 117:-9.2689575234e+00 118:3.2715933582e+00 119:1.0567048525e+01 120:1.9893689752e-01 121:3.3451809676e+00 122:-4.2495655219e+00 123:3.2820092101e+00 124:8.3482090275e+00 125:3.2557946323e+00 126:-1.0356465740e+00 127:7.5952277708e+00 128:9.2183646804e+00 129:5.8812207416e+00 130:1.6158994234e+00 131:5.4470983888e-01 132:-2.2103126617e-01 133:-1.8515585771e+00 134:1.3278731212e+00 135:1.0630666606e+01 136:-8.2020164053e+00 137:-9.9905461324e-01 138:-4.7657779889e+00 139:-3.1850392444e+00 140:-1.8294663367e+00 141:-2.3770987359e+00 142:4.6217088220e+00 143:-1.7109253408e+00 144:-5.9437147362e+00 145:-7.9108347737e-01 146:-5.4496043115e+00 147:9.0832964186e+00 148:-2.9568185913e+00 149:4.6278786295e+00 150:6.4936592825e+00 151:8.0682109066e+00 152:-8.8315451052e+00 153:-5.0819097174e+00 154:4.0314359891e+00 155:5.0675587906e+00 156:5.9252890568e-01 157:-4.9439740680e+00 158:2.3785308565e+00 159:4.2403909936e+00 160:8.0246828618e+00 161:-2.8423904601e+00 162:-4.5708984857e+00 163:-5.4835780696e+00 164:9.8999146746e+00 165:4.8619994565e+00 166:6.5848366947e+00 167:5.6423586490e+00 168:6.9322357112e-01 169:-6.2757221207e+00 170:2.7628458955e+00 171:2.4832791977e+00 172:-1.8795715911e+00 173:2.9186223255e+00 174:-5.5548810001e+00 175:1.7261919567e+00 176:3.2786240357e+00 177:6.2089064208e+00 178:1.6963892993e+00 179:-4.4662517498e+00 180:-3.1617452760e-01 181:7.0484148047e-01 182:5.5232415845e+00 183:2.1234349873e+00 184:-6.3332601871e+00 185:-3.9569504333e+00 186:-5.8359574135e+00 187:-4.2223247735e+00 188:3.9051343119e+00 189:-8.6578708870e+00 190:-4.1153435189e-02 191:2.0256582183e-01 192:7.9492014932e+00 193:9.2149960266e+00 194:5.5092711278e+00 195:4.4732585279e+00 196:6.1690900287e+00 197:7.6617994604e+00 198:7.7949161311e-01 199:2.5457235650e+00 200:-8.9685650551e-01 
1.2811828380e-05 1:3.7833564324e+00 2:4.7417942688e+00 3:6.0749321429e+00 4:9.8698622984e+00 5:-7.4142014299e+00 6:1.8999391893e-01 7:-2.0580087299e+00 8:-1.6945707978e+00 9:-6.1726849018e+00 10:-5.0647936657e+00 11:7.6956492341e+00 12:-5.5726903215e+00 13:-7.3052796030e+00 14:-4.5154934128e+00 15:-7.6412198681e+00 16:4.9634427904e+00 17:-6.0517329991e+00 18:3.4339344035e+00 19:2.4469982592e-02 20:-2.6369111100e+00 21:-1.7571281738e+00 22:-7.5166882986e+00 23:-1.1783769961e+01 24:-3.2346092062e+00 25:-9.0757607741e-01 26:4.0898462737e+00 27:9.0481690254e+00 28:-9.9634496386e-01 29:-8.3358136173e+00 30:7.4896273752e+00 31:-1.8448016707e+00 32:-1.6360208252e+00 33:-8.8126556061e+00 34:1.8820623723e+00 35:-5.4981847257e+00 36:-2.6806935576e+00 37:6.0786461279e+00 38:4.5678651001e+00 39:3.8816730598e+00 40:-7.6810074584e+00 41:-2.7100518480e+00 42:2.3590784884e+00 43:-7.0074998047e+00 44:9.9698062093e+00 45:9.2635956084e+00 46:-3.1031640132e+00 47:7.0207824523e+00 48:-8.5885925534e+00 49:-3.6513311329e+00 50:8.9552243946e-01 51:-8.5289765207e+00 52:4.9153497815e+00 53:6.4918195212e+00 54:-6.9136236937e+00 55:8.1414900317e+00 56:4.8923007563e+00 57:-2.0543347289e+00 58:7.5667283165e+00 59:1.6122513482e+00 60:-2.4046278866e+00 61:7.0299311968e+00 62:-1.6947042848e+00 63:-3.3037973294e+00 64:-2.4875386012e+00 65:-2.8273354971e+00 66:-5.7801323262e+00 67:-1.0470469375e+01 68:-6.8344976540e+00 69:8.6849858339e+00 70:8.6604048312e+00 71:9.5719953898e+00 72:8.0771551721e+00 73:3.3612117315e-03 74:5.1250548028e+00 75:-2.1296645253e+00 76:6.3067641641e+00 77:-3.9197494853e+00 78:-4.1360746205e+00 79:8.0581156321e+00 80:7.5456909463e+00 81:-2.6394759640e+00 82:3.2307511936e+00 83:-8.6585131679e+00 84:-6.6830728463e-01 85:1.0132548386e+00 86:7.8412268553e+00 87:1.5261419226e+00 88:-4.8423729546e+00 89:-4.5799021555e+00 90:2.4844974920e+00 91:-4.4751805054e+00 92:-5.9627911632e+00 93:1.3104677352e+00 94:-1.1140599494e+00 95:-3.7002384207e+00 96:4.8149785065e+00 97:6.2109444261e+00 98:-9.7081582752e+00 99:-2.6501368291e+00 100:-2.1214817757e+00 101:2.8190595254e+00 102:4.2579773003e+00 103:-1.1041734998e-02 104:-2.5589009943e+00 105:-4.8320779267e+00 106:-2.3145837037e+00 107:1.7726741720e+00 108:6.8211920118e-01 109:-1.9200964329e+00 110:-2.0182554372e+00 111:6.6936295887e+00 112:7.3411499158e+00 113:8.6773246438e+00 114:1.6280605280e+00 115:8.2337465323e+00 116:1.0243977572e+01 117:-1.0341851601e+01 118:1.4481073979e+00 119:6.5055526982e+00 120:-4.3332990221e-03 121:2.1627059878e+00 122:-6.0280495749e+00 123:1.6174952244e+00 124:1.0306728903e+01 125:5.3688734630e+00 126:-8.2664309733e-02 127:8.5537277843e+00 128:9.2650886126e+00 129:6.5368246610e+00 130:-6.4601177103e-02 131:1.8638915348e+00 132:-5.7125309943e-02 133:-3.1873375925e+00 134:1.4611245567e+00 135:1.0334456816e+01 136:-7.6993125688e+00 137:-5.1076693130e+00 138:-3.2378200130e+00 139:-5.5708268310e+00 140:1.2599357918e-01 141:-1.8074032615e+00 142:5.6898691049e+00 143:4.5889620195e-02 144:-6.6435656378e+00 145:-2.4709274421e-01 146:-7.0849274429e+00 147:9.0211128025e+00 148:-2.0520723698e+00 149:3.7496626188e+00 150:5.7095033917e+00 151:8.4588780750e+00 152:-9.3453435674e+00 153:-3.4449429609e+00 154:4.2688017592e+00 155:3.4234946600e+00 156:5.9380442539e-01 157:-4.1380518525e+00 158:3.7485921465e+00 159:3.7824218548e+00 160:7.4953439652e+00 161:-4.1085116912e+00 162:-3.5258786272e+00 163:-5.2534504552e+00 164:6.6823162238e+00 165:5.3388659378e+00 166:5.5713906400e+00 167:8.4518532588e+00 168:2.0748916570e+00 169:-4.9140794787e+00 170:2.7196038976e+00 171:2.3303653131e+00 172:-2.5188526174e-01 173:2.4807931912e+00 174:-7.6535351613e+00 175:1.8070434650e+00 176:1.7673831753e+00 177:7.4470459095e+00 178:2.7517435818e+00 179:-4.2749438178e+00 180:-1.7515337941e+00 181:-1.4731887588e+00 182:7.0555731472e+00 183:2.1735303247e+00 184:-5.1834516406e+00 185:-5.1381205194e+00 186:-6.7134847356e+00 187:-3.8736749671e+00 188:3.0022641973e+00 189:-1.2414762289e+01 190:3.9861496548e+00 191:-1.2808204750e+00 192:8.1825867538e+00 193:9.5034514616e+00 194:8.0917628741e+00 195:3.7288786814e+00 196:6.8853197628e+00 197:7.6233636025e+00 198:2.9271690704e+00 199:1.2296419015e-01 200:-2.0288380681e+00 
-6.3795494583e-05 1:3.5032423891e+00 2:4.7793771153e+00 3:7.1717926735e+00 4:1.0954185031e+01 5:-8.8692405008e+00 6:-8.5216853053e-01 7:-4.3400900011e+00 8:-2.4938095329e+00 9:-8.4637548377e+00 10:-6.7893444364e+00 11:7.5439331116e+00 12:-6.0749489343e+00 13:-7.5225951299e+00 14:-5.0868088762e+00 15:-6.5170975616e+00 16:6.1506324746e+00 17:-3.1205749140e+00 18:5.9616837983e+00 19:-1.2615842233e+00 20:-2.0097009080e+00 21:-1.9768397041e+00 22:-9.6971397849e+00 23:-8.8152246567e+00 24:-3.0820327216e+00 25:-1.7774953613e+00 26:4.7019781277e+00 27:6.8761525557e+00 28:-1.0168716842e+00 29:-9.3894143573e+00 30:8.5102415187e+00 31:-1.3015794792e+00 32:-1.4221340186e+00 33:-8.3004140254e+00 34:3.0286112137e-01 35:-4.6366999705e+00 36:-2.0405614347e+00 37:6.1957150201e+00 38:4.6345672842e+00 39:4.4126215934e+00 40:-9.7814957000e+00 41:-2.7837843029e+00 42:2.2947854066e+00 43:-7.4320686912e+00 44:1.0132022413e+01 45:8.8992361337e+00 46:-3.8847903710e+00 47:7.8562875967e+00 48:-8.5961327815e+00 49:-3.3874614972e+00 50:6.3388213614e-01 51:-7.8875372585e+00 52:6.8532416041e+00 53:6.9103960135e+00 54:-8.5365015875e+00 55:7.5886688139e+00 56:2.8381689623e+00 57:-3.1286223371e+00 58:6.3697700610e+00 59:3.5174551689e+00 60:-2.6858377099e+00 61:6.6219106158e+00 62:-1.4205558126e+00 63:-3.5930392417e+00 64:-3.5525799891e+00 65:-2.8110959131e+00 66:-1.6422410034e+00 67:-1.0328214926e+01 68:-9.1002657803e+00 69:1.0526970248e+01 70:9.7288182832e+00 71:1.0515200894e+01 72:1.0286872277e+01 73:9.4821349423e-01 74:9.1514608374e+00 75:-4.5947448477e-01 76:6.1342770813e+00 77:-2.3158711457e+00 78:-2.3174464150e+00 79:7.1908440826e+00 80:8.3759427462e+00 81:-2.0840612477e+00 82:6.9203945249e-01 83:-9.2521735605e+00 84:-2.0697455299e+00 85:1.7588985536e-01 86:5.6828648410e+00 87:1.7139792924e+00 88:-6.0656934709e+00 89:-6.1868018287e+00 90:2.1900489776e+00 91:-7.0650906095e+00 92:-5.4221418092e+00 93:3.2662887284e-01 94:-2.5918582570e+00 95:-3.6799302993e+00 96:4.7489230226e+00 97:5.8815749667e+00 98:-9.8622043366e+00 99:-4.7887943191e+00 100:-2.9594689394e+00 101:5.2851360936e+00 102:5.0006772607e+00 103:6.2539831584e-01 104:-3.9153191070e+00 105:-4.5769660552e+00 106:-1.1591022996e+00 107:2.6299355221e+00 108:-9.0212022071e-01 109:-2.0239029154e+00 110:-3.9287216749e+00 111:6.5841994460e+00 112:8.3210066519e+00 113:7.8504199990e+00 114:7.4278595644e-02 115:6.9719082655e+00 116:8.8829670423e+00 117:-9.5364491962e+00 118:1.9055099766e+00 119:7.9406358287e+00 120:4.5454147917e-01 121:3.9210454110e-01 122:-3.3013788890e+00 123:1.9121520325e+00 124:9.1464977263e+00 125:2.0560190203e+00 126:2.0388491439e+00 127:8.1201571160e+00 128:9.1486679878e+00 129:5.1050035245e+00 130:-4.7092982370e-01 131:9.7670733431e-01 132:-1.5006797111e+00 133:-2.3980752913e+00 134:2.0990051851e+00 135:9.2553753806e+00 136:-8.6148525347e+00 137:-3.4073175674e+00 138:-4.2226235477e+00 139:-4.1127154146e+00 140:5.4733062614e-01 141:-1.6378213433e+00 142:6.3824128305e+00 143:-3.2201160472e+00 144:-5.7480390257e+00 145:4.1625121276e-01 146:-7.0355906740e+00 147:9.4206521837e+00 148:-2.0301157612e+00 149:4.7474826537e+00 150:5.6023027680e+00 151:6.7899341817e+00 152:-9.5799935697e+00 153:-2.6018047240e+00 154:4.6255440286e+00 155:3.8337459137e+00 156:1.5036619900e+00 157:-6.0133159156e+00 158:1.4722884870e+00 159:4.5991091226e+00 160:8.1555472897e+00 161:-4.4583114011e+00 162:-1.0316587602e+00 163:-6.1568442774e+00 164:8.5328475411e+00 165:5.1344262054e+00 166:7.0188471693e+00 167:5.6397448641e+00 168:-1.5316324265e+00 169:-5.8797538863e+00 170:1.7220262875e+00 171:2.1534901444e+00 172:1.5132388870e-01 173:4.8683328042e+00 174:-7.6893317279e+00 175:2.9476074584e+00 176:3.4889492436e+00 177:8.0829161288e+00 178:-7.1530510174e-02 179:-4.5360997167e+00 180:-1.1599650060e+00 181:-1.2676838936e+00 182:5.7418290157e+00 183:1.9923336743e+00 184:-6.9878228079e+00 185:-6.5079846557e+00 186:-6.7102508137e+00 187:-1.4278698446e+00 188:4.0049965634e+00 189:-1.0259822598e+01 190:1.8171163881e+00 191:6.8534660060e-01 192:7.8127906859e+00 193:8.9103192577e+00 194:5.3945160595e+00 195:2.5971749428e+00 196:6.7186000318e+00 197:8.2315372872e+00 198:1.4341374396e+00 199:8.9284061675e-01 200:-1.8297616173e+00 
1.4378835038e-04 1:3.5376027741e+00 2:3.8209400559e+00 3:6.8244934839e+00 4:9.8006271659e+00 5:-7.6797694766e+00 6:1.0992839888e+00 7:-2.7058266873e+00 8:-4.1454376222e+00 9:-5.3152180505e+00 10:-5.8469326922e+00 11:6.6865821242e+00 12:-4.1672847633e+00 13:-7.4334933237e+00 14:-5.2221558325e+00 15:-7.2822728210e+00 16:3.0576388284e+00 17:-3.7258559366e+00 18:6.1685463430e+00 19:3.7228069209e-01 20:-2.8266895590e+00 21:-5.9328269302e-01 22:-8.4101942077e+00 23:-9.7621963557e+00 24:-3.4329892001e+00 25:-1.4624173633e+00 26:3.2650519877e+00 27:6.9280095196e+00 28:2.3759948240e-01 29:-9.9027837480e+00 30:8.2760818922e+00 31:-7.1426827215e-01 32:-1.8150780697e+00 33:-9.3599473450e+00 34:1.3817316750e+00 35:-5.3248635636e+00 36:-1.9622302633e+00 37:4.9273653267e+00 38:2.9388839916e+00 39:2.3814275261e+00 40:-8.3985013580e+00 41:-2.5586641942e+00 42:2.4483431042e+00 43:-7.9222581730e+00 44:1.0135561703e+01 45:8.5202739837e+00 46:-2.0880622404e+00 47:7.1774607916e+00 48:-7.8609560925e+00 49:-3.5087499272e+00 50:4.3173278417e+00 51:-6.6619444572e+00 52:6.3009176177e+00 53:7.7973345103e+00 54:-5.2707143807e+00 55:7.0022946081e+00 56:5.8809477500e+00 57:9.7396535088e-01 58:6.8746227723e+00 59:2.4435775581e+00 60:-2.9629018354e+00 61:5.6092565149e+00 62:-1.9054359934e+00 63:-4.3825839233e+00 64:-3.5847747177e+00 65:-3.7283074452e+00 66:-4.2242051616e+00 67:-9.2414015811e+00 68:-8.0867151433e+00 69:9.9065940852e+00 70:7.9223249839e+00 71:8.4275741671e+00 72:8.2570427208e+00 73:-1.8430029182e-01 74:5.5854220459e+00 75:-7.3768959015e-01 76:5.1476884161e+00 77:-3.0047004603e+00 78:-2.3196212036e+00 79:7.0861674383e+00 80:9.1464464590e+00 81:3.9608850159e-01 82:3.5109761376e+00 83:-8.3259464106e+00 84:-3.0272122247e+00 85:1.4267764880e+00 86:7.0098157040e+00 87:1.3091511746e+00 88:-4.4568614954e+00 89:-2.2525872228e+00 90:1.2106908963e+00 91:-5.3937723440e+00 92:-4.5762033764e+00 93:5.7479045816e-01 94:-2.0717237217e+00 95:-4.8174406556e+00 96:3.2451552686e+00 97:8.0029696807e+00 98:-9.0849092109e+00 99:-4.0762771059e+00 100:-2.7760196896e+00 101:5.4091297478e+00 102:6.0016173381e+00 103:1.8292725331e+00 104:-3.3880720842e+00 105:-6.4297810432e+00 106:-1.5594861972e+00 107:-1.1768685202e-01 108:1.0371885191e+00 109:-2.0998402100e+00 110:-5.9793944230e-01 111:5.6852998132e+00 112:7.8278567218e+00 113:9.4194386894e+00 114:1.2498064770e+00 115:7.6946825512e+00 116:9.5727584181e+00 117:-8.6136395485e+00 118:1.7069420978e+00 119:9.9208990547e+00 120:2.8112052251e-02 121:6.6772000143e-01 122:-2.5939281810e+00 123:2.9448438461e+00 124:9.1990710131e+00 125:3.7049922941e+00 126:1.0514489487e+00 127:8.3402130662e+00 128:8.1108240473e+00 129:4.3403981019e+00 130:6.8607929305e-01 131:-1.1434324564e+00 132:-1.9173353767e+00 133:-3.4210736790e+00 134:1.6202532747e+00 135:1.0527278642e+01 136:-6.7297753913e+00 137:-4.6696514265e+00 138:-3.0032376069e+00 139:-3.0047731379e+00 140:-9.1014441356e-01 141:-2.4947894867e+00 142:5.7134679191e+00 143:-1.4527245205e+00 144:-3.0687701799e+00 145:1.4815280701e+00 146:-7.0273091494e+00 147:7.1720384759e+00 148:-5.9728978418e-01 149:4.0796718078e+00 150:6.6699302743e+00 151:7.7345615601e+00 152:-1.0835380124e+01 153:-3.1342342402e+00 154:3.3697909618e+00 155:5.3928755760e+00 156:1.4632058466e-01 157:-5.4281245214e+00 158:2.8542233417e+00 159:3.5119374209e+00 160:8.2671243244e+00 161:-5.3538675651e+00 162:-1.9236958283e+00 163:-5.9527672876e+00 164:9.1899706010e+00 165:5.2040458747e+00 166:6.1505053106e+00 167:7.7984361600e+00 168:1.8543478533e+00 169:-8.0496902929e+00 170:2.3332075430e+00 171:1.0097359831e+00 172:-3.7482413633e-01 173:5.0734486900e+00 174:-8.4061594280e+00 175:1.1143846495e+00 176:3.5447392004e+00 177:6.9716749168e+00 178:2.5112324298e+00 179:-4.9111626859e+00 180:-4.8979193404e-01 181:-2.3316725259e+00 182:6.3749403430e+00 183:2.4956750086e+00 184:-5.8146300378e+00 185:-8.1013020889e+00 186:-6.6515558052e+00 187:-5.3032286836e-01 188:4.2525217568e+00 189:-1.0382708368e+01 190:3.2057044901e-01 191:-2.5515360549e-01 192:8.2679210511e+00 193:1.0035593480e+01 194:8.0149768885e+00 195:2.2616497100e+00 196:4.0267737180e+00 197:1.0299516831e+01 198:3.5337212790e+00 199:3.8063949008e+00 200:-2.6658591552e+00 
1.1315948895e-04 1:4.5483518088e+00 2:6.1037698881e+00 3:8.2494038198e+00 4:9.7595660894e+00 5:-7.2837977189e+00 6:-1.4050748002e+00 7:-2.0833130512e+00 8:-2.7758285590e+00 9:-6.2079501847e+00 10:-6.7550903114e+00 11:7.3441155710e+00 12:-5.7761101936e+00 13:-7.1098521072e+00 14:-3.9201638294e+00 15:-8.0329076682e+00 16:5.3633587290e+00 17:-5.0771185732e+00 18:4.9670400782e+00 19:-2.3222211579e-01 20:-3.2545634862e+00 21:6.7174272878e-01 22:-8.0273913188e+00 23:-8.6764829441e+00 24:-3.9894849910e+00 25:-4.0147180475e+00 26:4.6887772538e+00 27:9.8094020121e+00 28:-1.4535338112e+00 29:-9.9629014284e+00 30:7.0520301763e+00 31:-1.9208484910e+00 32:-4.6363811189e-01 33:-9.3591455981e+00 34:4.3599413142e+00 35:-3.6815848379e+00 36:-2.9844473026e-01 37:7.2421841470e+00 38:3.4716247487e+00 39:2.6005760818e+00 40:-7.9772834048e+00 41:-2.1456897756e+00 42:4.1022797965e+00 43:-6.8366160018e+00 44:1.0355089119e+01 45:9.8929905241e+00 46:-1.4229501888e+00 47:6.0872447476e+00 48:-7.5958674707e+00 49:-3.9951973305e+00 50:2.7520862747e+00 51:-7.3715684914e+00 52:5.7560367718e+00 53:6.2657102542e+00 54:-7.7954462082e+00 55:7.7065634478e+00 56:4.1688200571e+00 57:-1.7342619707e+00 58:7.4231924978e+00 59:4.1936073144e+00 60:-3.3016131065e+00 61:5.7506294769e+00 62:-1.8456191672e+00 63:-4.7763043862e+00 64:-2.0674715270e+00 65:-2.4192588625e+00 66:-5.5203498324e+00 67:-9.8162356810e+00 68:-9.4319526207e+00 69:8.4978737456e+00 70:1.0111321422e+01 71:8.6631835037e+00 72:7.2825791675e+00 73:3.5207223127e-01 74:6.6597002440e+00 75:-1.0550277452e+00 76:3.9482427418e+00 77:-1.4570491738e+00 78:-2.0900177261e+00 79:7.4168274243e+00 80:9.5043788035e+00 81:-1.6971186218e+00 82:1.3234838311e+00 83:-9.2581662082e+00 84:-1.7089288492e+00 85:1.5448165080e-01 86:8.5899413039e+00 87:2.8016199099e+00 88:-3.8466842263e+00 89:-3.1822327157e+00 90:-1.0099798359e-01 91:-3.9194465466e+00 92:-5.6019846936e+00 93:1.5599369681e-01 94:-4.1813476179e+00 95:-3.0538659099e+00 96:3.3269949461e+00 97:7.9851101836e+00 98:-1.0248870377e+01 99:-5.2553060476e+00 100:-3.1475673857e+00 101:4.4156419406e+00 102:4.3857097976e+00 103:4.0657719917e-02 104:-4.1887852365e+00 105:-6.0209444049e+00 106:-7.1828465573e-01 107:2.3362918495e+00 108:-2.0643041101e+00 109:-2.4765776880e+00 110:-1.6356168602e+00 111:5.8485986577e+00 112:7.1465615560e+00 113:1.0232337982e+01 114:1.7028515558e+00 115:8.3142285352e+00 116:9.5609270567e+00 117:-9.0035321187e+00 118:9.6969913388e-01 119:9.3365554300e+00 120:1.2366750224e+00 121:1.8193090945e+00 122:-2.7841073629e+00 123:2.3593012026e+00 124:8.2655531803e+00 125:5.1744057432e+00 126:2.2628398659e-01 127:1.0048733517e+01 128:8.4827545996e+00 129:4.4275496694e+00 130:-1.1659189099e-01 131:6.6667989820e-01 132:-6.5032870023e-01 133:7.3159274297e-01 134:2.3061400583e+00 135:8.1642613076e+00 136:-8.4841031825e+00 137:-3.1974596265e+00 138:-1.2187593596e+00 139:-3.2373769352e+00 140:-1.8987421610e+00 141:-4.7551136567e+00 142:5.2419614521e+00 143:-3.9402317054e+00 144:-5.3107947336e+00 145:3.1792488227e-01 146:-5.1148213763e+00 147:7.5178382746e+00 148:-1.5093364487e+00 149:5.7371058716e+00 150:5.0021894851e+00 151:5.6156339738e+00 152:-1.0590017820e+01 153:-3.8476850988e+00 154:2.9466283283e+00 155:5.2555878361e+00 156:1.9485041177e+00 157:-5.0483142481e+00 158:1.3190453479e+00 159:4.5389126809e+00 160:6.7892986685e+00 161:-5.2814532670e+00 162:-2.7292694722e+00 163:-6.3897794008e+00 164:8.4958178445e+00 165:6.4196580455e+00 166:7.0708211296e+00 167:8.5711070566e+00 168:1.5810089669e+00 169:-6.9793711614e+00 170:3.8593344853e+00 171:1.5988342639e+00 172:-2.5765463048e-01 173:4.7167224331e+00 174:-8.1128674924e+00 175:1.4878817601e+00 176:3.1419112077e+00 177:7.1066469433e+00 178:1.9692014420e+00 179:-3.9830600190e+00 180:8.0780221794e-01 181:8.9830724556e-02 182:4.9516301694e+00 183:2.3146269282e+00 184:-6.6846145540e+00 185:-6.3041446511e+00 186:-4.9871790123e+00 187:-1.2412301063e+00 188:3.8591218342e+00 189:-8.6465490816e+00 190:8.7608637955e-01 191:-2.9160861072e-01 192:9.1817036173e+00 193:7.8250517707e+00 194:6.5871116586e+00 195:3.7690817114e+00 196:5.7606477751e+00 197:9.6773999001e+00 198:1.3040385143e+00 199:2.0470759619e+00 200:-9.1904768637e-01 
-4.3976118068e-05 1:3.4686728585e+00 2:5.3837227341e+00 3:7.8121205840e+00 4:9.2060227824e+00 5:-6.6029985264e+00 6:5.0578092262e-03 7:-3.4507477989e+00 8:-2.4874501695e+00 9:-7.0366376793e+00 10:-8.7285157935e+00 11:7.8047598342e+00 12:-6.3909807905e+00 13:-8.1158006309e+00 14:-3.9374154094e+00 15:-7.9344616425e+00 16:7.7718047861e+00 17:-3.3788497935e+00 18:4.2674346053e+00 19:4.8964647734e-01 20:-2.2503876770e+00 21:-2.7759431447e+00 22:-8.4238446937e+00 23:-8.7710095520e+00 24:-3.2689639787e+00 25:-2.3013252437e+00 26:5.5187841660e+00 27:8.5836500872e+00 28:-1.0634660513e+00 29:-7.9640089762e+00 30:9.0724134496e+00 31:-1.5540516606e+00 32:-6.4813588068e-01 33:-9.7643645559e+00 34:7.3253355562e-01 35:-6.6162779984e+00 36:-3.0822016842e+00 37:4.8821695121e+00 38:6.2471357195e+00 39:2.8924056780e+00 40:-1.0902492424e+01 41:-2.4833931678e+00 42:3.9663527155e+00 43:-8.9857967959e+00 44:9.8297617170e+00 45:1.0347466329e+01 46:-9.2974446652e-01 47:8.3648007563e+00 48:-8.2536999222e+00 49:-4.6874631897e+00 50:9.3240590269e-01 51:-5.5800522896e+00 52:7.0522278448e+00 53:8.0096033214e+00 54:-6.6592696326e+00 55:6.5391916837e+00 56:5.4306160335e+00 57:-1.5553171304e+00 58:6.3750560231e+00 59:3.6426713366e+00 60:-3.7062640025e+00 61:5.9141298027e+00 62:-2.0124601903e+00 63:-3.0240731620e+00 64:-1.7727333877e+00 65:-4.1372930977e+00 66:-3.9402514536e+00 67:-1.1718256338e+01 68:-8.9302188523e+00 69:8.7277483138e+00 70:9.3958023771e+00 71:7.7664498022e+00 72:8.8835637813e+00 73:3.1297667226e-01 74:7.3301683177e+00 75:6.2895741362e-01 76:5.4794085228e+00 77:-1.4525208283e+00 78:-1.1023255347e+00 79:8.2911839146e+00 80:1.0205166537e+01 81:-5.4357990964e-01 82:1.9346231051e+00 83:-8.0868699605e+00 84:-1.5197219594e+00 85:8.1069016435e-01 86:6.0258922446e+00 87:3.3988645080e+00 88:-4.1387822911e+00 89:-4.1931517233e+00 90:5.1560711633e-01 91:-4.2965936116e+00 92:-4.6198130428e+00 93:1.3480603479e-01 94:-2.1840555526e+00 95:-4.8522976599e+00 96:3.8726106999e+00 97:6.2930301494e+00 98:-9.7148545254e+00 99:-4.5784965411e+00 100:-3.4239651380e+00 101:3.6590467764e+00 102:3.3565870028e+00 103:-6.4173430092e-01 104:-3.1964457271e+00 105:-6.4692348091e+00 106:-2.6379496672e+00 107:-1.1473968399e-01 108:-2.3322731947e+00 109:-1.7667898214e+00 110:-1.5080596151e+00 111:6.5087198794e+00 112:7.2021477110e+00 113:1.0310141046e+01 114:1.6555086349e+00 115:6.6224042666e+00 116:7.4675938738e+00 117:-8.0118374114e+00 118:3.0261774173e+00 119:8.6300503275e+00 120:2.1977623828e-01 121:3.1864515415e+00 122:-4.0739404164e+00 123:2.0244456342e+00 124:8.4074863410e+00 125:2.6415757897e+00 126:2.1993679749e+00 127:1.0478098555e+01 128:9.5616098764e+00 129:6.4203623376e+00 130:1.0846356819e+00 131:-8.7615733903e-01 132:-1.1141039902e+00 133:-9.7633326153e-01 134:3.7855313426e+00 135:9.2680988529e+00 136:-6.1274831706e+00 137:-3.3438710532e+00 138:-2.3823209348e+00 139:-5.0684296784e+00 140:1.7327986840e-01 141:-2.0854686766e+00 142:5.1781169683e+00 143:-2.2718988916e+00 144:-4.3407971448e+00 145:8.7863598754e-02 146:-6.8516512274e+00 147:8.2332915905e+00 148:-3.8703854684e+00 149:4.8776640038e+00 150:8.2542642561e+00 151:5.9940329903e+00 152:-1.1012771531e+01 153:-4.8859063049e+00 154:4.3158860381e+00 155:5.5087529972e+00 156:-4.7968170108e-03 157:-6.1511088193e+00 158:2.5744360831e+00 159:5.4818584516e+00 160:7.7224622124e+00 161:-2.1420837318e+00 162:-3.4184011607e+00 163:-5.8119417824e+00 164:7.0941733780e+00 165:6.5025134753e+00 166:5.1485576114e+00 167:5.5478729272e+00 168:-1.2219417808e-01 169:-6.7109439799e+00 170:3.6810517816e+00 171:3.2331518968e+00 172:-8.8856119365e-01 173:5.6765590118e+00 174:-8.1584812811e+00 175:3.2077752985e+00 176:3.8713244447e+00 177:6.1114010972e+00 178:9.8237008007e-01 179:-1.5780385037e+00 180:-2.3183747991e+00 181:-5.3002905413e-01 182:6.9855861930e+00 183:1.0270201142e+00 184:-5.9481928978e+00 185:-6.1788725841e+00 186:-6.2387604708e+00 187:-2.2339318733e+00 188:4.8775915811e+00 189:-9.4453690295e+00 190:1.6941539133e+00 191:-2.6167600663e-01 192:8.7656372953e+00 193:9.3088935087e+00 194:6.8248352989e+00 195:3.2636479755e+00 196:4.9995042847e+00 197:9.1129148970e+00 198:2.7438049102e+00 199:2.2960520746e+00 200:-5.6364269880e-01 
1.1623362837e-05 1:3.3803331089e+00 2:3.7698428898e+00 3:7.7338310459e+00 4:9.5461916892e+00 5:-7.3291040871e+00 6:-2.6055979658e+00 7:-2.8633648356e+00 8:-8.5365167279e-01 9:-6.7704088428e+00 10:-6.5573061032e+00 11:7.9517175164e+00 12:-5.9797723003e+00 13:-7.1287626529e+00 14:-2.7243608779e+00 15:-6.1231395933e+00 16:4.4367547884e+00 17:-3.5278856717e+00 18:3.2419129722e+00 19:9.4671108139e-01 20:-2.7634051325e+00 21:-9.7036534798e-01 22:-8.6252449709e+00 23:-1.0006440534e+01 24:-3.0545493110e+00 25:-7.2133032840e-01 26:2.6799304536e+00 27:8.4956698093e+00 28:-1.0484459402e+00 29:-9.0423443560e+00 30:9.0225834347e+00 31:-2.5331150707e+00 32:1.8703366538e-01 33:-1.0854602608e+01 34:3.9630071296e+00 35:-4.2034845386e+00 36:-2.2633492608e+00 37:8.5341910673e+00 38:4.0856998089e+00 39:3.2309859885e+00 40:-7.8634806458e+00 41:-2.3940108180e+00 42:5.1927943623e+00 43:-6.9347206774e+00 44:1.1231198528e+01 45:9.3731792690e+00 46:-3.5829125537e+00 47:6.6298011975e+00 48:-7.6204989079e+00 49:-3.8958863604e+00 50:1.9566417802e+00 51:-7.2987220143e+00 52:5.8791530470e+00 53:8.2368753062e+00 54:-7.3486805067e+00 55:7.4995132383e+00 56:6.1936438888e+00 57:-1.8800639837e+00 58:8.4234259024e+00 59:1.3711669958e+00 60:-1.0774736652e+00 61:4.9350842720e+00 62:4.8387051966e-02 63:-3.3506294207e+00 64:-3.5941008696e+00 65:-3.3024921789e+00 66:-3.6201567731e+00 67:-1.0128609477e+01 68:-1.0405375156e+01 69:7.5446290271e+00 70:8.6383218320e+00 71:8.7820670567e+00 72:9.8844913994e+00 73:-7.5635523016e-01 74:6.8426626569e+00 75:-9.6400392213e-01 76:7.1796963608e+00 77:-1.8398576537e+00 78:-2.8771110800e+00 79:8.8230789383e+00 80:9.8205808058e+00 81:-1.2482265487e+00 82:3.3352079647e-01 83:-7.7709059957e+00 84:-1.6314516919e-01 85:1.6751893668e+00 86:6.9744165122e+00 87:1.4829655928e+00 88:-5.2629369300e+00 89:-3.9674677038e+00 90:6.4494556184e-01 91:-4.7633405185e+00 92:-7.0418359286e+00 93:-4.5492365184e-01 94:-1.7999889473e+00 95:-4.3907704424e+00 96:5.0691320132e+00 97:6.9237260390e+00 98:-1.1233863631e+01 99:-2.9616607263e+00 100:-1.5604446153e+00 101:5.0614190471e+00 102:3.0364158250e+00 103:1.3797377230e+00 104:-2.2305405341e+00 105:-5.5390284058e+00 106:-2.4046916735e+00 107:-3.0410902936e-01 108:-1.1628449043e+00 109:-1.5645109988e+00 110:-1.0613087630e+00 111:4.0037253066e+00 112:7.8384049166e+00 113:7.3683636649e+00 114:2.1876810445e+00 115:7.4642169880e+00 116:9.1444884525e+00 117:-1.0233507122e+01 118:2.5122254162e+00 119:8.6438108818e+00 120:-4.6388528388e-01 121:1.7823325057e+00 122:-4.2237871492e+00 123:3.6041935769e+00 124:9.9378638898e+00 125:4.8781121733e+00 126:3.2781455520e-01 127:7.5539897452e+00 128:8.7392256812e+00 129:4.6256589181e+00 130:7.7925568310e-01 131:1.9029354275e+00 132:-1.8622889675e+00 133:-7.8954575948e-01 134:4.7903382131e+00 135:8.6439426036e+00 136:-8.0281089220e+00 137:-3.1680462136e+00 138:-2.7811975338e+00 139:-3.1014706729e+00 140:-1.7775233816e+00 141:-2.7485082631e+00 142:4.4898722615e+00 143:-2.6133473093e+00 144:-6.3014024561e+00 145:-6.0429365228e-01 146:-6.7340435757e+00 147:8.7036085704e+00 148:-3.1169559711e+00 149:4.5889439996e+00 150:4.9275789958e+00 151:6.9743899092e+00 152:-9.7553781562e+00 153:-2.0559671958e+00 154:3.8271305518e+00 155:6.9324194466e+00 156:1.8289980876e+00 157:-4.8768159140e+00 158:2.3542920013e-01 159:3.9070694832e+00 160:7.8329547831e+00 161:-4.3544681614e+00 162:-1.1156773001e+00 163:-4.4404677677e+00 164:1.0419135821e+01 165:4.0216637682e+00 166:7.4127115655e+00 167:7.3564209345e+00 168:1.8674180089e+00 169:-7.5235789257e+00 170:2.6376549819e+00 171:1.0550065166e+00 172:3.6830523090e-02 173:4.3281128010e+00 174:-8.7431393802e+00 175:2.8657775066e+00 176:4.1829354541e+00 177:6.5834836395e+00 178:1.6744596423e+00 179:-3.9458479032e+00 180:-1.5740461786e+00 181:1.2230902910e+00 182:5.5199613136e+00 183:3.5330425836e+00 184:-5.4623671115e+00 185:-6.8460903341e+00 186:-5.2512060925e+00 187:-1.0496849068e+00 188:5.3076152864e+00 189:-8.6717040753e+00 190:2.4751519446e+00 191:9.1463683134e-01 192:8.7854590420e+00 193:1.0313143525e+01 194:7.4762985187e+00 195:1.2705380300e+00 196:6.5641869767e+00 197:6.7656960463e+00 198:1.7846383301e+00 199:2.7942329815e+00 200:-2.2004152136e+00 
2.2082374957e-05 1:3.7197768217e+00 2:4.2223677343e+00 3:7.5158010842e+00 4:9.4976575534e+00 5:-9.0014863255e+00 6:1.0053179028e+00 7:-2.9206178011e+00 8:-1.0475697471e-01 9:-6.1439001101e+00 10:-6.0376829105e+00 11:6.8742012557e+00 12:-5.5184576168e+00 13:-9.1644472176e+00 14:-5.3883315583e+00 15:-8.2461808634e+00 16:3.9705679905e+00 17:-6.7910363362e+00 18:5.0265456028e+00 19:7.5824099173e-02 20:-1.9281265937e+00 21:-2.7856282961e+00 22:-8.3521731294e+00 23:-9.5254944309e+00 24:-1.3899812574e+00 25:-1.2717398521e+00 26:5.2842314343e+00 27:8.3460861964e+00 28:-1.3794308331e-01 29:-9.0186502401e+00 30:6.5005735608e+00 31:-1.3576281525e+00 32:-6.0770578249e-01 33:-1.0972444401e+01 34:4.0932155138e+00 35:-5.3551876171e+00 36:-2.1333197408e+00 37:4.4282273468e+00 38:3.0923885361e+00 39:1.6001745739e+00 40:-9.3619894185e+00 41:-1.4817533576e+00 42:9.4922893958e-01 43:-5.5514343205e+00 44:1.1075057719e+01 45:9.7521466452e+00 46:1.9377285620e-01 47:6.9703395828e+00 48:-6.4983361600e+00 49:-3.7051437919e+00 50:1.9642491436e+00 51:-9.3629944946e+00 52:3.5861630239e+00 53:5.8056642229e+00 54:-7.3614286807e+00 55:7.9940267295e+00 56:3.1411908195e+00 57:-2.7636969313e+00 58:8.2726849762e+00 59:3.2968713142e+00 60:-2.8071859740e+00 61:6.6414276024e+00 62:-2.0135348659e+00 63:-2.1990336291e+00 64:-8.4376905955e-01 65:-3.8279194294e+00 66:-5.6822472704e+00 67:-1.0471214803e+01 68:-8.9886504866e+00 69:8.2138714370e+00 70:9.9038159346e+00 71:9.9281489094e+00 72:1.1640492083e+01 73:1.2365140039e+00 74:8.6542320172e+00 75:1.1967074836e+00 76:6.1529196181e+00 77:-1.4280224217e+00 78:-1.3552303223e+00 79:8.1139839600e+00 80:8.5281657513e+00 81:-8.9816664828e-01 82:8.8449375754e-01 83:-6.6498243773e+00 84:-2.0089594449e+00 85:-2.2868369406e-01 86:6.4541082135e+00 87:1.0848706060e+00 88:-4.9269117970e+00 89:-3.1984018808e+00 90:2.1020330096e-02 91:-5.6036621100e+00 92:-5.6794828131e+00 93:3.4376530604e-01 94:-4.0029498436e+00 95:-5.1303216784e+00 96:3.9604584043e+00 97:7.0062063686e+00 98:-9.5797468803e+00 99:-3.9724124885e+00 100:-2.5325200958e+00 101:2.5158949060e+00 102:3.5496219009e+00 103:2.4648202895e+00 104:-1.7199578594e+00 105:-4.8844733653e+00 106:-1.4762116065e+00 107:-7.0354978492e-01 108:6.8298210845e-02 109:-3.0859879569e+00 110:-2.6105260977e+00 111:5.7603442546e+00 112:6.0406385956e+00 113:8.8295100624e+00 114:2.1606487619e+00 115:8.9759483464e+00 116:9.8638023439e+00 117:-9.6363542023e+00 118:1.0336980088e+00 119:8.2557743447e+00 120:1.6024049039e+00 121:2.5010858516e+00 122:-3.1188220295e+00 123:9.4609155879e-01 124:8.7118177529e+00 125:4.3623101860e+00 126:-2.7973037175e+00 127:1.0021013398e+01 128:9.4028245093e+00 129:6.8690781737e+00 130:1.1601071205e+00 131:-6.2990623813e-01 132:-6.0095151201e-01 133:-1.7907295342e+00 134:4.1197406791e+00 135:8.2474795108e+00 136:-7.3839719859e+00 137:-3.8687225675e+00 138:-3.4100251792e+00 139:-3.2522346798e+00 140:-2.2453136488e+00 141:-1.2952817934e+00 142:5.5235905621e+00 143:-2.8782502510e+00 144:-4.4124811893e+00 145:3.7858282155e-02 146:-6.0519284126e+00 147:8.6971357772e+00 148:-2.0908585478e+00 149:5.7655682981e+00 150:6.6821746278e+00 151:7.3249063619e+00 152:-1.0878273983e+01 153:-3.2647358208e+00 154:3.6625641348e+00 155:4.7522453865e+00 156:1.9190843019e-01 157:-4.6238618002e+00 158:3.3507220582e+00 159:3.9784679425e+00 160:7.3593065580e+00 161:-4.2918513069e+00 162:-4.1899144425e+00 163:-5.4718401254e+00 164:9.0326026000e+00 165:5.0788840615e+00 166:6.5134403802e+00 167:7.2392088239e+00 168:1.2578766202e+00 169:-5.8155958295e+00 170:2.9945853772e+00 171:3.4772811756e+00 172:-1.6962222616e+00 173:2.3236305742e+00 174:-9.1819265832e+00 175:1.6142951978e+00 176:1.9739158058e+00 177:6.0411008441e+00 178:6.7224758912e-01 179:-2.3515013433e+00 180:-2.2099543344e+00 181:2.4677310471e-01 182:4.6926049538e+00 183:2.5313247458e+00 184:-6.1775297392e+00 185:-5.8060768666e+00 186:-4.9799204284e+00 187:-3.6520752725e+00 188:3.1730882558e+00 189:-9.8411950579e+00 190:3.6708947432e+00 191:-1.6106788242e-01 192:7.4946132560e+00 193:1.0763059510e+01 194:7.2466180067e+00 195:3.6123157287e+00 196:2.4169368236e+00 197:8.8900956405e+00 198:2.4636309977e+00 199:2.0383020346e+00 200:-1.7044403295e+00 
2.9436998370e-04 1:3.5184714940e+00 2:6.5322364007e+00 3:6.8478110069e+00 4:8.9111139843e+00 5:-8.0878265363e+00 6:2.1478008756e-01 7:-2.1149276048e+00 8:-1.1510441135e+00 9:-8.1438361589e+00 10:-5.1838484319e+00 11:9.2892437518e+00 12:-5.2758118686e+00 13:-6.6224247058e+00 14:-4.7709920451e+00 15:-6.8820559864e+00 16:3.1873015901e+00 17:-5.9510846367e+00 18:4.4051772803e+00 19:-1.3352965198e+00 20:-2.0782027781e+00 21:-1.0089389929e+00 22:-8.1534031642e+00 23:-1.0330079602e+01 24:-3.8775979352e+00 25:-7.0452475018e-01 26:4.1705735553e+00 27:9.9685239152e+00 28:-2.4173657163e-01 29:-8.4741780219e+00 30:7.9849196383e+00 31:-6.9314302292e-01 32:-1.1378501601e+00 33:-9.7917480158e+00 34:8.8692808248e-01 35:-5.3473021821e+00 36:-2.8405366481e+00 37:5.0791990088e+00 38:3.6039906219e+00 39:2.5353139055e+00 40:-7.5425667692e+00 41:-7.6543152842e-01 42:3.2824178978e+00 43:-7.4154814215e+00 44:1.0161206962e+01 45:1.0896831804e+01 46:-1.4699029028e+00 47:6.8081283852e+00 48:-7.5504011497e+00 49:-2.7185354023e+00 50:2.9916281288e+00 51:-8.5484816040e+00 52:3.8147040497e+00 53:6.8516081939e+00 54:-5.4960507700e+00 55:7.5531668368e+00 56:4.4063485844e+00 57:-1.9953848495e+00 58:6.6153856559e+00 59:3.2816053189e+00 60:-3.7583970001e+00 61:6.5108989348e+00 62:-1.3270457457e+00 63:-3.8402058337e+00 64:-2.7230374855e+00 65:-2.3402861415e+00 66:-4.5668285280e+00 67:-1.0336692876e+01 68:-9.5089047876e+00 69:9.6762159178e+00 70:8.2604934306e+00 71:7.9833730239e+00 72:8.1085033018e+00 73:2.2699276701e-01 74:6.1074055210e+00 75:8.2937004378e-01 76:3.7682447084e+00 77:-3.3923066289e+00 78:-3.0999625068e+00 79:8.9175282948e+00 80:8.7201174302e+00 81:-2.1330765641e+00 82:2.5184781127e+00 83:-7.3051218887e+00 84:-3.8428541889e+00 85:1.5177560638e+00 86:6.8093772012e+00 87:2.5775918337e+00 88:-3.7120139917e+00 89:-3.9848534903e+00 90:-5.1385225546e-01 91:-6.9076183245e+00 92:-5.2774162270e+00 93:2.0592691969e+00 94:-3.3392754356e+00 95:-2.6682528656e+00 96:3.2806520210e+00 97:6.6845976037e+00 98:-9.1341667309e+00 99:-3.0703537531e+00 100:-2.6818391827e+00 101:2.8242273954e+00 102:3.2709339143e+00 103:4.7237565046e-01 104:-4.0163869788e+00 105:-5.8261250370e+00 106:-3.7873070565e-01 107:1.6118555935e+00 108:-6.8668528055e-01 109:-1.2782211703e+00 110:-1.3232569497e+00 111:4.7500067546e+00 112:8.3585224458e+00 113:8.7094698799e+00 114:6.7072257995e-01 115:6.8908577680e+00 116:8.5896258841e+00 117:-8.8009148203e+00 118:3.0676472725e+00 119:9.1850884213e+00 120:-9.3681843694e-01 121:4.5134662773e+00 122:-1.8893838003e+00 123:1.5152811087e+00 124:9.8389652082e+00 125:4.4557335789e+00 126:9.9143337212e-03 127:6.9726033730e+00 128:8.6439102969e+00 129:4.4906714454e+00 130:-8.4811409784e-01 131:2.1120003550e+00 132:-2.3124402305e+00 133:-3.8259628962e+00 134:1.8969502711e+00 135:9.7858580340e+00 136:-6.8054286907e+00 137:-3.4352328297e+00 138:-4.1049810275e+00 139:-3.7731203586e+00 140:-1.3042361807e-01 141:-3.2480218433e+00 142:4.7355488686e+00 143:-3.1337606760e+00 144:-3.2217319442e+00 145:5.8106325215e-01 146:-7.0143438397e+00 147:6.4323610040e+00 148:4.3457791592e-01 149:5.6301663423e+00 150:5.1004629294e+00 151:7.3215070162e+00 152:-1.0227758018e+01 153:-5.7994402457e+00 154:3.1984460583e+00 155:5.2055046809e+00 156:2.3239574829e+00 157:-6.9074363150e+00 158:9.0385770446e-01 159:4.1936817283e+00 160:8.0568936198e+00 161:-5.1967691570e+00 162:-2.7274834138e+00 163:-5.8413303515e+00 164:8.9255579000e+00 165:4.7019185590e+00 166:7.0569075952e+00 167:7.8006103513e+00 168:3.0573118878e+00 169:-6.6852386806e+00 170:2.2685964320e+00 171:3.2616269160e+00 172:4.9386580956e-01 173:2.7411589465e+00 174:-7.7084874706e+00 175:2.9519741151e+00 176:3.5023332577e+00 177:6.9070960449e+00 178:1.9153317442e+00 179:-2.6317800440e+00 180:-1.3035813578e+00 181:-1.9203051374e+00 182:4.5493492101e+00 183:2.9093738862e+00 184:-4.2689267959e+00 185:-6.2752057358e+00 186:-6.4221919007e+00 187:-4.2425250454e+00 188:3.0325174122e+00 189:-9.5777337865e+00 190:2.5549100650e+00 191:8.5866246582e-01 192:9.0421390738e+00 193:8.5994614204e+00 194:8.0629251120e+00 195:2.8909387205e+00 196:5.5816193212e+00 197:1.0033190129e+01 198:5.4279338417e-01 199:2.7928864891e+00 200:-2.1486816265e+00 
3.8231728487e-04 1:3.5532553241e+00 2:5.0913281401e+00 3:7.4280257338e+00 4:9.5365233605e+00 5:-7.7813179617e+00 6:3.4248686367e-01 7:-3.0147033271e+00 8:-3.6144396614e+00 9:-4.7603246719e+00 10:-7.0949921228e+00 11:6.4924920166e+00 12:-6.6673573838e+00 13:-8.9044141938e+00 14:-4.2755539352e+00 15:-5.8472926452e+00 16:6.0146858981e+00 17:-4.3337651083e+00 18:4.9047055827e+00 19:6.2851744046e-01 20:-1.1678090007e+00 21:-6.0268629275e-01 22:-6.7536879902e+00 23:-9.5215324201e+00 24:-3.4495757335e+00 25:-1.1498898762e+00 26:3.9751412454e+00 27:6.2795873251e+00 28:-6.3651644190e-01 29:-8.0153179688e+00 30:7.6540162600e+00 31:2.0739165457e-01 32:-3.4832496287e+00 33:-1.0221599709e+01 34:2.6649425631e+00 35:-5.2202948789e+00 36:-1.1010285438e+00 37:6.4413160466e+00 38:3.4026771023e+00 39:2.8396884336e+00 40:-7.3477481177e+00 41:-4.7324409286e+00 42:3.1346406715e+00 43:-6.3761154713e+00 44:9.2795496219e+00 45:8.2188993489e+00 46:-3.6232473623e+00 47:7.1917053576e+00 48:-7.8581044805e+00 49:-3.0293884809e+00 50:1.5243531681e+00 51:-7.4058898786e+00 52:6.1800251547e+00 53:7.3180966216e+00 54:-8.0000023955e+00 55:6.5950824889e+00 56:3.8505890539e+00 57:-1.7354096592e+00 58:6.6454590468e+00 59:2.3419107681e+00 60:-3.2923157462e+00 61:6.2010750459e+00 62:-2.6117985947e+00 63:-1.9145898672e+00 64:-4.2173911880e+00 65:-2.2981644009e+00 66:-5.3636584479e+00 67:-8.7014011496e+00 68:-9.9935410367e+00 69:7.2508681685e+00 70:7.4255855678e+00 71:6.9733621133e+00 72:8.7347023080e+00 73:1.7198638233e+00 74:6.4973693321e+00 75:-1.8640328267e+00 76:6.6927669540e+00 77:-3.0324215742e+00 78:-3.2127868616e+00 79:8.9130058778e+00 80:8.3355118744e+00 81:-1.6301749179e+00 82:1.6680130412e+00 83:-7.1933815348e+00 84:-2.7652818537e+00 85:2.2053323795e+00 86:6.0889196677e+00 87:7.1776064352e-01 88:-5.4391611579e+00 89:-3.6133335309e+00 90:2.2560754286e+00 91:-5.2451532043e+00 92:-4.5253754662e+00 93:9.1011101582e-01 94:-3.0914412728e+00 95:-4.7590667753e+00 96:4.1522646999e+00 97:6.9874676245e+00 98:-9.3971488539e+00 99:-3.2044938557e+00 100:-2.3101930992e+00 101:3.6703266279e+00 102:5.1968992919e+00 103:9.4251807609e-01 104:-3.4322499591e+00 105:-6.8210477989e+00 106:-1.5427098785e+00 107:2.0588277466e+00 108:-2.3442891665e+00 109:-2.5934398515e+00 110:-1.5445948950e+00 111:4.3724194801e+00 112:7.4592456318e+00 113:9.3632615355e+00 114:1.2416228883e+00 115:8.3069230012e+00 116:7.3245652983e+00 117:-9.7089250819e+00 118:2.5146315166e+00 119:9.3623795111e+00 120:1.6135530080e+00 121:2.4308215496e+00 122:-3.2559009512e+00 123:3.5920490852e+00 124:8.7036025084e+00 125:4.4909605055e+00 126:7.9725705519e-01 127:8.6225394358e+00 128:7.9223100444e+00 129:4.9839891187e+00 130:1.5453986615e+00 131:2.3620611668e-01 132:-1.6527011880e+00 133:-1.8019077512e+00 134:2.6532350957e+00 135:7.8331574839e+00 136:-5.1120251392e+00 137:-2.7025330167e+00 138:-4.8625894523e+00 139:-3.1474259658e+00 140:2.3938491684e+00 141:-3.5768870151e+00 142:5.3720046343e+00 143:-1.8250289728e+00 144:-3.6609889457e+00 145:-3.1917664881e-01 146:-6.3291528445e+00 147:7.1367940193e+00 148:-2.0808227398e+00 149:6.4604440056e+00 150:5.7704877089e+00 151:5.4985315954e+00 152:-1.0477873153e+01 153:-3.9168693568e+00 154:3.7583527053e+00 155:3.4047324922e+00 156:2.9335409597e+00 157:-5.6730941923e+00 158:1.9080259466e+00 159:4.0613300256e+00 160:8.3732866781e+00 161:-5.0365735047e+00 162:-4.5285537611e+00 163:-6.5246661010e+00 164:8.6824796201e+00 165:3.3619421960e+00 166:5.8065690503e+00 167:5.5492264967e+00 168:1.8220467198e+00 169:-6.2282257989e+00 170:4.5936152992e+00 171:1.7895745203e+00 172:-1.7554901941e+00 173:4.7873001593e+00 174:-8.7651862303e+00 175:2.0586568014e+00 176:3.5298560427e+00 177:7.0067090116e+00 178:1.5874322667e+00 179:-2.3559766713e+00 180:-1.0315294581e+00 181:5.6537058275e-01 182:4.2942113849e+00 183:1.5827473732e+00 184:-5.6351070995e+00 185:-6.7331391591e+00 186:-6.8670294336e+00 187:-3.4646706483e+00 188:3.1318231989e+00 189:-1.0631526002e+01 190:2.0524270364e+00 191:-3.4056622197e-01 192:8.1994149915e+00 193:1.1083834815e+01 194:7.3365693729e+00 195:1.7996875476e+00 196:6.4123017754e+00 197:1.0506795244e+01 198:-6.1768698174e-02 199:-8.5625574234e-01 200:-2.3201227372e+00 
-1.6311392981e-04 1:3.9338569265e+00 2:3.4763169653e+00 3:8.2435114703e+00 4:1.1297013106e+01 5:-7.3627198010e+00 6:-1.8958693888e+00 7:-3.1798125194e+00 8:-3.2199142063e+00 9:-7.4386520644e+00 10:-6.7351500821e+00 11:7.1465837569e+00 12:-5.5278393760e+00 13:-7.6758892570e+00 14:-3.1001046295e+00 15:-8.8436178921e+00 16:4.4033467834e+00 17:-4.5937541478e+00 18:6.6015272922e+00 19:-2.9088803249e-01 20:-7.0591908816e-01 21:-2.1293826378e+00 22:-7.2955607906e+00 23:-9.0878106190e+00 24:-3.9645779598e+00 25:-2.8125821312e+00 26:3.4269570774e+00 27:9.0670832316e+00 28:-7.7345143570e-02 29:-1.0156615175e+01 30:8.3621616544e+00 31:-7.6867771477e-01 32:-9.0178876213e-01 33:-1.0107186224e+01 34:3.9227695598e+00 35:-5.5697497668e+00 36:-1.7788538117e+00 37:4.1818728444e+00 38:5.1727148295e+00 39:2.0172143710e+00 40:-9.5135193668e+00 41:-2.8040728485e+00 42:4.6840557999e+00 43:-7.5581022167e+00 44:1.0230922293e+01 45:9.0514701442e+00 46:-2.7536887222e+00 47:7.6661996657e+00 48:-6.5032842950e+00 49:-3.0528794752e+00 50:2.3075502051e+00 51:-8.0924257929e+00 52:5.9505740612e+00 53:4.5997597563e+00 54:-6.7864753705e+00 55:6.9348240980e+00 56:3.9635847449e+00 57:-3.3243694567e+00 58:8.1633890941e+00 59:3.1366487742e+00 60:-3.6352164661e+00 61:5.6280136424e+00 62:-1.3385430898e+00 63:-4.6919168462e+00 64:-2.5056939182e+00 65:-4.2145383514e+00 66:-4.6346145834e+00 67:-9.8112762640e+00 68:-8.6635969639e+00 69:9.3181573348e+00 70:7.6570931609e+00 71:8.6904459096e+00 72:9.4810135141e+00 73:-2.1369858377e+00 74:7.0870324537e+00 75:1.3993719801e+00 76:4.9790379006e+00 77:-2.9645156577e+00 78:-2.2726722993e+00 79:8.7789496907e+00 80:1.0248581105e+01 81:-1.1563683359e+00 82:9.9112051761e-01 83:-8.6960611365e+00 84:-1.5416620685e+00 85:6.7427619317e-01 86:7.2284355378e+00 87:2.6418154854e+00 88:-4.8109497186e+00 89:-3.8843403549e+00 90:8.4892822991e-02 91:-5.6530540146e+00 92:-4.3783813719e+00 93:8.2160897062e-01 94:-2.2534647819e+00 95:-4.1913604242e+00 96:6.3424348020e+00 97:6.1460215427e+00 98:-8.9168131604e+00 99:-6.6061372579e+00 100:-4.4199833029e+00 101:2.7550238772e+00 102:4.6178361237e+00 103:6.9453402924e-02 104:-2.8410455443e+00 105:-7.4061344146e+00 106:-2.7279637159e+00 107:2.9754411154e+00 108:-1.4082174313e+00 109:-1.9464387475e+00 110:-1.9933935194e+00 111:5.3824295916e+00 112:9.0665766928e+00 113:9.2110615210e+00 114:3.2100055153e+00 115:8.9385836756e+00 116:8.1552033297e+00 117:-9.1999450443e+00 118:2.2411099650e+00 119:7.4257140028e+00 120:2.5990815939e-01 121:2.0030742579e+00 122:-1.8776570117e+00 123:3.2670558096e+00 124:9.5724114825e+00 125:3.9786368540e+00 126:-8.0366967345e-01 127:7.7644708728e+00 128:7.8736461742e+00 129:5.2677828335e+00 130:-4.9913681838e-01 131:-1.5606669637e-01 132:-1.6137425070e+00 133:-2.8460677847e+00 134:2.4007368588e+00 135:1.0074506286e+01 136:-9.7487653559e+00 137:-3.2790800650e+00 138:-5.1122854720e+00 139:-2.9142636355e+00 140:1.3369067788e-01 141:-2.7215136590e+00 142:4.1916194482e+00 143:-3.9742442814e+00 144:-4.2783969835e+00 145:-4.3354765419e-02 146:-7.6188137599e+00 147:8.0711831969e+00 148:-1.7072826935e+00 149:4.8893891013e+00 150:5.7639142551e+00 151:7.3913966580e+00 152:-9.3598829602e+00 153:-4.6283425626e+00 154:3.2748776063e+00 155:5.6426305161e+00 156:1.0756033575e+00 157:-4.6388763097e+00 158:1.7005386567e+00 159:4.8081731999e+00 160:5.5372272129e+00 161:-4.5068886606e+00 162:-2.7460063337e+00 163:-7.0964900495e+00 164:8.2421633044e+00 165:6.0348003997e+00 166:7.2629503082e+00 167:6.5734804120e+00 168:2.4796224825e+00 169:-6.7059907791e+00 170:3.2926121100e+00 171:1.2901994601e+00 172:-6.0122500505e-01 173:4.8460886092e+00 174:-6.0701323320e+00 175:1.2611137079e+00 176:3.6820094865e+00 177:4.8308467619e+00 178:2.8899757566e+00 179:-3.5404243522e+00 180:1.9730502464e-01 181:2.8204656004e-01 182:7.6754964791e+00 183:1.8715209761e+00 184:-6.4336053830e+00 185:-7.2173716627e+00 186:-6.4195265788e+00 187:-2.3563745106e+00 188:2.7893792379e+00 189:-9.8383328513e+00 190:3.6929710567e+00 191:7.5531131355e-02 192:1.0044765068e+01 193:1.0611220861e+01 194:7.9322420933e+00 195:3.0002866155e+00 196:6.3599476443e+00 197:8.3894518527e+00 198:6.3429135381e-01 199:2.4100875562e+00 200:-2.8311966021e+00 
-2.1903136155e-04 1:4.1108921949e+00 2:4.2237915593e+00 3:5.9322978070e+00 4:1.0364847032e+01 5:-8.2642772460e+00 6:7.2699111960e-01 7:-3.0751882357e+00 8:-2.8032534794e+00 9:-6.9050095135e+00 10:-6.6985809846e+00 11:5.3933944514e+00 12:-4.8063208903e+00 13:-9.0726837270e+00 14:-4.0756505792e+00 15:-7.4636972647e+00 16:3.0105301194e+00 17:-3.7075864205e+00 18:4.7834413684e+00 19:-6.8511754023e-01 20:-4.0426103926e+00 21:-1.2889091791e+00 22:-9.3564777257e+00 23:-9.2092430650e+00 24:-4.0621449333e+00 25:-7.2434959992e-01 26:3.3749493231e+00 27:9.6598744601e+00 28:-3.2210393997e+00 29:-9.9258490234e+00 30:6.4975092709e+00 31:-8.6708854812e-01 32:-9.0924065701e-01 33:-9.0170057463e+00 34:4.2994255647e+00 35:-3.7035033187e+00 36:-2.5936690297e+00 37:7.0702628060e+00 38:3.5164299068e+00 39:1.8312889485e+00 40:-6.3634164479e+00 41:-3.8519144079e+00 42:3.9040026526e+00 43:-7.6031501348e+00 44:7.7468954046e+00 45:8.1116474115e+00 46:-2.6846690421e+00 47:8.0018189247e+00 48:-7.3501834346e+00 49:-3.3021105584e+00 50:-8.7155545938e-01 51:-7.8427162543e+00 52:7.2691987979e+00 53:7.9883368091e+00 54:-7.6081180728e+00 55:7.1078997544e+00 56:3.1826803524e+00 57:-1.5166776738e+00 58:7.2556735060e+00 59:3.2498371608e+00 60:-3.7792973602e+00 61:6.4178288948e+00 62:-2.7381889940e+00 63:-2.9914805224e+00 64:-1.8207656886e+00 65:-2.7492262036e+00 66:-5.2834389996e+00 67:-9.6095404266e+00 68:-9.3244848493e+00 69:6.8374347780e+00 70:8.5925944530e+00 71:9.9714544551e+00 72:8.2040709885e+00 73:-2.7865318229e-01 74:8.5421193512e+00 75:-7.3167108345e-01 76:6.7485822047e+00 77:-1.8039999507e+00 78:-2.9666736216e+00 79:8.5014422827e+00 80:8.3898110265e+00 81:-2.4765516758e+00 82:2.9175760384e+00 83:-1.0429288884e+01 84:-1.9937010137e+00 85:-4.9650587835e-01 86:8.0352301607e+00 87:1.8967074116e+00 88:-3.1663592445e+00 89:-4.2440860692e+00 90:8.8071980554e-01 91:-3.9348435380e+00 92:-6.1279664345e+00 93:-8.5941455748e-01 94:-2.4018115257e+00 95:-5.7442594903e+00 96:3.5198560023e+00 97:6.9460053959e+00 98:-9.2747611358e+00 99:-3.9143918321e+00 100:-2.9216578328e+00 101:3.0829272180e+00 102:4.6172019098e+00 103:2.9990136785e+00 104:-3.5050982391e+00 105:-7.2190569311e+00 106:-5.3060014945e-01 107:1.3764827722e+00 108:-1.7982659573e+00 109:-3.1469597093e+00 110:-1.6845163776e+00 111:4.7707991838e+00 112:8.4367717108e+00 113:7.5966187907e+00 114:3.9565134432e+00 115:8.4116231052e+00 116:8.5368442736e+00 117:-8.2950711067e+00 118:2.5417397026e+00 119:9.5141734748e+00 120:-1.3883575006e+00 121:1.6192638149e+00 122:-3.3873616808e+00 123:1.7310672002e+00 124:9.1817009779e+00 125:5.7965393484e+00 126:8.7268374534e-01 127:7.0663642519e+00 128:9.8409327707e+00 129:6.1496828668e+00 130:8.2945803493e-01 131:-2.0286571083e-01 132:-2.1402848424e-01 133:-2.2368332980e+00 134:2.6576653224e+00 135:1.0309034523e+01 136:-5.3716951755e+00 137:-3.9744530775e+00 138:-4.1465770972e+00 139:-3.4848936042e+00 140:-1.2553541797e+00 141:-3.9665827452e+00 142:6.8239062503e+00 143:-3.6735149297e+00 144:-4.6063362997e+00 145:-1.6475208139e+00 146:-5.3561903475e+00 147:9.3127910928e+00 148:-1.7644650415e+00 149:7.0365607882e+00 150:7.7311258294e+00 151:6.9399018552e+00 152:-1.0991707580e+01 153:-4.2096972642e+00 154:5.5342281285e+00 155:5.3432025369e+00 156:1.7590167475e+00 157:-5.8106203765e+00 158:2.1878834228e+00 159:5.7420919835e+00 160:7.4748846710e+00 161:-4.0781325539e+00 162:-2.1573007068e+00 163:-6.7736930551e+00 164:1.0010208669e+01 165:4.1287563518e+00 166:6.7177027488e+00 167:9.5133816586e+00 168:-1.5137537726e+00 169:-5.9417987198e+00 170:3.5870727835e+00 171:2.4844365551e+00 172:-2.5210682287e-01 173:5.2151358961e+00 174:-7.3058285584e+00 175:3.4308750705e-01 176:2.7794283618e+00 177:7.1163170848e+00 178:1.3382120524e+00 179:-3.9258143691e+00 180:-1.3640309685e+00 181:6.1059749010e-01 182:7.4355250193e+00 183:4.1459634959e+00 184:-4.8736222414e+00 185:-6.9735723322e+00 186:-5.6859963836e+00 187:-1.7476670546e+00 188:2.9671022375e+00 189:-9.7861952355e+00 190:3.3334194366e+00 191:2.7708441601e+00 192:8.4870426851e+00 193:9.8074679906e+00 194:7.1640682796e+00 195:2.7062424825e+00 196:4.5990035947e+00 197:8.2393321962e+00 198:2.6386767893e+00 199:1.8950935150e+00 200:-1.0258416228e+00 
3.5483035082e-04 1:4.7883060660e+00 2:5.0436773771e+00 3:5.8719176116e+00 4:1.0465629754e+01 5:-8.1930496937e+00 6:2.9936653261e+00 7:-3.6108654350e+00 8:-3.7488527291e+00 9:-6.6916067533e+00 10:-5.7218649159e+00 11:8.8582937698e+00 12:-6.2245802098e+00 13:-8.0090085938e+00 14:-5.3372160715e+00 15:-7.6633220918e+00 16:5.2817531433e+00 17:-5.5208435773e+00 18:3.4144125149e+00 19:4.8007008791e-01 20:1.6389130575e-01 21:-5.6623300180e-01 22:-9.9680626803e+00 23:-1.0387101639e+01 24:-3.6610585057e+00 25:-3.1725315598e+00 26:2.7689704589e+00 27:1.0578689877e+01 28:-2.8011796206e+00 29:-8.0085312365e+00 30:8.6755050874e+00 31:-1.3255539978e+00 32:-1.6562535739e+00 33:-7.9470897596e+00 34:3.3222620618e+00 35:-2.4969315603e+00 36:-3.5378733758e+00 37:6.1086358151e+00 38:3.9651942024e+00 39:2.2153284054e+00 40:-1.0457767584e+01 41:-1.0344219918e+00 42:1.7603668161e+00 43:-8.1058747507e+00 44:9.7323218318e+00 45:9.6096185333e+00 46:-3.4961221639e+00 47:5.5028020766e+00 48:-7.7965732094e+00 49:-2.7805981808e+00 50:2.8287643635e-01 51:-5.5283685928e+00 52:6.0413513690e+00 53:7.0775328682e+00 54:-6.4525382376e+00 55:6.9650535585e+00 56:4.5681093759e+00 57:-2.7516741541e+00 58:7.5973186661e+00 59:3.1721436177e+00 60:-3.9926788414e+00 61:7.2591931029e+00 62:-4.2093954223e-01 63:-3.0916119811e+00 64:-3.1766215429e+00 65:-3.2719359828e+00 66:-3.6561124655e+00 67:-7.3284352145e+00 68:-8.7286509564e+00 69:9.0919036812e+00 70:9.1455017312e+00 71:7.1215115951e+00 72:7.4735746111e+00 73:1.4894018305e-01 74:5.4924276915e+00 75:-2.3318745793e+00 76:6.0315379106e+00 77:-1.3874486802e+00 78:-2.4361910473e+00 79:8.3569143819e+00 80:9.0450211104e+00 81:-3.4950752091e+00 82:2.7590059126e+00 83:-7.0530420585e+00 84:-3.5491309124e+00 85:1.1471969815e+00 86:7.8221233848e+00 87:1.7176526379e+00 88:-4.1541158184e+00 89:-3.2444951440e+00 90:1.0088103851e+00 91:-4.4089049160e+00 92:-4.2722599881e+00 93:1.6598887282e+00 94:-4.6654320013e+00 95:-4.4330318761e+00 96:2.9622295990e+00 97:6.6803704092e+00 98:-1.0269643213e+01 99:-3.0250572639e+00 100:-3.8437711032e+00 101:3.8418763168e+00 102:5.7542764335e+00 103:9.2493615910e-01 104:-4.0734023572e+00 105:-4.8527192437e+00 106:-8.5673645902e-01 107:2.2882219828e+00 108:-4.5145597057e-01 109:-2.4728522321e+00 110:3.5824311608e-01 111:5.2306592922e+00 112:9.2327019760e+00 113:1.0731836448e+01 114:1.6447278092e+00 115:6.2824738866e+00 116:9.7088012418e+00 117:-1.0094676899e+01 118:1.1742468287e+00 119:8.5800570886e+00 120:2.3308762854e+00 121:3.1894006727e+00 122:-4.8884675465e+00 123:1.3741391077e+00 124:9.6153866338e+00 125:4.7413567210e+00 126:1.3738457214e+00 127:8.4055400220e+00 128:8.1732756651e+00 129:5.3333133972e+00 130:-7.9089430656e-01 131:8.1768270346e-01 132:-2.2422805265e+00 133:-3.0323066533e+00 134:2.7061882589e+00 135:9.2847281041e+00 136:-7.6780024457e+00 137:-3.4811247235e+00 138:-4.4145902208e+00 139:-4.3625002914e+00 140:1.9038495671e+00 141:-3.2873692193e+00 142:7.6592683784e+00 143:-3.7123548876e+00 144:-3.6351551619e+00 145:5.4157250217e-01 146:-7.1175446463e+00 147:6.6664369375e+00 148:-2.6483565290e+00 149:3.8577311988e+00 150:4.1981113726e+00 151:6.3618466550e+00 152:-1.1600510104e+01 153:-3.4484804508e+00 154:2.2552497540e+00 155:5.5254540443e+00 156:-4.4981514543e-01 157:-3.9220299062e+00 158:3.4169701069e-01 159:5.4115366192e+00 160:7.9264269289e+00 161:-4.5386482681e+00 162:-2.9723270133e+00 163:-5.7847290136e+00 164:8.3280791068e+00 165:7.1665820680e+00 166:6.8687018449e+00 167:6.2417512267e+00 168:1.5763901118e+00 169:-7.6230936500e+00 170:3.3692042549e+00 171:3.2516593978e+00 172:-1.0700390647e+00 173:3.5719876793e+00 174:-8.7737182736e+00 175:1.6213292399e+00 176:3.3516809526e+00 177:4.6901173212e+00 178:1.5983447968e+00 179:-3.3719726742e+00 180:-9.9272733927e-01 181:-8.6685990977e-01 182:5.0069617562e+00 183:3.3387217070e+00 184:-5.4281766691e+00 185:-5.5597458302e+00 186:-8.2604615958e+00 187:-4.6097412459e+00 188:2.6630126746e+00 189:-9.7375820523e+00 190:3.4140984580e+00 191:3.4384043119e-01 192:9.0814627360e+00 193:8.8942095710e+00 194:8.1385337902e+00 195:2.1190428926e+00 196:5.1847680022e+00 197:1.0721061934e+01 198:4.1272365937e+00 199:2.7003990787e+00 200:-2.9759924639e+00 
-1.0367624437e-04 1:5.7970490977e+00 2:4.3890630724e+00 3:7.2144756684e+00 4:1.1279933958e+01 5:-8.9155656268e+00 6:2.1466871883e-02 7:-4.3638945508e+00 8:-2.6650199142e+00 9:-6.0714706516e+00 10:-7.2889791827e+00 11:6.3125709179e+00 12:-4.9910379573e+00 13:-5.9695851813e+00 14:-2.4470870772e+00 15:-7.5734590834e+00 16:6.6649303757e+00 17:-2.5149430909e+00 18:5.3482084240e+00 19:-7.2825387027e-01 20:-2.0765596349e+00 21:-1.8374456538e+00 22:-9.9474658407e+00 23:-8.2900325618e+00 24:-2.1171158848e+00 25:-2.3091878451e+00 26:3.6784730641e+00 27:9.6558285633e+00 28:-3.6761821426e-01 29:-8.7250037579e+00 30:9.0944765826e+00 31:-1.3794069444e+00 32:-1.1160145743e+00 33:-8.9025414962e+00 34:1.9964757650e+00 35:-5.3076582938e+00 36:-1.5127184647e+00 37:7.2718101734e+00 38:5.3544096981e+00 39:4.7377739898e+00 40:-8.5479309948e+00 41:-3.2650718791e+00 42:3.9815547697e+00 43:-4.8266677018e+00 44:1.0365231035e+01 45:9.2131744621e+00 46:-2.5365594109e+00 47:5.6094977303e+00 48:-8.1946526630e+00 49:-4.6913924013e+00 50:2.5938437198e+00 51:-6.8067436416e+00 52:5.1676778363e+00 53:7.1340603543e+00 54:-6.7716575575e+00 55:8.5093346920e+00 56:3.3363146905e+00 57:-8.1876748687e-01 58:7.2487564984e+00 59:3.2886759817e+00 60:-2.3749800543e+00 61:6.3395144018e+00 62:-6.0219059878e-01 63:-2.4949858636e+00 64:-9.9968494389e-01 65:-2.5641839565e+00 66:-5.2944986168e+00 67:-7.8097467970e+00 68:-7.3379777125e+00 69:9.7152325894e+00 70:6.3865443868e+00 71:8.0651047978e+00 72:9.3613068079e+00 73:6.1970394365e-01 74:8.2589759935e+00 75:1.2542759377e+00 76:4.6100207434e+00 77:-2.3094545504e+00 78:-6.9329303506e-01 79:7.6248654392e+00 80:9.6511081438e+00 81:-9.3179242921e-01 82:2.3598406728e+00 83:-7.1948277221e+00 84:-1.6173397041e-01 85:2.9939697911e+00 86:4.9725660873e+00 87:2.7687518652e+00 88:-6.0202684981e+00 89:-4.3437618431e+00 90:3.8379299692e-01 91:-4.9589513280e+00 92:-3.9018645533e+00 93:2.7289494762e+00 94:-4.2665805620e+00 95:-3.5506600992e+00 96:5.5053191782e+00 97:7.7625246272e+00 98:-9.9676166144e+00 99:-5.9921831842e+00 100:-3.5472946146e+00 101:4.7399358884e+00 102:5.1107880497e+00 103:3.0861086288e+00 104:-3.3898056581e+00 105:-5.7873956315e+00 106:-4.6252092794e+00 107:2.4602912071e+00 108:-5.5794612398e-01 109:-3.0653834271e+00 110:-1.3817459089e+00 111:5.7708988303e+00 112:9.4701351292e+00 113:9.2493401535e+00 114:1.7687651725e+00 115:9.0139451357e+00 116:7.8973796647e+00 117:-9.0930980172e+00 118:3.5037889671e+00 119:7.7429405354e+00 120:-4.7771610322e-01 121:3.3462830040e+00 122:-6.2489938992e+00 123:2.0767188022e+00 124:1.1115762061e+01 125:4.0123978161e+00 126:-1.9039140109e+00 127:8.5912127333e+00 128:9.0813780585e+00 129:7.2895224954e+00 130:5.3891623233e-01 131:1.6275274008e+00 132:-2.5118430978e+00 133:-2.0630620289e+00 134:1.9644200043e+00 135:1.1341342531e+01 136:-7.3104058061e+00 137:-2.5070968119e+00 138:-4.7384562707e+00 139:-5.3489214086e+00 140:-2.5146596116e-01 141:-3.7160432122e+00 142:4.3875245581e+00 143:-2.3866020296e+00 144:-4.6745441732e+00 145:1.4818544850e+00 146:-5.7856941040e+00 147:7.0915832003e+00 148:-4.1100164936e+00 149:4.4481455245e+00 150:5.7995088654e+00 151:6.3119935483e+00 152:-9.7348071170e+00 153:-2.9577272910e+00 154:2.1547424761e+00 155:5.4593141987e+00 156:9.2560016665e-02 157:-3.3186242005e+00 158:1.8721579790e+00 159:4.0949104605e+00 160:7.7596153040e+00 161:-4.0283774269e+00 162:-2.9659012753e+00 163:-6.2269152444e+00 164:9.3857481243e+00 165:5.5391012416e+00 166:7.3798399157e+00 167:8.2883780245e+00 168:6.6127015937e-01 169:-7.5865804617e+00 170:2.8269703551e+00 171:1.4249402405e+00 172:-1.0279067280e+00 173:4.0541040075e+00 174:-8.5728293531e+00 175:1.5966991719e+00 176:3.8842248175e+00 177:6.4139741402e+00 178:3.5615353776e+00 179:-2.1105199799e+00 180:-1.0350593278e+00 181:-3.6206888112e-01 182:6.3945909830e+00 183:3.9424852969e+00 184:-6.8477751833e+00 185:-6.3883545561e+00 186:-4.9048789101e+00 187:-1.5676122374e+00 188:3.0172611884e+00 189:-1.0386613276e+01 190:2.4434176511e+00 191:-7.1541513008e-01 192:7.1767840803e+00 193:9.8435134056e+00 194:8.5307970544e+00 195:2.9640169700e+00 196:6.1429353822e+00 197:1.0770615216e+01 198:3.9360118829e+00 199:1.6168179209e+00 200:-1.9242916467e+00 
-2.7463229902e-04 1:4.5842786696e+00 2:4.5165556037e+00 3:6.1849078910e+00 4:1.0370922817e+01 5:-8.7724481538e+00 6:-5.4338046913e-01 7:-2.8680093170e+00 8:-2.6493606614e+00 9:-6.4455419328e+00 10:-5.2053629085e+00 11:8.1604706799e+00 12:-6.6682891030e+00 13:-8.0001565147e+00 14:-5.1439901662e+00 15:-7.7290712321e+00 16:3.9659239090e+00 17:-5.0467051684e+00 18:5.2192138922e+00 19:1.7105829232e+00 20:1.4714593592e-01 21:2.1993766763e-01 22:-6.8772675999e+00 23:-9.3835165472e+00 24:-4.0595653161e+00 25:-1.0487541977e+00 26:4.4145892666e+00 27:8.9612595243e+00 28:-2.1047555723e+00 29:-8.3937091383e+00 30:9.6874141962e+00 31:1.0713294405e+00 32:-8.1343387974e-01 33:-8.5798378724e+00 34:2.2830725471e+00 35:-5.1727860554e+00 36:-1.6057375663e+00 37:4.9535371090e+00 38:3.8784290836e+00 39:3.8614473890e+00 40:-7.4555152101e+00 41:-1.6256685495e+00 42:3.0854651312e+00 43:-8.8147626547e+00 44:8.5182117297e+00 45:8.6207752896e+00 46:-2.2306098517e+00 47:7.5097203949e+00 48:-7.2740938052e+00 49:-3.3710905159e+00 50:1.4373661801e+00 51:-6.6292864972e+00 52:4.3506585256e+00 53:5.3998527042e+00 54:-4.5596727163e+00 55:6.3619598290e+00 56:3.8817447603e+00 57:-2.4986967723e+00 58:7.1598610486e+00 59:2.4583668495e+00 60:-4.6633237481e+00 61:6.0369926606e+00 62:-2.3709313323e+00 63:-3.5229526769e+00 64:-3.4480450560e+00 65:-8.8491126999e-01 66:-4.7085798089e+00 67:-1.1637693040e+01 68:-1.0110704515e+01 69:1.0259096947e+01 70:8.4703097501e+00 71:9.6124535453e+00 72:9.6883698743e+00 73:4.7887216918e-01 74:7.5507311904e+00 75:-1.0640679765e+00 76:7.4003597995e+00 77:-2.4328553476e+00 78:-2.1476603105e+00 79:8.9642377987e+00 80:1.0786674981e+01 81:-2.4196908836e+00 82:5.9795802933e-01 83:-7.3741457808e+00 84:-3.8105768866e+00 85:2.0550959504e+00 86:7.8156510148e+00 87:4.0979759058e+00 88:-3.4564608976e+00 89:-2.6389594589e+00 90:1.1003830332e+00 91:-5.8138894561e+00 92:-5.8410558165e+00 93:8.5699864546e-01 94:-2.7017453164e+00 95:-2.9405508510e+00 96:6.7510986567e+00 97:5.3584329601e+00 98:-9.0143114733e+00 99:-2.5224528157e+00 100:-4.6420221552e+00 101:2.4462317051e+00 102:2.3688154070e+00 103:5.2002631945e-01 104:-3.0916436329e+00 105:-5.6707091013e+00 106:-3.2979893361e+00 107:2.4610877995e+00 108:-1.4570711215e+00 109:-2.6344385881e+00 110:-2.0737384771e+00 111:3.9907888455e+00 112:8.7555953241e+00 113:1.0038803196e+01 114:3.1867948371e+00 115:9.1317255017e+00 116:9.2039656763e+00 117:-8.3700339449e+00 118:8.1755757616e-01 119:9.1138298710e+00 120:8.5201626085e-01 121:2.3617999082e+00 122:-2.7048231235e+00 123:1.2313913841e+00 124:1.0108320813e+01 125:3.6704227039e+00 126:-6.6540069193e-01 127:7.2270293722e+00 128:7.3101709438e+00 129:5.1951044980e+00 130:-5.1624090038e-01 131:2.9415332523e-01 132:-1.5625039399e+00 133:-2.3747530132e+00 134:2.0702960832e+00 135:9.3741699332e+00 136:-6.7937124674e+00 137:-3.4952415983e+00 138:-4.2109118627e+00 139:-5.0844299852e+00 140:-1.2677889049e+00 141:-2.5000017390e+00 142:5.1236959690e+00 143:-1.8124361273e+00 144:-4.0766058510e+00 145:2.7232458808e-01 146:-6.2521934074e+00 147:8.2220571510e+00 148:-3.1708505760e+00 149:6.1157933132e+00 150:5.4519317028e+00 151:7.3390404501e+00 152:-8.7760358759e+00 153:-2.2745637019e+00 154:4.4165451677e+00 155:6.7566771847e+00 156:8.8360954702e-01 157:-3.2508037135e+00 158:2.8988961139e+00 159:5.8873010204e+00 160:5.7670765551e+00 161:-4.3324548341e+00 162:-9.9613460572e-01 163:-7.6310724873e+00 164:8.9011029623e+00 165:5.1267211672e+00 166:5.9870503257e+00 167:7.5097183927e+00 168:7.2974021241e-01 169:-6.6710207991e+00 170:3.0975417915e+00 171:3.4301669499e+00 172:-1.2378255586e+00 173:4.0242149527e+00 174:-7.4164198024e+00 175:2.8827665715e+00 176:3.8892820512e+00 177:7.0336031104e+00 178:6.4506477618e-01 179:-4.5219947025e+00 180:-1.2972624239e+00 181:-1.3704899388e+00 182:6.3776067445e+00 183:4.0142427381e+00 184:-5.2990782798e+00 185:-6.0106541847e+00 186:-6.8605774897e+00 187:-4.6171788489e+00 188:2.0980161670e+00 189:-9.3709149922e+00 190:2.6130891373e+00 191:3.3702452344e-01 192:9.3661735237e+00 193:1.0410330444e+01 194:8.0778728322e+00 195:3.6012633910e+00 196:6.0065202041e+00 197:8.6505236674e+00 198:7.5166402544e-01 199:9.3108804099e-01 200:-2.9802325983e+00 
1.9613889426e-04 1:4.5812758544e+00 2:6.3533101385e+00 3:5.2677384008e+00 4:9.4904763014e+00 5:-7.7517795230e+00 6:-7.9360463201e-01 7:-2.6041582802e+00 8:-2.5522264250e+00 9:-5.1455783267e+00 10:-4.3146458822e+00 11:8.8144987684e+00 12:-6.5617006987e+00 13:-8.3583184971e+00 14:-4.7296324917e+00 15:-6.2266165866e+00 16:2.8719606148e+00 17:-6.3058947020e+00 18:4.4197900716e+00 19:-2.2629963040e-01 20:-1.8956297879e+00 21:-2.4272867184e+00 22:-8.0817020366e+00 23:-9.6872321783e+00 24:-2.8577201349e+00 25:-1.6486084890e+00 26:5.0069435985e+00 27:6.7427583781e+00 28:1.2007175907e-01 29:-7.9112031569e+00 30:9.9803422321e+00 31:-6.5835236698e-01 32:-1.5934573582e-01 33:-9.1260895207e+00 34:4.5569251542e+00 35:-3.7583631162e+00 36:-9.7229000003e-01 37:8.2210255137e+00 38:6.3093207160e+00 39:3.4475203464e+00 40:-9.4879532404e+00 41:-9.5769391803e-01 42:3.3563745744e+00 43:-5.9721993047e+00 44:8.3219466277e+00 45:7.9181760357e+00 46:-2.2013582600e+00 47:6.2828205460e+00 48:-8.3535813102e+00 49:-4.5241820640e+00 50:7.3559845435e-01 51:-7.4994959181e+00 52:3.2753580613e+00 53:5.9206217239e+00 54:-6.5935879493e+00 55:7.0502017815e+00 56:4.5160628071e+00 57:-1.2014407989e+00 58:6.6539729416e+00 59:1.8585938341e+00 60:-3.3096661004e+00 61:6.5601441424e+00 62:-1.5229025662e-01 63:-4.0497125044e+00 64:-3.7539885383e+00 65:-2.2984453462e+00 66:-6.7725204794e+00 67:-1.0352607551e+01 68:-6.8866172000e+00 69:6.8811079015e+00 70:7.4028185817e+00 71:8.4921975919e+00 72:8.9694757128e+00 73:6.7663510860e-01 74:8.9739185445e+00 75:-3.8522988903e-01 76:4.7678397244e+00 77:-2.6463924633e+00 78:-2.0300269110e+00 79:8.3216881051e+00 80:9.7679186145e+00 81:-2.1372447084e+00 82:1.2779237132e+00 83:-8.1136918527e+00 84:3.9334349243e-01 85:1.7291882448e-01 86:6.8275200610e+00 87:2.5171839006e+00 88:-4.9019970395e+00 89:-5.6518705272e+00 90:1.0902207665e+00 91:-5.1651824439e+00 92:-4.8946586418e+00 93:-1.1239920906e-01 94:-1.8343916963e+00 95:-3.3991341720e+00 96:3.3586282792e+00 97:7.6309208769e+00 98:-1.0671705990e+01 99:-4.6966864099e+00 100:-3.9464602852e+00 101:2.7005652626e+00 102:4.7425966626e+00 103:3.2948271545e+00 104:-8.0762950701e-01 105:-5.5792799438e+00 106:-2.7116101709e+00 107:1.7440577438e+00 108:1.5836824119e+00 109:-1.0136797772e+00 110:-1.1229181836e+00 111:5.1168090903e+00 112:7.7155723918e+00 113:9.5410402579e+00 114:2.2165945742e+00 115:6.2006836042e+00 116:8.1761376852e+00 117:-7.7010791103e+00 118:5.8018328534e-02 119:9.0040395166e+00 120:6.6132405212e-01 121:1.6665032020e+00 122:-3.8106076310e+00 123:3.5519044702e+00 124:1.0275091716e+01 125:3.8802423591e+00 126:-6.9568829128e-01 127:8.2014357326e+00 128:7.7449674679e+00 129:4.5644427393e+00 130:6.0045134680e-01 131:5.8928496195e-02 132:-1.9450762323e+00 133:-1.1901005448e+00 134:4.7252609422e+00 135:1.0431386529e+01 136:-6.4072044833e+00 137:-4.0106721978e+00 138:-4.5519834307e+00 139:-3.5068689069e+00 140:-3.1534730533e+00 141:-2.2469650002e+00 142:4.8931590415e+00 143:-2.1337528234e+00 144:-3.3196898386e+00 145:3.6593691903e-01 146:-7.9132669284e+00 147:9.0875115453e+00 148:-3.4272626809e+00 149:3.7294430041e+00 150:5.5367282478e+00 151:6.8379223976e+00 152:-1.1860141618e+01 153:-3.0534790185e+00 154:4.2372211056e+00 155:7.2112480842e+00 156:1.8538158169e+00 157:-5.1636229426e+00 158:1.0514848732e+00 159:3.2691938923e+00 160:7.3381449498e+00 161:-4.9985221168e+00 162:-1.6743762640e+00 163:-6.3269670932e+00 164:5.5250712233e+00 165:6.7265427696e+00 166:8.3903009047e+00 167:6.6886300697e+00 168:1.8044141058e+00 169:-4.4112732631e+00 170:5.3346833290e+00 171:3.2294880854e+00 172:4.2195629949e-01 173:2.0740486022e+00 174:-8.2138195372e+00 175:2.1684257518e+00 176:5.2613101702e+00 177:5.7845330890e+00 178:1.6054373088e+00 179:-4.6244194667e+00 180:-1.1829254037e+00 181:9.6090038714e-02 182:5.0911328809e+00 183:3.3988375709e+00 184:-5.0136881300e+00 185:-6.7253549413e+00 186:-4.4455989919e+00 187:-5.0526508144e+00 188:2.5077397991e+00 189:-1.0157941918e+01 190:7.1907156315e-01 191:1.5888689513e-01 192:8.1104797268e+00 193:9.4841302874e+00 194:7.2759316882e+00 195:2.2724426843e+00 196:7.0000401958e+00 197:9.5515107042e+00 198:5.3864309958e-01 199:9.2631659957e-01 200:-8.9596536841e-01 
1.7234679357e-05 1:3.0495150773e+00 2:4.5348569589e+00 3:6.1954564508e+00 4:1.0059882393e+01 5:-8.7834424680e+00 6:-1.6873351976e+00 7:-4.5156371838e+00 8:-3.3119560582e+00 9:-5.4147524499e+00 10:-5.7527151816e+00 11:7.8929477025e+00 12:-7.0403760295e+00 13:-7.7212982762e+00 14:-4.6541915935e+00 15:-7.8282190239e+00 16:5.4652720666e+00 17:-4.0179393555e+00 18:6.7393666830e+00 19:-1.0146137759e+00 20:-2.4248818858e+00 21:-9.9120841234e-01 22:-1.1553671924e+01 23:-9.5115025549e+00 24:-4.5007694106e+00 25:-2.3712929123e+00 26:3.8361134889e+00 27:8.1886159115e+00 28:-1.3459806550e+00 29:-1.0323545061e+01 30:8.4189716452e+00 31:-1.0988483391e+00 32:-1.4584106927e+00 33:-8.4288004536e+00 34:3.7573692713e+00 35:-4.5442307144e+00 36:-1.4583958093e+00 37:7.0465934943e+00 38:2.7460573086e+00 39:4.3307702403e+00 40:-9.2732344470e+00 41:-1.8458271620e+00 42:1.2121360111e+00 43:-7.6727958990e+00 44:1.0234842927e+01 45:7.6329768050e+00 46:-1.2346185501e+00 47:6.8040485629e+00 48:-7.4890060443e+00 49:-3.4873073794e+00 50:2.1426049062e+00 51:-7.0653917103e+00 52:5.9233449797e+00 53:7.1238847942e+00 54:-6.7331175983e+00 55:6.2901741275e+00 56:6.4578058660e+00 57:1.0800592499e-01 58:8.4128080476e+00 59:2.6064818245e+00 60:-9.3545273333e-01 61:5.6175295968e+00 62:-5.9443705106e-01 63:-2.3497620159e+00 64:-5.3446094063e+00 65:-3.6371641404e+00 66:-4.7057995525e+00 67:-9.1329653321e+00 68:-8.0210903930e+00 69:9.8572119887e+00 70:7.3900336849e+00 71:8.7843521968e+00 72:9.2936831731e+00 73:9.2119059416e-01 74:8.2922909248e+00 75:1.1661140175e-01 76:4.9937919795e+00 77:-2.2509953957e+00 78:-1.7312321916e+00 79:8.8981292755e+00 80:8.2169084767e+00 81:-1.9809424452e+00 82:1.1916809819e+00 83:-7.2232247272e+00 84:-2.2741485734e+00 85:1.4930725531e+00 86:8.7817243790e+00 87:3.0610207200e+00 88:-3.4184349276e+00 89:-4.0503547679e+00 90:2.1917030810e+00 91:-6.0370812059e+00 92:-4.8931180759e+00 93:4.2512648751e-01 94:-9.9226371275e-01 95:-4.3951171567e+00 96:3.3389232935e+00 97:5.7371497532e+00 98:-1.1116555304e+01 99:-3.1905939868e+00 100:-2.8581291674e+00 101:4.4248199598e+00 102:5.3361086475e+00 103:-5.8587886446e-01 104:-3.6661727293e+00 105:-7.4008210146e+00 106:-1.4827194127e+00 107:1.1526404287e+00 108:-3.9604499785e-01 109:-2.0487844706e+00 110:-1.6810869552e+00 111:6.2205450459e+00 112:7.7818044524e+00 113:8.0747447474e+00 114:2.7525764153e+00 115:8.3436386255e+00 116:7.5238005497e+00 117:-9.1470976789e+00 118:9.1391824381e-01 119:8.2103006441e+00 120:-1.5534738802e+00 121:1.6827576174e+00 122:-2.9815598265e+00 123:2.2073729257e+00 124:9.8187629567e+00 125:4.0859870805e+00 126:9.1225615404e-01 127:7.7660470275e+00 128:7.4341117708e+00 129:3.7660087689e+00 130:-8.6661355592e-01 131:-1.1049681116e+00 132:-2.1970611394e-01 133:-1.7541584648e+00 134:2.5379598775e+00 135:7.2150425453e+00 136:-7.5407917536e+00 137:-2.9322094153e+00 138:-4.3597070353e+00 139:-5.6973291712e+00 140:-6.3041239086e-01 141:-2.3444318391e+00 142:5.0398380074e+00 143:-2.3759242741e+00 144:-4.7546759220e+00 145:-4.5581309470e-03 146:-5.8783445596e+00 147:8.1257896345e+00 148:-2.4601013760e+00 149:5.5995062035e+00 150:5.2060883942e+00 151:8.7150677147e+00 152:-9.3787503218e+00 153:-3.1992205268e+00 154:2.7007279874e+00 155:4.6183626551e+00 156:1.8755034774e+00 157:-4.6104870431e+00 158:1.8944223816e+00 159:5.2560102941e+00 160:9.3190048960e+00 161:-5.3958446637e+00 162:-3.8409778859e+00 163:-5.8369988191e+00 164:1.0696960243e+01 165:6.7149340166e+00 166:7.6890814133e+00 167:7.1537503753e+00 168:-4.9266860817e-01 169:-5.8773402848e+00 170:4.1516189805e+00 171:1.8915396003e+00 172:3.6708445384e-01 173:5.5937181158e+00 174:-6.7976115009e+00 175:1.1995355351e+00 176:3.5124097757e+00 177:6.5162386709e+00 178:2.9038810445e+00 179:-4.6535212605e+00 180:-5.4542147021e-01 181:9.0558205789e-01 182:5.8152520398e+00 183:4.3779852974e+00 184:-5.6539961866e+00 185:-7.0847574714e+00 186:-6.8140535187e+00 187:-3.2632410565e+00 188:3.0972859209e+00 189:-1.1072087742e+01 190:1.9199737524e+00 191:-1.2704291569e+00 192:8.0272705849e+00 193:1.0568598698e+01 194:8.2670802324e+00 195:3.1195754045e+00 196:6.1158024304e+00 197:8.2289645438e+00 198:3.1304628950e+00 199:1.5027057880e+00 200:-1.7049335470e+00 
-5.1856579331e-05 1:2.3733452725e+00 2:5.8104923751e+00 3:6.6796839084e+00 4:9.3478027378e+00 5:-9.0500948670e+00 6:1.7425864758e-01 7:-1.9615789854e+00 8:-1.4812777268e+00 9:-7.1222922446e+00 10:-6.1119234150e+00 11:7.3424639655e+00 12:-5.7285329933e+00 13:-8.8530784586e+00 14:-4.9916410941e+00 15:-7.3795988553e+00 16:1.8401759054e+00 17:-2.5916133509e+00 18:4.2159003077e+00 19:-1.8113697916e-01 20:-2.6961059418e+00 21:-1.9068253358e+00 22:-7.3811348605e+00 23:-9.8650209694e+00 24:-5.5809056027e-01 25:-3.5817656472e+00 26:4.1288372010e+00 27:7.6636735992e+00 28:-2.3623673944e+00 29:-8.5808224507e+00 30:9.8150821911e+00 31:-3.3179457247e+00 32:-1.1353758844e+00 33:-1.0065793850e+01 34:3.3212268470e+00 35:-5.3940879016e+00 36:-1.7458963174e+00 37:7.8423147233e+00 38:4.7103115804e+00 39:1.7355784595e+00 40:-7.9264674037e+00 41:-2.7849976789e+00 42:1.7280760786e+00 43:-8.5833836036e+00 44:1.1130363407e+01 45:7.8425037275e+00 46:-5.5105640419e+00 47:8.0483399963e+00 48:-8.5330739347e+00 49:-3.7002928005e+00 50:2.0509143427e+00 51:-7.5866119984e+00 52:5.3997706077e+00 53:6.4182676220e+00 54:-6.4144151820e+00 55:7.5382898019e+00 56:4.2836826608e+00 57:-2.4528764902e+00 58:8.3474587641e+00 59:2.4385490288e+00 60:-4.8257232649e+00 61:5.0020039688e+00 62:-1.4554230277e+00 63:-4.2190300503e+00 64:-4.0150564899e+00 65:-8.2718192335e-01 66:-4.9713755656e+00 67:-9.5911108455e+00 68:-8.5418575790e+00 69:1.0191575261e+01 70:7.3152460211e+00 71:8.4052051080e+00 72:8.8411517248e+00 73:8.5608973225e-01 74:6.4396978384e+00 75:-1.8960897366e+00 76:5.2903677741e+00 77:-3.3051904577e+00 78:-1.6099309386e+00 79:8.1510545039e+00 80:9.7812111768e+00 81:-1.9614259784e+00 82:1.5492481730e+00 83:-7.3329807116e+00 84:-6.1658573047e-01 85:-1.3474946057e+00 86:8.7021749116e+00 87:2.4464519930e+00 88:-4.2885608242e+00 89:-3.8150029943e+00 90:2.5855054218e+00 91:-5.2124660301e+00 92:-4.1391825889e+00 93:1.7995197522e+00 94:-4.7711464407e+00 95:-5.5624724970e+00 96:3.2911362839e+00 97:7.3448005449e+00 98:-9.3007257032e+00 99:-4.3007674950e+00 100:-2.0900367041e+00 101:3.8208505387e+00 102:3.4309803630e+00 103:1.2358288741e+00 104:-3.0621320606e+00 105:-5.9551791638e+00 106:-3.9237376206e-01 107:3.7873003713e-01 108:-1.0312328550e+00 109:-1.7913503253e+00 110:-1.2950223891e+00 111:5.7277736284e+00 112:6.5836276508e+00 113:9.0356190480e+00 114:2.1769191257e+00 115:8.4246780923e+00 116:8.6665730593e+00 117:-1.1379610553e+01 118:2.0234495280e-02 119:1.0262587933e+01 120:1.3661060138e+00 121:9.5589986599e-01 122:-1.9065167686e+00 123:3.0188911434e+00 124:9.8714165747e+00 125:6.8251934536e-01 126:8.4730041798e-01 127:6.4955164148e+00 128:8.6442444952e+00 129:6.0638227391e+00 130:2.7540816797e+00 131:1.4517273744e+00 132:-1.3145322061e+00 133:-2.7570246806e+00 134:2.9760697271e+00 135:1.0065270479e+01 136:-7.1880190078e+00 137:-3.5848340863e+00 138:-3.8545650433e+00 139:-2.9079119777e+00 140:-1.9385534684e-01 141:-5.1735499186e+00 142:5.3537549670e+00 143:-1.1642662495e+00 144:-3.5307303135e+00 145:1.2202828626e+00 146:-7.1491093738e+00 147:9.3139762408e+00 148:-3.8391073715e+00 149:7.0074287708e+00 150:6.1378455415e+00 151:6.7755805453e+00 152:-9.9326723904e+00 153:-5.0517231544e+00 154:3.1313672132e+00 155:5.4380358713e+00 156:1.2062849512e+00 157:-5.6998097332e+00 158:3.7944000912e+00 159:3.0425058250e+00 160:7.3013101810e+00 161:-5.3471394296e+00 162:-2.5550945193e+00 163:-6.3907135073e+00 164:9.0293157721e+00 165:5.3301329026e+00 166:7.0951560696e+00 167:6.5050917456e+00 168:-2.1659619752e-01 169:-8.6412047760e+00 170:3.9821834674e+00 171:2.8065326217e+00 172:-1.4653936880e+00 173:4.3808134552e+00 174:-7.2390592906e+00 175:2.2286359299e+00 176:2.7597270153e+00 177:6.3607111946e+00 178:1.4303058312e+00 179:-3.3328298126e+00 180:-1.8375823418e+00 181:-4.2925397032e-01 182:5.4226290804e+00 183:3.0220036267e+00 184:-4.7847814315e+00 185:-6.6713722416e+00 186:-6.6022414948e+00 187:-3.9284582215e+00 188:4.9535719881e+00 189:-9.3310537837e+00 190:1.2786473505e+00 191:-5.5844112799e-01 192:8.2090851585e+00 193:7.7433722840e+00 194:6.2618040079e+00 195:2.3246679542e+00 196:5.5108958043e+00 197:8.9811281187e+00 198:2.8036833355e+00 199:2.0332610701e+00 200:-2.9060303648e+00 
-7.9362114820e-05 1:4.9520556803e+00 2:3.0142736550e+00 3:8.1138492898e+00 4:1.0345279039e+01 5:-7.5846021731e+00 6:-1.5716848407e+00 7:-4.8632630773e+00 8:-3.2731464596e+00 9:-6.3712317944e+00 10:-6.8239018611e+00 11:9.1237544454e+00 12:-5.9040717000e+00 13:-7.5487883912e+00 14:-6.0866538554e+00 15:-8.4554288584e+00 16:6.8946554323e+00 17:-3.4612183190e+00 18:5.8962078761e+00 19:-2.5150176617e-01 20:-2.2106574704e+00 21:-2.2449799430e+00 22:-9.4563842186e+00 23:-7.5110956709e+00 24:-4.5075294800e+00 25:-3.7380712882e+00 26:2.2404818322e+00 27:8.7054802328e+00 28:-9.1207675286e-01 29:-9.9177360596e+00 30:7.2676498338e+00 31:3.5241388764e-01 32:-3.3171862389e+00 33:-9.5110677348e+00 34:4.5321235241e+00 35:-4.8085382104e+00 36:-1.8914711009e+00 37:5.2187929303e+00 38:3.3542716160e+00 39:3.8356319362e+00 40:-8.8060329210e+00 41:-1.6844241283e+00 42:1.3342063716e+00 43:-5.8547849729e+00 44:9.1840662259e+00 45:8.6576765872e+00 46:-3.1211401295e+00 47:8.4281460372e+00 48:-7.4241034225e+00 49:-3.4274799790e+00 50:1.3378545099e+00 51:-8.7775044109e+00 52:6.5978762948e+00 53:7.2145107875e+00 54:-6.5558193035e+00 55:8.3966126606e+00 56:6.5498225774e+00 57:-2.3978725122e+00 58:7.2335961131e+00 59:3.5424449653e+00 60:-2.4143230448e+00 61:4.8985454738e+00 62:2.6801157525e-02 63:-2.4597379268e+00 64:-1.8628330185e+00 65:-2.5728642632e+00 66:-6.3437878506e+00 67:-8.7729051010e+00 68:-7.2210023228e+00 69:9.4976323810e+00 70:8.3795838750e+00 71:8.5459614985e+00 72:1.0401512680e+01 73:-2.8111864465e-01 74:8.5602445920e+00 75:-4.3171141697e-01 76:5.5541748193e+00 77:-1.4317224321e+00 78:-2.2859418830e+00 79:8.1763942796e+00 80:9.8541912982e+00 81:-3.6888839194e+00 82:3.8629333086e+00 83:-7.1656826786e+00 84:-1.4409055988e+00 85:1.1804219391e+00 86:5.4025959254e+00 87:1.6972518773e+00 88:-5.9998525653e+00 89:-6.7196446008e+00 90:2.2246198223e+00 91:-4.3458540564e+00 92:-5.1961173485e+00 93:1.5086310675e+00 94:-2.9783890782e+00 95:-4.4892955865e+00 96:3.7798873815e+00 97:5.3578439794e+00 98:-1.1055356837e+01 99:-3.8722698388e+00 100:-4.2612706059e+00 101:2.8613245872e+00 102:5.2896324038e+00 103:-7.5861284468e-01 104:-5.3246227996e+00 105:-5.5219290834e+00 106:-2.1794730555e+00 107:-3.2220345610e-01 108:5.5042754314e-01 109:-2.2667239667e+00 110:-2.1388208668e+00 111:4.8347799072e+00 112:7.6868621084e+00 113:8.5836153528e+00 114:4.3061202097e-01 115:6.1875603415e+00 116:9.0021715489e+00 117:-9.0297114043e+00 118:2.9698166891e+00 119:1.0719088848e+01 120:5.9138707938e-01 121:3.3442356822e+00 122:-5.8739210887e+00 123:3.0535895104e+00 124:1.0441143639e+01 125:3.6688689566e+00 126:-4.0405247401e-01 127:9.8506014375e+00 128:8.6173278652e+00 129:6.1699555255e+00 130:-7.8260156825e-01 131:4.8438522130e-01 132:-2.7866498323e+00 133:-2.6482999283e+00 134:1.9875188580e+00 135:7.9344919257e+00 136:-7.4195726609e+00 137:-2.7735058566e+00 138:-3.4883121067e+00 139:-3.5855752925e+00 140:-1.4569252220e+00 141:-7.3558026411e-01 142:4.5166045134e+00 143:-4.2390132464e+00 144:-5.4600084669e+00 145:1.7355880987e+00 146:-5.7237472331e+00 147:7.3882625095e+00 148:-2.6993123674e+00 149:5.0373803725e+00 150:5.3033477718e+00 151:6.1558406329e+00 152:-1.0037291668e+01 153:-3.1701323689e+00 154:3.6943294482e+00 155:3.3737625293e+00 156:-8.2018410365e-03 157:-4.7939761436e+00 158:2.5260931752e+00 159:2.5720964001e+00 160:8.2682230870e+00 161:-1.9871794330e+00 162:-2.9371218319e+00 163:-6.6625291727e+00 164:7.5619054011e+00 165:5.0603499784e+00 166:7.1247093247e+00 167:7.9306508029e+00 168:1.0705316793e+00 169:-7.4198882519e+00 170:3.9553997692e+00 171:3.0384572104e+00 172:-2.2062241524e+00 173:5.2037349606e+00 174:-8.2941085975e+00 175:1.7696627889e+00 176:2.4985076057e+00 177:7.1770544196e+00 178:2.9910247404e+00 179:-4.0021262519e+00 180:-2.1088956469e+00 181:-9.5038664290e-01 182:5.7442140008e+00 183:2.8469369646e+00 184:-7.7022996980e+00 185:-5.1960628840e+00 186:-6.5633433732e+00 187:-1.5324216011e+00 188:3.6332417000e+00 189:-1.1005569553e+01 190:-3.5380222432e-01 191:1.5592251671e+00 192:8.0141783111e+00 193:9.7009804062e+00 194:7.3573921874e+00 195:2.4497651134e+00 196:3.9189244567e+00 197:9.2720194974e+00 198:1.6371987780e+00 199:2.8063415730e+00 200:-2.6663964497e+00 
-1.4939397845e-04 1:4.3713806545e+00 2:4.3755928226e+00 3:7.5873293526e+00 4:9.3216340568e+00 5:-9.2163522968e+00 6:4.5737595952e-01 7:-3.0075685571e+00 8:-3.7898530516e+00 9:-7.2367263535e+00 10:-6.5817831297e+00 11:6.9104481615e+00 12:-5.7187877208e+00 13:-9.1061056097e+00 14:-7.4808432218e+00 15:-4.9894036409e+00 16:5.0009279160e+00 17:-3.7984633597e+00 18:4.9373963224e+00 19:5.4156467980e-02 20:3.1548830031e-01 21:-2.6232966223e+00 22:-8.5328538264e+00 23:-9.5125556558e+00 24:-2.9910298831e+00 25:-2.5928775990e+00 26:4.4463371709e+00 27:9.9261029089e+00 28:6.0983494020e-01 29:-8.0254199153e+00 30:7.4563647290e+00 31:-1.0147832769e+00 32:-1.4932971290e+00 33:-9.7697527650e+00 34:3.1859092497e+00 35:-3.9354039869e+00 36:-2.6623196358e+00 37:5.9519807160e+00 38:3.4283382964e+00 39:2.5285059008e+00 40:-7.2068113822e+00 41:-3.4056303054e+00 42:4.2012378293e+00 43:-5.2071702931e+00 44:9.8117763231e+00 45:9.0665230635e+00 46:-3.6966733592e+00 47:7.3902942047e+00 48:-6.6344603182e+00 49:-5.4251215897e+00 50:1.3196191282e+00 51:-7.3955701674e+00 52:3.7029003411e+00 53:6.9051629796e+00 54:-7.7056280383e+00 55:8.4149171536e+00 56:4.4018927003e+00 57:-2.7981455010e+00 58:8.7492580606e+00 59:2.5784505070e+00 60:-4.3570812628e+00 61:7.5277425000e+00 62:-1.1831177547e+00 63:-3.9356958249e+00 64:-2.6075839217e+00 65:-1.1741501400e+00 66:-4.3429180855e+00 67:-1.0639102254e+01 68:-1.0187882837e+01 69:1.0458109244e+01 70:8.0545536562e+00 71:8.0023299906e+00 72:8.2473863929e+00 73:-4.6978974696e-01 74:7.4683979523e+00 75:-2.2683861535e+00 76:4.5326363344e+00 77:-3.8126265675e+00 78:-7.6943845279e-01 79:8.6612183484e+00 80:7.4074620640e+00 81:3.9033049477e-01 82:1.1945644353e+00 83:-7.5281940544e+00 84:-1.1906584908e-01 85:1.4458539317e+00 86:7.5400061256e+00 87:2.9392307509e+00 88:-3.2400193269e+00 89:-4.8894314925e+00 90:2.0838900076e+00 91:-5.8715511698e+00 92:-3.7613853241e+00 93:-3.6218226678e-01 94:-3.8160760405e+00 95:-3.8247310237e+00 96:4.8419840809e+00 97:7.4355260499e+00 98:-9.2477008042e+00 99:-4.8829353194e+00 100:-3.2018236291e+00 101:2.3062364688e+00 102:3.5653798110e+00 103:4.1152316787e-01 104:-1.9934844262e+00 105:-5.2134457301e+00 106:-1.6830575835e+00 107:3.6693828023e+00 108:-7.2961464063e-01 109:-2.1760613722e+00 110:-2.9860889254e+00 111:4.0600274434e+00 112:8.8017230737e+00 113:7.6920706526e+00 114:1.5148961534e+00 115:1.0323942598e+01 116:8.8314830892e+00 117:-8.0140870564e+00 118:3.2208977356e+00 119:7.7603402999e+00 120:-2.9598541099e-01 121:1.1533480406e+00 122:-4.5439200806e+00 123:1.1804892006e+00 124:1.0575500633e+01 125:3.8729987321e+00 126:1.6404907442e+00 127:6.8502311876e+00 128:8.2369963180e+00 129:6.4587795478e+00 130:1.2648673836e+00 131:-6.6784519071e-01 132:-1.1956069172e+00 133:-1.9916874792e+00 134:1.6505013876e+00 135:8.8069957686e+00 136:-6.1898360520e+00 137:-3.0147651166e+00 138:-3.9604183273e+00 139:-4.3864331306e+00 140:-2.4369748014e+00 141:-3.2108731483e+00 142:6.7446796016e+00 143:-3.5435579112e+00 144:-3.5050773510e+00 145:1.6268891972e+00 146:-6.9613249279e+00 147:9.3518061692e+00 148:-3.0708462955e+00 149:5.1968949491e+00 150:5.1562725917e+00 151:6.8339841066e+00 152:-1.1076260697e+01 153:-3.0190011498e+00 154:4.6712341038e+00 155:4.0836316128e+00 156:1.9707409768e+00 157:-5.4895699251e+00 158:1.4674882366e+00 159:4.5410306373e+00 160:7.7781968802e+00 161:-5.2568243704e+00 162:-1.2490605749e+00 163:-5.9279642989e+00 164:8.8968572870e+00 165:5.9851769590e+00 166:7.4099058918e+00 167:6.8369901696e+00 168:1.1131083816e+00 169:-8.5707196914e+00 170:1.9344131972e+00 171:1.8370387110e+00 172:-1.2312462909e+00 173:4.7061392426e+00 174:-8.5116181840e+00 175:2.2241286548e+00 176:3.6101163009e+00 177:7.7646875672e+00 178:2.7488824785e+00 179:-4.2650393747e+00 180:-1.0981650848e+00 181:2.9251875186e-01 182:6.6596644606e+00 183:2.2707394212e+00 184:-7.0365321814e+00 185:-5.7306465970e+00 186:-7.0156561794e+00 187:-2.9427962314e+00 188:4.9530842184e+00 189:-9.9153406821e+00 190:2.4902738348e+00 191:6.3382155601e-01 192:8.6518232338e+00 193:9.7772153623e+00 194:6.4108570134e+00 195:1.3470933809e+00 196:6.9391909563e+00 197:8.5022798807e+00 198:2.8342913983e+00 199:1.9459757541e+00 200:-2.1926562134e+00 
-1.5271794028e-04 1:3.2088322271e+00 2:5.4394502244e+00 3:6.4584010055e+00 4:8.9894968719e+00 5:-7.8302759093e+00 6:1.3665793813e+00 7:-3.7330334566e+00 8:-2.5922284368e+00 9:-6.1626973441e+00 10:-5.4230294527e+00 11:6.9988092160e+00 12:-7.1977014744e+00 13:-8.7166474372e+00 14:-3.9629921640e+00 15:-7.9026459328e+00 16:5.9272838410e+00 17:-3.2625764304e+00 18:5.1014899470e+00 19:9.1638127231e-01 20:-2.6721571872e+00 21:-2.3234719505e+00 22:-7.2689182695e+00 23:-8.8621567274e+00 24:-4.1011623384e+00 25:-8.2695272872e-01 26:3.8290591590e+00 27:7.4553465669e+00 28:-1.8377665527e+00 29:-8.9281089801e+00 30:6.3618073505e+00 31:-2.1841843054e+00 32:-8.0361290836e-01 33:-8.1322463108e+00 34:2.9910952362e+00 35:-5.5969936446e+00 36:-2.0142060344e+00 37:7.2567349103e+00 38:3.7002117740e+00 39:2.8796280272e+00 40:-8.3608031716e+00 41:-4.0329970369e-01 42:3.3995404316e+00 43:-6.3252817330e+00 44:1.0426828324e+01 45:9.3687069731e+00 46:-9.0966551164e-01 47:6.8734036362e+00 48:-7.8148779777e+00 49:-3.5521297688e+00 50:9.0726953737e-01 51:-8.4117143551e+00 52:5.2852937203e+00 53:7.7064660172e+00 54:-6.5714803743e+00 55:7.6850918715e+00 56:4.9425547994e+00 57:-3.5586068887e+00 58:6.7665919265e+00 59:3.0324984876e+00 60:-1.9538462830e+00 61:6.7793746342e+00 62:-1.8712082036e+00 63:-2.5625526716e+00 64:-3.8252336630e+00 65:-3.4026645170e+00 66:-3.9739384320e+00 67:-1.0757986207e+01 68:-8.2508974606e+00 69:1.0111441603e+01 70:9.4268814188e+00 71:6.9946350235e+00 72:1.0661385220e+01 73:3.1744289553e-01 74:7.0752191621e+00 75:-1.3989976607e+00 76:4.0747589884e+00 77:-2.2875847342e+00 78:-1.7260434095e+00 79:8.2463200288e+00 80:6.7852379466e+00 81:-1.5396848401e+00 82:6.6861336397e-02 83:-9.5689297759e+00 84:-4.5925899891e-01 85:2.1571629985e+00 86:5.7370825336e+00 87:2.9827124613e+00 88:-4.9744668288e+00 89:-3.9253612617e+00 90:-5.1110996434e-01 91:-6.1477424908e+00 92:-4.4104137621e+00 93:1.2560336763e+00 94:-2.3075326073e+00 95:-3.5229589679e+00 96:3.7058815434e+00 97:7.5234839963e+00 98:-8.9138075007e+00 99:-2.7705799757e+00 100:-3.7853167984e+00 101:3.7004699645e+00 102:4.5482778655e+00 103:2.6150588541e+00 104:-2.0339817587e+00 105:-4.7069519101e+00 106:-1.6773295464e+00 107:7.6665981317e-01 108:-9.4242034643e-01 109:-1.2997456584e+00 110:-2.3524914617e+00 111:4.6092532068e+00 112:7.1764519563e+00 113:8.2903224622e+00 114:1.3703705550e+00 115:8.3203716787e+00 116:8.6915985260e+00 117:-8.7240741909e+00 118:2.4912673244e+00 119:1.1655038911e+01 120:-1.4731914077e+00 121:2.5288960966e+00 122:-4.7025143446e+00 123:2.3973293433e-01 124:1.0348346465e+01 125:4.1652233884e+00 126:2.1387050410e+00 127:6.9080079079e+00 128:9.5992457957e+00 129:4.8280934865e+00 130:1.4774555620e+00 131:-1.0985937358e+00 132:-3.6536311513e+00 133:-2.0880358820e+00 134:1.2800142629e+00 135:9.9944346549e+00 136:-7.7459529912e+00 137:-4.9065004430e+00 138:-3.9356450110e+00 139:-2.1437884688e+00 140:-1.8647650046e+00 141:-5.6506239016e+00 142:6.0837607385e+00 143:-1.6286199289e+00 144:-6.2115465188e+00 145:1.4687059144e+00 146:-6.3195079371e+00 147:6.7460503873e+00 148:-2.7155534212e+00 149:4.4929166384e+00 150:4.2878963392e+00 151:7.0815032016e+00 152:-9.2825138261e+00 153:-4.5103547399e+00 154:4.7332748556e+00 155:4.9375937631e+00 156:3.2284227921e+00 157:-3.0098206786e+00 158:1.4471339015e+00 159:5.1957679720e+00 160:6.9006674071e+00 161:-3.2535028846e+00 162:-3.2226346451e+00 163:-7.4234238218e+00 164:9.1883929631e+00 165:5.3383869660e+00 166:6.1430106299e+00 167:6.9382280556e+00 168:3.4385575678e-01 169:-8.4321700697e+00 170:3.1529758284e+00 171:4.1287957215e-01 172:-5.3690898249e-01 173:5.3969938644e+00 174:-8.0178560080e+00 175:2.9385458823e+00 176:3.4352281471e+00 177:7.1554945226e+00 178:1.1047052405e+00 179:-4.8445317274e+00 180:-5.6066892473e-01 181:-1.1584233302e+00 182:5.2457755180e+00 183:3.8332764310e+00 184:-4.5702262616e+00 185:-7.0019075596e+00 186:-5.6830229793e+00 187:-3.1768713825e+00 188:4.4711691350e+00 189:-9.0804248775e+00 190:1.5591504134e+00 191:7.8160269304e-02 192:9.1020501482e+00 193:1.0404784937e+01 194:8.3251651299e+00 195:3.2205728792e+00 196:5.1846897866e+00 197:9.7273384909e+00 198:2.3913743463e+00 199:1.2907113513e+00 200:-3.1246085535e+00 
