svm_type c_svc
kernel_type polynomial
degree 3
gamma 0.0050251256281407036
coef0 0
nr_class 2
total_sv 14
rho 0.21072138483333189
label 1 -1
nr_sv 8 6
SV
3.5085212826934289e-06 1:6.6160454 2:-3.8531197 3:-3.7760366 4:-2.4118162 5:3.5858516 6:9.5141779 7:-9.9900834 8:-5.5681801 9:5.2348503 10:7.8638364 11:-8.9048993 12:3.6843931 13:-7.4952228 14:-9.3129016 15:-3.1474977 16:4.6546974 17:6.197582 18:3.8052937 19:-5.0840091 20:-0.38503988 21:-2.9994385 22:2.4979577 23:-7.7625884 24:8.6001313 25:-1.4058966 26:3.2062396 27:-0.52843669 28:-1.5766689 29:6.4320584 30:4.7815937 31:8.0663267 32:3.7148684 33:6.0976369 34:7.5640636 35:5.281543 36:5.1620653 37:4.5030705 38:4.9927998 39:-7.5079428 40:-4.1201974 41:-1.6752116 42:1.5960234 43:-2.0950363 44:-8.2957516 45:2.1287694 46:8.7359276 47:-9.3184821 48:-3.3580835 49:-7.0167283 50:8.1354208 51:4.9598091 52:-2.5574318 53:6.6377694 54:-6.13858 55:-1.13443 56:-2.6911555 57:6.4793444 58:-5.7211905 59:-1.0153685 60:-6.5990334 61:6.4372825 62:-5.4653651 63:9.7719709 64:1.0558696 65:2.5914382 66:-1.4302297 67:-4.9497436 68:6.723812 69:8.6234151 70:-5.1253888 71:-0.48302104 72:3.347662 73:-0.83985986 74:4.9031463 75:-3.3382659 76:1.0887599 77:1.5150109 78:-12.138197 79:0.5267912 80:5.0195757 81:-4.4524175 82:-2.2715442 83:2.7892911 84:5.6361317 85:7.7220126 86:6.8383887 87:-3.8486579 88:-8.7346152 89:-0.87951043 90:-7.2051589 91:-4.5903487 92:-6.8053077 93:7.8321615 94:-8.0551694 95:-6.8342118 96:-5.3425626 97:10.912557 98:-8.0277205 99:-7.7595843 100:-2.529012 101:4.2827832 102:-4.5908709 103:6.7917031 104:-6.5248176 105:-5.6912873 106:-8.0640774 107:1.5004345 108:-4.6264204 109:-10.160762 110:6.2647524 111:8.6387119 112:6.0918203 113:7.3867745 114:-4.8482961 115:7.4157148 116:-9.8222787 117:-2.8125446 118:3.6884071 119:2.2110695 120:2.5271545 121:8.1571644 122:2.5892567 123:-7.0119861 124:-2.4264071 125:3.5129481 126:5.1345234 127:-9.9215938 128:-0.88747883 129:5.1961175 130:4.6484043 131:-4.004267 132:-2.9630938 133:8.70692 134:0.55319464 135:-4.3231362 136:6.7297593 137:-3.9785848 138:6.4475068 139:-8.5862746 140:-0.62733938 141:-11.380892 142:-6.4584758 143:5.791779 144:3.1068026 145:-0.24310527 146:-4.5487266 147:-1.881986 148:-8.338479 149:0.014947037 150:-2.8191071 151:-4.1984517 152:3.6997321 153:2.1766713 154:-3.4567352 155:-6.4723443 156:-6.8067931 157:6.2534348 158:-3.0549201 159:-3.4533973 160:1.9127106 161:5.4752023 162:6.50424 163:-10.547095 164:0.63831201 165:8.3877025 166:0.93585512 167:-3.7300651 168:-5.7522061 169:3.31378 170:-3.0092033 171:-8.0681331 172:-9.7648873 173:-6.0920024 174:6.9827926 175:-1.694872 176:-5.6830338 177:8.4655058 178:-4.5814412 179:-2.6542848 180:-4.9766613 181:1.9338957 182:5.2226771 183:4.766865 184:-0.14654833 185:3.5003792 186:-4.6122456 187:-3.8917252 188:0.36080895 189:9.9199341 190:6.7515023 191:-10.081673 192:-1.8813441 193:6.9913265 194:-6.4542103 195:1.7915049 196:-7.4792508 197:-9.0931033 198:-6.9516847 199:-5.0202311 200:-6.9258076 
1.38818801699838e-05 1:8.0293115 2:-2.1496309 3:-3.6131646 4:-3.0224928 5:4.1684521 6:11.147386 7:-9.1239917 8:-4.8911552 9:4.5557257 10:6.7047204 11:-7.5258184 12:4.1496232 13:-5.7607959 14:-8.8898216 15:-5.9937753 16:3.8679534 17:7.3410595 18:1.9572964 19:-5.6983139 20:-1.4458475 21:-3.4086222 22:3.6963375 23:-5.6313289 24:7.2820416 25:1.8280631 26:4.2533528 27:-0.83040858 28:-2.8388075 29:5.3202303 30:6.5465548 31:5.3934415 32:4.2865601 33:6.0416516 34:4.8399235 35:5.7934827 36:3.5717602 37:4.7339855 38:5.4390448 39:-7.727032 40:-4.7994286 41:-0.22467565 42:1.2684975 43:-1.4180753 44:-9.5778767 45:1.760349 46:7.5973376 47:-9.287874 48:-4.1521838 49:-6.4515192 50:6.797536 51:3.6611555 52:-2.9089074 53:7.5826791 54:-8.9204563 55:-1.8521561 56:-4.7705678 57:6.479092 58:-7.1039359 59:-2.9710312 60:-5.8629289 61:6.9306768 62:-5.425457 63:7.0641578 64:0.25043534 65:0.83657265 66:-0.82813679 67:-5.0173616 68:7.8395625 69:8.7174857 70:-3.5681696 71:-0.18005999 72:2.8160204 73:-0.98969829 74:5.7976201 75:-3.7589356 76:3.775389 77:1.0719845 78:-9.3451813 79:0.94185023 80:4.7398945 81:-4.6980599 82:-2.8786111 83:1.9359646 84:7.516022 85:6.845526 86:6.112435 87:-2.1517081 88:-9.3218569 89:-2.1323084 90:-7.8258074 91:-4.7742154 92:-6.0200428 93:8.8730918 94:-8.1348116 95:-4.6098329 96:-6.4009788 97:10.187591 98:-8.4682825 99:-7.6845691 100:-0.95114459 101:4.5563158 102:-2.5154661 103:6.4557314 104:-4.9695463 105:-4.4736704 106:-6.5443515 107:1.3814111 108:-4.1301504 109:-9.3598013 110:5.4338356 111:11.185111 112:5.5497551 113:9.5830485 114:-6.3297417 115:9.5052887 116:-7.11138 117:-5.1207194 118:4.7030696 119:2.2348628 120:2.6865272 121:8.5039259 122:4.3182702 123:-7.7162592 124:-2.2722827 125:3.313922 126:6.1797415 127:-7.42322 128:-1.5641301 129:6.0170004 130:5.2546275 131:-3.5984111 132:-4.1134519 133:10.288284 134:-0.55789628 135:-3.1252302 136:5.9918408 137:-1.9667576 138:5.9820929 139:-8.4900487 140:1.7746381 141:-10.293442 142:-5.4257183 143:5.7505007 144:5.181531 145:2.1176996 146:-7.398312 147:0.059868781 148:-7.8475076 149:-0.48776428 150:-2.182522 151:-1.9876365 152:4.1633792 153:4.9781413 154:-3.4421157 155:-9.2782753 156:-8.9585314 157:7.578282 158:-1.1391055 159:-2.9027195 160:0.63684916 161:4.298524 162:5.0985819 163:-9.2022907 164:2.3256213 165:8.3046231 166:0.95934742 167:-5.0324616 168:-6.858562 169:2.5338869 170:-2.2698678 171:-8.2755718 172:-8.2329595 173:-6.3946387 174:6.3677847 175:-3.2880948 176:-5.4365816 177:7.1631073 178:-2.325776 179:-4.7418771 180:-3.8672081 181:3.5998402 182:5.8856796 183:5.9096294 184:0.098218661 185:1.3713421 186:-5.1522951 187:-3.2388186 188:-0.69795854 189:8.4813969 190:5.2466652 191:-9.5603485 192:-3.31201 193:5.1928196 194:-7.5698243 195:0.33882881 196:-8.4616043 197:-8.5350119 198:-6.9098946 199:-4.7537841 200:-7.0780736 
5.0872788088355664e-06 1:10.151148 2:-4.8876817 3:-2.9999514 4:-4.474562 5:4.3786873 6:11.359625 7:-9.2545416 8:-6.2987094 9:7.8390793 10:6.2288004 11:-8.2521172 12:2.8461431 13:-8.3923488 14:-9.7641949 15:-5.851652 16:3.6019003 17:5.2800075 18:0.58856736 19:-7.1325897 20:-2.8700104 21:-0.75496533 22:1.2170901 23:-6.9050521 24:7.8541415 25:-0.08524645 26:3.5567932 27:0.30989109 28:-1.9636679 29:5.0638768 30:6.4450967 31:6.0505017 32:3.4187126 33:6.6351952 34:5.3568808 35:6.7423666 36:4.3076093 37:8.069552 38:6.1980736 39:-6.9119561 40:-4.4915821 41:-0.81327791 42:0.83933533 43:1.0118155 44:-8.751966 45:3.1451927 46:6.080527 47:-9.3828179 48:-3.7407192 49:-7.9946854 50:7.9845753 51:3.5519739 52:-2.4663119 53:6.7080417 54:-9.6577506 55:-2.7288022 56:-3.714442 57:8.4656475 58:-8.4231095 59:-0.72447568 60:-6.0175683 61:6.2772102 62:-5.6315931 63:10.75162 64:0.22075742 65:2.7043151 66:0.80603366 67:-4.8354772 68:8.0381212 69:8.8227815 70:-4.0680248 71:-0.24891972 72:2.9916066 73:-2.775943 74:4.3557309 75:-3.9310842 76:1.5460435 77:1.4041619 78:-9.0677783 79:2.0260101 80:5.6168799 81:-3.9028963 82:-4.0535552 83:3.4137608 84:5.3694089 85:6.9286991 86:7.1522127 87:-2.8860813 88:-9.7276584 89:-1.5071543 90:-7.9201527 91:-3.4509743 92:-7.7523973 93:8.5808853 94:-8.7617967 95:-2.4216245 96:-6.9068317 97:8.8351141 98:-7.4027212 99:-5.8734136 100:-2.6196022 101:5.3739412 102:-3.5910843 103:8.1054466 104:-7.5513337 105:-5.6353996 106:-6.2625754 107:0.30683739 108:-2.7295649 109:-9.9693537 110:7.1137583 111:6.6145481 112:7.2761545 113:6.9819503 114:-6.7822016 115:6.9954703 116:-8.0131149 117:-4.9298294 118:4.2424852 119:1.6296566 120:5.2460375 121:7.7256246 122:3.2083463 123:-6.0298401 124:-2.7206184 125:3.135885 126:3.9307691 127:-7.9643777 128:-0.75513548 129:7.2281859 130:6.7806436 131:-3.8305957 132:-2.1259678 133:9.6843534 134:1.1322097 135:-2.1206305 136:8.0364673 137:-2.7671594 138:6.4477799 139:-9.0114923 140:-1.0542043 141:-9.7106329 142:-10.31355 143:6.0047586 144:2.4137885 145:1.0383977 146:-5.6010264 147:-2.1570467 148:-7.8172094 149:-2.8338971 150:-1.5992698 151:-3.7590675 152:4.1779257 153:5.4070609 154:-3.299576 155:-6.5453617 156:-6.6048965 157:6.3733943 158:-2.6597321 159:-2.1228989 160:2.7395562 161:5.282293 162:6.3948527 163:-9.193898 164:1.2501135 165:7.9060922 166:1.9895907 167:-4.1167769 168:-5.2751099 169:2.3877871 170:-2.3142668 171:-8.12347 172:-7.44652 173:-5.9465357 174:7.4343282 175:-1.2847503 176:-4.8848534 177:6.4679357 178:-4.2548996 179:-3.9811989 180:-4.2350045 181:2.5672343 182:5.7489205 183:4.5663212 184:-0.21897898 185:2.2690975 186:-3.5578362 187:-4.6420662 188:-1.1832506 189:8.3412037 190:7.4243455 191:-10.603454 192:-4.8821711 193:3.50152 194:-5.6419765 195:-0.44327358 196:-5.7517061 197:-7.0536738 198:-7.587567 199:-4.4877611 200:-6.219119 
1.4341015886419322e-06 1:7.8532768 2:-3.747933 3:-3.8767319 4:-4.1548005 5:2.7340912 6:9.5382853 7:-11.456504 8:-4.492883 9:8.4002442 10:4.7375024 11:-7.4218438 12:3.0615457 13:-8.7995646 14:-7.5440048 15:-2.87862 16:2.7315112 17:5.0125413 18:4.2009346 19:-6.1232845 20:-1.1629839 21:-2.1772495 22:4.8842376 23:-7.0637603 24:9.0969338 25:0.22203315 26:4.6100945 27:-0.80509074 28:-2.4194631 29:6.5742711 30:6.8546894 31:6.9166581 32:4.3796415 33:6.5210548 34:3.9828928 35:6.4206208 36:4.2429163 37:5.006035 38:3.8930438 39:-6.9128018 40:-1.8275032 41:1.4375826 42:1.3521485 43:-0.61543516 44:-7.9428487 45:3.3659095 46:6.6725205 47:-9.0947929 48:-2.713582 49:-6.9219668 50:7.9901012 51:2.6018757 52:-3.3191867 53:5.0619836 54:-8.4502834 55:-2.9356709 56:-5.2338085 57:7.6431591 58:-10.046827 59:-0.55138125 60:-4.172082 61:8.7744797 62:-4.6551483 63:9.8851113 64:0.98797791 65:1.8584114 66:-3.312616 67:-6.9258075 68:6.4684919 69:9.0944415 70:-4.1187818 71:-0.45461436 72:3.5369038 73:-0.14906358 74:3.4159654 75:-2.4606393 76:2.4091628 77:2.4611202 78:-6.5811336 79:0.2759444 80:6.6199456 81:-5.4671975 82:-3.2871797 83:2.5066806 84:6.8749205 85:6.0882146 86:7.6910307 87:-2.2771614 88:-9.0929736 89:-0.90002087 90:-4.8237958 91:-6.0835475 92:-6.8943978 93:8.36597 94:-8.0131541 95:-6.3713507 96:-7.3037745 97:9.1374981 98:-8.3631957 99:-7.2833855 100:-1.3514623 101:6.0392184 102:-2.2016063 103:5.7044388 104:-7.5432935 105:-6.25647 106:-7.6839475 107:1.5662338 108:-3.0754377 109:-9.2692751 110:5.4933939 111:7.9994625 112:7.1721731 113:8.8249258 114:-5.6644887 115:8.1590268 116:-7.562477 117:-3.7502107 118:4.6183992 119:2.3449281 120:3.6597306 121:8.6991428 122:4.4916252 123:-5.8630317 124:-3.7806553 125:4.8662719 126:5.8629425 127:-9.366047 128:-0.64973922 129:5.8377297 130:7.3737942 131:-1.4224627 132:-3.3463112 133:9.9606271 134:-1.4995377 135:-2.6191025 136:8.2325199 137:-2.5053967 138:6.9460293 139:-7.8070059 140:0.15773271 141:-10.826305 142:-6.9476477 143:6.3727741 144:4.6530243 145:-1.2120007 146:-5.8480236 147:-1.3850151 148:-6.0094734 149:-3.7401141 150:-2.7126368 151:-3.5439056 152:6.4571406 153:1.8685129 154:-2.4129275 155:-8.665625 156:-6.0340494 157:6.0380281 158:-0.46934623 159:-4.0450158 160:1.6658509 161:3.265463 162:8.8078297 163:-8.4204186 164:2.3420791 165:8.263178 166:2.5551984 167:-4.5539142 168:-4.3826348 169:3.9935936 170:-2.2467997 171:-8.6229519 172:-9.8976699 173:-6.3462062 174:7.3309358 175:-4.8292268 176:-5.1666546 177:8.6392978 178:-2.9554128 179:-4.0274609 180:-3.7060842 181:1.2075825 182:5.086552 183:7.1663672 184:-2.0173837 185:1.2335103 186:-4.6555216 187:-3.056199 188:-1.1245058 189:9.2449178 190:7.6195511 191:-10.841306 192:-3.6523044 193:6.8187532 194:-5.6359651 195:0.22900461 196:-6.3895331 197:-9.7353203 198:-7.3396055 199:-3.9046303 200:-5.8266888 
5.0416573376285225e-07 1:7.9884288 2:-4.4087894 3:-4.3343475 4:-3.6773452 5:4.8071588 6:9.0621191 7:-9.677478 8:-3.9839681 9:5.4574955 10:5.6274429 11:-5.154522 12:2.8271984 13:-7.9631447 14:-11.210211 15:-3.5029615 16:5.0697237 17:5.9447454 18:1.9710268 19:-6.1183864 20:-0.5535709 21:-1.1886454 22:1.3676554 23:-7.0366559 24:9.3015923 25:1.2925489 26:6.4729119 27:0.84291761 28:-1.9708059 29:3.3585232 30:7.0346168 31:7.5472453 32:3.6098927 33:5.1359811 34:6.7863958 35:7.0287138 36:3.8841593 37:7.9564921 38:5.4918514 39:-7.5120424 40:-4.5534648 41:-2.5091478 42:1.581336 43:-1.1011389 44:-8.3969896 45:1.0839746 46:7.9422759 47:-9.6407269 48:-3.9613958 49:-9.2474402 50:6.9254112 51:4.6058855 52:-3.8453366 53:8.0506903 54:-9.1305586 55:-1.7459855 56:-3.269108 57:9.3301541 58:-7.66596 59:-2.7148566 60:-6.404131 61:8.1715541 62:-4.8510079 63:7.3995611 64:0.17052123 65:1.8252893 66:-1.0760409 67:-5.4002374 68:7.7260686 69:9.1857221 70:-2.6648508 71:2.145731 72:4.7502387 73:-0.54057808 74:4.9926218 75:-1.3521692 76:2.7511003 77:1.60172 78:-9.3501443 79:1.731464 80:5.7776144 81:-5.555898 82:-2.0145323 83:2.6251451 84:5.072971 85:6.4083846 86:8.135624 87:-2.3604169 88:-7.2864284 89:-2.5814206 90:-4.7046999 91:-4.4797989 92:-7.1025566 93:9.8208144 94:-6.8405728 95:-5.5109939 96:-6.4680658 97:8.5464086 98:-8.5550624 99:-6.1400882 100:-0.8860173 101:4.3818385 102:-3.4899844 103:5.1541336 104:-6.5164098 105:-5.5206241 106:-7.5805547 107:1.5449991 108:-2.6294458 109:-9.622428 110:2.6088705 111:8.5741719 112:3.864475 113:7.8696856 114:-5.2303733 115:10.323989 116:-9.3863211 117:-3.8662479 118:5.8247126 119:1.8606806 120:4.4016551 121:10.168834 122:2.6598815 123:-5.3697672 124:-5.3841117 125:2.1837035 126:7.6821068 127:-6.8441809 128:-0.91558858 129:6.4776442 130:6.6386664 131:-0.24595069 132:-2.2259553 133:10.420666 134:0.36053082 135:-1.0328388 136:5.2703042 137:-0.50157963 138:8.7926518 139:-8.1604649 140:1.0633558 141:-7.4982916 142:-7.0828491 143:5.0314155 144:1.9564545 145:0.90232083 146:-4.9941271 147:-2.2922787 148:-7.5808122 149:-0.060100351 150:0.00091815408 151:-4.6055809 152:4.870795 153:4.1076998 154:-3.7470274 155:-9.4803335 156:-8.2319031 157:8.4265595 158:-1.490615 159:-1.9381732 160:1.0719557 161:5.1788008 162:7.195684 163:-6.9834586 164:2.985658 165:9.1873053 166:2.840547 167:-4.8894711 168:-4.6923052 169:3.0637856 170:-2.6888616 171:-10.546337 172:-9.6826994 173:-5.3812785 174:7.1640504 175:-2.4342052 176:-4.6071907 177:8.6119797 178:-2.192549 179:-3.9146843 180:-4.9279458 181:2.6830522 182:6.9154349 183:7.1831997 184:-0.74833423 185:1.5034052 186:-5.3587333 187:-4.956424 188:-1.3970694 189:8.7524106 190:5.8824032 191:-8.4661762 192:-3.7605872 193:6.9043196 194:-7.3473154 195:0.97182866 196:-7.7217857 197:-7.2000731 198:-7.7359406 199:-2.9269016 200:-7.6105242 
1.1554233642833516e-06 1:6.5428584 2:-3.5214899 3:-5.4005969 4:-4.4816982 5:4.1156484 6:9.986493 7:-9.6973822 8:-6.5065191 9:8.3680498 10:6.2736965 11:-6.501486 12:2.7357325 13:-7.3554477 14:-9.6628391 15:-4.4414576 16:3.9498124 17:5.3921298 18:1.5407836 19:-6.4713836 20:-2.3694583 21:-1.8368792 22:3.6607333 23:-7.2571524 24:10.048671 25:-0.47786137 26:3.9456037 27:1.7554954 28:-2.9798661 29:4.8336778 30:8.5260177 31:5.6998827 32:5.7135402 33:5.6706881 34:4.883232 35:6.2027816 36:3.1926036 37:4.5438813 38:6.1697177 39:-8.9570964 40:-3.7314195 41:-1.0117985 42:1.3778022 43:-0.64415952 44:-8.3086217 45:4.2106618 46:6.0630709 47:-9.4539943 48:-4.922082 49:-8.0272078 50:8.9743472 51:4.188579 52:-4.0318412 53:5.9738157 54:-7.1667973 55:-3.205324 56:-2.4210428 57:8.4351236 58:-7.8367985 59:-1.1928326 60:-5.1399244 61:6.5990965 62:-5.9017404 63:8.780129 64:1.4121845 65:0.034969936 66:-1.9850957 67:-6.8422494 68:8.4212757 69:7.8846675 70:-5.2936228 71:-0.79230122 72:4.3210867 73:-2.5552392 74:6.1358129 75:-5.4501257 76:2.5239281 77:2.1196392 78:-8.6152838 79:0.59876363 80:4.5329848 81:-4.550539 82:-3.2935061 83:1.5019576 84:4.7658515 85:6.1275291 86:8.0270185 87:-2.1820966 88:-8.9333731 89:1.7124479 90:-6.775039 91:-3.3407106 92:-7.4923894 93:5.5230094 94:-7.7144421 95:-4.6848811 96:-6.8178517 97:9.8795763 98:-9.3927295 99:-7.2835278 100:-1.7537705 101:2.8439335 102:-5.1069463 103:6.5107624 104:-7.1675192 105:-5.6787489 106:-7.4800276 107:0.81065018 108:-3.6192547 109:-9.2148885 110:4.2754698 111:8.7390391 112:8.5721641 113:8.6280806 114:-6.2255341 115:9.1157594 116:-6.5571216 117:-3.3643288 118:2.9331007 119:2.2161385 120:3.2767256 121:7.9684663 122:0.77158013 123:-6.4480282 124:-3.8845248 125:4.5878542 126:5.095995 127:-7.6474646 128:-1.5051838 129:5.7599899 130:4.9716075 131:-4.8386259 132:-2.7145505 133:7.008008 134:-0.53830061 135:-2.8035497 136:5.7210948 137:-2.5953682 138:6.7589707 139:-8.3288404 140:1.9317515 141:-10.330357 142:-8.1096488 143:6.1795022 144:3.5742572 145:2.6701321 146:-4.3161708 147:-1.3261015 148:-7.5099936 149:-1.4501011 150:-2.1829544 151:-1.7446388 152:4.9972118 153:3.8056677 154:-4.3586933 155:-8.8951448 156:-7.7113972 157:7.3305879 158:-1.934223 159:-2.9907944 160:3.4045657 161:3.9542323 162:8.6896873 163:-8.8937295 164:1.3774179 165:8.530459 166:1.5319582 167:-2.0421954 168:-5.2665723 169:4.7931345 170:-1.893202 171:-9.9642862 172:-8.5170555 173:-7.0870543 174:7.4288436 175:-3.2955228 176:-4.0974916 177:6.1641648 178:-3.1648512 179:-2.3862301 180:-3.219506 181:2.8914382 182:6.2909382 183:4.759146 184:-0.77229638 185:3.7917526 186:-5.7250652 187:-3.4207465 188:0.0034849191 189:10.253061 190:5.3998876 191:-9.5031965 192:-2.3605067 193:7.5351006 194:-5.9250504 195:1.6467816 196:-8.6355837 197:-9.2996491 198:-8.3255012 199:-2.8780449 200:-6.6228315 
7.3220762281658968e-06 1:8.0920397 2:-3.0612417 3:-4.3277481 4:-2.2215751 5:3.4298269 6:9.6320798 7:-9.0404131 8:-4.836922 9:5.4728751 10:4.0476531 11:-7.2880684 12:3.2624407 13:-7.4401282 14:-9.3403655 15:-5.1293749 16:4.1827805 17:7.4631076 18:2.2675553 19:-7.8294469 20:0.10068165 21:-0.37848112 22:0.87433715 23:-5.567283 24:8.1239438 25:1.0679197 26:3.4059148 27:1.5368263 28:-1.3398779 29:5.5584201 30:6.8707854 31:5.4634318 32:3.2568167 33:5.7470731 34:5.6360248 35:8.0806426 36:4.9758469 37:5.588035 38:7.8774943 39:-9.3513878 40:-3.3785392 41:-2.6414476 42:0.23159366 43:-1.3554688 44:-8.6680432 45:2.3076494 46:6.1480026 47:-9.275362 48:-4.7161747 49:-8.1561899 50:6.9564354 51:5.8108044 52:-3.0886842 53:6.3436124 54:-8.5353998 55:-2.154391 56:-3.8870627 57:8.179602 58:-8.7851468 59:-1.5923343 60:-7.9482245 61:7.0425584 62:-4.6799328 63:9.8019559 64:2.5134228 65:2.1240147 66:-1.8360151 67:-4.2349215 68:7.4564355 69:8.5958513 70:-3.5612594 71:0.29650794 72:2.2295236 73:-1.415293 74:2.8546598 75:-3.7555938 76:1.1117586 77:0.16139293 78:-9.8821817 79:1.428686 80:6.6536288 81:-4.4744588 82:-3.3354051 83:2.0570015 84:6.3819343 85:8.1189671 86:5.9466281 87:-1.7772164 88:-6.3939452 89:-1.0514241 90:-7.4159191 91:-4.737449 92:-6.1507953 93:7.8347053 94:-9.9309454 95:-6.2631061 96:-6.3460468 97:11.101753 98:-7.128604 99:-5.4038117 100:-1.6443373 101:3.6888936 102:-3.8630895 103:5.9349642 104:-6.8983795 105:-4.9084496 106:-6.7692991 107:2.5599097 108:-2.7239451 109:-7.736605 110:6.1193261 111:8.8220451 112:4.958015 113:8.1966098 114:-7.1782061 115:7.9980886 116:-8.5176878 117:-3.74536 118:5.0253519 119:3.151569 120:2.0979784 121:9.1505604 122:2.1519182 123:-7.0754084 124:-3.1648724 125:3.168644 126:7.3465586 127:-6.2360223 128:-1.0505288 129:5.7465031 130:6.8000853 131:-3.5372895 132:-2.8172366 133:8.3265103 134:-0.43323972 135:-2.8972128 136:5.9153914 137:-2.1542312 138:8.1704375 139:-9.1330166 140:0.95665592 141:-10.043496 142:-4.9696095 143:6.1835809 144:4.467136 145:2.0775261 146:-6.5406737 147:-4.4070154 148:-6.0087709 149:-0.68564305 150:-2.7284918 151:-2.9188536 152:5.9656952 153:3.7476357 154:-4.21045 155:-7.6763231 156:-9.1311211 157:7.6080637 158:-1.8581598 159:-1.5570501 160:0.90097333 161:4.4162275 162:7.2836151 163:-7.9661227 164:1.6036081 165:9.4151591 166:2.0931627 167:-3.6023458 168:-5.0437568 169:3.410515 170:-3.316172 171:-10.592921 172:-7.1171302 173:-7.5790018 174:7.7533373 175:-3.5063374 176:-3.9800372 177:7.8211995 178:-3.9472022 179:-2.41658 180:-6.1912209 181:3.6668341 182:6.2240526 183:4.7768218 184:0.063098696 185:3.1586456 186:-3.2754966 187:-4.9237176 188:-0.70878145 189:9.6714535 190:7.5202263 191:-8.9353466 192:-3.2808419 193:7.1599337 194:-5.148616 195:1.1386553 196:-8.0706321 197:-8.5817339 198:-5.7538342 199:-3.1809355 200:-5.7388329 
2.1833975554190037e-06 1:8.4277511 2:-4.2734454 3:-4.8887568 4:-2.235119 5:6.5223566 6:8.9629759 7:-10.235475 8:-6.1509262 9:8.0413675 10:5.5755244 11:-7.7416339 12:4.6747092 13:-6.5498614 14:-9.7411905 15:-4.9434184 16:2.3286983 17:5.645787 18:1.882646 19:-5.6811248 20:-1.7555172 21:-2.5075725 22:1.3297997 23:-5.7707807 24:9.6704121 25:1.2661005 26:5.9262292 27:0.62297014 28:-0.1859193 29:3.0988228 30:5.8975268 31:5.5963637 32:3.63916 33:5.9140443 34:6.5982759 35:7.5801766 36:2.9199811 37:5.2269842 38:5.6927736 39:-7.1484606 40:-2.8801543 41:-0.75346028 42:0.37200653 43:-4.751164 44:-7.9266385 45:3.9231568 46:6.1017533 47:-10.451283 48:-5.5656121 49:-9.6991398 50:6.8256859 51:3.8743564 52:-2.1149772 53:6.8985543 54:-10.677787 55:-0.51263428 56:-2.4159816 57:7.1368324 58:-7.9652057 59:-0.77395044 60:-4.9269122 61:9.7936695 62:-5.5932787 63:8.5630864 64:0.87013423 65:0.35479909 66:-2.279898 67:-5.2309559 68:7.5986196 69:8.2619101 70:-4.6229381 71:0.16287908 72:2.8867437 73:-2.4704929 74:3.770598 75:-3.8640794 76:0.76914542 77:1.7661871 78:-7.6276477 79:0.39430619 80:5.8291229 81:-5.178958 82:-3.4909057 83:2.8342988 84:4.8325625 85:6.7838066 86:6.1562749 87:-4.6885209 88:-8.0504938 89:0.3889018 90:-5.3146002 91:-5.0814237 92:-8.3370864 93:7.1755858 94:-6.79548 95:-4.2126948 96:-8.8631697 97:8.2901228 98:-7.3082671 99:-7.5729775 100:-0.94107855 101:3.9946585 102:-4.0630803 103:6.4480805 104:-7.0401801 105:-5.8538217 106:-6.6941715 107:0.79081036 108:-4.1421109 109:-8.5130416 110:5.3042592 111:10.791807 112:5.1927569 113:7.6002808 114:-4.8469182 115:11.245988 116:-7.2152256 117:-3.9840986 118:5.7778067 119:4.4789336 120:3.8758286 121:8.2038675 122:3.7424448 123:-7.2891224 124:-4.0101504 125:4.4485316 126:6.2595042 127:-6.0779714 128:-0.04712064 129:7.3398935 130:4.3110124 131:-5.2025256 132:-2.0910029 133:9.5966278 134:0.11117087 135:-2.5379223 136:5.5157379 137:-3.586764 138:5.8240072 139:-8.993319 140:2.2145436 141:-9.3859902 142:-5.3640158 143:6.1318775 144:2.7570137 145:-0.19358883 146:-5.2957935 147:-1.6570365 148:-8.217426 149:-1.7323143 150:-1.0562212 151:-2.1575266 152:5.4182819 153:4.3414988 154:-4.3416065 155:-8.8515643 156:-6.9742556 157:8.0556772 158:-0.15159319 159:-3.6018148 160:3.1091485 161:4.6767519 162:8.018193 163:-9.4546505 164:3.6095646 165:9.6713931 166:0.70091073 167:-4.0962936 168:-6.0753506 169:2.3668919 170:-1.5457844 171:-10.294725 172:-7.0516863 173:-4.7291362 174:8.3464573 175:-4.0425998 176:-6.2192688 177:5.8656928 178:-3.8086026 179:-4.5849855 180:-3.5739965 181:2.2048577 182:5.9591216 183:4.2865428 184:-0.82626917 185:1.6107402 186:-5.14202 187:-3.2075997 188:-1.4984145 189:8.316763 190:7.5695672 191:-9.4405474 192:-0.05976722 193:6.7604084 194:-6.4567085 195:0.53794552 196:-6.2933919 197:-9.8535728 198:-8.2480699 199:-3.5086881 200:-8.4711023 
-1.3790250297778653e-05 1:4.5298149 2:2.2054182 3:8.5287882 4:9.3255839 5:-6.8680759 6:0.30683739 7:-2.205222 8:-1.6359122 9:-5.0772742 10:-7.1465884 11:6.1311022 12:-6.4304094 13:-8.3170104 14:-5.4728257 15:-5.7423612 16:5.7482504 17:-2.2246114 18:4.5933025 19:0.57564324 20:-1.8203462 21:-1.7901839 22:-9.0960246 23:-8.3909809 24:-3.8002254 25:-4.1875823 26:4.9261814 27:6.6541573 28:-0.023266894 29:-8.361463 30:7.967831 31:-2.2901576 32:-2.3698745 33:-7.8466403 34:2.0648271 35:-5.0136399 36:-2.7954701 37:4.8998524 38:3.3722248 39:2.4420441 40:-8.1009898 41:-2.3602077 42:2.4192323 43:-6.3584257 44:8.949116 45:10.292725 46:-1.3019602 47:6.8454497 48:-6.9533435 49:-4.2343284 50:2.2712406 51:-7.646185 52:6.2518232 53:5.4140502 54:-7.4885873 55:8.6840858 56:4.6174735 57:-2.0243121 58:5.839286 59:4.09084 60:-3.8380922 61:5.5247899 62:-0.088156546 63:-2.9196293 64:-2.2846534 65:-2.1827061 66:-5.9040171 67:-10.312614 68:-9.212173 69:9.44864 70:9.9350169 71:7.2945019 72:6.3419018 73:-0.54445643 74:8.5423059 75:0.2619404 76:4.2845602 77:-2.8586102 78:-2.5631536 79:8.6743266 80:8.0908297 81:-0.32308986 82:2.8945155 83:-7.1642505 84:-2.3628015 85:0.059821467 86:7.8106703 87:1.3255349 88:-1.4578628 89:-2.8501532 90:1.5889687 91:-4.1456876 92:-5.8830953 93:-0.38232889 94:-3.2139736 95:-3.6651498 96:3.4140904 97:6.2708834 98:-11.405301 99:-5.7327749 100:-4.5386842 101:2.9092031 102:5.6316927 103:0.70092856 104:-3.1039038 105:-4.2787651 106:-2.9514881 107:-0.013293151 108:-0.99323779 109:-1.5093617 110:-2.0315877 111:5.1064491 112:7.5561731 113:10.334178 114:1.2119722 115:6.4379005 116:7.8390498 117:-6.7434746 118:1.1654174 119:9.7560268 120:0.67530126 121:3.140776 122:-5.7175333 123:1.5951457 124:9.4240576 125:3.7848591 126:1.3252571 127:6.859442 128:7.9819277 129:4.5522846 130:0.65171141 131:-0.89565912 132:-3.5789281 133:-1.6084073 134:0.56548991 135:9.5057897 136:-5.8680872 137:-4.5687047 138:-3.9215311 139:-2.2858025 140:-1.9267973 141:-3.8741591 142:3.7708829 143:-1.7532463 144:-2.2785975 145:-0.34372784 146:-4.222826 147:6.7325294 148:-2.8371631 149:3.7858606 150:4.3457724 151:4.7919053 152:-8.7057364 153:-4.37221 154:5.4887085 155:5.4623542 156:1.4906045 157:-3.9247691 158:3.1440613 159:3.4216705 160:8.092883 161:-4.4929328 162:-3.8244568 163:-5.2199252 164:9.1965095 165:5.9611727 166:6.6399775 167:8.2125506 168:1.9976127 169:-8.0498678 170:1.2267408 171:3.5604567 172:-0.30665746 173:2.6934898 174:-8.7604128 175:1.4820822 176:2.8431892 177:7.0850409 178:1.9500051 179:-3.7660925 180:0.15120283 181:-0.12628116 182:6.4001458 183:2.8296339 184:-5.2678016 185:-7.0283069 186:-5.7214099 187:-1.6654573 188:3.3254008 189:-9.3582595 190:2.0192097 191:0.5656157 192:8.8003657 193:9.082139 194:6.6388502 195:2.7212622 196:4.6331169 197:9.1742266 198:3.451342 199:1.7168481 200:-2.585196 
-4.1233172228480299e-06 1:5.2670705 2:5.0911915 3:7.0938247 4:7.266957 5:-9.9404065 6:0.31592123 7:-4.8498383 8:-4.406064 9:-5.2111657 10:-5.7297417 11:7.9543335 12:-5.0628092 13:-7.8729337 14:-4.3892519 15:-7.0034395 16:4.4085522 17:-4.0571541 18:4.0911844 19:0.17741149 20:-1.7313754 21:-3.6371133 22:-10.828772 23:-9.4547835 24:-2.7112466 25:-1.664423 26:5.856531 27:7.9705641 28:-0.91655951 29:-10.393634 30:6.2556554 31:-1.5240979 32:-2.5375611 33:-8.7571682 34:2.1861229 35:-5.5317633 36:-2.0747241 37:5.12293 38:4.0180572 39:1.8602936 40:-8.7207797 41:-3.3763288 42:2.7215505 43:-7.6891267 44:9.1391478 45:8.3351714 46:-1.9184303 47:7.6654707 48:-7.8452543 49:-3.4190436 50:1.3523275 51:-7.2136001 52:4.8401713 53:6.7586663 54:-6.4526881 55:6.0723408 56:4.0240486 57:-2.2765839 58:7.1368478 59:2.7881131 60:-1.1354076 61:6.4050289 62:-0.37780465 63:-2.2567676 64:-2.3210287 65:-2.2881703 66:-6.1635766 67:-8.9557112 68:-8.4854515 69:8.8285794 70:6.8402615 71:7.1491675 72:8.7088441 73:-0.15352686 74:6.450047 75:-0.79291999 76:5.444743 77:-1.4451283 78:-3.3006616 79:8.2949354 80:9.4078061 81:-0.81719459 82:3.0235236 83:-9.2158078 84:-1.5406453 85:1.8032934 86:7.4685953 87:2.2872714 88:-4.4911844 89:-3.6846796 90:0.60301185 91:-4.5115428 92:-5.0110986 93:-0.52009232 94:-2.4556646 95:-4.9398959 96:4.4338644 97:6.5554851 98:-9.0178743 99:-4.9564327 100:-1.2648854 101:2.9351171 102:4.6196419 103:0.002313705 104:-2.8552393 105:-6.5557561 106:-3.0985375 107:0.57594405 108:-0.74609651 109:-0.567749 110:-0.67637554 111:5.5302744 112:6.7973651 113:8.8591899 114:2.7665603 115:7.7272356 116:8.3729311 117:-11.120337 118:0.60617177 119:9.8451294 120:0.43979705 121:1.1574703 122:-4.824654 123:1.520672 124:9.1301581 125:5.3122446 126:0.15392453 127:6.9664599 128:8.9597078 129:4.7693582 130:-0.043838209 131:0.66819675 132:-2.1477763 133:0.12119083 134:1.4652836 135:8.4110118 136:-7.9969299 137:-3.8692437 138:-4.0367464 139:-5.2241124 140:-0.11727302 141:-4.0057796 142:6.3666139 143:-1.3978131 144:-6.8054981 145:0.7354438 146:-7.0627764 147:7.9350416 148:-2.6250421 149:6.4325689 150:4.827395 151:7.1524125 152:-9.8283896 153:-1.9231921 154:4.6246083 155:6.7874295 156:1.3455814 157:-4.6564534 158:1.1330323 159:3.8257168 160:6.7090425 161:-3.2588123 162:-1.8632145 163:-4.7673178 164:7.3911081 165:4.106706 166:6.1645433 167:6.1657658 168:0.56925923 169:-5.9753027 170:3.5926168 171:2.898413 172:-1.8891808 173:2.8331567 174:-6.8293462 175:3.938921 176:3.3073448 177:6.1342826 178:1.6691931 179:-4.7718013 180:-1.9835707 181:-0.18812399 182:6.0627535 183:3.5389846 184:-4.5675034 185:-6.5340199 186:-3.6857631 187:-2.6025523 188:1.7555456 189:-10.278291 190:2.6796127 191:-0.039568471 192:8.3872178 193:9.9083954 194:7.0841442 195:2.5335338 196:5.2693011 197:5.8353359 198:1.1196208 199:0.68463717 200:-3.1761195 
-7.4151768775358225e-06 1:4.0072241 2:4.9919686 3:7.5846275 4:10.963141 5:-7.8584648 6:0.54590042 7:-3.6022016 8:-0.39992457 9:-5.870557 10:-5.0805352 11:6.5136772 12:-5.6316505 13:-5.8372926 14:-3.344629 15:-7.5424486 16:2.83333 17:-4.2124059 18:5.5450476 19:-0.72450854 20:-3.2771688 21:-0.254631 22:-8.583598 23:-9.5082574 24:-2.6731527 25:-1.0375167 26:4.7950719 27:7.1008015 28:-0.89065681 29:-9.6274556 30:7.0746671 31:-1.5945971 32:-0.081052289 33:-7.8230827 34:3.8040216 35:-5.2475129 36:-3.571464 37:6.2010144 38:3.0849858 39:3.4609577 40:-8.3716304 41:-3.7701472 42:3.7669303 43:-7.1719588 44:8.8462681 45:9.4653112 46:-2.3713769 47:5.7952421 48:-8.7565574 49:-5.8528677 50:2.1870629 51:-6.0161931 52:5.3045404 53:5.9443603 54:-7.5338325 55:7.3079225 56:4.4421897 57:-1.7816574 58:8.2118585 59:0.61424516 60:-2.3026016 61:6.2041572 62:-1.6472706 63:-5.2421855 64:-3.8871373 65:-1.0692207 66:-4.8177432 67:-9.7891485 68:-10.150465 69:9.9330849 70:9.069904 71:9.0774732 72:8.0885746 73:-0.13535926 74:8.1446155 75:-1.4692513 76:5.5930718 77:-3.2308148 78:-1.4113491 79:8.313774 80:8.5139704 81:-2.9620621 82:1.6342627 83:-9.4100545 84:-2.7843787 85:-0.40244882 86:7.7640226 87:4.3424869 88:-5.2395954 89:-3.4305914 90:1.0241185 91:-5.1468369 92:-4.3252153 93:2.0269608 94:-3.9924037 95:-3.765215 96:2.4908734 97:7.0699486 98:-9.7403844 99:-3.5503734 100:-5.0998773 101:3.5547883 102:3.2829493 103:0.086561845 104:-3.0342113 105:-6.4763248 106:-1.4352282 107:2.0310369 108:-0.65995691 109:-2.9677383 110:-1.4546383 111:5.1352013 112:8.2230658 113:7.8068213 114:-0.23252049 115:7.4182219 116:8.2670379 117:-6.7268587 118:1.0248583 119:7.3868172 120:0.71246759 121:1.4697797 122:-3.2140658 123:3.525317 124:7.9555001 125:4.1364803 126:0.99250567 127:6.6463717 128:8.1429359 129:5.5382341 130:0.66804109 131:0.70242117 132:-2.4656473 133:-1.2297987 134:2.5665606 135:9.7528334 136:-5.9429024 137:-2.4095068 138:-3.864724 139:-2.6542481 140:-1.6050765 141:-4.1638296 142:4.3522715 143:-2.8405496 144:-2.9619279 145:0.057651891 146:-4.2976822 147:8.8834813 148:-1.1750089 149:3.7140335 150:5.597522 151:6.3591956 152:-10.762913 153:-2.6884089 154:3.2212848 155:5.9975449 156:1.8472993 157:-5.5405912 158:3.6168756 159:4.747846 160:8.0777951 161:-4.3040395 162:-1.5629307 163:-6.7112185 164:7.5987364 165:5.0944361 166:5.3798637 167:6.6117943 168:-0.023270133 169:-6.7507719 170:2.1691511 171:2.6861239 172:-1.2765327 173:4.0393282 174:-9.2547673 175:1.2699747 176:3.6035075 177:4.5276655 178:2.0996222 179:-3.9009918 180:-0.00055551637 181:0.67957333 182:5.2326695 183:1.9120587 184:-4.2723528 185:-5.9238676 186:-6.1383787 187:-3.4450129 188:2.7019495 189:-10.788885 190:-0.33606043 191:-0.020924822 192:8.2677131 193:8.6870537 194:7.6593278 195:1.8456286 196:5.5109471 197:7.3923247 198:2.5422775 199:1.524097 200:-1.1468956 
-1.0552575507786544e-06 1:4.8318882 2:2.9018672 3:7.6738618 4:9.002196 5:-8.0638064 6:1.6377979 7:-2.0481755 8:-2.457785 9:-4.5276311 10:-4.9208555 11:7.0407473 12:-5.8185315 13:-7.9871219 14:-5.2390936 15:-6.3572865 16:1.7334802 17:-4.2148723 18:4.8597086 19:-1.4439849 20:-2.5377291 21:-0.079300253 22:-9.260457 23:-10.430276 24:-2.9575767 25:-2.7407272 26:2.8746418 27:8.901857 28:0.7859297 29:-7.9400438 30:7.7311586 31:-0.73358271 32:-1.0055026 33:-7.5733402 34:3.8563072 35:-4.2846274 36:-3.645066 37:6.8654074 38:4.8153935 39:3.473953 40:-8.4123721 41:-3.9934332 42:4.8122959 43:-5.935178 44:10.212147 45:8.0140555 46:-2.3183072 47:5.9722761 48:-8.1417195 49:-2.6724927 50:1.9497802 51:-7.3965702 52:6.3211049 53:7.3784751 54:-5.7824829 55:7.6022974 56:5.1697414 57:-1.7571544 58:5.1525677 59:2.2857103 60:-2.7700541 61:6.4028593 62:-0.12516828 63:-3.9552196 64:-2.868376 65:-0.39606258 66:-4.6811847 67:-11.309325 68:-7.1618573 69:9.2265191 70:6.7416731 71:6.553789 72:9.7785227 73:-1.0695785 74:6.7146407 75:-0.32059214 76:7.887831 77:-2.6895845 78:-2.786695 79:8.0949054 80:9.06264 81:-2.9095702 82:1.689074 83:-8.5806446 84:-2.5063188 85:-0.16009828 86:6.9950303 87:2.6853844 88:-5.4144031 89:-5.3838708 90:0.80788277 91:-5.9976291 92:-3.3338422 93:0.41179438 94:-3.0847453 95:-3.3516703 96:4.8582974 97:6.1538744 98:-10.732716 99:-4.4434257 100:-2.9730985 101:3.9486161 102:5.3960354 103:1.399899 104:-1.3106167 105:-6.9035707 106:0.16959575 107:3.7979991 108:-0.45914003 109:-0.27533459 110:-0.51788477 111:6.1861111 112:6.1834615 113:7.4425624 114:1.769177 115:8.1704512 116:7.6949538 117:-9.4008522 118:0.98209815 119:9.5780301 120:-0.77996584 121:2.2412415 122:-3.0251718 123:3.3745896 124:7.0981328 125:3.9645132 126:0.02124814 127:8.0554079 128:7.7763579 129:6.2082109 130:-0.016843929 131:0.3924564 132:-2.1423824 133:-2.1184516 134:2.9101436 135:10.801353 136:-6.5675935 137:-4.0712155 138:-3.6768431 139:-2.841407 140:-0.16333215 141:-2.1490113 142:4.8246146 143:-1.6543447 144:-5.0410475 145:1.164258 146:-7.6524273 147:6.3229443 148:-4.6348135 149:5.9800669 150:5.68452 151:6.5641393 152:-9.1268997 153:-3.6282186 154:3.4186746 155:6.3589771 156:1.7128305 157:-5.919975 158:2.4199566 159:4.6611476 160:8.0013495 161:-3.0993559 162:-0.411248 163:-4.083386 164:7.2103782 165:3.430637 166:7.0824953 167:6.422986 168:-0.47772252 169:-7.0926439 170:4.3069902 171:1.844066 172:-1.519651 173:4.2785872 174:-7.9981698 175:1.7278623 176:4.3145019 177:5.8702761 178:2.0041671 179:-2.9606177 180:-1.7748385 181:1.0588349 182:5.4307499 183:2.9890735 184:-6.5363132 185:-5.2747317 186:-8.0939423 187:-1.7529605 188:3.0790176 189:-10.074035 190:3.3100095 191:1.2155685 192:9.1262092 193:9.2481391 194:7.6306576 195:2.7280331 196:3.8705222 197:8.7252115 198:3.6176449 199:0.96526402 200:-2.6886821 
-4.8207531120178752e-07 1:3.5532553 2:5.0913281 3:7.4280257 4:9.5365234 5:-7.781318 6:0.34248686 7:-3.0147033 8:-3.6144397 9:-4.7603247 10:-7.0949921 11:6.492492 12:-6.6673574 13:-8.9044142 14:-4.2755539 15:-5.8472926 16:6.0146859 17:-4.3337651 18:4.9047056 19:0.62851744 20:-1.167809 21:-0.60268629 22:-6.753688 23:-9.5215324 24:-3.4495757 25:-1.1498899 26:3.9751412 27:6.2795873 28:-0.63651644 29:-8.015318 30:7.6540163 31:0.20739165 32:-3.4832496 33:-10.2216 34:2.6649426 35:-5.2202949 36:-1.1010285 37:6.441316 38:3.4026771 39:2.8396884 40:-7.3477481 41:-4.7324409 42:3.1346407 43:-6.3761155 44:9.2795496 45:8.2188993 46:-3.6232474 47:7.1917054 48:-7.8581045 49:-3.0293885 50:1.5243532 51:-7.4058899 52:6.1800252 53:7.3180966 54:-8.0000024 55:6.5950825 56:3.8505891 57:-1.7354097 58:6.645459 59:2.3419108 60:-3.2923157 61:6.201075 62:-2.6117986 63:-1.9145899 64:-4.2173912 65:-2.2981644 66:-5.3636584 67:-8.7014011 68:-9.993541 69:7.2508682 70:7.4255856 71:6.9733621 72:8.7347023 73:1.7198638 74:6.4973693 75:-1.8640328 76:6.692767 77:-3.0324216 78:-3.2127869 79:8.9130059 80:8.3355119 81:-1.6301749 82:1.668013 83:-7.1933815 84:-2.7652819 85:2.2053324 86:6.0889197 87:0.71776064 88:-5.4391612 89:-3.6133335 90:2.2560754 91:-5.2451532 92:-4.5253755 93:0.91011102 94:-3.0914413 95:-4.7590668 96:4.1522647 97:6.9874676 98:-9.3971489 99:-3.2044939 100:-2.3101931 101:3.6703266 102:5.1968993 103:0.94251808 104:-3.43225 105:-6.8210478 106:-1.5427099 107:2.0588277 108:-2.3442892 109:-2.5934399 110:-1.5445949 111:4.3724195 112:7.4592456 113:9.3632615 114:1.2416229 115:8.306923 116:7.3245653 117:-9.7089251 118:2.5146315 119:9.3623795 120:1.613553 121:2.4308215 122:-3.255901 123:3.5920491 124:8.7036025 125:4.4909605 126:0.79725706 127:8.6225394 128:7.92231 129:4.9839891 130:1.5453987 131:0.23620612 132:-1.6527012 133:-1.8019078 134:2.6532351 135:7.8331575 136:-5.1120251 137:-2.702533 138:-4.8625895 139:-3.147426 140:2.3938492 141:-3.576887 142:5.3720046 143:-1.825029 144:-3.6609889 145:-0.31917665 146:-6.3291528 147:7.136794 148:-2.0808227 149:6.460444 150:5.7704877 151:5.4985316 152:-10.477873 153:-3.9168694 154:3.7583527 155:3.4047325 156:2.933541 157:-5.6730942 158:1.9080259 159:4.06133 160:8.3732867 161:-5.0365735 162:-4.5285538 163:-6.5246661 164:8.6824796 165:3.3619422 166:5.8065691 167:5.5492265 168:1.8220467 169:-6.2282258 170:4.5936153 171:1.7895745 172:-1.7554902 173:4.7873002 174:-8.7651862 175:2.0586568 176:3.529856 177:7.006709 178:1.5874323 179:-2.3559767 180:-1.0315295 181:0.56537058 182:4.2942114 183:1.5827474 184:-5.6351071 185:-6.7331392 186:-6.8670294 187:-3.4646706 188:3.1318232 189:-10.631526 190:2.052427 191:-0.34056622 192:8.199415 193:11.083835 194:7.3365694 195:1.7996875 196:6.4123018 197:10.506795 198:-0.061768698 199:-0.85625574 200:-2.3201227 
-8.2107674716428858e-06 1:4.8317694 2:2.9293671 3:6.2782252 4:8.3045929 5:-7.4924454 6:1.0497829 7:-1.4313937 8:-2.9714571 9:-7.190213 10:-4.9013794 11:8.8762238 12:-5.5997957 13:-6.7568429 14:-4.1311806 15:-9.512259 16:4.3251556 17:-2.8375244 18:4.5894508 19:1.4361488 20:-2.6176535 21:-1.9512071 22:-9.2704196 23:-10.627305 24:-2.0626256 25:-2.2871412 26:4.2499032 27:7.937037 28:0.31781159 29:-7.9560501 30:8.589659 31:-0.062888043 32:-0.0074207278 33:-7.4106976 34:1.4971183 35:-4.2170404 36:-2.0664909 37:6.1275302 38:4.0605992 39:2.7348275 40:-7.8231147 41:-3.8414234 42:2.3654326 43:-5.979949 44:9.8795752 45:7.2737272 46:-2.1763684 47:7.7601709 48:-8.6907887 49:-3.033621 50:1.7406013 51:-6.4681445 52:5.1395027 53:7.3200781 54:-6.6372787 55:5.8378844 56:5.8517402 57:-2.4256116 58:6.2899922 59:3.4311809 60:-2.1439481 61:7.3082401 62:-1.7872091 63:-2.4549736 64:-4.3885933 65:-2.2814732 66:-4.9732699 67:-10.567922 68:-7.7141339 69:7.8721551 70:8.5346112 71:7.4498326 72:9.1524679 73:-0.25092622 74:8.5850199 75:0.21751458 76:4.7674799 77:-2.1084873 78:-2.569763 79:6.3119793 80:8.711545 81:-2.4400765 82:1.0564015 83:-8.0079044 84:-2.7514364 85:1.2965544 86:6.5062905 87:2.2456667 88:-5.7083101 89:-3.1649293 90:1.1217337 91:-6.9569182 92:-5.7957574 93:1.4017959 94:-2.5741831 95:-5.1909596 96:5.7798195 97:6.249914 98:-9.3269129 99:-2.7014997 100:-2.1967685 101:2.5882576 102:2.7392336 103:2.1894965 104:-1.59537 105:-5.6486927 106:-1.7773868 107:4.4402572 108:-0.72328424 109:-1.8471026 110:-1.2075553 111:5.0004043 112:7.5883187 113:11.519268 114:3.0833945 115:8.234513 116:8.1890154 117:-6.754856 118:1.6814141 119:7.6961197 120:2.8130041 121:2.617812 122:-3.2854696 123:2.6248564 124:9.8557206 125:3.6793468 126:-0.28032611 127:7.0329092 128:9.0851769 129:6.1903486 130:1.6298424 131:0.40447784 132:-2.9192529 133:-1.102952 134:1.3626421 135:10.855479 136:-5.6026304 137:-3.9145994 138:-4.000358 139:-4.7458732 140:-1.0817537 141:-2.4272441 142:5.3918177 143:-0.88787854 144:-5.1423782 145:-0.14664267 146:-6.1585734 147:8.6606897 148:-2.3774925 149:5.4590792 150:4.8584226 151:6.1455149 152:-8.4939809 153:-2.5414804 154:3.3971503 155:5.6732842 156:0.47923179 157:-4.146605 158:0.84998647 159:4.7637737 160:8.8722738 161:-6.2203741 162:-1.0792509 163:-5.3821714 164:8.2984851 165:4.5504632 166:6.3976015 167:7.0322967 168:0.88531937 169:-6.8245362 170:2.1315811 171:2.0276198 172:-2.7534095 173:3.8564406 174:-6.3513459 175:3.4854317 176:2.7497654 177:5.5085316 178:4.1499917 179:-3.1352154 180:0.80261631 181:-1.4179972 182:4.7370364 183:3.2334578 184:-7.2033509 185:-6.634218 186:-6.4845581 187:-2.7968662 188:4.9687714 189:-10.754 190:1.0529309 191:0.31708487 192:7.753026 193:8.8272396 194:6.8050053 195:2.2152952 196:5.7001377 197:6.5944783 198:2.3207753 199:1.7917038 200:-1.3085279 

