svm_type c_svc
kernel_type rbf
gamma 0.005
nr_class 2
label 0 1
total_sv 500
nr_sv 250 250
rho 1.6686116403e-03 -1.6686108429e-03
SV
1.4599235428e-02 -1.4599193055e-02 1:-4.9470811557e-01 2:-3.9656057385e-01 3:6.2920092220e-01 4:-7.4639853143e-01 5:-5.6362102860e-01 6:-8.4848208495e-01 7:6.6657173938e-02 8:-7.1896937196e-01 9:-2.2393984737e-01 10:-1.5246381557e-02 11:-6.1856044194e-01 12:-5.2947777429e-01 13:4.5483007457e-01 14:-7.6218169840e-01 15:1.3304526861e-01 16:8.6574176243e-01 17:-4.9733295136e-01 18:-4.5795775071e-01 19:6.0537387125e-01 20:5.2960355302e-01 21:-4.3514748221e-01 22:7.9650588582e-01 23:2.4651123595e-01 24:-3.3080306025e-01 25:-4.6803138097e-01 26:5.3362066908e-01 27:-2.1270859373e-01 28:-1.6400629790e-01 29:3.3647915080e-01 30:-2.9393488169e-01 31:4.7974062910e-01 32:3.7444978670e-01 33:7.0252355058e-01 34:4.7270089982e-01 35:-7.0374353541e-01 36:6.0014461758e-01 37:-6.9637524243e-01 38:6.0697371863e-01 39:-5.3490047567e-01 40:-2.7367890274e-01 41:4.5607149820e-01 42:-1.8614863422e-01 43:-2.8127096322e-01 44:-5.1962336888e-01 45:2.1782345561e-01 46:-1.8545733795e-01 47:-6.0258497221e-01 48:-6.7161779062e-01 49:7.8533051838e-01 50:-4.1574978423e-01 51:-6.6743384985e-01 52:-7.8067841888e-01 53:-5.7029905528e-01 54:-2.6773448261e-01 55:-6.1729261420e-01 56:-7.4488815103e-01 57:5.8687705821e-01 58:7.1281155793e-01 59:-2.2133800693e-01 60:8.9166457229e-01 61:6.1411971206e-02 62:7.7278622149e-01 63:-6.2013912206e-01 64:3.0051195160e-01 65:-3.3225375313e-01 66:-5.6946735278e-01 67:5.6358791348e-01 68:-7.3749595257e-01 69:7.2011653604e-01 70:1.7715497000e-01 71:6.1461647560e-01 72:-1.0007905323e-01 73:1.1809871011e-01 74:4.8800167219e-01 75:7.3635246464e-01 76:-7.8482428849e-01 77:-2.2020447832e-01 78:-1.0418093279e-01 79:5.6021132169e-01 80:-4.6140285342e-01 81:-5.2003655690e-01 82:-4.0498244938e-01 83:7.4268126074e-01 84:-5.6960247604e-01 85:-4.2273751188e-01 86:7.5726938620e-01 87:7.2510793251e-01 88:-5.2242086276e-01 89:4.5010812154e-01 90:5.8800002966e-01 91:-4.9785830155e-01 92:-5.7762186360e-01 93:-4.1961980545e-01 94:-3.8307563386e-01 95:4.7852888045e-01 96:4.1074412791e-01 97:-6.2564770938e-01 98:-4.4188873394e-01 99:7.0660326999e-01 100:-2.1360008517e-01 101:-5.1287349313e-01 102:6.1639783812e-01 103:1.9097004418e-01 104:7.5993939003e-01 105:-4.0330458201e-01 106:5.7224755183e-01 107:-1.9983033428e-01 108:-8.2914350020e-01 109:7.1743378223e-01 110:6.4697083534e-01 111:1.7835547483e-01 112:-4.1841427310e-01 113:-7.7262134785e-01 114:-3.3065049387e-01 115:-5.8825833019e-02 116:-7.6645309064e-02 117:-8.1915626936e-01 118:4.7054410951e-01 119:-7.1341034611e-01 120:-2.6579335423e-01 121:-5.3811494278e-01 122:-8.5479037200e-01 123:-8.1056353652e-01 124:-8.4314459300e-01 125:7.1812010429e-01 126:6.3630547362e-02 127:7.5165227638e-01 128:-4.1776084588e-01 129:2.3677654456e-01 130:-2.8070495401e-01 131:-6.2824219602e-01 132:-2.5689865626e-01 133:2.8666538782e-01 134:-3.9654553327e-01 135:1.2018414747e-01 136:-6.0227162059e-03 137:-6.1153481644e-01 138:8.1792296790e-01 139:-4.4937039388e-01 140:-5.2289560422e-01 141:-6.9704588406e-01 142:-8.1174141760e-01 143:-4.5861104066e-01 144:2.8384272885e-01 145:-5.4464905871e-01 146:-5.0004640233e-01 147:4.1209828334e-01 148:-6.0961586193e-01 149:-5.3476229667e-01 150:-8.2050530464e-01 151:2.3975125711e-01 152:6.2900049192e-01 153:6.4248185761e-01 154:-6.6317145555e-01 155:-3.0006767332e-01 156:6.7095756261e-01 157:-6.4187326170e-01 158:5.4822741913e-01 159:3.4061300934e-01 160:4.6035157381e-01 161:5.7649802536e-01 162:-7.8020937260e-01 163:8.5081346807e-01 164:-1.5932017349e-02 165:-4.7378459141e-01 166:2.5550072497e-01 167:-8.3794634612e-01 168:7.4719148313e-01 169:-4.3659837002e-01 170:6.4928031938e-01 171:-5.6152941226e-01 172:-1.5448884595e-01 173:-1.5436509932e-01 174:5.2640350898e-01 175:1.7418533361e-02 176:-6.5503479020e-01 177:5.6680329941e-01 178:9.1353511803e-01 179:-7.0586339391e-01 180:4.5841351943e-01 181:-8.3871206451e-01 182:-2.9254816738e-01 183:6.4462107269e-01 184:2.4540255327e-01 185:-3.7785308024e-01 186:4.4625495207e-01 187:5.5627869893e-01 188:-3.8086073841e-01 189:-6.9764391556e-01 190:-3.2417734264e-01 191:-3.8486884998e-02 192:9.3043578875e-01 193:6.1732166192e-01 194:1.0150477457e-01 195:-9.6089292030e-01 196:-6.8612614870e-01 197:5.6609355099e-01 198:-6.3489489705e-01 199:6.8788154578e-01 200:1.4945398952e-01 
3.7098677556e-02 -3.7098670581e-02 1:-5.4217181214e-01 2:-2.2115235111e-01 3:6.9460910160e-01 4:-6.3699789808e-01 5:-8.2814299719e-01 6:-7.6146890612e-01 7:-2.0025136060e-01 8:-5.8406045010e-01 9:3.5379872752e-01 10:2.4483695330e-01 11:-5.3129909098e-01 12:-1.4291672790e-01 13:6.9546193441e-01 14:-5.7264861454e-01 15:4.8557228047e-01 16:5.0092398660e-01 17:-5.6177846517e-01 18:-4.6810250354e-01 19:3.3276217901e-02 20:5.5991500992e-01 21:-6.2052494252e-01 22:8.8043908352e-01 23:3.2883787242e-01 24:3.7448407749e-02 25:-6.3975494352e-01 26:6.9367883279e-01 27:-4.0712750346e-01 28:-7.9842621228e-02 29:4.3437947729e-01 30:-6.1328742926e-01 31:4.5014097620e-01 32:2.5578157897e-01 33:6.2095356453e-01 34:4.6437135957e-01 35:-7.8478061614e-01 36:8.3280299567e-01 37:-6.9435013102e-01 38:8.4878803593e-01 39:1.8540650229e-01 40:-1.9881040846e-01 41:4.0893259001e-01 42:-3.7566746656e-01 43:-4.5379587154e-01 44:-4.8854296057e-01 45:5.5318501354e-01 46:3.1206996509e-01 47:-7.2110384265e-01 48:-4.6564277783e-01 49:1.8156182351e-01 50:-3.6030384087e-01 51:-6.5383427240e-01 52:-6.1853899664e-01 53:-2.1318072209e-01 54:-3.7093539279e-01 55:-4.8666118335e-01 56:-5.9614350851e-01 57:5.7232273033e-01 58:3.9926178257e-01 59:6.8166749571e-02 60:6.5824409629e-01 61:-4.1782205117e-01 62:2.7468087188e-01 63:-3.9033425401e-01 64:2.9439341706e-01 65:-6.3006352007e-01 66:-4.5624475309e-01 67:5.0318220817e-01 68:-5.5073244576e-01 69:7.3832983604e-01 70:4.5117733066e-01 71:5.9002358026e-01 72:-1.0057848985e-01 73:-1.4979594360e-01 74:6.6551712191e-01 75:6.7878426964e-01 76:-5.9672945545e-01 77:4.2751481691e-02 78:-6.4604443159e-01 79:-2.8405026665e-01 80:-5.1616440088e-01 81:-1.9714764790e-01 82:-4.7345901160e-02 83:-3.6202055250e-01 84:-5.3334584795e-01 85:1.7607922035e-01 86:6.2048588554e-01 87:5.8432889777e-01 88:-2.8615967102e-01 89:6.2218089599e-01 90:5.9742093113e-01 91:-4.9866166500e-01 92:-6.5956686919e-01 93:1.2177040636e-01 94:-3.8686441310e-01 95:4.7593228526e-01 96:3.1158740666e-01 97:-6.8590726278e-01 98:-1.4952862603e-01 99:6.8329371792e-01 100:-3.7703784611e-01 101:-5.3444029356e-01 102:5.0458681674e-01 103:3.8340606710e-01 104:8.6387985196e-01 105:-5.5705145734e-01 106:4.2521396991e-01 107:-1.6933467903e-01 108:-2.6978538402e-01 109:1.6002991803e-01 110:4.3894080780e-01 111:3.6585065187e-01 112:-4.3685163967e-01 113:-7.8270263319e-01 114:-4.4242924626e-01 115:6.1100923104e-01 116:-5.0629290487e-01 117:-6.4288634232e-01 118:6.9311375943e-01 119:-7.7270544127e-01 120:-3.3820144102e-01 121:-5.1428291795e-01 122:-5.3646900252e-01 123:-4.1168554009e-01 124:-3.9000719256e-01 125:7.7195953742e-01 126:4.8057257282e-01 127:8.4217869193e-01 128:-3.0392434269e-01 129:-2.1258055744e-01 130:-1.2745395650e-01 131:-6.0635826860e-01 132:-2.2606245954e-01 133:8.4901904653e-01 134:-2.0916324759e-01 135:-8.4753759428e-02 136:2.9718745212e-01 137:-5.3274252220e-01 138:7.0429855082e-01 139:-3.8069858448e-01 140:-8.7843111918e-01 141:-3.4471523975e-01 142:-9.6319174292e-02 143:-4.2653586626e-01 144:3.7422319326e-01 145:-4.5056627936e-01 146:-7.1191571675e-01 147:5.9726829541e-01 148:-6.5615380805e-01 149:-8.8954205342e-01 150:-7.0793822588e-01 151:4.4547887521e-01 152:1.0000000000e+00 153:3.7453439592e-01 154:-7.3451043023e-01 155:-3.8534526430e-01 156:7.8703197197e-01 157:-7.1175335574e-01 158:2.3096497147e-01 159:3.4420813084e-01 160:6.3524571283e-01 161:2.1194547731e-01 162:-4.8496764939e-01 163:3.7094523578e-01 164:-8.0668127505e-02 165:-3.7981019811e-01 166:3.8732843568e-01 167:-6.6223405603e-01 168:6.6407758622e-01 169:-5.3483692814e-01 170:6.4559130422e-01 171:-3.2614217733e-02 172:-3.4045916764e-01 173:7.6585441744e-01 174:6.7866608790e-02 175:5.5736713009e-02 176:-7.0349401813e-01 177:8.0525623178e-01 178:6.6742694158e-01 179:-6.4595072666e-01 180:5.1615663138e-01 181:-1.9451216754e-01 182:-9.6017932495e-01 183:8.6372401694e-01 184:1.2133799078e-01 185:-2.6850187146e-01 186:1.4355867036e-01 187:7.8298040834e-01 188:-3.2329319786e-02 189:-7.3744559025e-01 190:2.0109042210e-01 191:1.9286531351e-01 192:8.0848874421e-01 193:5.8946864609e-01 194:5.7225427194e-01 195:-4.0174477405e-01 196:-6.3741969297e-01 197:5.4182315824e-01 198:-4.1473773994e-01 199:6.7147531278e-01 200:2.8036443518e-01 
1.8733202610e-02 -1.8733219556e-02 1:-4.2075431388e-01 2:-8.3919052548e-02 3:6.5969232157e-01 4:-6.5277232903e-01 5:-5.7547396820e-01 6:-7.3792077506e-01 7:-1.9636997673e-01 8:-5.3719120248e-01 9:-3.2598751899e-01 10:-3.5009231429e-02 11:-9.2340524684e-01 12:-4.9493267646e-01 13:4.1645198272e-01 14:-3.0661065099e-01 15:5.7346131142e-01 16:4.0489514492e-01 17:-6.4559126756e-01 18:-4.2300932351e-01 19:1.0092638037e-01 20:3.9133675117e-01 21:-6.1678317333e-01 22:6.4958172910e-01 23:4.6646756286e-01 24:7.7429225466e-02 25:-7.3614050675e-01 26:6.9957878961e-01 27:-5.2818140661e-01 28:-2.1457335523e-01 29:5.1441594423e-01 30:-6.7539985500e-01 31:3.2587585523e-01 32:3.7653480055e-01 33:3.5167855492e-01 34:2.6658991064e-01 35:-8.8307433193e-01 36:9.2579535408e-01 37:-6.4706729173e-01 38:6.2214705597e-01 39:-2.7062684700e-01 40:-4.0305464706e-01 41:3.9312119399e-01 42:-2.1573230004e-01 43:-3.7325932796e-01 44:-6.2901302652e-01 45:4.7326649280e-01 46:-1.7140107378e-01 47:-9.7560043980e-01 48:-3.1948296513e-01 49:2.7915223093e-01 50:-3.4926645114e-01 51:-8.2429037305e-01 52:-6.8386046567e-01 53:-4.4845268755e-01 54:-2.3331425336e-01 55:-6.3705484806e-01 56:-4.6141860770e-01 57:7.9271787560e-01 58:6.9426081493e-01 59:4.3857324880e-01 60:7.6908627805e-01 61:2.9400792716e-01 62:4.5818759604e-01 63:-7.5517729588e-01 64:5.7251829570e-01 65:-5.8972326787e-01 66:-5.3951078053e-01 67:5.8071188989e-01 68:-5.4260346223e-01 69:5.7106462265e-01 70:3.9317525965e-01 71:5.9679310339e-01 72:-4.4885294373e-01 73:-1.8034911367e-01 74:7.9305996537e-01 75:6.1207529515e-01 76:-6.2511594037e-01 77:-4.7016624073e-01 78:-2.9062648683e-01 79:-2.3472132115e-01 80:-4.3868794865e-01 81:-5.2959588144e-01 82:-2.3296770971e-01 83:4.4237768242e-01 84:-3.6598425046e-01 85:-8.5480336780e-02 86:7.0404944844e-01 87:6.7583512774e-01 88:-3.4565247466e-01 89:5.4549402134e-01 90:3.0909613830e-01 91:-8.3144602940e-01 92:-5.9384465378e-01 93:-3.9825546928e-01 94:-3.3814356286e-01 95:4.2520835853e-01 96:3.5838221053e-01 97:-6.8800811141e-01 98:-4.7333408418e-02 99:6.9690126903e-01 100:-1.3695978709e-01 101:-5.4043398504e-01 102:5.2670832027e-01 103:1.0382743348e-01 104:9.1495798727e-01 105:-5.7760913920e-01 106:4.8446484040e-01 107:-2.1186087389e-01 108:8.8834083479e-02 109:3.9644820993e-01 110:7.1375856236e-01 111:4.8187196379e-01 112:-4.4728199370e-01 113:-8.0073476999e-01 114:-3.5867840551e-01 115:5.8231383415e-01 116:-3.0310608687e-01 117:-8.3011287845e-01 118:4.6058763299e-01 119:-5.0711826862e-01 120:-4.9626887974e-01 121:-7.0000326587e-01 122:-6.1635580122e-01 123:-7.1162131706e-01 124:-4.7799300657e-01 125:7.1718463930e-01 126:6.9280680031e-01 127:5.1502561540e-01 128:-7.5796220290e-01 129:3.1131595055e-01 130:-4.4101703615e-01 131:-7.6138543619e-01 132:1.0771798897e-01 133:4.9977861728e-01 134:1.7645864818e-01 135:-3.7882601230e-01 136:2.1630093817e-03 137:-6.7185395346e-01 138:6.0796524354e-01 139:-3.2769886011e-01 140:-6.7512282914e-01 141:-1.2121771284e-01 142:-1.6580383144e-01 143:-2.1105248767e-02 144:2.2765724385e-01 145:-6.5269895905e-01 146:-3.2010882459e-01 147:6.7615972555e-01 148:-6.3487745531e-01 149:-6.4434571357e-01 150:-6.6221081200e-01 151:2.6202323352e-01 152:3.6818640766e-01 153:4.9246764044e-01 154:-7.9255334476e-01 155:-4.9015487497e-01 156:5.5132022814e-01 157:-6.4756831687e-01 158:8.7914698447e-01 159:5.2872300267e-01 160:3.9228949624e-01 161:1.7609901414e-01 162:-7.4726525353e-01 163:5.7627042226e-01 164:-4.6298063067e-01 165:-2.0098434773e-01 166:3.4914194819e-01 167:-1.4427956585e-02 168:4.1239181156e-01 169:-5.0578668955e-01 170:5.4101349803e-01 171:-6.1386348735e-01 172:-2.3155817443e-01 173:-2.9589242114e-01 174:4.8068506036e-02 175:8.3320387796e-02 176:-5.3516305175e-01 177:8.3401515843e-01 178:7.8776335618e-01 179:-6.9172143883e-01 180:2.6388263859e-01 181:-4.5821710613e-01 182:-4.7562185507e-01 183:7.7200370791e-01 184:2.4597077538e-01 185:-6.3828591298e-01 186:5.5277294944e-01 187:6.5303169731e-01 188:-2.8089293061e-01 189:-8.2545139157e-01 190:-4.6378921938e-02 191:9.8661406608e-02 192:6.3816797068e-01 193:3.0933996901e-01 194:4.9982372194e-01 195:-1.6975383634e-01 196:-7.6558125462e-01 197:4.6944879042e-01 198:-3.1751866179e-01 199:8.0509765988e-01 200:4.7692092779e-01 
1.2563939639e-02 -1.2563928734e-02 1:-6.8532156849e-01 2:4.2654365892e-01 3:4.1703868829e-01 4:-6.8054161144e-01 5:-3.9383101490e-01 6:-8.3664745779e-01 7:-1.0559932375e-01 8:-4.3299509657e-01 9:-4.3993778223e-01 10:-6.8278989739e-01 11:-7.4579719130e-01 12:-3.7482453875e-01 13:4.2592054671e-01 14:-9.1632814499e-01 15:1.5400216455e-01 16:3.9452681643e-01 17:-4.6186468251e-01 18:-3.8313060863e-01 19:3.0139708247e-01 20:4.5171076414e-01 21:-4.4229021453e-01 22:6.3895237648e-01 23:1.8504938761e-01 24:-3.8543814696e-01 25:-5.9919400607e-01 26:6.7065290130e-01 27:-5.0579904848e-01 28:-7.4283127740e-01 29:4.2569022514e-01 30:-6.2246774383e-01 31:1.3236901249e-01 32:6.2518916326e-01 33:6.4330598213e-01 34:4.7266855079e-01 35:-7.3078088298e-01 36:8.4903117909e-01 37:-6.1664782329e-01 38:4.9761720703e-01 39:-1.0000000000e+00 40:-2.9587521349e-01 41:2.3630212776e-01 42:-4.1303021874e-01 43:-3.5847818574e-01 44:-5.0062716296e-01 45:5.6738173453e-01 46:-1.3585852476e-03 47:-5.0183892273e-01 48:-8.4054550691e-01 49:-2.1763401563e-01 50:-2.5441525003e-01 51:-7.4173178045e-01 52:-8.0480180656e-01 53:-6.0899203498e-01 54:-1.4133039538e-01 55:-7.5818439615e-01 56:-6.5711242982e-01 57:8.0567320198e-01 58:4.8963814636e-01 59:3.5776281253e-01 60:7.3993498133e-01 61:-5.4648277068e-01 62:6.4952063810e-01 63:-6.5587216285e-01 64:3.6653354203e-01 65:-3.2683699791e-01 66:-5.2719739436e-01 67:7.1198003521e-01 68:-6.4134333632e-01 69:6.0641717446e-01 70:5.2206196551e-01 71:5.1961793230e-01 72:-5.3980351647e-01 73:-6.8928822650e-01 74:7.1849639905e-01 75:6.4305325625e-01 76:-7.2331334119e-01 77:-1.8713993272e-01 78:4.2901928732e-02 79:1.9670105499e-01 80:-4.6865400825e-01 81:-7.3103494630e-01 82:-6.3969837718e-01 83:-3.5531405209e-02 84:-4.9628763285e-01 85:-2.7037939630e-01 86:6.3084565703e-01 87:9.3160768628e-01 88:-6.1390570752e-01 89:5.4460351281e-01 90:1.2412402499e-01 91:-2.8940609696e-01 92:-4.4915252587e-01 93:-1.7183864560e-01 94:2.4191120966e-01 95:6.3777273033e-01 96:1.1288990052e-01 97:-5.7865679790e-01 98:-3.9960983777e-01 99:6.3354001865e-01 100:-5.7966625330e-01 101:-5.5739159802e-01 102:7.5158218749e-01 103:-4.2772427744e-02 104:6.6525128001e-01 105:-6.4017615261e-01 106:6.8756935777e-01 107:-6.0189145768e-02 108:-1.1521278553e-01 109:6.0646866905e-01 110:4.8550662740e-01 111:5.4398738150e-01 112:-5.0335270055e-01 113:-5.8862357125e-01 114:-3.9901071063e-01 115:4.8598499868e-01 116:-2.0576639973e-01 117:-7.7889575434e-01 118:6.3735099168e-01 119:-7.6926474836e-01 120:-1.7165752872e-01 121:-6.5646058197e-01 122:-5.5488033154e-01 123:-7.6627662452e-01 124:-2.9609598026e-01 125:8.1135245664e-01 126:2.0228997734e-01 127:8.6594032456e-01 128:-6.2171868827e-01 129:6.3767622112e-02 130:-2.0520640519e-01 131:-5.7519854302e-01 132:-1.1472127313e-01 133:5.7998021970e-01 134:-1.1956529015e-02 135:-2.3677008438e-01 136:-5.9352354172e-02 137:-7.4968270187e-01 138:8.1152779737e-01 139:-3.6051319357e-01 140:-3.8905782793e-01 141:-6.2709108521e-01 142:-3.0505263578e-01 143:-5.6769720524e-01 144:7.1617824778e-01 145:-5.5582461025e-01 146:-5.2017491321e-01 147:6.4165632943e-01 148:-6.8336065324e-01 149:-6.9304007027e-01 150:-7.0743798496e-01 151:-1.2019330272e-01 152:7.2261170406e-01 153:1.1022895863e-01 154:-7.4189564656e-01 155:-6.5435664092e-01 156:6.4215425670e-01 157:-5.0809407303e-01 158:4.9928050320e-01 159:2.3608589878e-01 160:4.0036571621e-01 161:2.9566966531e-01 162:-5.7701008619e-01 163:3.0059019057e-01 164:-1.0000000000e+00 165:-4.2459225033e-01 166:1.9638954282e-01 167:-4.6292457242e-01 168:5.7945415840e-01 169:-3.7093380599e-01 170:7.7437918911e-01 171:-2.9125808305e-01 172:-6.0073606008e-01 173:2.8978852315e-01 174:4.4513395333e-01 175:-8.8688727951e-01 176:-8.5223368916e-01 177:5.9143970061e-01 178:8.1223385336e-01 179:-4.2199170018e-01 180:4.4569145388e-01 181:-7.0797708892e-01 182:-4.0607751911e-01 183:6.7517953313e-01 184:7.7344844201e-01 185:-3.3699335159e-01 186:7.4379311153e-01 187:3.1417270335e-01 188:-3.0531246606e-01 189:-6.4803358130e-01 190:-8.2255808670e-02 191:4.5029735670e-01 192:6.8844376333e-01 193:6.0334159808e-01 194:5.1415182382e-01 195:-1.8353065807e-01 196:-8.1840456382e-01 197:4.7130622461e-01 198:-6.1689858339e-01 199:7.7536969707e-01 200:3.0577023682e-01 
5.9830449743e-03 -5.9830419850e-03 1:-7.7177086430e-01 2:-8.3053887154e-01 3:8.4776400141e-01 4:-5.9753246661e-01 5:-6.1572657502e-01 6:-9.2003550912e-01 7:-9.0099580927e-03 8:-5.1401375627e-01 9:4.0209671856e-02 10:3.8161996357e-01 11:-7.1176779442e-01 12:-3.9097582525e-01 13:4.6237621035e-01 14:-4.0167640737e-01 15:-4.5836262743e-02 16:6.4822146843e-01 17:-9.4450630000e-01 18:-9.0109612995e-02 19:4.8856485490e-01 20:2.4777801161e-01 21:-8.0150169749e-01 22:7.9433529214e-01 23:4.2653196503e-01 24:4.5611158747e-01 25:-7.0571357979e-01 26:5.9043141985e-01 27:-9.0936195435e-01 28:-7.3543951750e-01 29:1.8263337565e-01 30:-3.0226388981e-01 31:-1.1002848014e-01 32:6.9016041521e-01 33:2.9225331829e-01 34:4.5986608617e-01 35:-8.5158524147e-01 36:8.6585443557e-01 37:-6.6554304111e-01 38:7.5460239453e-01 39:1.0584455453e-01 40:-3.1332775376e-01 41:7.1422653897e-01 42:-6.2836581224e-01 43:-3.2737734025e-01 44:-3.6756621656e-01 45:1.0234412259e-01 46:-1.0000000000e+00 47:-3.9806150921e-01 48:-7.1639788020e-01 49:4.5959565970e-01 50:-6.5885227227e-01 51:-6.3330538364e-01 52:-8.3283048458e-01 53:-7.0907766120e-01 54:-1.3819506078e-01 55:-5.8807166726e-01 56:-4.9555675393e-01 57:6.3080322844e-01 58:6.5219109574e-01 59:1.9938845402e-01 60:7.5558541002e-01 61:-4.9574188410e-01 62:5.4945982453e-01 63:-1.0000000000e+00 64:3.6537214155e-01 65:-1.9368432002e-01 66:-5.4012491428e-01 67:7.8932954832e-01 68:-5.8190975698e-01 69:7.3741508001e-01 70:4.0602263400e-01 71:7.5049013830e-01 72:-3.9131951855e-01 73:-6.0567908359e-01 74:5.9433503602e-01 75:7.9510755504e-01 76:-7.4930871614e-01 77:-5.0046939662e-02 78:-3.9881194300e-01 79:6.6033117136e-01 80:-6.0307004727e-01 81:-4.1459590565e-01 82:-1.5734293626e-01 83:-1.9918940216e-02 84:-8.2608034423e-01 85:3.0906766820e-02 86:5.9663802520e-01 87:4.0356187888e-01 88:-4.9126205963e-01 89:6.1873272875e-01 90:2.5718551091e-01 91:-3.9284740035e-01 92:-5.5227553938e-01 93:-5.7856729404e-01 94:-4.4681999264e-01 95:5.7788939714e-01 96:4.8098532485e-01 97:-6.0735166841e-01 98:-1.8594055487e-01 99:6.0431694871e-01 100:-1.9365821724e-01 101:-2.3203127803e-01 102:4.9646644908e-01 103:3.8566124564e-01 104:8.1560493187e-01 105:-4.7681242704e-01 106:5.6166269850e-01 107:3.4920485588e-01 108:1.8012892570e-01 109:4.3546748055e-01 110:6.8817625895e-01 111:3.5989575581e-01 112:-5.4491244810e-01 113:-6.9934542034e-01 114:-4.7896283534e-01 115:-3.2548722076e-01 116:-5.5260528520e-02 117:-6.4086714059e-01 118:6.2149293589e-01 119:-5.9393256915e-01 120:-4.6790198868e-01 121:-5.2382536493e-01 122:-5.9798307041e-01 123:-5.2773552593e-01 124:-6.7201361014e-01 125:8.1731411895e-01 126:3.4586933730e-01 127:3.6012658608e-01 128:-6.0758372066e-01 129:1.9789297646e-01 130:-4.5536912629e-01 131:-7.8438633403e-01 132:-2.6253660749e-01 133:7.4433460703e-01 134:-1.8992393601e-01 135:-5.7219769520e-02 136:-3.0607104817e-01 137:-5.5042989388e-01 138:8.7272180860e-01 139:-5.2868754663e-01 140:-4.8760509164e-01 141:-6.2181028011e-02 142:-6.2764473391e-03 143:-4.0869204690e-01 144:7.2598393997e-01 145:-5.0184946814e-01 146:-6.3404447861e-01 147:3.7708310384e-01 148:-5.8283667918e-01 149:-4.9218803499e-01 150:-7.0163723298e-01 151:-3.3661682882e-01 152:6.7794029495e-01 153:3.3750035592e-01 154:-7.5061806223e-01 155:-4.6534136767e-01 156:9.3176612316e-01 157:-6.4781397001e-01 158:8.5177487165e-01 159:4.3680588036e-01 160:4.2787830010e-01 161:9.0313892359e-01 162:-4.0916888792e-01 163:5.5658912291e-01 164:-2.4315826447e-01 165:2.6910524837e-01 166:5.1039197263e-01 167:-5.2654242142e-01 168:4.1711883087e-01 169:-5.4702796002e-01 170:8.7714156502e-01 171:-1.4599129344e-01 172:-7.4831927299e-01 173:9.2417733204e-03 174:3.6420696315e-01 175:3.2226841963e-02 176:-6.7154497421e-01 177:6.5497390692e-01 178:6.7283481238e-01 179:-6.1613428728e-01 180:4.7351000919e-01 181:-2.4622689111e-01 182:-2.3994460854e-01 183:7.5375921260e-01 184:7.4010717596e-02 185:-3.5339448419e-01 186:4.4521288266e-01 187:6.6922320132e-01 188:-7.5000868675e-01 189:-6.1719244768e-01 190:1.5388921945e-02 191:-3.2062905819e-01 192:8.2871373678e-01 193:4.4413330072e-01 194:4.3762147911e-01 195:1.9725709735e-01 196:-9.0860408865e-01 197:7.9591288695e-01 198:-4.1154941784e-01 199:9.0111501445e-01 200:3.4686525378e-01 
-9.6066849717e-03 9.6066727109e-03 1:-6.9815006574e-01 2:3.4722382648e-02 3:6.1554452926e-01 4:-7.9467999027e-01 5:-3.1722547455e-01 6:-8.5380593954e-01 7:-1.5677987442e-01 8:-5.6013337565e-01 9:7.6379877814e-02 10:5.8430686613e-01 11:-7.4036314058e-01 12:-5.6763581014e-01 13:7.4435857711e-01 14:-6.2102640763e-01 15:6.1235245669e-02 16:5.7287826379e-01 17:-6.6664660333e-01 18:-4.7505016926e-01 19:2.2506070501e-01 20:2.5177123678e-01 21:-6.6381122657e-01 22:6.8086355275e-01 23:2.0213963028e-01 24:-1.2411817986e-01 25:-6.9853336836e-01 26:7.5979677192e-01 27:-6.4146094500e-01 28:-4.2942909342e-01 29:5.6737009800e-01 30:-5.2306915290e-01 31:2.8705259367e-01 32:6.8000747753e-01 33:3.1924720755e-01 34:6.4861332648e-01 35:-7.0737177779e-01 36:6.3013235280e-01 37:-7.6407962523e-01 38:7.0263710420e-01 39:-7.2717959825e-02 40:-5.9455910160e-01 41:-6.1482008463e-02 42:-4.3949327574e-01 43:-6.8022878495e-01 44:-6.7149596128e-01 45:3.9001448986e-01 46:-1.9982323479e-01 47:-5.2869753166e-01 48:-1.0000000000e+00 49:7.2692448782e-01 50:-3.2900146137e-01 51:-5.0298439390e-01 52:-6.6501043672e-01 53:-5.9127917758e-01 54:-4.2955020806e-01 55:-7.1723671850e-01 56:-6.1242922662e-01 57:8.1145154901e-01 58:7.8798632140e-01 59:5.7882072783e-01 60:7.0552996686e-01 61:-4.8334234469e-01 62:4.5919443340e-01 63:-7.5497255428e-01 64:4.4734733217e-01 65:-2.4519134457e-01 66:-5.3001555236e-01 67:7.7075742161e-01 68:-8.0246417239e-01 69:5.9636828136e-01 70:9.7937782435e-01 71:5.7289639447e-01 72:-5.1692177915e-01 73:6.6261754610e-02 74:6.4143940476e-01 75:9.0642662089e-01 76:-8.3239775293e-01 77:-4.9487565109e-03 78:-3.6286107320e-01 79:-2.0227626655e-01 80:-1.1632293435e-01 81:-4.6187322298e-01 82:-2.6906863119e-01 83:2.0003992142e-01 84:-3.7937893338e-01 85:-3.5445982475e-01 86:7.6517642633e-01 87:7.3000934629e-01 88:-3.9407307524e-01 89:4.5858306086e-01 90:5.0675348168e-01 91:-4.7424135483e-01 92:-7.3505870803e-01 93:-3.4952442651e-01 94:-2.6389076509e-01 95:4.6156014117e-01 96:3.0784953137e-01 97:-6.5483449484e-01 98:-8.7348239403e-01 99:8.4437657535e-01 100:-7.6541057804e-01 101:-7.4808755561e-01 102:7.5621332127e-01 103:-4.4325772248e-02 104:6.4023611085e-01 105:-7.3730111480e-01 106:4.6688531459e-01 107:3.4824083022e-01 108:-3.0034654030e-01 109:5.8986705681e-01 110:5.2637922022e-01 111:5.7817059368e-01 112:-4.0030909527e-01 113:-7.6931568526e-01 114:-4.3220495951e-01 115:8.8704914651e-02 116:-4.0687598150e-01 117:-6.5916905158e-01 118:5.1648778091e-01 119:-3.7792468134e-01 120:-3.3820697255e-01 121:-5.7269122494e-01 122:-6.3502582851e-01 123:-7.8791994563e-01 124:-4.7093015810e-01 125:5.9289382630e-01 126:5.6858184256e-01 127:6.1648685241e-01 128:-5.6508088395e-01 129:1.5030598775e-01 130:-4.3492416062e-01 131:-7.6672897112e-01 132:7.7706498974e-02 133:3.8620716870e-01 134:-1.6810758801e-01 135:8.5818686197e-02 136:7.0476520080e-01 137:-4.3428600947e-01 138:8.4081752733e-01 139:-5.7428579684e-01 140:-3.8761507218e-01 141:-2.9609131237e-01 142:-8.6536552723e-02 143:-4.7542606622e-01 144:5.2005282692e-01 145:-7.6921042042e-01 146:-2.2068017510e-01 147:6.5379726156e-01 148:-9.2724171289e-01 149:-4.3113076188e-01 150:-1.0000000000e+00 151:8.9951225345e-02 152:4.1793169069e-01 153:5.1453577795e-01 154:-7.1773270479e-01 155:-4.7534490618e-01 156:7.4928338463e-01 157:-7.6764786275e-01 158:-5.3845005464e-02 159:3.0707417703e-01 160:5.8799711174e-01 161:4.3181381764e-01 162:-3.9097741649e-01 163:4.7393306927e-01 164:2.1354215757e-01 165:-1.1926445517e-01 166:6.2506996780e-01 167:-1.0356699576e-01 168:6.4222382801e-01 169:-8.3635593032e-01 170:6.3651203766e-01 171:-3.8484625041e-01 172:-4.3674214329e-01 173:3.7449026343e-01 174:9.9514895873e-02 175:-8.9554298889e-02 176:-5.7643332529e-01 177:5.9179171395e-01 178:5.6614977378e-01 179:-3.6743004940e-01 180:5.2705684548e-01 181:-3.4934106490e-01 182:-2.3648553461e-01 183:7.3176807946e-01 184:4.5682893995e-01 185:-7.7931737055e-01 186:5.7112977388e-01 187:8.5045357074e-01 188:-5.3983762120e-01 189:-4.9254084471e-01 190:2.5845753662e-01 191:-1.6877486257e-01 192:7.9742615425e-01 193:8.0272146495e-01 194:7.0627355457e-01 195:-6.1483383795e-01 196:-6.5148093757e-01 197:7.6405300700e-01 198:-4.5853269187e-01 199:6.7636925620e-01 200:3.7282352962e-01 
5.3211342526e-03 -5.3211343775e-03 1:-5.1895693973e-01 2:-3.8680366298e-01 3:5.7826592374e-01 4:-4.4701260812e-01 5:-4.6920850787e-01 6:-7.8823159299e-01 7:-6.0772129735e-01 8:-2.8830536825e-01 9:-3.2809198560e-01 10:1.0891799393e-02 11:-7.4055523244e-01 12:-6.0345542094e-01 13:-3.8031312274e-02 14:-6.4090228591e-01 15:3.5559304293e-01 16:9.1301428531e-01 17:-2.0586184974e-01 18:-3.1520460028e-01 19:3.8823798572e-01 20:-2.4283706005e-01 21:-3.9120311232e-01 22:5.7128243163e-01 23:5.3621375701e-01 24:1.8103327775e-02 25:-6.9590785796e-01 26:7.7263658895e-01 27:-9.8201526995e-01 28:-1.9935083933e-01 29:4.1240572317e-01 30:-5.3095787782e-01 31:-2.9271785481e-01 32:4.3128666992e-01 33:4.7693799722e-01 34:4.5749703499e-01 35:-6.8965353593e-01 36:6.9854132283e-01 37:-6.8416843088e-01 38:5.2978002542e-01 39:-1.5852706104e-01 40:-2.1257990398e-01 41:6.7436679837e-01 42:-3.0931761984e-01 43:-4.0280579293e-01 44:-5.3651285714e-01 45:6.2467974386e-01 46:5.5269655482e-02 47:-3.5167913761e-01 48:-4.4718825754e-01 49:3.7226065477e-01 50:-3.8138966278e-01 51:-8.0013707064e-01 52:-6.2924035469e-01 53:-5.5429351801e-01 54:-2.9345499772e-01 55:-6.4574462865e-01 56:-6.2642202107e-01 57:8.3997340632e-01 58:1.0000000000e+00 59:-4.2850226556e-01 60:7.2557662830e-01 61:-2.3058064889e-01 62:4.8179881685e-01 63:-8.4812152425e-01 64:4.2169626639e-01 65:-9.3078253724e-01 66:-5.1872838566e-01 67:5.8547412459e-01 68:-4.4483934266e-01 69:7.3602974639e-01 70:3.8085036056e-01 71:5.4661986990e-01 72:-1.6604514000e-01 73:-1.7687527752e-01 74:6.0018241898e-01 75:5.3392820512e-01 76:-6.2447098451e-01 77:-6.3185882148e-01 78:-1.8434231318e-01 79:2.0940797331e-02 80:-7.2552409717e-01 81:-7.7004183026e-01 82:-4.4896486215e-01 83:3.3848863920e-01 84:-8.0211956254e-01 85:2.0289441235e-01 86:7.6142775916e-01 87:4.9757627414e-01 88:-6.6388921544e-01 89:6.9179310107e-01 90:2.6336619933e-01 91:-6.7605847681e-01 92:-5.5602111967e-01 93:-8.9433601650e-02 94:-5.1857281122e-01 95:5.5926749628e-01 96:4.7777354271e-01 97:-7.5267102378e-01 98:-2.6304249396e-01 99:8.1097813965e-01 100:-3.4516827321e-01 101:-5.9777411939e-01 102:5.8213006553e-01 103:-4.5442164630e-01 104:6.7278441841e-01 105:-7.0889531907e-01 106:4.8804640374e-01 107:4.9765214606e-01 108:-2.2137929762e-02 109:2.5851706410e-01 110:6.7741872394e-01 111:3.9992173460e-01 112:-3.8374171559e-01 113:-5.5615994925e-01 114:-4.4248656590e-01 115:1.3103261667e-02 116:-5.4944169606e-01 117:-7.7112506743e-01 118:6.8814917647e-01 119:-3.9395533105e-01 120:-1.7900607053e-01 121:-6.7627379676e-01 122:-3.6729340754e-01 123:-6.0364250168e-01 124:-5.6095941781e-01 125:7.5815358015e-01 126:7.0184815200e-01 127:4.4243763227e-01 128:-6.3701593534e-01 129:2.9528124637e-01 130:-8.2011335112e-01 131:-8.1552754902e-01 132:-3.2737044675e-01 133:4.2690097805e-01 134:-5.2864217066e-01 135:-1.4844117444e-01 136:-1.4739493466e-01 137:-5.1540299784e-01 138:5.2107488987e-01 139:-6.6670823223e-01 140:-5.8667335432e-01 141:-7.0072066983e-01 142:-8.0998634886e-01 143:-4.7605683902e-01 144:2.4417502134e-01 145:-5.5198859453e-01 146:-2.5121459191e-01 147:2.9778341163e-01 148:-4.3732675955e-01 149:-1.7048456281e-01 150:-8.0930234076e-01 151:-1.2751851272e-01 152:4.2501900007e-01 153:6.4769122635e-01 154:-8.9116473536e-01 155:-4.7551516055e-01 156:5.3790441775e-01 157:-8.3097427878e-01 158:3.7536420936e-01 159:9.5359114888e-01 160:4.2298692744e-01 161:4.3408833280e-01 162:-7.6657743853e-01 163:1.2000226781e-01 164:-6.1435925159e-01 165:9.5192227680e-01 166:5.3721504268e-01 167:-4.7580780143e-01 168:7.5799744569e-01 169:-6.2459111656e-01 170:8.3490585327e-01 171:-4.1072848035e-01 172:-6.4532631915e-01 173:1.2320827066e-02 174:5.4440557024e-01 175:-1.2790682965e-01 176:-6.7791639698e-01 177:5.6539888161e-01 178:6.7090092467e-01 179:-8.0479172051e-01 180:3.6572134721e-01 181:-6.8026409174e-01 182:-2.0751254234e-01 183:7.3264666561e-01 184:4.8559166383e-01 185:-7.9447788167e-01 186:9.4013595839e-01 187:8.5012799028e-01 188:-5.5050013456e-01 189:-8.9235304323e-01 190:1.8277196303e-01 191:3.3332003539e-01 192:8.5445855460e-01 193:7.3061948744e-01 194:3.8434329290e-01 195:-5.6207661456e-02 196:-6.6850045526e-01 197:6.0755350545e-01 198:-1.9642983786e-01 199:8.4888362179e-01 200:4.4722836317e-01 
2.5596960128e-02 -2.5596913571e-02 1:-3.3183973522e-01 2:-1.0944635879e-01 3:5.3539870303e-01 4:-8.6678576831e-01 5:-8.9657595818e-01 6:-7.2991208312e-01 7:-7.3930329620e-01 8:-5.7243154381e-01 9:-5.6376247294e-02 10:2.8403980075e-02 11:-7.0280808749e-01 12:-9.4218841916e-02 13:4.6550351172e-01 14:-4.7759418827e-01 15:5.5786773538e-01 16:5.4874629842e-01 17:-5.5298812647e-01 18:-4.1544283605e-01 19:5.0295829884e-01 20:2.3297204097e-01 21:-2.2683573465e-01 22:5.5501794372e-01 23:2.6187394449e-01 24:1.4675199299e-01 25:-4.9104741227e-01 26:7.4267022570e-01 27:-7.8559996071e-01 28:-4.9050073067e-01 29:4.6446143576e-01 30:-5.8220355472e-01 31:6.4956836729e-02 32:4.4375839752e-01 33:6.3678051837e-01 34:1.8525200676e-01 35:-7.2551348931e-01 36:6.6901567184e-01 37:-7.3667199813e-01 38:7.5466752286e-01 39:9.0475269325e-02 40:-6.1181563569e-01 41:2.3712729293e-01 42:-4.7180526844e-01 43:-3.0304362731e-01 44:-5.6603083952e-01 45:5.8405976069e-01 46:1.0907788295e-01 47:-6.1769094905e-01 48:-6.7384691641e-01 49:-1.2217716184e-01 50:-4.9015556818e-01 51:-4.8624663141e-01 52:-7.2134850883e-01 53:-4.5300212772e-01 54:-4.4661387348e-01 55:-6.4098534546e-01 56:-5.7282683192e-01 57:8.3436070059e-01 58:6.9035887207e-01 59:-3.3960909483e-01 60:7.3604296954e-01 61:-5.9368241058e-01 62:4.1224231324e-01 63:-6.2649741944e-01 64:9.6038158423e-02 65:-5.0758923269e-01 66:-5.7028497700e-01 67:6.2324031334e-01 68:-3.7705493817e-01 69:7.2253732685e-01 70:3.4801065182e-01 71:7.0397976885e-01 72:-2.1744478700e-01 73:5.7667553907e-01 74:5.5114297142e-01 75:9.1177701242e-01 76:-7.1549212450e-01 77:-1.1307716970e-02 78:-2.2837827868e-01 79:6.7163462808e-01 80:-3.4508600559e-01 81:-2.8029490766e-01 82:-4.6432550482e-01 83:-2.7407010352e-01 84:-5.6028492978e-01 85:1.6979627225e-01 86:8.8452014676e-01 87:7.2937575927e-01 88:-5.5393031640e-01 89:5.2603983020e-01 90:6.2652123909e-01 91:-4.9565113008e-01 92:-7.1346479942e-01 93:1.6152544847e-02 94:9.1265015861e-01 95:6.1061554508e-01 96:-3.2464041275e-02 97:-6.3052421133e-01 98:1.1002712428e-02 99:8.5049149005e-01 100:-3.2370106693e-01 101:-1.0000000000e+00 102:3.1206213661e-01 103:9.5011106309e-02 104:6.6519531319e-01 105:-6.0717475905e-01 106:5.1792244438e-01 107:-9.0214703434e-02 108:-1.4093636195e-01 109:3.0859379880e-01 110:7.4903816968e-01 111:5.2699903183e-01 112:-6.0056182041e-01 113:-1.0000000000e+00 114:-5.5774282964e-01 115:-9.6784641567e-01 116:-1.1772949767e-01 117:-7.7371056704e-01 118:6.2935714205e-01 119:-4.7654008591e-01 120:-4.5825778866e-01 121:-5.4344881291e-01 122:-7.2178825440e-01 123:-7.4381682893e-01 124:-5.1038079440e-01 125:6.6780859171e-01 126:4.4958190924e-01 127:6.1829268311e-01 128:-4.7352280410e-01 129:-1.5782764800e-02 130:-4.8168175919e-01 131:-6.4538308162e-01 132:-3.0481580506e-01 133:5.5124787620e-01 134:-3.4779715986e-01 135:5.8169702678e-02 136:4.5475062746e-01 137:-6.2525991695e-01 138:5.1070665899e-01 139:-5.4918375834e-01 140:-1.7691584387e-01 141:-3.4585555428e-01 142:-9.0115702310e-01 143:-5.4701257829e-01 144:5.7836609675e-01 145:-6.0891683896e-01 146:-4.9393086029e-01 147:-9.7994912213e-02 148:-7.5644217166e-01 149:-5.1553335103e-01 150:-7.7198675851e-01 151:2.6267801154e-01 152:5.8774711807e-01 153:6.3543358024e-01 154:-8.7973055357e-01 155:-6.9597639274e-01 156:6.9275925606e-01 157:-7.9342805355e-01 158:6.5568314786e-01 159:5.9334493566e-01 160:5.3622934554e-01 161:2.1638845993e-01 162:-4.8589283447e-01 163:4.7760861621e-01 164:2.2819038801e-01 165:4.3168732120e-02 166:1.2939561869e-01 167:-3.6542059019e-01 168:4.0635884758e-01 169:-5.2092258701e-01 170:6.2011789264e-01 171:2.2687826425e-02 172:-5.6738656941e-01 173:-1.3253187713e-01 174:7.4673421434e-01 175:-6.8592455014e-02 176:-7.8049994877e-01 177:7.9332576873e-01 178:6.2386029742e-01 179:-6.6367534809e-01 180:4.2450402860e-01 181:-5.6580676115e-01 182:-6.7590030080e-01 183:6.9636903337e-01 184:-8.1213006346e-03 185:-4.5762232853e-01 186:5.1004424842e-01 187:6.4144018843e-01 188:-3.5406224124e-01 189:-6.4165245930e-01 190:-1.3073842734e-01 191:7.2400656861e-01 192:7.8700553047e-01 193:7.4865172936e-01 194:4.9579349989e-01 195:1.2429333965e-01 196:-9.1275426309e-01 197:5.4183103467e-01 198:-4.1135609611e-01 199:7.3043052905e-01 200:-7.9986508758e-02 
7.0555286768e-03 -7.0555345157e-03 1:-4.6445547694e-01 2:-2.9772577608e-02 3:4.2488254009e-01 4:-7.1540239357e-01 5:-7.6735831226e-01 6:-7.6095551560e-01 7:-3.7929943543e-01 8:-4.1470992134e-01 9:-1.6355055183e-01 10:-7.8507024303e-01 11:-6.7315221138e-01 12:-5.3228399391e-01 13:4.4720337390e-01 14:-6.5562022684e-01 15:-3.4769835414e-02 16:5.5098687472e-01 17:-9.0044170019e-01 18:-2.5183151056e-02 19:1.2142895799e-01 20:4.5704675924e-01 21:-6.4539659182e-01 22:5.5720752349e-01 23:2.9810447679e-01 24:6.1838625354e-01 25:-8.0755611284e-01 26:9.2941462137e-01 27:-7.3544703729e-01 28:-5.9726565532e-01 29:6.2358236397e-01 30:-3.2041350740e-01 31:2.7538882122e-01 32:4.0667880733e-01 33:6.4220968386e-01 34:3.4386999543e-01 35:-6.8191658022e-01 36:7.0759397635e-01 37:-6.6977147282e-01 38:4.8700366363e-01 39:-2.4491943254e-01 40:-1.5232974863e-01 41:5.3084513954e-01 42:-5.9494887853e-01 43:-4.5832093196e-01 44:-5.8312971872e-01 45:1.1213590472e-01 46:-1.3714925529e-01 47:-7.3863867217e-01 48:-7.8577676834e-01 49:8.4494827582e-02 50:-3.1978424071e-01 51:-6.0616584549e-01 52:-7.4657595383e-01 53:-5.7561724883e-01 54:-4.2983204057e-01 55:-5.2866036926e-01 56:-6.5704311444e-01 57:6.9355079498e-01 58:2.6323425036e-01 59:2.7624234221e-02 60:8.2903408155e-01 61:-9.5422332235e-02 62:6.0565645673e-01 63:-4.0406388760e-01 64:4.0961433024e-01 65:-5.4065427326e-01 66:-3.9894258061e-01 67:7.4481490907e-01 68:-6.7327672890e-01 69:5.8073324551e-01 70:2.8856895888e-01 71:6.5727314539e-01 72:-4.0763530952e-02 73:-7.1461656081e-01 74:4.7258185180e-01 75:9.7252631066e-01 76:-8.6153389548e-01 77:-1.9214239614e-01 78:-6.5010823592e-01 79:-2.5637643366e-01 80:-5.9147705635e-01 81:-9.6683423433e-01 82:-5.2738683956e-01 83:1.0225358935e-01 84:-4.0135517196e-01 85:-1.8116670888e-01 86:6.9218482974e-01 87:5.5961125987e-01 88:-5.3734746869e-01 89:5.7262340779e-01 90:6.1943621478e-01 91:-5.6226654934e-01 92:-5.9846985396e-01 93:-2.6374635889e-01 94:-4.1386168624e-01 95:4.4786405441e-01 96:5.3769928536e-01 97:-8.1739814314e-01 98:-5.5598626596e-01 99:8.8139339126e-01 100:-6.1170731262e-01 101:-3.0084142653e-01 102:5.1434872103e-01 103:-2.9864840094e-01 104:3.9035110533e-01 105:-2.5184476642e-01 106:5.4734462647e-01 107:7.0360241664e-01 108:-4.4068367839e-01 109:7.4586403324e-01 110:5.9319701192e-01 111:4.3064334456e-01 112:-6.6053178793e-01 113:-7.2068180134e-01 114:-4.4330490254e-01 115:-1.1647789435e-01 116:-6.2447784913e-01 117:-8.0187521303e-01 118:8.4468826918e-01 119:-4.3097136122e-01 120:-1.9923717117e-01 121:-6.7228956148e-01 122:-3.8869441537e-01 123:-8.4272058201e-01 124:-7.2855165183e-01 125:6.4379354929e-01 126:-3.1285138586e-02 127:4.5410697494e-01 128:-8.1619989771e-01 129:5.8715001753e-03 130:-4.0264196091e-01 131:-7.6058238743e-01 132:-2.2091775615e-01 133:6.0067101492e-01 134:-1.3275489844e-01 135:5.0855538025e-01 136:2.9733263132e-01 137:-7.5300000484e-01 138:7.7571494891e-01 139:-3.6868670943e-01 140:-1.6112878069e-01 141:-2.4577849958e-02 142:-4.2996362535e-01 143:-3.7473159667e-01 144:4.8699851754e-01 145:-6.3861984310e-01 146:-3.9357090297e-01 147:3.6498804576e-01 148:-4.3886845920e-01 149:-6.2526581003e-01 150:-6.9362534980e-01 151:4.6889101558e-01 152:5.0523135843e-01 153:4.0093773513e-01 154:-7.1097810313e-01 155:-4.6863887715e-01 156:5.9778375245e-01 157:-8.3547674994e-01 158:3.3067292847e-01 159:4.7052601612e-01 160:2.8885892729e-01 161:3.5464599924e-01 162:-4.6608738354e-01 163:4.1622474419e-01 164:2.7118411037e-03 165:-2.8584711740e-01 166:6.3938935605e-01 167:-9.3948344179e-01 168:2.7180247818e-01 169:-4.0637647225e-01 170:4.4581264520e-01 171:-2.6900645742e-01 172:-3.9901411417e-01 173:1.5680043172e-01 174:-4.4348289636e-02 175:-4.4681828644e-03 176:-7.0019257077e-01 177:6.0320210419e-01 178:7.1703414054e-01 179:-5.9300379951e-01 180:4.9741151333e-01 181:-7.0562758202e-01 182:-2.1082469362e-01 183:8.2527303947e-01 184:3.6212443800e-01 185:-6.4119702681e-01 186:6.8898682370e-01 187:7.1166705960e-01 188:-3.1766994734e-01 189:-7.2996660564e-01 190:5.8587747728e-02 191:1.9562913528e-01 192:5.8213118707e-01 193:7.5731241557e-01 194:2.9879797971e-01 195:-5.4226618002e-02 196:-8.9165290839e-01 197:7.2473912997e-01 198:-4.2429551686e-01 199:8.3229002260e-01 200:4.2439341287e-01 
-5.7156643253e-03 5.7156576340e-03 1:-6.4265026434e-01 2:-3.2654347976e-01 3:5.3804919685e-01 4:-9.3371816500e-01 5:-6.5348451883e-01 6:-9.2815264515e-01 7:-5.6758953933e-02 8:-5.1597743252e-01 9:4.0692212230e-01 10:-1.3660158931e-01 11:-8.5771874513e-01 12:-1.9383432147e-01 13:2.1618318760e-01 14:-9.1058298992e-01 15:3.0328126183e-02 16:6.9221374631e-01 17:-3.3316725664e-01 18:-7.3969253096e-01 19:3.6483026486e-01 20:4.6109563405e-01 21:-5.7749159989e-01 22:7.5589278643e-01 23:5.4272373277e-02 24:7.0216292677e-01 25:-4.6733099474e-01 26:7.0461611259e-01 27:-6.2477849170e-01 28:-2.1426615100e-01 29:3.2803695028e-01 30:-5.6014667555e-01 31:3.5975252056e-01 32:8.9273422142e-01 33:3.5769187693e-01 34:7.4208420241e-01 35:-8.2911082546e-01 36:6.5293859388e-01 37:-7.8506185309e-01 38:6.1961449357e-01 39:-5.4085531068e-01 40:-1.6104751835e-01 41:1.4024851541e-01 42:-4.3792736099e-01 43:-5.2512349825e-01 44:-5.1628433607e-01 45:6.4575036443e-01 46:-5.7357608635e-01 47:-8.0304600065e-01 48:-7.5309786596e-01 49:7.3671519618e-01 50:-4.2028336601e-01 51:-8.7189905695e-01 52:-8.0835256342e-01 53:-9.1722247207e-01 54:-3.2715912290e-01 55:-7.1312827758e-01 56:-5.8436242383e-01 57:7.5813569264e-01 58:7.1140237703e-01 59:1.6416893317e-01 60:7.1433397380e-01 61:-7.7254509194e-01 62:4.6964662542e-01 63:-7.1868452161e-01 64:3.0943966410e-01 65:-5.7045112778e-01 66:-7.0931348009e-01 67:7.2085396761e-01 68:-4.9086204773e-01 69:4.2474946979e-01 70:4.4039777596e-01 71:7.3449578461e-01 72:-2.9875230994e-01 73:-8.5720777910e-01 74:6.6075297058e-01 75:8.3108809324e-01 76:-6.2365126978e-01 77:-1.8800898303e-01 78:-6.1361531899e-01 79:7.4854544923e-01 80:-4.5241566500e-01 81:-5.1167720287e-01 82:-1.7124004179e-01 83:2.2997518130e-02 84:-5.4471281385e-01 85:3.0144653928e-01 86:6.2593150836e-01 87:7.6416862117e-01 88:-5.4006450562e-01 89:3.8648405608e-01 90:2.5456514802e-01 91:-6.1831947935e-01 92:-7.6232049995e-01 93:-5.1420821256e-01 94:-3.3261989419e-01 95:3.8922451694e-01 96:6.2241528898e-01 97:-4.1752055810e-01 98:-6.8689564432e-01 99:7.2499376711e-01 100:-2.3865102683e-01 101:-6.2702309639e-01 102:9.1424107057e-01 103:2.6248981648e-01 104:7.5827319371e-01 105:-6.2838973695e-01 106:4.3640821494e-01 107:1.0066347250e-01 108:-1.1722245806e-01 109:2.2815350046e-01 110:5.4524321154e-01 111:5.3303081570e-01 112:-4.9614304733e-01 113:-7.1085490352e-01 114:-4.5197600197e-01 115:5.2397590829e-01 116:-6.2530998942e-01 117:-5.2195921099e-01 118:7.8100981331e-01 119:-9.2721470986e-01 120:-5.2516017575e-01 121:-5.6777005734e-01 122:-6.1344001445e-01 123:-4.8068871388e-01 124:-3.9668198063e-01 125:5.1444164938e-01 126:9.7444794708e-02 127:4.6586169305e-01 128:-5.2783308986e-01 129:3.7957594218e-01 130:-2.3353631430e-01 131:-8.3509821986e-01 132:4.4108484869e-04 133:6.0821825596e-01 134:-7.5632579960e-02 135:4.8686139342e-01 136:-2.6473522578e-01 137:-5.7084326178e-01 138:5.9680431151e-01 139:-4.5088702366e-01 140:-3.0697383991e-01 141:-4.6042398983e-01 142:-5.6449760581e-02 143:-4.6465663235e-01 144:4.8319271051e-01 145:-5.5731706621e-01 146:-1.9014900127e-01 147:5.7366886059e-01 148:-3.1404287086e-01 149:-5.6920061918e-01 150:-6.9607037740e-01 151:-3.3356552704e-01 152:4.3234285110e-01 153:5.4510929214e-01 154:-8.3893962289e-01 155:-4.4991340408e-01 156:6.2799818838e-01 157:-6.9575454165e-01 158:4.3869820623e-01 159:3.0988777592e-01 160:4.3588077811e-01 161:4.0548536311e-01 162:-6.6798467754e-01 163:3.1392489940e-01 164:3.6295625426e-01 165:2.1346523325e-01 166:1.4848811281e-01 167:-5.5001528706e-01 168:3.6367725724e-01 169:-7.0216777413e-01 170:7.3934497392e-01 171:-3.2366329068e-01 172:-2.8582144370e-01 173:3.3063124113e-02 174:4.7679867664e-01 175:-1.0020633445e-02 176:-7.1559056227e-01 177:1.0000000000e+00 178:7.5056940865e-01 179:-8.6315619720e-01 180:5.1329685540e-01 181:-6.3925668021e-01 182:-6.6829976223e-01 183:8.8818170722e-01 184:7.1554989497e-01 185:-1.6090767165e-01 186:4.4266376653e-01 187:5.7771043000e-01 188:-5.3380840548e-01 189:-6.2563727682e-01 190:5.0088404877e-02 191:3.0148384512e-01 192:8.7448486636e-01 193:4.8873644340e-01 194:4.8502808360e-01 195:-9.0485319380e-01 196:-8.9392615568e-01 197:3.7807729470e-01 198:-4.7361895186e-01 199:8.0228631502e-01 200:2.7876064207e-01 
1.0384372398e-02 -1.0384371238e-02 1:-6.9394503704e-01 2:-6.0092905615e-01 3:6.9483997388e-01 4:-7.6814042197e-01 5:-7.3286644598e-01 6:-5.9420391959e-01 7:-2.8689437390e-01 8:-6.9602761617e-01 9:6.8622950969e-02 10:4.7491083099e-01 11:-5.7947221410e-01 12:-3.8280086380e-01 13:4.8155822938e-01 14:-7.2942111361e-01 15:2.1648919506e-01 16:5.9068364413e-01 17:-2.2713067196e-01 18:-4.6026403717e-01 19:6.9012669909e-01 20:6.3670022521e-03 21:-6.1740121302e-01 22:8.1076961415e-01 23:5.3821723683e-01 24:-4.8720652507e-02 25:-9.0283564462e-01 26:7.7478229620e-01 27:-7.9446954753e-01 28:-5.4038189475e-01 29:7.5082758254e-01 30:-6.7459387583e-01 31:5.3447313918e-01 32:3.8960298036e-01 33:7.7079604138e-01 34:3.8428860794e-01 35:-6.1318944266e-01 36:8.1558221883e-01 37:-7.1816046828e-01 38:5.4336470715e-01 39:-4.5426087663e-01 40:-4.4927029959e-01 41:1.5293178712e-01 42:-7.2715080843e-01 43:-3.4988475898e-02 44:-5.6007652745e-01 45:5.3731804086e-01 46:-3.0873976534e-01 47:-2.3258988418e-01 48:-6.8683147801e-01 49:2.5250993131e-02 50:-2.0230042287e-01 51:-6.2594032794e-01 52:-8.1260108080e-01 53:-3.8573490120e-01 54:-1.8984183447e-01 55:-7.5137086357e-01 56:-5.2835451704e-01 57:6.9917960783e-01 58:8.4029511703e-01 59:3.7610206590e-01 60:6.7899314011e-01 61:-3.2326814614e-01 62:7.0667970826e-01 63:-4.7760094818e-01 64:2.7311456427e-01 65:-6.7173988645e-01 66:-5.3375814305e-01 67:8.6878006635e-01 68:-6.1370529142e-01 69:6.6670248284e-01 70:7.1082024590e-01 71:7.6602460001e-01 72:3.6686873432e-03 73:-3.0399927225e-01 74:6.1486436091e-01 75:9.5455100477e-01 76:-8.0910186331e-01 77:-1.5425022206e-01 78:2.0673328824e-01 79:7.6754589426e-02 80:-3.7987724625e-01 81:-7.1779571608e-01 82:-3.9747754841e-01 83:2.5607392194e-01 84:-3.0257898343e-01 85:3.2716461484e-01 86:6.1923177719e-01 87:7.8591329461e-01 88:-5.5461576699e-01 89:4.9751227474e-01 90:5.3216706463e-01 91:-5.7392041037e-01 92:-6.6991880001e-01 93:-5.4902194216e-01 94:4.0015018659e-01 95:5.0785451173e-01 96:6.5644044755e-02 97:-5.8386726701e-01 98:-4.2127306996e-01 99:7.8932806605e-01 100:-4.3319274280e-01 101:-6.9469912974e-01 102:6.8397018822e-01 103:7.4927955079e-01 104:5.8850069557e-01 105:-6.6940783816e-01 106:3.5963888046e-01 107:2.2080968727e-01 108:-3.3433323992e-01 109:4.8387527841e-01 110:2.6224795173e-01 111:4.7415162012e-01 112:-5.5471450497e-01 113:-6.5551507227e-01 114:-2.7269540143e-01 115:2.1149718330e-01 116:-3.0088216668e-01 117:-3.2605879284e-01 118:4.1533841432e-01 119:-4.5916164371e-01 120:-4.7765826688e-01 121:-5.7216642473e-01 122:-5.6364025985e-01 123:-8.7757578040e-01 124:-3.6563766624e-01 125:7.6403442660e-01 126:3.7452825794e-01 127:5.4444885501e-01 128:-7.9383311740e-01 129:-1.1142897157e-01 130:-3.8163373068e-01 131:-7.4022933136e-01 132:1.3851415404e-01 133:6.7379594336e-01 134:-4.9741608713e-01 135:1.6574620980e-02 136:2.3944187762e-01 137:-4.6882703712e-01 138:6.1126028585e-01 139:-4.6347988342e-01 140:-5.0271464287e-01 141:-6.0101578197e-01 142:-3.6171214497e-03 143:-5.2393856853e-01 144:5.2805218381e-01 145:-6.1561270438e-01 146:-2.6464610106e-01 147:1.0000000000e+00 148:-4.6943465370e-01 149:-3.3117012626e-01 150:-8.5359194672e-01 151:-1.2077106458e-01 152:5.9271512232e-01 153:6.5192819535e-01 154:-7.0296681500e-01 155:-3.8385412423e-01 156:7.9857424460e-01 157:-5.7190359386e-01 158:5.7640461692e-01 159:2.4113552927e-01 160:5.3919020054e-01 161:3.9344072748e-01 162:-3.6676546704e-01 163:4.9354035262e-01 164:2.2218821643e-03 165:-1.8056486550e-01 166:2.6511079662e-01 167:-5.3359047470e-01 168:5.1447700759e-01 169:-5.3581989324e-01 170:5.2476544049e-01 171:-2.9302558969e-01 172:-3.8564314448e-01 173:2.0450281852e-01 174:3.5223537491e-01 175:-3.8959657148e-01 176:-7.2518818485e-01 177:6.9069294961e-01 178:7.0616195321e-01 179:-5.4038988343e-01 180:1.9540835854e-01 181:-5.8293270781e-01 182:-5.2929916564e-01 183:7.5767901740e-01 184:9.5509258479e-02 185:-2.5774450010e-03 186:5.3342317601e-01 187:6.1266089167e-01 188:1.3629163215e-01 189:-7.1371448157e-01 190:-1.1047918373e-01 191:8.8910278828e-02 192:9.2271204368e-01 193:7.9411251530e-01 194:4.7192419161e-01 195:-1.0007440391e-01 196:-6.6709620607e-01 197:5.1062223275e-01 198:-2.2580035438e-01 199:8.2120591421e-01 200:1.3312032872e-01 
-1.7641381073e-03 1.7641130956e-03 1:-6.4114760995e-01 2:3.3686298876e-01 3:5.5175700870e-01 4:-7.4751044314e-01 5:-6.7683869217e-01 6:-5.5813632781e-01 7:-3.6237954792e-01 8:-5.2016528842e-01 9:-2.3948475366e-01 10:-3.2391514039e-02 11:-6.4485140781e-01 12:-6.7520570430e-01 13:8.2706158356e-01 14:-6.7971800024e-01 15:-1.8022858357e-02 16:5.9361200046e-01 17:-6.0582078098e-01 18:5.4283966496e-02 19:2.4389805334e-01 20:3.0398606951e-01 21:-5.4638336606e-01 22:8.1471009892e-01 23:2.4712393033e-01 24:5.7937100571e-01 25:-7.1251910248e-01 26:7.9361123473e-01 27:-5.5047813329e-01 28:-4.1065605623e-01 29:5.0369719557e-01 30:-5.7030242202e-01 31:8.6562225298e-01 32:5.2150685612e-01 33:3.4681615177e-01 34:7.5232100472e-02 35:-7.5696532471e-01 36:8.9917330389e-01 37:-7.9365276601e-01 38:7.9949581743e-01 39:-7.5658335900e-02 40:-1.7730653857e-02 41:5.3342474874e-02 42:-3.0971528999e-01 43:-5.0410728001e-01 44:-5.5854947355e-01 45:6.8735411332e-01 46:-3.7638796839e-01 47:-4.6925885404e-01 48:-5.0270676874e-01 49:-1.5896994735e-01 50:-2.0619901081e-01 51:-6.6559276196e-01 52:-8.5780474983e-01 53:-4.2381828974e-01 54:-5.8026084514e-01 55:-6.9145716148e-01 56:-7.1269803816e-01 57:6.1356052526e-01 58:6.9860435913e-01 59:5.0049712785e-01 60:7.3819735856e-01 61:-2.2864137277e-01 62:5.9915794040e-01 63:-3.5956233834e-01 64:5.4373435571e-01 65:-5.6084960968e-01 66:-5.1693864915e-01 67:7.0370774583e-01 68:-5.5841270844e-01 69:8.4275876696e-01 70:4.5327387512e-01 71:5.9027407022e-01 72:-5.3922377295e-01 73:1.8236037078e-01 74:7.5518228900e-01 75:5.4855542742e-01 76:-7.5933742787e-01 77:-2.7775930057e-01 78:-4.4712354931e-01 79:1.0602037903e-01 80:-2.8249179185e-01 81:-8.0222125958e-01 82:-3.7476400446e-01 83:4.2537275067e-02 84:-8.0584857419e-01 85:-5.5034904922e-02 86:8.8428125552e-01 87:7.2400540693e-01 88:-4.5129704131e-01 89:7.0709839628e-01 90:3.7067567922e-01 91:-6.3965376067e-01 92:-5.3942495283e-01 93:-2.7649058893e-01 94:-1.1618914542e-01 95:5.4762893284e-01 96:6.6147380664e-01 97:-7.4129243754e-01 98:-4.7318522229e-01 99:7.4008795270e-01 100:-4.3568444038e-01 101:-5.5361528277e-01 102:7.0645219800e-01 103:2.9274667626e-01 104:8.6383157005e-01 105:-7.5572266870e-01 106:3.1361578803e-01 107:7.4289395970e-01 108:9.1023870575e-02 109:3.7048211305e-01 110:4.2956389870e-01 111:5.4649828765e-01 112:-3.8496054382e-01 113:-7.8230451216e-01 114:-6.2594487135e-01 115:-2.1223995583e-01 116:-5.1301762955e-01 117:-5.8658825619e-01 118:7.5114001843e-01 119:-6.0366295712e-01 120:-3.2038873961e-01 121:-6.6542332218e-01 122:-4.9940038644e-01 123:-5.4883412449e-01 124:-6.9065469528e-01 125:6.2740767858e-01 126:4.2951394226e-01 127:4.4317995426e-01 128:-5.3116514966e-01 129:-1.9420476193e-01 130:-5.7024220109e-01 131:-5.8783896058e-01 132:-2.5815472816e-01 133:4.2267196717e-01 134:-2.5604484274e-01 135:2.2233276203e-01 136:-1.5908643287e-01 137:-5.0955758811e-01 138:6.9680181267e-01 139:-5.3022237310e-01 140:-6.1810579081e-01 141:-3.2343270217e-01 142:-4.4650550017e-02 143:-5.2278830052e-01 144:7.8383872175e-01 145:-5.4593708568e-01 146:-3.8069570459e-01 147:6.7513995522e-01 148:-7.0697238200e-01 149:-2.5580265116e-02 150:-7.5009084654e-01 151:7.6888072047e-02 152:5.4188958910e-01 153:3.7988420789e-01 154:-8.0823063627e-01 155:-5.3033525387e-01 156:5.2146927140e-01 157:-7.6613678306e-01 158:5.7265329182e-01 159:5.7412302876e-01 160:7.1309227628e-01 161:8.5920800121e-01 162:-4.7223085797e-01 163:-1.3399173293e-03 164:-4.8604764498e-01 165:-6.9027699990e-02 166:1.8285654512e-02 167:-7.3826921736e-01 168:6.9738788855e-01 169:-2.6771771624e-01 170:5.8043678186e-01 171:-7.2494035499e-02 172:-3.1600539047e-01 173:-2.6308041128e-02 174:2.8209313922e-01 175:-3.8432653648e-01 176:-6.8570206622e-01 177:6.4633342894e-01 178:8.6380740365e-01 179:-4.9585824798e-01 180:5.3788140963e-01 181:-4.9401497415e-01 182:-1.2059447041e-01 183:7.7116243055e-01 184:2.7578435238e-01 185:-4.7106955371e-01 186:5.3330733169e-01 187:5.3755749441e-01 188:-6.2508621940e-01 189:-6.7511161593e-01 190:3.5621585497e-01 191:1.6317913386e-01 192:9.0241970283e-01 193:5.2086135930e-01 194:3.2156393382e-01 195:2.3884143093e-01 196:-8.9348063941e-01 197:6.8255709820e-01 198:1.1169300247e-01 199:8.4539156493e-01 200:3.4717261969e-01 
-8.8489555651e-03 8.8489541649e-03 1:-4.7624915889e-01 2:-5.2758929406e-02 3:4.5643873027e-01 4:-5.9524172312e-01 5:-6.9864811909e-01 6:-7.2670301103e-01 7:-3.9044300053e-01 8:-6.0402683274e-01 9:2.3117605055e-01 10:3.4429272369e-01 11:-5.3044623224e-01 12:-3.8244671381e-01 13:5.3085268419e-01 14:-6.7418856320e-01 15:3.1892887894e-01 16:3.4901147504e-01 17:-3.4269505938e-01 18:-5.7509540538e-01 19:2.7833204410e-01 20:2.3543364372e-01 21:-6.2491296913e-01 22:6.9491908571e-01 23:5.5182373516e-01 24:-3.0996236737e-01 25:-7.6398486583e-01 26:6.5388425575e-01 27:-7.6592933242e-01 28:-4.3153523263e-02 29:3.8434620633e-01 30:-4.8388234351e-01 31:1.1691620952e-01 32:5.5240433937e-01 33:6.0150241127e-01 34:5.1222869892e-01 35:-7.6618644809e-01 36:7.1936516902e-01 37:-5.7348593891e-01 38:7.6952001256e-01 39:-2.6565240562e-01 40:-4.9982289425e-01 41:-8.9810342960e-02 42:-8.1451633510e-01 43:-4.2087977805e-01 44:-5.7858718375e-01 45:2.7894528649e-01 46:-4.0468313323e-01 47:-6.2801386493e-01 48:-7.8500857978e-01 49:-2.6882767597e-01 50:-3.0048722796e-01 51:-8.3334166114e-01 52:-5.1036444964e-01 53:-3.0865986336e-01 54:-6.0388027156e-01 55:-7.4403207713e-01 56:-7.7316400929e-01 57:7.7928932487e-01 58:8.6784602273e-01 59:-4.5880896494e-02 60:7.7875263179e-01 61:-4.7125527176e-01 62:4.6326220231e-01 63:-6.8484880942e-01 64:4.2447797405e-01 65:-4.9297926382e-01 66:-5.7631639604e-01 67:7.5441445753e-01 68:-5.3595734348e-01 69:6.8508438691e-01 70:3.9809599005e-01 71:4.5130064830e-01 72:-3.6001571352e-01 73:-6.6135612682e-01 74:8.1835415316e-01 75:6.1283166971e-01 76:-8.7948334479e-01 77:-4.7289878244e-01 78:-4.9434777197e-01 79:-7.2156477541e-02 80:-3.7185292980e-01 81:-4.9194756272e-01 82:-4.5397700987e-01 83:1.3298315045e-01 84:-3.4611373821e-01 85:5.2449599459e-03 86:7.5334182794e-01 87:7.8964071528e-01 88:-4.8584839795e-01 89:3.9063319965e-01 90:8.8729435564e-01 91:-7.7514871857e-01 92:-6.9039702057e-01 93:-6.7428659254e-01 94:2.4214272319e-01 95:4.7119520821e-01 96:6.6321961229e-01 97:-4.9920293725e-01 98:-5.1605913984e-01 99:6.9587726962e-01 100:-5.8107352175e-01 101:-8.8940375196e-01 102:7.0555292060e-01 103:-1.3622641896e-02 104:7.5381017731e-01 105:-5.2010925077e-01 106:8.6101779631e-01 107:3.3574092843e-01 108:9.5558038860e-03 109:5.0559768048e-01 110:8.0020191613e-01 111:5.1897814315e-01 112:-4.5423587055e-01 113:-6.6684428222e-01 114:-2.8831302685e-01 115:2.6592301595e-01 116:-4.4483338891e-01 117:-6.0390885447e-01 118:5.2686533086e-01 119:-2.5015191625e-01 120:-3.0772985877e-01 121:-6.9944708774e-01 122:-7.4929644757e-01 123:-5.8091629737e-01 124:-6.9095474727e-01 125:5.6109508807e-01 126:5.2773510310e-01 127:6.9842439997e-01 128:-6.3092068860e-01 129:6.1824748066e-01 130:-2.2423633573e-01 131:-8.3514751841e-01 132:-1.1675546665e-01 133:5.6743030807e-01 134:-6.2004096300e-01 135:-1.3604814127e-01 136:-8.6987206099e-02 137:-5.1470659109e-01 138:6.2793992086e-01 139:-6.0034593168e-01 140:-6.3202297728e-01 141:-3.7105247923e-01 142:1.8840086121e-01 143:-4.5672960119e-01 144:6.7371100276e-01 145:-5.7662740173e-01 146:-3.9526275793e-01 147:4.9351170951e-01 148:-5.9778040171e-01 149:-1.8178248125e-01 150:-8.5976836746e-01 151:-5.9136745068e-02 152:7.9318685589e-01 153:6.9169401536e-01 154:-7.1372475271e-01 155:-4.4500316301e-01 156:6.4575478132e-01 157:-9.1258425365e-01 158:4.4041485145e-01 159:5.9922279679e-02 160:4.6567218753e-01 161:5.8553483846e-01 162:-5.1486300570e-01 163:2.9023540321e-01 164:7.3538185166e-02 165:3.5106403383e-01 166:2.3454231140e-01 167:-1.0000000000e+00 168:7.5756076742e-01 169:-4.0782443145e-01 170:7.5453441132e-01 171:-5.7599043144e-01 172:-7.1077708849e-01 173:1.3732948168e-02 174:5.6930525360e-01 175:-5.1291339095e-01 176:-7.6766444828e-01 177:4.6533826050e-01 178:6.5196221518e-01 179:-3.7167083360e-01 180:3.3436114226e-01 181:-4.7688536092e-01 182:-3.2723530536e-01 183:7.8281782638e-01 184:4.8861143981e-01 185:-5.7651782700e-01 186:6.4148949732e-01 187:8.1943697400e-01 188:-1.9730666608e-01 189:-5.1910502124e-01 190:-1.2062765137e-01 191:-2.9521609419e-01 192:8.2664600273e-01 193:5.3802529143e-01 194:2.6037764781e-01 195:-8.2953990440e-02 196:-7.9299695875e-01 197:6.8143775000e-01 198:-5.6654805612e-01 199:8.3874164410e-01 200:1.1699501973e-01 
-3.1091127613e-03 3.1090921664e-03 1:-5.4737707905e-01 2:-6.9111212393e-01 3:5.6098050186e-01 4:-6.1140672041e-01 5:-8.1634656614e-01 6:-8.4012710214e-01 7:-4.6430211118e-01 8:-5.8916174708e-01 9:3.3288654746e-01 10:-1.7375001866e-02 11:-7.0332759223e-01 12:-2.9518122358e-01 13:3.2129832802e-01 14:-6.6776967132e-01 15:1.3752411325e-01 16:5.9638698898e-01 17:-5.6529044691e-01 18:4.9900898652e-01 19:7.6587055420e-01 20:5.2968121706e-01 21:-6.5497216957e-01 22:6.9123497848e-01 23:4.8233635356e-01 24:-9.9842617262e-02 25:-7.3379267319e-01 26:4.2861987772e-01 27:-6.1561433801e-01 28:-5.5627417380e-01 29:5.1126584396e-01 30:-6.5903711244e-01 31:4.9832266731e-01 32:5.6627063467e-01 33:4.7555310863e-01 34:3.6501694438e-01 35:-7.2007537856e-01 36:6.0669739556e-01 37:-4.8226787253e-01 38:6.0367029116e-01 39:-9.8546411959e-02 40:-2.2785836629e-01 41:2.9869998543e-01 42:-3.6673248044e-01 43:-2.1923679768e-01 44:-4.0014480677e-01 45:8.0541132533e-01 46:-3.0541542366e-01 47:-3.8405188958e-01 48:-6.8659928192e-01 49:2.1625967853e-02 50:-4.9139666393e-01 51:-8.3746346169e-01 52:-7.2891044625e-01 53:-5.9114968524e-01 54:-2.4877010559e-01 55:-6.6424156628e-01 56:-6.0420294891e-01 57:7.0968522825e-01 58:8.7923727301e-01 59:9.6382304001e-02 60:6.5975719435e-01 61:-3.2860692924e-01 62:7.7257483332e-01 63:-6.2781264648e-01 64:5.0730687623e-01 65:-3.3581036265e-01 66:-5.8602032916e-01 67:6.0517878983e-01 68:-5.2369785563e-01 69:8.4301023814e-01 70:4.5889682484e-01 71:7.7862890698e-01 72:-5.5896138494e-01 73:2.0355719990e-01 74:6.9856109169e-01 75:8.5189436493e-01 76:-9.8322024565e-01 77:-4.5872383912e-01 78:-3.9417645770e-01 79:4.3769792462e-01 80:-3.9308909462e-01 81:-4.8275587884e-01 82:-5.4834485555e-01 83:8.5250443354e-03 84:-1.2034956712e-01 85:2.1175454004e-01 86:7.7192739793e-01 87:7.0804120576e-01 88:-6.5143946502e-01 89:6.6609955814e-01 90:4.8613426490e-01 91:-6.6654617956e-01 92:-7.5004350225e-01 93:-3.2033413070e-01 94:2.3396013691e-01 95:3.7738610632e-01 96:5.5970217298e-01 97:-7.3745630556e-01 98:-5.8297377559e-01 99:7.6790963889e-01 100:-7.5313945919e-01 101:-6.4175762497e-01 102:4.0439873983e-01 103:-2.2193437745e-01 104:8.6419414735e-01 105:-6.7519134483e-01 106:8.0346177424e-01 107:2.6187714268e-01 108:-1.4746326761e-01 109:5.5724833396e-01 110:6.0369278325e-01 111:3.9241017636e-01 112:-4.4682496046e-01 113:-7.1016595671e-01 114:-6.8664689703e-01 115:2.5995595138e-01 116:-4.1548965207e-01 117:-5.3247430436e-01 118:1.0000000000e+00 119:-5.6397458843e-01 120:-5.5185386264e-02 121:-6.8099650670e-01 122:-4.2088683281e-01 123:-5.9130516084e-01 124:-4.1807496888e-01 125:2.5789686586e-01 126:5.2679062017e-01 127:6.2733503639e-01 128:-3.1061035941e-01 129:1.5561288579e-01 130:-3.7753742928e-01 131:-7.2255293890e-01 132:5.6292439434e-02 133:1.0000000000e+00 134:-5.0339618716e-01 135:1.1686985697e-01 136:2.3981246145e-01 137:-4.9078232517e-01 138:7.5088422237e-01 139:-1.2141187643e-01 140:-4.0800691956e-01 141:-5.0869851775e-02 142:-3.5669798116e-01 143:1.1036721754e-01 144:6.0649287251e-01 145:-4.6117614630e-01 146:-6.8480684859e-01 147:5.8058051318e-01 148:-7.9468028017e-01 149:-5.0017736332e-01 150:-7.3865984958e-01 151:5.8843863821e-02 152:7.2941103715e-01 153:1.9402729811e-01 154:-1.0000000000e+00 155:-3.0168932350e-01 156:3.2089204943e-01 157:-8.3498125886e-01 158:5.6010794847e-01 159:2.2976781817e-01 160:2.1349004337e-01 161:5.3754771567e-01 162:-2.7425265557e-01 163:2.7448297955e-01 164:3.1385474364e-01 165:-2.3503396614e-01 166:3.1983188048e-01 167:-8.5366867772e-01 168:8.0331638086e-01 169:-5.0107659828e-01 170:8.8540203512e-01 171:-2.5584233313e-01 172:-5.7441503244e-01 173:1.2385182630e-01 174:5.1223474067e-01 175:4.7962921366e-01 176:-6.0514287488e-01 177:5.5665932465e-01 178:6.5369118396e-01 179:-4.5472278404e-01 180:5.6675680887e-01 181:-6.0708638510e-01 182:-2.1298702203e-01 183:8.0937780064e-01 184:1.5733458513e-01 185:-2.8402992551e-01 186:4.0324364432e-01 187:6.5216402096e-01 188:-4.0450388725e-01 189:-6.6431945632e-01 190:3.6542078668e-01 191:7.7537697016e-02 192:6.2676480097e-01 193:5.2072369129e-01 194:3.0124320744e-01 195:-6.2773826857e-01 196:-8.1501138515e-01 197:7.7883967569e-01 198:-6.1126711454e-01 199:6.6938855623e-01 200:5.7392283639e-01 
1.0107123954e-02 -1.0107135672e-02 1:-7.5685393479e-01 2:2.6356147031e-01 3:5.0101826824e-01 4:-5.7497810933e-01 5:-5.8033681218e-01 6:-5.6617959603e-01 7:-7.9421875093e-02 8:-7.1562247409e-01 9:5.4538759278e-03 10:-6.9366696646e-02 11:-6.9581195322e-01 12:-4.0658233799e-01 13:5.0841580136e-01 14:-4.9595792887e-01 15:3.2480697437e-01 16:5.1244958159e-01 17:-7.8687373815e-01 18:1.6254387268e-01 19:9.7716123907e-02 20:2.1303517841e-01 21:-6.6357408046e-01 22:9.7530145965e-01 23:4.0690369070e-01 24:-3.3278334373e-01 25:-7.1673617213e-01 26:8.1336001960e-01 27:-3.8556877310e-01 28:-7.2082931548e-02 29:5.2783741746e-01 30:-4.9346887644e-01 31:-2.7280167941e-02 32:5.0068626070e-01 33:2.7272436695e-01 34:1.6607065669e-01 35:-6.6626629096e-01 36:6.6898805572e-01 37:-7.2615584055e-01 38:5.8944823083e-01 39:1.2312258172e-01 40:9.2541670261e-02 41:9.1582810219e-02 42:-5.4838157083e-01 43:-4.7909191167e-01 44:-5.2110308009e-01 45:3.3080537020e-01 46:-4.5810423923e-01 47:-6.4241570638e-01 48:-4.7631007221e-01 49:1.3008668872e-01 50:-4.8741628258e-01 51:-7.3562346910e-01 52:-7.1888926143e-01 53:-3.6260327684e-01 54:-3.6136645185e-01 55:-6.3207694397e-01 56:-8.5347788525e-01 57:7.7085312406e-01 58:8.2335813210e-01 59:1.7309474081e-01 60:7.9817393001e-01 61:-7.5781708876e-01 62:6.5302160490e-01 63:-5.1715983883e-01 64:7.7224936781e-01 65:-2.5637730474e-01 66:-4.7224493702e-01 67:7.1048971322e-01 68:-5.2924134398e-01 69:5.7603680174e-01 70:3.1662727831e-01 71:7.7814910520e-01 72:-5.4678745315e-01 73:-3.8632669693e-01 74:5.5395736895e-01 75:7.5899215110e-01 76:-5.4268405152e-01 77:-6.2695140237e-02 78:-3.7251681127e-01 79:4.9570645046e-01 80:-3.5447166390e-01 81:-6.2667585540e-01 82:-2.6159516100e-01 83:1.1940392616e-01 84:-4.8482916110e-01 85:1.4206600017e-01 86:8.3329734099e-01 87:6.4162963653e-01 88:-6.8559120564e-01 89:6.6971442725e-01 90:4.1255962379e-01 91:-7.0757205621e-01 92:-6.8137821256e-01 93:-6.5903747537e-01 94:-6.9744848025e-01 95:6.1522670976e-01 96:1.7779859704e-01 97:-7.7429854581e-01 98:-2.0330267583e-01 99:9.4299238210e-01 100:-3.4539097797e-01 101:-5.0596882242e-01 102:5.0507236572e-01 103:2.0594943738e-01 104:5.9039907897e-01 105:-7.6189044431e-01 106:4.5281977529e-01 107:7.3337521666e-01 108:-2.1457324760e-01 109:5.9052943496e-01 110:4.9535617547e-01 111:5.1387913642e-01 112:-1.0000000000e+00 113:-6.6132624319e-01 114:-4.7500644786e-01 115:-2.4184195861e-02 116:-6.8256798278e-01 117:-6.0409260678e-01 118:7.7834740527e-01 119:-5.4938856417e-01 120:-6.8001054340e-01 121:-5.8469375801e-01 122:-6.3021806137e-01 123:-6.1744192922e-01 124:-5.5851538279e-01 125:7.1326921732e-01 126:1.3947824314e-02 127:6.4064097552e-01 128:-6.0940682817e-01 129:-2.0226037613e-01 130:-5.0278028118e-01 131:-5.7139105488e-01 132:1.3498498967e-01 133:6.7060514797e-01 134:-7.8733802674e-01 135:-3.9759565226e-02 136:2.7261091543e-01 137:-6.9742718540e-01 138:6.5577650185e-01 139:-7.1263870397e-01 140:-2.4976050297e-01 141:-3.1631033112e-01 142:-5.0603988182e-01 143:-1.6168806040e-01 144:4.0175531570e-01 145:-5.5951913127e-01 146:-3.9693440281e-01 147:9.6986909940e-02 148:-5.7811062119e-01 149:-3.9779836000e-01 150:-7.4639619727e-01 151:-5.0247210871e-02 152:4.0602541147e-01 153:7.2315163919e-01 154:-8.0736706135e-01 155:-3.7535795475e-01 156:4.3792636479e-01 157:-7.6313692939e-01 158:7.0545002391e-01 159:1.1933696954e-01 160:4.3759310117e-01 161:4.6124223460e-01 162:-6.0854869402e-01 163:3.9860327130e-01 164:-5.2546614020e-01 165:2.1668661825e-01 166:2.7709295168e-01 167:-3.4498991683e-01 168:6.2314555667e-01 169:-5.8741799543e-01 170:8.5192247988e-01 171:1.9628833616e-01 172:-2.0746040610e-01 173:4.8214114967e-01 174:-6.3545280468e-02 175:1.1734234846e-01 176:-6.9758565079e-01 177:3.7551842944e-01 178:8.0356038401e-01 179:-9.5126805716e-01 180:2.6692198157e-01 181:-3.6383804556e-01 182:-6.4793888368e-01 183:7.5246636451e-01 184:1.9371298440e-01 185:-2.9404918776e-01 186:5.1060610873e-01 187:5.1866386314e-01 188:-4.6035269278e-01 189:-6.9943099839e-01 190:7.8443587409e-01 191:9.7204406237e-02 192:7.7621779103e-01 193:8.4434608001e-01 194:3.4261615811e-01 195:-2.0354989869e-01 196:-8.2541677407e-01 197:6.9579235393e-01 198:-4.4599420022e-01 199:8.3714707294e-01 200:3.2119394553e-01 
2.3269576560e-03 -2.3269195798e-03 1:-7.8748158003e-01 2:-6.7827012135e-01 3:5.8805482898e-01 4:-7.0894438646e-01 5:-6.0913552661e-01 6:-6.5835171607e-01 7:-5.5385796489e-01 8:-6.7889093198e-01 9:3.2652808661e-01 10:-8.0105785776e-03 11:-7.9299347758e-01 12:-5.2367662397e-01 13:3.1732024329e-01 14:-5.4144046739e-01 15:1.3339734526e-01 16:3.9659315612e-01 17:-4.6516518726e-01 18:-1.8903962204e-01 19:1.0000000000e+00 20:2.0423780268e-01 21:-5.0322076349e-01 22:5.6470566577e-01 23:7.0192325433e-01 24:5.8119593529e-01 25:-6.6657966632e-01 26:5.1504697599e-01 27:-6.7288862017e-01 28:-2.5903386226e-01 29:4.7782295359e-01 30:-6.1377384839e-01 31:9.3947072743e-02 32:5.7416708268e-01 33:3.6477003995e-01 34:7.0103938612e-01 35:-9.4705988360e-01 36:7.4457293001e-01 37:-7.6734094525e-01 38:6.7494551965e-01 39:1.9475810966e-01 40:-8.0737060236e-01 41:4.8120747838e-01 42:-6.1092193317e-01 43:-5.4720904612e-01 44:-6.8885125270e-01 45:7.3554068953e-01 46:7.3968555960e-02 47:-2.9596233102e-01 48:-5.4970129573e-01 49:4.6553313384e-01 50:-5.2530922081e-01 51:-5.0674220820e-01 52:-8.5942668708e-01 53:-5.2316677205e-01 54:-6.7037445769e-01 55:-7.4490912078e-01 56:-7.3933709460e-01 57:6.9170582023e-01 58:5.5465058778e-01 59:4.9167301088e-02 60:7.4720949937e-01 61:-5.5213974924e-01 62:4.2667725799e-01 63:-2.9596061600e-01 64:5.6193426241e-01 65:-4.0057235734e-01 66:-4.8057943964e-01 67:5.7180282122e-01 68:-6.5755098656e-01 69:5.2959037462e-01 70:4.1186328427e-01 71:5.6078794822e-01 72:-6.5480283822e-01 73:-2.3438000080e-01 74:5.8948630790e-01 75:7.2625144017e-01 76:-7.4324808813e-01 77:1.4569142593e-01 78:-4.2872299788e-01 79:9.7398449199e-02 80:-4.0149087396e-01 81:-5.4816037164e-01 82:-2.5618900299e-01 83:7.2700977353e-01 84:-5.5619177897e-01 85:2.3313652866e-01 86:7.9555107621e-01 87:7.0363806868e-01 88:-5.6306447171e-01 89:2.6816959750e-01 90:3.1724568318e-01 91:-7.1828887740e-01 92:-8.6187527622e-01 93:-1.5475144194e-01 94:-5.8516178612e-01 95:3.3671293951e-01 96:5.3956024328e-01 97:-4.8601835458e-01 98:-4.1930170361e-01 99:4.4932459617e-01 100:-6.3748792405e-01 101:-4.3305380185e-01 102:3.3331852412e-01 103:-5.6659495768e-01 104:7.2024007474e-01 105:-6.7481627661e-01 106:5.7908444369e-01 107:-1.0608408541e-01 108:-4.7997821399e-01 109:3.2181124144e-01 110:7.3498713552e-01 111:5.2955370336e-01 112:-8.4679655289e-01 113:-7.5853780508e-01 114:-3.0975112026e-01 115:5.7188536742e-02 116:-7.4126921713e-03 117:-7.1668400280e-01 118:6.6335701848e-01 119:-6.8606286952e-01 120:-6.3424712693e-01 121:-8.7486217476e-01 122:-6.6775093102e-01 123:-6.9919287042e-01 124:-6.0018765406e-01 125:5.8548770436e-01 126:2.4102611906e-01 127:6.1745471991e-01 128:-5.5238320553e-01 129:-2.3648867768e-03 130:-1.8847037349e-01 131:-6.5875864975e-01 132:-5.9750931951e-01 133:2.7204509997e-01 134:-3.4614432681e-01 135:3.5196515627e-01 136:2.6788350723e-02 137:-7.1695304225e-01 138:6.5491533728e-01 139:-5.8202838303e-01 140:-8.0925702452e-01 141:-4.6008663374e-01 142:-5.3893353728e-01 143:-2.5449735897e-01 144:4.9955062264e-01 145:-5.4906050666e-01 146:-3.9956602745e-01 147:1.4881088651e-01 148:-8.2827250089e-01 149:-3.8876053560e-01 150:-5.4794964242e-01 151:1.1736776704e-01 152:6.3861323120e-01 153:4.7391688595e-01 154:-6.2647339021e-01 155:-6.1167691136e-01 156:5.2919032524e-01 157:-7.5451631519e-01 158:6.0784911812e-01 159:-5.9967260557e-02 160:4.1493306286e-01 161:3.2860512435e-01 162:-7.1174371263e-01 163:4.9083466944e-01 164:1.2120835502e-01 165:-3.7240816079e-01 166:-8.0317510748e-02 167:-4.2286170326e-01 168:6.7367686526e-01 169:-7.6947898031e-01 170:7.6660136843e-01 171:-4.0080054163e-01 172:-5.3671739210e-01 173:5.0020115726e-01 174:-1.4813553378e-01 175:2.4184140489e-01 176:-4.0039622983e-01 177:6.7055845139e-01 178:7.2285888266e-01 179:-1.9168330305e-01 180:6.4502902850e-01 181:-4.6221021062e-01 182:-2.9539789502e-01 183:6.9651901294e-01 184:4.2300046541e-01 185:-5.4935714090e-01 186:4.8930083269e-01 187:1.0000000000e+00 188:-1.6778712645e-01 189:-5.4591886398e-01 190:-2.0465848668e-01 191:5.3242023941e-01 192:9.1700513445e-01 193:6.4994189633e-01 194:7.2657309701e-01 195:7.4678068876e-02 196:-9.0951921821e-01 197:4.1425153923e-01 198:-6.0798589574e-01 199:8.7045334421e-01 200:3.3686730664e-01 
1.4237468485e-02 -1.4237482834e-02 1:-4.0315736714e-01 2:-5.6094805957e-01 3:7.4165926993e-01 4:-6.5937117563e-01 5:-6.6928286174e-01 6:-6.7724721380e-01 7:-2.3042362283e-01 8:-3.7373426188e-01 9:3.6524701302e-02 10:5.0619783350e-01 11:-7.8142163967e-01 12:-4.2974723152e-01 13:5.4247618780e-01 14:-8.1578538308e-01 15:2.0158315590e-01 16:5.3271688848e-01 17:-5.9999183136e-01 18:-4.1516484499e-01 19:4.9101297798e-01 20:4.0310059581e-01 21:-3.3094917000e-01 22:7.6940204037e-01 23:1.6244687827e-01 24:5.0625329864e-01 25:-6.8967705590e-01 26:5.2846888331e-01 27:-4.0874877388e-01 28:-3.8614770259e-01 29:4.0746492646e-01 30:-7.8854300515e-01 31:1.0105654455e-02 32:6.8942172363e-01 33:5.9446193912e-01 34:4.9307642705e-01 35:-6.8542796654e-01 36:8.0343272265e-01 37:-8.2965599524e-01 38:5.0425467791e-01 39:3.7155302969e-01 40:-6.0014448124e-01 41:1.5250929244e-01 42:-3.9532764592e-01 43:-3.0045941400e-01 44:-4.6503234240e-01 45:3.9383176186e-01 46:-4.1083766622e-02 47:-8.0805832991e-01 48:-6.5673111888e-01 49:3.3903467107e-01 50:-4.4831292802e-01 51:-4.3659674386e-01 52:-6.7152649973e-01 53:-3.2796163189e-01 54:-4.5475124449e-01 55:-7.8368091335e-01 56:-7.3201597976e-01 57:7.3268211398e-01 58:5.5703995321e-01 59:5.4728814006e-01 60:8.0981286837e-01 61:-5.3212439344e-01 62:5.1370981422e-01 63:-5.4004086509e-01 64:5.8965474815e-01 65:-4.4998783974e-01 66:-6.5151256178e-01 67:5.6290411471e-01 68:-5.5570162853e-01 69:8.1024891382e-01 70:4.5961965454e-01 71:7.1509421360e-01 72:-2.7275431255e-01 73:-6.9318392534e-01 74:6.6291562546e-01 75:6.6570333308e-01 76:-7.5757357107e-01 77:-4.5441535427e-01 78:-4.3687463289e-01 79:-6.3753719314e-01 80:-5.1388508835e-01 81:-6.9163437411e-01 82:5.7721795665e-02 83:1.9730507580e-02 84:-6.6591596294e-01 85:3.6621544797e-01 86:6.2790722940e-01 87:7.2919820960e-01 88:-3.6559195704e-01 89:4.3554887065e-01 90:6.2484389003e-01 91:-4.6713707611e-01 92:-5.5165881283e-01 93:-1.6501397149e-02 94:-3.4691896581e-01 95:5.7384299342e-01 96:1.5457260169e-01 97:-6.6758423261e-01 98:-6.6629615799e-01 99:8.4054106829e-01 100:-1.1986424954e-01 101:-4.4913146347e-01 102:5.9143431402e-01 103:-3.6113635996e-03 104:6.0241154022e-01 105:-6.0863790836e-01 106:6.0994147059e-01 107:1.9718632613e-01 108:-4.3277130969e-01 109:5.5636808131e-01 110:7.5115100789e-01 111:4.8715158020e-01 112:-5.5081275133e-01 113:-7.8915234789e-01 114:-3.5024333779e-01 115:4.8146995903e-01 116:-4.9839896209e-01 117:-9.2063734296e-01 118:5.5066901063e-01 119:-3.7466379055e-01 120:-1.8234346680e-01 121:-8.0646600158e-01 122:-1.7966229985e-01 123:-6.5369807721e-01 124:-6.7088620166e-01 125:6.6577011277e-01 126:1.9412446097e-01 127:4.5641867549e-01 128:-5.9783390564e-01 129:2.4475078251e-01 130:-7.4122290687e-02 131:-7.0884468678e-01 132:-1.1882056639e-01 133:4.9268510960e-01 134:-3.6550733904e-01 135:1.4433230728e-01 136:-3.5246371359e-02 137:-7.0958020755e-01 138:7.1720670567e-01 139:-4.7094729653e-01 140:-7.2261383341e-01 141:-4.4278294299e-01 142:-2.2555314794e-01 143:-8.0329025909e-01 144:4.0685373763e-01 145:-5.8581369135e-01 146:-3.3340528417e-01 147:-1.4069771014e-01 148:-5.7198827740e-01 149:-1.5109212863e-01 150:-8.0080614800e-01 151:4.8789389558e-01 152:7.5750581573e-01 153:6.6146712512e-01 154:-7.9920001357e-01 155:-5.2446159419e-01 156:4.1317781993e-01 157:-5.6224234887e-01 158:-4.4834683188e-02 159:-1.6532635631e-02 160:6.5606233425e-01 161:5.2394934589e-01 162:-6.6635235011e-01 163:3.0134752809e-02 164:-2.4234378092e-01 165:-3.0749374077e-01 166:5.2834948174e-01 167:-5.6061247858e-01 168:3.5267503538e-01 169:8.6838282163e-02 170:7.9252026557e-01 171:-8.4213020915e-01 172:-4.4629208501e-01 173:-7.8231480400e-02 174:5.3375075878e-01 175:4.5149773065e-02 176:-3.8091429162e-01 177:6.6079741455e-01 178:7.5093234721e-01 179:-7.4588881577e-01 180:8.6666836302e-01 181:-6.0233613762e-01 182:-2.2903453531e-01 183:7.8873611478e-01 184:4.3254588365e-01 185:-4.8047490475e-01 186:6.5465042092e-01 187:7.4431740918e-01 188:-4.0307617195e-01 189:-7.6263526195e-01 190:1.3858563346e-01 191:4.5690487143e-01 192:8.0917033372e-01 193:5.8061707486e-01 194:8.7140639015e-02 195:-3.2438611752e-01 196:-7.8056102706e-01 197:2.6793816665e-01 198:-4.5591025340e-01 199:7.3893313326e-01 200:4.4924006242e-02 
-1.0768473428e-02 1.0768459911e-02 1:-6.9467644879e-01 2:-1.7727620102e-02 3:5.8835753732e-01 4:-7.8264511812e-01 5:-8.4237057484e-01 6:-6.7486343637e-01 7:-7.2187344501e-03 8:-6.5030250980e-01 9:5.6505864761e-01 10:-1.6337263001e-01 11:-6.6511466329e-01 12:-2.5723089501e-01 13:4.0666894105e-01 14:-5.0834789171e-01 15:3.0703227418e-01 16:7.2919968624e-01 17:-5.3857275754e-01 18:-2.8029614057e-01 19:1.3448047700e-01 20:2.8309227884e-01 21:-7.0696698012e-01 22:7.9241493290e-01 23:3.7786612454e-01 24:1.5612902798e-01 25:-7.4619933996e-01 26:6.5030913926e-01 27:-8.2678367495e-01 28:-6.3442763696e-01 29:5.7590783219e-01 30:-7.4284715617e-01 31:-4.2173815926e-02 32:4.1692967738e-01 33:5.8659967815e-01 34:5.3298080809e-01 35:-5.1860026880e-01 36:7.8972917132e-01 37:-8.2407315219e-01 38:8.6708450498e-01 39:1.6635620264e-01 40:-4.8667971694e-01 41:1.7030604388e-01 42:-1.3801943703e-01 43:-6.8589244122e-01 44:-6.2361521675e-01 45:2.5621225098e-01 46:-2.1441991478e-01 47:-4.6907069724e-01 48:-6.3782334549e-01 49:2.5240945846e-01 50:-1.3135019957e-01 51:-8.1761403094e-01 52:-7.7623004738e-01 53:-3.8361313931e-01 54:-3.0342703937e-01 55:-7.7403770468e-01 56:-7.2207021024e-01 57:7.4290854531e-01 58:6.1099293850e-01 59:8.0700917434e-02 60:7.5776807378e-01 61:-3.7689029579e-01 62:4.9563575747e-01 63:-7.9074675115e-01 64:7.2835883237e-01 65:-3.8442916165e-01 66:-3.8933873456e-01 67:7.5245216118e-01 68:-7.0490126039e-01 69:7.3729220210e-01 70:8.9269901620e-01 71:5.8260934653e-01 72:-2.1536526165e-01 73:-1.4952727856e-01 74:7.3417514536e-01 75:5.4088286542e-01 76:-7.5756260149e-01 77:-5.5675222235e-01 78:-6.0255555111e-01 79:1.5766791472e-01 80:-3.0575507919e-01 81:-6.7417197920e-01 82:-8.6598090955e-01 83:-2.0409512220e-01 84:-2.2071686875e-01 85:7.6365975888e-01 86:8.8045439648e-01 87:6.2980412517e-01 88:-2.6707574540e-01 89:5.4911781723e-01 90:4.7612162287e-01 91:-6.9276665254e-01 92:-6.1978929428e-01 93:-3.9977387343e-01 94:-7.6909512274e-01 95:6.2981652710e-01 96:4.9744765706e-01 97:-4.6493040385e-01 98:-5.4541059320e-01 99:7.4704238280e-01 100:-5.3182488767e-01 101:-4.8046652310e-01 102:7.3429575545e-01 103:-8.6805503896e-02 104:5.2611257238e-01 105:-6.2874329153e-01 106:6.4983791553e-01 107:2.7757360782e-01 108:2.4721093886e-01 109:3.5499154894e-01 110:6.2316688616e-01 111:4.4188244111e-01 112:-3.2927818730e-01 113:-5.9107329054e-01 114:-3.8054993673e-01 115:-1.4743105224e-01 116:-1.5873985013e-01 117:-6.6346069262e-01 118:6.3914862124e-01 119:-6.2392458323e-01 120:-7.5706968183e-01 121:-6.9824700366e-01 122:-5.4334424430e-01 123:-6.1811152969e-01 124:-4.4383224296e-01 125:8.3378022683e-01 126:3.9712775225e-01 127:5.6150132806e-01 128:-4.1571369123e-01 129:5.1270969138e-01 130:-3.8163633291e-01 131:-6.1936548485e-01 132:-4.7631598233e-01 133:5.3595294966e-01 134:-3.9529739602e-01 135:-1.4075384543e-01 136:3.8974731349e-02 137:-5.5233432720e-01 138:7.4211458507e-01 139:-5.9097629235e-01 140:-2.7918289805e-01 141:-4.5618465121e-01 142:-4.6296253925e-01 143:-4.1232139677e-01 144:5.3873022361e-01 145:-6.4675091603e-01 146:-3.7242619718e-01 147:4.9361428443e-01 148:-3.9908870826e-01 149:-5.8096161434e-01 150:-9.0364439766e-01 151:1.5417721599e-01 152:5.8548330565e-01 153:6.5236520704e-01 154:-4.7416604292e-01 155:-5.1969933112e-01 156:4.9127137305e-01 157:-6.5359183348e-01 158:7.2035253399e-01 159:-1.4603893477e-01 160:4.3458724919e-01 161:6.8516375632e-01 162:-7.9114098995e-01 163:1.5539473832e-01 164:-2.5347973949e-01 165:-1.5816811964e-02 166:-6.5731660871e-02 167:-5.9292856588e-01 168:7.4802787734e-01 169:-3.8274231551e-01 170:8.6512971736e-01 171:-7.0683527975e-01 172:-2.8334332658e-01 173:2.0096502375e-01 174:-2.4846786569e-02 175:-3.1270623417e-01 176:-7.2280087919e-01 177:7.9126896157e-01 178:6.1618261680e-01 179:-5.4626842653e-01 180:3.1722709683e-01 181:-5.4481098028e-01 182:-5.3462380785e-03 183:8.9467683579e-01 184:8.8276411054e-02 185:-2.0479916952e-01 186:6.4532492730e-01 187:4.7358719339e-01 188:-7.4279135310e-01 189:-5.7977529200e-01 190:-9.6407968547e-02 191:1.2327799332e-02 192:8.0409499302e-01 193:3.8925844422e-01 194:4.2163178170e-01 195:-1.7793542122e-01 196:-7.3836936830e-01 197:7.3563267187e-01 198:-4.6284422500e-01 199:8.4308427471e-01 200:5.1590507087e-01 
9.0527198710e-03 -9.0527503618e-03 1:-6.0971039043e-01 2:6.6194120471e-01 3:3.8491762994e-01 4:-7.7863365358e-01 5:-7.5337499502e-01 6:-7.4346511411e-01 7:-3.0697309973e-01 8:-5.2752439053e-01 9:1.0042972597e-01 10:3.3051559300e-02 11:-8.0612131241e-01 12:-3.5285800466e-01 13:8.1291598059e-01 14:-8.8025481958e-01 15:2.5370654945e-01 16:6.4449806779e-01 17:-8.5294626567e-01 18:-5.1890176810e-02 19:4.6125500578e-01 20:3.9868678154e-01 21:-6.5586764086e-01 22:6.8536497029e-01 23:7.3192016158e-02 24:-1.1527929191e-01 25:-6.4484952081e-01 26:7.8840525472e-01 27:-6.0011030784e-01 28:-3.5212855825e-01 29:5.2461348804e-01 30:-6.5489045315e-01 31:3.0313817731e-01 32:6.9656539731e-01 33:6.1666912305e-01 34:7.4581266985e-01 35:-6.9373371473e-01 36:7.1067041401e-01 37:-6.7534125390e-01 38:5.9099874719e-01 39:-5.3766743766e-02 40:-6.5699417850e-01 41:3.2832633388e-01 42:-5.6191983340e-01 43:-3.7428652857e-01 44:-4.7370080433e-01 45:-1.4157970777e-02 46:-5.2884427799e-01 47:-5.5854902121e-01 48:-7.1766633606e-01 49:3.4541374824e-01 50:-3.2458833160e-01 51:-5.9826856348e-01 52:-7.3689281711e-01 53:-3.5176273756e-01 54:-4.5512238406e-01 55:-7.8764052169e-01 56:-6.1654076059e-01 57:6.9393663977e-01 58:8.3836799633e-01 59:5.8320986737e-02 60:8.4919770531e-01 61:-3.8075889728e-01 62:3.1370606543e-01 63:-4.0347160366e-01 64:3.2240059218e-01 65:-1.4237824667e-01 66:-6.0213470975e-01 67:4.0547461485e-01 68:-4.6804609564e-01 69:6.1945712013e-01 70:7.1242489198e-02 71:6.2985163055e-01 72:-4.1090946146e-01 73:3.9666745401e-01 74:5.8834063135e-01 75:7.4906191045e-01 76:-8.3277401798e-01 77:-1.8654763171e-01 78:-4.1669736431e-01 79:-8.5514037259e-02 80:-1.7954938824e-01 81:-3.5971927277e-01 82:-6.7630380498e-01 83:6.3746179537e-01 84:-5.5224389415e-01 85:6.6835297946e-01 86:6.0814944268e-01 87:7.7526287005e-01 88:-2.3182788355e-01 89:6.3484061994e-01 90:8.1785085353e-01 91:-4.5813399568e-01 92:-7.8128323052e-01 93:-2.1563790760e-01 94:-9.9802216006e-02 95:5.7255804392e-01 96:3.5964641064e-01 97:-3.8938915659e-01 98:-5.5542610691e-01 99:7.5757759949e-01 100:-5.7517252210e-01 101:-5.5765457726e-01 102:5.5300721367e-01 103:-1.7630756679e-01 104:6.8638419306e-01 105:-7.3779439211e-01 106:7.2435708870e-01 107:7.2124885773e-01 108:-8.8890869273e-02 109:4.1420976552e-01 110:4.1140613074e-01 111:4.4941776544e-01 112:-9.5909878820e-01 113:-5.3256316307e-01 114:-5.7562039221e-01 115:-4.3382816196e-01 116:1.7346035499e-01 117:-7.2798571181e-01 118:6.1127977521e-01 119:-6.0109126240e-01 120:-3.4710010345e-01 121:-8.8636894110e-01 122:-3.0694812322e-01 123:-7.3505083240e-01 124:-7.8510333861e-01 125:6.1530161594e-01 126:3.7708427405e-01 127:6.0082516681e-01 128:-7.2293391369e-01 129:7.1311919105e-01 130:-4.8577677326e-01 131:-7.1074856864e-01 132:-3.2274745871e-02 133:5.1987402759e-01 134:-1.3738367574e-01 135:1.6738391376e-01 136:7.9518731028e-02 137:-7.3314892028e-01 138:6.6304645708e-01 139:-5.1347602779e-01 140:-5.1678146803e-01 141:-7.6370281889e-01 142:-2.3602229030e-01 143:-4.7346975266e-01 144:4.6646443774e-01 145:-7.4053907799e-01 146:-2.4041883888e-01 147:7.0843542650e-01 148:-7.0218370667e-01 149:-1.2373268767e-01 150:-8.7686261047e-01 151:-4.6056382304e-02 152:8.1849842797e-01 153:4.2882806035e-01 154:-5.1140720317e-01 155:-4.3450041667e-01 156:6.5631424002e-01 157:-6.4585452368e-01 158:3.8857292169e-01 159:1.9296398506e-01 160:6.5654878888e-01 161:7.8258106554e-01 162:-5.0566738517e-01 163:2.7332306928e-01 164:-6.8301804835e-01 165:-3.3876796050e-01 166:2.7704197558e-01 167:-2.6747141730e-01 168:4.0933484482e-01 169:-5.8064405046e-01 170:5.2249430381e-01 171:-3.0458037164e-01 172:-8.5451548776e-01 173:1.6036490349e-02 174:5.0181934206e-01 175:-5.1717053668e-02 176:-6.4866551755e-01 177:6.6541315416e-01 178:7.5292141762e-01 179:-3.4991989841e-01 180:6.5505774472e-01 181:-3.4974174057e-01 182:-1.1435191907e-01 183:6.7534517863e-01 184:2.3867455913e-01 185:-2.7718707354e-01 186:5.9668688396e-01 187:5.2459359814e-01 188:-6.3859016146e-01 189:-9.0370280694e-01 190:1.7335459768e-01 191:-1.4276099104e-01 192:5.4967581580e-01 193:4.7120035295e-01 194:4.8759566320e-01 195:2.9520000742e-01 196:-6.7033068821e-01 197:5.6423832111e-01 198:-2.4340504867e-01 199:7.8007422697e-01 200:9.4148719419e-02 
-7.4639799471e-04 7.4642346597e-04 1:-6.5606989825e-01 2:-4.7710878198e-03 3:7.1390680802e-01 4:-6.8913046398e-01 5:-6.3096484672e-01 6:-6.8677622494e-01 7:-2.3748773191e-01 8:-3.4744248133e-01 9:1.5063434175e-01 10:4.6336347740e-01 11:-6.1162616311e-01 12:-3.9044372309e-01 13:4.6012194387e-01 14:-6.0877036292e-01 15:6.9697994864e-01 16:7.1043559230e-01 17:-3.7261001022e-01 18:-3.1985073870e-01 19:3.6248450216e-01 20:3.0889885406e-01 21:-3.6685513734e-01 22:7.9424225268e-01 23:4.4895798263e-02 24:2.0175373551e-01 25:-7.0967638512e-01 26:5.8822998605e-01 27:-7.7639968771e-01 28:-2.2134830373e-01 29:5.9579025369e-01 30:-6.6969121827e-01 31:1.1772504412e-01 32:4.0520393182e-01 33:7.9181013941e-01 34:4.7536650542e-01 35:-6.9124817167e-01 36:8.0633449617e-01 37:-6.8303035415e-01 38:3.5692658642e-01 39:-3.2360903048e-01 40:-5.5663464065e-01 41:2.2434564822e-01 42:-1.9210765031e-01 43:-7.7488031888e-01 44:-9.2681154550e-01 45:4.1506374871e-01 46:-6.0496415606e-01 47:-6.6958003750e-01 48:-5.7046574995e-01 49:3.3865530836e-01 50:-5.1203675448e-01 51:-4.0532893688e-01 52:-6.2856238860e-01 53:-4.4125977737e-01 54:-3.5162411922e-01 55:-6.3362098231e-01 56:-5.8265403041e-01 57:6.7578503191e-01 58:5.7050005465e-01 59:1.6040620389e-01 60:7.5281254045e-01 61:-3.3403471904e-02 62:7.0080090863e-01 63:-5.3187581283e-01 64:3.4910495497e-01 65:-5.8414855657e-01 66:-5.3114592210e-01 67:8.5393079104e-01 68:-7.0292228947e-01 69:6.8660525529e-01 70:5.2744786160e-01 71:5.1824339860e-01 72:-4.1416137650e-01 73:-3.7186757685e-01 74:6.1500464467e-01 75:5.9132410329e-01 76:-6.7162294270e-01 77:-2.2922124656e-02 78:-2.7649073092e-01 79:5.3103891779e-01 80:-7.7635021105e-01 81:-4.5696465900e-01 82:-4.1133776983e-01 83:-8.0332856523e-02 84:-8.4147416511e-01 85:9.2692741084e-02 86:7.5974765424e-01 87:4.5678707321e-01 88:-4.9507080541e-01 89:6.7258996685e-01 90:5.9569897390e-01 91:-4.3865540418e-01 92:-8.7743184951e-01 93:-1.8192361840e-02 94:-5.3673850645e-02 95:4.4877154231e-01 96:2.0117789720e-01 97:-6.4074812578e-01 98:-8.6865716597e-01 99:7.5101057768e-01 100:-3.5040125696e-01 101:-6.2925226403e-01 102:4.0435899143e-01 103:-4.1908389781e-01 104:7.8173675758e-01 105:-9.3123920361e-01 106:3.4731114310e-01 107:1.5921460921e-01 108:-3.4112732357e-01 109:4.0525842219e-01 110:6.4153477014e-01 111:3.8702000991e-01 112:-8.8440053110e-01 113:-7.6961312495e-01 114:-6.4108273172e-01 115:-7.5286943795e-02 116:-8.3086436658e-02 117:-7.1717197753e-01 118:6.5300041115e-01 119:-4.6655865242e-01 120:-6.4110669169e-01 121:-5.6381929087e-01 122:-3.2790362310e-01 123:-7.0990003555e-01 124:-4.8145050484e-01 125:9.7244436443e-01 126:2.9928536310e-01 127:5.3238928314e-01 128:-3.3144395447e-01 129:3.3276237760e-01 130:-2.0233161944e-01 131:-6.8498645538e-01 132:-2.4925983386e-01 133:2.5402699054e-01 134:-3.9115412569e-01 135:1.0535220890e-01 136:-1.0614622676e-02 137:-5.5483810295e-01 138:8.4177423147e-01 139:-5.8168492478e-01 140:-3.6985204937e-01 141:-4.9218823942e-01 142:-5.5897556955e-01 143:-4.5338232107e-01 144:5.4067501909e-01 145:-5.5679584839e-01 146:-4.5588591565e-01 147:1.9797472649e-01 148:-7.9813967371e-01 149:-2.6698619959e-01 150:-9.1169162614e-01 151:3.3766768843e-01 152:6.2843007430e-01 153:6.7653262247e-01 154:-7.7254452215e-01 155:-6.5563311185e-01 156:7.9820133542e-01 157:-9.5078393382e-01 158:4.4670984956e-01 159:-2.4870497683e-01 160:5.7201990989e-01 161:6.0166796372e-01 162:-4.8197837716e-01 163:4.9702996545e-01 164:-4.6989565428e-01 165:1.8235982002e-01 166:7.5405559451e-01 167:-4.4865881710e-01 168:3.2480395581e-01 169:-2.5896790072e-01 170:6.7058610514e-01 171:2.6142564056e-01 172:-7.9611200333e-01 173:1.3441173600e-02 174:2.5377210783e-01 175:-6.8420505959e-02 176:-6.1462346268e-01 177:5.7298570068e-01 178:8.3739802220e-01 179:-3.4324241967e-01 180:3.5410150401e-01 181:-4.4499989285e-01 182:-2.7608944775e-01 183:8.4362451077e-01 184:3.2595926229e-01 185:-5.1381569465e-01 186:4.6042773963e-01 187:3.5769787738e-01 188:-1.0745168287e-01 189:-7.2726137105e-01 190:3.4548341753e-01 191:-1.4845921927e-01 192:7.9662850355e-01 193:7.2322436617e-01 194:2.8819895539e-01 195:-7.2626049701e-02 196:-7.8287245797e-01 197:6.3894035404e-01 198:-8.7918872097e-01 199:6.4139105049e-01 200:4.8666320876e-01 
8.8823729514e-04 -8.8823787936e-04 1:-6.1236936248e-01 2:-1.2948460773e-01 3:3.8295871905e-01 4:-7.8332296349e-01 5:-6.9653436725e-01 6:-7.2353966996e-01 7:-2.7443913171e-01 8:-6.1087251685e-01 9:7.7998296532e-02 10:9.7900122325e-02 11:-7.3781918109e-01 12:-1.0000000000e+00 13:7.6436809613e-01 14:-4.0431566827e-01 15:-8.7559384351e-02 16:5.0472656282e-01 17:-6.1427725725e-01 18:-1.7852002824e-02 19:5.3289476198e-01 20:5.1257015086e-01 21:-5.4353382746e-01 22:9.3954032950e-01 23:3.7007780279e-01 24:3.1590191999e-01 25:-7.8274508196e-01 26:6.8895098681e-01 27:-7.0373965371e-01 28:-3.4468341823e-01 29:5.4854256438e-01 30:-2.8644389464e-01 31:2.9376510381e-01 32:5.7467087503e-01 33:4.6099599273e-01 34:5.3719125571e-02 35:-6.9519362890e-01 36:5.8733866640e-01 37:-9.2538275639e-01 38:5.5194607844e-01 39:-3.1679174539e-01 40:3.4526312436e-02 41:1.6727379885e-01 42:-6.0122265820e-01 43:-3.3408271803e-01 44:-5.2214761136e-01 45:3.3442109495e-01 46:-2.2834388927e-01 47:-3.8042584455e-01 48:-5.3461991684e-01 49:1.3751480821e-01 50:-6.1809002211e-01 51:-7.4699136100e-01 52:-8.0895317860e-01 53:-5.9605337194e-01 54:-4.2804593321e-01 55:-7.3946207162e-01 56:-4.5732754648e-01 57:8.2682459217e-01 58:4.5667763812e-01 59:7.7415040084e-02 60:8.0342499450e-01 61:1.4627174731e-01 62:6.5057692592e-01 63:-6.3158364801e-01 64:5.0465797485e-01 65:-2.5248181869e-01 66:-5.0583942219e-01 67:6.1753298085e-01 68:-8.0430201236e-01 69:6.6947046024e-01 70:5.8997935515e-01 71:4.1054823724e-01 72:-5.8605652590e-01 73:-3.8504771974e-01 74:5.7235276080e-01 75:7.5467888738e-01 76:-7.7390389214e-01 77:-2.8853244467e-01 78:-6.1980415654e-01 79:6.9672140352e-01 80:-6.0106861089e-01 81:-5.4975158292e-01 82:-7.3581958811e-01 83:-1.2012130383e-01 84:-6.4366293271e-01 85:2.1839994695e-01 86:8.5167285064e-01 87:5.5314426506e-01 88:-2.3328244791e-01 89:5.5510835177e-01 90:6.0231924371e-01 91:-7.8616125545e-01 92:-6.4396503315e-01 93:-4.5690134478e-01 94:-7.3328588243e-01 95:3.5584126695e-01 96:4.6007182465e-01 97:-7.1242275068e-01 98:-2.9467324747e-01 99:7.8086043916e-01 100:-1.2040634675e-01 101:-4.3800617425e-01 102:6.1426678749e-01 103:-2.0160060494e-01 104:3.9140613882e-01 105:-4.6621582610e-01 106:6.0437578415e-01 107:3.6072190556e-01 108:2.6243919631e-01 109:8.7791563411e-01 110:7.5377994811e-01 111:7.7229058595e-01 112:-4.0428817084e-01 113:-6.9495388424e-01 114:-5.3253191928e-01 115:3.0391865824e-01 116:-4.6494775550e-02 117:-5.9317277520e-01 118:7.0719822458e-01 119:-5.1324511495e-01 120:-7.4707335980e-01 121:-6.9321530008e-01 122:-2.9219899910e-01 123:-6.6735113263e-01 124:-3.8457274604e-01 125:8.4728227645e-01 126:7.0995268373e-01 127:5.6512381755e-01 128:-5.2622093061e-01 129:2.6219486672e-01 130:-5.8282012187e-01 131:-8.9005536098e-01 132:1.8607078116e-01 133:2.4191532677e-01 134:-3.4772516297e-01 135:9.2800682582e-02 136:2.0447736976e-02 137:-3.5381482480e-01 138:6.9598107143e-01 139:-6.1385445279e-01 140:-1.8813699835e-01 141:-5.5234073277e-01 142:-5.0635353759e-01 143:-4.2037879196e-01 144:5.7347505594e-01 145:-6.1022028977e-01 146:-1.1189066795e-01 147:3.1879058266e-01 148:-8.4987427334e-01 149:-1.1179889329e-01 150:-7.7242667511e-01 151:2.4039315287e-01 152:4.4991925932e-01 153:4.9103448415e-01 154:-8.4125489788e-01 155:-7.5951303455e-01 156:6.2500519282e-01 157:-6.6637077431e-01 158:5.1162270076e-01 159:1.6923039594e-01 160:3.8040045393e-01 161:5.9012062886e-01 162:-6.2365683440e-01 163:2.1766765147e-02 164:-1.6212828777e-01 165:2.5725644307e-02 166:8.3772845531e-02 167:-4.5789358137e-01 168:2.9169515638e-01 169:-1.4549974600e-01 170:6.7815586926e-01 171:-1.0168060136e-01 172:-7.2913552431e-01 173:2.3347358887e-01 174:3.2140286407e-01 175:-4.1521965117e-01 176:-6.7554346584e-01 177:6.9989415969e-01 178:9.0778459567e-01 179:-3.4864741222e-01 180:5.2371027707e-01 181:-6.2548002680e-01 182:-6.0001370481e-02 183:9.2863176446e-01 184:-1.8757472398e-02 185:-6.5605598734e-01 186:1.5687090560e-02 187:5.6609486778e-01 188:-6.9062083264e-01 189:-7.6285297264e-01 190:-2.4158505742e-01 191:1.5942835460e-01 192:8.1634633421e-01 193:8.0618148139e-01 194:4.6597769101e-01 195:5.3042280336e-02 196:-9.1471777823e-01 197:6.1876570346e-01 198:-5.3262738357e-01 199:8.4628061829e-01 200:-3.6669469877e-02 
3.1657250514e-03 -3.1657161086e-03 1:-6.4174016025e-01 2:-4.0252590643e-02 3:8.4154300779e-01 4:-5.9391318634e-01 5:-4.4285913046e-01 6:-7.1520180364e-01 7:-2.3913487524e-01 8:-4.4179931163e-01 9:-6.8180671770e-02 10:4.1776072277e-01 11:-8.1679674195e-01 12:-8.5339046509e-01 13:8.5041807917e-01 14:-7.3629071065e-01 15:-3.4794002560e-01 16:3.2390320037e-01 17:-5.9422195552e-01 18:-1.0000000000e+00 19:1.3149293646e-01 20:1.8214597590e-01 21:-5.1263060574e-01 22:7.7804218178e-01 23:1.8991218970e-01 24:1.1661445911e-01 25:-6.8528739896e-01 26:7.9588795911e-01 27:-3.4782547686e-01 28:-4.3347627730e-01 29:2.5836005081e-01 30:-6.1080213128e-01 31:-1.4180642523e-01 32:3.7540858543e-01 33:6.0210375352e-01 34:6.5077836985e-01 35:-7.8103998590e-01 36:5.3004113810e-01 37:-8.3020401353e-01 38:8.8630183417e-01 39:-1.5542460050e-01 40:-2.3701427349e-01 41:5.9013807606e-01 42:-1.5079883377e-01 43:-5.8172073145e-01 44:-5.7965774093e-01 45:7.3684170373e-01 46:-1.2920032236e-01 47:-7.8790300092e-01 48:-5.4475761361e-01 49:2.7370049017e-01 50:-3.8767318238e-01 51:-6.8233698733e-01 52:-6.6862213750e-01 53:-6.1672486927e-01 54:-5.7934941309e-01 55:-6.4393100139e-01 56:-7.2050206937e-01 57:7.0724242285e-01 58:7.9592231924e-01 59:3.6762155934e-01 60:8.3230526574e-01 61:5.6392290261e-02 62:5.4490534714e-01 63:-6.0776343941e-01 64:2.7169306880e-01 65:-2.2606557056e-01 66:-3.7230880538e-01 67:6.7657987745e-01 68:-6.3225857278e-01 69:4.0085799856e-01 70:4.8115989384e-01 71:3.7952211593e-01 72:-1.5121135108e-01 73:-5.7114293293e-01 74:6.7523688128e-01 75:8.5319455489e-01 76:-8.8394236819e-01 77:-1.9316400362e-01 78:-6.3955239504e-01 79:4.5978630909e-01 80:-6.2479557694e-01 81:-2.8058050296e-01 82:-6.4505524280e-01 83:2.2259819838e-01 84:-1.8459454615e-01 85:-1.2258138298e-01 86:9.5514782946e-01 87:4.3812861484e-01 88:-4.4419982361e-01 89:4.5269021829e-01 90:4.1300433238e-01 91:-5.2200672675e-01 92:-4.0778171338e-01 93:-1.9652454080e-01 94:-6.0340139505e-01 95:5.5112738232e-01 96:4.8639627928e-01 97:-6.3146093350e-01 98:-4.1363953017e-01 99:7.5116715686e-01 100:-1.9575233104e-01 101:-8.1925001077e-01 102:5.7752622006e-01 103:-5.3139511882e-01 104:7.6933824673e-01 105:-7.1785032582e-01 106:4.5453659793e-01 107:2.2581356409e-01 108:-3.3916919612e-01 109:3.6756518418e-01 110:7.9112335304e-01 111:2.4682186214e-01 112:-7.0590174026e-01 113:-6.8114736046e-01 114:-4.6567893897e-01 115:6.8927358696e-03 116:-3.6424793233e-01 117:-7.9273433549e-01 118:6.7519967685e-01 119:-4.0348865425e-01 120:-1.9181826255e-01 121:-8.0656068848e-01 122:-7.5270998877e-01 123:-4.8106949524e-01 124:-2.9476422981e-01 125:8.6192983506e-01 126:5.7930060217e-01 127:4.3561780375e-01 128:-4.4252643600e-01 129:5.1749132659e-01 130:-4.9541707270e-01 131:-7.3463692829e-01 132:3.0105297767e-01 133:3.6861758773e-01 134:-1.6243284570e-01 135:-1.5422770280e-01 136:1.8362082351e-01 137:-3.7460019266e-01 138:8.7123426207e-01 139:-6.2761204654e-01 140:-1.0000000000e+00 141:-5.9906318721e-01 142:-6.8965157446e-01 143:-3.7661069830e-01 144:2.7262661224e-01 145:-8.2307663914e-01 146:-5.3362905972e-01 147:5.5926686530e-01 148:-7.7251925776e-01 149:-4.3711537083e-01 150:-7.6130073411e-01 151:1.5769584193e-01 152:6.1754390711e-01 153:4.7794684132e-01 154:-8.8885752204e-01 155:-6.5674481999e-01 156:4.6467709374e-01 157:-5.2072978011e-01 158:4.5789725743e-01 159:4.2359808424e-01 160:9.4838377815e-01 161:4.5197648573e-01 162:-3.4185887854e-01 163:3.4731997630e-01 164:-5.9985558636e-01 165:-3.4715927063e-03 166:3.7973829362e-01 167:-1.4240876940e-01 168:7.6419721084e-01 169:-5.1662704725e-01 170:5.1848331513e-01 171:-1.7416585778e-01 172:-9.8714051629e-01 173:3.7751209878e-01 174:2.5657561548e-01 175:-6.2328061858e-02 176:-5.5396202835e-01 177:8.3790807976e-01 178:6.5883026384e-01 179:-2.4331097393e-01 180:5.5816742600e-01 181:-7.3309625923e-01 182:3.0071118905e-02 183:7.1202500456e-01 184:2.0935354758e-01 185:-4.2199599556e-01 186:8.1413557910e-01 187:5.5880482077e-01 188:-4.3292446459e-01 189:-7.9106057196e-01 190:2.6925380186e-01 191:2.3213131531e-01 192:7.2204950803e-01 193:9.9180519151e-01 194:4.1826709730e-01 195:-3.3589913796e-01 196:-7.3428390388e-01 197:4.6993378167e-01 198:-3.4579312465e-01 199:6.3987008147e-01 200:1.5510346959e-01 
2.5937027437e-02 -2.5937013812e-02 1:-4.8103148462e-01 2:-5.2487134511e-01 3:7.7616477357e-01 4:-7.3853657460e-01 5:-4.6198633539e-01 6:-5.9300774890e-01 7:-6.1695220921e-01 8:-3.5107142050e-01 9:-7.8746097090e-02 10:-5.3435246478e-02 11:-8.7364405710e-01 12:-4.9895993836e-01 13:3.4587261828e-01 14:-5.0704876061e-01 15:-3.2177907131e-01 16:9.5020761909e-01 17:-5.2769599638e-01 18:-4.3419722458e-01 19:5.9832517452e-01 20:2.6079701238e-01 21:-4.6035218872e-01 22:8.1988131010e-01 23:2.6579791930e-01 24:-2.4960821424e-01 25:-7.0377648863e-01 26:7.1321667388e-01 27:-6.9225354800e-01 28:-2.9948606980e-01 29:3.2313775782e-01 30:-4.2662631727e-01 31:5.5435401463e-01 32:4.4663339527e-01 33:3.4378125587e-01 34:2.4220798628e-01 35:-7.9776916431e-01 36:7.3186503024e-01 37:-7.1535829853e-01 38:7.7595320832e-01 39:3.0708890681e-01 40:-1.5232159732e-01 41:5.7134968398e-02 42:-6.8727170015e-01 43:-3.1966469603e-01 44:-8.7319208436e-01 45:4.7318832070e-01 46:5.2955909529e-02 47:-5.6665895877e-01 48:-6.4191113265e-01 49:3.1925086469e-01 50:-1.2660457511e-01 51:-9.2493610106e-01 52:-7.2164407041e-01 53:-4.8480426541e-01 54:-1.4498218434e-01 55:-9.3145021367e-01 56:-5.9182895363e-01 57:6.6486850649e-01 58:4.9568620235e-01 59:5.6375102717e-01 60:7.9721710965e-01 61:-4.1954980261e-01 62:5.1339308682e-01 63:-7.7782002499e-01 64:5.7790184026e-01 65:-5.7932786921e-01 66:-5.5191865000e-01 67:5.4137612227e-01 68:-6.4295133861e-01 69:5.9736489999e-01 70:3.1508443695e-01 71:7.1849451419e-01 72:-2.9581204945e-01 73:-2.7828876561e-01 74:4.5753629682e-01 75:7.2984217406e-01 76:-8.1485791811e-01 77:-2.0654045523e-01 78:-2.9344704490e-01 79:1.4831733126e-01 80:-3.8180280772e-01 81:-5.5223677540e-01 82:-1.7068668027e-01 83:1.5231502189e-01 84:-5.8618116467e-01 85:-5.4668252279e-01 86:6.0061102792e-01 87:7.9893704296e-01 88:-4.2668939319e-01 89:4.8128017317e-01 90:4.7972651699e-01 91:-6.6895341510e-01 92:-6.4849905016e-01 93:-1.6476535687e-02 94:-3.2284197141e-01 95:4.7124439427e-01 96:3.0568099357e-01 97:-4.3336728606e-01 98:-2.6762682553e-01 99:7.5609314280e-01 100:-4.5636158987e-01 101:-4.9166001475e-01 102:5.1269735410e-01 103:-1.9483044432e-01 104:7.4605779213e-01 105:-4.8608282391e-01 106:3.6878253787e-01 107:7.6761270797e-02 108:-5.1062856684e-01 109:5.3584499842e-01 110:3.4209175891e-01 111:3.5876298287e-01 112:-3.9424998821e-01 113:-9.1610800928e-01 114:-3.4928998848e-01 115:-2.2738682410e-01 116:-3.4774130028e-01 117:-7.0001438736e-01 118:6.1555951593e-01 119:-3.0218817148e-01 120:-3.5867029063e-01 121:-7.4976168467e-01 122:-3.7708288631e-01 123:-7.2926684095e-01 124:-5.3465445436e-01 125:6.9727208641e-01 126:3.9860596510e-01 127:1.5105335094e-01 128:-6.1353197245e-01 129:1.7212955294e-01 130:-4.6889206481e-01 131:-8.2525594205e-01 132:5.5186674987e-02 133:2.3951417111e-01 134:-2.3198739285e-01 135:4.7859173535e-01 136:9.8278885809e-03 137:-5.2425789157e-01 138:4.7718749460e-01 139:-5.8713045159e-01 140:-2.4258859500e-01 141:-4.6670487618e-01 142:-6.5459662272e-01 143:-4.5252492700e-01 144:4.2585232165e-01 145:-7.6293558333e-01 146:-2.0454529776e-01 147:7.7903138241e-01 148:-5.1725601710e-01 149:-3.8751275925e-01 150:-7.3423147821e-01 151:-1.9934164331e-01 152:7.7502303126e-01 153:4.1032782830e-01 154:-8.1661526312e-01 155:-7.7313227305e-01 156:7.1313405995e-01 157:-9.0925627588e-01 158:4.9320473323e-01 159:-2.6319448614e-02 160:2.8245650298e-01 161:1.9280459318e-01 162:-4.1410667074e-01 163:3.9512616536e-01 164:-6.8600628943e-02 165:-6.6500427900e-02 166:1.1959636597e-01 167:-2.4543851550e-01 168:8.3379662885e-01 169:-4.1766293881e-01 170:5.0313534822e-01 171:-2.5064652127e-01 172:-1.9907011316e-01 173:3.9980617016e-01 174:7.9881188017e-01 175:5.2531999320e-02 176:-7.2297702918e-01 177:2.3454789934e-01 178:6.3649806671e-01 179:-6.5686178693e-01 180:3.5317906733e-01 181:-5.6404368917e-01 182:-5.1790811847e-01 183:7.3307176572e-01 184:4.1728339055e-01 185:-6.7536765970e-01 186:5.9296754989e-01 187:4.3229457791e-01 188:-6.0897378159e-01 189:-7.0672949621e-01 190:2.7009261892e-01 191:5.2888333185e-01 192:8.1315736298e-01 193:6.5739051147e-01 194:2.7939808197e-01 195:-7.1132170832e-01 196:-7.0361749130e-01 197:7.8448263107e-01 198:-1.0841889535e-01 199:5.1004671759e-01 200:2.1763554601e-01 
