svm_type c_svc
kernel_type linear
nr_class 2
total_sv 9
rho 0.075993354792116025
label 1 -1
nr_sv 4 5
SV
3.2646689074018703e-05 1:7.7246431 2:-5.0410296 3:-4.2802085 4:-2.0863068 5:4.0680237 6:9.9573689 7:-11.459654 8:-6.1172644 9:6.2954185 10:5.5357769 11:-7.7261 12:2.5935613 13:-7.4564886 14:-8.563474 15:-5.7296373 16:3.7747131 17:5.5033687 18:3.3898127 19:-6.7373038 20:-1.5044816 21:-2.9094049 22:2.6232371 23:-7.4474231 24:6.8981241 25:-0.73951973 26:4.1532568 27:0.48651903 28:-2.3816644 29:4.736444 30:8.8338403 31:6.1814806 32:4.348832 33:5.7063596 34:5.262438 35:7.1132378 36:3.6033088 37:7.1989555 38:6.0887604 39:-7.2244305 40:-3.6520236 41:-1.4429154 42:-0.49371298 43:-0.76757834 44:-8.6753516 45:1.9579496 46:5.9837269 47:-7.5804973 48:-3.4362772 49:-7.3309012 50:7.9525864 51:3.2383064 52:-3.0130918 53:6.7086846 54:-9.0865902 55:-2.0695321 56:-1.4175398 57:7.868126 58:-8.1086168 59:-0.23264188 60:-5.9063289 61:7.1296617 62:-5.4646562 63:8.6786814 64:0.56469542 65:-0.62105384 66:-3.1043658 67:-7.6903016 68:8.7288163 69:9.2043045 70:-4.1140785 71:0.82517834 72:2.0949759 73:-2.3433204 74:5.0587232 75:-1.5707934 76:5.1815171 77:2.1962457 78:-8.8213518 79:-0.1341775 80:7.0274695 81:-5.1901599 82:-3.3973712 83:3.0615912 84:6.968946 85:5.3244716 86:6.6169981 87:-3.8443544 88:-8.8153942 89:-1.3900184 90:-5.8063362 91:-2.8472705 92:-5.7564942 93:7.3226176 94:-7.2631086 95:-5.1572876 96:-6.7830364 97:9.5177914 98:-9.9359123 99:-6.1424705 100:-1.9549633 101:4.5629912 102:-5.2701879 103:6.897528 104:-6.6276563 105:-4.9605597 106:-8.1635149 107:1.4719413 108:-2.8341862 109:-9.5544579 110:5.8352507 111:9.704101 112:5.7136092 113:9.5285977 114:-4.8806785 115:10.181279 116:-7.8468861 117:-3.0522486 118:4.71582 119:3.5120561 120:3.2791266 121:8.6595188 122:4.5817248 123:-7.7427427 124:-1.9773212 125:2.4229458 126:7.1668366 127:-8.3793942 128:-1.5284398 129:4.2127013 130:4.7866923 131:-3.9292723 132:-4.0193089 133:8.1149916 134:-0.4661824 135:-1.7431087 136:7.2846187 137:-3.555479 138:7.556212 139:-7.2951822 140:1.4197789 141:-10.188817 142:-6.9789346 143:4.0738441 144:2.3190015 145:1.0710794 146:-6.6792425 147:-1.8738623 148:-7.9431893 149:-1.4018396 150:-0.83904047 151:-3.8245035 152:3.3124659 153:3.0298789 154:-3.9319487 155:-8.5417241 156:-9.3698549 157:7.5917101 158:-2.8309113 159:-2.0716533 160:1.9453705 161:4.9426943 162:7.7310274 163:-9.0090886 164:2.9822573 165:9.443745 166:1.8106192 167:-4.4804045 168:-5.3126138 169:3.2920198 170:-0.85451654 171:-8.7604226 172:-6.5683788 173:-4.9190864 174:7.4839124 175:-3.7424255 176:-6.4191978 177:7.1039711 178:-4.3536591 179:-3.920313 180:-5.2075299 181:2.7707468 182:6.1397466 183:4.1333326 184:1.8803506 185:2.4932063 186:-4.4002942 187:-3.7178461 188:-1.6843652 189:9.0003499 190:6.7481533 191:-9.4588273 192:-2.5654988 193:8.7147381 194:-6.8394623 195:1.2737062 196:-7.3811139 197:-9.9546557 198:-8.1275804 199:-3.973956 200:-6.2792667 
1.9033844669435079e-05 1:8.0293115 2:-2.1496309 3:-3.6131646 4:-3.0224928 5:4.1684521 6:11.147386 7:-9.1239917 8:-4.8911552 9:4.5557257 10:6.7047204 11:-7.5258184 12:4.1496232 13:-5.7607959 14:-8.8898216 15:-5.9937753 16:3.8679534 17:7.3410595 18:1.9572964 19:-5.6983139 20:-1.4458475 21:-3.4086222 22:3.6963375 23:-5.6313289 24:7.2820416 25:1.8280631 26:4.2533528 27:-0.83040858 28:-2.8388075 29:5.3202303 30:6.5465548 31:5.3934415 32:4.2865601 33:6.0416516 34:4.8399235 35:5.7934827 36:3.5717602 37:4.7339855 38:5.4390448 39:-7.727032 40:-4.7994286 41:-0.22467565 42:1.2684975 43:-1.4180753 44:-9.5778767 45:1.760349 46:7.5973376 47:-9.287874 48:-4.1521838 49:-6.4515192 50:6.797536 51:3.6611555 52:-2.9089074 53:7.5826791 54:-8.9204563 55:-1.8521561 56:-4.7705678 57:6.479092 58:-7.1039359 59:-2.9710312 60:-5.8629289 61:6.9306768 62:-5.425457 63:7.0641578 64:0.25043534 65:0.83657265 66:-0.82813679 67:-5.0173616 68:7.8395625 69:8.7174857 70:-3.5681696 71:-0.18005999 72:2.8160204 73:-0.98969829 74:5.7976201 75:-3.7589356 76:3.775389 77:1.0719845 78:-9.3451813 79:0.94185023 80:4.7398945 81:-4.6980599 82:-2.8786111 83:1.9359646 84:7.516022 85:6.845526 86:6.112435 87:-2.1517081 88:-9.3218569 89:-2.1323084 90:-7.8258074 91:-4.7742154 92:-6.0200428 93:8.8730918 94:-8.1348116 95:-4.6098329 96:-6.4009788 97:10.187591 98:-8.4682825 99:-7.6845691 100:-0.95114459 101:4.5563158 102:-2.5154661 103:6.4557314 104:-4.9695463 105:-4.4736704 106:-6.5443515 107:1.3814111 108:-4.1301504 109:-9.3598013 110:5.4338356 111:11.185111 112:5.5497551 113:9.5830485 114:-6.3297417 115:9.5052887 116:-7.11138 117:-5.1207194 118:4.7030696 119:2.2348628 120:2.6865272 121:8.5039259 122:4.3182702 123:-7.7162592 124:-2.2722827 125:3.313922 126:6.1797415 127:-7.42322 128:-1.5641301 129:6.0170004 130:5.2546275 131:-3.5984111 132:-4.1134519 133:10.288284 134:-0.55789628 135:-3.1252302 136:5.9918408 137:-1.9667576 138:5.9820929 139:-8.4900487 140:1.7746381 141:-10.293442 142:-5.4257183 143:5.7505007 144:5.181531 145:2.1176996 146:-7.398312 147:0.059868781 148:-7.8475076 149:-0.48776428 150:-2.182522 151:-1.9876365 152:4.1633792 153:4.9781413 154:-3.4421157 155:-9.2782753 156:-8.9585314 157:7.578282 158:-1.1391055 159:-2.9027195 160:0.63684916 161:4.298524 162:5.0985819 163:-9.2022907 164:2.3256213 165:8.3046231 166:0.95934742 167:-5.0324616 168:-6.858562 169:2.5338869 170:-2.2698678 171:-8.2755718 172:-8.2329595 173:-6.3946387 174:6.3677847 175:-3.2880948 176:-5.4365816 177:7.1631073 178:-2.325776 179:-4.7418771 180:-3.8672081 181:3.5998402 182:5.8856796 183:5.9096294 184:0.098218661 185:1.3713421 186:-5.1522951 187:-3.2388186 188:-0.69795854 189:8.4813969 190:5.2466652 191:-9.5603485 192:-3.31201 193:5.1928196 194:-7.5698243 195:0.33882881 196:-8.4616043 197:-8.5350119 198:-6.9098946 199:-4.7537841 200:-7.0780736 
7.4247688037905861e-05 1:7.9884288 2:-4.4087894 3:-4.3343475 4:-3.6773452 5:4.8071588 6:9.0621191 7:-9.677478 8:-3.9839681 9:5.4574955 10:5.6274429 11:-5.154522 12:2.8271984 13:-7.9631447 14:-11.210211 15:-3.5029615 16:5.0697237 17:5.9447454 18:1.9710268 19:-6.1183864 20:-0.5535709 21:-1.1886454 22:1.3676554 23:-7.0366559 24:9.3015923 25:1.2925489 26:6.4729119 27:0.84291761 28:-1.9708059 29:3.3585232 30:7.0346168 31:7.5472453 32:3.6098927 33:5.1359811 34:6.7863958 35:7.0287138 36:3.8841593 37:7.9564921 38:5.4918514 39:-7.5120424 40:-4.5534648 41:-2.5091478 42:1.581336 43:-1.1011389 44:-8.3969896 45:1.0839746 46:7.9422759 47:-9.6407269 48:-3.9613958 49:-9.2474402 50:6.9254112 51:4.6058855 52:-3.8453366 53:8.0506903 54:-9.1305586 55:-1.7459855 56:-3.269108 57:9.3301541 58:-7.66596 59:-2.7148566 60:-6.404131 61:8.1715541 62:-4.8510079 63:7.3995611 64:0.17052123 65:1.8252893 66:-1.0760409 67:-5.4002374 68:7.7260686 69:9.1857221 70:-2.6648508 71:2.145731 72:4.7502387 73:-0.54057808 74:4.9926218 75:-1.3521692 76:2.7511003 77:1.60172 78:-9.3501443 79:1.731464 80:5.7776144 81:-5.555898 82:-2.0145323 83:2.6251451 84:5.072971 85:6.4083846 86:8.135624 87:-2.3604169 88:-7.2864284 89:-2.5814206 90:-4.7046999 91:-4.4797989 92:-7.1025566 93:9.8208144 94:-6.8405728 95:-5.5109939 96:-6.4680658 97:8.5464086 98:-8.5550624 99:-6.1400882 100:-0.8860173 101:4.3818385 102:-3.4899844 103:5.1541336 104:-6.5164098 105:-5.5206241 106:-7.5805547 107:1.5449991 108:-2.6294458 109:-9.622428 110:2.6088705 111:8.5741719 112:3.864475 113:7.8696856 114:-5.2303733 115:10.323989 116:-9.3863211 117:-3.8662479 118:5.8247126 119:1.8606806 120:4.4016551 121:10.168834 122:2.6598815 123:-5.3697672 124:-5.3841117 125:2.1837035 126:7.6821068 127:-6.8441809 128:-0.91558858 129:6.4776442 130:6.6386664 131:-0.24595069 132:-2.2259553 133:10.420666 134:0.36053082 135:-1.0328388 136:5.2703042 137:-0.50157963 138:8.7926518 139:-8.1604649 140:1.0633558 141:-7.4982916 142:-7.0828491 143:5.0314155 144:1.9564545 145:0.90232083 146:-4.9941271 147:-2.2922787 148:-7.5808122 149:-0.060100351 150:0.00091815408 151:-4.6055809 152:4.870795 153:4.1076998 154:-3.7470274 155:-9.4803335 156:-8.2319031 157:8.4265595 158:-1.490615 159:-1.9381732 160:1.0719557 161:5.1788008 162:7.195684 163:-6.9834586 164:2.985658 165:9.1873053 166:2.840547 167:-4.8894711 168:-4.6923052 169:3.0637856 170:-2.6888616 171:-10.546337 172:-9.6826994 173:-5.3812785 174:7.1640504 175:-2.4342052 176:-4.6071907 177:8.6119797 178:-2.192549 179:-3.9146843 180:-4.9279458 181:2.6830522 182:6.9154349 183:7.1831997 184:-0.74833423 185:1.5034052 186:-5.3587333 187:-4.956424 188:-1.3970694 189:8.7524106 190:5.8824032 191:-8.4661762 192:-3.7605872 193:6.9043196 194:-7.3473154 195:0.97182866 196:-7.7217857 197:-7.2000731 198:-7.7359406 199:-2.9269016 200:-7.6105242 
5.0967476869780489e-05 1:8.4277511 2:-4.2734454 3:-4.8887568 4:-2.235119 5:6.5223566 6:8.9629759 7:-10.235475 8:-6.1509262 9:8.0413675 10:5.5755244 11:-7.7416339 12:4.6747092 13:-6.5498614 14:-9.7411905 15:-4.9434184 16:2.3286983 17:5.645787 18:1.882646 19:-5.6811248 20:-1.7555172 21:-2.5075725 22:1.3297997 23:-5.7707807 24:9.6704121 25:1.2661005 26:5.9262292 27:0.62297014 28:-0.1859193 29:3.0988228 30:5.8975268 31:5.5963637 32:3.63916 33:5.9140443 34:6.5982759 35:7.5801766 36:2.9199811 37:5.2269842 38:5.6927736 39:-7.1484606 40:-2.8801543 41:-0.75346028 42:0.37200653 43:-4.751164 44:-7.9266385 45:3.9231568 46:6.1017533 47:-10.451283 48:-5.5656121 49:-9.6991398 50:6.8256859 51:3.8743564 52:-2.1149772 53:6.8985543 54:-10.677787 55:-0.51263428 56:-2.4159816 57:7.1368324 58:-7.9652057 59:-0.77395044 60:-4.9269122 61:9.7936695 62:-5.5932787 63:8.5630864 64:0.87013423 65:0.35479909 66:-2.279898 67:-5.2309559 68:7.5986196 69:8.2619101 70:-4.6229381 71:0.16287908 72:2.8867437 73:-2.4704929 74:3.770598 75:-3.8640794 76:0.76914542 77:1.7661871 78:-7.6276477 79:0.39430619 80:5.8291229 81:-5.178958 82:-3.4909057 83:2.8342988 84:4.8325625 85:6.7838066 86:6.1562749 87:-4.6885209 88:-8.0504938 89:0.3889018 90:-5.3146002 91:-5.0814237 92:-8.3370864 93:7.1755858 94:-6.79548 95:-4.2126948 96:-8.8631697 97:8.2901228 98:-7.3082671 99:-7.5729775 100:-0.94107855 101:3.9946585 102:-4.0630803 103:6.4480805 104:-7.0401801 105:-5.8538217 106:-6.6941715 107:0.79081036 108:-4.1421109 109:-8.5130416 110:5.3042592 111:10.791807 112:5.1927569 113:7.6002808 114:-4.8469182 115:11.245988 116:-7.2152256 117:-3.9840986 118:5.7778067 119:4.4789336 120:3.8758286 121:8.2038675 122:3.7424448 123:-7.2891224 124:-4.0101504 125:4.4485316 126:6.2595042 127:-6.0779714 128:-0.04712064 129:7.3398935 130:4.3110124 131:-5.2025256 132:-2.0910029 133:9.5966278 134:0.11117087 135:-2.5379223 136:5.5157379 137:-3.586764 138:5.8240072 139:-8.993319 140:2.2145436 141:-9.3859902 142:-5.3640158 143:6.1318775 144:2.7570137 145:-0.19358883 146:-5.2957935 147:-1.6570365 148:-8.217426 149:-1.7323143 150:-1.0562212 151:-2.1575266 152:5.4182819 153:4.3414988 154:-4.3416065 155:-8.8515643 156:-6.9742556 157:8.0556772 158:-0.15159319 159:-3.6018148 160:3.1091485 161:4.6767519 162:8.018193 163:-9.4546505 164:3.6095646 165:9.6713931 166:0.70091073 167:-4.0962936 168:-6.0753506 169:2.3668919 170:-1.5457844 171:-10.294725 172:-7.0516863 173:-4.7291362 174:8.3464573 175:-4.0425998 176:-6.2192688 177:5.8656928 178:-3.8086026 179:-4.5849855 180:-3.5739965 181:2.2048577 182:5.9591216 183:4.2865428 184:-0.82626917 185:1.6107402 186:-5.14202 187:-3.2075997 188:-1.4984145 189:8.316763 190:7.5695672 191:-9.4405474 192:-0.05976722 193:6.7604084 194:-6.4567085 195:0.53794552 196:-6.2933919 197:-9.8535728 198:-8.2480699 199:-3.5086881 200:-8.4711023 
-1.6205130710414069e-05 1:3.853161 2:3.6883024 3:7.2965093 4:8.1685732 5:-8.1956193 6:1.0140873 7:-3.6149901 8:-3.4142985 9:-7.4534995 10:-5.5202874 11:6.8161909 12:-6.0771771 13:-6.7734072 14:-4.360981 15:-5.4422574 16:6.1705662 17:-4.0965081 18:5.3323036 19:-1.2093393 20:-2.9633333 21:-0.36542689 22:-8.5958432 23:-9.4407718 24:-5.2029731 25:-1.8644268 26:5.1255064 27:7.4291896 28:-1.333704 29:-7.0434317 30:10.36398 31:0.21748464 32:-1.5241612 33:-9.2446599 34:3.8104135 35:-3.2540872 36:-0.47620013 37:6.8734422 38:4.7293927 39:4.4500651 40:-8.7134972 41:-4.0974104 42:3.0751124 43:-8.3028604 44:8.9795799 45:10.158478 46:-2.6522965 47:5.1505127 48:-7.6855276 49:-2.7667747 50:1.2142224 51:-7.8039311 52:6.1085044 53:7.5115405 54:-7.267105 55:8.4016492 56:3.4791202 57:-2.7667331 58:6.1678112 59:3.1564892 60:-2.9005436 61:6.8348692 62:-1.0711519 63:-3.7507005 64:-3.0346758 65:-1.7260652 66:-5.0503518 67:-9.1315826 68:-7.3568229 69:9.6262705 70:6.9814529 71:8.1200499 72:9.6006816 73:-0.40027689 74:7.7448979 75:-0.29369053 76:5.3669955 77:-3.9993849 78:-2.1085605 79:8.7536525 80:8.3185735 81:-0.51622662 82:-0.86610827 83:-8.4694917 84:-2.6685086 85:2.2463255 86:6.6558591 87:2.8936083 88:-5.2684029 89:-2.7086966 90:0.46102385 91:-5.5277181 92:-6.3842134 93:-0.02903887 94:-0.78991995 95:-3.4620512 96:4.0171512 97:5.6142863 98:-10.362465 99:-4.0889371 100:-4.4624052 101:3.6984657 102:3.8239646 103:2.4854854 104:-3.9645838 105:-6.3798194 106:-0.33756356 107:1.3467474 108:0.76184921 109:-3.361533 110:-2.3476834 111:4.5581811 112:8.2258995 113:7.747819 114:3.8433616 115:7.1487137 116:8.5210182 117:-6.1295482 118:1.9172004 119:8.5752965 120:1.1871928 121:3.1605031 122:-3.1338414 123:2.5810997 124:8.6463457 125:4.7602977 126:1.1714269 127:6.9344195 128:8.1813389 129:5.3286213 130:-0.074149214 131:2.048998 132:-2.6272196 133:0.45670632 134:3.5299147 135:9.7140827 136:-6.046435 137:-4.5692155 138:-3.2656907 139:-1.5993226 140:-2.1311716 141:-2.1836605 142:3.9691407 143:-1.6743596 144:-5.4400527 145:0.46065945 146:-6.3417733 147:9.6142679 148:-1.3982447 149:4.2698054 150:2.809308 151:5.3200633 152:-10.654017 153:-3.2935064 154:1.9990416 155:5.1667561 156:0.58570918 157:-5.4813436 158:3.4027596 159:2.6082269 160:7.7782073 161:-2.1024605 162:-2.5434947 163:-6.1370065 164:9.0138336 165:5.6678315 166:3.7473242 167:6.4828139 168:0.52842091 169:-5.7719495 170:4.0420232 171:3.497408 172:-1.4103777 173:3.8072615 174:-9.8500051 175:3.6404114 176:4.576504 177:5.9237143 178:1.5216059 179:-2.7997834 180:0.71270573 181:0.13127358 182:5.1542971 183:5.0944811 184:-5.2345025 185:-8.5473429 186:-7.0866265 187:-2.4135227 188:2.3396355 189:-9.2701961 190:1.6518438 191:0.68712312 192:7.895519 193:10.380267 194:7.8288076 195:3.6916128 196:4.9370183 197:7.864775 198:1.3512248 199:2.5174145 200:-2.681604 
-3.933402188514466e-06 1:5.2670705 2:5.0911915 3:7.0938247 4:7.266957 5:-9.9404065 6:0.31592123 7:-4.8498383 8:-4.406064 9:-5.2111657 10:-5.7297417 11:7.9543335 12:-5.0628092 13:-7.8729337 14:-4.3892519 15:-7.0034395 16:4.4085522 17:-4.0571541 18:4.0911844 19:0.17741149 20:-1.7313754 21:-3.6371133 22:-10.828772 23:-9.4547835 24:-2.7112466 25:-1.664423 26:5.856531 27:7.9705641 28:-0.91655951 29:-10.393634 30:6.2556554 31:-1.5240979 32:-2.5375611 33:-8.7571682 34:2.1861229 35:-5.5317633 36:-2.0747241 37:5.12293 38:4.0180572 39:1.8602936 40:-8.7207797 41:-3.3763288 42:2.7215505 43:-7.6891267 44:9.1391478 45:8.3351714 46:-1.9184303 47:7.6654707 48:-7.8452543 49:-3.4190436 50:1.3523275 51:-7.2136001 52:4.8401713 53:6.7586663 54:-6.4526881 55:6.0723408 56:4.0240486 57:-2.2765839 58:7.1368478 59:2.7881131 60:-1.1354076 61:6.4050289 62:-0.37780465 63:-2.2567676 64:-2.3210287 65:-2.2881703 66:-6.1635766 67:-8.9557112 68:-8.4854515 69:8.8285794 70:6.8402615 71:7.1491675 72:8.7088441 73:-0.15352686 74:6.450047 75:-0.79291999 76:5.444743 77:-1.4451283 78:-3.3006616 79:8.2949354 80:9.4078061 81:-0.81719459 82:3.0235236 83:-9.2158078 84:-1.5406453 85:1.8032934 86:7.4685953 87:2.2872714 88:-4.4911844 89:-3.6846796 90:0.60301185 91:-4.5115428 92:-5.0110986 93:-0.52009232 94:-2.4556646 95:-4.9398959 96:4.4338644 97:6.5554851 98:-9.0178743 99:-4.9564327 100:-1.2648854 101:2.9351171 102:4.6196419 103:0.002313705 104:-2.8552393 105:-6.5557561 106:-3.0985375 107:0.57594405 108:-0.74609651 109:-0.567749 110:-0.67637554 111:5.5302744 112:6.7973651 113:8.8591899 114:2.7665603 115:7.7272356 116:8.3729311 117:-11.120337 118:0.60617177 119:9.8451294 120:0.43979705 121:1.1574703 122:-4.824654 123:1.520672 124:9.1301581 125:5.3122446 126:0.15392453 127:6.9664599 128:8.9597078 129:4.7693582 130:-0.043838209 131:0.66819675 132:-2.1477763 133:0.12119083 134:1.4652836 135:8.4110118 136:-7.9969299 137:-3.8692437 138:-4.0367464 139:-5.2241124 140:-0.11727302 141:-4.0057796 142:6.3666139 143:-1.3978131 144:-6.8054981 145:0.7354438 146:-7.0627764 147:7.9350416 148:-2.6250421 149:6.4325689 150:4.827395 151:7.1524125 152:-9.8283896 153:-1.9231921 154:4.6246083 155:6.7874295 156:1.3455814 157:-4.6564534 158:1.1330323 159:3.8257168 160:6.7090425 161:-3.2588123 162:-1.8632145 163:-4.7673178 164:7.3911081 165:4.106706 166:6.1645433 167:6.1657658 168:0.56925923 169:-5.9753027 170:3.5926168 171:2.898413 172:-1.8891808 173:2.8331567 174:-6.8293462 175:3.938921 176:3.3073448 177:6.1342826 178:1.6691931 179:-4.7718013 180:-1.9835707 181:-0.18812399 182:6.0627535 183:3.5389846 184:-4.5675034 185:-6.5340199 186:-3.6857631 187:-2.6025523 188:1.7555456 189:-10.278291 190:2.6796127 191:-0.039568471 192:8.3872178 193:9.9083954 194:7.0841442 195:2.5335338 196:5.2693011 197:5.8353359 198:1.1196208 199:0.68463717 200:-3.1761195 
-2.0761477674468851e-05 1:2.5133299 2:5.1844387 3:5.840132 4:8.6340701 5:-8.1392439 6:0.68152468 7:-3.9233742 8:-3.5214075 9:-5.7517312 10:-6.938233 11:7.2361556 12:-5.584579 13:-7.59519 14:-4.916039 15:-7.5417585 16:2.5437155 17:-3.0376821 18:5.5423735 19:0.46266331 20:-2.7805926 21:-0.9134521 22:-9.7861734 23:-8.9193031 24:-4.1406114 25:-2.5538873 26:4.776597 27:7.8047459 28:-1.2324563 29:-7.1381074 30:7.2325198 31:-1.5053811 32:-0.46494287 33:-10.112878 34:3.1673602 35:-6.2169956 36:-1.6769743 37:4.6469844 38:4.485021 39:2.2117585 40:-8.264994 41:-1.8642361 42:2.3800324 43:-7.8526797 44:7.3953234 45:10.108998 46:-2.6181474 47:7.4466938 48:-6.8133264 49:-3.8554833 50:2.7056386 51:-8.058408 52:6.0637131 53:7.4592576 54:-5.3496857 55:7.3348932 56:3.7411118 57:-2.485634 58:7.1260317 59:2.2353495 60:-3.2017595 61:5.7723247 62:-0.71747188 63:-4.039361 64:-0.025234748 65:0.2313634 66:-4.9047237 67:-10.100219 68:-6.6140541 69:9.4046518 70:7.10765 71:8.584236 72:7.9396962 73:0.72134928 74:5.8232129 75:0.29989613 76:5.2888267 77:-2.5106093 78:-0.77408482 79:9.0904901 80:9.799376 81:-1.9118948 82:0.1715013 83:-7.8590102 84:-3.9288826 85:1.680014 86:8.6983862 87:0.86080793 88:-6.2687608 89:-3.4066911 90:0.051039583 91:-4.990037 92:-6.9296869 93:3.1341548 94:-2.3171519 95:-5.6411923 96:5.3377345 97:8.587434 98:-11.210367 99:-4.634328 100:-2.8383949 101:3.2243098 102:4.2103255 103:0.21002585 104:-2.3294711 105:-4.2648479 106:-2.1556226 107:0.9394038 108:0.82298394 109:-1.0687205 110:-0.19585145 111:5.0480403 112:7.0558384 113:9.3258189 114:2.7563474 115:8.3340086 116:6.9905979 117:-9.7940873 118:0.74194831 119:10.502311 120:-0.15695563 121:3.0357281 122:-4.0827056 123:1.079728 124:9.7266526 125:4.6143003 126:-0.33927807 127:7.6248496 128:8.4189095 129:7.6464406 130:-1.4592032 131:1.7067887 132:-0.49376959 133:-0.79149565 134:2.7232389 135:8.8862856 136:-6.0675926 137:-4.0613467 138:-2.4571598 139:-3.1571972 140:-0.83597385 141:-2.4820374 142:5.8184176 143:-2.2993407 144:-4.4706234 145:0.14620535 146:-5.9548863 147:8.7667159 148:-3.7441991 149:4.5936784 150:4.8308224 151:7.364098 152:-9.268258 153:-4.006112 154:3.2114886 155:5.9661226 156:2.4336526 157:-4.7453908 158:0.89971774 159:6.330809 160:6.5008625 161:-4.0306065 162:-0.97306467 163:-6.866134 164:8.8781742 165:5.7241088 166:5.6851895 167:8.6884503 168:0.058450248 169:-6.576084 170:3.5067274 171:2.0236947 172:0.32316311 173:4.1531222 174:-6.3308668 175:0.4398752 176:1.3455807 177:6.9313086 178:0.86829768 179:-2.0792776 180:-1.2824928 181:-0.1757218 182:6.0332186 183:4.5804979 184:-4.8032201 185:-5.4996028 186:-6.7401912 187:-1.5491753 188:5.7998456 189:-9.4946773 190:1.1287288 191:-0.21840467 192:9.6197475 193:8.0502706 194:7.3510601 195:2.5971713 196:3.2327558 197:10.437076 198:1.0259026 199:1.9937668 200:-3.5119488 
-5.499564245868537e-05 1:3.1128993 2:3.9370677 3:6.598049 4:7.8217434 5:-8.1349402 6:-0.36563122 7:-3.0287661 8:-3.0247734 9:-6.6086755 10:-6.3251472 11:6.9749667 12:-5.2941792 13:-7.9663678 14:-5.8879503 15:-7.5367195 16:4.3113134 17:-4.3609873 18:3.9814552 19:-1.3059321 20:-2.9414808 21:-1.0468243 22:-8.2482601 23:-9.4509907 24:-2.8775015 25:-3.1813504 26:4.1673898 27:7.4614012 28:-0.68327892 29:-8.7197043 30:7.7748432 31:-2.6240823 32:-1.2268723 33:-12.143285 34:1.8988471 35:-2.5419763 36:-2.2360681 37:6.1781156 38:3.296965 39:1.4234489 40:-9.0655413 41:-2.048066 42:3.5694721 43:-7.8962041 44:8.0639295 45:6.612809 46:-2.4240772 47:8.7131359 48:-8.0390984 49:-5.0369025 50:2.3298104 51:-7.3280792 52:6.8288848 53:6.8283373 54:-8.2084012 55:7.9667668 56:3.0996059 57:-0.10105137 58:6.348924 59:1.8073778 60:-4.3032195 61:6.0184934 62:-1.1405923 63:-2.5701525 64:-2.5601167 65:-1.5053522 66:-5.021112 67:-8.5827457 68:-7.7813203 69:9.5314592 70:7.8257123 71:10.293434 72:9.2960583 73:1.1036042 74:7.0346549 75:-0.11989149 76:4.4017575 77:-2.5596808 78:-1.6920213 79:8.6751119 80:9.866781 81:-1.9015055 82:1.2111136 83:-10.085453 84:-1.2644084 85:-0.35896401 86:7.0019146 87:2.3575253 88:-6.2973781 89:-4.3560008 90:-1.2982808 91:-6.3602034 92:-5.7481597 93:1.7290729 94:-3.1063719 95:-3.1898156 96:4.0896156 97:6.2881759 98:-7.6642246 99:-4.1117878 100:-4.9929283 101:5.9663911 102:3.9019832 103:-0.16362714 104:-4.9279835 105:-5.7108997 106:-0.55580718 107:1.6893205 108:-1.8247364 109:-1.1626184 110:0.3709262 111:4.6890398 112:7.513874 113:8.1722432 114:1.0616923 115:8.8617419 116:8.9143972 117:-8.3035693 118:1.1312584 119:8.5028869 120:2.0931698 121:1.7867439 122:-4.1083438 123:1.6745984 124:9.5136776 125:4.8401534 126:-0.37091143 127:9.4540322 128:7.0980499 129:4.4955468 130:1.5105145 131:0.8620778 132:-2.2685973 133:-0.92330045 134:3.0533212 135:9.5930361 136:-7.0274175 137:-5.3169701 138:-4.5626558 139:-3.0241012 140:-0.82395936 141:-2.744321 142:5.1134591 143:-2.610308 144:-3.8180197 145:-0.44381866 146:-8.5671079 147:7.5638999 148:-2.7525571 149:5.2782797 150:5.6777894 151:8.2567395 152:-9.3188308 153:-3.3479359 154:3.161658 155:3.5387029 156:1.3785811 157:-4.8817769 158:1.4830293 159:4.5551785 160:9.1886469 161:-1.4875715 162:-3.1870859 163:-7.136755 164:8.8810582 165:5.7710777 166:7.0395159 167:6.2636488 168:-0.2740106 169:-6.2724102 170:1.8141496 171:1.773429 172:-0.065105089 173:6.1188784 174:-7.6473362 175:2.5144877 176:2.345693 177:6.6655789 178:2.003428 179:-2.2684934 180:-1.6708438 181:-0.67312333 182:4.9329699 183:3.7371489 184:-4.7779761 185:-6.5473477 186:-4.1372917 187:-3.4729484 188:2.7467485 189:-7.8304239 190:1.7294311 191:1.5454978 192:7.8388043 193:11.255465 194:7.9408615 195:2.3701324 196:4.1829067 197:7.3776446 198:0.87098156 199:1.8013185 200:-0.95606904 
-8.1000045619057377e-05 1:4.8317694 2:2.9293671 3:6.2782252 4:8.3045929 5:-7.4924454 6:1.0497829 7:-1.4313937 8:-2.9714571 9:-7.190213 10:-4.9013794 11:8.8762238 12:-5.5997957 13:-6.7568429 14:-4.1311806 15:-9.512259 16:4.3251556 17:-2.8375244 18:4.5894508 19:1.4361488 20:-2.6176535 21:-1.9512071 22:-9.2704196 23:-10.627305 24:-2.0626256 25:-2.2871412 26:4.2499032 27:7.937037 28:0.31781159 29:-7.9560501 30:8.589659 31:-0.062888043 32:-0.0074207278 33:-7.4106976 34:1.4971183 35:-4.2170404 36:-2.0664909 37:6.1275302 38:4.0605992 39:2.7348275 40:-7.8231147 41:-3.8414234 42:2.3654326 43:-5.979949 44:9.8795752 45:7.2737272 46:-2.1763684 47:7.7601709 48:-8.6907887 49:-3.033621 50:1.7406013 51:-6.4681445 52:5.1395027 53:7.3200781 54:-6.6372787 55:5.8378844 56:5.8517402 57:-2.4256116 58:6.2899922 59:3.4311809 60:-2.1439481 61:7.3082401 62:-1.7872091 63:-2.4549736 64:-4.3885933 65:-2.2814732 66:-4.9732699 67:-10.567922 68:-7.7141339 69:7.8721551 70:8.5346112 71:7.4498326 72:9.1524679 73:-0.25092622 74:8.5850199 75:0.21751458 76:4.7674799 77:-2.1084873 78:-2.569763 79:6.3119793 80:8.711545 81:-2.4400765 82:1.0564015 83:-8.0079044 84:-2.7514364 85:1.2965544 86:6.5062905 87:2.2456667 88:-5.7083101 89:-3.1649293 90:1.1217337 91:-6.9569182 92:-5.7957574 93:1.4017959 94:-2.5741831 95:-5.1909596 96:5.7798195 97:6.249914 98:-9.3269129 99:-2.7014997 100:-2.1967685 101:2.5882576 102:2.7392336 103:2.1894965 104:-1.59537 105:-5.6486927 106:-1.7773868 107:4.4402572 108:-0.72328424 109:-1.8471026 110:-1.2075553 111:5.0004043 112:7.5883187 113:11.519268 114:3.0833945 115:8.234513 116:8.1890154 117:-6.754856 118:1.6814141 119:7.6961197 120:2.8130041 121:2.617812 122:-3.2854696 123:2.6248564 124:9.8557206 125:3.6793468 126:-0.28032611 127:7.0329092 128:9.0851769 129:6.1903486 130:1.6298424 131:0.40447784 132:-2.9192529 133:-1.102952 134:1.3626421 135:10.855479 136:-5.6026304 137:-3.9145994 138:-4.000358 139:-4.7458732 140:-1.0817537 141:-2.4272441 142:5.3918177 143:-0.88787854 144:-5.1423782 145:-0.14664267 146:-6.1585734 147:8.6606897 148:-2.3774925 149:5.4590792 150:4.8584226 151:6.1455149 152:-8.4939809 153:-2.5414804 154:3.3971503 155:5.6732842 156:0.47923179 157:-4.146605 158:0.84998647 159:4.7637737 160:8.8722738 161:-6.2203741 162:-1.0792509 163:-5.3821714 164:8.2984851 165:4.5504632 166:6.3976015 167:7.0322967 168:0.88531937 169:-6.8245362 170:2.1315811 171:2.0276198 172:-2.7534095 173:3.8564406 174:-6.3513459 175:3.4854317 176:2.7497654 177:5.5085316 178:4.1499917 179:-3.1352154 180:0.80261631 181:-1.4179972 182:4.7370364 183:3.2334578 184:-7.2033509 185:-6.634218 186:-6.4845581 187:-2.7968662 188:4.9687714 189:-10.754 190:1.0529309 191:0.31708487 192:7.753026 193:8.8272396 194:6.8050053 195:2.2152952 196:5.7001377 197:6.5944783 198:2.3207753 199:1.7917038 200:-1.3085279 

