svm_type c_svc
kernel_type rbf
gamma 0.05
nr_class 2
label 0 1
total_sv 50
nr_sv 25 25
rho 8.2809796179e-04 -8.2809766192e-04
SV
4.4017293684e-02 -4.4017294138e-02 1:-1.0000000000e+00 2:-8.5633056145e-01 3:5.4355210617e-01 4:-4.3774700086e-01 5:3.5609395169e-01 6:-5.9828889514e-01 7:-2.9377024616e-01 8:4.6992083846e-01 9:-9.5536319581e-01 10:6.9564596717e-01 11:7.4968841479e-01 12:-5.0514257814e-02 13:1.0000000000e+00 14:2.4967752709e-01 15:-3.1743188553e-01 16:4.5628580095e-01 17:7.0920200588e-01 18:-6.6288305787e-01 19:-7.8364130392e-01 20:6.2520190613e-01 
7.5950058120e-02 -7.5950059205e-02 1:-8.3366038440e-01 2:-6.8471633769e-01 3:-5.8740413020e-01 4:-9.0718358764e-01 5:3.3508804043e-01 6:-8.2293199319e-01 7:8.5895082807e-02 8:4.5618301415e-01 9:-8.1945507701e-01 10:7.9112298802e-01 11:8.6889678166e-01 12:-4.4555302108e-01 13:6.0918925189e-01 14:2.3377615094e-01 15:-3.8399520574e-01 16:7.6241895827e-01 17:7.5217567554e-01 18:-8.4283586987e-01 19:-6.7126003095e-01 20:8.7031175747e-01 
9.9155762606e-02 -9.9155761799e-02 1:-6.7514210045e-01 2:-6.9516360491e-01 3:1.3658558998e-01 4:-6.5490298323e-01 5:9.1777501672e-01 6:-4.9764816438e-01 7:-9.0470140250e-01 8:6.7263392094e-01 9:-8.2816416050e-01 10:4.9666568824e-01 11:8.8562730829e-01 12:5.0550442984e-02 13:7.7474832418e-01 14:3.2347376000e-01 15:9.9592573704e-02 16:1.5940597482e-01 17:6.9111869698e-01 18:-5.6304699799e-01 19:-6.4125146211e-01 20:6.4780561172e-01 
7.9207354662e-02 -7.9207355141e-02 1:-7.0358970960e-01 2:-1.0000000000e+00 3:5.6731596497e-01 4:-8.6118774083e-01 5:5.0903629567e-01 6:-4.6642126798e-01 7:7.7617486611e-01 8:6.8639879869e-01 9:-7.7635505576e-01 10:3.5936354671e-01 11:7.9773832197e-01 12:-3.8570695687e-01 13:8.3366624608e-01 14:4.5871747589e-01 15:-8.3067080931e-01 16:5.3286115682e-01 17:8.7377649767e-01 18:-9.0250708317e-01 19:-7.9391868823e-01 20:3.2602256057e-01 
7.0632477764e-03 -7.0632474501e-03 1:-7.2635910922e-01 2:-7.0390893514e-01 3:-8.1769780576e-03 4:-7.4354343184e-01 5:9.8737961730e-01 6:-5.9487149506e-01 7:6.5434355295e-03 8:7.1149854487e-01 9:-9.7527079334e-01 10:4.1158433459e-01 11:8.4593790685e-01 12:-3.0549882898e-01 13:5.4107287361e-01 14:1.3588999938e-02 15:-4.9901186722e-01 16:7.6244588077e-01 17:9.9129363479e-01 18:-1.0000000000e+00 19:-7.6155532367e-01 20:9.9584664173e-01 
5.0912869412e-02 -5.0912870870e-02 1:-6.5465760673e-01 2:-4.4088664128e-01 3:6.6138348731e-01 4:-5.0837878798e-01 5:7.5439257809e-01 6:-4.1055015350e-01 7:7.5525430130e-02 8:5.4275171075e-01 9:-8.1501562212e-01 10:6.1049859042e-01 11:8.4937327176e-01 12:4.0024423049e-01 13:7.0638254081e-01 14:2.3910689843e-01 15:-6.6530726882e-01 16:4.0645499971e-01 17:7.4901061992e-01 18:-6.9266423904e-01 19:-7.2189517155e-01 20:7.7972757428e-01 
7.7861950942e-02 -7.7861951319e-02 1:-7.2510163928e-01 2:-6.7482071411e-01 3:9.7134750935e-01 4:-6.4371232941e-01 5:5.6461936991e-01 6:-4.1396220646e-01 7:3.1259174362e-01 8:6.2788502558e-01 9:-7.9102875810e-01 10:5.4990887347e-01 11:7.4098504456e-01 12:-1.8746088563e-01 13:7.9152411827e-01 14:4.1001432254e-01 15:-4.1316516557e-01 16:1.9810705358e-01 17:6.5666141318e-01 18:-7.6210833799e-01 19:-6.7628406688e-01 20:7.9629989215e-01 
7.8580724207e-02 -7.8580726073e-02 1:-5.3969516251e-01 2:-5.4389877751e-01 3:7.5458627165e-01 4:-6.0229962304e-01 5:8.5813159025e-01 6:-9.6946042273e-01 7:-7.2414692067e-01 8:4.0782589187e-01 9:-8.0582867416e-01 10:3.3434679119e-01 11:9.9348671406e-01 12:-3.2345404719e-01 13:2.2420392738e-01 14:1.4919094159e-01 15:-7.6230685868e-01 16:6.2148109741e-01 17:1.0000000000e+00 18:-6.4771417804e-01 19:-8.1894795668e-01 20:8.4131382246e-01 
7.8920462540e-02 -7.8920461359e-02 1:-9.0275239075e-01 2:-7.1409103824e-01 3:1.9317899800e-01 4:-6.2653049915e-01 5:7.1156200722e-01 6:-6.7891600589e-01 7:4.6862186066e-01 8:2.2408749280e-01 9:-8.9578962125e-01 10:1.3317803691e-01 11:8.0071399245e-01 12:-2.9711441148e-01 13:4.5882073877e-01 14:3.8608149587e-01 15:-6.1270266523e-01 16:1.0346799542e-02 17:6.8595523397e-01 18:-7.9930660482e-01 19:-9.9340197071e-01 20:7.7324226431e-01 
1.9501674362e-02 -1.9501672534e-02 1:-7.3878094389e-01 2:-7.5399588197e-01 3:1.2413741124e-01 4:-7.3445558707e-01 5:4.8659799086e-01 6:-4.6416126891e-01 7:2.5828200542e-01 8:3.9401745594e-01 9:-8.4259254512e-01 10:6.2858565504e-01 11:9.7357269485e-01 12:3.6945209844e-01 13:5.2251873769e-01 14:3.9696302884e-01 15:-4.0169077980e-01 16:4.4902637658e-01 17:9.6041698470e-01 18:-8.0232305986e-01 19:-8.9816194846e-01 20:8.5180086397e-01 
5.7525458421e-02 -5.7525456754e-02 1:-9.4671528081e-01 2:-4.3654725080e-01 3:8.2651778511e-01 4:-7.1424508746e-01 5:8.6186584298e-01 6:-5.7816140778e-01 7:-1.0000000000e+00 8:5.7445681921e-01 9:-9.6516403230e-01 10:5.7389203038e-01 11:7.7796678859e-01 12:-3.3515995641e-01 13:9.7623950660e-01 14:4.5770839753e-01 15:-3.4392373791e-01 16:2.8447534631e-01 17:8.9519277722e-01 18:-8.0959754690e-01 19:-7.9120602449e-01 20:6.1449931289e-01 
5.3767380149e-02 -5.3767381535e-02 1:-9.0547108278e-01 2:-4.9006766299e-01 3:1.0000000000e+00 4:-2.0170851494e-01 5:7.2289850812e-01 6:-7.9197925821e-01 7:1.7992742975e-01 8:5.4142089110e-01 9:-9.9426379413e-01 10:4.9244339010e-01 11:1.0000000000e+00 12:3.6135933935e-03 13:8.9012679241e-01 14:2.5012300436e-01 15:-3.5387466491e-01 16:2.0400664347e-01 17:8.0255245331e-01 18:-8.6411795533e-01 19:-8.4181112826e-01 20:5.9875764002e-01 
6.5962071454e-02 -6.5962068636e-02 1:-7.7460240518e-01 2:-8.1377972282e-01 3:-3.9548604165e-01 4:-1.0000000000e+00 5:4.1658138612e-01 6:-7.5365584079e-01 7:5.1244824312e-01 8:6.1195307539e-01 9:-7.5727478127e-01 10:5.3032916299e-01 11:9.2405668323e-01 12:2.7009081358e-01 13:6.5391406736e-01 14:4.8100561528e-01 15:-3.8198019972e-01 16:6.8639126995e-01 17:5.2111243675e-01 18:-9.0302530117e-01 19:-1.0000000000e+00 20:4.1219251474e-01 
7.1200569481e-02 -7.1200571173e-02 1:-9.8901205759e-01 2:-2.1213114800e-01 3:-2.1502351144e-01 4:-4.5094158454e-01 5:6.4940854424e-01 6:-6.1022881947e-01 7:-7.2641997472e-01 8:3.5634950478e-01 9:-8.2332986720e-01 10:6.6743253160e-01 11:7.8939953757e-01 12:-2.4839959553e-01 13:4.0904698222e-01 14:3.1509853782e-01 15:-5.9688412542e-01 16:6.5245220848e-01 17:8.0350456275e-01 18:-9.8726887977e-01 19:-8.3725529805e-01 20:1.0000000000e+00 
6.5423203862e-02 -6.5423205052e-02 1:-8.6921639636e-01 2:-7.5717122317e-01 3:-4.1067152404e-01 4:-6.4176495237e-01 5:1.0000000000e+00 6:-4.8003304771e-01 7:-6.9328282154e-01 8:4.3776287437e-01 9:-9.8602381915e-01 10:4.9179529438e-01 11:8.4241758067e-01 12:4.0778455231e-01 13:9.1701028152e-01 14:-1.7235604169e-01 15:-4.0521384275e-01 16:9.0763975247e-01 17:8.4325614435e-01 18:-7.0441657366e-01 19:-7.2975763069e-01 20:7.2867077265e-01 
9.4206307503e-03 -9.4206298060e-03 1:-7.6286180209e-01 2:-7.3193340103e-01 3:4.0486423127e-01 4:-9.7506116971e-01 5:9.1942285808e-01 6:-5.1803887618e-01 7:3.9698152914e-01 8:6.9462723526e-01 9:-7.8981443761e-01 10:5.5641856568e-01 11:6.5381413773e-01 12:3.1067378429e-01 13:9.0557758987e-01 14:3.0443749313e-01 15:-7.0201937457e-01 16:2.3544195425e-01 17:8.1709603384e-01 18:-8.9043241940e-01 19:-8.0816417941e-01 20:7.9023661882e-01 
4.7795382690e-02 -4.7795383234e-02 1:-8.5538945298e-01 2:-6.5461655666e-01 3:3.1205606646e-01 4:-6.3514925224e-01 5:5.0280009242e-01 6:-6.0328528705e-01 7:6.6370842638e-01 8:1.0000000000e+00 9:-8.6632352174e-01 10:5.4599358517e-01 11:8.6837192953e-01 12:4.6823940885e-01 13:8.0055762859e-01 14:1.0000000000e+00 15:-9.7797760307e-01 16:1.0000000000e+00 17:7.9623804360e-01 18:-7.4333993268e-01 19:-7.3878888929e-01 20:7.6825706655e-01 
7.1724776724e-02 -7.1724779590e-02 1:-7.0028065778e-01 2:-4.8634467360e-01 3:5.4720562829e-01 4:-5.6990387671e-01 5:9.2336145051e-01 6:-2.2066167169e-01 7:-2.3074837680e-01 8:1.7722573263e-01 9:-6.1582475662e-01 10:6.1772950834e-01 11:9.6919351379e-01 12:2.8515902660e-03 13:7.4521123140e-01 14:6.8178683417e-01 15:-2.5549777689e-01 16:3.5327956748e-01 17:6.0843126458e-01 18:-7.0762296182e-01 19:-8.4258340710e-01 20:8.4129750666e-01 
4.1382945171e-02 -4.1382941776e-02 1:-6.7530410531e-01 2:-4.4390471701e-01 3:2.1941244742e-01 4:-7.8826208831e-01 5:5.3968498391e-01 6:-3.9904980722e-01 7:-3.7241580478e-01 8:4.8824383797e-01 9:-1.0000000000e+00 10:3.3343723342e-01 11:9.3474390004e-01 12:3.7892913183e-01 13:7.7484077374e-01 14:3.8759553547e-01 15:-5.8064619120e-01 16:9.4540522935e-02 17:8.1129097918e-01 18:-7.8347595406e-01 19:-8.7333906518e-01 20:6.5236497558e-01 
4.0576940859e-02 -4.0576938328e-02 1:-6.5437875117e-01 2:-9.4548146689e-01 3:-1.8186347525e-02 4:-9.1163880828e-01 5:6.4325121642e-01 6:-8.7302074444e-02 7:-5.1871339486e-01 8:8.3766150796e-01 9:-9.7227133011e-01 10:6.0427880865e-01 11:9.1765616896e-01 12:5.2086657169e-01 13:8.4722677184e-01 14:1.0296587417e-01 15:-8.3893337232e-01 16:6.9592100482e-01 17:7.1407248610e-01 18:-6.7189184274e-01 19:-8.3723236474e-01 20:7.3837208264e-01 
2.6753406733e-02 -2.6753408957e-02 1:-8.2555275699e-01 2:-8.8250957561e-01 3:-2.9250056338e-01 4:-4.3125750809e-01 5:7.7004233314e-01 6:-1.0000000000e+00 7:1.9487340789e-01 8:6.7976636438e-01 9:-9.5124036345e-01 10:5.1633426945e-01 11:8.9192124121e-01 12:-3.4037052611e-03 13:5.7806333928e-01 14:9.2813581125e-02 15:-8.1700099148e-01 16:7.7759710295e-01 17:6.8503310331e-01 18:-7.7562377347e-01 19:-8.1561607705e-01 20:8.3242630328e-01 
5.0082227474e-02 -5.0082226296e-02 1:-6.0711772396e-01 2:-6.1471970852e-01 3:8.7651875819e-01 4:-6.3252983022e-01 5:5.7837409468e-01 6:-4.1994700926e-01 7:-1.3419445383e-01 8:5.5701648740e-01 9:-9.4019245187e-01 10:3.9938872613e-01 11:9.1618210211e-01 12:1.7904045286e-01 13:4.9880054709e-01 14:3.9455842666e-01 15:-6.0646491761e-01 16:2.6450615156e-01 17:7.7568997486e-01 18:-6.1442057935e-01 19:-9.7731578914e-01 20:7.7555907709e-01 
4.6239087293e-02 -4.6239087436e-02 1:-8.3837617654e-01 2:-4.7902792591e-01 3:-5.5991156809e-01 4:-7.3311595547e-01 5:9.4888456312e-01 6:-3.0629804057e-01 7:1.1729700309e-01 8:4.0289760253e-01 9:-9.8874648330e-01 10:8.1611415953e-01 11:7.2410113410e-01 12:7.5616707823e-02 13:8.2366994263e-01 14:5.3196660295e-01 15:-6.4510176350e-01 16:5.8096798740e-01 17:7.2760984241e-01 18:-8.3556337988e-01 19:-8.3846876888e-01 20:6.6782452868e-01 
6.5934389759e-02 -6.5934388251e-02 1:-7.8650753711e-01 2:-8.5054883039e-01 3:4.7558949990e-01 4:-9.9919235360e-01 5:7.3012295456e-01 6:-2.7418318042e-01 7:2.7131200039e-01 8:3.8234585237e-01 9:-9.0783398425e-01 10:2.0223283206e-01 11:8.5891645265e-01 12:1.0000000000e+00 13:7.0076843472e-01 14:2.3747352759e-01 15:-1.0000000000e+00 16:3.5522336781e-01 17:7.7141358419e-01 18:-8.4128776870e-01 19:-6.8220247427e-01 20:9.7710197094e-01 
5.0623283037e-02 -5.0623284138e-02 1:-8.2969903135e-01 2:-5.9412453074e-01 3:-8.8451601433e-02 4:-7.0401508380e-01 5:8.4611395034e-01 6:-5.2295223579e-01 7:7.3630131851e-01 8:6.0774198017e-01 9:-8.5330972433e-01 10:1.0000000000e+00 11:8.6865138377e-01 12:-1.3096880051e-01 13:5.2422642158e-01 14:2.0586368311e-01 15:-4.6587729882e-01 16:7.2478074415e-01 17:8.3103252863e-01 18:-8.2524538692e-01 19:-7.4094007048e-01 20:8.0811283614e-01 
-1.1283058188e-01 1.1283058190e-01 1:7.4066272478e-01 2:4.1717045827e-01 3:6.5091674557e-01 4:1.6019837839e-01 5:-3.6118222503e-01 6:7.6557012951e-01 7:6.3930068739e-01 8:-4.1910869527e-01 9:6.9312420080e-01 10:-6.5199398119e-01 11:-6.6400237150e-01 12:-7.8028229039e-01 13:-6.9178090834e-01 14:-5.4612315461e-01 15:-1.2971533528e-01 16:-5.3380224302e-01 17:-6.2713748487e-01 18:9.2511654180e-01 19:6.6209592792e-01 20:-8.0916918097e-01 
-3.3319105945e-02 3.3319105837e-02 1:6.5068045294e-01 2:3.6993748833e-01 3:-5.8380714097e-01 4:7.4386754332e-01 5:-7.1482372387e-01 6:8.9680762864e-01 7:4.6373563490e-01 8:-5.7312247321e-01 9:8.2862426359e-01 10:-4.9035588698e-01 11:-8.4885873421e-01 12:-6.9061395482e-01 13:-8.1732307593e-01 14:-5.1123155479e-01 15:8.9723468619e-01 16:-1.0000000000e+00 17:-6.3666271391e-01 18:8.0046848494e-01 19:1.0000000000e+00 20:-6.2779908604e-01 
-5.2880586428e-02 5.2880583901e-02 1:6.9090819762e-01 2:6.8603326610e-01 3:-2.4269482167e-01 4:9.2789513918e-01 5:-8.5284094560e-01 6:4.8266603906e-01 7:2.4216118825e-02 8:-9.7267126669e-01 9:8.9602179902e-01 10:-5.8227021564e-01 11:-7.6616150452e-01 12:-8.2219413108e-01 13:3.3031753021e-02 14:-6.1460617515e-01 15:4.0608710372e-01 16:-8.1751054425e-02 17:-6.7721751791e-01 18:6.8780926292e-01 19:7.3869534381e-01 20:-6.7615521614e-01 
-6.7446848363e-02 6.7446848234e-02 1:6.1487222868e-01 2:5.2367953106e-01 3:-2.5815760027e-01 4:6.7108686636e-01 5:-7.9341165938e-01 6:6.2445066929e-01 7:-1.5116605351e-01 8:-6.4868266923e-01 9:7.6546194345e-01 10:-4.0110508728e-01 11:-9.6481821438e-01 12:1.8626746916e-01 13:-4.9698251922e-01 14:-7.5819469136e-01 15:4.1755146522e-01 16:1.4966245209e-01 17:-5.8399750602e-01 18:9.1569566902e-01 19:6.1243744006e-01 20:-6.6691238255e-01 
-4.1571326588e-02 4.1571324864e-02 1:5.4229887798e-01 2:6.4829014724e-01 3:2.9546329086e-01 4:8.7138755077e-01 5:-6.4958398697e-01 6:7.0157057558e-01 7:6.6805115958e-01 8:-3.8369007058e-01 9:8.6201506348e-01 10:1.0651102948e-02 11:-1.0000000000e+00 12:-4.4099212488e-02 13:-5.8722226969e-01 14:-1.0000000000e+00 15:9.0759052503e-01 16:-6.1461651277e-01 17:-1.0000000000e+00 18:1.0000000000e+00 19:7.1089727272e-01 20:-8.4607685671e-01 
-1.7872879469e-02 1.7872880182e-02 1:7.3751538150e-01 2:5.0753010527e-01 3:3.1005939727e-01 4:2.8782831599e-01 5:-1.0000000000e+00 6:8.6346107557e-01 7:4.9470024449e-01 8:-9.1826347232e-01 9:8.4463497521e-01 10:-3.8423995864e-01 11:-8.1483550996e-01 12:-7.8013125794e-02 13:-9.6974421201e-01 14:-8.0175652935e-01 15:3.3732403292e-01 16:-1.5286475375e-01 17:-7.3465346068e-01 18:8.0296454867e-01 19:7.7471017276e-01 20:-7.5188050199e-01 
-9.2468962580e-02 9.2468962360e-02 1:6.0625185584e-01 2:5.1572830097e-01 3:6.2978731135e-02 4:3.9417408133e-01 5:-4.0821516238e-01 6:8.0712547231e-01 7:6.8121971328e-01 8:-9.0670895553e-01 9:6.5611247260e-01 10:-2.7815120984e-01 11:-6.9713957826e-01 12:1.4992322695e-01 13:-8.1157584856e-01 14:-8.8694693989e-01 15:4.5975614911e-01 16:-2.4100572790e-02 17:-8.3025675915e-01 18:8.1666204948e-01 19:6.1010249249e-01 20:-4.4709203387e-01 
-4.0676302630e-02 4.0676304350e-02 1:6.4756665621e-01 2:2.6906781760e-01 3:3.3152743937e-01 4:7.5770418247e-01 5:-6.5745161176e-01 6:1.0000000000e+00 7:-5.5994423873e-01 8:-6.2769950677e-01 9:7.8950036090e-01 10:-2.7288276836e-01 11:-9.5498213994e-01 12:-3.4461374650e-01 13:-8.8323574439e-01 14:-8.1794217701e-01 15:5.1527082912e-01 16:-1.4728071169e-01 17:-6.7468470593e-01 18:9.1890679654e-01 19:6.5427306096e-01 20:-7.6561513981e-01 
-8.5305991513e-03 8.5305998705e-03 1:6.8108287834e-01 2:1.0000000000e+00 3:-3.9934315196e-01 4:7.4683962927e-01 5:-7.4825089459e-01 6:8.5491778698e-01 7:1.8588260583e-02 8:-4.8980842237e-01 9:7.3711401582e-01 10:-7.4389117400e-01 11:-7.0532766826e-01 12:-6.9906384585e-01 13:-5.8718301295e-01 14:-6.7203435381e-01 15:6.3891064378e-01 16:-4.7569147223e-01 17:-5.9299553060e-01 18:7.9888747917e-01 19:9.4494797994e-01 20:-7.3378459962e-01 
-1.6568731974e-02 1.6568732556e-02 1:7.6199636602e-01 2:4.4033225551e-01 3:-3.8797554271e-01 4:1.0000000000e+00 5:-6.5350241857e-01 6:6.0927301594e-01 7:6.4252140481e-01 8:-8.3474218715e-01 9:7.2312992933e-01 10:-4.3180029124e-01 11:-8.6735488974e-01 12:-6.4494311748e-01 13:-5.2571960494e-01 14:-6.4880614871e-01 15:7.4710448398e-01 16:-7.3834564061e-01 17:-6.1737814872e-01 18:9.2320684354e-01 19:9.5605910274e-01 20:-6.3611021439e-01 
-1.1410001854e-01 1.1410001734e-01 1:7.9731129633e-01 2:1.5255598700e-01 3:-7.7978498440e-01 4:6.2183228876e-01 5:-6.5543809457e-01 6:9.3217664573e-01 7:-3.9397776974e-01 8:-8.1425770556e-01 9:8.0007504876e-01 10:-2.4706072847e-01 11:-8.3988911874e-01 12:-7.6611081888e-01 13:-1.6923975179e-01 14:-9.8842562538e-02 15:-1.2548649783e-01 16:-4.5458509632e-01 17:-7.6441843642e-01 18:7.1581132524e-01 19:8.4066349179e-01 20:-6.6765896651e-01 
-7.6834048435e-02 7.6834045930e-02 1:7.4833570107e-01 2:6.8562086589e-01 3:-8.2274784586e-02 4:6.0484205176e-01 5:-7.1573880309e-01 6:7.5591648793e-01 7:4.8897876822e-01 8:-3.7051732598e-01 9:8.0688622655e-01 10:-2.0664119099e-01 11:-6.9451628363e-01 12:-1.0000000000e+00 13:-7.0221951785e-01 14:-5.6009037095e-01 15:-2.7724907817e-01 16:-1.8708438001e-02 17:-4.1768827350e-01 18:8.1999116161e-01 19:8.1518507640e-01 20:-7.1783898665e-01 
-2.0662534423e-02 2.0662533546e-02 1:6.8888524936e-01 2:7.8691157654e-01 3:-1.8707107861e-01 4:9.3767438451e-01 5:-7.5007770129e-01 6:8.6975055185e-01 7:4.1612906253e-03 8:-5.8646296944e-01 9:7.4917371594e-01 10:-2.2309537724e-01 11:-7.0015063860e-01 12:-8.5524675071e-01 13:-9.7327123231e-01 14:-5.4025749616e-01 15:1.9003582823e-01 16:-2.2964998684e-01 17:-5.0120254057e-01 18:8.1762310280e-01 19:8.4503705276e-01 20:-6.2931162344e-01 
-7.7795266572e-02 7.7795265768e-02 1:8.1480333521e-01 2:6.9889869016e-01 3:8.4802617765e-01 4:8.6593824746e-01 5:-7.9795366585e-01 6:9.8152253612e-01 7:-2.2845375766e-01 8:-3.7826493107e-01 9:7.7807044391e-01 10:-3.6131590066e-01 11:-8.3557998730e-01 12:-8.0390595315e-01 13:-2.1663563398e-01 14:-7.1115575849e-01 15:1.9051088910e-01 16:-1.6766693309e-01 17:-6.7165225282e-01 18:6.5999146281e-01 19:8.1283871845e-01 20:-5.3250617877e-01 
-5.0642033638e-02 5.0642037041e-02 1:6.4727096090e-01 2:3.9377270601e-01 3:-8.1754655373e-02 4:6.5597545326e-01 5:-6.7684141835e-01 6:7.2870079399e-01 7:-1.5234751514e-01 8:-5.3160928733e-01 9:7.9639571438e-01 10:-5.8604759339e-01 11:-8.6268541161e-01 12:-6.3815909870e-01 13:-6.6855328104e-01 14:-2.1780867711e-01 15:-8.5100710520e-02 16:-5.2362793389e-01 17:-5.8807535098e-01 18:8.7048902394e-01 19:7.0681928255e-01 20:-6.6073635727e-01 
-8.2451952946e-02 8.2451952723e-02 1:7.6857996440e-01 2:7.9936294468e-01 3:-1.9263250936e-01 4:6.6163446663e-01 5:-6.9778862889e-01 6:7.0761720185e-01 7:-7.1388075244e-01 8:-5.1764199508e-01 9:8.9294270090e-01 10:-3.1519704258e-01 11:-8.0832109502e-01 12:-9.6168573307e-02 13:-6.8025914631e-01 14:-8.6258601261e-01 15:-2.7007805118e-01 16:-5.1159133666e-01 17:-5.1465419051e-01 18:8.2924446643e-01 19:6.2766885775e-01 20:-6.5453995165e-01 
-1.1450773691e-02 1.1450775420e-02 1:8.2870141737e-01 2:1.2287142413e-01 3:1.8473864649e-01 4:7.7374456672e-01 5:-6.5459157547e-01 6:8.4514637064e-01 7:7.3893682592e-01 8:-6.1185495849e-01 9:1.0000000000e+00 10:-4.3637698066e-01 11:-9.0405153157e-01 12:-3.9145036488e-01 13:-1.0000000000e+00 14:-8.3204587275e-01 15:6.8967071149e-01 16:-3.9580130779e-01 17:-6.2573717753e-01 18:7.7611526023e-01 19:9.0576383339e-01 20:-7.2063211031e-01 
-3.8870629487e-02 3.8870629160e-02 1:7.9359822480e-01 2:7.7092564966e-02 3:-5.3774777536e-01 4:7.0358382972e-01 5:-4.9488223546e-01 6:7.5542400327e-01 7:9.2149517605e-03 8:-1.0000000000e+00 9:7.3772647895e-01 10:-4.0861324798e-01 11:-8.9470093589e-01 12:-4.8214654733e-01 13:-8.5473164887e-01 14:-4.6283231218e-01 15:1.4642697209e-02 16:-6.2706389847e-01 17:-5.8594649490e-01 18:7.3176737396e-01 19:9.5675567587e-01 20:-1.0000000000e+00 
-2.6935679554e-02 2.6935679394e-02 1:7.9697861386e-01 2:5.5866603827e-01 3:-8.7788371579e-02 4:4.4906088577e-01 5:-9.2526966660e-01 6:7.2198716820e-01 7:-3.8162781053e-01 8:-7.0881490907e-01 9:8.1935216963e-01 10:-1.0000000000e+00 11:-8.6311614027e-01 12:-7.6123534339e-02 13:-8.9612059747e-01 14:-4.7866186168e-01 15:4.4056203691e-01 16:-6.2213417066e-01 17:-5.7224629088e-01 18:8.9773440938e-01 19:8.2119117761e-01 20:-7.6378854910e-01 
-8.2516896184e-02 8.2516897454e-02 1:7.3643535962e-01 2:3.3591524080e-01 3:-1.0000000000e+00 4:6.7169376128e-01 5:-5.8179058748e-01 6:9.4834403686e-01 7:1.0000000000e+00 8:-6.1674693859e-01 9:8.8791632931e-01 10:-2.4897330282e-01 11:-5.9834498330e-01 12:-6.4803308974e-01 13:-4.1058056560e-01 14:-5.5796623559e-01 15:5.7867039712e-01 16:-3.6178191060e-01 17:-6.5390766853e-01 18:9.5366631841e-01 19:7.8424519438e-01 20:-8.0021479349e-01 
-5.8699623785e-02 5.8699625531e-02 1:1.0000000000e+00 2:6.5940763291e-01 3:7.8625288433e-01 4:7.0137299685e-01 5:-6.2548616901e-01 6:9.6939071918e-01 7:-6.0906967432e-01 8:-7.8283321238e-01 9:8.0040231834e-01 10:-5.1176946224e-01 11:-9.6143053343e-01 12:-2.6323591971e-01 13:-4.0914941094e-01 14:-6.3215710944e-01 15:3.0535992163e-01 16:-3.5482650700e-01 17:-7.5920912272e-01 18:6.6952516692e-01 19:8.0291669423e-01 20:-6.0919715830e-01 
-1.7259797320e-02 1.7259796128e-02 1:6.4997376068e-01 2:7.7934345718e-01 3:-2.7211461186e-01 4:2.8691396445e-01 5:-8.3081782714e-01 6:7.6263645568e-01 7:6.9431676022e-02 8:-8.4994247976e-01 9:7.6861265749e-01 10:-2.9767989235e-01 11:-8.6573632512e-01 12:-6.4001017930e-01 13:-9.2053173004e-01 14:-6.3871834305e-01 15:2.3430149486e-01 16:-9.0042844014e-02 17:-7.0656344750e-01 18:7.1647445572e-01 19:8.0197842912e-01 20:-8.5396568841e-01 
-1.1195172557e-01 1.1195172474e-01 1:8.4399279530e-01 2:4.0191944645e-01 3:2.1697115642e-01 4:6.9981987207e-01 5:-8.2623312194e-01 6:7.0442760034e-01 7:6.1289187471e-01 8:-2.6427819136e-01 9:7.2216451339e-01 10:-4.5462092984e-01 11:-5.8720464535e-01 12:-5.1875868609e-02 13:-8.0608351451e-02 14:-9.8714286549e-01 15:-1.9726776673e-01 16:-1.6560839174e-01 17:-5.6717312157e-01 18:8.8876067291e-01 19:6.1002755896e-01 20:-6.6809509188e-01 
-7.5443267283e-02 7.5443264991e-02 1:5.9221477753e-01 2:6.4707881090e-01 3:4.3739220335e-01 4:3.5561353397e-01 5:-8.9519547827e-01 6:8.0786752360e-01 7:4.7227014239e-01 8:-6.5111984238e-01 9:7.5821980443e-01 10:-2.3580496468e-01 11:-7.5110591934e-01 12:-1.1414660017e-01 13:-4.9867682252e-01 14:-3.5134852121e-01 15:1.0000000000e+00 16:-2.3142808355e-01 17:-9.8917385356e-01 18:6.1704723520e-01 19:7.0790904224e-01 20:-7.3952456622e-01 
-4.5802979735e-02 4.5802981638e-02 1:7.2173936208e-01 2:4.4995894528e-01 3:2.6635572472e-01 4:6.4180487606e-01 5:-3.4307000015e-01 6:6.8745638518e-01 7:2.6481690985e-01 8:-4.8130802020e-01 9:7.9629277175e-01 10:-1.1995184299e-01 11:-8.2148693335e-01 12:-4.4637396481e-01 13:-6.5922649842e-01 14:-7.1957216953e-01 15:8.4632058598e-01 16:-3.5855367482e-01 17:-7.0672805602e-01 18:8.7348250766e-01 19:8.2672037517e-01 20:-5.9557022920e-01 
