svm_type c_svc
kernel_type rbf
gamma 0.05
nr_class 2
label 0 1
total_sv 50
nr_sv 25 25
rho 8.2892179489e-04 -8.2457065582e-04
SV
4.4035602361e-02 -4.3992031366e-02 1:-1.0000000000e+00 2:-8.5633057356e-01 3:5.4355210066e-01 4:-4.3774700165e-01 5:3.5609394312e-01 6:-5.9828889370e-01 7:-2.9377025366e-01 8:4.6992084384e-01 9:-9.5536321402e-01 10:6.9564598799e-01 11:7.4968838692e-01 12:-5.0514258444e-02 13:1.0000000000e+00 14:2.4967752397e-01 15:-3.1743189692e-01 16:4.5628580451e-01 17:7.0920199156e-01 18:-6.6288304329e-01 19:-7.8364127874e-01 20:6.2520188093e-01 
7.7875733376e-02 -7.7841185033e-02 1:-7.2510164976e-01 2:-6.7482072115e-01 3:9.7134751081e-01 4:-6.4371234179e-01 5:5.6461936235e-01 6:-4.1396221519e-01 7:3.1259173155e-01 8:6.2788504362e-01 9:-7.9102873802e-01 10:5.4990887642e-01 11:7.4098503590e-01 12:-1.8746088445e-01 13:7.9152411222e-01 14:4.1001433134e-01 15:-4.1316515207e-01 16:1.9810704887e-01 17:6.5666139126e-01 18:-7.6210832596e-01 19:-6.7628407478e-01 20:7.9629987478e-01 
4.6230990440e-02 -4.6243704855e-02 1:-8.3837616444e-01 2:-4.7902792692e-01 3:-5.5991154909e-01 4:-7.3311597109e-01 5:9.4888454676e-01 6:-3.0629804730e-01 7:1.1729700118e-01 8:4.0289759636e-01 9:-9.8874646425e-01 10:8.1611418724e-01 11:7.2410112619e-01 12:7.5616709888e-02 13:8.2366997004e-01 14:5.3196662664e-01 15:-6.4510178566e-01 16:5.8096796274e-01 17:7.2760981321e-01 18:-8.3556336164e-01 19:-8.3846879005e-01 20:6.6782450676e-01 
5.7529632002e-02 -5.7530246675e-02 1:-9.4671529531e-01 2:-4.3654724956e-01 3:8.2651776075e-01 4:-7.1424508095e-01 5:8.6186581850e-01 6:-5.7816141844e-01 7:-1.0000000000e+00 8:5.7445681095e-01 9:-9.6516400576e-01 10:5.7389205694e-01 11:7.7796679735e-01 12:-3.3515995741e-01 13:9.7623950243e-01 14:4.5770838857e-01 15:-3.4392374754e-01 16:2.8447535634e-01 17:8.9519280195e-01 18:-8.0959755182e-01 19:-7.9120600224e-01 20:6.1449933052e-01 
7.5930066407e-02 -7.5964115560e-02 1:-8.3366036415e-01 2:-6.8471634388e-01 3:-5.8740413189e-01 4:-9.0718358755e-01 5:3.3508804440e-01 6:-8.2293200493e-01 7:8.5895083845e-02 8:4.5618301630e-01 9:-8.1945508718e-01 10:7.9112297297e-01 11:8.6889678240e-01 12:-4.4555303454e-01 13:6.0918927193e-01 14:2.3377615213e-01 15:-3.8399520516e-01 16:7.6241898537e-01 17:7.5217568874e-01 18:-8.4283584356e-01 19:-6.7126005888e-01 20:8.7031173706e-01 
6.5915070474e-02 -6.5947860479e-02 1:-7.8650754690e-01 2:-8.5054880381e-01 3:4.7558951378e-01 4:-9.9919235706e-01 5:7.3012298346e-01 6:-2.7418318391e-01 7:2.7131199837e-01 8:3.8234585524e-01 9:-9.0783399343e-01 10:2.0223283768e-01 11:8.5891646147e-01 12:1.0000000000e+00 13:7.0076841116e-01 14:2.3747353256e-01 15:-1.0000000000e+00 16:3.5522335768e-01 17:7.7141356468e-01 18:-8.4128779173e-01 19:-6.8220245838e-01 20:9.7710198164e-01 
5.0625808537e-02 -5.0623398274e-02 1:-8.2969903946e-01 2:-5.9412455559e-01 3:-8.8451601565e-02 4:-7.0401507616e-01 5:8.4611397982e-01 6:-5.2295225859e-01 7:7.3630130291e-01 8:6.0774195194e-01 9:-8.5330975056e-01 10:1.0000000000e+00 11:8.6865139008e-01 12:-1.3096879423e-01 13:5.2422642708e-01 14:2.0586368442e-01 15:-4.6587729454e-01 16:7.2478073835e-01 17:8.3103251457e-01 18:-8.2524538040e-01 19:-7.4094009399e-01 20:8.0811285973e-01 
6.5967887640e-02 -6.5953016281e-02 1:-7.7460241318e-01 2:-8.1377971172e-01 3:-3.9548602700e-01 4:-1.0000000000e+00 5:4.1658139229e-01 6:-7.5365585089e-01 7:5.1244825125e-01 8:6.1195307970e-01 9:-7.5727480650e-01 10:5.3032916784e-01 11:9.2405670881e-01 12:2.7009081841e-01 13:6.5391409397e-01 14:4.8100560904e-01 15:-3.8198021054e-01 16:6.8639129400e-01 17:5.2111244202e-01 18:-9.0302532911e-01 19:-1.0000000000e+00 20:4.1219252348e-01 
9.9165260792e-02 -9.9145941436e-02 1:-6.7514210939e-01 2:-6.9516360760e-01 3:1.3658559322e-01 4:-6.5490299463e-01 5:9.1777503490e-01 6:-4.9764814973e-01 7:-9.0470141172e-01 8:6.7263394594e-01 9:-8.2816416025e-01 10:4.9666568637e-01 11:8.8562732935e-01 12:5.0550442189e-02 13:7.7474832535e-01 14:3.2347375154e-01 15:9.9592573941e-02 16:1.5940597653e-01 17:6.9111871719e-01 18:-5.6304699183e-01 19:-6.4125144482e-01 20:6.4780563116e-01 
6.5428726375e-02 -6.5420024097e-02 1:-8.6921638250e-01 2:-7.5717121363e-01 3:-4.1067153215e-01 4:-6.4176493883e-01 5:1.0000000000e+00 6:-4.8003304005e-01 7:-6.9328284264e-01 8:4.3776288629e-01 9:-9.8602384329e-01 10:4.9179530144e-01 11:8.4241759777e-01 12:4.0778455138e-01 13:9.1701030731e-01 14:-1.7235603929e-01 15:-4.0521383286e-01 16:9.0763974190e-01 17:8.4325611591e-01 18:-7.0441657305e-01 19:-7.2975760698e-01 20:7.2867077589e-01 
9.4274077564e-03 -9.4291176647e-03 1:-7.6286178827e-01 2:-7.3193341494e-01 3:4.0486422181e-01 4:-9.7506117821e-01 5:9.1942286491e-01 6:-5.1803886890e-01 7:3.9698153734e-01 8:6.9462722540e-01 9:-7.8981441259e-01 10:5.5641853809e-01 11:6.5381413698e-01 12:3.1067377329e-01 13:9.0557760000e-01 14:3.0443748832e-01 15:-7.0201939344e-01 16:2.3544195294e-01 17:8.1709605455e-01 18:-8.9043241739e-01 19:-8.0816417933e-01 20:7.9023659229e-01 
7.9202882946e-02 -7.9199798405e-02 1:-7.0358973742e-01 2:-1.0000000000e+00 3:5.6731593609e-01 4:-8.6118775606e-01 5:5.0903630257e-01 6:-4.6642127633e-01 7:7.7617484331e-01 8:6.8639880419e-01 9:-7.7635502815e-01 10:3.5936355591e-01 11:7.9773831367e-01 12:-3.8570696115e-01 13:8.3366626501e-01 14:4.5871746540e-01 15:-8.3067083359e-01 16:5.3286117315e-01 17:8.7377649546e-01 18:-9.0250706673e-01 19:-7.9391866922e-01 20:3.2602256536e-01 
5.3765784949e-02 -5.3777154535e-02 1:-9.0547108650e-01 2:-4.9006766081e-01 3:1.0000000000e+00 4:-2.0170851052e-01 5:7.2289848328e-01 6:-7.9197925329e-01 7:1.7992742360e-01 8:5.4142087698e-01 9:-9.9426376820e-01 10:4.9244338274e-01 11:1.0000000000e+00 12:3.6135932896e-03 13:8.9012676477e-01 14:2.5012299418e-01 15:-3.5387465358e-01 16:2.0400664210e-01 17:8.0255246162e-01 18:-8.6411798000e-01 19:-8.4181112051e-01 20:5.9875762463e-01 
7.0656491444e-03 -7.0667862892e-03 1:-7.2635912895e-01 2:-7.0390892029e-01 3:-8.1769777462e-03 4:-7.4354344606e-01 5:9.8737961054e-01 6:-5.9487152100e-01 7:6.5434356220e-03 8:7.1149855852e-01 9:-9.7527080774e-01 10:4.1158434749e-01 11:8.4593790770e-01 12:-3.0549883842e-01 13:5.4107284546e-01 14:1.3589000329e-02 15:-4.9901187420e-01 16:7.6244586706e-01 17:9.9129360914e-01 18:-1.0000000000e+00 19:-7.6155531406e-01 20:9.9584662914e-01 
5.0917189568e-02 -5.0893422216e-02 1:-6.5465760231e-01 2:-4.4088664651e-01 3:6.6138350964e-01 4:-5.0837880373e-01 5:7.5439256430e-01 6:-4.1055014729e-01 7:7.5525432825e-02 8:5.4275172949e-01 9:-8.1501561403e-01 10:6.1049860716e-01 11:8.4937328100e-01 12:4.0024423599e-01 13:7.0638251305e-01 14:2.3910689354e-01 15:-6.6530728340e-01 16:4.0645501018e-01 17:7.4901062250e-01 18:-6.9266426563e-01 19:-7.2189515829e-01 20:7.7972757816e-01 
7.8918687999e-02 -7.8918032348e-02 1:-9.0275239944e-01 2:-7.1409106255e-01 3:1.9317899644e-01 4:-6.2653052807e-01 5:7.1156197786e-01 6:-6.7891597748e-01 7:4.6862185001e-01 8:2.2408749163e-01 9:-8.9578962326e-01 10:1.3317804039e-01 11:8.0071401596e-01 12:-2.9711440206e-01 13:4.5882073045e-01 14:3.8608148694e-01 15:-6.1270266771e-01 16:1.0346799158e-02 17:6.8595522642e-01 18:-7.9930663109e-01 19:-9.9340194464e-01 20:7.7324223518e-01 
1.9516725093e-02 -1.9506651908e-02 1:-7.3878091574e-01 2:-7.5399589539e-01 3:1.2413740903e-01 4:-7.3445558548e-01 5:4.8659798503e-01 6:-4.6416127682e-01 7:2.5828200579e-01 8:3.9401745796e-01 9:-8.4259253740e-01 10:6.2858563662e-01 11:9.7357267141e-01 12:3.6945208907e-01 13:5.2251875401e-01 14:3.9696303010e-01 15:-4.0169078112e-01 16:4.4902637601e-01 17:9.6041697264e-01 18:-8.0232304335e-01 19:-8.9816194773e-01 20:8.5180085897e-01 
2.6752214879e-02 -2.6768464595e-02 1:-8.2555276155e-01 2:-8.8250958920e-01 3:-2.9250055552e-01 4:-4.3125751615e-01 5:7.7004235983e-01 6:-1.0000000000e+00 7:1.9487340748e-01 8:6.7976635695e-01 9:-9.5124036074e-01 10:5.1633429527e-01 11:8.9192122221e-01 12:-3.4037053119e-03 13:5.7806336880e-01 14:9.2813581228e-02 15:-8.1700098515e-01 16:7.7759712934e-01 17:6.8503308296e-01 18:-7.7562379837e-01 19:-8.1561607122e-01 20:8.3242630959e-01 
5.0065595657e-02 -5.0088897347e-02 1:-6.0711771250e-01 2:-6.1471968889e-01 3:8.7651878595e-01 4:-6.3252985477e-01 5:5.7837408781e-01 6:-4.1994699836e-01 7:-1.3419444859e-01 8:5.5701649189e-01 9:-9.4019246101e-01 10:3.9938873053e-01 11:9.1618210077e-01 12:1.7904044688e-01 13:4.9880054593e-01 14:3.9455842972e-01 15:-6.0646492243e-01 16:2.6450616121e-01 17:7.7568995953e-01 18:-6.1442059278e-01 19:-9.7731578350e-01 20:7.7555906773e-01 
7.8569874167e-02 -7.8577622771e-02 1:-5.3969514370e-01 2:-5.4389876127e-01 3:7.5458627939e-01 4:-6.0229963064e-01 5:8.5813158751e-01 6:-9.6946042776e-01 7:-7.2414690256e-01 8:4.0782588720e-01 9:-8.0582869053e-01 10:3.3434680104e-01 11:9.9348670244e-01 12:-3.2345405221e-01 13:2.2420392931e-01 14:1.4919094741e-01 15:-7.6230686903e-01 16:6.2148112059e-01 17:1.0000000000e+00 18:-6.4771419764e-01 19:-8.1894797087e-01 20:8.4131383896e-01 
4.1379213333e-02 -4.1376825422e-02 1:-6.7530411482e-01 2:-4.4390472770e-01 3:2.1941244602e-01 4:-7.8826206923e-01 5:5.3968501091e-01 6:-3.9904981852e-01 7:-3.7241581082e-01 8:4.8824384809e-01 9:-1.0000000000e+00 10:3.3343723416e-01 11:9.3474388123e-01 12:3.7892913818e-01 13:7.7484077215e-01 14:3.8759553432e-01 15:-5.8064621687e-01 16:9.4540521502e-02 17:8.1129097939e-01 18:-7.8347593546e-01 19:-8.7333905697e-01 20:6.5236496925e-01 
4.0564794093e-02 -4.0590975434e-02 1:-6.5437877178e-01 2:-9.4548147917e-01 3:-1.8186347559e-02 4:-9.1163879633e-01 5:6.4325124025e-01 6:-8.7302073836e-02 7:-5.1871341467e-01 8:8.3766150475e-01 9:-9.7227132320e-01 10:6.0427880287e-01 11:9.1765618324e-01 12:5.2086657286e-01 13:8.4722679853e-01 14:1.0296587646e-01 15:-8.3893334866e-01 16:6.9592100382e-01 17:7.1407246590e-01 18:-6.7189186811e-01 19:-8.3723235130e-01 20:7.3837208748e-01 
4.7805961221e-02 -4.7794081271e-02 1:-8.5538947582e-01 2:-6.5461653471e-01 3:3.1205606461e-01 4:-6.3514924049e-01 5:5.0280010700e-01 6:-6.0328531265e-01 7:6.6370844841e-01 8:1.0000000000e+00 9:-8.6632353067e-01 10:5.4599356651e-01 11:8.6837190390e-01 12:4.6823939681e-01 13:8.0055761337e-01 14:1.0000000000e+00 15:-9.7797757387e-01 16:1.0000000000e+00 17:7.9623806477e-01 18:-7.4333995581e-01 19:-7.3878890276e-01 20:7.6825708151e-01 
7.1719236672e-02 -7.1730032563e-02 1:-7.0028066635e-01 2:-4.8634466529e-01 3:5.4720562696e-01 4:-5.6990385056e-01 5:9.2336148024e-01 6:-2.2066166997e-01 7:-2.3074837029e-01 8:1.7722573876e-01 9:-6.1582475901e-01 10:6.1772948503e-01 11:9.6919351816e-01 12:2.8515902814e-03 13:7.4521124363e-01 14:6.8178683519e-01 15:-2.5549778342e-01 16:3.5327956080e-01 17:6.0843127966e-01 18:-7.0762294531e-01 19:-8.4258341789e-01 20:8.4129750729e-01 
7.1207225323e-02 -7.1204237640e-02 1:-9.8901206255e-01 2:-2.1213114262e-01 3:-2.1502351761e-01 4:-4.5094159245e-01 5:6.4940851927e-01 6:-6.1022883654e-01 7:-7.2641998529e-01 8:3.5634949803e-01 9:-8.2332986593e-01 10:6.6743254662e-01 11:7.8939956427e-01 12:-2.4839960039e-01 13:4.0904697776e-01 14:3.1509852409e-01 15:-5.9688413143e-01 16:6.5245223045e-01 17:8.0350458622e-01 18:-9.8726886511e-01 19:-8.3725529909e-01 20:1.0000000000e+00 
-5.0638999790e-02 5.0649780780e-02 1:6.4727097750e-01 2:3.9377269149e-01 3:-8.1754654646e-02 4:6.5597546101e-01 5:-6.7684143782e-01 6:7.2870081663e-01 7:-1.5234751999e-01 8:-5.3160929680e-01 9:7.9639571905e-01 10:-5.8604758978e-01 11:-8.6268538237e-01 12:-6.3815909624e-01 13:-6.6855329275e-01 14:-2.1780867875e-01 15:-8.5100710392e-02 16:-5.2362793684e-01 17:-5.8807533979e-01 18:8.7048900127e-01 19:7.0681929588e-01 20:-6.6073638201e-01 
-4.0668182075e-02 4.0675688535e-02 1:6.4756667614e-01 2:2.6906782389e-01 3:3.3152744174e-01 4:7.5770419836e-01 5:-6.5745162964e-01 6:1.0000000000e+00 7:-5.5994421244e-01 8:-6.2769949436e-01 9:7.8950035572e-01 10:-2.7288275957e-01 11:-9.5498216152e-01 12:-3.4461376071e-01 13:-8.8323575258e-01 14:-8.1794220209e-01 15:5.1527082920e-01 16:-1.4728070796e-01 17:-6.7468470335e-01 18:9.1890680790e-01 19:6.5427303314e-01 20:-7.6561516523e-01 
-1.6573529691e-02 1.6568308696e-02 1:7.6199638844e-01 2:4.4033226371e-01 3:-3.8797554374e-01 4:1.0000000000e+00 5:-6.5350240469e-01 6:6.0927301645e-01 7:6.4252138138e-01 8:-8.3474218845e-01 9:7.2312992811e-01 10:-4.3180030584e-01 11:-8.6735486984e-01 12:-6.4494311810e-01 13:-5.2571958303e-01 14:-6.4880615473e-01 15:7.4710446596e-01 16:-7.3834562302e-01 17:-6.1737817526e-01 18:9.2320686579e-01 19:9.5605909824e-01 20:-6.3611018658e-01 
-6.7446082830e-02 6.7445114255e-02 1:6.1487221718e-01 2:5.2367955446e-01 3:-2.5815761089e-01 4:6.7108684778e-01 5:-7.9341167212e-01 6:6.2445068359e-01 7:-1.5116605163e-01 8:-6.4868265390e-01 9:7.6546192169e-01 10:-4.0110507607e-01 11:-9.6481823921e-01 12:1.8626746535e-01 13:-4.9698251486e-01 14:-7.5819468498e-01 15:4.1755145788e-01 16:1.4966244996e-01 17:-5.8399748802e-01 18:9.1569566727e-01 19:6.1243742704e-01 20:-6.6691237688e-01 
-3.8873996586e-02 3.8870856166e-02 1:7.9359823465e-01 2:7.7092565596e-02 3:-5.3774780035e-01 4:7.0358383656e-01 5:-4.9488222599e-01 6:7.5542402267e-01 7:9.2149516568e-03 8:-1.0000000000e+00 9:7.3772644997e-01 10:-4.0861323476e-01 11:-8.9470094442e-01 12:-4.8214656115e-01 13:-8.5473161936e-01 14:-4.6283230186e-01 15:1.4642696828e-02 16:-6.2706387043e-01 17:-5.8594650030e-01 18:7.3176735640e-01 19:9.5675569773e-01 20:-1.0000000000e+00 
-8.5322679952e-03 8.5228830576e-03 1:6.8108290434e-01 2:1.0000000000e+00 3:-3.9934316278e-01 4:7.4683964252e-01 5:-7.4825090170e-01 6:8.5491776466e-01 7:1.8588259816e-02 8:-4.8980841041e-01 9:7.3711401224e-01 10:-7.4389117956e-01 11:-7.0532768965e-01 12:-6.9906383753e-01 13:-5.8718299866e-01 14:-6.7203438282e-01 15:6.3891065121e-01 16:-4.7569146752e-01 17:-5.9299552441e-01 18:7.9888749123e-01 19:9.4494795799e-01 20:-7.3378461599e-01 
-7.5440451503e-02 7.5440570712e-02 1:5.9221476316e-01 2:6.4707881212e-01 3:4.3739220500e-01 4:3.5561352968e-01 5:-8.9519548416e-01 6:8.0786752701e-01 7:4.7227013111e-01 8:-6.5111982822e-01 9:7.5821977854e-01 10:-2.3580496013e-01 11:-7.5110590458e-01 12:-1.1414659768e-01 13:-4.9867683649e-01 14:-3.5134851933e-01 15:1.0000000000e+00 16:-2.3142808676e-01 17:-9.8917382956e-01 18:6.1704725027e-01 19:7.0790904760e-01 20:-7.3952454329e-01 
-1.1408605427e-01 1.1411470175e-01 1:7.9731130600e-01 2:1.5255598724e-01 3:-7.7978497744e-01 4:6.2183231115e-01 5:-6.5543806553e-01 6:9.3217664957e-01 7:-3.9397776127e-01 8:-8.1425768137e-01 9:8.0007505417e-01 10:-2.4706073105e-01 11:-8.3988910913e-01 12:-7.6611083746e-01 13:-1.6923974454e-01 14:-9.8842561245e-02 15:-1.2548649311e-01 16:-4.5458510518e-01 17:-7.6441842318e-01 18:7.1581131220e-01 19:8.4066349268e-01 20:-6.6765898466e-01 
-9.2477552593e-02 9.2456154525e-02 1:6.0625183582e-01 2:5.1572829485e-01 3:6.2978729606e-02 4:3.9417406917e-01 5:-4.0821516514e-01 6:8.0712544918e-01 7:6.8121969700e-01 8:-9.0670895576e-01 9:6.5611249208e-01 10:-2.7815121412e-01 11:-6.9713956118e-01 12:1.4992322028e-01 13:-8.1157582998e-01 14:-8.8694691658e-01 15:4.5975613594e-01 16:-2.4100571871e-02 17:-8.3025676012e-01 18:8.1666207314e-01 19:6.1010247469e-01 20:-4.4709202647e-01 
-1.1282803863e-01 1.1285163462e-01 1:7.4066275358e-01 2:4.1717046499e-01 3:6.5091675520e-01 4:1.6019837558e-01 5:-3.6118221283e-01 6:7.6557010412e-01 7:6.3930070400e-01 8:-4.1910868883e-01 9:6.9312417507e-01 10:-6.5199398994e-01 11:-6.6400235891e-01 12:-7.8028231859e-01 13:-6.9178092480e-01 14:-5.4612314701e-01 15:-1.2971533835e-01 16:-5.3380227089e-01 17:-6.2713748217e-01 18:9.2511653900e-01 19:6.6209590435e-01 20:-8.0916917324e-01 
-3.3333431929e-02 3.3302884549e-02 1:6.5068048239e-01 2:3.6993747950e-01 3:-5.8380717039e-01 4:7.4386751652e-01 5:-7.1482372284e-01 6:8.9680761099e-01 7:4.6373564005e-01 8:-5.7312250137e-01 9:8.2862424850e-01 10:-4.9035587907e-01 11:-8.4885871410e-01 12:-6.9061392546e-01 13:-8.1732308865e-01 14:-5.1123154163e-01 15:8.9723467827e-01 16:-1.0000000000e+00 17:-6.3666272163e-01 18:8.0046850443e-01 19:1.0000000000e+00 20:-6.2779909372e-01 
-1.7255885527e-02 1.7257386819e-02 1:6.4997375011e-01 2:7.7934348583e-01 3:-2.7211460471e-01 4:2.8691396117e-01 5:-8.3081781864e-01 6:7.6263648272e-01 7:6.9431677461e-02 8:-8.4994250536e-01 9:7.6861268282e-01 10:-2.9767990112e-01 11:-8.6573630571e-01 12:-6.4001017809e-01 13:-9.2053174973e-01 14:-6.3871836662e-01 15:2.3430149257e-01 16:-9.0042844415e-02 17:-7.0656347275e-01 18:7.1647447348e-01 19:8.0197840929e-01 20:-8.5396569967e-01 
-7.7801436186e-02 7.7784240246e-02 1:8.1480336189e-01 2:6.9889867306e-01 3:8.4802615643e-01 4:8.6593824625e-01 5:-7.9795366526e-01 6:9.8152256012e-01 7:-2.2845375538e-01 8:-3.7826493382e-01 9:7.7807044983e-01 10:-3.6131590605e-01 11:-8.3557999134e-01 12:-8.0390596390e-01 13:-2.1663562953e-01 14:-7.1115577221e-01 15:1.9051088393e-01 16:-1.6766692698e-01 17:-6.7165225744e-01 18:6.5999144316e-01 19:8.1283873320e-01 20:-5.3250616789e-01 
-4.5798275620e-02 4.5811105520e-02 1:7.2173935175e-01 2:4.4995895028e-01 3:2.6635572314e-01 4:6.4180487394e-01 5:-3.4307000041e-01 6:6.8745636940e-01 7:2.6481691003e-01 8:-4.8130801320e-01 9:7.9629278183e-01 10:-1.1995184422e-01 11:-8.2148694992e-01 12:-4.4637396932e-01 13:-6.5922647715e-01 14:-7.1957218647e-01 15:8.4632056952e-01 16:-3.5855367780e-01 17:-7.0672804117e-01 18:8.7348252535e-01 19:8.2672035694e-01 20:-5.9557020664e-01 
-8.2468807697e-02 8.2442894578e-02 1:7.6857995987e-01 2:7.9936295748e-01 3:-1.9263251126e-01 4:6.6163444519e-01 5:-6.9778865576e-01 6:7.0761722326e-01 7:-7.1388077736e-01 8:-5.1764202118e-01 9:8.9294272661e-01 10:-3.1519705057e-01 11:-8.0832111835e-01 12:-9.6168570220e-02 13:-6.8025916815e-01 14:-8.6258602142e-01 15:-2.7007806301e-01 16:-5.1159131527e-01 17:-5.1465421915e-01 18:8.2924449444e-01 19:6.2766885757e-01 20:-6.5453994274e-01 
-8.2515478134e-02 8.2519814372e-02 1:7.3643535376e-01 2:3.3591523767e-01 3:-1.0000000000e+00 4:6.7169374228e-01 5:-5.8179056644e-01 6:9.4834405184e-01 7:1.0000000000e+00 8:-6.1674696207e-01 9:8.8791632652e-01 10:-2.4897330999e-01 11:-5.9834498167e-01 12:-6.4803308249e-01 13:-4.1058057547e-01 14:-5.5796623230e-01 15:5.7867038250e-01 16:-3.6178192496e-01 17:-6.5390765667e-01 18:9.5366632938e-01 19:7.8424519300e-01 20:-8.0021476746e-01 
-4.1571233422e-02 4.1566431522e-02 1:5.4229885340e-01 2:6.4829015732e-01 3:2.9546329379e-01 4:8.7138754129e-01 5:-6.4958399534e-01 6:7.0157057047e-01 7:6.6805118322e-01 8:-3.8369005919e-01 9:8.6201506853e-01 10:1.0651103221e-02 11:-1.0000000000e+00 12:-4.4099211693e-02 13:-5.8722227812e-01 14:-1.0000000000e+00 15:9.0759050846e-01 16:-6.1461651325e-01 17:-1.0000000000e+00 18:1.0000000000e+00 19:7.1089726686e-01 20:-8.4607684612e-01 
-1.7866194248e-02 1.7885329202e-02 1:7.3751538992e-01 2:5.0753009319e-01 3:3.1005939841e-01 4:2.8782832623e-01 5:-1.0000000000e+00 6:8.6346107721e-01 7:4.9470025301e-01 8:-9.1826349497e-01 9:8.4463495016e-01 10:-3.8423997164e-01 11:-8.1483548880e-01 12:-7.8013122082e-02 13:-9.6974420547e-01 14:-8.0175650120e-01 15:3.3732402325e-01 16:-1.5286475420e-01 17:-7.3465347290e-01 18:8.0296456814e-01 19:7.7471017838e-01 20:-7.5188052654e-01 
-2.0665450022e-02 2.0659279078e-02 1:6.8888527155e-01 2:7.8691154718e-01 3:-1.8707108498e-01 4:9.3767440319e-01 5:-7.5007772446e-01 6:8.6975055933e-01 7:4.1612908244e-03 8:-5.8646297455e-01 9:7.4917370081e-01 10:-2.2309537232e-01 11:-7.0015060902e-01 12:-8.5524672270e-01 13:-9.7327125072e-01 14:-5.4025751352e-01 15:1.9003583491e-01 16:-2.2964999080e-01 17:-5.0120252371e-01 18:8.1762307882e-01 19:8.4503704309e-01 20:-6.2931162119e-01 
-5.8693166822e-02 5.8707904071e-02 1:1.0000000000e+00 2:6.5940761566e-01 3:7.8625285625e-01 4:7.0137298107e-01 5:-6.2548619509e-01 6:9.6939069033e-01 7:-6.0906964540e-01 8:-7.8283321857e-01 9:8.0040234327e-01 10:-5.1176947355e-01 11:-9.6143054962e-01 12:-2.6323592663e-01 13:-4.0914940834e-01 14:-6.3215708733e-01 15:3.0535992980e-01 16:-3.5482650995e-01 17:-7.5920909643e-01 18:6.6952514648e-01 19:8.0291670561e-01 20:-6.0919713974e-01 
-7.6834984124e-02 7.6828084886e-02 1:7.4833571911e-01 2:6.8562084436e-01 3:-8.2274787128e-02 4:6.0484206676e-01 5:-7.1573877335e-01 6:7.5591647625e-01 7:4.8897877336e-01 8:-3.7051731348e-01 9:8.0688625574e-01 10:-2.0664119720e-01 11:-6.9451630116e-01 12:-1.0000000000e+00 13:-7.0221954584e-01 14:-5.6009036303e-01 15:-2.7724906802e-01 16:-1.8708437681e-02 17:-4.1768828034e-01 18:8.1999117136e-01 19:8.1518507004e-01 20:-7.1783900261e-01 
-2.6929868385e-02 2.6938237250e-02 1:7.9697859287e-01 2:5.5866605043e-01 3:-8.7788373232e-02 4:4.4906088710e-01 5:-9.2526966333e-01 6:7.2198718786e-01 7:-3.8162779808e-01 8:-7.0881491899e-01 9:8.1935214996e-01 10:-1.0000000000e+00 11:-8.6311614513e-01 12:-7.6123535633e-02 13:-8.9612060785e-01 14:-4.7866186500e-01 15:4.4056203961e-01 16:-6.2213414907e-01 17:-5.7224631310e-01 18:8.9773440361e-01 19:8.2119119167e-01 20:-7.6378852129e-01 
-5.2881553769e-02 5.2882518619e-02 1:6.9090819359e-01 2:6.8603324890e-01 3:-2.4269482493e-01 4:9.2789512873e-01 5:-8.5284096003e-01 6:4.8266604543e-01 7:2.4216119200e-02 8:-9.7267127037e-01 9:8.9602178335e-01 10:-5.8227020502e-01 11:-7.6616150141e-01 12:-8.2219415903e-01 13:3.3031754196e-02 14:-6.1460620165e-01 15:4.0608710051e-01 16:-8.1751056015e-02 17:-6.7721754313e-01 18:6.8780928850e-01 19:7.3869532347e-01 20:-6.7615520954e-01 
-1.1442004703e-02 1.1455232278e-02 1:8.2870143652e-01 2:1.2287142128e-01 3:1.8473865092e-01 4:7.7374458313e-01 5:-6.5459156036e-01 6:8.4514635801e-01 7:7.3893684149e-01 8:-6.1185497046e-01 9:1.0000000000e+00 10:-4.3637698889e-01 11:-9.0405154228e-01 12:-3.9145037532e-01 13:-1.0000000000e+00 14:-8.3204585314e-01 15:6.8967068195e-01 16:-3.9580130577e-01 17:-6.2573719025e-01 18:7.7611523867e-01 19:9.0576380491e-01 20:-7.2063213587e-01 
-1.1196028441e-01 1.1194658279e-01 1:8.4399276972e-01 2:4.0191945434e-01 3:2.1697115898e-01 4:6.9981986284e-01 5:-8.2623314857e-01 6:7.0442759991e-01 7:6.1289185286e-01 8:-2.6427820325e-01 9:7.2216451168e-01 10:-4.5462092757e-01 11:-5.8720463514e-01 12:-5.1875866950e-02 13:-8.0608353019e-02 14:-9.8714286089e-01 15:-1.9726777077e-01 16:-1.6560839117e-01 17:-5.6717312336e-01 18:8.8876068592e-01 19:6.1002755165e-01 20:-6.6809511185e-01 
