svm_type c_svc
kernel_type rbf
gamma 0.0050251256281407036
nr_class 2
total_sv 214
rho 0.000868060939319636
label 1 -1
nr_sv 110 104
SV
0.066847789428567783 0:7.0434358 1:-5.1954731 2:-3.788248 3:-1.7098536 4:4.54531 5:9.6287297 6:-9.3641193 7:-5.4266496 8:6.1674476 9:5.9080861 10:-6.3142434 11:3.5989639 12:-7.3056442 13:-10.000081 14:-4.9324957 15:4.2359111 16:6.5127447 17:2.6057201 18:-7.583242 19:-1.5905111 20:-2.2582085 21:2.642049 22:-9.040855 23:9.7436919 24:-1.4408061 25:3.8506982 26:-1.4207411 27:-2.203153 28:4.273776 29:6.7038109 30:5.8848194 31:4.1127225 32:5.8749026 33:7.0965757 34:7.0033467 35:3.4447487 36:6.5207492 37:6.5988939 38:-9.6646324 39:-3.2891552 40:-1.4666994 41:-0.70717586 42:0.45830076 43:-11.68771 44:1.2585707 45:7.0309483 46:-11.324085 47:-5.4700993 48:-6.7837887 49:6.6820454 50:1.2362366 51:-1.932952 52:5.5695769 53:-8.7002768 54:-1.0454872 55:-3.7262399 56:10.376861 57:-10.234505 58:-1.3582745 59:-6.9214148 60:4.7681547 61:-4.9580831 62:9.6028928 63:0.78970236 64:1.7651935 65:-2.1408213 66:-4.4177507 67:9.2288716 68:10.835435 69:-3.685866 70:0.7148067 71:4.0718832 72:-0.45517346 73:5.1988214 74:-5.2713798 75:2.342326 76:0.89312375 77:-9.792083 78:1.5019466 79:6.6781025 80:-4.6210608 81:-2.518792 82:4.0915139 83:5.0743614 84:7.4639078 85:7.2141788 86:-3.4036357 87:-6.8595215 88:-0.5494613 89:-7.1266149 90:-2.7039814 91:-7.6402528 92:7.7658331 93:-7.6421276 94:-8.6808945 95:-7.7800543 96:9.7589631 97:-8.9031212 98:-6.1842895 99:-1.5680615 100:3.1135923 101:-5.7190698 102:8.1817872 103:-5.7270467 104:-5.8701079 105:-7.2358803 106:3.0417896 107:-4.1952476 108:-9.4677582 109:3.4171979 110:9.4113282 111:6.4081517 112:9.0331789 113:-7.7835349 114:8.1971899 115:-8.282486 116:-5.1906692 117:3.7655028 118:1.661864 119:3.352418 120:8.0463214 121:4.3014254 122:-8.2774351 123:-3.4251652 124:2.992569 125:6.2390254 126:-7.1809177 127:0.54079583 128:5.6083964 129:5.4577083 130:-2.4560339 131:-0.804155 132:9.9292461 133:1.4437819 134:-1.6505342 135:6.353853 136:-3.7805676 137:7.5694604 138:-10.99319 139:0.87934679 140:-10.896905 141:-7.9503579 142:6.4384129 143:2.8678059 144:2.6322633 145:-4.3847818 146:-2.680291 147:-7.8429375 148:-1.5700934 149:-0.81947742 150:-4.6284152 151:4.3832502 152:4.2237199 153:-4.2170536 154:-7.7199078 155:-8.5105921 156:6.5898006 157:-2.8826765 158:-2.4660415 159:0.26699778 160:5.1855769 161:8.2353625 162:-8.9155186 163:0.75593124 164:8.3424873 165:1.1804049 166:-4.1565848 167:-6.3541018 168:1.8269288 169:-2.4790705 170:-8.6108 171:-7.8164875 172:-5.0138051 173:8.6260108 174:-1.9141562 175:-4.9698351 176:8.4596576 177:-4.0355963 178:-2.9812028 179:-5.3873402 180:3.5653064 181:6.0479874 182:6.7425165 183:-0.042166966 184:1.1974447 185:-4.2721437 186:-4.7278277 187:-1.4871577 188:9.8275302 189:6.912358 190:-9.7453865 191:-2.1259144 192:5.687809 193:-8.392163 194:2.8151243 195:-7.6999411 196:-9.2792312 197:-6.337644 198:-4.1753467 199:-6.0454227 
0.0088545297191882019 0:7.6385483 1:-5.1060962 2:-5.0462546 3:-3.6263115 4:4.4875598 5:11.179121 6:-10.837607 7:-5.3820648 8:6.1768313 9:4.9800532 10:-6.3638041 11:2.9289734 12:-6.3401003 13:-11.513963 14:-6.204416 15:6.0564323 16:5.6518486 17:1.5663655 18:-6.4289078 19:-1.5046469 20:-3.1550114 21:2.294716 22:-6.290314 23:8.8450594 24:0.1865142 25:6.0283427 26:-0.71295597 27:-2.2608213 28:4.9936952 29:7.0920741 30:6.3341855 31:4.5725479 32:5.6165551 33:6.1277119 34:6.2468837 35:3.8339038 36:4.4139298 37:5.2222013 38:-7.5860035 39:-4.366992 40:-0.24476967 41:1.1831362 42:-1.1118368 43:-7.5773885 44:4.2196167 45:7.1635453 46:-9.5573211 47:-3.6650644 48:-7.2598035 49:7.3917747 50:2.2529803 51:-3.1801495 52:6.9519818 53:-10.539668 54:-3.5164222 55:-4.2564607 56:8.1688578 57:-10.09911 58:-2.6761901 59:-8.0834351 60:6.8051803 61:-7.5888578 62:10.175163 63:-0.14963601 64:1.478736 65:-3.2059176 66:-5.4906444 67:9.6970386 68:10.655093 69:-6.3372711 70:0.78655289 71:3.1571248 72:-2.4476991 73:5.2414439 74:-4.5499504 75:4.2091565 76:1.3266368 77:-8.6759703 78:1.7787073 79:4.4712816 80:-5.0058123 81:-5.0120777 82:3.4859849 83:6.4747651 84:6.9167739 85:5.5682658 86:-3.2145133 87:-7.3386524 88:-1.2446406 89:-6.1695829 90:-3.3045672 91:-7.4850153 92:6.2000843 93:-7.5319872 94:-4.676785 95:-7.7259786 96:10.264505 97:-7.9739161 98:-8.1044684 99:-1.9135485 100:4.9049974 101:-5.7196455 102:7.3945135 103:-5.5095181 104:-5.1071961 105:-7.6682354 106:1.3291393 107:-3.123557 108:-8.0796347 109:6.6709131 110:8.9309699 111:6.8541433 112:9.619922 113:-5.4677195 114:8.7060548 115:-7.0281116 116:-4.1382818 117:4.4174368 118:0.68817088 119:1.3108704 120:7.9839111 121:2.5601013 122:-8.6323014 123:-3.0907264 124:4.0311114 125:6.7330108 126:-9.4660084 127:-1.5030348 128:6.3515896 129:4.7894671 130:-4.4798101 131:-2.8411757 132:8.7199758 133:0.6757318 134:-4.7840252 135:5.2676832 136:-1.5898817 137:7.141054 138:-8.4121713 139:1.0743708 140:-11.142333 141:-5.620796 142:6.9279314 143:3.4721693 144:0.33944804 145:-6.6483011 146:-1.2767486 147:-9.7133854 148:-2.2390507 149:-1.9641603 150:-3.2482606 151:6.1569642 152:4.9323814 153:-4.9868199 154:-8.5318683 155:-5.5255707 156:8.060718 157:-2.254195 158:-2.5647757 159:2.8983371 160:4.6793165 161:7.5639015 162:-8.1532758 163:3.7883119 164:7.6715167 165:3.1789949 166:-4.7653112 167:-6.1123914 168:2.2176596 169:-1.9950619 170:-12.068217 171:-9.8344703 172:-5.1234403 173:7.866729 174:-3.7601552 175:-6.0573213 176:8.4863081 177:-2.7700963 178:-2.646345 179:-4.4603792 180:2.6918468 181:8.7584 182:5.5309803 183:-0.4435404 184:1.4499445 185:-5.75657 186:-4.3785225 187:-2.4815037 188:9.0105064 189:5.3615691 190:-8.9232239 191:-2.0450798 192:5.5282393 193:-6.6547232 194:0.070687163 195:-6.1336384 196:-12.098943 197:-7.8753082 198:-5.2979354 199:-5.2882696 
0.092339866527792053 0:7.3162874 1:-2.4019854 2:-5.2611115 3:-4.1886222 4:4.1881977 5:9.4645314 6:-9.7371022 7:-5.8122966 8:7.3726536 9:5.6779137 10:-7.8647095 11:1.8500971 12:-7.8422881 13:-10.114408 14:-4.678664 15:5.3956069 16:6.1218847 17:3.1214765 18:-6.7140329 19:-2.1091142 20:-2.2015663 21:0.51538054 22:-6.6022495 23:8.7419301 24:-1.4652235 25:5.8702719 26:-0.33622701 27:-2.8465368 28:4.8490204 29:4.5930888 30:7.4885479 31:5.2516861 32:7.4074256 33:6.3395397 34:6.5983397 35:4.5916347 36:7.9695114 37:5.8952661 38:-9.562593 39:-6.3615418 40:-1.2868383 41:-0.064366994 42:-2.3513559 43:-9.3647243 44:2.2358967 45:8.4521197 46:-8.0596421 47:-2.6792124 48:-7.9966377 49:7.0661692 50:3.5705255 51:-1.6054354 52:7.8968769 53:-7.8892269 54:-2.6963326 55:-3.3884227 56:9.0617519 57:-8.897315 58:-2.8071685 59:-6.5490719 60:7.7907579 61:-7.8899656 62:8.7192241 63:0.76903752 64:0.33183458 65:-2.1122333 66:-6.3331606 67:7.6976883 68:8.2329774 69:-3.9765857 70:1.3740784 71:0.80960653 72:-2.3840794 73:5.6461815 74:-3.428577 75:1.185651 76:1.024126 77:-6.5301122 78:0.75715735 79:7.5528623 80:-4.5324153 81:-4.9202772 82:1.6191402 83:6.1637748 84:7.9644861 85:9.2432623 86:-2.6998091 87:-7.8041014 88:-0.61566811 89:-5.6642053 90:-4.2580478 91:-5.5010979 92:8.769338 93:-6.8240768 94:-5.3587592 95:-7.4552491 96:9.1123869 97:-6.7245063 98:-6.6915606 99:-1.3372627 100:4.046137 101:-3.2194588 102:5.647282 103:-5.9373769 104:-5.1014985 105:-7.2030111 106:2.1824531 107:-1.9894968 108:-8.9556403 109:5.736237 110:8.8672449 111:5.2718958 112:6.8251987 113:-5.7659725 114:9.4387029 115:-7.879267 116:-3.5893929 117:5.1871594 118:2.4253486 119:4.101227 120:6.4156794 121:5.6511524 122:-7.9547829 123:-3.8535872 124:3.4860112 125:7.1407512 126:-8.2484104 127:-1.6402922 128:6.2603725 129:3.9163361 130:-3.8040184 131:-2.2760982 132:9.413285 133:1.2154141 134:-6.1819479 135:6.1341574 136:-1.1949524 137:7.0019241 138:-8.0157488 139:1.778797 140:-9.2975522 141:-7.0438481 142:6.1690371 143:1.9759212 144:0.38649847 145:-6.0924984 146:-2.8443156 147:-6.4597465 148:-2.314176 149:-1.0538674 150:-3.5955498 151:4.7088513 152:1.3067303 153:-4.2617415 154:-8.9311262 155:-5.1076575 156:7.9439915 157:-2.9411474 158:-1.2921997 159:0.90493251 160:3.8580225 161:7.1825893 162:-8.5492055 163:4.1253993 164:7.0629298 165:1.7449652 166:-4.6585988 167:-8.0437262 168:1.9965668 169:-3.4574101 170:-8.7189896 171:-8.3760707 172:-5.6279449 173:8.1816137 174:-3.3253004 175:-8.419814 176:6.7165962 177:-1.8934332 178:-4.6296047 179:-4.4442412 180:2.2123515 181:6.3618129 182:4.9575615 183:0.52159853 184:2.4990095 185:-2.3942811 186:-1.9853253 187:-0.77380125 188:7.9046993 189:6.2038831 190:-8.552872 191:-2.0343308 192:7.1302761 193:-8.7140998 194:1.4466104 195:-9.8700865 196:-9.1493432 197:-6.7139031 198:-3.8528658 199:-8.2548451 
0.025158710049174523 0:7.5887856 1:-3.6724873 2:-4.5696039 3:-2.7068709 4:3.5932732 5:11.947832 6:-8.8214102 7:-5.3415921 8:7.3115378 9:5.2153182 10:-6.8924536 11:3.3796658 12:-6.9401787 13:-8.1270501 14:-5.1373947 15:3.8422234 16:6.0329542 17:3.5005454 18:-7.5123841 19:-0.47950811 20:-1.9764101 21:3.7218929 22:-8.1316026 23:9.3351248 24:-0.179508 25:2.6518321 26:0.29796955 27:-1.3588518 28:3.5063492 29:6.1401847 30:5.8667886 31:2.8729459 32:4.407074 33:6.3982168 34:8.873428 35:4.4223046 36:5.8320124 37:6.2143319 38:-7.679135 39:-4.1003277 40:0.18340066 41:0.11724842 42:0.78388955 43:-7.4854761 44:1.3307977 45:5.8748663 46:-10.133197 47:-4.4263283 48:-9.2539639 49:7.3619576 50:3.0854731 51:-2.0524014 52:5.2334801 53:-8.1820302 54:-1.8681443 55:-6.7445536 56:9.3434425 57:-6.9921759 58:-2.0507238 59:-4.5022372 60:8.8804475 61:-6.8157372 62:8.56693 63:0.86242323 64:1.4629458 65:0.91440239 66:-4.2582958 67:7.3314909 68:10.831604 69:-4.2693237 70:-0.41290846 71:1.7758407 72:-0.90008165 73:5.948471 74:-3.1651261 75:1.356623 76:3.9080991 77:-8.9396357 78:0.36825308 79:6.5735176 80:-6.4035956 81:-3.6868308 82:3.4253846 83:6.0053456 84:8.7419855 85:6.2248213 86:-2.9771519 87:-7.431075 88:-0.84814641 89:-5.8166999 90:-5.4187565 91:-6.5615745 92:8.0227441 93:-6.6903867 94:-5.7847157 95:-8.8781842 96:9.9038464 97:-5.8192261 98:-7.0745725 99:-1.8377322 100:4.434508 101:-3.8352874 102:7.3052524 103:-8.2300322 104:-6.0255827 105:-7.8344571 106:-0.60593812 107:-5.0770455 108:-10.361107 109:5.3938758 110:8.6173843 111:6.938249 112:8.7522767 113:-5.4579042 114:7.6563952 115:-7.8739506 116:-4.9848668 117:5.225263 118:0.9200837 119:2.6819184 120:9.0490603 121:2.3915929 122:-5.8061036 123:-2.8310007 124:3.4862765 125:7.7863563 126:-7.2020698 127:-0.75409887 128:6.8508122 129:5.4555771 130:-0.21664176 131:-1.7228967 132:7.9680154 133:0.53831014 134:-3.9524694 135:6.5847953 136:-2.5376594 137:7.1039013 138:-9.0413897 139:0.43589233 140:-9.9490548 141:-6.8110173 142:7.4112865 143:4.0479677 144:-0.24095777 145:-5.6537665 146:-1.9666809 147:-8.5046647 148:-2.2865371 149:-1.6480638 150:-4.4900397 151:5.1533354 152:2.5281602 153:-2.9030524 154:-8.8137892 155:-7.3414713 156:6.8589628 157:-1.4996631 158:-1.0893501 159:2.2167491 160:4.8776884 161:7.790667 162:-9.8622629 163:1.1889987 164:9.8185641 165:1.0389941 166:-3.1683892 167:-5.4120845 168:4.3046424 169:-1.1581283 170:-10.495029 171:-8.0301945 172:-5.5573657 173:6.2370984 174:-4.2699501 175:-6.787529 176:4.8500248 177:-4.7053033 178:-4.7290569 179:-3.7005691 180:1.9374555 181:7.5590277 182:5.8080808 183:2.1264476 184:1.55358 185:-4.7750943 186:-4.4322706 187:-1.394725 188:6.8139707 189:6.21711 190:-9.8219153 191:-0.98367954 192:4.9949367 193:-7.8170733 194:0.12094655 195:-7.2212912 196:-9.8694182 197:-7.4048809 198:-3.4222721 199:-7.5091097 
0.13610375915202808 0:7.3694185 1:-4.1805541 2:-5.8576078 3:-2.6553889 4:2.1372537 5:9.6665926 6:-7.5470626 7:-5.1919563 8:7.6285173 9:5.4893433 10:-7.334116 11:4.9825219 12:-6.719249 13:-8.3685987 14:-5.4532196 15:3.2789928 16:5.0554945 17:3.3858922 18:-7.1564367 19:-3.0991704 20:-2.1953585 21:1.6580498 22:-7.4800985 23:6.820432 24:-0.049673036 25:2.102889 26:-1.197777 27:-1.5087742 28:3.7087218 29:6.6211364 30:6.3545504 31:4.2248164 32:6.6408463 33:6.3025568 34:5.8911222 35:4.315338 36:5.7826191 37:4.5477874 38:-6.4686121 39:-4.2247676 40:-1.1031928 41:-1.9396026 42:-1.7366621 43:-10.090302 44:3.3729925 45:4.7761556 46:-8.0698432 47:-6.0939408 48:-7.8110329 49:7.1071901 50:4.7373128 51:-0.029430845 52:7.207116 53:-8.4844787 54:-2.7496567 55:-2.0354985 56:8.8352975 57:-9.1080754 58:-0.84179762 59:-6.8524815 60:8.2683978 61:-5.0960202 62:8.8191152 63:0.30360469 64:-0.5033823 65:-2.2579463 66:-3.9676502 67:9.5627676 68:8.8206291 69:-5.1238999 70:-0.17127432 71:3.7307329 72:-1.5804851 73:3.9052485 74:-3.493879 75:1.8910635 76:2.2269123 77:-9.0428595 78:2.7691195 79:5.9393034 80:-4.8550888 81:-3.8547753 82:3.1686387 83:4.6032694 84:5.5731958 85:5.0875705 86:-5.3586552 87:-8.0633845 88:-0.66424404 89:-7.3585327 90:-4.8945061 91:-7.4922364 92:9.6927226 93:-9.6851641 94:-6.0969907 95:-7.9940289 96:9.0560875 97:-8.7009943 98:-7.4570737 99:-2.1771635 100:5.2129885 101:-4.4456326 102:6.9380628 103:-5.8728328 104:-5.7290145 105:-6.0090614 106:2.6963187 107:-1.9616023 108:-10.053112 109:5.4580838 110:9.4045974 111:6.4092529 112:7.9593062 113:-6.8042457 114:10.624353 115:-9.0993639 116:-5.2070138 117:4.8783468 118:2.2594286 119:5.0514973 120:9.9287345 121:2.4511297 122:-6.413052 123:-4.6928507 124:4.0009976 125:9.4415399 126:-7.9218804 127:-0.12777319 128:4.4403542 129:5.6568314 130:-2.8350423 131:-1.2531661 132:9.5571302 133:-1.0344483 134:-4.3875251 135:6.6903277 136:-3.7557763 137:7.0635383 138:-8.5705146 139:1.6097366 140:-9.2893901 141:-5.9489675 142:6.9888566 143:1.4224923 144:1.0030844 145:-4.6518068 146:-1.3268595 147:-9.0173543 148:-3.0745466 149:-2.4207932 150:0.25090168 151:3.5123587 152:3.6382691 153:-2.7188128 154:-8.8804936 155:-8.3464267 156:6.6921818 157:-1.3519847 158:-3.6413308 159:2.7536067 160:4.3021816 161:9.2213702 162:-9.667812 163:4.5745434 164:9.2989223 165:0.29039828 166:-5.6509778 167:-7.5500553 168:5.1593313 169:-2.9253293 170:-8.9622556 171:-10.069854 172:-4.5590844 173:8.5190673 174:-4.4077281 175:-5.3808524 176:6.8913646 177:-4.1940191 178:-2.2343076 179:-4.3971277 180:3.0820366 181:5.7100729 182:6.1442475 183:-0.5507702 184:2.9111616 185:-3.5860344 186:-3.6695917 187:-3.0243642 188:9.6324759 189:7.3880874 190:-8.5732776 191:-3.9738882 192:7.6824613 193:-7.130114 194:1.5238259 195:-8.8424572 196:-9.3656859 197:-9.229562 198:-3.5863298 199:-6.0614816 
0.11254056239415117 0:8.0205351 1:-3.4526168 2:-2.5681154 3:-2.3006935 4:4.8406568 5:8.3763313 6:-7.7779881 7:-7.3007859 8:6.1180003 9:4.7457174 10:-9.2955907 11:4.2125412 12:-7.4535869 13:-10.328267 14:-4.9765544 15:3.5291824 16:6.0244069 17:0.62881934 18:-6.6336139 19:-2.3014966 20:-2.897214 21:0.7064158 22:-7.8150441 23:7.4941491 24:0.44891869 25:4.5476991 26:0.39959639 27:-3.216199 28:3.9820076 29:4.81239 30:4.6319671 31:4.4324008 32:5.8640322 33:6.6448129 34:6.285448 35:4.5716244 36:4.131423 37:6.0367569 38:-9.0309568 39:-2.07049 40:-2.4500833 41:-0.76161306 42:-2.1010015 43:-8.7465661 44:2.7541605 45:4.6958838 46:-10.555199 47:-2.8122589 48:-7.9012232 49:7.2720718 50:3.5892212 51:-1.3575956 52:6.8745044 53:-9.1980827 54:-1.8336542 55:-3.4919801 56:8.5714949 57:-7.6936023 58:-0.84803991 59:-4.7682934 60:5.4951511 61:-4.8108594 62:8.8939391 63:0.96770513 64:0.93372496 65:-1.5301391 66:-6.8679866 67:9.339247 68:9.3586263 69:-4.6437055 70:-0.0078723199 71:3.8481632 72:-1.2563027 73:5.4440429 74:-4.3142967 75:1.0390103 76:4.0542315 77:-7.8599247 78:1.2742337 79:8.0952836 80:-4.2107195 81:-5.7953824 82:2.8426163 83:5.3412654 84:7.7256297 85:7.6601417 86:-1.7820983 87:-8.8187524 88:1.3582383 89:-5.8591342 90:-4.6773602 91:-6.9997755 92:8.6835187 93:-9.0297427 94:-4.7990616 95:-7.9552413 96:9.2168149 97:-9.0817926 98:-7.3830595 99:1.0989638 100:4.61403 101:-5.4191097 102:6.345839 103:-4.9651103 104:-4.6040341 105:-7.2680394 106:2.6211624 107:-3.5148275 108:-8.9710811 109:5.5660934 110:11.004801 111:5.9526944 112:7.5650712 113:-7.0020209 114:10.42379 115:-7.8186751 116:-3.3151062 117:3.1370571 118:2.4193508 119:2.3078025 120:10.889519 121:4.5575767 122:-6.4416661 123:-2.3317514 124:5.0722506 125:4.9073093 126:-6.922213 127:-1.5593664 128:6.4745827 129:4.8495113 130:-2.3027665 131:-1.6739881 132:10.304574 133:0.51111416 134:-5.0066397 135:6.9129808 136:-3.274081 137:6.3874506 138:-7.7290186 139:-1.1266345 140:-9.9464366 141:-8.6873815 142:6.3139637 143:2.9165064 144:0.62671176 145:-6.8270974 146:-2.5658593 147:-8.5558714 148:0.36180407 149:0.83474713 150:-2.0012107 151:5.4119789 152:4.1980126 153:-5.1573011 154:-9.5472609 155:-7.1883429 156:9.1059461 157:-3.8178343 158:-1.2025307 159:2.2076857 160:3.3612653 161:6.4290539 162:-9.9650935 163:3.8406451 164:10.703054 165:2.0161612 166:-3.8387208 167:-3.7369622 168:3.8711324 169:-2.9340703 170:-8.6624607 171:-7.746077 172:-5.8853232 173:7.8114818 174:-2.9430888 175:-6.4844389 176:5.9400174 177:-3.9761286 178:-3.3965161 179:-5.2185685 180:1.0652139 181:7.5537341 182:4.5953966 183:0.41478988 184:3.4435368 185:-5.2935058 186:-3.2640181 187:-0.57495854 188:9.7604165 189:4.9489061 190:-9.5889298 191:-4.5760516 192:8.2472053 193:-5.7896419 194:1.4354741 195:-6.7740619 196:-9.3123414 197:-6.3839881 198:-3.5257674 199:-7.4103165 
0.059656784931167238 0:7.9169151 1:-3.4980471 2:-4.8344167 3:-3.1818957 4:5.3952463 5:10.975233 6:-8.3379968 7:-4.4759667 8:4.6546727 9:6.9279185 10:-8.528705 11:1.8391122 12:-7.6238518 13:-10.20934 14:-3.479932 15:3.6155691 16:4.9374162 17:2.4808566 18:-7.0047766 19:-0.26796192 20:-3.2534858 21:0.9690456 22:-6.6591404 23:8.1990986 24:-0.054027052 25:3.9291366 26:0.41198674 27:-1.4525975 28:4.8903798 29:8.2349667 30:7.8267402 31:3.0164995 32:6.3048355 33:5.9628743 34:6.2797118 35:4.0289324 36:5.1800766 37:4.0935704 38:-10.756049 39:-4.0966029 40:-1.040365 41:2.932379 42:-1.6418641 43:-7.8594448 44:3.6149551 45:7.950217 46:-10.454178 47:-6.0359003 48:-9.4611169 49:9.0771922 50:3.8954784 51:-3.2735957 52:8.7298727 53:-8.1129873 54:-2.7285331 55:-2.3772922 56:7.4663026 57:-7.8382875 58:-1.330818 59:-5.8045287 60:7.467237 61:-5.8883911 62:8.5420698 63:1.9910652 64:0.15198878 65:-1.0168513 66:-4.4787291 67:9.3715785 68:8.8884185 69:-5.7396813 70:0.12487069 71:1.8791201 72:-1.4759083 73:4.7213351 74:-2.7580612 75:1.5947163 76:2.3444337 77:-10.843123 78:0.18129193 79:7.38396 80:-5.7982063 81:-2.6734448 82:0.57530183 83:5.3171755 84:8.5130761 85:7.437149 86:-3.0603623 87:-8.5580903 88:-0.27348143 89:-7.4709759 90:-4.2135765 91:-6.6879143 92:8.2588141 93:-6.8680695 94:-6.0126489 95:-8.9971454 96:10.079969 97:-7.5755055 98:-6.9519178 99:0.40678814 100:5.1268293 101:-3.8909941 102:5.226574 103:-8.6052475 104:-5.9429364 105:-7.4370651 106:1.0554246 107:-4.5510291 108:-11.354531 109:3.9549961 110:9.0831037 111:4.4089623 112:7.8278711 113:-5.1943057 114:8.1556983 115:-7.4578017 116:-3.908064 117:3.4357968 118:2.7287894 119:1.8023982 120:7.8920981 121:3.5857112 122:-7.0875797 123:-3.3926529 124:5.1447468 125:6.4480562 126:-10.556461 127:0.5248473 128:6.3305934 129:4.5766913 130:-2.5181854 131:-4.2536764 132:8.7727587 133:-1.0281451 134:-3.4898023 135:7.3916317 136:-2.418087 137:8.7026895 138:-7.8034606 139:1.3535875 140:-12.399635 141:-6.4624807 142:6.8463903 143:2.5893702 144:0.65341433 145:-7.4141379 146:-0.26919313 147:-9.0977249 148:-2.6837595 149:-0.019109497 150:-3.2728419 151:5.3912434 152:2.7255764 153:-3.0481058 154:-8.5612868 155:-6.8245137 156:8.0744589 157:-2.2904295 158:-1.5466849 159:1.8495785 160:3.8176858 161:6.3204047 162:-7.903635 163:3.6415228 164:8.4060297 165:1.845479 166:-3.9645054 167:-6.9839837 168:2.4011057 169:-1.6807867 170:-10.683032 171:-7.3362004 172:-3.8113351 173:6.1723108 174:-2.8085108 175:-6.4857553 176:5.6537795 177:-0.92464424 178:-4.257963 179:-5.3005103 180:2.4243569 181:8.4196029 182:5.4576204 183:1.2847039 184:1.218443 185:-5.7845161 186:-3.269035 187:-1.3096397 188:7.8243994 189:6.3038406 190:-10.807717 191:-3.6366443 192:8.2341631 193:-5.8373728 194:0.78056368 195:-9.4135215 196:-8.587732 197:-9.0351113 198:-2.991467 199:-7.3124439 
0.042376899199082094 0:6.5693505 1:-3.5643526 2:-4.2075215 3:-2.9622463 4:4.1043228 5:10.658962 6:-8.6275144 7:-6.2092203 8:6.4623374 9:6.9935309 10:-6.6179281 11:3.9487816 12:-8.3334042 13:-9.663741 14:-4.2456823 15:3.8322705 16:4.3906365 17:2.034759 18:-4.9633411 19:-0.3510287 20:-2.8323545 21:1.5602053 22:-6.5723974 23:8.9377612 24:-1.1532482 25:3.3421796 26:-0.75762391 27:-2.331696 28:4.5706999 29:7.4168699 30:7.7367251 31:5.6922207 32:7.1634595 33:5.9593856 34:6.8755194 35:4.1732318 36:7.5240514 37:6.703273 38:-7.3301826 39:-3.6404183 40:-0.85529362 41:0.57290281 42:-1.8483606 43:-7.1300183 44:2.9122811 45:5.4505638 46:-10.640676 47:-4.3060198 48:-6.1950122 49:7.8629923 50:2.611167 51:-2.8198742 52:4.8366885 53:-10.353238 54:-2.4415923 55:-4.1758268 56:8.4337355 57:-9.2013729 58:-2.5336026 59:-8.0997531 60:10.456493 61:-4.5547668 62:10.196835 63:0.47256163 64:0.045476577 65:-2.4759037 66:-6.1772623 67:9.1619816 68:9.7084531 69:-4.6315027 70:1.1110331 71:3.071946 72:-1.4384983 73:5.011957 74:-4.2405636 75:3.1161286 76:0.71965827 77:-10.921215 78:2.1459832 79:5.8079149 80:-6.1850965 81:-4.0435106 82:2.3856821 83:5.5321602 84:9.162085 85:7.1298191 86:-2.0271082 87:-7.7319078 88:-1.6887165 89:-8.4789047 90:-5.684019 91:-5.7291387 92:5.9741231 93:-5.6785941 94:-5.1446914 95:-8.0956459 96:9.3887438 97:-7.2228419 98:-6.5277702 99:-1.024709 100:5.5203146 101:-3.0718612 102:6.0128983 103:-7.8247858 104:-4.6420535 105:-8.5947342 106:-0.66174267 107:-1.3518375 108:-11.138077 109:6.1782716 110:10.844032 111:5.3996082 112:7.8788775 113:-5.1781704 114:8.8899571 115:-8.3236253 116:-4.73744 117:4.4242573 118:1.6135349 119:3.3011817 120:7.82704 121:4.4697029 122:-7.6430081 123:-4.223919 124:3.1858101 125:6.1819049 126:-9.2857127 127:-0.62117957 128:6.606764 129:4.7985953 130:-3.436771 131:-1.2345049 132:9.6474112 133:-0.0040644313 134:-2.6585562 135:7.6872067 136:-2.3928726 137:4.5288836 138:-8.0631572 139:-1.0908497 140:-10.093188 141:-8.1204044 142:6.2431474 143:2.2714688 144:-0.27128228 145:-6.2037874 146:-1.4452315 147:-7.9084211 148:-1.7900029 149:0.9811781 150:-3.8478806 151:5.3287481 152:2.983596 153:-3.8305115 154:-9.8489344 155:-10.211924 156:7.8267886 157:-1.4232286 158:-1.1159877 159:3.0162666 160:5.1159674 161:8.7492626 162:-8.1451075 163:3.6305003 164:10.121236 165:0.66090832 166:-5.2167383 167:-5.1891205 168:2.8888542 169:-3.2314501 170:-9.0547497 171:-9.3523293 172:-5.9035088 173:7.0896658 174:-3.706959 175:-5.3721604 176:6.9637919 177:-2.7594276 178:-3.7937637 179:-3.2910606 180:2.1815119 181:5.9911306 182:5.8171939 183:0.36347143 184:5.0820533 185:-6.652395 186:-3.6374816 187:-0.44109372 188:10.997002 189:6.8224438 190:-10.772084 191:-1.6932389 192:5.5044573 193:-8.1225722 194:0.3333883 195:-8.9848821 196:-9.8040314 197:-7.3827702 198:-5.0229455 199:-8.6769802 
0.091110290560319079 0:8.0966834 1:-3.2322044 2:-4.8448411 3:-2.4177871 4:4.9961729 5:8.4366852 6:-12.041132 7:-3.2060354 8:5.8844559 9:5.1185897 10:-6.909807 11:2.9718233 12:-6.9383777 13:-11.411608 14:-6.399525 15:3.327721 16:6.8731663 17:3.4071172 18:-6.5950449 19:-1.0508047 20:-3.286293 21:1.7198956 22:-7.3700875 23:8.1593328 24:3.1484727 25:5.7275134 26:0.94148962 27:-3.1081588 28:4.110187 29:6.7540903 30:7.5570126 31:4.4108627 32:6.3612036 33:8.1521874 34:4.9682218 35:4.2541434 36:6.6922321 37:6.6694739 38:-9.051789 39:-4.087942 40:-1.9141918 41:0.19141757 42:-1.7142069 43:-9.5720597 44:2.2191584 45:6.0761692 46:-10.343673 47:-4.9614713 48:-9.5824176 49:7.1687034 50:5.0509415 51:-3.181954 52:9.1218648 53:-8.7237648 54:-1.9564218 55:-4.0035944 56:7.7557918 57:-9.0366748 58:1.1819463 59:-8.2031699 60:7.6620144 61:-5.8019304 62:10.565019 63:0.49842287 64:-0.14494607 65:-3.5927274 66:-3.7248843 67:7.8261563 68:8.3664729 69:-3.5229917 70:2.0004604 71:2.2650328 72:-0.16821445 73:5.9488055 74:-3.3934284 75:2.3050293 76:0.55440036 77:-10.491358 78:2.3405718 79:5.745536 80:-4.9511501 81:-2.8532072 82:0.38016118 83:5.5343856 84:7.7263468 85:8.4811084 86:-1.441028 87:-8.1095593 88:-1.2789802 89:-7.9996429 90:-5.3602884 91:-6.874027 92:8.6729732 93:-7.1400726 94:-6.2779496 95:-6.2807022 96:11.299233 97:-7.9868459 98:-5.5536993 99:-2.313201 100:4.6861174 101:-5.8837843 102:6.6047847 103:-7.3949954 104:-7.2619537 105:-8.5792118 106:-0.18553637 107:-4.686952 108:-10.887714 109:5.4176362 110:10.399755 111:6.064195 112:7.5141082 113:-6.4806366 114:7.5055041 115:-7.501317 116:-4.3309838 117:2.6449942 118:2.8505036 119:2.2724436 120:9.6183233 121:4.7076904 122:-6.9440861 123:-2.4656403 124:5.838187 125:4.9604118 126:-8.5320215 127:-1.0167685 128:7.0807415 129:4.7651223 130:-3.6131137 131:-2.3425886 132:10.128934 133:-0.49429561 134:-3.56212 135:8.8478741 136:-2.0421202 137:5.8378046 138:-6.6594731 139:1.8616524 140:-10.540075 141:-8.1994017 142:6.3533508 143:4.7032945 144:0.21148151 145:-8.2865749 146:-1.7323498 147:-8.3882484 148:-0.75654642 149:0.28112571 150:-4.124324 151:4.4678184 152:3.2275486 153:-3.5957079 154:-7.5392411 155:-6.5628233 156:8.7929245 157:1.0629253 158:-2.8790284 159:2.5500146 160:4.9184419 161:9.1370229 162:-7.7998402 163:3.1848226 164:8.3248028 165:1.1147753 166:-4.9432985 167:-6.5587708 168:3.8933341 169:-1.4450864 170:-8.3327436 171:-7.8348931 172:-4.1766028 173:7.4760778 174:-3.4412059 175:-6.0455656 176:9.0261077 177:-2.4293381 178:-4.9390591 179:-3.201457 180:2.4962503 181:4.9576363 182:5.9190705 183:-2.8208486 184:2.0755462 185:-4.7804123 186:-3.4331052 187:-1.6448262 188:8.0887453 189:7.2153783 190:-8.9499219 191:-1.6054354 192:6.5487516 193:-6.8980671 194:0.36249804 195:-7.9011291 196:-8.9409902 197:-5.8662517 198:-4.155675 199:-8.1584744 
0.1194112533887673 0:6.6752529 1:-2.9092671 2:-5.1353701 3:-2.540381 4:3.2387185 5:10.79001 6:-8.8662126 7:-5.7484099 8:7.3261717 9:6.1498601 10:-7.3298099 11:4.1346727 12:-7.2550259 13:-9.0534949 14:-3.509925 15:3.0469461 16:7.8267851 17:1.5785141 18:-5.7179036 19:-1.4923361 20:-1.6555148 21:2.1345055 22:-7.084697 23:8.8720615 24:0.31241306 25:2.937753 26:1.6544725 27:-2.9447742 28:6.2626264 29:6.8725021 30:6.6039829 31:3.6265741 32:7.0311698 33:6.886787 34:6.2982219 35:4.5562462 36:6.5465867 37:7.4349695 38:-6.8520467 39:-2.0203641 40:-1.1283277 41:-0.54489081 42:-1.0277788 43:-6.9537637 44:2.241635 45:6.3675377 46:-8.0654732 47:-5.2100545 48:-7.8490679 49:6.1059396 50:5.0502456 51:-1.3783669 52:7.533091 53:-10.355647 54:-4.5714797 55:-2.3645316 56:8.972292 57:-9.511133 58:-3.8355353 59:-4.2025847 60:6.8617319 61:-5.3796447 62:8.895929 63:-0.084657965 64:1.4355263 65:-2.2509374 66:-7.1011453 67:8.052241 68:7.6106484 69:-4.7446709 70:0.73155008 71:1.3335644 72:-1.7735742 73:7.2753253 74:-3.0844198 75:3.0131884 76:0.97336534 77:-9.1178523 78:1.9812447 79:6.2266813 80:-4.54912 81:-2.0627468 82:3.2071483 83:4.9269234 84:8.0528492 85:7.1754647 86:-2.5807847 87:-8.7090878 88:-0.3832762 89:-9.1966638 90:-4.1685157 91:-7.1100451 92:9.0815614 93:-6.4187469 94:-6.6824333 95:-7.2974148 96:11.207035 97:-7.3717844 98:-6.681093 99:0.4324176 100:5.0960136 101:-2.8374023 102:5.8985302 103:-9.4901227 104:-3.1806582 105:-6.3461057 106:0.46116459 107:-3.8851695 108:-10.582755 109:5.0337762 110:8.5534863 111:6.4844287 112:8.1391193 113:-3.9490038 114:7.8071572 115:-7.34524 116:-3.3045477 117:4.1877709 118:4.3305902 119:2.0766759 120:8.1870347 121:3.1546894 122:-9.368414 123:-4.6882729 124:5.7640073 125:5.1982167 126:-8.8131887 127:-0.74429919 128:6.5429927 129:2.7466657 130:-3.5645288 131:-3.5406826 132:7.0417823 133:-1.6290501 134:-1.6182778 135:6.328754 136:-4.8207626 137:7.1690001 138:-9.7302282 139:-0.73598862 140:-9.9241293 141:-8.4530248 142:7.4868039 143:3.6943644 144:1.2862199 145:-6.4111234 146:-1.2964188 147:-7.2364072 148:-1.4436839 149:-0.8150607 150:-3.4169657 151:5.8519494 152:3.3875363 153:-3.1870455 154:-9.8620574 155:-6.7270266 156:7.0673119 157:-3.6532232 158:-3.2188339 159:4.8765035 160:2.5409107 161:8.4235696 162:-9.4227187 163:2.2354326 164:8.2669066 165:0.69586454 166:-3.947599 167:-5.9504002 168:3.2401884 169:-1.0710061 170:-8.9272684 171:-7.7754882 172:-5.5112421 173:8.7719209 174:-3.1828729 175:-4.9367389 176:9.3884651 177:-4.3121999 178:-3.7520826 179:-4.0654103 180:3.0085404 181:6.0742985 182:4.8074256 183:0.993113 184:2.6887266 185:-4.2473755 186:-3.7291728 187:0.78796789 188:10.30681 189:7.6586818 190:-8.9027155 191:-2.8375118 192:6.2395154 193:-7.6095149 194:0.34892154 195:-7.8670186 196:-10.216069 197:-7.5861355 198:-4.7264368 199:-6.6796902 
0.14824579760455284 0:8.9943857 1:-3.6132521 2:-4.780375 3:-3.2602142 4:6.253612 5:11.568013 6:-9.3750973 7:-4.8074693 8:6.104411 9:4.6955464 10:-9.7711541 11:4.1899071 12:-8.5708564 13:-9.2001376 14:-3.3171338 15:5.0446712 16:4.8023265 17:2.0152572 18:-7.7104927 19:-1.0244725 20:-2.1351876 21:2.2621938 22:-7.5398713 23:7.422162 24:-1.2284239 25:4.3493542 26:-0.88010258 27:-2.3341724 28:4.0800018 29:7.1050706 30:6.2299212 31:3.3196126 32:6.0023869 33:6.6078392 34:7.8336612 35:4.3272346 36:4.807573 37:6.9015736 38:-8.5964305 39:-4.1462697 40:-1.0378355 41:0.92763585 42:-0.1689027 43:-9.2148658 44:1.1283974 45:5.9024219 46:-9.544819 47:-4.5967477 48:-9.8377509 49:7.6412312 50:2.3154945 51:-0.57137476 52:7.4969445 53:-7.9035572 54:-3.7670494 55:-4.1389417 56:6.6697352 57:-9.4463135 58:-1.5093637 59:-3.7093024 60:7.4818839 61:-4.5527525 62:8.0811393 63:-1.1082658 64:0.18343962 65:-0.58140529 66:-5.6066614 67:9.5616406 68:9.5506494 69:-4.6180436 70:-0.20281541 71:4.3829611 72:-0.68171367 73:5.523499 74:-3.7655867 75:1.6559336 76:2.0207872 77:-10.397903 78:2.1233076 79:6.9764442 80:-5.6417221 81:-3.8029699 82:1.7632876 83:5.6890338 84:7.7850347 85:5.2045719 86:-2.3112616 87:-7.7878668 88:-3.4058742 89:-5.7101909 90:-5.4769775 91:-8.0846181 92:9.1483913 93:-6.1407863 94:-3.6732422 95:-7.1176523 96:9.0175308 97:-8.4540831 98:-7.7717949 99:-2.5541616 100:6.923837 101:-5.498403 102:5.9018867 103:-6.8223132 104:-6.3675214 105:-6.6076722 106:2.2875213 107:-4.8882965 108:-10.446679 109:4.7980259 110:9.9261861 111:8.3627297 112:8.0253504 113:-6.1207808 114:8.8517811 115:-9.0543087 116:-5.9064036 117:4.2735144 118:3.6688536 119:3.5819787 120:7.5065792 121:3.3203393 122:-7.4362146 123:-4.1011095 124:6.8347804 125:6.1006294 126:-9.0232599 127:-1.2985366 128:6.6105852 129:4.0134032 130:-2.091836 131:-1.7752158 132:9.8798746 133:-0.45477742 134:-2.6504675 135:8.1280636 136:-3.847696 137:7.1803986 138:-9.1025289 139:1.8582243 140:-10.567959 141:-6.0286553 142:5.9801786 143:5.1495249 144:1.0240945 145:-7.3715228 146:0.19223024 147:-7.6839376 148:-2.6888846 149:-1.3452682 150:-1.5435903 151:5.8564409 152:3.1878111 153:-3.6232005 154:-8.1288535 155:-6.4433202 156:6.4432967 157:-2.2445073 158:-2.8566129 159:0.037716508 160:6.0430991 161:7.5941257 162:-9.4099375 163:3.2981591 164:9.2543327 165:1.9432616 166:-3.5002262 167:-6.4987821 168:4.1528348 169:-2.6442196 170:-9.8983561 171:-9.1882868 172:-5.481645 173:8.2414513 174:-3.8899989 175:-3.6304674 176:6.2236079 177:-4.0641834 178:-2.4826458 179:-4.7487197 180:3.6390196 181:7.2417437 182:4.4427837 183:-0.40504065 184:1.9275577 185:-6.1003203 186:-4.7500666 187:-1.0359952 188:13.206168 189:5.5359617 190:-12.628835 191:-3.6888162 192:8.5700752 193:-7.0900659 194:1.5849175 195:-8.5759804 196:-11.481554 197:-9.1390226 198:-3.8825561 199:-9.1209701 
0.036089907229854265 0:6.7171997 1:-4.9571543 2:-3.6082841 3:-3.4179032 4:4.4842048 5:10.912847 6:-10.732548 7:-3.3987934 8:6.0213259 9:4.5752688 10:-7.329852 11:4.3119299 12:-7.4193977 13:-10.124122 14:-4.5904341 15:2.6251852 16:5.6927003 17:0.46946436 18:-9.6083074 19:-1.4986629 20:-2.6249444 21:3.4676825 22:-7.0383907 23:10.033397 24:1.4544036 25:3.1387217 26:-0.63703019 27:-1.3045446 28:4.6721142 29:6.7218579 30:4.4887485 31:4.3263292 32:5.7202565 33:5.136166 34:6.3455805 35:4.8492166 36:4.74138 37:5.3546663 38:-8.9046006 39:-5.92174 40:-0.93309209 41:0.032989392 42:-1.6822852 43:-8.5939141 44:0.45176644 45:5.3649483 46:-11.044121 47:-2.3354476 48:-9.3534257 49:6.6096276 50:4.4609513 51:-2.7261116 52:8.7469938 53:-7.9115 54:-2.2386343 55:-2.253023 56:7.8909443 57:-10.627781 58:-2.528656 59:-6.8605009 60:8.0214492 61:-4.2204468 62:9.691368 63:0.067982653 64:1.6320658 65:-0.53138783 66:-4.7153858 67:7.9937743 68:8.7521056 69:-5.1690857 70:0.86214573 71:2.7770596 72:-1.1742931 73:3.8592376 74:-2.2667272 75:2.9112387 76:1.4796325 77:-9.4572436 78:1.6120488 79:7.2858436 80:-4.0814472 81:-4.7731742 82:2.2106898 83:5.6335005 84:6.8165717 85:6.7100582 86:-1.9846799 87:-9.2775424 88:-1.4482541 89:-7.4896603 90:-2.996028 91:-5.2833186 92:7.3950902 93:-6.8941152 94:-4.0544925 95:-6.2015995 96:10.060701 97:-8.0857154 98:-6.7018161 99:-0.16920745 100:4.6426331 101:-4.0918047 102:8.6158816 103:-6.1186099 104:-4.9478271 105:-7.8022671 106:0.67575129 107:-4.5054259 108:-10.083658 109:5.6659882 110:7.4792607 111:7.975495 112:9.0191217 113:-6.5318209 114:10.252172 115:-7.234403 116:-3.9267608 117:3.6552795 118:2.7450049 119:2.6250423 120:7.6849918 121:3.8353719 122:-8.8292295 123:-4.0400988 124:4.1592682 125:7.439437 126:-9.3587218 127:-1.6277347 128:4.2014917 129:7.4084997 130:-2.0082069 131:-2.7876255 132:9.2139241 133:-0.35765883 134:-3.4230833 135:6.6514869 136:-3.7526518 137:7.0741893 138:-7.6595499 139:1.8327278 140:-9.8841571 141:-6.7073206 142:5.9124773 143:5.6464725 144:1.7174621 145:-6.0141487 146:-3.5724526 147:-7.3621142 148:0.68311357 149:-2.0635375 150:-1.5897658 151:5.2776765 152:5.2600029 153:-3.8447009 154:-10.68512 155:-5.7063645 156:6.2438794 157:-0.16307456 158:0.023373109 159:1.7403333 160:5.2898836 161:7.8539522 162:-8.3048976 163:2.2437668 164:9.2448371 165:0.81377937 166:-4.5123557 167:-6.1926066 168:2.8768345 169:-1.4444424 170:-9.8191859 171:-9.378808 172:-3.4592762 173:7.1672661 174:-3.0347295 175:-5.3558661 176:6.9421297 177:-3.6027602 178:-3.3538132 179:-3.8060507 180:2.9534913 181:7.9296081 182:7.0413 183:0.79175429 184:3.4478955 185:-3.1154097 186:-4.8730527 187:-1.6460967 188:8.5862301 189:6.7676114 190:-10.207102 191:-2.548751 192:6.1935851 193:-7.1736565 194:1.1186111 195:-7.2276511 196:-8.6156216 197:-8.1058592 198:-5.3104251 199:-6.0953525 
0.16302335757627023 0:7.4100485 1:-5.7351947 2:-4.1131014 3:-2.5532054 4:5.1064521 5:10.80516 6:-10.205616 7:-5.6332375 8:6.5118435 9:6.5666095 10:-7.74841 11:3.1674959 12:-8.9544756 13:-9.5347414 14:-5.4714464 15:1.5047851 16:6.7525703 17:1.0893831 18:-8.6394305 19:-1.3709744 20:-2.7242263 21:3.5087833 22:-7.2706729 23:9.9680446 24:2.8772342 25:3.8311496 26:-0.90891615 27:-1.1947779 28:6.1693969 29:9.7759541 30:5.7669456 31:2.6346397 32:5.6820751 33:5.367214 34:8.0624386 35:5.7719194 36:5.4005763 37:7.8303055 38:-8.9516381 39:-3.6249033 40:-0.81559862 41:1.0815319 42:1.0156238 43:-10.83566 44:2.4878707 45:6.8212172 46:-9.3078019 47:-2.7115136 48:-8.0009436 49:6.6212402 50:6.4229086 51:-3.5811013 52:5.7710505 53:-7.8667693 54:-1.2892575 55:-3.6302308 56:8.6122547 57:-8.9588419 58:-1.7128799 59:-6.9944303 60:7.5519655 61:-6.9310392 62:7.9544579 63:0.55448989 64:-0.41765196 65:-1.2503007 66:-4.2384538 67:8.0343468 68:10.321968 69:-4.0674625 70:0.30998735 71:2.7849794 72:-1.2846046 73:3.0159175 74:-3.4043728 75:2.8887647 76:0.98091762 77:-10.251987 78:2.6074665 79:7.471441 80:-5.7000017 81:-4.4270667 82:2.1360121 83:6.5555289 84:5.2050715 85:7.3129835 86:-2.6381822 87:-8.5967541 88:-1.3801771 89:-6.5156209 90:-6.5101186 91:-5.9784099 92:9.875042 93:-9.2448331 94:-5.186467 95:-7.218184 96:10.642995 97:-7.2973569 98:-8.0686865 99:-1.1104296 100:3.6575724 101:-4.8425219 102:6.2029349 103:-7.3664171 104:-5.225617 105:-5.3517162 106:-0.29528329 107:-2.4918519 108:-9.0798368 109:3.8843917 110:11.09784 111:6.8541445 112:10.531623 113:-5.6897875 114:9.4011257 115:-9.3510533 116:-2.5750145 117:3.2149545 118:0.80597304 119:3.9080664 120:7.7630697 121:4.1047765 122:-6.3152446 123:-2.8652051 124:6.657532 125:5.1588603 126:-8.8719559 127:-1.4344686 128:4.9781689 129:4.7417194 130:-4.2901156 131:-2.2259197 132:8.4677884 133:-0.831117 134:-3.9937892 135:7.3042177 136:-3.0334089 137:6.9077476 138:-9.4027926 139:0.84240133 140:-9.7205053 141:-6.7527513 142:4.9379619 143:2.2605512 144:1.3880114 145:-6.071346 146:-3.4873681 147:-8.6557854 148:-2.3333318 149:-1.1048284 150:-4.9245866 151:4.9464755 152:2.1187903 153:-4.2621876 154:-8.243512 155:-7.3028888 156:6.7643195 157:-2.2991639 158:-3.5237968 159:3.2567016 160:4.5523985 161:6.9254385 162:-9.5430306 163:4.1740691 164:7.9571485 165:-0.087661698 166:-4.1180081 167:-6.5658453 168:3.6194181 169:-3.1527191 170:-10.3033 171:-8.6490645 172:-6.2626153 173:8.8550546 174:-3.5733373 175:-5.3023006 176:8.4459204 177:-3.0245384 178:-3.8557959 179:-2.7469601 180:2.9844232 181:6.859478 182:4.6182832 183:0.69442207 184:3.9415401 185:-6.3433849 186:-1.2262619 187:-2.8746505 188:10.306516 189:5.6774544 190:-9.9732352 191:-3.8040972 192:6.7399294 193:-7.9127106 194:0.69989171 195:-7.1372558 196:-8.3838445 197:-7.6911225 198:-5.5306287 199:-10.724815 
0.15192472327359249 0:6.9923986 1:-3.189363 2:-4.5614904 3:-2.3934346 4:3.3889887 5:11.355954 6:-10.009077 7:-5.7784465 8:5.3945921 9:7.7425514 10:-9.5606909 11:2.5854224 12:-6.8575917 13:-10.6656 14:-5.8058123 15:4.6013563 16:5.2039881 17:2.6183318 18:-5.5862831 19:0.1759902 20:-0.79630046 21:2.1614825 22:-8.6917026 23:7.7230807 24:1.3558644 25:4.2795053 26:0.71827666 27:-1.4283282 28:4.0294246 29:5.2051101 30:6.5601178 31:4.2901804 32:7.0973946 33:6.3049499 34:6.1312157 35:5.0558797 36:5.6636839 37:7.0095863 38:-5.5934251 39:-3.3852489 40:-1.9999097 41:-1.533222 42:-0.93482586 43:-8.6832896 44:1.1331068 45:7.7983858 46:-11.176879 47:-5.2875423 48:-8.3583004 49:6.8187302 50:4.2009206 51:-2.4042473 52:6.9931388 53:-8.9478274 54:-3.4569506 55:-4.1571515 56:9.1679863 57:-8.7204541 58:-0.94497156 59:-8.289142 60:6.4973392 61:-6.4344695 62:9.2414029 63:2.2637005 64:-0.14630653 65:-1.5298116 66:-5.1160924 67:6.8397414 68:9.6094653 69:-4.9104477 70:-1.5674466 71:2.6606244 72:-1.2942352 73:6.6622291 74:-3.8457715 75:1.4386141 76:4.1198556 77:-10.028933 78:-0.18494988 79:6.0486466 80:-6.1583503 81:-4.4210744 82:2.4133992 83:6.5371541 84:8.5517537 85:5.9586622 86:-1.8929656 87:-9.3035103 88:-0.16722275 89:-7.1508926 90:-5.3047735 91:-6.9408645 92:9.1171032 93:-7.2178404 94:-5.4302262 95:-9.0475475 96:11.102202 97:-6.5744083 98:-5.568856 99:-0.1734486 100:2.7863441 101:-5.6643063 102:9.3248724 103:-8.3561084 104:-6.8260941 105:-6.5877359 106:2.0055487 107:-3.3409218 108:-9.771478 109:5.6896678 110:9.6352655 111:7.5885657 112:8.1296725 113:-5.5140289 114:8.3082253 115:-9.2708837 116:-2.831489 117:2.7266274 118:1.7531875 119:3.3414138 120:7.7607258 121:3.5478028 122:-5.6535804 123:-2.7628555 124:3.3298222 125:5.3712537 126:-9.0170733 127:-1.3720055 128:4.5584217 129:4.3225709 130:-3.8140935 131:-2.6044484 132:9.2677756 133:0.74854977 134:-1.6933829 135:8.5488364 136:-2.2098702 137:6.6314929 138:-8.4473524 139:1.3976045 140:-8.5948904 141:-6.7865268 142:4.2721748 143:4.7949804 144:-0.52185482 145:-7.3189669 146:0.9974387 147:-6.8916618 148:-1.3376433 149:0.39237229 150:-3.0652561 151:5.9634459 152:1.5529272 153:-5.6582749 154:-9.7978135 155:-6.3035758 156:6.2254867 157:-2.9339901 158:-4.3503755 159:2.2751899 160:2.8709639 161:6.2209572 162:-9.8394898 163:1.5410623 164:9.7167017 165:2.2237463 166:-3.7097319 167:-7.8915249 168:2.4594435 169:-3.8726727 170:-11.073726 171:-9.2122668 172:-6.2444825 173:7.0593877 174:-3.9321039 175:-3.5056299 176:6.3683433 177:-2.6149664 178:-5.0473259 179:-3.9507713 180:2.7040787 181:7.7050336 182:6.6597675 183:-1.1320203 184:1.6973113 185:-4.8958051 186:-4.8339013 187:-1.2942682 188:9.6260944 189:5.9317115 190:-10.017729 191:-2.1213187 192:4.6224785 193:-4.9474416 194:0.096745928 195:-8.6800804 196:-8.8855992 197:-7.7893842 198:-3.6629487 199:-7.769309 
0.22010384093993929 0:7.6994283 1:-4.7086866 2:-5.3932657 3:-1.5122008 4:4.6821696 5:10.509816 6:-11.987176 7:-4.6244264 8:7.3032459 9:4.6271543 10:-7.4609202 11:4.1781224 12:-8.6719373 13:-11.443072 14:-4.3611013 15:3.6220205 16:5.8082517 17:2.4817711 18:-6.8522354 19:0.11463958 20:0.1786961 21:3.0741082 22:-7.8637668 23:8.7946956 24:0.95247282 25:1.8409083 26:-0.42998038 27:-3.6954967 28:3.8263521 29:7.0007797 30:6.7324786 31:5.838276 32:5.3215345 33:6.9951805 34:7.0363659 35:3.6065045 36:7.6392511 37:7.8479464 38:-6.2704697 39:-4.6886867 40:-1.6816361 41:-0.36904722 42:-1.5725413 43:-6.6308534 44:2.2058352 45:7.3064011 46:-9.4877363 47:-3.7409301 48:-7.6455376 49:7.3379584 50:4.3034468 51:-2.1784366 52:9.0850008 53:-8.5351117 54:-2.4613481 55:-2.4834307 56:7.5067695 57:-9.092243 58:-2.4534297 59:-5.8130406 60:7.0800462 61:-5.3814136 62:7.6508527 63:1.1883976 64:-1.0709285 65:-3.3269874 66:-5.1118331 67:7.7382689 68:10.555592 69:-4.0859806 70:-1.4322712 71:1.1310463 72:-1.2044586 73:6.5570844 74:-5.3120649 75:3.3476276 76:2.7403087 77:-8.1588034 78:1.5428233 79:7.3579525 80:-6.6415073 81:-2.882689 82:1.5164368 83:5.4986461 84:8.6509752 85:4.8208397 86:-2.0004803 87:-6.3057828 88:0.50337464 89:-6.2492888 90:-7.615269 91:-7.4222341 92:6.6988223 93:-10.579674 94:-3.7915928 95:-6.2535179 96:10.057422 97:-8.6541071 98:-6.2110559 99:-1.9897143 100:4.5582451 101:-4.3259939 102:5.7247431 103:-7.0311229 104:-3.8671439 105:-9.1533506 106:0.8295366 107:-2.8039914 108:-9.480393 109:6.3839996 110:10.452032 111:7.8905846 112:7.4015243 113:-4.721769 114:8.8075991 115:-5.8852634 116:-2.0676446 117:4.2782224 118:2.650336 119:3.9425286 120:8.112855 121:3.8730651 122:-8.7770439 123:-1.1285272 124:4.1440186 125:7.0843664 126:-10.183678 127:-0.3436767 128:5.7594233 129:5.6223629 130:-3.4799721 131:-2.7812968 132:10.312557 133:1.0879307 134:-4.1533801 135:6.707131 136:-4.3896392 137:6.2901567 138:-9.097856 139:-0.73407222 140:-8.3714548 141:-7.4816645 142:6.4454545 143:3.0744491 144:-0.28931803 145:-7.6905734 146:-2.4289548 147:-8.5360615 148:-2.7473277 149:-2.0342539 150:-3.5345529 151:4.535855 152:2.2904052 153:-4.8104564 154:-6.9456961 155:-5.5748146 156:8.708587 157:-1.8141077 158:-2.3940476 159:-0.054669875 160:3.4112355 161:9.3677222 162:-8.4333651 163:1.9088309 164:11.248019 165:3.219674 166:-4.8484069 167:-8.5948798 168:3.6448453 169:-2.8534274 170:-7.9789698 171:-9.8034242 172:-7.0575475 173:9.0148076 174:-1.7965953 175:-5.3393577 176:7.9079133 177:-2.4581273 178:-3.8437034 179:-4.1619052 180:1.6253595 181:5.573384 182:4.0386536 183:-0.29468466 184:0.90379327 185:-2.3173819 186:-4.3281233 187:-1.5297665 188:8.8115689 189:5.7488939 190:-7.7072099 191:-1.5300417 192:6.9785715 193:-5.4042078 194:2.0845771 195:-7.651426 196:-8.8569092 197:-9.0380581 198:-4.0389667 199:-8.4821585 
0.049810987777577719 0:6.9042712 1:-4.976607 2:-4.2991288 3:-3.0862051 4:4.3270424 5:11.990643 6:-9.8615294 7:-6.8189458 8:8.7618568 9:3.9037766 10:-8.1961101 11:3.7574308 12:-9.3424807 13:-12.627318 14:-4.6714561 15:3.7923655 16:4.962535 17:2.8228157 18:-7.0628197 19:-0.89808405 20:-1.8801777 21:1.7790903 22:-6.6799007 23:8.3938488 24:-0.41674256 25:3.9432336 26:1.1517464 27:-2.0160175 28:5.4215899 29:7.4200815 30:5.6606764 31:4.0465939 32:6.5976509 33:4.9336244 34:6.3325983 35:4.4881713 36:6.2743639 37:7.1875492 38:-6.9221301 39:-4.3132869 40:-2.0674624 41:-0.14788309 42:0.97072627 43:-8.3183059 44:0.43750534 45:7.8744395 46:-8.6257211 47:-4.0637333 48:-7.7817027 49:7.6897744 50:4.8965802 51:-2.4529774 52:6.2151687 53:-8.1903564 54:-2.4803063 55:-3.6293448 56:8.7027122 57:-8.2130754 58:-0.56646856 59:-6.0735879 60:6.943174 61:-5.7268212 62:10.86488 63:-0.11269803 64:1.370702 65:-2.789252 66:-5.6961548 67:6.6607774 68:9.27427 69:-3.593153 70:0.96385467 71:2.0693419 72:0.86447106 73:5.8902007 74:-3.5876789 75:1.639569 76:1.8228685 77:-8.2194534 78:2.7284483 79:6.0945494 80:-5.458004 81:-2.6011312 82:1.7157426 83:6.2858692 84:7.8150626 85:5.5537085 86:-3.4693787 87:-6.3505565 88:-1.5564844 89:-5.0870056 90:-3.3557212 91:-7.643501 92:8.4613115 93:-8.154305 94:-3.7108695 95:-7.8704849 96:9.8792832 97:-7.0652632 98:-7.091685 99:-0.28934133 100:5.0461286 101:-3.9719541 102:5.498313 103:-7.8264568 104:-6.2000314 105:-6.8408648 106:-0.070457248 107:-3.632311 108:-8.8365538 109:6.5896943 110:7.8402146 111:7.0457265 112:8.7961104 113:-3.520449 114:8.2427294 115:-7.1840489 116:-4.321343 117:4.3075519 118:-0.43668875 119:1.5671103 120:8.5972753 121:3.2082688 122:-9.4470795 123:-4.0211194 124:3.5554371 125:8.6777707 126:-8.8880483 127:-0.71271297 128:4.5427358 129:5.3202374 130:-3.6226794 131:-2.914366 132:9.5784664 133:0.91183809 134:-3.496641 135:5.8551222 136:-2.9780451 137:6.27411 138:-9.3349529 139:-0.71763578 140:-11.299469 141:-7.1563307 142:7.826271 143:3.2321456 144:2.2237832 145:-4.2553939 146:-1.0368739 147:-7.9514404 148:-2.4734117 149:-0.43465024 150:-2.6855508 151:5.5576057 152:3.2556438 153:-3.4297781 154:-10.819416 155:-5.2927599 156:7.640074 157:-1.2683732 158:-3.4368301 159:2.5654747 160:4.203613 161:7.6125761 162:-10.510608 163:2.8530762 164:7.8174558 165:1.7167313 166:-5.2325559 167:-5.4386882 168:4.6233125 169:-3.5234934 170:-7.5496315 171:-7.0100115 172:-7.096663 173:7.8332776 174:-4.3243822 175:-3.7646743 176:6.0317926 177:-3.8154488 178:-3.2411479 179:-3.1470212 180:2.8937205 181:6.7797801 182:6.447864 183:-3.0076251 184:2.2472799 185:-4.2641598 186:-6.3718357 187:-1.4213131 188:9.4008715 189:7.4391423 190:-8.8941562 191:-1.3346583 192:4.8124187 193:-7.4529736 194:1.915508 195:-6.2762266 196:-9.1147379 197:-9.0381086 198:-5.7976357 199:-6.5473581 
0.11985536184368054 0:7.970382 1:-4.517874 2:-5.5429452 3:-5.5064115 4:3.9804447 5:7.9027931 6:-10.870273 7:-6.4452671 8:4.9678399 9:4.3653442 10:-5.7413509 11:2.8733346 12:-7.2479642 13:-8.1711933 14:-6.8364557 15:2.5309634 16:6.208349 17:4.3889855 18:-7.0601475 19:-1.6955128 20:-1.2329445 21:-0.29515841 22:-7.644579 23:8.8804223 24:0.90460809 25:3.1816464 26:0.45499948 27:-2.1140366 28:4.6014275 29:5.1930329 30:5.6951751 31:3.7857641 32:7.3504096 33:6.3148041 34:7.9017174 35:4.3244874 36:4.8893537 37:6.7131778 38:-7.6061951 39:-4.1354519 40:-0.86165147 41:1.6585006 42:-0.84922249 43:-8.9828873 44:1.9537696 45:6.7990095 46:-10.092118 47:-5.2117609 48:-8.5381035 49:7.351131 50:4.4001273 51:-3.5129497 52:6.9142115 53:-7.5500693 54:-2.353246 55:-3.9650295 56:9.488848 57:-8.7768812 58:1.3944838 59:-8.0276295 60:6.8426673 61:-6.3556389 62:9.4314344 63:-0.38107827 64:-1.2492044 65:-1.3512338 66:-4.0801976 67:7.4083809 68:10.049509 69:-6.4727231 70:1.3226483 71:2.9272182 72:-1.2550172 73:3.8623562 74:-3.1028787 75:1.0009646 76:4.6262362 77:-8.9958338 78:-0.31904871 79:4.5554957 80:-3.355418 81:-3.2480839 82:3.3343308 83:7.2022717 84:7.0748125 85:8.9274839 86:-3.1965236 87:-7.8890469 88:-1.413189 89:-7.6670085 90:-5.8324765 91:-5.3152664 92:9.1111888 93:-8.5471273 94:-5.9690623 95:-6.916614 96:7.8175762 97:-7.8233078 98:-6.5855411 99:-1.6263889 100:2.5740851 101:-4.9130162 102:5.8904166 103:-5.8425269 104:-4.1416182 105:-8.189785 106:1.2698987 107:-4.0453857 108:-10.007291 109:4.0171573 110:10.088586 111:7.4296284 112:7.6375767 113:-7.117327 114:9.52676 115:-7.1992443 116:-2.6697751 117:3.6749097 118:2.1555246 119:1.9576864 120:9.1372532 121:3.1861903 122:-5.2040015 123:-2.3147631 124:5.0940084 125:7.2107022 126:-8.2753142 127:-0.40860959 128:7.5587952 129:7.2149736 130:-5.1849154 131:-1.959331 132:9.402367 133:0.48006479 134:-3.8422009 135:8.1170551 136:-1.3278101 137:5.2199321 138:-9.2764451 139:0.56645029 140:-10.525771 141:-9.3138804 142:6.632302 143:2.1451388 144:0.58523086 145:-5.6553568 146:-1.4153103 147:-8.3169155 148:-2.8773855 149:-3.0447628 150:-2.6702326 151:5.9206755 152:3.0612871 153:-5.2869205 154:-8.8826346 155:-5.6367639 156:6.3232733 157:-1.8530087 158:-2.4152736 159:3.3226484 160:4.6287632 161:7.6425259 162:-7.8322191 163:3.1609639 164:10.228789 165:1.7165701 166:-3.1051317 167:-4.9039004 168:2.0901727 169:-1.2924707 170:-11.147288 171:-8.4704545 172:-6.1628072 173:5.2117643 174:-5.6755678 175:-4.0598434 176:6.4000889 177:-3.0591406 178:-4.6999603 179:-2.499525 180:3.1098517 181:7.6787617 182:6.3791761 183:0.12002643 184:1.3828995 185:-3.8324638 186:-5.7830141 187:-3.3912589 188:10.065221 189:6.0765959 190:-9.1603584 191:-3.962334 192:6.8086538 193:-8.4010447 194:1.1927617 195:-7.393218 196:-8.3018904 197:-8.0371974 198:-4.5759805 199:-7.1729454 
0.12142140628941586 0:9.1658506 1:-5.3423189 2:-5.4654823 3:-3.3346756 4:5.2207007 5:8.9037069 6:-8.9024467 7:-4.8781828 8:5.2176546 9:4.7559844 10:-7.0583458 11:3.159173 12:-8.6042508 13:-9.0580429 14:-5.089262 15:3.9448865 16:5.9828606 17:3.0955514 18:-7.6477381 19:-1.996844 20:-4.6048041 21:2.4006757 22:-7.0078087 23:7.8157524 24:2.1197759 25:4.664411 26:0.35036919 27:-1.045951 28:5.3596499 29:7.0129219 30:3.441406 31:4.3431279 32:6.4749729 33:6.0204876 34:6.3153611 35:4.3872268 36:6.5706928 37:4.8300202 38:-8.0331426 39:-4.4979259 40:-1.2710296 41:1.0180299 42:-0.87127845 43:-10.215891 44:1.1417422 45:5.0379564 46:-8.0839273 47:-5.0919672 48:-7.0924963 49:8.0986619 50:3.5582463 51:-2.6680898 52:6.0358901 53:-7.5249471 54:-2.5926861 55:-3.3448819 56:8.8107726 57:-10.304819 58:-0.52866709 59:-5.1819686 60:6.5782406 61:-5.883488 62:10.767752 63:1.1152228 64:0.23041955 65:-2.7264918 66:-5.3632967 67:8.098923 68:9.1494092 69:-3.001398 70:-0.95930387 71:2.4079102 72:-0.035144846 73:4.9374267 74:-4.609994 75:1.8293159 76:1.9872683 77:-8.8975018 78:1.2364271 79:4.3974973 80:-6.9247791 81:-2.4055928 82:0.73589042 83:6.6945203 84:7.6558606 85:8.1363531 86:-2.6590224 87:-8.6399964 88:-0.54810201 89:-6.989096 90:-5.2746333 91:-7.1793812 92:10.701898 93:-7.4472107 94:-4.9700654 95:-9.2257464 96:8.8091199 97:-9.4886181 98:-5.1572511 99:-0.89788388 100:3.7496135 101:-5.4568227 102:7.364084 103:-7.7529505 104:-3.2499001 105:-5.4781931 106:2.9349231 107:-2.4442559 108:-9.5454026 109:2.8659062 110:12.094968 111:5.1739695 112:10.065526 113:-4.7401395 114:8.998438 115:-5.9807291 116:-2.5797671 117:4.3713804 118:1.1123226 119:0.86804034 120:8.0193553 121:3.9572302 122:-5.4288469 123:-5.1681128 124:5.6014107 125:8.1146138 126:-6.9989493 127:-0.76151293 128:6.3982812 129:5.7045971 130:-7.431895 131:-3.1934044 132:10.802445 133:0.40943405 134:-4.6516527 135:7.7830064 136:-4.4406697 137:7.3287991 138:-8.3742447 139:1.6239034 140:-8.1228792 141:-7.4410801 142:6.503785 143:3.7360497 144:0.52645668 145:-6.3166566 146:-2.0205255 147:-7.366521 148:-2.196049 149:-2.3060867 150:-3.9841953 151:4.8397894 152:4.6981215 153:-4.0421408 154:-8.6339112 155:-7.6007462 156:7.0677158 157:-2.0511849 158:-1.5657736 159:1.3486441 160:4.3111607 161:6.7918555 162:-8.8891229 163:1.5574532 164:9.0337388 165:0.63222107 166:-3.996935 167:-4.4667878 168:3.3471297 169:-1.7425686 170:-10.967688 171:-8.7949037 172:-3.6544074 173:8.171207 174:-4.6382384 175:-4.8457673 176:8.272058 177:-3.2647015 178:-3.6589741 179:-4.2498262 180:3.5118664 181:6.4830951 182:3.8917279 183:-0.35595274 184:1.4569217 185:-2.5760482 186:-5.8194404 187:-0.82766356 188:7.708744 189:6.5671973 190:-8.2108498 191:-4.4110801 192:5.0670419 193:-8.2472132 194:0.48132571 195:-5.7342712 196:-9.3801444 197:-7.937537 198:-2.7116736 199:-7.3288238 
0.051786497757353687 0:6.0186351 1:-3.6398158 2:-4.6656824 3:-2.5225654 4:4.8484888 5:9.215418 6:-8.510824 7:-4.3988496 8:5.324943 9:4.6735428 10:-4.8926642 11:1.8761197 12:-8.4571584 13:-9.6768825 14:-7.1609127 15:3.603736 16:4.6164906 17:1.9362796 18:-6.7692478 19:-2.8364203 20:-1.0890398 21:3.2924309 22:-7.3115669 23:8.6238636 24:-1.0972314 25:4.7406696 26:-0.56782086 27:-0.06435186 28:4.8030484 29:6.584682 30:6.1287086 31:3.9009607 32:7.7164838 33:6.7427925 34:6.7030439 35:4.4735714 36:4.607173 37:5.3221466 38:-8.7345168 39:-2.4446937 40:-1.9257259 41:1.5477838 42:-1.0777504 43:-8.8839628 44:5.0443306 45:7.0536767 46:-8.1212743 47:-6.4143534 48:-8.5270211 49:5.4961576 50:3.88625 51:-1.9286874 52:6.7154435 53:-8.2746228 54:-3.3894003 55:-4.7856611 56:8.0168131 57:-8.1427082 58:-1.5773917 59:-6.8885015 60:6.0968614 61:-7.0246128 62:9.7437685 63:0.83508015 64:0.15455235 65:-3.4450627 66:-6.4029872 67:6.9708154 68:7.3436924 69:-4.7943124 70:1.0613482 71:1.7580903 72:1.1777153 73:5.7903505 74:-3.0349973 75:3.065026 76:2.6561689 77:-10.875403 78:2.3259224 79:5.0292048 80:-5.8690699 81:-2.3571696 82:3.3133676 83:6.1389857 84:8.4199332 85:6.0088164 86:-3.1020498 87:-7.2634639 88:-0.64859517 89:-6.971749 90:-5.6741005 91:-6.7479059 92:9.3459976 93:-7.2808509 94:-7.0868577 95:-8.1810315 96:9.9937197 97:-6.8935996 98:-6.6765691 99:-0.76576425 100:7.415294 101:-4.1764109 102:7.2671276 103:-8.6021292 104:-5.7156716 105:-6.3869438 106:-0.22266839 107:-2.958661 108:-8.8209946 109:6.6744972 110:9.6259654 111:6.62463 112:8.5837632 113:-6.6162805 114:9.7217585 115:-5.7401004 116:-4.0876376 117:6.2302819 118:3.1177691 119:2.9679687 120:8.226309 121:4.2736443 122:-6.5229491 123:-4.1535502 124:5.7338497 125:6.1875032 126:-8.4460004 127:-1.7274714 128:6.4047949 129:5.6162979 130:-3.8513034 131:-3.1211453 132:9.4910138 133:-1.6842732 134:-3.8412926 135:8.5126487 136:-2.4686531 137:8.6530277 138:-8.9055856 139:0.78831013 140:-8.2059151 141:-8.2856409 142:6.8595571 143:3.1982178 144:1.9112579 145:-3.9272135 146:-1.4516041 147:-7.3358648 148:-3.5373696 149:0.12174805 150:-3.0558692 151:6.9137508 152:2.4595711 153:-4.8921982 154:-8.1296736 155:-7.4381053 156:6.0526639 157:-1.4977951 158:-3.2953571 159:0.276859 160:2.5124148 161:8.4019915 162:-9.3235277 163:3.1627337 164:8.384286 165:2.4751553 166:-3.5722512 167:-5.1075935 168:4.1228117 169:-0.94143082 170:-8.7201975 171:-6.7784099 172:-4.9219466 173:7.727113 174:-1.3613791 175:-6.8517323 176:6.7549326 177:-4.1116444 178:-4.7285336 179:-3.6171416 180:3.3859695 181:7.6646029 182:5.9900331 183:-0.98182665 184:1.7588742 185:-4.6065623 186:-3.4431467 187:-3.0694951 188:9.7759849 189:7.8809363 190:-8.2757385 191:-4.2362955 192:6.2882455 193:-7.0466292 194:1.3986275 195:-6.7217961 196:-9.3430117 197:-7.5139862 198:-2.534182 199:-6.6556382 
0.021460113624578649 0:8.6842426 1:-2.8041364 2:-5.6173377 3:-2.3311176 4:1.5831842 5:11.284144 6:-9.4872285 7:-6.7287112 8:7.2905516 9:3.2197568 10:-8.031313 11:1.8868651 12:-7.7339972 13:-9.3131985 14:-5.6038611 15:4.8483389 16:6.8559365 17:0.8188967 18:-8.4259812 19:-0.67753426 20:-3.1343176 21:2.1029974 22:-5.4821541 23:8.7540219 24:0.21887995 25:3.5923621 26:-0.34370772 27:-0.96156664 28:5.0106289 29:6.4949684 30:5.1632839 31:3.5565648 32:6.3686913 33:5.0808447 34:7.1424024 35:3.1979078 36:6.4465272 37:6.8149443 38:-8.5694613 39:-2.2734124 40:-1.130524 41:-1.0657366 42:-2.6995479 43:-9.3193503 44:1.5681652 45:6.4330039 46:-9.4095633 47:-4.5840779 48:-6.3844919 49:8.8146269 50:4.0856742 51:-0.7591308 52:9.2633901 53:-9.9722025 54:-1.1775338 55:-2.5548849 56:8.9878401 57:-9.2365653 58:0.3893081 59:-5.7251908 60:6.8848288 61:-5.2287131 62:8.6489528 63:1.8837829 64:-0.22266422 65:-1.5456075 66:-6.206545 67:9.2576936 68:10.703783 69:-4.5829341 70:1.9089035 71:2.7082732 72:-1.4701204 73:5.4183843 74:-3.039177 75:1.3066313 76:-0.25238543 77:-11.689157 78:2.9844899 79:6.3205367 80:-3.2639043 81:-3.4990933 82:3.3956416 83:5.4318053 84:7.1272173 85:5.9494491 86:-2.5796314 87:-8.2879199 88:-1.0655119 89:-8.1734209 90:-2.7574825 91:-8.9950607 92:8.4026877 93:-8.1175571 94:-3.708738 95:-6.2453314 96:8.4052592 97:-6.7448074 98:-5.7150622 99:-0.80496765 100:7.0938076 101:-4.1962551 102:6.1110321 103:-7.2324058 104:-5.2933142 105:-7.2498406 106:1.6068168 107:-4.4701627 108:-9.0566809 109:5.5986326 110:11.542091 111:7.095479 112:7.9215442 113:-5.2223071 114:9.2238568 115:-8.8594509 116:-3.2408077 117:3.8287826 118:2.1902112 119:2.3927061 120:9.6962636 121:2.9992665 122:-7.166703 123:-2.5171295 124:3.0013338 125:7.0128811 126:-7.0802153 127:-0.36796619 128:3.3401159 129:4.401984 130:-1.1738942 131:-1.6132008 132:10.069969 133:-1.3421078 134:-3.9020451 135:7.5540071 136:-0.58312873 137:7.5583793 138:-7.2433462 139:1.5250877 140:-10.735143 141:-8.7711475 142:4.9960433 143:4.8310484 144:1.0849593 145:-5.5047185 146:-0.7062959 147:-8.686297 148:-1.1393333 149:-0.76887664 150:-5.0128974 151:5.0515854 152:3.3464258 153:-3.0646074 154:-9.7910421 155:-6.4929225 156:8.2115736 157:-2.0731872 158:-1.9747907 159:3.5534306 160:5.2336891 161:7.664734 162:-9.7491228 163:1.0505087 164:9.5000801 165:2.0561973 166:-4.7498271 167:-5.0070178 168:3.419426 169:-2.0710374 170:-10.491679 171:-9.1786164 172:-5.594197 173:7.6358234 174:-4.3549159 175:-4.9643148 176:7.7372514 177:-4.4112297 178:-3.465201 179:-5.5379774 180:4.2760036 181:6.1167276 182:6.226429 183:-0.81021133 184:0.9079752 185:-5.60407 186:-4.4579445 187:-1.2100062 188:8.8247392 189:6.4190693 190:-10.03499 191:-0.89456471 192:6.7959926 193:-7.024449 194:-0.080220154 195:-7.6687074 196:-8.525081 197:-6.5131004 198:-4.9986718 199:-6.4495673 
0.047481713425445535 0:7.2713458 1:-4.2920984 2:-5.2107108 3:-2.7262146 4:4.25489 5:9.2905308 6:-8.5891768 7:-7.4238658 8:7.2209154 9:5.7929584 10:-7.5328916 11:4.2875203 12:-7.0930392 13:-9.4973944 14:-4.9205831 15:3.1640759 16:6.0560521 17:1.7810888 18:-6.8747944 19:-0.91633274 20:-3.3683783 21:0.79886332 22:-6.3542168 23:9.7068344 24:0.27482268 25:2.84822 26:1.4687662 27:-2.7068026 28:4.6210328 29:8.271793 30:4.9397831 31:3.5167575 32:5.970501 33:4.5073045 34:6.6128371 35:3.8817086 36:5.8871087 37:5.8649247 38:-7.3412581 39:-4.6722967 40:0.61290489 41:0.75288566 42:-0.25827372 43:-8.1293773 44:2.1299089 45:6.480955 46:-9.1596321 47:-5.7158404 48:-8.6039663 49:7.4773002 50:2.6592971 51:-3.011866 52:8.878433 53:-8.8957035 54:-3.4467937 55:-2.8465236 56:8.7494972 57:-9.7374458 58:-2.1377465 59:-4.310488 60:5.0983803 61:-5.082687 62:9.2289457 63:0.75356727 64:-0.2733914 65:-2.5391621 66:-4.2846127 67:7.4375394 68:9.6205251 69:-4.5992782 70:1.7547677 71:0.33961833 72:-2.5493536 73:4.6164006 74:-2.5169768 75:2.0642419 76:1.8641793 77:-7.6437418 78:-1.4906827 79:6.049607 80:-5.5613553 81:-3.9527613 82:4.4605922 83:5.9213889 84:8.2260578 85:8.4291204 86:-2.1030458 87:-7.9691511 88:0.095862899 89:-7.0143718 90:-4.1631158 91:-5.6138144 92:9.1722805 93:-5.0250084 94:-5.457754 95:-7.7620744 96:11.410318 97:-9.2798655 98:-7.6571905 99:-1.9569939 100:5.4693235 101:-4.6221595 102:5.7365723 103:-5.2667428 104:-4.8088116 105:-6.7482107 106:0.40723137 107:-3.0526843 108:-11.300133 109:5.7839414 110:11.148275 111:6.6068681 112:9.3250505 113:-4.265514 114:8.4147077 115:-9.0871589 116:-3.5239118 117:3.9971795 118:2.6602155 119:3.375491 120:9.4073459 121:2.8434615 122:-7.1455793 123:-0.45393291 124:3.8660048 125:7.0242816 126:-8.9400906 127:-3.3804181 128:7.0990453 129:5.6212361 130:-2.1469981 131:-3.8428468 132:7.9843296 133:-1.2823917 134:-4.0313997 135:8.192851 136:-2.3425484 137:7.9154119 138:-8.5186262 139:1.0864023 140:-10.024752 141:-7.7566573 142:6.2333924 143:1.9478109 144:1.3615987 145:-5.4648044 146:-0.73696057 147:-8.6760024 148:-1.096431 149:-1.1538444 150:-3.0183151 151:6.1898395 152:2.9112727 153:-3.6944192 154:-9.5613421 155:-7.4644773 156:7.7341667 157:-3.0631519 158:-3.0169635 159:0.45822344 160:3.4295124 161:9.1829276 162:-8.2541793 163:2.8372015 164:9.5216287 165:1.0807852 166:-3.7791182 167:-4.6852349 168:3.6073228 169:-1.2317992 170:-12.290802 171:-9.7999521 172:-7.5093174 173:7.4388088 174:-5.2404999 175:-6.2971687 176:7.9513939 177:-3.5930981 178:-4.6647949 179:-3.8762246 180:1.4285843 181:4.8648746 182:6.8689847 183:-0.34129651 184:3.8803042 185:-4.1505621 186:-1.5732401 187:-2.8104593 188:9.9702249 189:6.9833112 190:-9.0327257 191:-3.6201179 192:7.427673 193:-5.8512177 194:0.82378977 195:-7.404269 196:-7.9861648 197:-7.7601133 198:-3.843095 199:-8.7814969 
0.089568105880706975 0:7.6213596 1:-4.04559 2:-4.5140089 3:-5.0872909 4:5.4282465 5:12.274259 6:-8.2788271 7:-5.2873593 8:6.0789647 9:5.0318153 10:-7.2163554 11:3.3099189 12:-8.2715523 13:-11.058903 14:-4.0435843 15:3.3529232 16:4.3131352 17:3.9560274 18:-6.7968532 19:-3.576929 20:-2.1807419 21:2.048166 22:-7.8277797 23:8.7438728 24:1.8120274 25:3.5253163 26:0.88539613 27:-3.2037889 28:4.8359244 29:7.6464272 30:4.8546496 31:4.6269676 32:6.5813063 33:7.7306198 34:6.9675176 35:3.3143546 36:5.1649894 37:4.9742277 38:-8.1967139 39:-3.4449289 40:-0.83541685 41:-1.08821 42:-1.6861279 43:-9.6628215 44:2.0946471 45:5.7969441 46:-8.4448146 47:-7.3526654 48:-7.0853678 49:5.4761933 50:4.4148054 51:-3.7826787 52:8.7369436 53:-8.953916 54:-2.9349219 55:-4.2416094 56:9.8895077 57:-6.3083796 58:-1.132216 59:-6.9014392 60:7.8486488 61:-3.4780541 62:9.9977704 63:1.3840164 64:-0.25225669 65:-4.0130768 66:-5.9653493 67:7.2694033 68:8.8468061 69:-5.8382144 70:0.36317417 71:2.5931279 72:-2.6992931 73:4.4277795 74:-2.2029124 75:1.9559354 76:2.5235389 77:-9.81441 78:2.0527672 79:7.0359424 80:-6.2457613 81:-1.9727423 82:1.6258643 83:7.0432392 84:8.4473819 85:8.1438971 86:-2.6128438 87:-9.5257441 88:-0.35296091 89:-7.3517129 90:-4.5003842 91:-7.8671345 92:7.869767 93:-7.7851345 94:-5.9188158 95:-8.5713907 96:8.8895022 97:-6.5898384 98:-6.8184607 99:-0.43215194 100:4.4597963 101:-2.0460576 102:7.6675432 103:-7.5049256 104:-4.5252021 105:-8.2621167 106:2.400851 107:-2.5370613 108:-8.4710213 109:3.7635185 110:9.0688805 111:5.0031571 112:8.0855685 113:-7.1860941 114:8.7942814 115:-6.292515 116:-5.3009507 117:5.0449741 118:4.0224712 119:2.3582685 120:7.0970652 121:2.16851 122:-5.2059521 123:-2.2319572 124:3.7434866 125:4.8784267 126:-8.9329927 127:-1.0600193 128:8.0200946 129:7.2273109 130:-3.067045 131:-3.3575232 132:9.764506 133:3.0645965 134:-3.4638081 135:7.4633911 136:-2.082935 137:8.2504775 138:-7.577907 139:2.1055865 140:-10.09965 141:-7.1156819 142:7.1845148 143:4.0657453 144:0.50804698 145:-6.7086332 146:-2.1700933 147:-9.9633147 148:-1.701469 149:-2.2560364 150:-4.4772794 151:4.2232332 152:3.7078077 153:-4.0490254 154:-8.9444234 155:-7.2794071 156:7.0924561 157:-2.6932639 158:-1.6894218 159:0.2461684 160:4.3252508 161:7.5162867 162:-8.7121336 163:5.154839 164:9.2320455 165:1.6399611 166:-3.1911644 167:-5.210983 168:2.8437492 169:-3.6188845 170:-9.2187093 171:-8.4019626 172:-6.7410463 173:7.1266093 174:-2.5891358 175:-2.5788027 176:9.078049 177:-2.8832063 178:-3.0098214 179:-2.8747089 180:3.7068403 181:5.9503278 182:6.5294422 183:-0.34804277 184:2.9260461 185:-3.8337856 186:-6.3712935 187:-3.7723755 188:8.6913539 189:7.3035494 190:-10.573568 191:-2.0448532 192:6.9783352 193:-8.1955296 194:0.80296373 195:-8.1339515 196:-8.9051169 197:-7.9428169 198:-5.5657823 199:-7.3676256 
0.057885509705069109 0:8.5136746 1:-3.5091952 2:-5.427351 3:-3.7041523 4:4.6797942 5:9.8867148 6:-9.5136176 7:-7.3622387 8:6.2935466 9:5.7926589 10:-7.6013774 11:4.4295634 12:-7.5247003 13:-9.8042281 14:-6.5207092 15:4.752734 16:6.4962443 17:2.4304626 18:-7.4149783 19:0.48290952 20:-2.3499793 21:3.5155468 22:-5.4454643 23:9.869516 24:0.10341626 25:3.4218884 26:0.076281927 27:-2.5479091 28:3.8843391 29:5.91924 30:5.8179733 31:3.052482 32:5.8410685 33:4.3144261 34:7.5300972 35:4.3925259 36:6.6315318 37:4.8158294 38:-7.4368143 39:-4.0663029 40:-1.5432035 41:-1.2859379 42:-2.1807316 43:-8.2544395 44:2.1604308 45:5.8267053 46:-10.233533 47:-5.3929742 48:-6.6927777 49:10.092343 50:4.3514153 51:-4.505576 52:6.3102077 53:-8.1071578 54:-2.2554971 55:-2.8967143 56:8.2207271 57:-7.5451075 58:-1.5116822 59:-4.6272317 60:7.0492133 61:-4.8216917 62:8.8997539 63:-0.6728697 64:-0.47798778 65:-3.3388452 66:-5.9610411 67:7.2738048 68:6.5095993 69:-5.2836176 70:0.18142698 71:2.5836035 72:0.437376 73:4.1613713 74:-4.9962024 75:2.9582541 76:1.0128116 77:-8.5659837 78:1.9180397 79:6.1378755 80:-5.0813584 81:-3.5171574 82:2.7063754 83:5.3904164 84:7.3384606 85:4.8760637 86:-3.6550289 87:-7.8311247 88:-2.9119027 89:-7.8065316 90:-4.4971238 91:-7.3166808 92:9.1217823 93:-8.416695 94:-4.8039166 95:-8.4329561 96:8.9779325 97:-8.2108875 98:-7.6829549 99:-0.72757102 100:4.9787263 101:-5.0172343 102:5.8169663 103:-4.3225393 104:-6.3247281 105:-7.3945876 106:0.025224481 107:-3.6439926 108:-9.6049262 109:6.2455231 110:8.2994133 111:5.5917295 112:7.2102867 113:-7.0619408 114:10.430442 115:-8.1540076 116:-3.2875886 117:3.083238 118:2.6254756 119:5.1431115 120:9.8254277 121:1.4674319 122:-6.5768478 123:-1.9336671 124:1.8167522 125:6.8786778 126:-7.9301448 127:0.58929127 128:6.1378269 129:5.2091767 130:-3.2528902 131:-2.3280857 132:11.221018 133:-1.7645744 134:-2.6304206 135:8.6713595 136:-1.4564123 137:7.6569285 138:-7.773939 139:-0.97190124 140:-9.9323659 141:-8.3551069 142:6.3436159 143:5.8040959 144:2.6734508 145:-6.324662 146:-0.77508269 147:-6.3144314 148:-1.6905057 149:-2.0711857 150:-4.2838939 151:6.088 152:3.5124509 153:-2.9174082 154:-8.965009 155:-5.631456 156:7.4468264 157:-1.9361132 158:-1.2060977 159:2.869837 160:3.8547073 161:5.060765 162:-9.3777348 163:3.0263499 164:8.9935461 165:2.1566973 166:-4.1152211 167:-3.8105177 168:2.7379738 169:-2.3998532 170:-9.0967888 171:-8.9485636 172:-3.5367911 173:6.9455099 174:-3.3998097 175:-4.1829004 176:6.5262286 177:-3.6330908 178:-3.6003864 179:-3.8402274 180:2.1660058 181:5.3356788 182:7.4249746 183:0.25585776 184:2.8279349 185:-3.9904931 186:-2.876971 187:-2.4489726 188:8.6142709 189:5.4906066 190:-10.077372 191:-4.3552021 192:5.940439 193:-6.2529925 194:0.10672265 195:-8.9583014 196:-8.2442169 197:-8.1013012 198:-5.143649 199:-7.5884635 
0.051306665778985273 0:7.3607868 1:-3.3788499 2:-5.9896577 3:-2.1033127 4:3.7137826 5:9.5150983 6:-9.8454912 7:-6.0166928 8:7.8113012 9:4.3516583 10:-7.837274 11:1.2809424 12:-8.1334498 13:-9.6076638 14:-5.5362764 15:2.8114638 16:5.9388224 17:2.4239808 18:-7.3034989 19:0.093004272 20:-3.1924164 21:1.7035231 22:-8.6845165 23:8.167637 24:-0.11528585 25:3.7449601 26:0.64158683 27:-4.5706839 28:6.3226019 29:6.9073256 30:5.8291525 31:3.8071118 32:5.1224202 33:7.7058805 34:6.723347 35:7.5790134 36:4.650136 37:6.9196313 38:-7.5560253 39:-5.2123272 40:-0.72085794 41:1.4339372 42:-0.41433817 43:-9.7492084 44:1.9573524 45:7.5235622 46:-8.1782489 47:-4.7331803 48:-7.1546356 49:8.7068072 50:2.6360371 51:-2.5276749 52:5.0229397 53:-8.5011387 54:-4.4473646 55:-3.6977244 56:7.9872493 57:-10.112122 58:-1.7461474 59:-6.4753074 60:7.9265591 61:-5.0241501 62:10.224349 63:-0.46388725 64:-0.35054597 65:-2.9990383 66:-2.9949597 67:5.9450796 68:8.0964819 69:-5.8739115 70:1.5349165 71:2.4284218 72:0.97894647 73:3.9258393 74:-3.217612 75:2.3228714 76:0.77286355 77:-7.8191299 78:1.1403667 79:5.7878943 80:-4.4876825 81:-3.5375779 82:3.0547083 83:6.4501343 84:6.7799219 85:6.7692625 86:-5.7924289 87:-8.4526975 88:-0.81661289 89:-7.4538479 90:-5.1378079 91:-6.3969884 92:8.7719096 93:-7.661497 94:-5.401194 95:-7.1718487 96:10.312963 97:-7.7219115 98:-6.9299633 99:-1.5075413 100:4.8665306 101:-5.6565735 102:7.0638833 103:-7.4656039 104:-4.7133201 105:-8.5227804 106:0.29403105 107:-4.2583235 108:-10.396489 109:5.2181213 110:8.8243371 111:4.7403859 112:10.114064 113:-5.7212916 114:8.4628409 115:-8.5891519 116:-4.8659639 117:3.6166538 118:2.1596679 119:1.7897427 120:9.2781496 121:4.4059702 122:-6.6085863 123:-2.2334456 124:4.1613042 125:6.8563592 126:-6.2738578 127:-1.3598476 128:5.7421803 129:4.127848 130:-3.1195789 131:-2.6153772 132:9.5460906 133:1.6647749 134:-4.4225611 135:8.2418739 136:-3.8104029 137:7.3693614 138:-9.6725649 139:1.2735601 140:-11.896517 141:-7.9313856 142:5.056804 143:3.5819511 144:0.70847417 145:-6.4985871 146:-1.9220984 147:-5.7428932 148:-2.8834802 149:-0.23062481 150:-3.2068628 151:5.0130156 152:2.0852779 153:-5.0234324 154:-6.7557814 155:-7.3967839 156:7.1518725 157:-3.6050932 158:-2.3018454 159:2.2289662 160:3.8633678 161:9.1755788 162:-10.359927 163:2.7407796 164:7.6417331 165:1.5876633 166:-3.8562953 167:-3.287505 168:3.4821879 169:-2.7277625 170:-10.336322 171:-9.36718 172:-6.4745042 173:7.9387708 174:-2.0920382 175:-4.353646 176:7.1999131 177:-3.3770229 178:-2.8858191 179:-4.1040972 180:1.0063116 181:6.4668173 182:5.4798019 183:0.82483387 184:3.919725 185:-4.3886275 186:-4.2985124 187:0.33711291 188:10.500665 189:8.4636116 190:-11.342117 191:-2.0390369 192:4.9251623 193:-8.5105547 194:0.79441856 195:-8.6752688 196:-9.6597577 197:-7.4067186 198:-3.839402 199:-6.2480437 
0.0026227885193762018 0:7.1821148 1:-4.6417455 2:-5.550618 3:-1.2448179 4:4.7104445 5:10.66793 6:-10.269203 7:-4.7531054 8:8.3056801 9:6.7435195 10:-7.0585706 11:3.9403761 12:-9.3052257 13:-8.9278263 14:-4.3775399 15:3.1612511 16:5.0031868 17:3.5875327 18:-6.2991485 19:-3.3626915 20:-0.86917191 21:2.9815215 22:-7.2823981 23:7.7301587 24:0.91539563 25:3.4849927 26:1.1783485 27:-3.7421314 28:5.4601092 29:6.523198 30:6.293162 31:3.6580398 32:5.4108824 33:5.0988895 34:5.8926967 35:5.4730211 36:8.1269526 37:5.0388535 38:-9.473202 39:-4.6077652 40:-1.381901 41:-1.2362085 42:-1.2716646 43:-8.5021304 44:1.3901826 45:5.8673273 46:-9.3595345 47:-4.2276683 48:-9.3469129 49:5.7639246 50:4.5092068 51:-3.5720234 52:5.5857895 53:-8.5840578 54:-2.0713918 55:-3.5399299 56:9.5247279 57:-8.5670657 58:0.40734962 59:-5.8637029 60:7.1745285 61:-6.5789576 62:10.915976 63:-0.023544756 64:-0.6992915 65:-1.5804842 66:-5.835279 67:8.2880611 68:10.067848 69:-5.5607531 70:-0.42196605 71:1.7682959 72:-0.10551038 73:6.5747331 74:-4.2499419 75:2.4659431 76:0.93516021 77:-9.0874518 78:0.91654703 79:3.9035115 80:-7.478184 81:-2.9248963 82:3.4950471 83:7.9002542 84:7.5343942 85:6.9623467 86:-5.3674716 87:-8.0311438 88:-0.81763229 89:-8.007726 90:-4.4252128 91:-5.0579892 92:7.9516898 93:-7.8844336 94:-4.7827364 95:-8.5127225 96:9.9684309 97:-8.5275695 98:-7.8590472 99:-1.4570218 100:3.917952 101:-3.7336585 102:6.6614958 103:-5.5774478 104:-4.191799 105:-8.9405121 106:3.4276948 107:-3.0025929 108:-7.8657805 109:4.8258309 110:9.4993423 111:4.7775095 112:9.2357794 113:-7.598508 114:9.0868173 115:-5.9939432 116:-3.8695729 117:5.9776249 118:1.9329098 119:2.7456208 120:8.7307272 121:4.5594889 122:-7.6114995 123:-2.4371675 124:4.7992158 125:7.5609597 126:-8.298377 127:-1.704937 128:5.3663989 129:6.7277809 130:-1.9200747 131:-4.4314938 132:10.105539 133:1.4896909 134:-3.896335 135:6.9318366 136:-1.7396566 137:5.4152537 138:-10.033763 139:-0.32621834 140:-10.328326 141:-9.8439358 142:6.0448026 143:3.505952 144:1.9423605 145:-5.9824128 146:-1.3029899 147:-8.3099555 148:-2.7354811 149:-1.9144445 150:-2.3904762 151:6.7056274 152:2.6641471 153:-3.3460774 154:-9.4931151 155:-5.5360696 156:7.4622778 157:-1.6452988 158:-1.3372564 159:3.3761687 160:4.2642626 161:5.901479 162:-8.9241931 163:2.0951183 164:7.8467362 165:2.2209343 166:-3.7595351 167:-6.5958313 168:3.9470158 169:-0.50222462 170:-9.7051582 171:-8.1595263 172:-5.2809395 173:7.2927702 174:-1.5797519 175:-7.2106374 176:7.3484817 177:-5.0206422 178:-3.0031212 179:-4.3224806 180:3.5419996 181:7.0231737 182:4.3049461 183:0.12392234 184:1.8652191 185:-4.4045496 186:-5.2583663 187:-0.26949255 188:10.199427 189:5.3223392 190:-10.034119 191:-4.4187593 192:7.5684565 193:-5.7753283 194:2.6089345 195:-9.3525695 196:-8.1465841 197:-7.6946667 198:-4.9488102 199:-7.8251767 
0.030984519621655267 0:7.0890641 1:-4.5153659 2:-5.5784328 3:-0.51613633 4:6.8588716 5:11.259521 6:-8.8618485 7:-5.5618555 8:8.6787867 9:4.5770269 10:-8.2005924 11:3.2957584 12:-9.4723324 13:-9.2525366 14:-3.0769442 15:6.3863567 16:4.37535 17:3.9271758 18:-6.9780553 19:-1.1263596 20:-1.5986777 21:2.7774103 22:-7.8033313 23:8.5850045 24:1.6327381 25:3.7060833 26:0.4380993 27:-1.9769393 28:2.9138501 29:5.5376414 30:5.3149974 31:5.1155131 32:7.2644147 33:7.2605792 34:6.2308393 35:2.7036016 36:5.6286643 37:6.4463001 38:-7.8096912 39:-5.1366884 40:-1.6361539 41:-0.021393029 42:-0.19922301 43:-10.343105 44:3.2008039 45:6.1536845 46:-9.6813939 47:-4.8538174 48:-6.9720905 49:6.1202352 50:4.5542945 51:-1.9302296 52:6.4833631 53:-8.7767752 54:-3.4794555 55:-4.7009092 56:9.2286318 57:-7.1853853 58:-3.6177579 59:-5.7572726 60:6.428789 61:-5.9183276 62:8.5838835 63:-0.051892187 64:0.94568388 65:-2.1649504 66:-6.9742189 67:7.123202 68:9.6994413 69:-6.1259601 70:1.4508294 71:1.9198537 72:-1.0593008 73:6.352732 74:-2.7613683 75:3.6391235 76:2.2298592 77:-9.9136009 78:0.63728137 79:4.525655 80:-3.9065762 81:-4.3879181 82:2.7733454 83:6.7697636 84:8.0889604 85:6.3755655 86:-2.434251 87:-8.2549717 88:-0.41146526 89:-8.1524049 90:-4.4301707 91:-6.2901487 92:9.7240971 93:-7.1361027 94:-4.8643285 95:-7.3102073 96:9.6423018 97:-8.106273 98:-6.365182 99:-1.786688 100:4.6287189 101:-5.31867 102:7.4242568 103:-7.6695236 104:-5.478734 105:-7.0710547 106:1.1482238 107:-3.5122716 108:-10.303191 109:6.0384733 110:8.9060654 111:6.0949918 112:9.3806969 113:-6.7344864 114:9.6627649 115:-6.886951 116:-3.2594681 117:5.7887438 118:5.0766583 119:0.93386234 120:8.0685136 121:3.5791351 122:-7.6070255 123:-3.6944859 124:2.4285342 125:6.5658504 126:-10.054276 127:-0.17786675 128:5.8902364 129:5.4633545 130:-3.7772724 131:-4.6618751 132:10.358294 133:-0.045800332 134:-3.0842478 135:6.7663722 136:-3.3837619 137:7.7066425 138:-8.8826898 139:0.48921464 140:-10.367066 141:-6.1204204 142:6.0439235 143:2.9102949 144:0.48998226 145:-5.5360284 146:-4.0920007 147:-9.3092308 148:-2.5844564 149:-2.7567698 150:-4.2132241 151:8.533848 152:2.8426539 153:-3.8923995 154:-10.457871 155:-6.2506691 156:8.2143998 157:-1.1605774 158:-3.0959351 159:3.0444107 160:4.2644408 161:6.5023982 162:-9.7814851 163:1.9162486 164:9.3532605 165:3.6824732 166:-5.4174946 167:-4.2019641 168:3.8156517 169:-2.3661535 170:-10.395228 171:-10.138835 172:-4.9691602 173:9.2487024 174:-2.9187802 175:-5.2706005 176:8.9940813 177:-4.8321994 178:-3.0302517 179:-4.5508526 180:1.0696314 181:5.4532965 182:6.0872834 183:-0.060780014 184:2.1653805 185:-5.0891829 186:-4.0972071 187:-3.3929556 188:10.641254 189:5.909168 190:-9.3599779 191:-4.020193 192:6.0839117 193:-6.124864 194:-0.38472097 195:-6.4114491 196:-9.4738942 197:-6.7059355 198:-5.1939458 199:-6.3911323 
0.055064924202822767 0:8.9210624 1:-5.5071015 2:-3.5819304 3:-4.0612076 4:5.4565826 5:10.320092 6:-10.940149 7:-6.9109478 8:6.4283156 9:5.6945355 10:-8.1167127 11:4.0484729 12:-7.6216999 13:-9.3371489 14:-4.8041051 15:2.4590399 16:5.9450422 17:3.155568 18:-6.9704307 19:-2.0343198 20:-2.2541473 21:0.25383903 22:-5.0495921 23:8.5454012 24:0.37280405 25:4.1058192 26:0.44513488 27:-4.513129 28:6.0739395 29:5.7511447 30:7.5183886 31:4.3365411 32:5.2499113 33:6.0213507 34:7.743138 35:4.3090353 36:6.3331743 37:7.3369725 38:-8.1161092 39:-3.4502668 40:0.30664004 41:0.099965037 42:1.3819635 43:-8.5923009 44:2.3937694 45:6.7668142 46:-9.2414409 47:-7.1006868 48:-6.534713 49:7.4871178 50:5.7892916 51:-1.6835243 52:8.2502587 53:-6.7518395 54:-2.0444141 55:-2.5016419 56:7.183917 57:-7.7712442 58:-1.0515037 59:-6.9374817 60:6.0308765 61:-5.3702454 62:9.4020988 63:1.328098 64:0.42688162 65:-2.606522 66:-6.3633495 67:8.4167353 68:8.4404025 69:-3.9416137 70:0.26939886 71:2.235584 72:-1.1931727 73:4.3084126 74:-4.0560092 75:0.35002454 76:2.4720843 77:-8.860083 78:1.6391656 79:7.3073841 80:-5.6277019 81:-3.7492938 82:1.6914825 83:3.9473149 84:8.1070479 85:7.5735177 86:-4.6585807 87:-7.1516165 88:-0.37803459 89:-6.6571199 90:-4.0503689 91:-7.4152806 92:7.5058599 93:-8.5999207 94:-4.4817276 95:-5.4994377 96:10.884795 97:-5.5159813 98:-8.0064986 99:-1.2968805 100:4.5053265 101:-3.1853503 102:6.0913461 103:-6.9770344 104:-2.927462 105:-7.9988139 106:0.74696763 107:-3.1009343 108:-8.7469082 109:6.6047531 110:10.404353 111:6.8098705 112:8.8025796 113:-8.1892633 114:9.8287155 115:-8.3576491 116:-4.0136097 117:3.4691495 118:3.6562383 119:5.0182402 120:7.0331362 121:3.9895131 122:-7.2287203 123:-1.5232198 124:3.5440868 125:5.5320964 126:-6.6837913 127:-0.69100077 128:5.8627194 129:4.9346249 130:-3.8052715 131:-0.8468193 132:9.9394455 133:-1.5482666 134:-3.3256278 135:6.5322453 136:-1.7802333 137:7.2111472 138:-9.4714637 139:-0.57977861 140:-10.098932 141:-5.9711995 142:7.5766964 143:2.3305852 144:-0.30652372 145:-6.9466209 146:-2.30231 147:-6.3531476 148:-2.069521 149:0.21171628 150:-3.5608885 151:7.1954894 152:3.5362945 153:-4.2385592 154:-8.6511812 155:-7.4487616 156:9.1957767 157:-1.3034736 158:-2.0106085 159:0.23631985 160:5.891887 161:7.5199932 162:-7.2026794 163:4.4590221 164:8.6632985 165:3.7174193 166:-3.613009 167:-7.0295817 168:4.6904784 169:-2.7823193 170:-11.396415 171:-7.9124592 172:-5.8907518 173:8.0917648 174:-3.7244462 175:-6.383363 176:6.1677305 177:-3.1479859 178:-5.3236082 179:-3.7751186 180:2.9472591 181:7.9863201 182:3.6705286 183:-2.0326004 184:3.2651518 185:-4.4520346 186:-3.7518131 187:-1.3067697 188:9.1179947 189:5.5119321 190:-8.6439685 191:-3.0007206 192:6.6572559 193:-5.8887419 194:0.98732041 195:-7.9248831 196:-11.134219 197:-9.3596002 198:-3.6815927 199:-6.1721564 
0.036993416705390691 0:8.1664981 1:-4.024461 2:-5.8784182 3:-2.4878684 4:6.2478487 5:10.47182 6:-7.9301251 7:-5.8493635 8:6.0138354 9:6.0692339 10:-6.5111879 11:5.1379567 12:-8.3771038 13:-9.3900477 14:-5.2958592 15:4.0098062 16:7.3569869 17:3.4427271 18:-7.0395687 19:-2.8068576 20:-2.3932385 21:3.2983033 22:-7.3341999 23:8.7549432 24:-0.083442644 25:3.9051098 26:-1.9167944 27:-2.6484705 28:5.1668083 29:7.0370349 30:5.233064 31:5.2063419 32:6.8133617 33:6.599532 34:5.4079041 35:3.2949671 36:5.8044804 37:7.103471 38:-10.685252 39:-2.9829293 40:-1.5721934 41:1.3441105 42:-2.1963665 43:-9.2130537 44:2.4281795 45:6.9589164 46:-9.4476755 47:-5.0124708 48:-7.2264759 49:7.806649 50:4.2459725 51:-2.6927412 52:6.0912229 53:-11.629032 54:-2.8039737 55:-4.4616773 56:10.031616 57:-10.365683 58:1.6160086 59:-4.6646582 60:5.0962463 61:-6.3682354 62:10.235365 63:1.7553095 64:0.16759817 65:-2.6807393 66:-5.2030545 67:6.6985988 68:9.2961827 69:-3.140269 70:0.41368724 71:3.6105527 72:-1.9379156 73:4.283096 74:-4.3685798 75:-0.97508094 76:1.5993952 77:-9.8088179 78:2.7713641 79:6.0690687 80:-6.885432 81:-4.342295 82:2.7774004 83:6.0114042 84:6.1228095 85:7.3907533 86:-0.86103166 87:-7.4667517 88:-3.0400235 89:-7.0935374 90:-6.1514306 91:-6.3445747 92:7.8712351 93:-9.0900305 94:-4.4230671 95:-5.3121434 96:9.74143 97:-8.0818737 98:-7.0473598 99:-2.142714 100:5.0475845 101:-5.1597712 102:7.8156928 103:-7.1169126 104:-5.4921967 105:-6.361487 106:4.2410959 107:-3.7750465 108:-8.9310765 109:5.1123863 110:11.114484 111:5.731078 112:9.7789749 113:-5.3554866 114:9.3038669 115:-8.4024241 116:-3.0439644 117:4.0563118 118:2.0600442 119:4.6895218 120:8.6795007 121:4.1950602 122:-8.0192072 123:-3.3250086 124:4.1852833 125:5.4457105 126:-7.7654308 127:-0.88903723 128:6.1028202 129:5.7125274 130:-3.0638669 131:-3.0480457 132:9.8535376 133:-1.0122056 134:-4.5227895 135:7.0115572 136:-3.177208 137:8.1751328 138:-8.2579893 139:0.36919979 140:-9.3159216 141:-9.1046482 142:5.5434267 143:3.7679896 144:1.7029621 145:-7.3263106 146:-2.6841224 147:-8.6017373 148:-1.3550405 149:-1.5153454 150:-3.053489 151:6.6425171 152:3.7385407 153:-5.8188986 154:-10.321647 155:-5.8096519 156:6.9403144 157:-1.7340587 158:-1.6357699 159:1.8501317 160:5.7622182 161:7.8358819 162:-8.3015722 163:2.8447692 164:10.368647 165:2.5566098 166:-3.2671358 167:-4.5055004 168:3.3514333 169:-1.6218029 170:-8.3478592 171:-9.9276955 172:-4.5956403 173:9.4843455 174:-1.4553541 175:-3.8522453 176:7.975802 177:-3.9151998 178:-5.2132996 179:-4.272499 180:2.7192146 181:6.7911504 182:5.7064124 183:-0.50758786 184:2.5341083 185:-6.0811996 186:-3.1959476 187:-2.7592831 188:9.9056708 189:5.5597596 190:-10.734291 191:-2.5803316 192:8.1489802 193:-7.5527448 194:0.60052232 195:-6.5986359 196:-7.8919784 197:-7.3089202 198:-2.5594592 199:-4.9073388 
0.21203395394274177 0:9.4276255 1:-2.2973384 2:-4.1280371 3:-5.0580624 4:3.4948562 5:9.7510628 6:-10.889243 7:-5.5757062 8:5.1374126 9:3.2841976 10:-8.5050322 11:1.1532717 12:-7.7346563 13:-8.0557602 14:-5.5244158 15:4.3191783 16:6.5593004 17:2.3616328 18:-8.6261953 19:-3.2820345 20:-1.9529149 21:5.1693441 22:-7.0867963 23:9.6257285 24:0.99695654 25:3.5830061 26:-0.5045461 27:-3.2405184 28:4.5975099 29:7.1027108 30:6.9620151 31:4.3065986 32:4.7044186 33:5.5267173 34:6.7747412 35:6.5395068 36:4.5940654 37:7.179083 38:-6.9698019 39:-3.1657056 40:0.53226231 41:0.64082151 42:0.67093802 43:-9.8237119 44:1.0625656 45:7.0828991 46:-10.150016 47:-5.1762417 48:-7.3432822 49:8.5444107 50:4.8847103 51:-1.3384705 52:4.3118711 53:-9.9958189 54:-2.985245 55:-3.1939718 56:8.6019145 57:-7.9435412 58:-1.9000563 59:-6.6927021 60:7.0582576 61:-4.7848804 62:10.03433 63:2.0169951 64:-0.26750426 65:-2.0795066 66:-7.0223896 67:7.9460186 68:8.9165839 69:-4.5165492 70:2.1318014 71:2.635744 72:-0.30476017 73:6.8130259 74:-3.616806 75:0.96521833 76:1.5130369 77:-10.313173 78:0.21326059 79:7.6210271 80:-4.7027807 81:-2.7809211 82:2.7767329 83:5.1664004 84:6.9433452 85:6.7843534 86:-2.2477732 87:-8.873834 88:-0.75340769 89:-4.9741963 90:-5.7366751 91:-6.2421346 92:8.138305 93:-7.3660256 94:-5.6495583 95:-6.5171253 96:10.103874 97:-7.2434891 98:-7.4993263 99:-1.9173123 100:3.59952 101:-5.3043274 102:7.2001925 103:-9.3565379 104:-4.8260912 105:-8.1815826 106:-0.13074724 107:-2.5653665 108:-8.0896732 109:5.5279162 110:10.396576 111:5.8962878 112:8.0682047 113:-6.7612909 114:7.8623746 115:-8.0863496 116:-2.8266987 117:5.0642754 118:0.81596223 119:2.7256186 120:9.3339235 121:3.0768181 122:-7.4029987 123:-3.4287945 124:4.1387019 125:5.6939366 126:-9.0095127 127:0.87565788 128:6.1392982 129:4.6921244 130:-3.6023228 131:-1.6771741 132:9.3964852 133:0.79205454 134:-4.58172 135:7.2414729 136:-3.3828222 137:8.0504555 138:-9.1414463 139:-0.70095233 140:-6.7451169 141:-8.5085216 142:5.4745983 143:2.7705691 144:0.98663674 145:-4.6131529 146:-1.5344783 147:-9.7998114 148:-1.2261993 149:-2.2987485 150:-6.0001827 151:1.8743483 152:2.8551074 153:-4.5104717 154:-9.1867129 155:-7.2482772 156:6.6725193 157:-3.6351353 158:-4.925499 159:1.2291757 160:3.0924813 161:8.210933 162:-10.659165 163:1.3092872 164:8.3429059 165:0.33404753 166:-5.0847845 167:-6.3234823 168:3.2400052 169:-1.1104854 170:-11.107249 171:-7.3843927 172:-4.9793926 173:7.6532272 174:-2.9164931 175:-5.2753048 176:7.3773472 177:-4.3521869 178:-2.2288425 179:-4.9884908 180:1.7373245 181:7.5515273 182:5.9474061 183:0.49273807 184:3.3297298 185:-7.1517813 186:-4.3326774 187:-2.3731421 188:8.070573 189:8.5406679 190:-8.6347731 191:-5.2200875 192:5.9963516 193:-6.6414209 194:-0.99268688 195:-8.6511668 196:-10.629746 197:-7.6413655 198:-3.8914043 199:-7.0511976 
0.045027243638432697 0:8.8497765 1:-3.774051 2:-6.8645296 3:-2.5514534 4:5.4511348 5:9.4800384 6:-9.291758 7:-4.0925522 8:7.6166911 9:7.5346586 10:-6.9937854 11:0.86680533 12:-7.7924157 13:-10.199652 14:-3.7774967 15:5.313834 16:6.4994795 17:2.423001 18:-7.0555624 19:-0.70829693 20:-1.3669486 21:2.8759198 22:-7.6682327 23:7.4797824 24:0.7556538 25:2.6116449 26:-0.53632323 27:-0.83614697 28:5.1854201 29:8.2657807 30:6.6189715 31:5.080937 32:7.3426534 33:4.740976 34:6.3914529 35:4.6771757 36:6.1662514 37:5.5659598 38:-8.0656226 39:-3.0157904 40:-0.88394749 41:-1.8465368 42:-1.1979441 43:-8.9321155 44:2.964234 45:7.1679145 46:-10.446113 47:-4.5719264 48:-8.317374 49:7.5913753 50:5.3365769 51:-2.2717694 52:7.0364876 53:-9.2216309 54:-2.1626128 55:-4.38877 56:7.1530399 57:-8.7345387 58:-1.0396248 59:-6.7474591 60:7.8131654 61:-6.6560033 62:10.638446 63:2.0779467 64:-0.69687145 65:-4.3189558 66:-4.4036971 67:8.5415545 68:9.3570239 69:-3.8691687 70:-1.6779176 71:2.7691253 72:-2.5807553 73:3.4151017 74:-4.6765007 75:0.95834263 76:2.7701417 77:-12.642913 78:0.56293193 79:7.2095845 80:-4.6189449 81:-2.8607192 82:3.2560302 83:5.5074287 84:6.4260361 85:6.4743667 86:-1.9950112 87:-7.1558354 88:-2.6237783 89:-6.5572681 90:-3.6073122 91:-7.6955041 92:6.3911135 93:-9.1764508 94:-5.7082463 95:-6.0831644 96:7.7849039 97:-9.9220408 98:-6.1078868 99:-1.8957731 100:2.8502364 101:-3.412957 102:8.5824237 103:-7.1276837 104:-3.7632269 105:-6.9781024 106:0.80810382 107:-2.3815626 108:-7.8845614 109:6.4153343 110:7.7373606 111:6.1166984 112:9.1094046 113:-7.3456138 114:9.770447 115:-8.6112886 116:-3.190658 117:4.8560036 118:3.3544165 119:2.6079313 120:8.7722848 121:3.99836 122:-6.8460338 123:-2.1645182 124:3.1365729 125:6.4891008 126:-8.9322158 127:0.12318382 128:6.2623655 129:4.3983639 130:-2.0538874 131:-0.64790485 132:8.4199306 133:-0.40588809 134:-4.2186029 135:7.1077962 136:-1.6950884 137:5.3081656 138:-8.8288854 139:-0.93423085 140:-8.1263187 141:-8.1916236 142:6.017743 143:2.8344427 144:-0.33810132 145:-6.6950448 146:-2.1197787 147:-8.3442883 148:-0.68376241 149:-1.4536334 150:-1.3777082 151:4.7743519 152:2.1592251 153:-4.8996607 154:-8.3691697 155:-8.9250861 156:7.3192082 157:-1.8064311 158:-1.3171003 159:3.3233263 160:2.878079 161:5.8193314 162:-10.134765 163:2.3559094 164:8.0830435 165:1.5671348 166:-4.8118152 167:-6.0389419 168:3.1851998 169:-1.3239948 170:-10.102267 171:-8.4137615 172:-7.1893569 173:8.4129104 174:-3.4875647 175:-4.4502613 176:7.8552953 177:-3.3081766 178:-3.4419806 179:-3.9099496 180:1.8750749 181:7.2218927 182:5.2434486 183:-1.7824609 184:4.5000685 185:-4.0872579 186:-4.9097561 187:-1.800606 188:7.6100987 189:7.5548167 190:-8.9849349 191:-3.6247967 192:6.7585417 193:-6.5624129 194:-0.19679201 195:-8.8524677 196:-8.8124141 197:-8.1234095 198:-2.9867135 199:-7.3737678 
0.023518721163269751 0:7.5646405 1:-4.2480363 2:-3.5941848 3:-2.5879962 4:3.6329815 5:8.6710177 6:-8.3705949 7:-4.9735116 8:4.7217545 9:6.0670342 10:-6.605008 11:3.760026 12:-9.8077272 13:-10.076111 14:-5.9272727 15:4.9334897 16:7.3903197 17:3.1793522 18:-5.0210226 19:0.13764679 20:-3.5828788 21:0.80473083 22:-8.863271 23:9.8105371 24:-0.63127771 25:4.585771 26:0.45005954 27:-2.2844537 28:4.7157781 29:7.3673802 30:6.6765507 31:3.948076 32:5.8539649 33:7.533525 34:8.130055 35:3.5886026 36:5.4052207 37:6.9082277 38:-8.5575706 39:-4.349496 40:-1.843598 41:0.53814427 42:0.089099045 43:-10.095101 44:2.5280419 45:6.4223159 46:-9.5376107 47:-4.2756435 48:-9.0545814 49:7.2921848 50:3.3063285 51:-2.752006 52:6.2095 53:-8.6968356 54:-4.4605307 55:-4.2204727 56:8.7223102 57:-8.1430417 58:-1.8722157 59:-7.3128278 60:6.1256645 61:-5.0075141 62:12.511766 63:-0.35766271 64:0.50905921 65:-1.1367272 66:-5.3667221 67:8.2465221 68:8.6211489 69:-2.5015405 70:0.95078976 71:3.1402306 72:-0.079310268 73:6.020164 74:-1.9975626 75:1.7988208 76:2.4438329 77:-8.0890791 78:1.295881 79:7.2280142 80:-6.5881482 81:-4.8544606 82:2.6705162 83:6.6659779 84:8.5014886 85:6.7519902 86:-3.4949154 87:-8.1272415 88:-1.2875299 89:-5.696062 90:-4.6483753 91:-7.5321314 92:8.9523041 93:-7.5332 94:-4.1540382 95:-7.4348131 96:10.21487 97:-6.6421392 98:-6.6024874 99:-0.62380474 100:5.0850654 101:-4.2197794 102:5.2257623 103:-6.6433259 104:-5.0535464 105:-8.4914091 106:0.32391068 107:-5.0989874 108:-11.514221 109:5.5223028 110:7.9314947 111:5.5497845 112:10.006953 113:-7.1158921 114:9.0999813 115:-7.1184026 116:-3.068733 117:3.272058 118:2.980158 119:4.4250046 120:10.948593 121:3.3379454 122:-7.1419837 123:-2.18784 124:5.1051003 125:8.5168641 126:-7.0354332 127:0.31081238 128:7.6562286 129:4.8779659 130:-4.2066076 131:-2.0958956 132:10.982721 133:2.4082757 134:-4.6863461 135:6.451355 136:-3.0661316 137:6.761348 138:-9.8940749 139:0.53827574 140:-9.793923 141:-9.1490793 142:5.9961487 143:3.6026848 144:0.29783385 145:-5.5694563 146:-2.3863911 147:-9.2277149 148:-1.1787705 149:-1.5053537 150:-3.8072751 151:4.7237455 152:1.5903436 153:-4.0558738 154:-8.5651865 155:-6.0535786 156:7.9616136 157:-0.68898596 158:-4.1955119 159:1.7682583 160:6.3558339 161:6.9041197 162:-8.4504032 163:4.2708196 164:9.7556399 165:1.8562182 166:-2.00346 167:-5.5647293 168:4.2604478 169:-1.7268121 170:-11.301982 171:-8.327812 172:-6.7548928 173:8.914124 174:-4.5556743 175:-6.5425641 176:6.0746216 177:-2.7682346 178:-2.4067034 179:-3.1524924 180:4.6686144 181:6.4082207 182:6.113963 183:-1.5788085 184:1.9436288 185:-6.0078371 186:-6.4134293 187:-1.9192873 188:9.1140877 189:5.4345542 190:-9.4198068 191:-2.4767971 192:5.3961801 193:-6.64812 194:0.11180228 195:-7.2926623 196:-8.1828128 197:-7.9627303 198:-6.0249294 199:-8.1762277 
0.054465605350848337 0:6.6160454 1:-3.8531197 2:-3.7760366 3:-2.4118162 4:3.5858516 5:9.5141779 6:-9.9900834 7:-5.5681801 8:5.2348503 9:7.8638364 10:-8.9048993 11:3.6843931 12:-7.4952228 13:-9.3129016 14:-3.1474977 15:4.6546974 16:6.197582 17:3.8052937 18:-5.0840091 19:-0.38503988 20:-2.9994385 21:2.4979577 22:-7.7625884 23:8.6001313 24:-1.4058966 25:3.2062396 26:-0.52843669 27:-1.5766689 28:6.4320584 29:4.7815937 30:8.0663267 31:3.7148684 32:6.0976369 33:7.5640636 34:5.281543 35:5.1620653 36:4.5030705 37:4.9927998 38:-7.5079428 39:-4.1201974 40:-1.6752116 41:1.5960234 42:-2.0950363 43:-8.2957516 44:2.1287694 45:8.7359276 46:-9.3184821 47:-3.3580835 48:-7.0167283 49:8.1354208 50:4.9598091 51:-2.5574318 52:6.6377694 53:-6.13858 54:-1.13443 55:-2.6911555 56:6.4793444 57:-5.7211905 58:-1.0153685 59:-6.5990334 60:6.4372825 61:-5.4653651 62:9.7719709 63:1.0558696 64:2.5914382 65:-1.4302297 66:-4.9497436 67:6.723812 68:8.6234151 69:-5.1253888 70:-0.48302104 71:3.347662 72:-0.83985986 73:4.9031463 74:-3.3382659 75:1.0887599 76:1.5150109 77:-12.138197 78:0.5267912 79:5.0195757 80:-4.4524175 81:-2.2715442 82:2.7892911 83:5.6361317 84:7.7220126 85:6.8383887 86:-3.8486579 87:-8.7346152 88:-0.87951043 89:-7.2051589 90:-4.5903487 91:-6.8053077 92:7.8321615 93:-8.0551694 94:-6.8342118 95:-5.3425626 96:10.912557 97:-8.0277205 98:-7.7595843 99:-2.529012 100:4.2827832 101:-4.5908709 102:6.7917031 103:-6.5248176 104:-5.6912873 105:-8.0640774 106:1.5004345 107:-4.6264204 108:-10.160762 109:6.2647524 110:8.6387119 111:6.0918203 112:7.3867745 113:-4.8482961 114:7.4157148 115:-9.8222787 116:-2.8125446 117:3.6884071 118:2.2110695 119:2.5271545 120:8.1571644 121:2.5892567 122:-7.0119861 123:-2.4264071 124:3.5129481 125:5.1345234 126:-9.9215938 127:-0.88747883 128:5.1961175 129:4.6484043 130:-4.004267 131:-2.9630938 132:8.70692 133:0.55319464 134:-4.3231362 135:6.7297593 136:-3.9785848 137:6.4475068 138:-8.5862746 139:-0.62733938 140:-11.380892 141:-6.4584758 142:5.791779 143:3.1068026 144:-0.24310527 145:-4.5487266 146:-1.881986 147:-8.338479 148:0.014947037 149:-2.8191071 150:-4.1984517 151:3.6997321 152:2.1766713 153:-3.4567352 154:-6.4723443 155:-6.8067931 156:6.2534348 157:-3.0549201 158:-3.4533973 159:1.9127106 160:5.4752023 161:6.50424 162:-10.547095 163:0.63831201 164:8.3877025 165:0.93585512 166:-3.7300651 167:-5.7522061 168:3.31378 169:-3.0092033 170:-8.0681331 171:-9.7648873 172:-6.0920024 173:6.9827926 174:-1.694872 175:-5.6830338 176:8.4655058 177:-4.5814412 178:-2.6542848 179:-4.9766613 180:1.9338957 181:5.2226771 182:4.766865 183:-0.14654833 184:3.5003792 185:-4.6122456 186:-3.8917252 187:0.36080895 188:9.9199341 189:6.7515023 190:-10.081673 191:-1.8813441 192:6.9913265 193:-6.4542103 194:1.7915049 195:-7.4792508 196:-9.0931033 197:-6.9516847 198:-5.0202311 199:-6.9258076 
0.09314881765986649 0:8.3673753 1:-5.3087935 2:-3.5657548 3:-3.2511957 4:3.9023705 5:11.345465 6:-10.434712 7:-4.9593837 8:7.9016732 9:7.5527097 10:-7.7300891 11:3.9519684 12:-8.0945836 13:-11.217571 14:-4.3762824 15:3.2768296 16:4.779042 17:2.2621247 18:-6.6460019 19:-0.82539164 20:-1.2244306 21:1.1884618 22:-8.642046 23:8.6234291 24:2.0742023 25:5.28298 26:-0.17824751 27:-3.5536732 28:3.9452035 29:6.821829 30:7.198512 31:4.6650226 32:6.1726124 33:7.4995668 34:7.8810706 35:2.8928733 36:5.8916945 37:5.1950794 38:-10.057395 39:-5.3359667 40:-0.47248546 41:-0.60620789 42:-1.4851054 43:-7.3478169 44:1.1487492 45:7.0542101 46:-10.379854 47:-5.1208948 48:-7.378867 49:8.1063394 50:5.1779472 51:-3.4923592 52:6.866249 53:-9.0612864 54:-2.7022047 55:-2.5463094 56:9.2051644 57:-11.394014 58:-3.1814775 59:-7.9939549 60:7.4436761 61:-5.144883 62:9.6096011 63:-1.5017923 64:-0.1767621 65:-2.1308474 66:-6.6006723 67:7.7179731 68:7.9718878 69:-3.6837434 70:-0.97090836 71:1.8068505 72:-1.5145582 73:4.6768661 74:-3.3553935 75:1.6688737 76:2.1880852 77:-7.368049 78:-0.54174337 79:6.807121 80:-5.1362264 81:-2.8528939 82:0.87572581 83:4.1783155 84:9.0110158 85:7.4429648 86:-1.8317347 87:-7.9243869 88:0.28114512 89:-6.248605 90:-4.2558838 91:-7.3901509 92:7.4169744 93:-9.2312376 94:-4.6260182 95:-6.6461451 96:9.3389434 97:-8.785516 98:-7.7303354 99:-1.4658252 100:5.0887251 101:-3.7400667 102:7.2068684 103:-6.4201492 104:-3.2321201 105:-7.7777451 106:3.3333956 107:-3.2175228 108:-9.3288502 109:4.4196874 110:10.251566 111:4.5545899 112:9.263606 113:-4.0497236 114:9.0847485 115:-8.6451506 116:-4.1062905 117:6.0760956 118:2.3003203 119:3.3062603 120:9.0479955 121:3.0697764 122:-8.0120243 123:-3.3254936 124:3.0561356 125:5.127272 126:-10.249701 127:0.12626451 128:6.9442407 129:5.5444331 130:-4.0313937 131:-3.3725677 132:9.2515999 133:-1.507705 134:-1.1286865 135:7.3569668 136:-1.9143667 137:8.0624212 138:-7.4699914 139:0.38868351 140:-7.9889883 141:-7.1722856 142:6.1376409 143:2.693884 144:3.5638912 145:-5.7913568 146:-3.1087326 147:-7.6631325 148:-1.765922 149:-2.8410637 150:-3.0465612 151:6.4938345 152:1.694766 153:-3.5541697 154:-9.5057781 155:-7.3593609 156:6.1737922 157:-2.6250625 158:-4.1500602 159:1.7967542 160:3.7294717 161:8.0323437 162:-8.9841947 163:3.6057368 164:7.8957337 165:-0.10798446 166:-4.8904393 167:-5.4414097 168:2.2711126 169:-1.2903003 170:-9.4982849 171:-7.0441581 172:-5.977886 173:8.1190829 174:-3.9556944 175:-4.9592497 176:7.6170542 177:-3.0508718 178:-3.0475303 179:-1.9039254 180:1.838237 181:7.4356018 182:5.557614 183:0.2910585 184:2.7205533 185:-4.1135973 186:-4.6074408 187:-0.97266119 188:10.367144 189:6.3675917 190:-10.873821 191:-1.8149962 192:7.1817573 193:-6.2905751 194:-1.0855914 195:-4.7840605 196:-9.353761 197:-6.7110231 198:-4.4128176 199:-5.5460587 
0.085499621965316491 0:8.0179429 1:-5.5905293 2:-3.1334035 3:-1.2185934 4:3.5160978 5:9.5471631 6:-8.9151437 7:-6.1991257 8:5.4915221 9:3.3099144 10:-8.4762471 11:2.4159102 12:-9.271343 13:-10.891978 14:-2.7453215 15:3.5962666 16:4.8689063 17:5.4601101 18:-7.0766277 19:-1.8998744 20:-1.9956848 21:0.69507145 22:-9.0036341 23:9.8775827 24:0.893355 25:4.3501779 26:0.3869118 27:-3.2781894 28:6.4221266 29:7.8240446 30:6.3623542 31:4.5686238 32:5.879623 33:6.4639375 34:5.1368252 35:4.0939111 36:5.8315701 37:5.0923262 38:-8.9412451 39:-4.643749 40:-2.2932159 41:-0.1187492 42:-2.0212111 43:-8.9219649 44:3.053036 45:7.3090895 46:-9.497159 47:-4.6681618 48:-7.6724849 49:8.8527508 50:2.7716444 51:-3.5259037 52:8.1014183 53:-7.7507794 54:-1.5113178 55:-4.3861261 56:8.6874464 57:-7.3670576 58:-2.4789225 59:-5.4688563 60:7.9145342 61:-5.6399036 62:9.6113536 63:2.0480399 64:1.4413799 65:-1.0178261 66:-6.4343628 67:8.5922546 68:8.4040902 69:-4.5292844 70:1.5491087 71:2.8831831 72:-0.27921762 73:5.4113031 74:-3.1378528 75:2.1741884 76:2.5145566 77:-8.9835818 78:2.5792013 79:4.7648171 80:-6.2983474 81:-5.1026443 82:1.2051401 83:7.1876011 84:8.0878798 85:5.9824969 86:-1.0259871 87:-7.6055678 88:-2.7633081 89:-5.717405 90:-3.0426114 91:-5.1497433 92:7.8057861 93:-7.387622 94:-6.0583776 95:-7.0756755 96:9.7755889 97:-8.6557513 98:-7.2265653 99:-0.52149913 100:2.9681597 101:-4.1489938 102:5.5275694 103:-8.2448015 104:-5.5412684 105:-7.3742428 106:-1.0126864 107:-7.100668 108:-10.087436 109:4.2346375 110:9.9087054 111:4.6810452 112:7.6097364 113:-6.6288355 114:9.1802322 115:-5.4181684 116:-4.2909517 117:2.7560132 118:3.1486764 119:4.0010769 120:7.11785 121:4.5401382 122:-7.7925691 123:-2.2881601 124:3.5096847 125:5.940141 126:-8.7946076 127:-2.3646176 128:5.3424331 129:5.1653092 130:-4.251329 131:-1.2876827 132:11.339174 133:0.086723016 134:-3.9768004 135:7.2134974 136:-4.7978366 137:7.45094 138:-8.9284398 139:0.90540055 140:-9.3488026 141:-7.7798489 142:5.3566642 143:2.1900268 144:-1.5648821 145:-6.8008084 146:-2.5853543 147:-7.1980338 148:-0.51680724 149:-1.935095 150:-2.4880107 151:7.9486769 152:2.8633671 153:-3.978572 154:-8.9417789 155:-7.4385926 156:6.0014381 157:-1.5633853 158:-2.6235853 159:1.6024484 160:3.8663149 161:8.912304 162:-8.3376985 163:2.9990516 164:7.9942613 165:0.91482477 166:-4.1200203 167:-7.0388036 168:3.5854333 169:-1.6302418 170:-9.1776815 171:-9.6971255 172:-5.2959954 173:7.7365921 174:-4.6286128 175:-4.0286244 176:7.7821486 177:-2.324176 178:-2.51184 179:-4.700451 180:4.8329709 181:6.6996336 182:4.5174013 183:-1.5662435 184:3.0002753 185:-4.477011 186:-3.7215526 187:-0.042655657 188:9.6026611 189:8.0990521 190:-8.2044675 191:-2.6436669 192:6.7215193 193:-7.0904142 194:0.19716658 195:-6.9552287 196:-8.3858596 197:-7.5447905 198:-4.0221988 199:-6.1378158 
0.15968188385414242 0:10.359832 1:-3.6691494 2:-6.3657662 3:-3.0934603 4:2.3798474 5:11.868506 6:-8.7956128 7:-3.6959297 8:7.1705408 9:3.8811103 10:-7.8322675 11:2.0102459 12:-9.0835012 13:-10.705018 14:-6.1541611 15:3.2965974 16:5.1785402 17:3.2477305 18:-8.0606459 19:-0.48559305 20:-0.30459285 21:2.687528 22:-7.2599083 23:10.182037 24:-0.22150767 25:3.4266307 26:0.98280842 27:-2.4328648 28:4.7047768 29:5.8629579 30:5.2751766 31:4.30833 32:5.0776204 33:8.4113662 34:7.1693823 35:3.1878547 36:6.625565 37:5.2351369 38:-10.72464 39:-4.0762293 40:-0.73313453 41:-0.44896539 42:-0.69892793 43:-8.6105626 44:1.7506318 45:7.2727725 46:-9.5047905 47:-4.9845497 48:-7.3075085 49:9.6383182 50:3.32065 51:-1.6341941 52:7.7460897 53:-10.85543 54:-1.6780947 55:-3.8481804 56:9.1029845 57:-7.6419949 58:-1.0047533 59:-6.4454654 60:6.6427158 61:-6.5440905 62:8.2736658 63:1.3051511 64:0.67843172 65:-0.2497597 66:-6.3365221 67:6.9450656 68:8.7702124 69:-4.5955482 70:1.7797945 71:4.3703702 72:-1.6361063 73:6.5734368 74:-4.7119372 75:3.2073071 76:1.9929266 77:-9.7386224 78:2.5239248 79:6.7039824 80:-3.7321646 81:-2.9672009 82:4.3392151 83:5.2033093 84:7.2546466 85:6.8094252 86:-2.9261422 87:-7.8040862 88:0.12355061 89:-7.1174719 90:-2.1121941 91:-7.3361623 92:10.268973 93:-9.3960259 94:-5.4077998 95:-7.7810366 96:9.6784963 97:-7.0519456 98:-7.2306976 99:-1.044185 100:5.8338629 101:-2.1003464 102:6.9967861 103:-7.8532039 104:-4.9057371 105:-8.7662201 106:-0.46547758 107:-4.194802 108:-9.3326997 109:6.3717266 110:9.3651402 111:6.0691741 112:8.2971191 113:-5.6898454 114:10.562906 115:-7.1764978 116:-4.4616079 117:5.6450923 118:3.3845 119:3.2421468 120:8.8964683 121:2.5001228 122:-7.8615836 123:-3.1344573 124:5.464205 125:6.022311 126:-9.1837726 127:1.2894512 128:3.2895764 129:3.818981 130:-2.577662 131:-3.3422134 132:7.2380986 133:-0.21408486 134:-2.7767932 135:5.0095709 136:-4.5679705 137:6.5337251 138:-8.4788605 139:0.067867812 140:-9.7455963 141:-7.0976095 142:6.0187881 143:3.1490455 144:0.38274921 145:-5.6969991 146:-1.2355523 147:-6.6860594 148:-0.35307434 149:-1.1291797 150:-3.3918143 151:6.7188953 152:4.568833 153:-1.6840947 154:-7.6960284 155:-5.5667713 156:7.6474555 157:-2.9206189 158:-2.9841731 159:1.812918 160:4.3474668 161:8.6753404 162:-8.7408311 163:1.3073915 164:8.7914169 165:0.52763169 166:-3.2030228 167:-4.3589237 168:4.0198977 169:-2.4051856 170:-9.1067818 171:-7.4475565 172:-5.2831706 173:7.649532 174:-5.991614 175:-6.0879969 176:6.3149675 177:-1.8885188 178:-2.9110583 179:-4.2817882 180:1.764 181:4.8901333 182:5.9577114 183:-1.2074933 184:1.4343857 185:-7.351821 186:-4.0512899 187:-0.18283721 188:10.245557 189:7.0321718 190:-9.1879348 191:-3.3854082 192:6.442688 193:-5.3149218 194:1.1335755 195:-6.8229403 196:-9.8602142 197:-7.2899593 198:-7.0285218 199:-6.8407421 
