svm_type c_svc
kernel_type linear
nr_class 2
total_sv 500
rho 0.06926788200837564
label 1 -1
nr_sv 250 250
SV
0.01597821850283763 0:6.876543e+00 1:4.388984e+00 2:7.096072e+00 3:8.475316e-01 4:-9.494735e+00 5:-3.864417e-01 6:-7.912209e+00 7:-2.360693e+00 8:-6.329988e+00 9:5.013141e+00 10:-6.021544e+00 11:-7.699929e+00 12:-5.367436e+00 13:7.623581e+00 14:-2.961479e-01 15:-3.281866e+00 16:-6.669047e+00 17:-5.966973e+00 18:4.570637e+00 19:1.062763e+01 20:-3.429594e+00 21:-4.829431e+00 22:-6.574797e+00 23:-6.426113e+00 24:-5.622237e+00 25:-5.347280e+00 26:8.824207e+00 27:-6.579579e+00 28:5.018349e+00 29:6.919198e+00 30:1.059492e+01 31:-7.611596e+00 32:-3.091554e+00 33:6.260069e+00 34:4.109584e+00 35:8.371257e+00 36:-9.375482e-01 37:-8.374693e+00 38:-4.259162e+00 39:-8.635491e+00 40:-8.502552e+00 41:3.762342e+00 42:7.181256e-02 43:6.590069e+00 44:-1.423900e+00 45:-4.737033e+00 46:1.424606e+00 47:6.917531e+00 48:-4.752549e-01 49:-5.440520e+00 50:2.542698e+00 51:-6.982022e+00 52:-9.452945e+00 53:-1.195270e+00 54:1.301351e+00 55:3.468263e+00 56:-8.349336e+00 57:7.542811e+00 58:9.126852e+00 59:-1.883273e+00 60:4.762270e+00 61:-1.199972e+00 62:-3.594478e+00 63:6.741509e+00 64:5.576245e+00 65:-2.216227e+00 66:-2.880946e-01 67:3.665047e+00 68:-9.288896e+00 69:-9.029645e+00 70:1.038400e+01 71:-3.155140e+00 72:8.924044e+00 73:4.139710e+00 74:-1.082935e+01 75:-8.269905e+00 76:5.924122e+00 77:-9.000953e+00 78:-2.579924e+00 79:-2.984645e-01 80:-6.720129e-01 81:-2.591222e+00 82:-7.424046e+00 83:-3.947192e+00 84:-3.257440e+00 85:-1.003566e+01 86:9.296268e+00 87:1.622676e+00 88:1.149677e-01 89:-4.316640e+00 90:6.152754e+00 91:-8.498842e+00 92:-7.453490e+00 93:6.310064e+00 94:3.312541e+00 95:6.376196e+00 96:-7.967247e+00 97:1.428798e+00 98:-9.121316e+00 99:-1.568878e+00 100:-2.260858e+00 101:4.770611e+00 102:-6.954107e-01 103:-6.961545e+00 104:9.161006e+00 105:4.131713e+00 106:2.623190e+00 107:2.194192e+00 108:-4.872078e+00 109:3.458736e+00 110:1.445215e+00 111:3.025341e+00 112:-1.091533e+01 113:6.370803e+00 114:3.444062e+00 115:2.114206e+00 116:-4.792392e+00 117:4.943845e+00 118:-7.744839e+00 119:-6.749430e+00 120:-8.121556e+00 121:-8.861892e+00 122:3.430096e+00 123:-5.168964e+00 124:4.017966e+00 125:-7.109598e+00 126:7.523692e+00 127:-4.248363e+00 128:3.415958e+00 129:1.888047e+00 130:-5.872783e-02 131:2.352435e+00 132:-3.887085e+00 133:-6.647104e+00 134:-9.260365e+00 135:-7.380396e+00 136:-1.020522e-01 137:4.820513e+00 138:3.053129e+00 139:3.915102e-01 140:2.287533e+00 141:1.501991e+00 142:2.758474e+00 143:2.358536e+00 144:-2.741224e+00 145:-3.031776e-01 146:-5.213633e+00 147:-2.612687e+00 148:-4.760998e+00 149:-1.640890e-01 150:-3.326527e+00 151:1.532472e+00 152:7.528614e+00 153:9.794842e+00 154:5.741148e+00 155:-9.017317e+00 156:5.773965e+00 157:-1.072111e+01 158:6.423320e+00 159:6.204222e+00 160:-8.154469e+00 161:-6.882976e+00 162:-5.215597e+00 163:6.680033e+00 164:-1.341660e+00 165:2.085366e+00 166:3.985649e+00 167:-7.044681e+00 168:-1.103550e+01 169:2.169264e+00 170:1.950581e-01 171:3.022316e+00 172:1.005222e+01 173:-9.569724e+00 174:-6.200593e+00 175:-1.021827e+01 176:-4.513785e+00 177:3.374211e+00 178:-1.016189e+01 179:-6.533515e+00 180:-5.893543e-01 181:-6.385397e+00 182:6.219113e+00 183:-3.517472e+00 184:3.965085e+00 185:-2.287157e+00 186:7.104635e+00 187:3.712396e+00 188:2.187506e-01 189:-5.823695e+00 190:-6.853538e+00 191:3.052012e-01 192:2.509827e+00 193:4.707914e+00 194:-5.198575e+00 195:-3.423560e+00 196:5.404031e+00 197:-6.537579e+00 198:-4.881117e+00 199:-4.712741e+00 
0.006252589394164891 0:5.711415e+00 1:2.243043e+00 2:5.643688e+00 3:2.663269e+00 4:-1.167403e+01 5:-2.783995e-01 6:-6.002175e+00 7:-4.079293e+00 8:-5.851633e+00 9:4.669649e+00 10:-6.405911e+00 11:-9.695284e+00 12:-6.617464e+00 13:8.410149e+00 14:-1.709456e+00 15:-1.256370e+00 16:-6.729195e+00 17:-7.986233e+00 18:4.336858e+00 19:7.676488e+00 20:-2.297207e+00 21:-1.658187e+00 22:-4.916362e+00 23:-7.588137e+00 24:-5.758242e+00 25:-4.499813e+00 26:8.866231e+00 27:-4.874478e+00 28:6.098766e+00 29:2.852250e+00 30:9.943741e+00 31:-9.239492e+00 32:-2.751037e+00 33:7.453888e+00 34:3.273412e+00 35:8.429125e+00 36:-4.114334e-01 37:-9.522304e+00 38:-3.890568e+00 39:-8.815642e+00 40:-8.780776e+00 41:4.044361e+00 42:1.490365e+00 43:6.502485e+00 44:2.500047e+00 45:-7.002328e+00 46:1.550091e+00 47:5.773911e+00 48:-9.787131e-01 49:-8.016674e+00 50:3.501679e+00 51:-7.755838e+00 52:-7.878928e+00 53:-2.267007e-01 54:-1.459450e-01 55:1.971334e+00 56:-7.501335e+00 57:6.513128e+00 58:7.891669e+00 59:-2.527293e+00 60:4.241958e+00 61:5.940638e-02 62:-3.141371e-01 63:5.751611e+00 64:4.121115e+00 65:-1.654436e-01 66:-2.040156e-01 67:4.998049e+00 68:-7.350715e+00 69:-8.687894e+00 70:9.258587e+00 71:-3.776584e+00 72:8.113524e+00 73:5.631397e+00 74:-8.673296e+00 75:-8.035100e+00 76:5.963953e+00 77:-8.219919e+00 78:-1.639617e+00 79:8.377820e-01 80:-1.016133e+00 81:-3.102375e+00 82:-9.377261e+00 83:-2.152686e+00 84:-2.259919e+00 85:-8.732067e+00 86:6.281261e+00 87:1.870951e+00 88:1.772668e+00 89:-3.109249e+00 90:7.285694e+00 91:-7.262487e+00 92:-8.136845e+00 93:4.245100e+00 94:1.342827e+00 95:5.477466e+00 96:-8.812858e+00 97:3.139420e+00 98:-7.660727e+00 99:-7.740683e-01 100:-1.969583e+00 101:3.661800e+00 102:-1.488545e+00 103:-8.206831e+00 104:9.437291e+00 105:4.457713e+00 106:3.756437e+00 107:2.380333e+00 108:-4.147846e+00 109:1.679308e+00 110:2.460781e+00 111:2.727610e+00 112:-7.180946e+00 113:7.918809e+00 114:4.566128e+00 115:2.289471e+00 116:-2.958344e+00 117:6.069116e+00 118:-5.667922e+00 119:-5.866761e+00 120:-8.544085e+00 121:-1.023339e+01 122:4.242032e+00 123:-4.184057e+00 124:4.276033e+00 125:-6.048198e+00 126:5.371809e+00 127:-6.148612e+00 128:3.694548e-01 129:2.715762e+00 130:-2.064679e+00 131:1.107254e+00 132:-4.052924e+00 133:-8.478712e+00 134:-8.026623e+00 135:-6.326957e+00 136:-2.238632e+00 137:2.314945e+00 138:5.140944e+00 139:7.261213e-01 140:2.394028e+00 141:2.067268e+00 142:1.917259e+00 143:2.169729e+00 144:-4.338994e+00 145:-7.249137e-01 146:-2.609720e+00 147:-8.593538e-01 148:-4.658162e+00 149:-2.462683e-01 150:-2.549907e+00 151:3.907794e+00 152:6.186836e+00 153:8.463216e+00 154:8.031105e+00 155:-8.815830e+00 156:6.039738e+00 157:-9.613776e+00 158:6.757317e+00 159:7.323346e+00 160:-8.427378e+00 161:-5.510312e+00 162:-3.798342e+00 163:9.237545e+00 164:-1.922730e+00 165:1.446079e+00 166:7.381664e+00 167:-8.965330e+00 168:-1.004809e+01 169:1.615905e+00 170:2.702076e+00 171:8.048370e-01 172:1.025353e+01 173:-1.065781e+01 174:-6.939656e+00 175:-9.787027e+00 176:-2.591870e+00 177:1.913050e-01 178:-1.129152e+01 179:-8.591992e+00 180:-1.975265e+00 181:-4.998829e+00 182:6.684398e+00 183:-4.122743e+00 184:7.592761e+00 185:-1.795290e-01 186:5.582729e+00 187:3.435104e+00 188:-1.604320e+00 189:-6.462142e+00 190:-8.174713e+00 191:1.893665e-01 192:4.944422e+00 193:2.905614e+00 194:-8.386400e+00 195:-2.295784e+00 196:5.648546e+00 197:-4.938879e+00 198:-2.770117e+00 199:-4.684826e+00 
-0.011635939555467396 0:7.873282e+00 1:4.674469e+00 2:6.573296e+00 3:4.251216e-01 4:-1.009381e+01 5:-2.793948e-01 6:-9.638403e+00 7:-3.915530e+00 8:-6.865887e+00 9:4.232173e+00 10:-6.053322e+00 11:-7.750199e+00 12:-3.364497e+00 13:9.761608e+00 14:-5.116313e+00 15:-2.696337e+00 16:-6.750350e+00 17:-8.728087e+00 18:6.106426e+00 19:9.754361e+00 20:-3.989422e+00 21:-2.730110e+00 22:-3.150135e+00 23:-5.972122e+00 24:-4.690597e+00 25:-7.610970e+00 26:8.033787e+00 27:-5.146097e+00 28:8.345861e+00 29:5.884955e+00 30:1.114726e+01 31:-9.999982e+00 32:-2.670254e+00 33:7.119723e+00 34:4.869953e+00 35:8.673336e+00 36:-1.282183e+00 37:-1.028402e+01 38:-5.521341e+00 39:-8.745351e+00 40:-8.581829e+00 41:5.212699e+00 42:2.203126e+00 43:7.069316e+00 44:1.252027e+00 45:-4.125206e+00 46:1.822427e+00 47:5.605317e+00 48:4.850408e-01 49:-6.975293e+00 50:3.511901e+00 51:-7.672186e+00 52:-9.628039e+00 53:-8.494412e-01 54:-1.848690e-02 55:4.304913e+00 56:-8.040925e+00 57:7.369261e+00 58:8.631421e+00 59:-1.933520e+00 60:5.555416e+00 61:-1.632969e+00 62:-1.941058e-01 63:6.770249e+00 64:5.170880e+00 65:-5.806491e-01 66:9.887730e-01 67:3.914737e+00 68:-8.049732e+00 69:-8.284953e+00 70:9.126707e+00 71:-3.942142e+00 72:7.836438e+00 73:4.324065e+00 74:-1.017448e+01 75:-9.299375e+00 76:6.431811e+00 77:-7.575804e+00 78:-1.572216e-01 79:4.305735e-01 80:-3.168603e-01 81:-1.677481e+00 82:-9.219750e+00 83:-4.195221e+00 84:-6.059791e+00 85:-1.061157e+01 86:6.985351e+00 87:1.441756e+00 88:6.414679e-01 89:-5.835430e+00 90:5.477084e+00 91:-8.495364e+00 92:-9.010830e+00 93:5.856015e+00 94:2.782659e+00 95:5.146535e+00 96:-8.477241e+00 97:1.980863e+00 98:-7.316822e+00 99:-1.120355e+00 100:-2.713578e+00 101:4.045980e+00 102:-2.294148e+00 103:-7.134464e+00 104:9.901066e+00 105:3.461807e+00 106:4.459899e+00 107:2.553657e+00 108:-4.112297e+00 109:4.151351e+00 110:2.407548e+00 111:5.137747e+00 112:-9.126547e+00 113:8.118200e+00 114:5.194512e+00 115:2.078917e+00 116:-3.386089e+00 117:5.341097e+00 118:-5.636123e+00 119:-5.527157e+00 120:-7.126682e+00 121:-9.694184e+00 122:3.346872e+00 123:-3.341923e+00 124:8.154047e-01 125:-6.377403e+00 126:4.293393e+00 127:-5.458744e+00 128:2.353795e+00 129:3.063143e+00 130:-1.802539e+00 131:2.890143e+00 132:-3.343756e+00 133:-7.241767e+00 134:-1.128468e+01 135:-6.752978e+00 136:-7.772474e-01 137:2.498378e+00 138:2.323936e+00 139:7.037006e-01 140:7.847664e-02 141:1.103893e+00 142:1.685045e+00 143:5.377370e+00 144:-3.646939e+00 145:-1.199523e+00 146:-3.109284e+00 147:7.299706e-02 148:-3.285687e+00 149:-4.085794e-01 150:-2.539705e+00 151:3.127159e+00 152:6.040818e+00 153:1.029653e+01 154:7.071987e+00 155:-9.177668e+00 156:5.886396e+00 157:-9.725111e+00 158:6.516506e+00 159:6.405971e+00 160:-7.584356e+00 161:-3.561177e+00 162:-4.283502e+00 163:1.068670e+01 164:-3.824092e-01 165:4.705661e+00 166:6.210248e+00 167:-6.676321e+00 168:-1.242631e+01 169:1.772564e+00 170:6.253980e-01 171:1.748449e+00 172:9.745952e+00 173:-9.728763e+00 174:-5.305080e+00 175:-9.130619e+00 176:-3.974681e+00 177:2.970731e+00 178:-9.396321e+00 179:-7.712767e+00 180:-2.026741e+00 181:-5.705116e+00 182:6.110281e+00 183:-4.951604e+00 184:6.147868e+00 185:-1.079682e+00 186:5.367089e+00 187:4.511317e+00 188:-3.256209e-02 189:-4.199300e+00 190:-6.439162e+00 191:6.585248e-01 192:2.268294e+00 193:3.774725e+00 194:-7.266869e+00 195:-3.032480e+00 196:5.876491e+00 197:-6.575680e+00 198:-3.891899e+00 199:-4.944611e+00 
0.01521461721250335 0:7.611314e+00 1:3.532495e+00 2:4.505493e+00 3:1.134596e+00 4:-9.877940e+00 5:7.126046e-01 6:-7.881779e+00 7:-6.253777e+00 8:-4.658826e+00 9:5.171457e+00 10:-4.920028e+00 11:-8.469751e+00 12:-3.101098e+00 13:1.149810e+01 14:-1.074545e+00 15:-3.709549e+00 16:-6.744860e+00 17:-4.401036e+00 18:4.827835e+00 19:1.128513e+01 20:-2.859116e+00 21:-2.525356e+00 22:-5.973622e+00 23:-7.767153e+00 24:-6.165412e+00 25:-6.552388e+00 26:9.777915e+00 27:-6.314134e+00 28:8.141788e+00 29:4.873042e+00 30:9.033415e+00 31:-8.877768e+00 32:-2.534444e+00 33:5.652422e+00 34:5.191045e+00 35:6.266918e+00 36:-3.199341e+00 37:-9.182530e+00 38:-3.722387e+00 39:-9.404782e+00 40:-9.819913e+00 41:4.784609e+00 42:1.238048e-01 43:7.167777e+00 44:7.074854e-01 45:-3.853570e+00 46:2.465881e+00 47:6.080154e+00 48:-1.212333e+00 49:-6.399433e+00 50:3.152650e+00 51:-7.246941e+00 52:-7.162479e+00 53:-1.114980e+00 54:1.164693e+00 55:1.905920e+00 56:-8.656838e+00 57:8.571151e+00 58:6.511680e+00 59:-1.120553e+00 60:4.953258e+00 61:-2.045680e+00 62:-1.925596e+00 63:5.404833e+00 64:5.178067e+00 65:-1.893962e-01 66:-6.708752e-01 67:3.155137e+00 68:-8.018870e+00 69:-8.487354e+00 70:7.959714e+00 71:-3.620810e+00 72:8.381989e+00 73:6.701515e+00 74:-9.722135e+00 75:-8.378349e+00 76:5.966494e+00 77:-6.381307e+00 78:-1.519685e+00 79:-4.927374e-01 80:-2.079630e+00 81:-2.808833e+00 82:-7.326584e+00 83:-3.444351e+00 84:-4.426794e+00 85:-8.281236e+00 86:8.562858e+00 87:2.316919e+00 88:-7.151424e-01 89:-4.578401e+00 90:7.653223e+00 91:-5.734918e+00 92:-7.112158e+00 93:4.100566e+00 94:1.562080e+00 95:7.252335e+00 96:-9.205409e+00 97:2.120791e+00 98:-7.334384e+00 99:-3.337057e+00 100:-2.387614e+00 101:5.369845e+00 102:-1.323992e+00 103:-6.137786e+00 104:8.142964e+00 105:3.400249e+00 106:4.539609e+00 107:1.702633e+00 108:-4.622356e+00 109:3.004974e+00 110:1.926551e+00 111:4.237296e+00 112:-7.742469e+00 113:6.056448e+00 114:4.311061e+00 115:5.065656e-01 116:-1.931105e+00 117:5.704540e+00 118:-7.288708e+00 119:-5.552160e+00 120:-9.780633e+00 121:-9.490949e+00 122:2.209035e+00 123:-4.598808e+00 124:2.119330e+00 125:-8.178403e+00 126:5.427865e+00 127:-6.301408e+00 128:2.312455e+00 129:3.753473e+00 130:-1.678802e+00 131:1.646627e+00 132:-9.663627e-01 133:-9.144261e+00 134:-7.394901e+00 135:-7.102932e+00 136:1.432371e+00 137:3.330577e+00 138:3.413111e+00 139:1.661931e-01 140:2.828433e+00 141:1.013676e+00 142:1.689876e+00 143:4.451134e+00 144:-3.714686e+00 145:-1.008946e+00 146:-2.449146e+00 147:-5.090898e-01 148:-4.466668e+00 149:-1.194312e+00 150:-2.908820e+00 151:1.829372e+00 152:6.396843e+00 153:1.135266e+01 154:6.213870e+00 155:-9.500311e+00 156:7.144149e+00 157:-9.139868e+00 158:7.451029e+00 159:4.781985e+00 160:-6.159601e+00 161:-3.807271e+00 162:-4.022378e+00 163:1.034821e+01 164:1.079335e-02 165:3.330669e+00 166:4.429093e+00 167:-7.218416e+00 168:-1.036393e+01 169:2.746347e+00 170:3.123900e+00 171:1.891509e+00 172:1.053851e+01 173:-1.189361e+01 174:-7.901259e+00 175:-1.105977e+01 176:-1.367853e+00 177:4.458902e+00 178:-9.053918e+00 179:-8.149769e+00 180:-8.741104e-01 181:-6.806184e+00 182:7.461134e+00 183:-4.542259e+00 184:6.140624e+00 185:-3.412784e-01 186:6.350784e+00 187:3.738063e+00 188:-8.557788e-01 189:-6.374895e+00 190:-5.035238e+00 191:3.513537e-02 192:3.437886e+00 193:4.347478e+00 194:-4.723754e+00 195:-2.685189e+00 196:4.894797e+00 197:-7.586559e+00 198:-4.797913e+00 199:-5.031951e+00 
-0.027662720221360577 0:9.196980e+00 1:3.819649e+00 2:6.820559e+00 3:2.283289e+00 4:-8.945850e+00 5:4.518278e-02 6:-6.134037e+00 7:-4.488464e+00 8:-5.911541e+00 9:4.262877e+00 10:-7.811074e+00 11:-9.572315e+00 12:-2.703977e+00 13:9.165030e+00 14:-2.501652e+00 15:-3.052516e+00 16:-6.947403e+00 17:-7.504560e+00 18:4.745329e+00 19:9.353331e+00 20:-3.885111e+00 21:-4.339637e+00 22:-4.729229e+00 23:-6.627597e+00 24:-6.636248e+00 25:-4.941556e+00 26:9.224627e+00 27:-6.005774e+00 28:6.455339e+00 29:5.174364e+00 30:8.622740e+00 31:-8.453111e+00 32:-3.351098e+00 33:7.104345e+00 34:3.319252e+00 35:7.518792e+00 36:-7.909976e-01 37:-8.659462e+00 38:-5.739374e+00 39:-6.084607e+00 40:-6.583829e+00 41:3.524029e+00 42:8.778679e-01 43:6.523635e+00 44:-5.590264e-01 45:-3.677301e+00 46:2.748848e+00 47:5.219379e+00 48:-1.505453e+00 49:-8.016731e+00 50:3.697884e+00 51:-5.988038e+00 52:-8.857526e+00 53:-2.408422e-01 54:3.456437e-02 55:3.010922e+00 56:-9.268964e+00 57:8.783564e+00 58:8.692537e+00 59:-9.345124e-01 60:6.135924e+00 61:-1.877128e+00 62:-2.343672e+00 63:6.101763e+00 64:3.771965e+00 65:-1.014087e+00 66:2.256886e-01 67:3.985787e+00 68:-6.923897e+00 69:-9.281135e+00 70:1.012743e+01 71:-4.124087e+00 72:8.665289e+00 73:4.767145e+00 74:-1.024308e+01 75:-7.592535e+00 76:6.818675e+00 77:-7.264995e+00 78:-2.786387e+00 79:-3.545066e+00 80:-9.767669e-01 81:-2.168614e+00 82:-7.392916e+00 83:-3.346837e+00 84:-2.814485e+00 85:-9.149090e+00 86:7.748556e+00 87:2.333627e+00 88:2.317748e+00 89:-4.604356e+00 90:6.750655e+00 91:-7.967922e+00 92:-9.193759e+00 93:1.611183e+00 94:2.968224e+00 95:7.684582e+00 96:-7.147604e+00 97:2.352542e+00 98:-6.804359e+00 99:-2.523763e+00 100:-1.439295e+00 101:4.266007e+00 102:5.131119e-01 103:-6.913791e+00 104:8.864866e+00 105:6.437090e+00 106:2.983989e+00 107:2.821351e+00 108:-4.862751e+00 109:4.399627e+00 110:3.366512e+00 111:4.985894e+00 112:-9.267725e+00 113:7.366819e+00 114:5.892136e+00 115:2.909168e+00 116:-3.739164e+00 117:7.185158e+00 118:-6.194254e+00 119:-7.188362e+00 120:-7.881126e+00 121:-9.179455e+00 122:1.738852e+00 123:-5.528044e+00 124:2.149329e+00 125:-6.848757e+00 126:4.988425e+00 127:-5.491114e+00 128:1.645887e+00 129:4.477697e-01 130:6.900470e-01 131:2.340535e+00 132:-4.564429e+00 133:-8.713402e+00 134:-8.272197e+00 135:-6.192312e+00 136:7.721740e-01 137:3.553953e+00 138:3.812871e+00 139:2.982016e+00 140:3.084715e+00 141:-1.712028e-01 142:1.405520e+00 143:2.249909e+00 144:-5.302060e+00 145:-2.799521e+00 146:-1.805625e+00 147:6.191174e-01 148:-5.267701e+00 149:8.063298e-01 150:-1.896677e+00 151:4.069673e+00 152:8.076177e+00 153:9.318905e+00 154:8.170441e+00 155:-7.421719e+00 156:7.057091e+00 157:-8.984572e+00 158:7.171816e+00 159:7.401001e+00 160:-8.090336e+00 161:-4.557255e+00 162:-3.837873e+00 163:9.927679e+00 164:-1.890625e+00 165:1.958248e+00 166:4.156000e+00 167:-9.520164e+00 168:-9.542570e+00 169:2.495661e+00 170:2.993396e+00 171:1.734159e+00 172:7.898261e+00 173:-1.087441e+01 174:-5.506839e+00 175:-9.544059e+00 176:-4.628068e+00 177:2.087373e+00 178:-7.993018e+00 179:-9.340293e+00 180:-1.751629e+00 181:-5.039307e+00 182:8.527892e+00 183:-4.811169e+00 184:6.789773e+00 185:-2.499299e+00 186:7.276862e+00 187:5.474247e+00 188:-1.678213e+00 189:-6.535269e+00 190:-7.105659e+00 191:6.587897e-02 192:2.884917e+00 193:4.188963e+00 194:-5.372799e+00 195:-3.418848e+00 196:6.889276e+00 197:-6.581962e+00 198:-5.618936e+00 199:-5.565019e+00 
0.0055680015820917545 0:5.976004e+00 1:4.229876e+00 2:8.186119e+00 3:1.778047e+00 4:-1.016007e+01 5:-1.096876e+00 6:-6.059033e+00 7:-3.421107e+00 8:-6.588588e+00 9:3.986037e+00 10:-7.325653e+00 11:-7.004966e+00 12:-5.413170e+00 13:9.861736e+00 14:-2.605346e+00 15:-3.019969e+00 16:-8.221255e+00 17:-7.417283e+00 18:7.403983e+00 19:1.050734e+01 20:-2.680590e+00 21:-4.769991e+00 22:-4.544972e+00 23:-7.876202e+00 24:-3.735896e+00 25:-5.720590e+00 26:9.258231e+00 27:-6.706537e+00 28:7.503557e+00 29:4.224116e+00 30:9.080143e+00 31:-9.627737e+00 32:-3.883320e+00 33:5.070959e+00 34:5.567115e+00 35:7.355830e+00 36:4.242873e-01 37:-9.266914e+00 38:-5.120324e+00 39:-6.294173e+00 40:-7.714252e+00 41:7.153066e+00 42:4.342841e-02 43:7.385841e+00 44:1.971969e+00 45:-4.215798e+00 46:1.002477e+00 47:4.550660e+00 48:8.746139e-02 49:-6.297685e+00 50:3.188085e+00 51:-7.412935e+00 52:-7.158221e+00 53:-1.430512e+00 54:-7.796283e-01 55:3.756735e+00 56:-6.604150e+00 57:7.602512e+00 58:8.314715e+00 59:-5.433658e-01 60:3.426257e+00 61:-8.971781e-01 62:-2.210247e+00 63:6.318975e+00 64:2.459755e+00 65:1.641187e+00 66:-4.863739e-01 67:3.279207e+00 68:-7.871179e+00 69:-7.191601e+00 70:8.877511e+00 71:-3.098268e+00 72:8.560617e+00 73:3.381541e+00 74:-8.990808e+00 75:-9.789406e+00 76:7.049152e+00 77:-7.323249e+00 78:-3.001683e+00 79:-2.158428e+00 80:-6.771044e-01 81:-3.741905e+00 82:-8.894924e+00 83:-3.361371e+00 84:-3.755385e+00 85:-1.100320e+01 86:8.044098e+00 87:1.289313e+00 88:1.446786e+00 89:-5.448725e+00 90:5.985132e+00 91:-6.667575e+00 92:-8.997063e+00 93:5.753944e+00 94:2.881028e+00 95:7.681028e+00 96:-7.485640e+00 97:3.321315e+00 98:-6.984438e+00 99:-6.230747e-01 100:-3.944731e+00 101:4.062771e+00 102:-1.628741e+00 103:-8.619532e+00 104:8.932829e+00 105:4.059391e+00 106:2.478528e+00 107:1.767556e+00 108:-1.728157e+00 109:5.127440e+00 110:1.719912e+00 111:2.021143e+00 112:-8.877215e+00 113:7.480482e+00 114:4.039645e+00 115:1.264680e+00 116:-4.549224e+00 117:8.686468e+00 118:-5.001692e+00 119:-5.367146e+00 120:-7.694691e+00 121:-9.583451e+00 122:3.322661e-01 123:-4.868087e+00 124:3.581958e+00 125:-5.940488e+00 126:5.799271e+00 127:-5.632836e+00 128:-8.842168e-01 129:1.835446e+00 130:-2.320822e+00 131:2.653911e+00 132:-1.442020e+00 133:-8.542243e+00 134:-8.534916e+00 135:-8.254992e+00 136:-3.836378e-01 137:3.095626e+00 138:2.033525e+00 139:2.020093e+00 140:1.556497e-02 141:1.571764e-01 142:1.653598e+00 143:4.703487e+00 144:-4.152718e+00 145:-5.092944e-01 146:-3.954235e+00 147:-1.793283e+00 148:-4.311649e+00 149:-1.687779e+00 150:-1.029664e+00 151:3.558238e+00 152:6.433613e+00 153:8.331643e+00 154:4.641086e+00 155:-7.625783e+00 156:6.893390e+00 157:-8.072204e+00 158:6.296003e+00 159:5.802305e+00 160:-5.438778e+00 161:-2.931391e+00 162:-2.867832e+00 163:8.893738e+00 164:-3.134219e+00 165:2.970054e+00 166:4.736736e+00 167:-5.124027e+00 168:-1.125213e+01 169:1.898006e+00 170:1.710139e+00 171:-2.977354e-01 172:9.881277e+00 173:-1.080795e+01 174:-7.231022e+00 175:-7.729999e+00 176:-2.127728e+00 177:4.718323e+00 178:-1.173067e+01 179:-9.175260e+00 180:-1.412310e+00 181:-6.668617e+00 182:6.991051e+00 183:-3.412409e+00 184:7.175057e+00 185:-1.938044e+00 186:5.417762e+00 187:4.130181e+00 188:-1.086363e+00 189:-6.439232e+00 190:-7.481753e+00 191:-3.077497e-01 192:3.818268e+00 193:4.560670e+00 194:-5.380580e+00 195:-5.278691e+00 196:6.563374e+00 197:-5.031290e+00 198:-4.706317e+00 199:-4.189815e+00 
-0.00020244392646239835 0:9.056674e+00 1:4.148570e+00 2:7.818458e+00 3:1.955815e+00 4:-9.157480e+00 5:-9.973686e-01 6:-7.797209e+00 7:-2.277747e+00 8:-6.392368e+00 9:6.122394e+00 10:-5.867093e+00 11:-8.228493e+00 12:-6.217935e+00 13:9.687553e+00 14:-1.897430e+00 15:-2.289836e+00 16:-7.943586e+00 17:-6.464126e+00 18:4.113345e+00 19:8.717955e+00 20:-2.687582e+00 21:-4.649894e+00 22:-6.022465e+00 23:-9.302085e+00 24:-6.503177e+00 25:-7.669824e+00 26:1.010708e+01 27:-5.959236e+00 28:5.148023e+00 29:4.127856e+00 30:1.122987e+01 31:-1.051887e+01 32:-3.348267e+00 33:6.408726e+00 34:5.239131e+00 35:7.174690e+00 36:-5.874554e-01 37:-9.407009e+00 38:-6.384066e+00 39:-8.740750e+00 40:-7.086850e+00 41:4.857227e+00 42:3.813112e+00 43:6.070609e+00 44:-1.568907e+00 45:-5.301118e+00 46:1.014489e-01 47:6.070289e+00 48:4.689182e-01 49:-7.564492e+00 50:2.858272e+00 51:-7.715420e+00 52:-7.115424e+00 53:-1.075225e+00 54:-2.563057e-01 55:3.138185e+00 56:-8.134739e+00 57:7.224452e+00 58:6.671514e+00 59:-2.943469e+00 60:4.363819e+00 61:-1.837887e+00 62:-2.545261e+00 63:6.021378e+00 64:4.482178e+00 65:-1.191431e+00 66:-1.626514e+00 67:3.107918e+00 68:-1.034071e+01 69:-5.785430e+00 70:8.878097e+00 71:-1.752947e+00 72:1.030887e+01 73:4.484768e+00 74:-1.005640e+01 75:-9.487543e+00 76:7.036011e+00 77:-6.933472e+00 78:-1.535615e+00 79:-4.766160e-01 80:4.145557e-01 81:-3.440208e+00 82:-5.992312e+00 83:-3.280097e+00 84:-3.771515e+00 85:-9.547071e+00 86:6.924042e+00 87:1.811623e+00 88:1.513997e+00 89:-6.313271e+00 90:4.871304e+00 91:-9.330428e+00 92:-7.975029e+00 93:4.186397e+00 94:1.747494e+00 95:6.795913e+00 96:-6.443372e+00 97:9.235283e-01 98:-8.547452e+00 99:-2.471102e+00 100:-2.619266e+00 101:4.493199e+00 102:-3.036090e+00 103:-9.242000e+00 104:9.627582e+00 105:2.735174e+00 106:3.616303e+00 107:1.865435e+00 108:-2.648849e+00 109:2.859749e+00 110:4.175206e+00 111:4.011628e+00 112:-9.893311e+00 113:8.036067e+00 114:2.910059e+00 115:2.285354e+00 116:-2.899433e+00 117:6.058087e+00 118:-6.480210e+00 119:-5.551869e+00 120:-8.429926e+00 121:-9.460517e+00 122:2.469736e+00 123:-3.509577e+00 124:5.453772e+00 125:-6.298061e+00 126:5.309101e+00 127:-5.070114e+00 128:2.634715e+00 129:1.806611e+00 130:-1.272918e+00 131:3.320422e+00 132:-2.440847e+00 133:-8.537052e+00 134:-6.982818e+00 135:-7.111407e+00 136:-1.281645e+00 137:2.805245e+00 138:2.293870e+00 139:-1.926168e-01 140:2.878641e-01 141:1.299078e+00 142:2.499548e+00 143:3.874231e+00 144:-3.839454e+00 145:6.157333e-01 146:-3.462356e+00 147:1.199978e-01 148:-5.133087e+00 149:1.742352e-01 150:-2.055511e+00 151:3.498498e+00 152:9.515124e+00 153:9.301994e+00 154:6.714367e+00 155:-8.635304e+00 156:6.792739e+00 157:-9.423221e+00 158:6.019978e+00 159:5.090323e+00 160:-6.274220e+00 161:-3.132967e+00 162:-5.147228e+00 163:1.121924e+01 164:-1.634819e+00 165:2.670162e+00 166:3.348445e+00 167:-5.515871e+00 168:-8.635239e+00 169:3.483934e+00 170:3.448188e+00 171:2.239644e+00 172:8.156646e+00 173:-9.811464e+00 174:-8.073743e+00 175:-1.012023e+01 176:-2.406079e+00 177:2.972043e+00 178:-1.005083e+01 179:-6.899715e+00 180:-2.521375e+00 181:-8.514538e+00 182:8.215903e+00 183:-3.921667e+00 184:6.019465e+00 185:2.801402e-01 186:6.970642e+00 187:3.766045e+00 188:-2.760052e-01 189:-5.958657e+00 190:-7.570450e+00 191:-3.541772e-01 192:2.276119e+00 193:6.072095e+00 194:-6.757430e+00 195:-3.162668e+00 196:6.331481e+00 197:-6.018749e+00 198:-4.136478e+00 199:-4.478315e+00 
-0.0006190065021722591 0:5.838260e+00 1:5.911632e+00 2:6.261927e+00 3:1.499436e+00 4:-1.098972e+01 5:-9.956884e-01 6:-5.811321e+00 7:-2.689226e+00 8:-6.280064e+00 9:5.401687e+00 10:-6.835137e+00 11:-9.458193e+00 12:-3.339659e+00 13:8.100205e+00 14:-2.292470e+00 15:-4.457587e+00 16:-8.667863e+00 17:-5.878670e+00 18:7.866269e+00 19:1.049806e+01 20:-8.640051e-01 21:-2.461974e+00 22:-7.182692e+00 23:-7.256781e+00 24:-6.077739e+00 25:-5.452527e+00 26:9.512836e+00 27:-4.615505e+00 28:6.629120e+00 29:5.993784e+00 30:1.077023e+01 31:-9.961289e+00 32:-5.146987e+00 33:8.263848e+00 34:5.837937e+00 35:7.441664e+00 36:2.100389e-02 37:-8.439697e+00 38:-5.369805e+00 39:-8.878228e+00 40:-9.515991e+00 41:5.530748e+00 42:4.001563e+00 43:4.467147e+00 44:1.076909e+00 45:-4.598086e+00 46:1.284737e+00 47:7.135947e+00 48:1.456470e-01 49:-7.712221e+00 50:3.896854e+00 51:-6.497105e+00 52:-7.959298e+00 53:-1.088159e+00 54:4.648764e-01 55:2.025340e+00 56:-6.860680e+00 57:6.590639e+00 58:9.557750e+00 59:-2.798593e+00 60:4.464111e+00 61:7.905942e-01 62:-2.158271e+00 63:7.369257e+00 64:2.679341e+00 65:-6.096224e-01 66:2.802814e-01 67:4.786111e+00 68:-8.754187e+00 69:-8.060712e+00 70:1.131920e+01 71:-3.663653e+00 72:7.422629e+00 73:5.771597e+00 74:-9.447922e+00 75:-7.460381e+00 76:7.972580e+00 77:-7.730272e+00 78:-8.625272e-01 79:-6.287496e-01 80:-1.311741e+00 81:-3.111571e+00 82:-7.698851e+00 83:-3.300326e+00 84:-4.852522e+00 85:-1.043700e+01 86:8.817716e+00 87:2.833141e-01 88:-1.563576e-01 89:-3.790781e+00 90:5.245706e+00 91:-9.931925e+00 92:-8.813695e+00 93:2.258076e+00 94:2.052111e+00 95:5.639697e+00 96:-6.347105e+00 97:2.312312e+00 98:-7.514476e+00 99:7.730130e-01 100:-3.106476e+00 101:4.964667e+00 102:-1.392314e+00 103:-7.867302e+00 104:8.471655e+00 105:4.792448e+00 106:2.815730e+00 107:4.550675e+00 108:-2.704856e+00 109:3.834332e+00 110:1.007778e+00 111:4.327265e+00 112:-1.201664e+01 113:7.653088e+00 114:4.230269e+00 115:1.408087e+00 116:-3.953017e+00 117:5.489664e+00 118:-5.605093e+00 119:-6.655001e+00 120:-8.848934e+00 121:-9.384091e+00 122:1.288718e+00 123:-4.115368e+00 124:2.788731e+00 125:-8.822929e+00 126:6.653528e+00 127:-6.775561e+00 128:5.581265e-01 129:2.232391e+00 130:-1.503723e+00 131:4.659697e+00 132:-2.073369e+00 133:-7.972765e+00 134:-5.397123e+00 135:-7.482812e+00 136:-1.333715e+00 137:2.691625e+00 138:2.815338e+00 139:2.060160e+00 140:1.991043e+00 141:-1.766433e-01 142:2.325001e-01 143:3.070137e+00 144:-4.416045e+00 145:4.870896e-01 146:-2.956272e+00 147:-6.503785e-01 148:-1.985525e+00 149:1.712144e+00 150:-3.320701e+00 151:1.803133e+00 152:8.681116e+00 153:7.759104e+00 154:7.335575e+00 155:-7.935272e+00 156:6.727795e+00 157:-8.169301e+00 158:8.684847e+00 159:6.323634e+00 160:-4.976902e+00 161:-5.610792e+00 162:-2.931449e+00 163:9.008067e+00 164:-5.703702e-01 165:2.604960e+00 166:4.423649e+00 167:-6.698564e+00 168:-1.070666e+01 169:1.856846e+00 170:7.717002e-01 171:7.623381e-01 172:9.075599e+00 173:-1.117952e+01 174:-5.871272e+00 175:-9.562657e+00 176:-3.477351e+00 177:2.623538e+00 178:-9.965545e+00 179:-9.043371e+00 180:-1.743036e+00 181:-6.404299e+00 182:6.343225e+00 183:-3.749384e+00 184:5.966045e+00 185:-2.113345e-01 186:5.274436e+00 187:5.259557e+00 188:7.284983e-01 189:-5.441275e+00 190:-6.679341e+00 191:7.138498e-01 192:1.614768e+00 193:4.947395e+00 194:-5.324639e+00 195:-3.546591e+00 196:4.930112e+00 197:-7.575145e+00 198:-4.196082e+00 199:-3.341512e+00 
-0.0005953203560477244 0:7.429750e+00 1:4.541859e+00 2:6.159998e+00 3:2.525020e+00 4:-1.107744e+01 5:-2.543417e-01 6:-6.643088e+00 7:-4.237625e+00 8:-4.773208e+00 9:4.389782e+00 10:-6.577912e+00 11:-8.475343e+00 12:-3.682001e+00 13:1.027408e+01 14:-2.157695e+00 15:-3.697405e+00 16:-7.428125e+00 17:-5.482063e+00 18:5.823392e+00 19:8.960365e+00 20:-1.677399e+00 21:-2.598139e+00 22:-7.309635e+00 23:-7.818863e+00 24:-6.313857e+00 25:-4.708099e+00 26:8.067469e+00 27:-6.193468e+00 28:6.036294e+00 29:6.043520e+00 30:8.511787e+00 31:-9.548762e+00 32:-2.486904e+00 33:5.793662e+00 34:4.460541e+00 35:5.997064e+00 36:5.507808e-02 37:-9.280972e+00 38:-4.882329e+00 39:-7.943231e+00 40:-9.303144e+00 41:4.033852e+00 42:1.590250e+00 43:7.558764e+00 44:1.697816e-01 45:-6.211252e+00 46:1.837826e+00 47:6.660240e+00 48:-1.656799e-02 49:-7.327085e+00 50:1.884660e+00 51:-7.858919e+00 52:-7.151068e+00 53:-1.443608e+00 54:1.759110e+00 55:3.306090e+00 56:-8.651517e+00 57:6.251704e+00 58:8.992230e+00 59:-1.804840e-01 60:5.234877e+00 61:-2.386075e+00 62:-1.846480e+00 63:5.625429e+00 64:2.158274e+00 65:-1.531002e+00 66:-9.146554e-02 67:4.257212e+00 68:-8.788311e+00 69:-5.585709e+00 70:9.155355e+00 71:-1.936709e+00 72:9.536087e+00 73:4.549060e+00 74:-1.125549e+01 75:-1.009893e+01 76:6.778513e+00 77:-8.402881e+00 78:-1.629905e+00 79:-2.492204e-01 80:-6.097570e-01 81:-1.660445e+00 82:-8.011881e+00 83:-3.560942e+00 84:-4.773815e+00 85:-7.633735e+00 86:1.037930e+01 87:1.349235e+00 88:6.184216e-01 89:-2.607769e+00 90:5.295704e+00 91:-8.378631e+00 92:-9.789510e+00 93:2.869475e+00 94:3.053088e+00 95:7.006985e+00 96:-7.425165e+00 97:3.486021e+00 98:-9.430563e+00 99:-2.110344e+00 100:-3.784541e+00 101:5.901231e+00 102:-1.698774e+00 103:-9.583455e+00 104:8.125347e+00 105:4.390685e+00 106:1.247517e+00 107:2.618045e+00 108:-6.491060e+00 109:2.770375e+00 110:1.441255e+00 111:3.121420e+00 112:-9.481256e+00 113:7.114859e+00 114:5.275672e+00 115:2.964195e+00 116:-2.594985e+00 117:6.014926e+00 118:-5.884820e+00 119:-4.768696e+00 120:-8.400466e+00 121:-9.412412e+00 122:2.723213e+00 123:-3.915110e+00 124:2.556668e+00 125:-7.113437e+00 126:6.323522e+00 127:-4.961078e+00 128:3.551058e+00 129:-1.238135e-02 130:-1.163949e+00 131:4.248071e+00 132:-2.254632e+00 133:-8.596857e+00 134:-7.928866e+00 135:-7.332354e+00 136:1.310416e+00 137:1.838891e+00 138:4.127192e+00 139:3.346179e-01 140:1.596056e+00 141:1.263628e+00 142:1.723462e+00 143:1.707376e+00 144:-5.640737e+00 145:-1.283319e+00 146:-2.232626e+00 147:-4.814984e-01 148:-5.034837e+00 149:-8.805541e-01 150:-4.202028e+00 151:4.619946e+00 152:6.442629e+00 153:9.559931e+00 154:6.303239e+00 155:-9.249725e+00 156:7.117863e+00 157:-8.777321e+00 158:8.254173e+00 159:4.764695e+00 160:-7.787987e+00 161:-4.428966e+00 162:-4.443659e+00 163:8.196290e+00 164:-1.003837e+00 165:3.785549e+00 166:5.714742e+00 167:-8.102175e+00 168:-1.075484e+01 169:1.780695e+00 170:3.131775e+00 171:2.095133e+00 172:8.983784e+00 173:-9.885112e+00 174:-6.300572e+00 175:-1.009969e+01 176:-2.323268e+00 177:3.116379e+00 178:-1.028748e+01 179:-8.341767e+00 180:-1.640971e-01 181:-7.700372e+00 182:7.860244e+00 183:-4.964771e+00 184:4.012797e+00 185:1.432944e+00 186:7.064522e+00 187:6.278914e+00 188:-3.346607e-01 189:-5.314971e+00 190:-9.804350e+00 191:4.618340e-02 192:4.989992e+00 193:4.419188e+00 194:-6.606407e+00 195:-1.796093e+00 196:4.861044e+00 197:-4.843290e+00 198:-4.795477e+00 199:-4.913817e+00 
-0.0030612334372782453 0:7.917251e+00 1:5.180785e+00 2:6.222549e+00 3:1.149071e+00 4:-1.090225e+01 5:-1.681651e+00 6:-7.256925e+00 7:-4.525764e+00 8:-6.408478e+00 9:7.787145e+00 10:-6.702625e+00 11:-9.221297e+00 12:-3.445546e+00 13:1.049214e+01 14:-1.546888e+00 15:-4.964931e+00 16:-6.041192e+00 17:-6.644987e+00 18:5.898263e+00 19:1.095194e+01 20:-1.820321e+00 21:-5.466516e+00 22:-6.455204e+00 23:-7.003299e+00 24:-5.375300e+00 25:-6.223732e+00 26:8.504084e+00 27:-5.248156e+00 28:6.911927e+00 29:3.985391e+00 30:1.126203e+01 31:-7.289267e+00 32:-4.735081e+00 33:6.215558e+00 34:5.338650e+00 35:6.156930e+00 36:-9.330175e-01 37:-7.829855e+00 38:-5.029120e+00 39:-6.043989e+00 40:-7.526867e+00 41:5.631001e+00 42:1.672675e+00 43:6.484156e+00 44:8.666398e-01 45:-3.455149e+00 46:7.129577e-01 47:5.571737e+00 48:8.311740e-01 49:-8.534648e+00 50:1.819191e+00 51:-8.207424e+00 52:-8.175147e+00 53:5.541509e-03 54:6.867266e-01 55:3.660751e+00 56:-8.436975e+00 57:8.196873e+00 58:9.559225e+00 59:-9.714188e-01 60:4.287800e+00 61:-2.549609e+00 62:6.598131e-01 63:5.653940e+00 64:3.795949e+00 65:-1.720484e+00 66:6.228796e-01 67:5.435193e+00 68:-7.932401e+00 69:-7.758969e+00 70:1.204258e+01 71:-3.108712e+00 72:9.960135e+00 73:3.537220e+00 74:-1.014982e+01 75:-8.241693e+00 76:6.541870e+00 77:-9.100698e+00 78:-1.308750e+00 79:1.038049e+00 80:2.414908e-02 81:-1.870304e+00 82:-8.270750e+00 83:-2.251630e+00 84:-4.169562e+00 85:-9.585684e+00 86:8.189756e+00 87:1.062061e+00 88:9.454376e-01 89:-3.731604e+00 90:5.833154e+00 91:-8.322724e+00 92:-9.133682e+00 93:3.174650e+00 94:3.097861e+00 95:5.756128e+00 96:-8.607214e+00 97:1.479547e+00 98:-5.651518e+00 99:-5.085988e-01 100:-3.264136e+00 101:4.777012e+00 102:2.072598e-01 103:-7.082459e+00 104:9.482746e+00 105:4.446462e+00 106:2.560128e+00 107:3.061393e+00 108:-2.657148e+00 109:5.017700e+00 110:2.723270e+00 111:3.854335e+00 112:-9.397035e+00 113:7.816569e+00 114:3.679387e+00 115:1.071204e+00 116:-2.050790e+00 117:5.884626e+00 118:-8.250882e+00 119:-8.111977e+00 120:-9.318284e+00 121:-7.456112e+00 122:1.153940e+00 123:-6.897240e+00 124:2.556676e+00 125:-6.664116e+00 126:5.768941e+00 127:-6.616969e+00 128:8.499342e-01 129:-2.040493e-01 130:-7.348852e-01 131:3.687918e+00 132:-1.832682e+00 133:-8.037835e+00 134:-7.508565e+00 135:-6.496246e+00 136:-4.086767e-01 137:2.692991e+00 138:1.775517e+00 139:2.500621e+00 140:2.275941e-01 141:3.283490e-01 142:1.250131e+00 143:3.727791e+00 144:-3.795935e+00 145:-2.283443e+00 146:-3.663662e+00 147:-1.611113e-01 148:-4.615397e+00 149:-9.628657e-01 150:-2.588660e+00 151:3.838761e+00 152:6.897337e+00 153:9.985841e+00 154:5.998933e+00 155:-6.971894e+00 156:8.140081e+00 157:-9.964676e+00 158:5.737373e+00 159:5.790230e+00 160:-7.074491e+00 161:-4.623617e+00 162:-3.412488e+00 163:1.035808e+01 164:-2.523157e+00 165:3.235899e+00 166:4.949587e+00 167:-6.383716e+00 168:-1.075262e+01 169:1.810837e+00 170:2.502554e+00 171:-6.098968e-01 172:9.938081e+00 173:-1.131850e+01 174:-6.663962e+00 175:-1.059615e+01 176:-3.556066e+00 177:4.811545e+00 178:-1.042341e+01 179:-7.504911e+00 180:-1.135244e+00 181:-7.188633e+00 182:7.520597e+00 183:-4.262085e+00 184:7.736099e+00 185:-1.622869e+00 186:5.673589e+00 187:6.583589e+00 188:-1.635578e-01 189:-6.623811e+00 190:-7.805274e+00 191:2.453076e-01 192:2.808286e+00 193:2.855591e+00 194:-5.404015e+00 195:-2.668356e+00 196:5.715680e+00 197:-4.792578e+00 198:-4.833722e+00 199:-4.500278e+00 
-0.006858777202539421 0:9.836751e+00 1:2.937427e+00 2:6.046511e+00 3:1.262958e+00 4:-9.699445e+00 5:-1.372339e+00 6:-6.601001e+00 7:-2.265191e+00 8:-4.499623e+00 9:7.075267e+00 10:-5.203806e+00 11:-8.281582e+00 12:-3.906712e+00 13:9.597233e+00 14:-9.733134e-01 15:-3.071432e+00 16:-7.022977e+00 17:-6.292662e+00 18:4.659877e+00 19:9.395489e+00 20:-3.224574e+00 21:-4.194945e+00 22:-6.253627e+00 23:-7.267488e+00 24:-6.323277e+00 25:-6.944849e+00 26:9.231140e+00 27:-6.522734e+00 28:6.278103e+00 29:4.268738e+00 30:9.335879e+00 31:-9.069826e+00 32:-3.693571e+00 33:6.110570e+00 34:4.119111e+00 35:6.890153e+00 36:-2.076472e+00 37:-8.760794e+00 38:-5.641531e+00 39:-7.697338e+00 40:-7.147364e+00 41:3.089010e+00 42:1.367357e+00 43:8.038499e+00 44:7.766080e-01 45:-3.097543e+00 46:1.754871e+00 47:7.954648e+00 48:1.733519e+00 49:-7.079150e+00 50:3.772100e+00 51:-8.645611e+00 52:-7.123990e+00 53:-9.166977e-01 54:3.501307e-02 55:4.346259e+00 56:-8.286350e+00 57:6.017258e+00 58:9.417986e+00 59:-1.425895e+00 60:4.159648e+00 61:-1.197164e+00 62:-1.058439e+00 63:6.208563e+00 64:3.944226e+00 65:-2.190870e+00 66:-7.343656e-01 67:3.428975e+00 68:-6.913738e+00 69:-7.746523e+00 70:9.730250e+00 71:-4.876177e+00 72:7.940668e+00 73:4.232743e+00 74:-1.182489e+01 75:-9.331900e+00 76:6.801611e+00 77:-6.879924e+00 78:-9.694497e-01 79:-1.783753e+00 80:1.374305e-02 81:-2.661678e+00 82:-7.205894e+00 83:-4.781050e+00 84:-3.978250e+00 85:-8.490511e+00 86:9.723475e+00 87:1.064991e-01 88:2.818487e+00 89:-3.758296e+00 90:5.328159e+00 91:-8.465976e+00 92:-9.084745e+00 93:3.856838e+00 94:3.072848e+00 95:6.264764e+00 96:-6.297466e+00 97:1.600218e+00 98:-7.826659e+00 99:-5.893122e-01 100:-2.476953e+00 101:4.865190e+00 102:-1.249580e+00 103:-9.004075e+00 104:8.298573e+00 105:4.574870e+00 106:3.846280e+00 107:1.652503e+00 108:-4.268788e+00 109:3.527168e+00 110:2.838982e+00 111:3.035123e+00 112:-9.794633e+00 113:7.395988e+00 114:4.521990e+00 115:3.300489e+00 116:-2.916319e+00 117:5.226395e+00 118:-5.886186e+00 119:-8.021560e+00 120:-1.044978e+01 121:-8.626909e+00 122:3.281572e+00 123:-4.207495e+00 124:2.635049e+00 125:-6.499844e+00 126:6.262676e+00 127:-3.434204e+00 128:1.741228e+00 129:7.740117e-01 130:-6.762342e-01 131:2.185068e+00 132:-2.424395e+00 133:-8.279852e+00 134:-7.278352e+00 135:-6.930573e+00 136:4.001025e-01 137:3.648657e+00 138:3.567138e+00 139:1.267464e+00 140:3.233597e+00 141:1.069084e+00 142:8.469021e-01 143:3.365414e+00 144:-3.771082e+00 145:-2.569117e-01 146:-1.599931e+00 147:-1.785732e+00 148:-2.979811e+00 149:-1.221363e-01 150:-2.682102e+00 151:2.412593e+00 152:7.205013e+00 153:8.021938e+00 154:6.532301e+00 155:-6.115421e+00 156:7.439190e+00 157:-9.860629e+00 158:6.291270e+00 159:7.984534e+00 160:-5.788895e+00 161:-3.867760e+00 162:-3.707292e+00 163:1.059265e+01 164:-3.811908e+00 165:3.113023e+00 166:5.375102e+00 167:-7.468038e+00 168:-1.087940e+01 169:2.975549e+00 170:3.118539e+00 171:1.930431e+00 172:9.196166e+00 173:-8.984157e+00 174:-5.280490e+00 175:-1.070895e+01 176:-2.216416e+00 177:3.292749e+00 178:-8.393931e+00 179:-7.791109e+00 180:2.165044e-01 181:-5.019580e+00 182:6.736496e+00 183:-4.383600e+00 184:5.836738e+00 185:-2.887937e-01 186:5.599939e+00 187:3.152288e+00 188:2.520575e-02 189:-4.529905e+00 190:-5.392902e+00 191:-3.105940e-01 192:2.537458e-01 193:5.350654e+00 194:-4.594478e+00 195:-3.525050e+00 196:6.847331e+00 197:-6.521429e+00 198:-5.024345e+00 199:-6.300639e+00 
-0.007940849674168434 0:9.188893e+00 1:4.563393e+00 2:6.530966e+00 3:1.405194e+00 4:-9.672839e+00 5:-5.853743e-02 6:-6.938412e+00 7:-2.661836e+00 8:-5.042773e+00 9:3.677294e+00 10:-7.727825e+00 11:-8.668897e+00 12:-4.487521e+00 13:7.775503e+00 14:-1.396819e+00 15:-3.846888e+00 16:-8.312342e+00 17:-6.300101e+00 18:6.225198e+00 19:1.026833e+01 20:-1.958052e+00 21:-4.316319e+00 22:-5.048645e+00 23:-6.884394e+00 24:-6.308575e+00 25:-4.254516e+00 26:8.104694e+00 27:-5.465088e+00 28:5.899256e+00 29:5.719380e+00 30:1.026043e+01 31:-1.100882e+01 32:-1.005868e+00 33:8.200229e+00 34:4.415316e+00 35:7.226591e+00 36:-9.123750e-01 37:-9.907279e+00 38:-4.559283e+00 39:-6.982860e+00 40:-8.468604e+00 41:4.868281e+00 42:6.791355e-01 43:6.289248e+00 44:7.460516e-01 45:-6.513749e+00 46:2.105990e+00 47:5.114776e+00 48:-4.134075e-01 49:-7.025189e+00 50:3.015799e+00 51:-8.757400e+00 52:-8.579441e+00 53:-1.588273e+00 54:-6.137518e-01 55:2.370738e+00 56:-8.452402e+00 57:8.245942e+00 58:7.875075e+00 59:-2.967741e+00 60:3.700722e+00 61:-2.886343e+00 62:-8.824530e-01 63:5.186834e+00 64:3.744065e+00 65:1.129710e+00 66:-4.745556e-01 67:4.014556e+00 68:-7.743018e+00 69:-8.617364e+00 70:8.613592e+00 71:-3.687866e+00 72:9.071931e+00 73:3.942374e+00 74:-1.059138e+01 75:-7.263932e+00 76:4.725701e+00 77:-8.000063e+00 78:-1.424289e+00 79:3.789894e-01 80:-4.724412e-01 81:-3.697219e+00 82:-7.709113e+00 83:-4.300181e+00 84:-3.638978e+00 85:-1.176003e+01 86:7.438283e+00 87:-3.171916e-02 88:2.138733e+00 89:-3.234959e+00 90:6.532445e+00 91:-5.915780e+00 92:-9.356301e+00 93:4.617507e+00 94:2.687752e+00 95:5.754270e+00 96:-7.779797e+00 97:2.182953e+00 98:-6.910350e+00 99:-6.515835e-01 100:-3.594285e+00 101:4.314818e+00 102:-9.266651e-01 103:-8.466936e+00 104:1.091433e+01 105:3.936779e+00 106:1.600271e+00 107:1.138041e+00 108:-6.183518e+00 109:2.906986e+00 110:2.185019e+00 111:4.046675e+00 112:-1.051450e+01 113:7.498796e+00 114:5.451387e+00 115:5.040266e+00 116:-3.822793e+00 117:5.477102e+00 118:-6.102647e+00 119:-7.071057e+00 120:-7.965306e+00 121:-1.030128e+01 122:9.327624e-01 123:-5.004716e+00 124:2.584801e+00 125:-7.043613e+00 126:6.145327e+00 127:-3.686735e+00 128:1.608383e+00 129:1.319133e+00 130:6.843775e-01 131:2.962718e+00 132:-2.343655e+00 133:-8.711195e+00 134:-7.298555e+00 135:-7.348291e+00 136:1.067654e-02 137:3.743537e+00 138:3.862484e+00 139:-1.426248e+00 140:5.776352e-01 141:1.596568e-01 142:6.928958e-01 143:2.556588e+00 144:-5.159053e+00 145:-3.068010e+00 146:-2.670271e+00 147:-2.137925e+00 148:-4.190637e+00 149:8.286578e-01 150:-2.494091e+00 151:2.012146e+00 152:8.288347e+00 153:1.110473e+01 154:7.180698e+00 155:-7.729187e+00 156:5.955772e+00 157:-9.963059e+00 158:6.960183e+00 159:7.176931e+00 160:-6.173605e+00 161:-3.920195e+00 162:-4.648627e+00 163:1.029690e+01 164:-2.071864e+00 165:2.509938e+00 166:4.507614e+00 167:-7.280151e+00 168:-9.871086e+00 169:2.733476e+00 170:1.505475e+00 171:1.121860e+00 172:8.914198e+00 173:-1.045265e+01 174:-6.378259e+00 175:-1.134379e+01 176:-4.680579e+00 177:4.369367e+00 178:-1.032404e+01 179:-9.228260e+00 180:2.632469e-01 181:-5.914903e+00 182:7.731954e+00 183:-3.574537e+00 184:5.283644e+00 185:-1.613653e+00 186:7.940183e+00 187:4.542022e+00 188:3.241412e-01 189:-5.171876e+00 190:-7.006978e+00 191:1.971707e+00 192:2.222411e+00 193:5.051800e+00 194:-5.953525e+00 195:-2.745785e+00 196:4.696107e+00 197:-7.873650e+00 198:-3.395143e+00 199:-5.470831e+00 
0.012058149570275276 0:9.575597e+00 1:3.773528e+00 2:5.966883e+00 3:9.224397e-01 4:-9.845770e+00 5:1.506244e+00 6:-6.614192e+00 7:-3.666918e+00 8:-7.139285e+00 9:4.461512e+00 10:-5.865283e+00 11:-8.371849e+00 12:-4.180573e+00 13:6.982714e+00 14:-3.623676e+00 15:-2.884533e+00 16:-7.426248e+00 17:-6.205880e+00 18:5.595563e+00 19:9.064117e+00 20:-1.592605e+00 21:-4.436179e+00 22:-6.429895e+00 23:-7.168405e+00 24:-5.775690e+00 25:-5.531191e+00 26:8.556290e+00 27:-6.424616e+00 28:6.115042e+00 29:6.521957e+00 30:1.065422e+01 31:-8.547174e+00 32:-2.858810e+00 33:5.847232e+00 34:3.636178e+00 35:5.633297e+00 36:-1.290805e+00 37:-8.993161e+00 38:-5.936694e+00 39:-7.124090e+00 40:-8.297637e+00 41:4.489984e+00 42:1.816272e+00 43:6.381322e+00 44:-1.118980e-01 45:-5.898158e+00 46:1.620556e+00 47:5.938650e+00 48:-2.854371e-01 49:-9.206813e+00 50:6.517420e+00 51:-7.061539e+00 52:-8.031679e+00 53:-1.608637e-01 54:9.155939e-01 55:3.531934e+00 56:-6.758373e+00 57:7.355745e+00 58:7.317742e+00 59:-1.124168e+00 60:3.378296e+00 61:-2.498668e+00 62:-1.771921e-01 63:6.536318e+00 64:3.136215e+00 65:-8.777878e-01 66:-5.079295e-01 67:4.008458e+00 68:-6.816372e+00 69:-8.105476e+00 70:1.144889e+01 71:-2.810485e+00 72:1.014228e+01 73:4.957921e+00 74:-1.137485e+01 75:-7.579489e+00 76:7.259060e+00 77:-8.876951e+00 78:-1.708808e+00 79:-7.485348e-01 80:1.050317e-01 81:-3.095799e+00 82:-7.916603e+00 83:-2.862599e+00 84:-3.150614e+00 85:-9.208542e+00 86:9.720904e+00 87:1.369554e+00 88:4.536202e-01 89:-4.882335e+00 90:5.985985e+00 91:-9.147948e+00 92:-8.035625e+00 93:4.757866e+00 94:2.462345e+00 95:5.445526e+00 96:-8.217077e+00 97:1.164620e+00 98:-9.020496e+00 99:-1.070809e+00 100:-3.163454e+00 101:4.353894e+00 102:-2.467955e+00 103:-6.084331e+00 104:8.419790e+00 105:3.403477e+00 106:3.741385e+00 107:2.175528e+00 108:-5.108267e+00 109:4.846086e+00 110:1.450623e+00 111:2.623457e+00 112:-9.935956e+00 113:7.124828e+00 114:4.562354e+00 115:1.293657e+00 116:-3.582161e+00 117:5.291384e+00 118:-5.763093e+00 119:-6.427206e+00 120:-8.707288e+00 121:-7.446415e+00 122:3.887916e+00 123:-4.175648e+00 124:3.661742e+00 125:-5.537048e+00 126:6.194071e+00 127:-2.885941e+00 128:1.163899e+00 129:1.068072e-01 130:-1.572724e+00 131:2.847899e+00 132:-1.186606e+00 133:-8.311259e+00 134:-7.286326e+00 135:-6.465695e+00 136:1.161383e+00 137:2.786305e+00 138:4.380134e+00 139:1.715498e+00 140:2.153494e+00 141:7.234148e-01 142:5.308899e-01 143:2.664480e+00 144:-4.259461e+00 145:-1.670754e+00 146:-3.541589e+00 147:-5.411021e-01 148:-4.654653e+00 149:-4.449617e-01 150:-1.910000e+00 151:2.065562e+00 152:9.235174e+00 153:8.163766e+00 154:5.085154e+00 155:-7.420712e+00 156:7.259019e+00 157:-8.392787e+00 158:6.999914e+00 159:5.066998e+00 160:-6.625370e+00 161:-4.193202e+00 162:-2.340918e+00 163:1.107420e+01 164:-7.764421e-01 165:3.326816e+00 166:4.928557e+00 167:-8.101565e+00 168:-1.038693e+01 169:1.656885e+00 170:2.680566e+00 171:1.418340e+00 172:8.625826e+00 173:-1.191524e+01 174:-6.488285e+00 175:-9.558967e+00 176:-1.609777e+00 177:3.433935e+00 178:-1.020412e+01 179:-7.305157e+00 180:-1.082630e+00 181:-4.503680e+00 182:7.050817e+00 183:-4.049212e+00 184:6.115539e+00 185:-1.029391e+00 186:6.680636e+00 187:4.079041e+00 188:-2.150911e+00 189:-5.052285e+00 190:-6.570778e+00 191:9.261174e-01 192:2.600616e+00 193:3.212764e+00 194:-6.711429e+00 195:-4.935535e+00 196:5.987104e+00 197:-6.244032e+00 198:-4.883491e+00 199:-5.183203e+00 
0.0016699956484410477 0:8.710453e+00 1:5.153390e+00 2:5.667592e+00 3:8.981844e-01 4:-8.064092e+00 5:-4.221083e-01 6:-7.441882e+00 7:-4.890278e+00 8:-6.799379e+00 9:5.165391e+00 10:-7.118071e+00 11:-7.506153e+00 12:-6.222632e+00 13:8.823926e+00 14:-1.517423e+00 15:-2.387544e+00 16:-7.774553e+00 17:-7.492025e+00 18:7.364012e+00 19:1.032305e+01 20:-2.249416e+00 21:-4.271095e+00 22:-6.375164e+00 23:-7.791609e+00 24:-5.485880e+00 25:-4.522847e+00 26:9.430161e+00 27:-5.361314e+00 28:6.870861e+00 29:4.394626e+00 30:1.036900e+01 31:-9.397703e+00 32:-3.250304e+00 33:5.919413e+00 34:6.345962e+00 35:6.684036e+00 36:-2.482511e-01 37:-8.870594e+00 38:-4.459517e+00 39:-8.603671e+00 40:-9.490599e+00 41:5.011894e+00 42:1.676532e+00 43:6.722507e+00 44:-6.212740e-01 45:-5.279547e+00 46:1.607999e+00 47:4.159691e+00 48:5.965382e-01 49:-7.518018e+00 50:1.817718e+00 51:-6.337153e+00 52:-9.584226e+00 53:-1.136904e+00 54:2.777177e+00 55:1.221471e+00 56:-9.729810e+00 57:7.569766e+00 58:6.063214e+00 59:-3.216375e+00 60:4.685955e+00 61:-1.289669e+00 62:-1.239381e+00 63:5.959203e+00 64:4.855146e+00 65:-1.745808e+00 66:-3.802679e-02 67:5.014035e+00 68:-9.010609e+00 69:-7.348601e+00 70:9.851737e+00 71:-1.413829e+00 72:8.440965e+00 73:3.981658e+00 74:-1.027087e+01 75:-9.251663e+00 76:3.617126e+00 77:-7.418595e+00 78:-2.292626e+00 79:8.806569e-01 80:-3.544485e-01 81:-2.216022e+00 82:-7.776261e+00 83:-4.957464e+00 84:-4.035757e+00 85:-9.690556e+00 86:7.974920e+00 87:-1.662295e-01 88:8.050622e-01 89:-4.041432e+00 90:7.021190e+00 91:-6.299613e+00 92:-8.489422e+00 93:4.331703e+00 94:1.832215e+00 95:6.773803e+00 96:-7.272619e+00 97:7.870844e-01 98:-6.616042e+00 99:-8.271275e-01 100:-1.566712e+00 101:4.335275e+00 102:-1.684520e+00 103:-8.416060e+00 104:9.099885e+00 105:4.233519e+00 106:2.993148e+00 107:3.163090e+00 108:-4.221826e+00 109:3.066468e+00 110:3.024468e+00 111:5.134065e+00 112:-9.425308e+00 113:7.567562e+00 114:4.799104e+00 115:2.607768e+00 116:-3.179187e+00 117:5.498451e+00 118:-6.159015e+00 119:-6.297689e+00 120:-9.408715e+00 121:-9.532728e+00 122:1.360078e+00 123:-4.661574e+00 124:2.287884e+00 125:-5.867824e+00 126:4.048891e+00 127:-5.440378e+00 128:1.475983e+00 129:2.125969e+00 130:-1.085797e+00 131:2.976533e+00 132:-3.284547e+00 133:-8.625588e+00 134:-8.574663e+00 135:-4.777645e+00 136:-6.108582e-01 137:3.613600e+00 138:1.832948e+00 139:4.226690e-01 140:2.521429e+00 141:1.478608e+00 142:1.663535e+00 143:3.177604e+00 144:-3.989341e+00 145:-7.953769e-01 146:-3.951872e+00 147:1.235640e-01 148:-3.519632e+00 149:-3.535189e-01 150:-3.529245e+00 151:2.814149e+00 152:7.173492e+00 153:8.879380e+00 154:6.951012e+00 155:-7.017248e+00 156:8.317682e+00 157:-1.070638e+01 158:8.415534e+00 159:5.483080e+00 160:-8.627133e+00 161:-3.033351e+00 162:-6.953100e+00 163:1.096582e+01 164:-1.202082e+00 165:2.375578e+00 166:3.090350e+00 167:-8.310660e+00 168:-1.006336e+01 169:3.905038e+00 170:2.645680e+00 171:1.913431e+00 172:9.261106e+00 173:-1.062127e+01 174:-5.224758e+00 175:-1.018107e+01 176:-2.551545e+00 177:3.961650e+00 178:-9.523884e+00 179:-7.683189e+00 180:-2.192966e+00 181:-5.549180e+00 182:6.492156e+00 183:-4.851396e+00 184:5.005655e+00 185:6.293602e-01 186:5.506400e+00 187:3.420608e+00 188:-1.806673e+00 189:-5.405375e+00 190:-6.668100e+00 191:8.235683e-01 192:2.679432e+00 193:5.565174e+00 194:-6.455538e+00 195:-5.874559e+00 196:4.938809e+00 197:-6.689850e+00 198:-3.294078e+00 199:-4.551599e+00 
-0.015190040584938128 0:7.202702e+00 1:4.683843e+00 2:6.542301e+00 3:1.723790e+00 4:-1.071259e+01 5:-2.790734e-01 6:-5.108112e+00 7:-3.203777e+00 8:-6.391109e+00 9:6.795117e+00 10:-5.316206e+00 11:-8.416483e+00 12:-5.112311e+00 13:8.691931e+00 14:-1.293695e+00 15:-1.705866e+00 16:-6.280768e+00 17:-6.964716e+00 18:6.076885e+00 19:9.672446e+00 20:-2.155082e+00 21:-2.206750e+00 22:-4.337526e+00 23:-7.425299e+00 24:-7.757033e+00 25:-6.026479e+00 26:8.048151e+00 27:-6.516343e+00 28:8.315460e+00 29:2.992876e+00 30:1.123203e+01 31:-1.016719e+01 32:-3.629300e+00 33:6.655436e+00 34:5.633110e+00 35:7.706221e+00 36:-1.146233e+00 37:-1.007040e+01 38:-6.437520e+00 39:-7.777934e+00 40:-1.007429e+01 41:4.128510e+00 42:2.318843e+00 43:5.841570e+00 44:1.135801e+00 45:-4.122867e+00 46:6.480959e-01 47:8.092278e+00 48:-6.739723e-01 49:-6.842934e+00 50:3.369423e+00 51:-9.873996e+00 52:-9.285827e+00 53:-3.196346e-01 54:7.716574e-01 55:2.031681e+00 56:-7.953430e+00 57:8.326086e+00 58:7.874620e+00 59:5.566720e-01 60:5.082877e+00 61:-2.868484e+00 62:-1.583086e+00 63:6.288833e+00 64:5.592791e+00 65:-1.164138e+00 66:-1.872535e-01 67:5.862447e+00 68:-8.652235e+00 69:-9.582477e+00 70:9.541859e+00 71:-3.299680e+00 72:8.281340e+00 73:5.846122e+00 74:-1.081950e+01 75:-8.169590e+00 76:6.569005e+00 77:-7.722734e+00 78:-1.987730e+00 79:-1.298847e+00 80:-4.019719e+00 81:-2.991175e+00 82:-6.273927e+00 83:-3.029370e+00 84:-3.819658e+00 85:-1.004459e+01 86:1.123933e+01 87:4.584638e-01 88:1.660180e-02 89:-3.333207e+00 90:7.106970e+00 91:-8.256739e+00 92:-9.322630e+00 93:2.535610e+00 94:3.636167e+00 95:6.123212e+00 96:-8.068840e+00 97:3.317498e+00 98:-7.412371e+00 99:-3.988768e+00 100:-6.203869e-01 101:3.805962e+00 102:-1.048889e+00 103:-6.538391e+00 104:8.746648e+00 105:4.844814e+00 106:3.540303e+00 107:3.835686e+00 108:-3.790923e+00 109:5.984828e+00 110:2.416591e+00 111:3.856879e+00 112:-7.968606e+00 113:7.028491e+00 114:5.634754e+00 115:3.090866e+00 116:-2.880970e+00 117:6.345764e+00 118:-6.500445e+00 119:-6.552362e+00 120:-7.324458e+00 121:-9.495875e+00 122:1.831267e+00 123:-3.185597e+00 124:4.512438e+00 125:-7.530705e+00 126:7.706195e+00 127:-6.864013e+00 128:2.069881e+00 129:2.286866e+00 130:-2.470254e+00 131:2.347403e+00 132:-3.242543e+00 133:-7.901728e+00 134:-9.617238e+00 135:-8.141829e+00 136:2.093012e-01 137:2.452871e+00 138:5.695528e+00 139:2.568142e+00 140:1.465495e+00 141:-5.548658e-01 142:1.461172e+00 143:2.926883e+00 144:-4.764613e+00 145:5.200310e-01 146:-2.137423e+00 147:-1.139704e+00 148:-2.704313e+00 149:1.159476e+00 150:-1.723975e+00 151:2.508224e+00 152:6.950372e+00 153:1.019851e+01 154:5.874566e+00 155:-7.883589e+00 156:6.994775e+00 157:-9.151663e+00 158:7.073476e+00 159:5.493914e+00 160:-7.037502e+00 161:-4.712188e+00 162:-4.462674e+00 163:1.080515e+01 164:-1.066819e-01 165:1.846753e+00 166:3.723320e+00 167:-6.503129e+00 168:-1.246729e+01 169:2.568732e+00 170:1.731684e+00 171:1.083320e+00 172:7.711430e+00 173:-8.279624e+00 174:-8.871821e+00 175:-9.692152e+00 176:-2.399290e+00 177:4.451472e+00 178:-1.018294e+01 179:-7.662365e+00 180:-3.215352e-01 181:-4.721538e+00 182:6.401533e+00 183:-4.696816e+00 184:5.624532e+00 185:-1.287588e+00 186:5.113116e+00 187:4.578123e+00 188:6.768019e-01 189:-6.618283e+00 190:-7.042115e+00 191:1.503331e+00 192:2.953329e+00 193:4.247041e+00 194:-5.460136e+00 195:-2.662453e+00 196:4.022936e+00 197:-6.820602e+00 198:-3.544978e+00 199:-4.350761e+00 
-0.015134646656527083 0:8.490053e+00 1:4.828901e+00 2:7.138083e+00 3:1.333655e+00 4:-9.593238e+00 5:5.224013e-01 6:-7.718615e+00 7:-3.205692e+00 8:-7.948134e+00 9:5.055000e+00 10:-6.902008e+00 11:-9.963035e+00 12:-4.485059e+00 13:8.411729e+00 14:-2.672742e+00 15:-4.018322e+00 16:-7.308761e+00 17:-7.118533e+00 18:4.827854e+00 19:7.565898e+00 20:-2.288268e+00 21:-2.981468e+00 22:-5.833588e+00 23:-8.991602e+00 24:-5.597833e+00 25:-5.016191e+00 26:1.010473e+01 27:-7.745226e+00 28:7.342694e+00 29:5.445485e+00 30:1.139479e+01 31:-9.656903e+00 32:-2.549576e+00 33:8.040063e+00 34:6.148202e+00 35:6.064012e+00 36:-9.494657e-01 37:-9.624539e+00 38:-4.522596e+00 39:-8.277967e+00 40:-9.767131e+00 41:3.360154e+00 42:1.106808e-01 43:7.661278e+00 44:6.645254e-01 45:-5.377930e+00 46:3.051638e+00 47:8.376235e+00 48:-1.632727e+00 49:-8.747080e+00 50:3.557092e+00 51:-7.366597e+00 52:-1.003527e+01 53:-1.532228e+00 54:6.057065e-01 55:2.690576e+00 56:-6.438813e+00 57:8.042676e+00 58:7.942677e+00 59:-8.956817e-01 60:6.129807e+00 61:-4.217127e-02 62:-2.793474e+00 63:7.648888e+00 64:5.680011e+00 65:-5.748646e-01 66:-8.644121e-01 67:3.717068e+00 68:-8.041539e+00 69:-7.825555e+00 70:8.743554e+00 71:-3.473004e+00 72:8.164852e+00 73:6.928628e+00 74:-1.028470e+01 75:-8.671416e+00 76:6.300287e+00 77:-8.010878e+00 78:-1.117474e+00 79:5.092289e-02 80:-8.774549e-01 81:-3.421327e+00 82:-7.462455e+00 83:-3.191977e+00 84:-3.964465e+00 85:-1.034647e+01 86:5.880924e+00 87:-1.202492e-01 88:6.769381e-01 89:-3.371652e+00 90:6.347986e+00 91:-7.933253e+00 92:-7.945827e+00 93:5.000422e+00 94:2.545130e+00 95:5.012441e+00 96:-9.520943e+00 97:1.613196e+00 98:-7.737135e+00 99:-1.913376e+00 100:-1.920823e+00 101:4.958015e+00 102:-2.259298e+00 103:-8.798213e+00 104:8.018347e+00 105:4.562486e+00 106:4.803432e+00 107:2.393205e+00 108:-5.178739e+00 109:4.760003e+00 110:3.275811e+00 111:3.929477e+00 112:-9.502117e+00 113:9.090677e+00 114:4.451353e+00 115:2.669884e+00 116:-2.850258e+00 117:6.795715e+00 118:-6.288071e+00 119:-8.451649e+00 120:-9.848530e+00 121:-7.470417e+00 122:1.221050e+00 123:-5.553975e+00 124:1.935750e+00 125:-6.951845e+00 126:5.838852e+00 127:-2.920482e+00 128:2.140577e+00 129:7.794009e-01 130:-1.799077e+00 131:2.254081e+00 132:-1.949281e+00 133:-6.838784e+00 134:-8.202519e+00 135:-6.998150e+00 136:2.340725e-01 137:3.719777e+00 138:3.441399e+00 139:8.621378e-01 140:-5.534623e-02 141:-1.755068e-01 142:1.670232e+00 143:3.227793e+00 144:-5.039963e+00 145:-9.424395e-01 146:-1.657188e+00 147:-1.643745e+00 148:-3.774163e+00 149:1.714701e-01 150:-2.533494e+00 151:1.274550e-01 152:9.969929e+00 153:7.640671e+00 154:6.976716e+00 155:-8.763694e+00 156:7.551504e+00 157:-8.212870e+00 158:6.740438e+00 159:6.225203e+00 160:-8.410418e+00 161:-4.769869e+00 162:-3.111224e+00 163:8.436039e+00 164:-2.154026e+00 165:3.962117e+00 166:6.052298e+00 167:-6.537461e+00 168:-8.168276e+00 169:3.481397e+00 170:4.881978e+00 171:6.805028e-01 172:1.015717e+01 173:-9.494913e+00 174:-5.082673e+00 175:-9.391628e+00 176:-2.549576e+00 177:1.703073e+00 178:-9.637955e+00 179:-7.369672e+00 180:6.241050e-01 181:-6.450883e+00 182:8.451386e+00 183:-4.021075e+00 184:6.244614e+00 185:-6.395871e-01 186:6.435838e+00 187:4.776209e+00 188:8.814772e-02 189:-4.134360e+00 190:-6.479687e+00 191:1.389353e+00 192:4.285030e+00 193:2.987596e+00 194:-4.839674e+00 195:-9.231256e-01 196:7.399930e+00 197:-6.812962e+00 198:-4.831931e+00 199:-5.395776e+00 
-0.0014209895802492433 0:7.963945e+00 1:3.477709e+00 2:6.536926e+00 3:-4.456217e-01 4:-1.058689e+01 5:-5.873451e-02 6:-5.877508e+00 7:-2.023113e+00 8:-6.144776e+00 9:4.167492e+00 10:-7.207196e+00 11:-7.288269e+00 12:-3.727664e+00 13:1.008146e+01 14:-2.893871e+00 15:-2.099525e+00 16:-6.497511e+00 17:-6.179792e+00 18:5.170625e+00 19:9.992421e+00 20:-2.412218e+00 21:-4.735640e+00 22:-5.443627e+00 23:-7.730400e+00 24:-5.169881e+00 25:-5.909669e+00 26:9.811480e+00 27:-5.880900e+00 28:7.672948e+00 29:4.968889e+00 30:9.170544e+00 31:-1.003558e+01 32:-4.003707e+00 33:7.247925e+00 34:4.723142e+00 35:6.996987e+00 36:2.261751e-01 37:-1.084928e+01 38:-3.412435e+00 39:-7.025604e+00 40:-9.122835e+00 41:5.421728e+00 42:2.288315e+00 43:7.839880e+00 44:1.121386e+00 45:-2.975019e+00 46:1.058370e+00 47:5.876444e+00 48:8.019585e-02 49:-8.473026e+00 50:3.958137e+00 51:-7.214069e+00 52:-8.510857e+00 53:-1.963119e-01 54:1.605683e+00 55:3.504233e+00 56:-9.040936e+00 57:8.689072e+00 58:8.191914e+00 59:-1.580198e+00 60:6.038939e+00 61:4.276196e-01 62:-1.194347e+00 63:6.001485e+00 64:3.327879e+00 65:2.484259e-01 66:1.542777e+00 67:4.310778e+00 68:-9.374495e+00 69:-8.627483e+00 70:8.483475e+00 71:-4.885439e+00 72:1.011123e+01 73:2.861355e+00 74:-9.223564e+00 75:-9.483741e+00 76:4.824746e+00 77:-6.509822e+00 78:-2.361566e+00 79:-5.661834e-01 80:1.086533e-01 81:-3.890262e+00 82:-7.414969e+00 83:-2.691456e+00 84:-2.805253e+00 85:-9.304452e+00 86:8.472759e+00 87:1.592961e-01 88:8.114690e-01 89:-5.016801e+00 90:4.012874e+00 91:-7.760020e+00 92:-7.628662e+00 93:3.177117e+00 94:3.131302e+00 95:6.203054e+00 96:-7.608959e+00 97:1.050386e+00 98:-8.300010e+00 99:-1.551059e+00 100:-1.242754e+00 101:7.036139e+00 102:-1.551067e+00 103:-9.265577e+00 104:8.331971e+00 105:4.389777e+00 106:3.321572e+00 107:1.779884e+00 108:-4.135182e+00 109:3.384352e+00 110:3.001842e+00 111:2.268833e+00 112:-1.011497e+01 113:5.502650e+00 114:4.326956e+00 115:8.816276e-01 116:-4.538293e+00 117:5.444517e+00 118:-5.286069e+00 119:-7.250178e+00 120:-7.790511e+00 121:-8.990560e+00 122:1.485686e+00 123:-4.630316e+00 124:4.597150e+00 125:-6.737573e+00 126:5.597455e+00 127:-5.270235e+00 128:2.014329e+00 129:2.430179e+00 130:-1.636918e+00 131:3.515286e+00 132:-3.202928e+00 133:-8.961475e+00 134:-8.031031e+00 135:-6.314846e+00 136:-8.146202e-01 137:4.532101e+00 138:3.049597e+00 139:-3.323317e-01 140:-5.716022e-01 141:1.523570e+00 142:2.334312e-01 143:2.617717e+00 144:-4.272447e+00 145:3.031798e-01 146:-3.804594e+00 147:-2.840071e+00 148:-3.317802e+00 149:-2.848393e-01 150:-2.240011e+00 151:2.378738e+00 152:8.515603e+00 153:1.044269e+01 154:6.107471e+00 155:-8.601340e+00 156:6.594784e+00 157:-9.690891e+00 158:6.385803e+00 159:5.120782e+00 160:-6.899046e+00 161:-6.077432e+00 162:-3.328901e+00 163:1.025473e+01 164:-3.033563e+00 165:2.345412e+00 166:4.530861e+00 167:-8.009609e+00 168:-9.996485e+00 169:1.571125e+00 170:2.570327e+00 171:2.062897e-01 172:9.153184e+00 173:-7.734016e+00 174:-6.328314e+00 175:-1.048765e+01 176:-3.629587e+00 177:2.207079e+00 178:-8.802334e+00 179:-7.843933e+00 180:-1.672030e+00 181:-6.624263e+00 182:5.809313e+00 183:-3.542851e+00 184:5.461700e+00 185:-1.786220e+00 186:6.206453e+00 187:5.419935e+00 188:1.116576e+00 189:-4.340987e+00 190:-6.207718e+00 191:4.790675e-01 192:3.869995e+00 193:5.067472e+00 194:-6.186729e+00 195:-4.795281e+00 196:7.232052e+00 197:-6.403725e+00 198:-3.400745e+00 199:-5.212193e+00 
-0.023697013081863023 0:7.095361e+00 1:1.541666e+00 2:6.422880e+00 3:1.030545e+00 4:-8.350186e+00 5:-1.531700e+00 6:-6.374308e+00 7:-1.647999e+00 8:-5.427827e+00 9:4.495162e+00 10:-6.074063e+00 11:-1.035333e+01 12:-3.952051e+00 13:1.132617e+01 14:-3.393021e+00 15:-4.396066e-01 16:-5.707964e+00 17:-7.184902e+00 18:4.718235e+00 19:1.083224e+01 20:-2.729729e+00 21:-4.235934e+00 22:-5.394669e+00 23:-8.344763e+00 24:-6.403490e+00 25:-6.764381e+00 26:8.959521e+00 27:-7.756417e+00 28:5.459004e+00 29:4.733942e+00 30:9.836059e+00 31:-8.207662e+00 32:-4.942002e+00 33:6.844978e+00 34:5.949978e+00 35:7.760141e+00 36:-8.027124e-01 37:-7.188046e+00 38:-4.523671e+00 39:-9.608412e+00 40:-9.599547e+00 41:3.758470e+00 42:2.373096e+00 43:3.487691e+00 44:2.831768e-01 45:-5.675165e+00 46:1.643273e+00 47:6.740061e+00 48:-5.198013e-01 49:-9.298985e+00 50:4.816095e+00 51:-5.265722e+00 52:-1.003075e+01 53:-5.023667e-01 54:-5.329249e-01 55:2.303859e-01 56:-7.257774e+00 57:6.609049e+00 58:1.022761e+01 59:-2.311456e+00 60:5.470228e+00 61:-1.768241e+00 62:-1.532935e+00 63:5.893183e+00 64:2.933494e+00 65:4.454642e-01 66:3.999490e-01 67:2.717823e+00 68:-8.111973e+00 69:-7.697958e+00 70:9.223977e+00 71:-2.480333e+00 72:8.155767e+00 73:3.885594e+00 74:-1.082535e+01 75:-9.370508e+00 76:5.420399e+00 77:-6.499863e+00 78:-1.862340e-01 79:-2.355288e+00 80:-1.442753e+00 81:-2.464304e+00 82:-1.032834e+01 83:-5.145467e+00 84:-4.591772e+00 85:-1.021333e+01 86:9.343946e+00 87:2.279868e+00 88:9.480372e-01 89:-3.070555e+00 90:4.957970e+00 91:-8.310388e+00 92:-7.590522e+00 93:3.434456e+00 94:2.379209e+00 95:8.060595e+00 96:-8.028147e+00 97:3.267906e+00 98:-8.730223e+00 99:-1.028961e+00 100:-1.883676e+00 101:5.671852e+00 102:-2.280672e+00 103:-6.358542e+00 104:9.862454e+00 105:3.674352e+00 106:2.161014e+00 107:2.622334e+00 108:-4.603721e+00 109:5.279213e+00 110:2.756471e+00 111:3.330236e+00 112:-8.407439e+00 113:8.963421e+00 114:5.680987e+00 115:1.349811e+00 116:-5.344426e+00 117:5.964990e+00 118:-5.114815e+00 119:-7.254604e+00 120:-7.798071e+00 121:-9.469372e+00 122:2.934429e+00 123:-3.936514e+00 124:4.507027e+00 125:-8.198738e+00 126:7.312961e+00 127:-6.629229e+00 128:2.209699e+00 129:3.920881e+00 130:-2.684449e+00 131:1.545392e+00 132:-3.283377e+00 133:-7.979734e+00 134:-6.686714e+00 135:-7.490234e+00 136:-2.558606e+00 137:2.825862e+00 138:1.853995e+00 139:1.893861e+00 140:-3.984110e-01 141:1.833550e+00 142:9.641251e-01 143:4.054695e+00 144:-2.512107e+00 145:-4.372741e-01 146:-3.351717e+00 147:7.291187e-02 148:-3.634477e+00 149:-5.914798e-01 150:-1.228654e+00 151:2.097162e+00 152:7.232268e+00 153:8.069818e+00 154:7.450113e+00 155:-6.635758e+00 156:7.332568e+00 157:-1.022587e+01 158:7.809394e+00 159:4.736162e+00 160:-7.878480e+00 161:-4.572453e+00 162:-1.127961e+00 163:1.085274e+01 164:-8.828739e-01 165:3.775802e+00 166:4.626629e+00 167:-6.807817e+00 168:-1.036884e+01 169:1.749901e+00 170:1.720022e+00 171:-5.684123e-01 172:8.789678e+00 173:-1.140213e+01 174:-4.359929e+00 175:-1.080377e+01 176:-3.531772e+00 177:2.903360e+00 178:-1.074947e+01 179:-8.588483e+00 180:-8.831084e-01 181:-7.158676e+00 182:7.745744e+00 183:-3.929604e+00 184:5.068138e+00 185:-9.102646e-01 186:6.882118e+00 187:5.822001e+00 188:-9.334458e-01 189:-7.099803e+00 190:-6.579959e+00 191:-7.307474e-01 192:2.682950e+00 193:4.747077e+00 194:-4.933136e+00 195:-1.652451e+00 196:6.243272e+00 197:-7.234157e+00 198:-5.147837e+00 199:-5.732984e+00 
0.008241271106052763 0:7.845924e+00 1:4.529350e+00 2:8.386522e+00 3:3.188196e+00 4:-1.120160e+01 5:-4.147541e-01 6:-6.407277e+00 7:-3.650199e+00 8:-5.555369e+00 9:6.923996e+00 10:-5.770557e+00 11:-8.445947e+00 12:-4.662830e+00 13:1.000717e+01 14:-4.544048e+00 15:-3.189417e+00 16:-6.174287e+00 17:-5.586413e+00 18:6.626345e+00 19:8.821233e+00 20:-2.252532e+00 21:-3.579074e+00 22:-4.559869e+00 23:-7.657994e+00 24:-4.825010e+00 25:-4.481290e+00 26:9.099510e+00 27:-5.256682e+00 28:7.586252e+00 29:5.553402e+00 30:8.884189e+00 31:-9.535712e+00 32:-2.769358e+00 33:5.655283e+00 34:4.972550e+00 35:8.712994e+00 36:-1.249386e+00 37:-8.765555e+00 38:-6.311964e+00 39:-8.356531e+00 40:-9.919637e+00 41:4.900092e+00 42:-3.343294e-01 43:7.129038e+00 44:2.125936e+00 45:-5.521491e+00 46:2.389291e+00 47:4.908702e+00 48:-7.658167e-02 49:-8.094158e+00 50:3.088715e+00 51:-7.403568e+00 52:-7.881950e+00 53:-8.607471e-01 54:8.333274e-01 55:3.154968e+00 56:-7.386414e+00 57:7.260922e+00 58:8.021494e+00 59:-2.107932e+00 60:4.326836e+00 61:-6.807657e-01 62:-1.559459e+00 63:6.507270e+00 64:4.489200e+00 65:7.715016e-01 66:-6.774294e-01 67:3.053095e+00 68:-8.841981e+00 69:-7.210759e+00 70:8.924791e+00 71:-4.672685e+00 72:9.822273e+00 73:4.782250e+00 74:-1.187316e+01 75:-8.701871e+00 76:5.821195e+00 77:-7.292119e+00 78:-3.039391e+00 79:-1.128820e+00 80:-4.691726e-01 81:-2.869653e+00 82:-7.698769e+00 83:-2.881464e+00 84:-3.688825e+00 85:-8.744879e+00 86:7.776191e+00 87:1.930026e+00 88:-4.604781e-01 89:-4.305264e+00 90:3.947880e+00 91:-5.603297e+00 92:-8.059040e+00 93:4.724589e+00 94:2.977752e+00 95:6.107390e+00 96:-8.096929e+00 97:2.771764e+00 98:-8.744403e+00 99:-2.895844e-01 100:-2.274599e-02 101:4.840821e+00 102:-9.653486e-01 103:-1.034680e+01 104:9.658175e+00 105:4.759079e+00 106:4.706891e+00 107:5.252586e-01 108:-4.847397e+00 109:3.379547e+00 110:2.510262e+00 111:4.741354e+00 112:-8.890951e+00 113:7.336096e+00 114:4.430086e+00 115:3.367879e+00 116:-1.979052e+00 117:5.881901e+00 118:-5.556615e+00 119:-6.234531e+00 120:-8.724807e+00 121:-9.087361e+00 122:3.272298e+00 123:-3.404222e+00 124:3.221606e+00 125:-8.189149e+00 126:5.780311e+00 127:-4.366468e+00 128:3.098630e+00 129:2.686551e+00 130:-9.092778e-01 131:3.194126e+00 132:-1.551615e+00 133:-6.598731e+00 134:-6.255376e+00 135:-7.055674e+00 136:-4.846058e-02 137:5.110214e+00 138:1.717735e+00 139:1.069515e+00 140:1.664070e-01 141:8.859037e-02 142:1.568995e+00 143:3.497107e+00 144:-5.568118e+00 145:-2.275437e-01 146:-1.280257e+00 147:-1.753978e+00 148:-1.979405e+00 149:-1.458502e+00 150:-1.372254e+00 151:3.386848e+00 152:6.475903e+00 153:7.593744e+00 154:7.148121e+00 155:-6.728070e+00 156:7.275369e+00 157:-7.514649e+00 158:7.658770e+00 159:6.356075e+00 160:-7.701057e+00 161:-4.778043e+00 162:-2.289906e+00 163:9.009276e+00 164:-1.590574e+00 165:3.849014e+00 166:4.428820e+00 167:-6.870151e+00 168:-7.441111e+00 169:1.308616e+00 170:3.402952e+00 171:1.704922e+00 172:9.405371e+00 173:-1.072146e+01 174:-5.432689e+00 175:-1.212534e+01 176:-3.662180e+00 177:2.198178e+00 178:-9.435231e+00 179:-7.261880e+00 180:-2.645113e+00 181:-8.129287e+00 182:6.567631e+00 183:-4.673599e+00 184:6.415805e+00 185:-1.071814e+00 186:5.055372e+00 187:4.698973e+00 188:-1.985460e-01 189:-4.370933e+00 190:-7.325758e+00 191:1.766904e+00 192:1.843456e+00 193:3.490392e+00 194:-5.132593e+00 195:-3.225520e+00 196:6.593133e+00 197:-6.350217e+00 198:-5.068742e+00 199:-4.995029e+00 
0.00012437612365483842 0:7.534687e+00 1:2.820224e+00 2:8.340577e+00 3:2.194793e+00 4:-1.069329e+01 5:6.459040e-01 6:-7.133407e+00 7:-3.112856e+00 8:-6.099787e+00 9:4.318133e+00 10:-6.295642e+00 11:-6.478821e+00 12:-4.076638e+00 13:8.319567e+00 14:-1.469022e+00 15:2.326605e-01 16:-8.006382e+00 17:-8.379446e+00 18:5.899177e+00 19:8.557532e+00 20:-4.752023e-01 21:-5.046186e+00 22:-5.591841e+00 23:-6.106176e+00 24:-3.938249e+00 25:-3.752398e+00 26:8.266330e+00 27:-5.782264e+00 28:5.166784e+00 29:4.229519e+00 30:1.006147e+01 31:-9.116405e+00 32:-3.220724e+00 33:8.049781e+00 34:3.270983e+00 35:6.871133e+00 36:4.766129e-02 37:-9.421759e+00 38:-4.900788e+00 39:-6.861327e+00 40:-8.960411e+00 41:3.319962e+00 42:1.884639e+00 43:6.831354e+00 44:5.900561e-01 45:-6.653147e+00 46:2.609453e+00 47:5.085089e+00 48:-6.271656e-01 49:-6.902646e+00 50:4.306709e+00 51:-8.598770e+00 52:-7.745823e+00 53:-1.486580e+00 54:1.091414e+00 55:3.374347e+00 56:-7.181734e+00 57:7.828561e+00 58:7.610822e+00 59:-9.368755e-01 60:7.550040e+00 61:-1.774135e+00 62:-1.272569e+00 63:6.411835e+00 64:3.965276e+00 65:9.138307e-01 66:-1.241326e+00 67:3.639627e+00 68:-7.693930e+00 69:-8.422153e+00 70:1.059446e+01 71:-1.728737e+00 72:8.589652e+00 73:6.190967e+00 74:-1.140630e+01 75:-8.824616e+00 76:5.949044e+00 77:-9.229274e+00 78:-2.802103e+00 79:5.411383e-01 80:-2.475892e-01 81:-2.453637e+00 82:-7.381354e+00 83:-5.366108e+00 84:-4.764542e+00 85:-1.067036e+01 86:6.762519e+00 87:1.740243e+00 88:5.806959e-01 89:-3.041512e+00 90:7.497379e+00 91:-8.254733e+00 92:-9.647009e+00 93:2.760834e+00 94:2.323821e+00 95:7.032322e+00 96:-6.393476e+00 97:1.285330e+00 98:-9.100353e+00 99:-2.463814e+00 100:-3.249700e+00 101:3.558349e+00 102:-3.385743e+00 103:-8.416002e+00 104:8.842581e+00 105:3.602593e+00 106:2.389612e+00 107:1.752670e+00 108:-3.817674e+00 109:1.956426e+00 110:1.614238e+00 111:5.179595e+00 112:-9.358174e+00 113:7.608085e+00 114:4.287170e+00 115:1.842471e+00 116:-1.984692e+00 117:6.679244e+00 118:-7.215993e+00 119:-6.738747e+00 120:-5.730174e+00 121:-1.023744e+01 122:2.024142e+00 123:-3.895597e+00 124:3.214077e+00 125:-6.364142e+00 126:4.863434e+00 127:-4.467972e+00 128:1.431802e+00 129:7.804915e-01 130:-2.707224e+00 131:1.415298e+00 132:-3.636826e+00 133:-8.491701e+00 134:-8.660036e+00 135:-7.527810e+00 136:6.962245e-01 137:4.098371e+00 138:3.525270e+00 139:-1.098486e-01 140:-4.725589e-01 141:1.537820e+00 142:2.153357e+00 143:2.440344e+00 144:-5.289436e+00 145:-2.078621e+00 146:-3.601623e+00 147:-2.213171e+00 148:-4.861869e+00 149:-2.499333e+00 150:-2.292103e+00 151:2.378568e+00 152:7.623777e+00 153:1.062563e+01 154:6.273323e+00 155:-6.187808e+00 156:8.061700e+00 157:-9.380173e+00 158:8.424578e+00 159:3.373339e+00 160:-7.754458e+00 161:-6.263065e+00 162:-4.802055e+00 163:9.590972e+00 164:-9.453547e-01 165:1.364129e+00 166:4.422165e+00 167:-7.842138e+00 168:-7.573025e+00 169:2.749438e+00 170:1.433002e+00 171:1.533412e+00 172:1.137795e+01 173:-1.092969e+01 174:-7.291248e+00 175:-1.038028e+01 176:-3.113878e+00 177:3.987420e+00 178:-1.071130e+01 179:-1.054636e+01 180:-1.981417e+00 181:-5.785137e+00 182:7.067248e+00 183:-2.021700e+00 184:5.456987e+00 185:6.611366e-01 186:6.548309e+00 187:4.782034e+00 188:-7.706642e-01 189:-6.164330e+00 190:-7.866371e+00 191:2.241184e+00 192:4.787350e+00 193:5.603636e+00 194:-5.304440e+00 195:-3.085876e+00 196:5.461460e+00 197:-5.923249e+00 198:-6.096460e+00 199:-3.608536e+00 
0.0008092612276054679 0:7.843551e+00 1:2.313627e+00 2:7.006338e+00 3:2.084468e+00 4:-1.050378e+01 5:-1.194829e+00 6:-6.539534e+00 7:-2.442730e+00 8:-6.257835e+00 9:3.236906e+00 10:-5.831521e+00 11:-1.197355e+01 12:-5.120257e+00 13:8.265221e+00 14:-2.150812e+00 15:-3.230001e+00 16:-8.826867e+00 17:-6.280330e+00 18:5.959628e+00 19:1.151288e+01 20:-2.345266e+00 21:-3.442093e+00 22:-5.340714e+00 23:-8.934676e+00 24:-7.065126e+00 25:-4.860545e+00 26:6.599819e+00 27:-5.684325e+00 28:6.433751e+00 29:5.151109e+00 30:9.155893e+00 31:-8.918992e+00 32:-3.798974e+00 33:6.679371e+00 34:5.832306e+00 35:9.517341e+00 36:6.683899e-01 37:-8.379660e+00 38:-5.725526e+00 39:-6.672800e+00 40:-9.013747e+00 41:4.690508e+00 42:-2.646627e-01 43:6.487265e+00 44:-1.377359e+00 45:-4.367160e+00 46:8.762282e-01 47:6.538449e+00 48:2.787612e+00 49:-8.074735e+00 50:2.201235e+00 51:-7.233708e+00 52:-7.779227e+00 53:-9.713574e-01 54:6.723959e-01 55:4.138790e+00 56:-8.577011e+00 57:7.270980e+00 58:8.316238e+00 59:-2.318952e+00 60:4.339557e+00 61:-3.047548e+00 62:-1.223002e+00 63:6.787586e+00 64:3.516620e+00 65:4.845594e-02 66:-9.341847e-01 67:4.866591e+00 68:-8.782203e+00 69:-7.010587e+00 70:9.424004e+00 71:-2.720695e+00 72:9.135796e+00 73:4.810204e+00 74:-1.041844e+01 75:-9.350684e+00 76:6.306006e+00 77:-6.536585e+00 78:-1.302111e-01 79:-1.453970e+00 80:-1.273021e+00 81:-2.013276e+00 82:-7.046573e+00 83:-2.777488e+00 84:-4.261450e+00 85:-1.011820e+01 86:8.181522e+00 87:-7.165984e-01 88:4.047904e-01 89:-4.372439e+00 90:6.475736e+00 91:-7.588291e+00 92:-8.290734e+00 93:3.320815e+00 94:3.036670e+00 95:6.055337e+00 96:-8.385036e+00 97:3.253418e+00 98:-7.116005e+00 99:-3.520533e+00 100:-2.392865e+00 101:2.834477e+00 102:-3.942879e+00 103:-7.810840e+00 104:9.620096e+00 105:4.260150e+00 106:3.467701e+00 107:3.567118e+00 108:-2.016896e+00 109:5.345477e+00 110:3.306224e+00 111:3.728926e+00 112:-1.017245e+01 113:8.042503e+00 114:3.213905e+00 115:1.502610e+00 116:-4.547891e+00 117:4.615808e+00 118:-6.025864e+00 119:-7.498454e+00 120:-9.211862e+00 121:-8.721626e+00 122:3.233022e+00 123:-3.602356e+00 124:2.884072e+00 125:-7.468149e+00 126:5.292050e+00 127:-4.085305e+00 128:2.473884e+00 129:1.274005e+00 130:-8.310301e-01 131:2.230309e+00 132:-4.717077e+00 133:-7.830830e+00 134:-6.717803e+00 135:-5.900093e+00 136:8.924683e-01 137:2.229843e+00 138:3.722292e+00 139:2.615447e+00 140:1.296494e+00 141:1.763511e+00 142:1.470364e+00 143:2.867476e+00 144:-2.463188e+00 145:4.784766e-01 146:-3.176669e+00 147:-1.607259e+00 148:-3.899423e+00 149:-3.433214e-01 150:-2.487623e+00 151:3.701938e-01 152:8.050465e+00 153:8.501730e+00 154:6.687074e+00 155:-7.527085e+00 156:7.195142e+00 157:-7.316395e+00 158:8.043625e+00 159:5.397707e+00 160:-7.368252e+00 161:-5.063927e+00 162:-5.064313e+00 163:1.014902e+01 164:-1.903388e+00 165:2.201681e+00 166:2.567138e+00 167:-7.925417e+00 168:-1.181724e+01 169:1.652882e+00 170:1.520504e+00 171:1.353939e+00 172:8.630075e+00 173:-7.642597e+00 174:-6.125900e+00 175:-8.753503e+00 176:-3.227113e+00 177:2.228240e+00 178:-1.034257e+01 179:-8.752148e+00 180:-7.851602e-01 181:-6.823386e+00 182:5.758619e+00 183:-4.255115e+00 184:5.026957e+00 185:-2.653105e-02 186:6.986690e+00 187:5.179031e+00 188:6.471886e-01 189:-4.329458e+00 190:-8.010167e+00 191:-3.887795e-03 192:2.157498e+00 193:4.334853e+00 194:-6.007306e+00 195:-2.863935e+00 196:6.115467e+00 197:-7.143102e+00 198:-4.940114e+00 199:-5.793870e+00 
0.009401223063200332 0:5.970668e+00 1:4.065834e+00 2:8.391130e+00 3:2.837574e+00 4:-1.142012e+01 5:-2.507457e-02 6:-6.403201e+00 7:-1.358632e+00 8:-6.067963e+00 9:3.736539e+00 10:-7.882944e+00 11:-9.231787e+00 12:-4.110744e+00 13:7.857150e+00 14:-2.572295e+00 15:-2.586130e+00 16:-6.056825e+00 17:-7.043084e+00 18:4.459074e+00 19:1.055627e+01 20:-1.674044e+00 21:-3.099759e+00 22:-5.966513e+00 23:-5.258164e+00 24:-6.048731e+00 25:-5.145598e+00 26:8.779013e+00 27:-5.348139e+00 28:7.068956e+00 29:6.045232e+00 30:9.869248e+00 31:-1.039218e+01 32:-4.458131e+00 33:7.056608e+00 34:1.882592e+00 35:7.111770e+00 36:1.937730e-01 37:-9.632080e+00 38:-6.394910e+00 39:-7.610588e+00 40:-8.504230e+00 41:4.908055e+00 42:9.701087e-01 43:5.322357e+00 44:3.890884e-03 45:-5.166896e+00 46:2.544033e+00 47:7.585022e+00 48:2.139528e-01 49:-7.511114e+00 50:3.804275e+00 51:-5.992585e+00 52:-8.743783e+00 53:-2.090284e+00 54:6.864004e-01 55:3.072657e+00 56:-7.339375e+00 57:7.846356e+00 58:8.751186e+00 59:-7.648573e-01 60:3.381625e+00 61:-2.832210e+00 62:-4.282434e+00 63:7.832829e+00 64:3.884743e+00 65:-8.098357e-01 66:-3.422471e-01 67:3.886251e+00 68:-7.589836e+00 69:-7.243854e+00 70:9.163279e+00 71:-3.599729e+00 72:9.544871e+00 73:5.086701e+00 74:-1.054975e+01 75:-7.272699e+00 76:5.121194e+00 77:-9.558083e+00 78:-2.248638e+00 79:-2.721811e-02 80:-7.780301e-01 81:-2.501214e+00 82:-8.152585e+00 83:-3.402866e+00 84:-5.174923e+00 85:-9.530880e+00 86:9.043202e+00 87:1.479829e+00 88:2.131972e+00 89:-2.399733e+00 90:7.649738e+00 91:-7.444558e+00 92:-7.392179e+00 93:4.544403e+00 94:3.035522e+00 95:5.068239e+00 96:-7.241836e+00 97:3.294514e-01 98:-7.580437e+00 99:-1.715293e+00 100:-3.808576e+00 101:4.824705e+00 102:-2.716440e+00 103:-6.444848e+00 104:8.913169e+00 105:4.129589e+00 106:2.510210e+00 107:2.484863e+00 108:-2.321137e+00 109:3.946963e+00 110:3.969414e+00 111:4.707266e+00 112:-1.020183e+01 113:9.351844e+00 114:4.399377e+00 115:7.913972e-01 116:-3.113123e+00 117:7.844614e+00 118:-5.653205e+00 119:-5.580612e+00 120:-7.970309e+00 121:-9.196329e+00 122:1.585639e+00 123:-6.085402e+00 124:2.723227e+00 125:-8.635910e+00 126:7.005730e+00 127:-5.245859e+00 128:1.721660e+00 129:2.382315e+00 130:-2.600500e+00 131:3.196769e+00 132:-1.498852e+00 133:-7.470923e+00 134:-6.034897e+00 135:-7.411149e+00 136:-2.608631e-01 137:4.711339e+00 138:5.624880e+00 139:2.362834e+00 140:5.263031e-01 141:4.814033e-01 142:2.016671e+00 143:3.300409e+00 144:-5.313024e+00 145:-3.908828e+00 146:-3.009153e+00 147:-7.803261e-01 148:-3.531426e+00 149:-1.670840e-01 150:-1.242456e+00 151:1.898229e+00 152:6.781889e+00 153:9.123626e+00 154:7.063768e+00 155:-7.069685e+00 156:7.142707e+00 157:-1.137311e+01 158:7.224611e+00 159:6.403658e+00 160:-5.496319e+00 161:-3.939353e+00 162:-4.655618e+00 163:1.084148e+01 164:-1.292377e+00 165:2.869131e+00 166:6.589358e+00 167:-6.719513e+00 168:-1.117802e+01 169:1.084493e+00 170:9.356268e-01 171:-3.980729e-02 172:8.042880e+00 173:-1.099119e+01 174:-5.111439e+00 175:-1.026008e+01 176:-4.415126e+00 177:2.017537e+00 178:-8.457180e+00 179:-8.408951e+00 180:-1.272955e+00 181:-5.458986e+00 182:6.544595e+00 183:-3.930388e+00 184:5.944701e+00 185:2.297684e-01 186:5.570932e+00 187:5.623670e+00 188:3.049663e-01 189:-5.683024e+00 190:-6.981989e+00 191:1.343370e+00 192:1.346544e+00 193:4.971332e+00 194:-5.200417e+00 195:-1.615669e+00 196:6.843451e+00 197:-6.515048e+00 198:-5.062271e+00 199:-6.992610e+00 
-0.017273866295715073 0:7.469534e+00 1:4.708312e+00 2:6.253346e+00 3:4.333313e-01 4:-1.046569e+01 5:-4.431756e-01 6:-7.300929e+00 7:-4.454924e+00 8:-5.112719e+00 9:3.996467e+00 10:-6.799532e+00 11:-8.846601e+00 12:-5.797997e+00 13:1.060120e+01 14:-2.153724e+00 15:-3.633979e+00 16:-7.009137e+00 17:-6.319006e+00 18:6.740377e+00 19:9.985318e+00 20:-2.295218e+00 21:-3.010643e+00 22:-3.386606e+00 23:-1.004293e+01 24:-5.978923e+00 25:-4.565675e+00 26:9.045694e+00 27:-6.736547e+00 28:6.032707e+00 29:4.939689e+00 30:9.182055e+00 31:-9.626469e+00 32:-4.498158e+00 33:5.733193e+00 34:3.994953e+00 35:7.296143e+00 36:-1.988088e+00 37:-8.802417e+00 38:-3.736024e+00 39:-7.380892e+00 40:-9.157723e+00 41:3.676102e+00 42:3.296883e+00 43:4.974092e+00 44:-6.187644e-01 45:-3.407940e+00 46:-4.649786e-02 47:5.519378e+00 48:1.245000e+00 49:-7.264017e+00 50:2.773751e+00 51:-5.725714e+00 52:-8.753478e+00 53:-1.759103e+00 54:-6.388316e-01 55:5.147740e+00 56:-8.792614e+00 57:8.027899e+00 58:7.255942e+00 59:-1.322477e+00 60:8.089517e+00 61:-2.214701e-01 62:-1.574811e+00 63:6.788665e+00 64:5.870149e+00 65:1.895706e-01 66:-9.406313e-01 67:2.859396e+00 68:-6.736124e+00 69:-6.035922e+00 70:8.178910e+00 71:-3.504072e+00 72:9.048729e+00 73:6.527780e+00 74:-9.877437e+00 75:-9.274453e+00 76:5.298744e+00 77:-8.029043e+00 78:-3.501298e+00 79:-6.017484e-01 80:-1.160043e+00 81:-2.035471e+00 82:-8.834428e+00 83:-1.239222e+00 84:-3.112691e+00 85:-1.059784e+01 86:7.399218e+00 87:-3.286123e-01 88:-8.381328e-01 89:-5.596541e+00 90:4.849295e+00 91:-8.992504e+00 92:-9.723856e+00 93:4.332602e+00 94:3.131907e+00 95:4.841218e+00 96:-8.159203e+00 97:2.497095e+00 98:-8.088796e+00 99:-3.589304e-01 100:-3.652956e+00 101:3.571757e+00 102:-2.418484e+00 103:-7.794986e+00 104:9.037642e+00 105:4.319948e+00 106:4.781484e+00 107:2.637794e+00 108:-3.254334e+00 109:3.715661e+00 110:4.683544e+00 111:3.094182e+00 112:-9.584974e+00 113:7.879367e+00 114:3.597225e+00 115:2.635852e+00 116:-2.093689e+00 117:5.873404e+00 118:-7.673450e+00 119:-6.611506e+00 120:-8.477584e+00 121:-7.243075e+00 122:2.005522e+00 123:-4.597930e+00 124:3.100451e+00 125:-5.058230e+00 126:5.838616e+00 127:-4.360349e+00 128:1.193443e+00 129:2.265080e+00 130:-1.176025e+00 131:2.008495e+00 132:-2.572352e+00 133:-8.812547e+00 134:-5.519608e+00 135:-7.094315e+00 136:1.126404e+00 137:3.048735e+00 138:2.567103e+00 139:1.191501e+00 140:9.739144e-01 141:2.261900e+00 142:-7.005321e-01 143:4.217925e+00 144:-3.234674e+00 145:-5.317266e-01 146:-4.757819e+00 147:-2.008495e-01 148:-3.938494e+00 149:-5.310701e-01 150:-4.181387e+00 151:4.603755e+00 152:8.791370e+00 153:8.201425e+00 154:7.084621e+00 155:-6.325471e+00 156:7.698763e+00 157:-7.981888e+00 158:7.968808e+00 159:7.049613e+00 160:-6.664780e+00 161:-3.839999e+00 162:-4.409218e+00 163:9.708634e+00 164:2.030236e-01 165:2.454672e+00 166:5.759672e+00 167:-4.003614e+00 168:-9.320390e+00 169:7.958806e-01 170:2.883516e+00 171:-7.822289e-01 172:9.165247e+00 173:-1.142997e+01 174:-4.691300e+00 175:-1.021498e+01 176:-3.266756e+00 177:2.744752e+00 178:-1.119425e+01 179:-8.319602e+00 180:-1.446458e+00 181:-8.332213e+00 182:4.998533e+00 183:-3.818917e+00 184:6.413199e+00 185:2.853203e-01 186:6.504453e+00 187:5.839313e+00 188:-1.611075e+00 189:-5.846549e+00 190:-6.174059e+00 191:1.566196e-01 192:3.503726e+00 193:5.605645e+00 194:-5.416844e+00 195:-1.206579e+00 196:7.635586e+00 197:-5.537666e+00 198:-3.761616e+00 199:-6.027992e+00 
-0.0036589971963919103 0:7.673639e+00 1:2.641891e+00 2:6.272384e+00 3:1.324523e+00 4:-8.066240e+00 5:9.312507e-01 6:-5.609254e+00 7:-2.009334e+00 8:-6.244547e+00 9:4.020846e+00 10:-6.431507e+00 11:-1.014451e+01 12:-4.485982e+00 13:9.269526e+00 14:-1.446209e+00 15:-2.816463e+00 16:-8.125452e+00 17:-6.113336e+00 18:5.177987e+00 19:8.124751e+00 20:-1.706758e+00 21:-2.666295e+00 22:-6.477709e+00 23:-5.472200e+00 24:-5.421504e+00 25:-5.597896e+00 26:9.630688e+00 27:-6.704307e+00 28:7.229206e+00 29:4.708616e+00 30:1.045884e+01 31:-1.116028e+01 32:-3.696743e+00 33:6.163542e+00 34:4.690218e+00 35:7.469609e+00 36:2.965030e-01 37:-1.002307e+01 38:-6.144365e+00 39:-7.879221e+00 40:-9.055202e+00 41:1.707320e+00 42:4.780837e-01 43:5.399076e+00 44:9.946564e-01 45:-4.822422e+00 46:1.668815e+00 47:6.648752e+00 48:2.624975e-01 49:-6.978110e+00 50:3.416595e+00 51:-9.390795e+00 52:-8.963876e+00 53:-6.432140e-02 54:-6.268211e-02 55:2.965949e+00 56:-7.085927e+00 57:8.742979e+00 58:7.124822e+00 59:-1.386327e+00 60:5.357098e+00 61:-1.486872e+00 62:-3.640291e+00 63:7.196283e+00 64:3.436195e+00 65:-1.755211e+00 66:-8.030417e-01 67:4.801504e+00 68:-7.197016e+00 69:-7.704309e+00 70:9.151248e+00 71:-4.889993e+00 72:7.899965e+00 73:4.312280e+00 74:-9.810660e+00 75:-8.304687e+00 76:5.757736e+00 77:-8.205929e+00 78:2.423633e-02 79:1.370300e-01 80:-1.697475e+00 81:-2.203200e+00 82:-7.362309e+00 83:-3.897312e+00 84:-3.914135e+00 85:-8.323728e+00 86:6.862357e+00 87:-1.212368e+00 88:2.772894e+00 89:-3.674267e+00 90:6.762129e+00 91:-7.313958e+00 92:-7.597925e+00 93:3.601653e+00 94:2.592229e+00 95:5.490750e+00 96:-8.969648e+00 97:1.866167e+00 98:-7.146602e+00 99:4.552408e-01 100:-2.131642e+00 101:5.260955e+00 102:-2.051010e+00 103:-8.334340e+00 104:7.452259e+00 105:4.437265e+00 106:2.312612e+00 107:1.211675e+00 108:-3.972592e+00 109:4.390654e+00 110:1.823020e+00 111:3.263795e+00 112:-1.017176e+01 113:7.734910e+00 114:2.714211e+00 115:2.820322e+00 116:-2.717913e+00 117:6.558069e+00 118:-7.707384e+00 119:-7.583391e+00 120:-9.403573e+00 121:-8.578705e+00 122:3.146306e+00 123:-5.263396e+00 124:3.704041e+00 125:-6.529789e+00 126:5.808840e+00 127:-5.923825e+00 128:2.765913e+00 129:1.001145e+00 130:-8.686020e-01 131:2.716201e+00 132:-2.721473e+00 133:-9.762567e+00 134:-9.795666e+00 135:-7.052356e+00 136:-6.096481e-02 137:2.376933e+00 138:3.278030e+00 139:1.321280e+00 140:1.127994e+00 141:2.207109e+00 142:1.641660e+00 143:3.178304e+00 144:-3.385467e+00 145:-2.583019e+00 146:-3.944846e+00 147:-5.719690e-01 148:-3.984289e+00 149:-6.357030e-01 150:-2.260903e+00 151:1.852991e+00 152:8.700441e+00 153:8.746861e+00 154:6.933302e+00 155:-9.598007e+00 156:6.756182e+00 157:-8.647756e+00 158:8.411456e+00 159:5.177175e+00 160:-7.079720e+00 161:-3.368981e+00 162:-3.873660e+00 163:1.049076e+01 164:-1.039376e+00 165:1.367177e+00 166:7.097114e+00 167:-6.291673e+00 168:-8.989554e+00 169:2.778473e+00 170:1.292434e+00 171:1.342842e+00 172:9.117844e+00 173:-1.109540e+01 174:-5.891544e+00 175:-1.068939e+01 176:-4.049897e+00 177:2.194683e+00 178:-1.069483e+01 179:-7.770714e+00 180:3.310001e-01 181:-7.151019e+00 182:6.403107e+00 183:-3.719881e+00 184:6.470203e+00 185:-1.014850e+00 186:4.572049e+00 187:3.968801e+00 188:1.158349e+00 189:-5.301753e+00 190:-7.417864e+00 191:8.439775e-01 192:1.666349e+00 193:5.360618e+00 194:-6.730507e+00 195:-3.154704e+00 196:7.557745e+00 197:-7.770311e+00 198:-5.004105e+00 199:-5.426986e+00 
-0.015970946972913864 0:6.795420e+00 1:3.620830e+00 2:6.859225e+00 3:1.214125e+00 4:-9.016556e+00 5:-2.917225e-01 6:-7.657145e+00 7:-2.737449e+00 8:-6.986638e+00 9:4.406596e+00 10:-6.775042e+00 11:-8.588646e+00 12:-5.774167e+00 13:1.036594e+01 14:-1.992567e+00 15:-1.797262e+00 16:-6.878737e+00 17:-6.080265e+00 18:4.800780e+00 19:1.120970e+01 20:-1.792877e+00 21:-1.873839e+00 22:-5.294191e+00 23:-7.591021e+00 24:-5.588796e+00 25:-6.073985e+00 26:1.168892e+01 27:-6.682001e+00 28:6.419932e+00 29:5.091599e+00 30:9.296749e+00 31:-8.735861e+00 32:-2.842723e+00 33:6.522297e+00 34:5.576438e+00 35:8.872915e+00 36:1.183786e-01 37:-8.459590e+00 38:-7.168432e+00 39:-6.889575e+00 40:-8.251105e+00 41:2.676171e+00 42:9.885200e-01 43:6.420405e+00 44:1.145445e-01 45:-2.692500e+00 46:2.973837e+00 47:6.983703e+00 48:-2.719914e-02 49:-8.587244e+00 50:2.308889e+00 51:-8.333024e+00 52:-7.548902e+00 53:-1.782563e-01 54:-6.305579e-01 55:1.989475e+00 56:-7.985994e+00 57:7.311099e+00 58:8.607743e+00 59:-1.053869e-01 60:4.520398e+00 61:-1.710472e+00 62:-2.331716e+00 63:7.051455e+00 64:3.345921e+00 65:-3.905580e-01 66:-1.310718e+00 67:1.711313e+00 68:-9.047183e+00 69:-6.999493e+00 70:9.838253e+00 71:-2.746122e+00 72:1.029370e+01 73:5.354523e+00 74:-1.258488e+01 75:-8.011936e+00 76:5.934397e+00 77:-9.510192e+00 78:-6.849308e-01 79:-2.147696e+00 80:-6.372661e-01 81:-2.926848e+00 82:-7.745318e+00 83:-3.631619e+00 84:-4.017983e+00 85:-1.071457e+01 86:7.785549e+00 87:9.161614e-01 88:8.768662e-01 89:-4.526869e+00 90:6.001337e+00 91:-8.625293e+00 92:-8.410059e+00 93:3.924972e+00 94:3.264604e+00 95:5.890242e+00 96:-6.837940e+00 97:4.536232e+00 98:-1.051837e+01 99:-1.447176e+00 100:-2.839953e-01 101:4.714322e+00 102:-1.497471e+00 103:-7.133717e+00 104:1.010988e+01 105:4.015446e+00 106:3.372620e+00 107:1.481606e+00 108:-3.057556e+00 109:3.992158e+00 110:1.349357e+00 111:3.948442e+00 112:-8.632034e+00 113:8.209627e+00 114:3.755510e+00 115:2.102041e+00 116:-2.711459e+00 117:5.494132e+00 118:-5.495103e+00 119:-7.167526e+00 120:-8.561427e+00 121:-8.743000e+00 122:1.934435e+00 123:-3.795305e+00 124:4.103926e+00 125:-6.565709e+00 126:5.418535e+00 127:-3.584608e+00 128:2.786367e+00 129:2.723001e+00 130:-1.606290e+00 131:2.590407e+00 132:-3.554234e+00 133:-9.917104e+00 134:-6.365020e+00 135:-6.195178e+00 136:9.300781e-01 137:3.666511e+00 138:4.478597e+00 139:1.967267e+00 140:1.769080e+00 141:1.038550e+00 142:1.723836e+00 143:2.808261e+00 144:-4.577481e+00 145:-1.503082e+00 146:-2.608352e+00 147:-1.133658e+00 148:-6.950220e+00 149:-6.676217e-01 150:-3.800622e+00 151:8.125318e-01 152:6.585260e+00 153:9.481025e+00 154:8.265169e+00 155:-6.192128e+00 156:6.434052e+00 157:-8.933912e+00 158:8.693404e+00 159:6.241474e+00 160:-5.309057e+00 161:-4.980944e+00 162:-3.741529e+00 163:8.090344e+00 164:-1.652550e+00 165:3.659438e+00 166:6.239169e+00 167:-6.404968e+00 168:-9.903555e+00 169:2.378317e+00 170:3.083778e+00 171:2.324689e+00 172:8.903259e+00 173:-1.199436e+01 174:-2.751598e+00 175:-9.824762e+00 176:-4.358638e+00 177:3.553754e+00 178:-9.950265e+00 179:-8.226715e+00 180:-1.230902e+00 181:-6.593902e+00 182:9.306497e+00 183:-3.366779e+00 184:7.003037e+00 185:-1.786375e+00 186:5.719033e+00 187:3.928776e+00 188:-2.322873e+00 189:-4.183443e+00 190:-7.011434e+00 191:1.345658e+00 192:3.293035e+00 193:4.232133e+00 194:-4.395842e+00 195:-3.752803e+00 196:7.404857e+00 197:-5.925675e+00 198:-3.524421e+00 199:-3.973588e+00 
0.01191085226201486 0:8.065893e+00 1:3.769525e+00 2:7.317531e+00 3:8.563105e-01 4:-1.035511e+01 5:-6.218934e-02 6:-6.878909e+00 7:-4.513721e+00 8:-5.291301e+00 9:5.088716e+00 10:-4.328730e+00 11:-9.086623e+00 12:-2.866709e+00 13:1.029362e+01 14:-1.273878e+00 15:-2.980276e+00 16:-5.936610e+00 17:-7.193996e+00 18:4.896747e+00 19:8.123962e+00 20:-2.714145e+00 21:-3.920919e+00 22:-7.414043e+00 23:-6.002663e+00 24:-5.707641e+00 25:-5.103010e+00 26:9.423384e+00 27:-4.338695e+00 28:7.427719e+00 29:3.603011e+00 30:1.004757e+01 31:-9.298809e+00 32:-3.281688e+00 33:7.230811e+00 34:5.496995e+00 35:9.796902e+00 36:1.814488e-02 37:-8.155555e+00 38:-6.575019e+00 39:-8.370397e+00 40:-7.413400e+00 41:3.119392e+00 42:8.778169e-01 43:5.221773e+00 44:-7.681638e-01 45:-4.893856e+00 46:2.730142e+00 47:4.846221e+00 48:3.153416e-01 49:-7.113245e+00 50:4.930132e+00 51:-8.875267e+00 52:-7.081217e+00 53:-1.879976e-01 54:7.935233e-01 55:2.581722e+00 56:-8.155011e+00 57:7.438311e+00 58:8.899995e+00 59:-1.190652e+00 60:6.347970e+00 61:9.959398e-02 62:-1.831423e-01 63:5.132716e+00 64:2.496409e+00 65:8.252199e-02 66:-9.093063e-01 67:3.359888e+00 68:-6.738905e+00 69:-6.299185e+00 70:7.955982e+00 71:-9.217058e-01 72:9.565944e+00 73:4.147675e+00 74:-9.475979e+00 75:-9.431033e+00 76:7.360051e+00 77:-8.367111e+00 78:-2.104387e+00 79:-1.207188e+00 80:1.458581e+00 81:-3.144155e+00 82:-6.726868e+00 83:-3.930138e+00 84:-3.834800e+00 85:-9.737088e+00 86:8.681477e+00 87:-2.537856e-01 88:8.016544e-01 89:-4.803244e+00 90:5.777927e+00 91:-1.012035e+01 92:-7.447216e+00 93:3.366093e+00 94:3.822210e+00 95:7.356806e+00 96:-7.557380e+00 97:1.512536e+00 98:-8.590947e+00 99:-2.262246e+00 100:-2.308908e+00 101:3.317618e+00 102:-8.461921e-01 103:-6.979344e+00 104:1.046642e+01 105:2.530204e+00 106:2.934723e+00 107:3.383503e+00 108:-3.666361e+00 109:4.057661e+00 110:3.093372e+00 111:5.737877e+00 112:-9.533843e+00 113:8.269045e+00 114:3.685531e+00 115:7.000951e-01 116:-4.147286e+00 117:6.538705e+00 118:-3.743384e+00 119:-6.957338e+00 120:-7.226670e+00 121:-8.754791e+00 122:3.226975e+00 123:-3.334309e+00 124:2.381951e+00 125:-6.715276e+00 126:4.638183e+00 127:-2.882521e+00 128:1.606750e+00 129:1.312813e+00 130:-1.477490e-01 131:2.414793e+00 132:-3.262442e+00 133:-8.216630e+00 134:-6.554128e+00 135:-7.641798e+00 136:-1.765343e+00 137:4.530684e+00 138:1.453694e+00 139:1.294565e+00 140:8.357180e-01 141:-5.420938e-01 142:3.871341e+00 143:3.517351e+00 144:-5.028607e+00 145:-1.123546e+00 146:-2.230751e+00 147:-7.276456e-03 148:-4.378329e+00 149:1.178815e+00 150:-4.027892e+00 151:1.950843e+00 152:7.903379e+00 153:8.585639e+00 154:6.895265e+00 155:-8.084406e+00 156:5.566705e+00 157:-8.848867e+00 158:6.146443e+00 159:5.452254e+00 160:-5.569329e+00 161:-3.660495e+00 162:-3.071094e+00 163:1.269132e+01 164:-2.769922e-01 165:1.129462e+00 166:4.468473e+00 167:-5.558060e+00 168:-1.078115e+01 169:8.377642e-01 170:3.879756e+00 171:6.310954e-02 172:1.011560e+01 173:-8.721295e+00 174:-5.819614e+00 175:-1.076045e+01 176:-1.457157e+00 177:2.574316e+00 178:-9.490108e+00 179:-7.556801e+00 180:7.890618e-02 181:-4.390070e+00 182:8.170822e+00 183:-3.729977e+00 184:7.529911e+00 185:1.292363e-01 186:6.155295e+00 187:5.022120e+00 188:-1.100517e+00 189:-4.932082e+00 190:-6.321186e+00 191:1.257276e+00 192:4.189728e+00 193:5.659150e+00 194:-6.228628e+00 195:-3.711395e+00 196:6.213105e+00 197:-4.359872e+00 198:-5.164033e+00 199:-4.772228e+00 
0.01790039063435406 0:6.650625e+00 1:2.900195e+00 2:6.006714e+00 3:1.717502e+00 4:-1.085511e+01 5:5.972802e-01 6:-7.742024e+00 7:-3.365604e+00 8:-6.934390e+00 9:5.497506e+00 10:-6.095694e+00 11:-6.884099e+00 12:-4.731632e+00 13:9.973668e+00 14:-2.914299e+00 15:-2.314670e+00 16:-4.898792e+00 17:-5.311054e+00 18:5.674193e+00 19:9.942792e+00 20:-2.286943e+00 21:-3.914960e+00 22:-5.505230e+00 23:-9.484378e+00 24:-5.975162e+00 25:-5.545271e+00 26:9.236520e+00 27:-5.262151e+00 28:7.581958e+00 29:4.250090e+00 30:1.143829e+01 31:-1.149290e+01 32:-2.991098e+00 33:7.129748e+00 34:4.947290e+00 35:6.517247e+00 36:-6.500349e-01 37:-9.506618e+00 38:-5.813259e+00 39:-7.976300e+00 40:-8.920406e+00 41:2.933495e+00 42:3.070353e-02 43:4.178002e+00 44:2.378162e+00 45:-4.889837e+00 46:2.744236e+00 47:5.173775e+00 48:-1.009435e+00 49:-6.466852e+00 50:4.824335e+00 51:-7.405686e+00 52:-7.581549e+00 53:-1.453652e+00 54:-4.598260e-01 55:3.699951e+00 56:-9.336051e+00 57:9.018500e+00 58:7.295602e+00 59:-1.721621e+00 60:6.057932e+00 61:-1.396860e+00 62:-1.180284e+00 63:6.791457e+00 64:3.387774e+00 65:-5.678296e-01 66:-3.257805e+00 67:2.272260e+00 68:-7.682876e+00 69:-7.843385e+00 70:1.053198e+01 71:-5.026337e+00 72:7.170352e+00 73:4.517467e+00 74:-8.170470e+00 75:-7.390176e+00 76:5.996748e+00 77:-8.502927e+00 78:-2.872772e+00 79:-2.268850e-01 80:-2.369108e+00 81:-3.163452e+00 82:-7.373259e+00 83:-4.766624e+00 84:-2.221942e+00 85:-1.002101e+01 86:8.171670e+00 87:6.024451e-01 88:3.724936e-01 89:-5.777071e+00 90:7.407070e+00 91:-6.680790e+00 92:-8.952715e+00 93:4.033923e+00 94:2.309015e+00 95:5.657779e+00 96:-8.537647e+00 97:2.767552e+00 98:-6.719642e+00 99:-2.655811e+00 100:-2.278981e+00 101:2.634569e+00 102:2.279414e-01 103:-7.570749e+00 104:8.570706e+00 105:5.161261e+00 106:3.482942e+00 107:2.277766e+00 108:-4.758021e+00 109:3.641513e+00 110:2.480397e+00 111:3.407773e+00 112:-9.969795e+00 113:6.953433e+00 114:3.398135e+00 115:2.223364e+00 116:-4.062967e+00 117:6.301923e+00 118:-7.515376e+00 119:-7.192822e+00 120:-7.501109e+00 121:-8.429510e+00 122:2.786902e+00 123:-3.968887e+00 124:3.243405e+00 125:-5.593372e+00 126:4.503606e+00 127:-6.084673e+00 128:8.689107e-01 129:2.169254e+00 130:-1.860617e+00 131:3.120063e+00 132:-3.413760e+00 133:-8.354419e+00 134:-7.119475e+00 135:-6.459887e+00 136:-2.193598e+00 137:2.405669e+00 138:4.548050e+00 139:1.768598e+00 140:2.249628e+00 141:4.735534e-01 142:2.016481e+00 143:9.955811e-01 144:-5.433976e+00 145:-1.480936e+00 146:-1.336909e+00 147:-1.333494e+00 148:-3.923085e+00 149:1.329122e+00 150:-2.302201e+00 151:9.733609e-01 152:7.831397e+00 153:9.191500e+00 154:6.539045e+00 155:-7.348142e+00 156:7.983983e+00 157:-8.638519e+00 158:6.639575e+00 159:6.544083e+00 160:-6.606539e+00 161:-3.206223e+00 162:-3.491293e+00 163:9.064460e+00 164:-1.382362e+00 165:3.675238e+00 166:6.534327e+00 167:-6.329308e+00 168:-8.696989e+00 169:1.705140e+00 170:2.802261e+00 171:2.713086e+00 172:1.074138e+01 173:-1.042633e+01 174:-6.338131e+00 175:-7.520383e+00 176:-2.014358e+00 177:1.983201e+00 178:-9.642890e+00 179:-9.716826e+00 180:-1.408991e+00 181:-7.117787e+00 182:6.443723e+00 183:-2.328926e+00 184:8.007009e+00 185:-8.171848e-01 186:6.232651e+00 187:4.243480e+00 188:-2.683569e+00 189:-5.455836e+00 190:-8.762438e+00 191:5.883443e-01 192:1.630262e+00 193:4.127824e+00 194:-6.090762e+00 195:-3.575804e+00 196:7.586305e+00 197:-4.995833e+00 198:-4.320693e+00 199:-5.781037e+00 
0.020389221388718556 0:6.906277e+00 1:4.199105e+00 2:5.784594e+00 3:1.410398e+00 4:-1.123392e+01 5:-9.230439e-02 6:-7.728222e+00 7:-3.777352e+00 8:-6.491675e+00 9:4.500881e+00 10:-4.589502e+00 11:-8.897920e+00 12:-5.407420e+00 13:9.760909e+00 14:-2.504557e+00 15:-2.146287e+00 16:-6.995504e+00 17:-6.180555e+00 18:5.483410e+00 19:9.956186e+00 20:-1.988544e+00 21:-3.610711e+00 22:-5.273753e+00 23:-8.103334e+00 24:-7.499456e+00 25:-7.151219e+00 26:8.065145e+00 27:-7.161792e+00 28:5.172581e+00 29:4.160873e+00 30:8.796832e+00 31:-9.228876e+00 32:-3.987529e+00 33:4.845368e+00 34:4.615103e+00 35:6.707713e+00 36:8.115345e-01 37:-1.006541e+01 38:-4.408789e+00 39:-5.120083e+00 40:-9.468439e+00 41:3.400230e+00 42:2.201005e+00 43:6.437114e+00 44:7.634678e-01 45:-4.249257e+00 46:7.700781e-01 47:5.456106e+00 48:3.820572e-01 49:-7.310522e+00 50:3.329011e+00 51:-7.038817e+00 52:-7.129513e+00 53:-3.288220e-01 54:3.403424e+00 55:3.641741e+00 56:-7.188570e+00 57:6.460319e+00 58:8.218954e+00 59:-2.873431e+00 60:3.888198e+00 61:-5.833936e-01 62:-2.573384e+00 63:6.493680e+00 64:3.429120e+00 65:4.584375e-02 66:1.102414e-01 67:5.088113e+00 68:-8.463994e+00 69:-9.658313e+00 70:9.186474e+00 71:-4.980233e+00 72:9.444639e+00 73:5.678732e+00 74:-1.191782e+01 75:-8.128339e+00 76:6.150906e+00 77:-6.837781e+00 78:-1.056418e+00 79:-3.455542e-01 80:-1.455917e+00 81:-3.347419e+00 82:-6.469479e+00 83:-5.656401e+00 84:-2.622846e+00 85:-8.645968e+00 86:8.621700e+00 87:-1.198922e-02 88:1.106728e-01 89:-4.010417e+00 90:5.761597e+00 91:-6.428242e+00 92:-1.109588e+01 93:4.192487e+00 94:4.558038e+00 95:5.906968e+00 96:-6.618662e+00 97:1.542993e+00 98:-7.961616e+00 99:-7.459711e-01 100:-2.516130e+00 101:4.788182e+00 102:-2.598731e-01 103:-5.943287e+00 104:1.000566e+01 105:4.745904e+00 106:4.584502e+00 107:2.639867e+00 108:-6.024387e+00 109:3.531264e+00 110:1.775864e+00 111:5.451874e+00 112:-9.783304e+00 113:6.590481e+00 114:3.764125e+00 115:2.115538e+00 116:-3.931579e+00 117:4.560001e+00 118:-4.711542e+00 119:-7.608592e+00 120:-8.407245e+00 121:-1.020064e+01 122:2.482176e+00 123:-4.108290e+00 124:2.290517e+00 125:-7.920486e+00 126:5.200541e+00 127:-5.293478e+00 128:1.751089e+00 129:2.224950e+00 130:-1.828204e+00 131:2.384762e+00 132:-2.016467e+00 133:-9.265100e+00 134:-8.995368e+00 135:-6.654173e+00 136:-1.477140e-01 137:4.489472e+00 138:2.730302e+00 139:-1.254178e+00 140:8.485832e-01 141:1.268810e+00 142:1.816261e+00 143:3.577050e+00 144:-2.012253e+00 145:-1.506840e+00 146:-3.402296e+00 147:-1.274800e+00 148:-3.118547e+00 149:1.452657e+00 150:-1.082495e+00 151:1.221974e+00 152:8.197798e+00 153:8.825653e+00 154:8.689440e+00 155:-7.302873e+00 156:6.449476e+00 157:-9.705121e+00 158:7.209841e+00 159:5.536525e+00 160:-7.702061e+00 161:-3.829496e+00 162:-4.826845e+00 163:9.603511e+00 164:-4.559940e-01 165:4.115726e+00 166:4.712834e+00 167:-7.530660e+00 168:-1.017054e+01 169:3.039818e+00 170:1.713696e+00 171:6.658469e-01 172:8.816886e+00 173:-8.756923e+00 174:-5.905597e+00 175:-9.451050e+00 176:-2.552018e+00 177:2.040431e+00 178:-1.095050e+01 179:-7.668040e+00 180:-1.075317e+00 181:-6.615962e+00 182:7.608166e+00 183:-5.178888e+00 184:6.032668e+00 185:-1.360883e+00 186:6.821690e+00 187:4.802033e+00 188:-1.146913e+00 189:-4.731667e+00 190:-5.775285e+00 191:3.405798e-02 192:2.662607e+00 193:4.585273e+00 194:-6.482934e+00 195:-3.643621e+00 196:3.761495e+00 197:-5.886006e+00 198:-7.133335e+00 199:-5.615304e+00 
-0.019827893835340213 0:6.209481e+00 1:5.043628e+00 2:9.120783e+00 3:2.358201e+00 4:-9.240501e+00 5:3.365855e-01 6:-7.156757e+00 7:-2.275139e+00 8:-7.094403e+00 9:4.356664e+00 10:-7.140702e+00 11:-7.985906e+00 12:-6.461422e+00 13:8.296184e+00 14:-2.131369e+00 15:-2.126658e+00 16:-7.344551e+00 17:-6.914210e+00 18:4.904888e+00 19:8.940555e+00 20:-3.674901e+00 21:-4.146451e+00 22:-6.098635e+00 23:-7.454908e+00 24:-5.630137e+00 25:-6.836548e+00 26:1.088275e+01 27:-6.966673e+00 28:8.411301e+00 29:4.809910e+00 30:9.589744e+00 31:-8.929827e+00 32:-3.849234e+00 33:6.773435e+00 34:5.455713e+00 35:8.549043e+00 36:-1.758834e+00 37:-8.162466e+00 38:-4.139337e+00 39:-7.762789e+00 40:-8.717760e+00 41:3.866354e+00 42:-3.653060e-01 43:7.423824e+00 44:1.361793e+00 45:-4.889542e+00 46:6.095743e-01 47:5.161790e+00 48:-1.339214e+00 49:-8.619748e+00 50:4.188359e+00 51:-6.234904e+00 52:-9.476668e+00 53:1.657163e-01 54:-3.044780e-01 55:3.587496e+00 56:-9.035145e+00 57:7.843429e+00 58:8.319253e+00 59:-7.356305e-01 60:5.307230e+00 61:-2.238957e+00 62:-1.891385e+00 63:7.705287e+00 64:3.026667e+00 65:-5.331761e-01 66:-1.861428e+00 67:3.459962e+00 68:-8.666647e+00 69:-7.421769e+00 70:9.185347e+00 71:-3.920600e+00 72:8.159833e+00 73:6.259696e+00 74:-8.767045e+00 75:-7.959943e+00 76:6.248680e+00 77:-6.700840e+00 78:-2.558402e-01 79:-1.322379e+00 80:-1.168238e-01 81:-2.213538e+00 82:-7.086342e+00 83:-3.888982e+00 84:-2.805316e+00 85:-8.126512e+00 86:7.030226e+00 87:7.910347e-01 88:-5.796756e-01 89:-6.199608e+00 90:7.035821e+00 91:-7.970064e+00 92:-7.711721e+00 93:3.402238e+00 94:2.839302e+00 95:6.253167e+00 96:-7.410964e+00 97:1.780558e+00 98:-8.853080e+00 99:-5.522125e-01 100:-3.294899e+00 101:4.449568e+00 102:-8.270457e-01 103:-8.469254e+00 104:8.611057e+00 105:6.264887e+00 106:2.827772e+00 107:2.966847e+00 108:-4.177908e+00 109:4.622154e+00 110:2.454081e+00 111:5.478380e+00 112:-9.679161e+00 113:7.859767e+00 114:4.542858e+00 115:1.705309e+00 116:-3.134560e+00 117:5.944340e+00 118:-6.419045e+00 119:-6.786888e+00 120:-7.449654e+00 121:-8.313130e+00 122:1.728254e+00 123:-3.763348e+00 124:2.601731e+00 125:-7.848382e+00 126:6.236771e+00 127:-6.797596e+00 128:1.826806e+00 129:2.021153e+00 130:-1.346748e+00 131:1.385465e+00 132:-2.497193e+00 133:-8.766587e+00 134:-1.041767e+01 135:-7.903786e+00 136:3.140782e-02 137:2.889953e+00 138:3.120749e+00 139:1.918107e+00 140:1.579692e+00 141:-7.142610e-02 142:1.166048e+00 143:2.128177e+00 144:-5.302532e+00 145:-2.497455e-01 146:-2.602590e+00 147:-2.291484e+00 148:-5.394765e+00 149:1.078206e+00 150:-4.281006e+00 151:7.307098e-01 152:7.998354e+00 153:1.115799e+01 154:6.755196e+00 155:-1.025079e+01 156:8.541223e+00 157:-9.475736e+00 158:8.050668e+00 159:5.907294e+00 160:-6.006997e+00 161:-2.847864e+00 162:-3.960451e+00 163:9.694735e+00 164:-3.991587e-02 165:2.924679e+00 166:6.891947e+00 167:-7.140038e+00 168:-9.131842e+00 169:1.766325e+00 170:3.233646e+00 171:8.514930e-01 172:8.659496e+00 173:-9.802459e+00 174:-7.711589e+00 175:-8.791444e+00 176:-3.904058e+00 177:2.446807e+00 178:-8.598120e+00 179:-7.079118e+00 180:-1.950188e+00 181:-4.277656e+00 182:7.630387e+00 183:-4.449916e+00 184:5.793019e+00 185:-8.467366e-01 186:6.851286e+00 187:3.453525e+00 188:-1.997681e-01 189:-5.379709e+00 190:-7.963041e+00 191:3.058414e-01 192:1.589215e+00 193:4.902573e+00 194:-6.501231e+00 195:-4.480837e+00 196:7.110585e+00 197:-6.075774e+00 198:-3.956265e+00 199:-4.268595e+00 
