svm_type c_svc
kernel_type polynomial
degree 3
gamma 0.0050251256281407036
coef0 0
nr_class 2
total_sv 14
rho 0.21072138483333189
label 1 -1
nr_sv 8 6
SV
3.5085212826934289e-06 0:6.6160454 1:-3.8531197 2:-3.7760366 3:-2.4118162 4:3.5858516 5:9.5141779 6:-9.9900834 7:-5.5681801 8:5.2348503 9:7.8638364 10:-8.9048993 11:3.6843931 12:-7.4952228 13:-9.3129016 14:-3.1474977 15:4.6546974 16:6.197582 17:3.8052937 18:-5.0840091 19:-0.38503988 20:-2.9994385 21:2.4979577 22:-7.7625884 23:8.6001313 24:-1.4058966 25:3.2062396 26:-0.52843669 27:-1.5766689 28:6.4320584 29:4.7815937 30:8.0663267 31:3.7148684 32:6.0976369 33:7.5640636 34:5.281543 35:5.1620653 36:4.5030705 37:4.9927998 38:-7.5079428 39:-4.1201974 40:-1.6752116 41:1.5960234 42:-2.0950363 43:-8.2957516 44:2.1287694 45:8.7359276 46:-9.3184821 47:-3.3580835 48:-7.0167283 49:8.1354208 50:4.9598091 51:-2.5574318 52:6.6377694 53:-6.13858 54:-1.13443 55:-2.6911555 56:6.4793444 57:-5.7211905 58:-1.0153685 59:-6.5990334 60:6.4372825 61:-5.4653651 62:9.7719709 63:1.0558696 64:2.5914382 65:-1.4302297 66:-4.9497436 67:6.723812 68:8.6234151 69:-5.1253888 70:-0.48302104 71:3.347662 72:-0.83985986 73:4.9031463 74:-3.3382659 75:1.0887599 76:1.5150109 77:-12.138197 78:0.5267912 79:5.0195757 80:-4.4524175 81:-2.2715442 82:2.7892911 83:5.6361317 84:7.7220126 85:6.8383887 86:-3.8486579 87:-8.7346152 88:-0.87951043 89:-7.2051589 90:-4.5903487 91:-6.8053077 92:7.8321615 93:-8.0551694 94:-6.8342118 95:-5.3425626 96:10.912557 97:-8.0277205 98:-7.7595843 99:-2.529012 100:4.2827832 101:-4.5908709 102:6.7917031 103:-6.5248176 104:-5.6912873 105:-8.0640774 106:1.5004345 107:-4.6264204 108:-10.160762 109:6.2647524 110:8.6387119 111:6.0918203 112:7.3867745 113:-4.8482961 114:7.4157148 115:-9.8222787 116:-2.8125446 117:3.6884071 118:2.2110695 119:2.5271545 120:8.1571644 121:2.5892567 122:-7.0119861 123:-2.4264071 124:3.5129481 125:5.1345234 126:-9.9215938 127:-0.88747883 128:5.1961175 129:4.6484043 130:-4.004267 131:-2.9630938 132:8.70692 133:0.55319464 134:-4.3231362 135:6.7297593 136:-3.9785848 137:6.4475068 138:-8.5862746 139:-0.62733938 140:-11.380892 141:-6.4584758 142:5.791779 143:3.1068026 144:-0.24310527 145:-4.5487266 146:-1.881986 147:-8.338479 148:0.014947037 149:-2.8191071 150:-4.1984517 151:3.6997321 152:2.1766713 153:-3.4567352 154:-6.4723443 155:-6.8067931 156:6.2534348 157:-3.0549201 158:-3.4533973 159:1.9127106 160:5.4752023 161:6.50424 162:-10.547095 163:0.63831201 164:8.3877025 165:0.93585512 166:-3.7300651 167:-5.7522061 168:3.31378 169:-3.0092033 170:-8.0681331 171:-9.7648873 172:-6.0920024 173:6.9827926 174:-1.694872 175:-5.6830338 176:8.4655058 177:-4.5814412 178:-2.6542848 179:-4.9766613 180:1.9338957 181:5.2226771 182:4.766865 183:-0.14654833 184:3.5003792 185:-4.6122456 186:-3.8917252 187:0.36080895 188:9.9199341 189:6.7515023 190:-10.081673 191:-1.8813441 192:6.9913265 193:-6.4542103 194:1.7915049 195:-7.4792508 196:-9.0931033 197:-6.9516847 198:-5.0202311 199:-6.9258076 
1.38818801699838e-05 0:8.0293115 1:-2.1496309 2:-3.6131646 3:-3.0224928 4:4.1684521 5:11.147386 6:-9.1239917 7:-4.8911552 8:4.5557257 9:6.7047204 10:-7.5258184 11:4.1496232 12:-5.7607959 13:-8.8898216 14:-5.9937753 15:3.8679534 16:7.3410595 17:1.9572964 18:-5.6983139 19:-1.4458475 20:-3.4086222 21:3.6963375 22:-5.6313289 23:7.2820416 24:1.8280631 25:4.2533528 26:-0.83040858 27:-2.8388075 28:5.3202303 29:6.5465548 30:5.3934415 31:4.2865601 32:6.0416516 33:4.8399235 34:5.7934827 35:3.5717602 36:4.7339855 37:5.4390448 38:-7.727032 39:-4.7994286 40:-0.22467565 41:1.2684975 42:-1.4180753 43:-9.5778767 44:1.760349 45:7.5973376 46:-9.287874 47:-4.1521838 48:-6.4515192 49:6.797536 50:3.6611555 51:-2.9089074 52:7.5826791 53:-8.9204563 54:-1.8521561 55:-4.7705678 56:6.479092 57:-7.1039359 58:-2.9710312 59:-5.8629289 60:6.9306768 61:-5.425457 62:7.0641578 63:0.25043534 64:0.83657265 65:-0.82813679 66:-5.0173616 67:7.8395625 68:8.7174857 69:-3.5681696 70:-0.18005999 71:2.8160204 72:-0.98969829 73:5.7976201 74:-3.7589356 75:3.775389 76:1.0719845 77:-9.3451813 78:0.94185023 79:4.7398945 80:-4.6980599 81:-2.8786111 82:1.9359646 83:7.516022 84:6.845526 85:6.112435 86:-2.1517081 87:-9.3218569 88:-2.1323084 89:-7.8258074 90:-4.7742154 91:-6.0200428 92:8.8730918 93:-8.1348116 94:-4.6098329 95:-6.4009788 96:10.187591 97:-8.4682825 98:-7.6845691 99:-0.95114459 100:4.5563158 101:-2.5154661 102:6.4557314 103:-4.9695463 104:-4.4736704 105:-6.5443515 106:1.3814111 107:-4.1301504 108:-9.3598013 109:5.4338356 110:11.185111 111:5.5497551 112:9.5830485 113:-6.3297417 114:9.5052887 115:-7.11138 116:-5.1207194 117:4.7030696 118:2.2348628 119:2.6865272 120:8.5039259 121:4.3182702 122:-7.7162592 123:-2.2722827 124:3.313922 125:6.1797415 126:-7.42322 127:-1.5641301 128:6.0170004 129:5.2546275 130:-3.5984111 131:-4.1134519 132:10.288284 133:-0.55789628 134:-3.1252302 135:5.9918408 136:-1.9667576 137:5.9820929 138:-8.4900487 139:1.7746381 140:-10.293442 141:-5.4257183 142:5.7505007 143:5.181531 144:2.1176996 145:-7.398312 146:0.059868781 147:-7.8475076 148:-0.48776428 149:-2.182522 150:-1.9876365 151:4.1633792 152:4.9781413 153:-3.4421157 154:-9.2782753 155:-8.9585314 156:7.578282 157:-1.1391055 158:-2.9027195 159:0.63684916 160:4.298524 161:5.0985819 162:-9.2022907 163:2.3256213 164:8.3046231 165:0.95934742 166:-5.0324616 167:-6.858562 168:2.5338869 169:-2.2698678 170:-8.2755718 171:-8.2329595 172:-6.3946387 173:6.3677847 174:-3.2880948 175:-5.4365816 176:7.1631073 177:-2.325776 178:-4.7418771 179:-3.8672081 180:3.5998402 181:5.8856796 182:5.9096294 183:0.098218661 184:1.3713421 185:-5.1522951 186:-3.2388186 187:-0.69795854 188:8.4813969 189:5.2466652 190:-9.5603485 191:-3.31201 192:5.1928196 193:-7.5698243 194:0.33882881 195:-8.4616043 196:-8.5350119 197:-6.9098946 198:-4.7537841 199:-7.0780736 
5.0872788088355664e-06 0:10.151148 1:-4.8876817 2:-2.9999514 3:-4.474562 4:4.3786873 5:11.359625 6:-9.2545416 7:-6.2987094 8:7.8390793 9:6.2288004 10:-8.2521172 11:2.8461431 12:-8.3923488 13:-9.7641949 14:-5.851652 15:3.6019003 16:5.2800075 17:0.58856736 18:-7.1325897 19:-2.8700104 20:-0.75496533 21:1.2170901 22:-6.9050521 23:7.8541415 24:-0.08524645 25:3.5567932 26:0.30989109 27:-1.9636679 28:5.0638768 29:6.4450967 30:6.0505017 31:3.4187126 32:6.6351952 33:5.3568808 34:6.7423666 35:4.3076093 36:8.069552 37:6.1980736 38:-6.9119561 39:-4.4915821 40:-0.81327791 41:0.83933533 42:1.0118155 43:-8.751966 44:3.1451927 45:6.080527 46:-9.3828179 47:-3.7407192 48:-7.9946854 49:7.9845753 50:3.5519739 51:-2.4663119 52:6.7080417 53:-9.6577506 54:-2.7288022 55:-3.714442 56:8.4656475 57:-8.4231095 58:-0.72447568 59:-6.0175683 60:6.2772102 61:-5.6315931 62:10.75162 63:0.22075742 64:2.7043151 65:0.80603366 66:-4.8354772 67:8.0381212 68:8.8227815 69:-4.0680248 70:-0.24891972 71:2.9916066 72:-2.775943 73:4.3557309 74:-3.9310842 75:1.5460435 76:1.4041619 77:-9.0677783 78:2.0260101 79:5.6168799 80:-3.9028963 81:-4.0535552 82:3.4137608 83:5.3694089 84:6.9286991 85:7.1522127 86:-2.8860813 87:-9.7276584 88:-1.5071543 89:-7.9201527 90:-3.4509743 91:-7.7523973 92:8.5808853 93:-8.7617967 94:-2.4216245 95:-6.9068317 96:8.8351141 97:-7.4027212 98:-5.8734136 99:-2.6196022 100:5.3739412 101:-3.5910843 102:8.1054466 103:-7.5513337 104:-5.6353996 105:-6.2625754 106:0.30683739 107:-2.7295649 108:-9.9693537 109:7.1137583 110:6.6145481 111:7.2761545 112:6.9819503 113:-6.7822016 114:6.9954703 115:-8.0131149 116:-4.9298294 117:4.2424852 118:1.6296566 119:5.2460375 120:7.7256246 121:3.2083463 122:-6.0298401 123:-2.7206184 124:3.135885 125:3.9307691 126:-7.9643777 127:-0.75513548 128:7.2281859 129:6.7806436 130:-3.8305957 131:-2.1259678 132:9.6843534 133:1.1322097 134:-2.1206305 135:8.0364673 136:-2.7671594 137:6.4477799 138:-9.0114923 139:-1.0542043 140:-9.7106329 141:-10.31355 142:6.0047586 143:2.4137885 144:1.0383977 145:-5.6010264 146:-2.1570467 147:-7.8172094 148:-2.8338971 149:-1.5992698 150:-3.7590675 151:4.1779257 152:5.4070609 153:-3.299576 154:-6.5453617 155:-6.6048965 156:6.3733943 157:-2.6597321 158:-2.1228989 159:2.7395562 160:5.282293 161:6.3948527 162:-9.193898 163:1.2501135 164:7.9060922 165:1.9895907 166:-4.1167769 167:-5.2751099 168:2.3877871 169:-2.3142668 170:-8.12347 171:-7.44652 172:-5.9465357 173:7.4343282 174:-1.2847503 175:-4.8848534 176:6.4679357 177:-4.2548996 178:-3.9811989 179:-4.2350045 180:2.5672343 181:5.7489205 182:4.5663212 183:-0.21897898 184:2.2690975 185:-3.5578362 186:-4.6420662 187:-1.1832506 188:8.3412037 189:7.4243455 190:-10.603454 191:-4.8821711 192:3.50152 193:-5.6419765 194:-0.44327358 195:-5.7517061 196:-7.0536738 197:-7.587567 198:-4.4877611 199:-6.219119 
1.4341015886419322e-06 0:7.8532768 1:-3.747933 2:-3.8767319 3:-4.1548005 4:2.7340912 5:9.5382853 6:-11.456504 7:-4.492883 8:8.4002442 9:4.7375024 10:-7.4218438 11:3.0615457 12:-8.7995646 13:-7.5440048 14:-2.87862 15:2.7315112 16:5.0125413 17:4.2009346 18:-6.1232845 19:-1.1629839 20:-2.1772495 21:4.8842376 22:-7.0637603 23:9.0969338 24:0.22203315 25:4.6100945 26:-0.80509074 27:-2.4194631 28:6.5742711 29:6.8546894 30:6.9166581 31:4.3796415 32:6.5210548 33:3.9828928 34:6.4206208 35:4.2429163 36:5.006035 37:3.8930438 38:-6.9128018 39:-1.8275032 40:1.4375826 41:1.3521485 42:-0.61543516 43:-7.9428487 44:3.3659095 45:6.6725205 46:-9.0947929 47:-2.713582 48:-6.9219668 49:7.9901012 50:2.6018757 51:-3.3191867 52:5.0619836 53:-8.4502834 54:-2.9356709 55:-5.2338085 56:7.6431591 57:-10.046827 58:-0.55138125 59:-4.172082 60:8.7744797 61:-4.6551483 62:9.8851113 63:0.98797791 64:1.8584114 65:-3.312616 66:-6.9258075 67:6.4684919 68:9.0944415 69:-4.1187818 70:-0.45461436 71:3.5369038 72:-0.14906358 73:3.4159654 74:-2.4606393 75:2.4091628 76:2.4611202 77:-6.5811336 78:0.2759444 79:6.6199456 80:-5.4671975 81:-3.2871797 82:2.5066806 83:6.8749205 84:6.0882146 85:7.6910307 86:-2.2771614 87:-9.0929736 88:-0.90002087 89:-4.8237958 90:-6.0835475 91:-6.8943978 92:8.36597 93:-8.0131541 94:-6.3713507 95:-7.3037745 96:9.1374981 97:-8.3631957 98:-7.2833855 99:-1.3514623 100:6.0392184 101:-2.2016063 102:5.7044388 103:-7.5432935 104:-6.25647 105:-7.6839475 106:1.5662338 107:-3.0754377 108:-9.2692751 109:5.4933939 110:7.9994625 111:7.1721731 112:8.8249258 113:-5.6644887 114:8.1590268 115:-7.562477 116:-3.7502107 117:4.6183992 118:2.3449281 119:3.6597306 120:8.6991428 121:4.4916252 122:-5.8630317 123:-3.7806553 124:4.8662719 125:5.8629425 126:-9.366047 127:-0.64973922 128:5.8377297 129:7.3737942 130:-1.4224627 131:-3.3463112 132:9.9606271 133:-1.4995377 134:-2.6191025 135:8.2325199 136:-2.5053967 137:6.9460293 138:-7.8070059 139:0.15773271 140:-10.826305 141:-6.9476477 142:6.3727741 143:4.6530243 144:-1.2120007 145:-5.8480236 146:-1.3850151 147:-6.0094734 148:-3.7401141 149:-2.7126368 150:-3.5439056 151:6.4571406 152:1.8685129 153:-2.4129275 154:-8.665625 155:-6.0340494 156:6.0380281 157:-0.46934623 158:-4.0450158 159:1.6658509 160:3.265463 161:8.8078297 162:-8.4204186 163:2.3420791 164:8.263178 165:2.5551984 166:-4.5539142 167:-4.3826348 168:3.9935936 169:-2.2467997 170:-8.6229519 171:-9.8976699 172:-6.3462062 173:7.3309358 174:-4.8292268 175:-5.1666546 176:8.6392978 177:-2.9554128 178:-4.0274609 179:-3.7060842 180:1.2075825 181:5.086552 182:7.1663672 183:-2.0173837 184:1.2335103 185:-4.6555216 186:-3.056199 187:-1.1245058 188:9.2449178 189:7.6195511 190:-10.841306 191:-3.6523044 192:6.8187532 193:-5.6359651 194:0.22900461 195:-6.3895331 196:-9.7353203 197:-7.3396055 198:-3.9046303 199:-5.8266888 
5.0416573376285225e-07 0:7.9884288 1:-4.4087894 2:-4.3343475 3:-3.6773452 4:4.8071588 5:9.0621191 6:-9.677478 7:-3.9839681 8:5.4574955 9:5.6274429 10:-5.154522 11:2.8271984 12:-7.9631447 13:-11.210211 14:-3.5029615 15:5.0697237 16:5.9447454 17:1.9710268 18:-6.1183864 19:-0.5535709 20:-1.1886454 21:1.3676554 22:-7.0366559 23:9.3015923 24:1.2925489 25:6.4729119 26:0.84291761 27:-1.9708059 28:3.3585232 29:7.0346168 30:7.5472453 31:3.6098927 32:5.1359811 33:6.7863958 34:7.0287138 35:3.8841593 36:7.9564921 37:5.4918514 38:-7.5120424 39:-4.5534648 40:-2.5091478 41:1.581336 42:-1.1011389 43:-8.3969896 44:1.0839746 45:7.9422759 46:-9.6407269 47:-3.9613958 48:-9.2474402 49:6.9254112 50:4.6058855 51:-3.8453366 52:8.0506903 53:-9.1305586 54:-1.7459855 55:-3.269108 56:9.3301541 57:-7.66596 58:-2.7148566 59:-6.404131 60:8.1715541 61:-4.8510079 62:7.3995611 63:0.17052123 64:1.8252893 65:-1.0760409 66:-5.4002374 67:7.7260686 68:9.1857221 69:-2.6648508 70:2.145731 71:4.7502387 72:-0.54057808 73:4.9926218 74:-1.3521692 75:2.7511003 76:1.60172 77:-9.3501443 78:1.731464 79:5.7776144 80:-5.555898 81:-2.0145323 82:2.6251451 83:5.072971 84:6.4083846 85:8.135624 86:-2.3604169 87:-7.2864284 88:-2.5814206 89:-4.7046999 90:-4.4797989 91:-7.1025566 92:9.8208144 93:-6.8405728 94:-5.5109939 95:-6.4680658 96:8.5464086 97:-8.5550624 98:-6.1400882 99:-0.8860173 100:4.3818385 101:-3.4899844 102:5.1541336 103:-6.5164098 104:-5.5206241 105:-7.5805547 106:1.5449991 107:-2.6294458 108:-9.622428 109:2.6088705 110:8.5741719 111:3.864475 112:7.8696856 113:-5.2303733 114:10.323989 115:-9.3863211 116:-3.8662479 117:5.8247126 118:1.8606806 119:4.4016551 120:10.168834 121:2.6598815 122:-5.3697672 123:-5.3841117 124:2.1837035 125:7.6821068 126:-6.8441809 127:-0.91558858 128:6.4776442 129:6.6386664 130:-0.24595069 131:-2.2259553 132:10.420666 133:0.36053082 134:-1.0328388 135:5.2703042 136:-0.50157963 137:8.7926518 138:-8.1604649 139:1.0633558 140:-7.4982916 141:-7.0828491 142:5.0314155 143:1.9564545 144:0.90232083 145:-4.9941271 146:-2.2922787 147:-7.5808122 148:-0.060100351 149:0.00091815408 150:-4.6055809 151:4.870795 152:4.1076998 153:-3.7470274 154:-9.4803335 155:-8.2319031 156:8.4265595 157:-1.490615 158:-1.9381732 159:1.0719557 160:5.1788008 161:7.195684 162:-6.9834586 163:2.985658 164:9.1873053 165:2.840547 166:-4.8894711 167:-4.6923052 168:3.0637856 169:-2.6888616 170:-10.546337 171:-9.6826994 172:-5.3812785 173:7.1640504 174:-2.4342052 175:-4.6071907 176:8.6119797 177:-2.192549 178:-3.9146843 179:-4.9279458 180:2.6830522 181:6.9154349 182:7.1831997 183:-0.74833423 184:1.5034052 185:-5.3587333 186:-4.956424 187:-1.3970694 188:8.7524106 189:5.8824032 190:-8.4661762 191:-3.7605872 192:6.9043196 193:-7.3473154 194:0.97182866 195:-7.7217857 196:-7.2000731 197:-7.7359406 198:-2.9269016 199:-7.6105242 
1.1554233642833516e-06 0:6.5428584 1:-3.5214899 2:-5.4005969 3:-4.4816982 4:4.1156484 5:9.986493 6:-9.6973822 7:-6.5065191 8:8.3680498 9:6.2736965 10:-6.501486 11:2.7357325 12:-7.3554477 13:-9.6628391 14:-4.4414576 15:3.9498124 16:5.3921298 17:1.5407836 18:-6.4713836 19:-2.3694583 20:-1.8368792 21:3.6607333 22:-7.2571524 23:10.048671 24:-0.47786137 25:3.9456037 26:1.7554954 27:-2.9798661 28:4.8336778 29:8.5260177 30:5.6998827 31:5.7135402 32:5.6706881 33:4.883232 34:6.2027816 35:3.1926036 36:4.5438813 37:6.1697177 38:-8.9570964 39:-3.7314195 40:-1.0117985 41:1.3778022 42:-0.64415952 43:-8.3086217 44:4.2106618 45:6.0630709 46:-9.4539943 47:-4.922082 48:-8.0272078 49:8.9743472 50:4.188579 51:-4.0318412 52:5.9738157 53:-7.1667973 54:-3.205324 55:-2.4210428 56:8.4351236 57:-7.8367985 58:-1.1928326 59:-5.1399244 60:6.5990965 61:-5.9017404 62:8.780129 63:1.4121845 64:0.034969936 65:-1.9850957 66:-6.8422494 67:8.4212757 68:7.8846675 69:-5.2936228 70:-0.79230122 71:4.3210867 72:-2.5552392 73:6.1358129 74:-5.4501257 75:2.5239281 76:2.1196392 77:-8.6152838 78:0.59876363 79:4.5329848 80:-4.550539 81:-3.2935061 82:1.5019576 83:4.7658515 84:6.1275291 85:8.0270185 86:-2.1820966 87:-8.9333731 88:1.7124479 89:-6.775039 90:-3.3407106 91:-7.4923894 92:5.5230094 93:-7.7144421 94:-4.6848811 95:-6.8178517 96:9.8795763 97:-9.3927295 98:-7.2835278 99:-1.7537705 100:2.8439335 101:-5.1069463 102:6.5107624 103:-7.1675192 104:-5.6787489 105:-7.4800276 106:0.81065018 107:-3.6192547 108:-9.2148885 109:4.2754698 110:8.7390391 111:8.5721641 112:8.6280806 113:-6.2255341 114:9.1157594 115:-6.5571216 116:-3.3643288 117:2.9331007 118:2.2161385 119:3.2767256 120:7.9684663 121:0.77158013 122:-6.4480282 123:-3.8845248 124:4.5878542 125:5.095995 126:-7.6474646 127:-1.5051838 128:5.7599899 129:4.9716075 130:-4.8386259 131:-2.7145505 132:7.008008 133:-0.53830061 134:-2.8035497 135:5.7210948 136:-2.5953682 137:6.7589707 138:-8.3288404 139:1.9317515 140:-10.330357 141:-8.1096488 142:6.1795022 143:3.5742572 144:2.6701321 145:-4.3161708 146:-1.3261015 147:-7.5099936 148:-1.4501011 149:-2.1829544 150:-1.7446388 151:4.9972118 152:3.8056677 153:-4.3586933 154:-8.8951448 155:-7.7113972 156:7.3305879 157:-1.934223 158:-2.9907944 159:3.4045657 160:3.9542323 161:8.6896873 162:-8.8937295 163:1.3774179 164:8.530459 165:1.5319582 166:-2.0421954 167:-5.2665723 168:4.7931345 169:-1.893202 170:-9.9642862 171:-8.5170555 172:-7.0870543 173:7.4288436 174:-3.2955228 175:-4.0974916 176:6.1641648 177:-3.1648512 178:-2.3862301 179:-3.219506 180:2.8914382 181:6.2909382 182:4.759146 183:-0.77229638 184:3.7917526 185:-5.7250652 186:-3.4207465 187:0.0034849191 188:10.253061 189:5.3998876 190:-9.5031965 191:-2.3605067 192:7.5351006 193:-5.9250504 194:1.6467816 195:-8.6355837 196:-9.2996491 197:-8.3255012 198:-2.8780449 199:-6.6228315 
7.3220762281658968e-06 0:8.0920397 1:-3.0612417 2:-4.3277481 3:-2.2215751 4:3.4298269 5:9.6320798 6:-9.0404131 7:-4.836922 8:5.4728751 9:4.0476531 10:-7.2880684 11:3.2624407 12:-7.4401282 13:-9.3403655 14:-5.1293749 15:4.1827805 16:7.4631076 17:2.2675553 18:-7.8294469 19:0.10068165 20:-0.37848112 21:0.87433715 22:-5.567283 23:8.1239438 24:1.0679197 25:3.4059148 26:1.5368263 27:-1.3398779 28:5.5584201 29:6.8707854 30:5.4634318 31:3.2568167 32:5.7470731 33:5.6360248 34:8.0806426 35:4.9758469 36:5.588035 37:7.8774943 38:-9.3513878 39:-3.3785392 40:-2.6414476 41:0.23159366 42:-1.3554688 43:-8.6680432 44:2.3076494 45:6.1480026 46:-9.275362 47:-4.7161747 48:-8.1561899 49:6.9564354 50:5.8108044 51:-3.0886842 52:6.3436124 53:-8.5353998 54:-2.154391 55:-3.8870627 56:8.179602 57:-8.7851468 58:-1.5923343 59:-7.9482245 60:7.0425584 61:-4.6799328 62:9.8019559 63:2.5134228 64:2.1240147 65:-1.8360151 66:-4.2349215 67:7.4564355 68:8.5958513 69:-3.5612594 70:0.29650794 71:2.2295236 72:-1.415293 73:2.8546598 74:-3.7555938 75:1.1117586 76:0.16139293 77:-9.8821817 78:1.428686 79:6.6536288 80:-4.4744588 81:-3.3354051 82:2.0570015 83:6.3819343 84:8.1189671 85:5.9466281 86:-1.7772164 87:-6.3939452 88:-1.0514241 89:-7.4159191 90:-4.737449 91:-6.1507953 92:7.8347053 93:-9.9309454 94:-6.2631061 95:-6.3460468 96:11.101753 97:-7.128604 98:-5.4038117 99:-1.6443373 100:3.6888936 101:-3.8630895 102:5.9349642 103:-6.8983795 104:-4.9084496 105:-6.7692991 106:2.5599097 107:-2.7239451 108:-7.736605 109:6.1193261 110:8.8220451 111:4.958015 112:8.1966098 113:-7.1782061 114:7.9980886 115:-8.5176878 116:-3.74536 117:5.0253519 118:3.151569 119:2.0979784 120:9.1505604 121:2.1519182 122:-7.0754084 123:-3.1648724 124:3.168644 125:7.3465586 126:-6.2360223 127:-1.0505288 128:5.7465031 129:6.8000853 130:-3.5372895 131:-2.8172366 132:8.3265103 133:-0.43323972 134:-2.8972128 135:5.9153914 136:-2.1542312 137:8.1704375 138:-9.1330166 139:0.95665592 140:-10.043496 141:-4.9696095 142:6.1835809 143:4.467136 144:2.0775261 145:-6.5406737 146:-4.4070154 147:-6.0087709 148:-0.68564305 149:-2.7284918 150:-2.9188536 151:5.9656952 152:3.7476357 153:-4.21045 154:-7.6763231 155:-9.1311211 156:7.6080637 157:-1.8581598 158:-1.5570501 159:0.90097333 160:4.4162275 161:7.2836151 162:-7.9661227 163:1.6036081 164:9.4151591 165:2.0931627 166:-3.6023458 167:-5.0437568 168:3.410515 169:-3.316172 170:-10.592921 171:-7.1171302 172:-7.5790018 173:7.7533373 174:-3.5063374 175:-3.9800372 176:7.8211995 177:-3.9472022 178:-2.41658 179:-6.1912209 180:3.6668341 181:6.2240526 182:4.7768218 183:0.063098696 184:3.1586456 185:-3.2754966 186:-4.9237176 187:-0.70878145 188:9.6714535 189:7.5202263 190:-8.9353466 191:-3.2808419 192:7.1599337 193:-5.148616 194:1.1386553 195:-8.0706321 196:-8.5817339 197:-5.7538342 198:-3.1809355 199:-5.7388329 
2.1833975554190037e-06 0:8.4277511 1:-4.2734454 2:-4.8887568 3:-2.235119 4:6.5223566 5:8.9629759 6:-10.235475 7:-6.1509262 8:8.0413675 9:5.5755244 10:-7.7416339 11:4.6747092 12:-6.5498614 13:-9.7411905 14:-4.9434184 15:2.3286983 16:5.645787 17:1.882646 18:-5.6811248 19:-1.7555172 20:-2.5075725 21:1.3297997 22:-5.7707807 23:9.6704121 24:1.2661005 25:5.9262292 26:0.62297014 27:-0.1859193 28:3.0988228 29:5.8975268 30:5.5963637 31:3.63916 32:5.9140443 33:6.5982759 34:7.5801766 35:2.9199811 36:5.2269842 37:5.6927736 38:-7.1484606 39:-2.8801543 40:-0.75346028 41:0.37200653 42:-4.751164 43:-7.9266385 44:3.9231568 45:6.1017533 46:-10.451283 47:-5.5656121 48:-9.6991398 49:6.8256859 50:3.8743564 51:-2.1149772 52:6.8985543 53:-10.677787 54:-0.51263428 55:-2.4159816 56:7.1368324 57:-7.9652057 58:-0.77395044 59:-4.9269122 60:9.7936695 61:-5.5932787 62:8.5630864 63:0.87013423 64:0.35479909 65:-2.279898 66:-5.2309559 67:7.5986196 68:8.2619101 69:-4.6229381 70:0.16287908 71:2.8867437 72:-2.4704929 73:3.770598 74:-3.8640794 75:0.76914542 76:1.7661871 77:-7.6276477 78:0.39430619 79:5.8291229 80:-5.178958 81:-3.4909057 82:2.8342988 83:4.8325625 84:6.7838066 85:6.1562749 86:-4.6885209 87:-8.0504938 88:0.3889018 89:-5.3146002 90:-5.0814237 91:-8.3370864 92:7.1755858 93:-6.79548 94:-4.2126948 95:-8.8631697 96:8.2901228 97:-7.3082671 98:-7.5729775 99:-0.94107855 100:3.9946585 101:-4.0630803 102:6.4480805 103:-7.0401801 104:-5.8538217 105:-6.6941715 106:0.79081036 107:-4.1421109 108:-8.5130416 109:5.3042592 110:10.791807 111:5.1927569 112:7.6002808 113:-4.8469182 114:11.245988 115:-7.2152256 116:-3.9840986 117:5.7778067 118:4.4789336 119:3.8758286 120:8.2038675 121:3.7424448 122:-7.2891224 123:-4.0101504 124:4.4485316 125:6.2595042 126:-6.0779714 127:-0.04712064 128:7.3398935 129:4.3110124 130:-5.2025256 131:-2.0910029 132:9.5966278 133:0.11117087 134:-2.5379223 135:5.5157379 136:-3.586764 137:5.8240072 138:-8.993319 139:2.2145436 140:-9.3859902 141:-5.3640158 142:6.1318775 143:2.7570137 144:-0.19358883 145:-5.2957935 146:-1.6570365 147:-8.217426 148:-1.7323143 149:-1.0562212 150:-2.1575266 151:5.4182819 152:4.3414988 153:-4.3416065 154:-8.8515643 155:-6.9742556 156:8.0556772 157:-0.15159319 158:-3.6018148 159:3.1091485 160:4.6767519 161:8.018193 162:-9.4546505 163:3.6095646 164:9.6713931 165:0.70091073 166:-4.0962936 167:-6.0753506 168:2.3668919 169:-1.5457844 170:-10.294725 171:-7.0516863 172:-4.7291362 173:8.3464573 174:-4.0425998 175:-6.2192688 176:5.8656928 177:-3.8086026 178:-4.5849855 179:-3.5739965 180:2.2048577 181:5.9591216 182:4.2865428 183:-0.82626917 184:1.6107402 185:-5.14202 186:-3.2075997 187:-1.4984145 188:8.316763 189:7.5695672 190:-9.4405474 191:-0.05976722 192:6.7604084 193:-6.4567085 194:0.53794552 195:-6.2933919 196:-9.8535728 197:-8.2480699 198:-3.5086881 199:-8.4711023 
-1.3790250297778653e-05 0:4.5298149 1:2.2054182 2:8.5287882 3:9.3255839 4:-6.8680759 5:0.30683739 6:-2.205222 7:-1.6359122 8:-5.0772742 9:-7.1465884 10:6.1311022 11:-6.4304094 12:-8.3170104 13:-5.4728257 14:-5.7423612 15:5.7482504 16:-2.2246114 17:4.5933025 18:0.57564324 19:-1.8203462 20:-1.7901839 21:-9.0960246 22:-8.3909809 23:-3.8002254 24:-4.1875823 25:4.9261814 26:6.6541573 27:-0.023266894 28:-8.361463 29:7.967831 30:-2.2901576 31:-2.3698745 32:-7.8466403 33:2.0648271 34:-5.0136399 35:-2.7954701 36:4.8998524 37:3.3722248 38:2.4420441 39:-8.1009898 40:-2.3602077 41:2.4192323 42:-6.3584257 43:8.949116 44:10.292725 45:-1.3019602 46:6.8454497 47:-6.9533435 48:-4.2343284 49:2.2712406 50:-7.646185 51:6.2518232 52:5.4140502 53:-7.4885873 54:8.6840858 55:4.6174735 56:-2.0243121 57:5.839286 58:4.09084 59:-3.8380922 60:5.5247899 61:-0.088156546 62:-2.9196293 63:-2.2846534 64:-2.1827061 65:-5.9040171 66:-10.312614 67:-9.212173 68:9.44864 69:9.9350169 70:7.2945019 71:6.3419018 72:-0.54445643 73:8.5423059 74:0.2619404 75:4.2845602 76:-2.8586102 77:-2.5631536 78:8.6743266 79:8.0908297 80:-0.32308986 81:2.8945155 82:-7.1642505 83:-2.3628015 84:0.059821467 85:7.8106703 86:1.3255349 87:-1.4578628 88:-2.8501532 89:1.5889687 90:-4.1456876 91:-5.8830953 92:-0.38232889 93:-3.2139736 94:-3.6651498 95:3.4140904 96:6.2708834 97:-11.405301 98:-5.7327749 99:-4.5386842 100:2.9092031 101:5.6316927 102:0.70092856 103:-3.1039038 104:-4.2787651 105:-2.9514881 106:-0.013293151 107:-0.99323779 108:-1.5093617 109:-2.0315877 110:5.1064491 111:7.5561731 112:10.334178 113:1.2119722 114:6.4379005 115:7.8390498 116:-6.7434746 117:1.1654174 118:9.7560268 119:0.67530126 120:3.140776 121:-5.7175333 122:1.5951457 123:9.4240576 124:3.7848591 125:1.3252571 126:6.859442 127:7.9819277 128:4.5522846 129:0.65171141 130:-0.89565912 131:-3.5789281 132:-1.6084073 133:0.56548991 134:9.5057897 135:-5.8680872 136:-4.5687047 137:-3.9215311 138:-2.2858025 139:-1.9267973 140:-3.8741591 141:3.7708829 142:-1.7532463 143:-2.2785975 144:-0.34372784 145:-4.222826 146:6.7325294 147:-2.8371631 148:3.7858606 149:4.3457724 150:4.7919053 151:-8.7057364 152:-4.37221 153:5.4887085 154:5.4623542 155:1.4906045 156:-3.9247691 157:3.1440613 158:3.4216705 159:8.092883 160:-4.4929328 161:-3.8244568 162:-5.2199252 163:9.1965095 164:5.9611727 165:6.6399775 166:8.2125506 167:1.9976127 168:-8.0498678 169:1.2267408 170:3.5604567 171:-0.30665746 172:2.6934898 173:-8.7604128 174:1.4820822 175:2.8431892 176:7.0850409 177:1.9500051 178:-3.7660925 179:0.15120283 180:-0.12628116 181:6.4001458 182:2.8296339 183:-5.2678016 184:-7.0283069 185:-5.7214099 186:-1.6654573 187:3.3254008 188:-9.3582595 189:2.0192097 190:0.5656157 191:8.8003657 192:9.082139 193:6.6388502 194:2.7212622 195:4.6331169 196:9.1742266 197:3.451342 198:1.7168481 199:-2.585196 
-4.1233172228480299e-06 0:5.2670705 1:5.0911915 2:7.0938247 3:7.266957 4:-9.9404065 5:0.31592123 6:-4.8498383 7:-4.406064 8:-5.2111657 9:-5.7297417 10:7.9543335 11:-5.0628092 12:-7.8729337 13:-4.3892519 14:-7.0034395 15:4.4085522 16:-4.0571541 17:4.0911844 18:0.17741149 19:-1.7313754 20:-3.6371133 21:-10.828772 22:-9.4547835 23:-2.7112466 24:-1.664423 25:5.856531 26:7.9705641 27:-0.91655951 28:-10.393634 29:6.2556554 30:-1.5240979 31:-2.5375611 32:-8.7571682 33:2.1861229 34:-5.5317633 35:-2.0747241 36:5.12293 37:4.0180572 38:1.8602936 39:-8.7207797 40:-3.3763288 41:2.7215505 42:-7.6891267 43:9.1391478 44:8.3351714 45:-1.9184303 46:7.6654707 47:-7.8452543 48:-3.4190436 49:1.3523275 50:-7.2136001 51:4.8401713 52:6.7586663 53:-6.4526881 54:6.0723408 55:4.0240486 56:-2.2765839 57:7.1368478 58:2.7881131 59:-1.1354076 60:6.4050289 61:-0.37780465 62:-2.2567676 63:-2.3210287 64:-2.2881703 65:-6.1635766 66:-8.9557112 67:-8.4854515 68:8.8285794 69:6.8402615 70:7.1491675 71:8.7088441 72:-0.15352686 73:6.450047 74:-0.79291999 75:5.444743 76:-1.4451283 77:-3.3006616 78:8.2949354 79:9.4078061 80:-0.81719459 81:3.0235236 82:-9.2158078 83:-1.5406453 84:1.8032934 85:7.4685953 86:2.2872714 87:-4.4911844 88:-3.6846796 89:0.60301185 90:-4.5115428 91:-5.0110986 92:-0.52009232 93:-2.4556646 94:-4.9398959 95:4.4338644 96:6.5554851 97:-9.0178743 98:-4.9564327 99:-1.2648854 100:2.9351171 101:4.6196419 102:0.002313705 103:-2.8552393 104:-6.5557561 105:-3.0985375 106:0.57594405 107:-0.74609651 108:-0.567749 109:-0.67637554 110:5.5302744 111:6.7973651 112:8.8591899 113:2.7665603 114:7.7272356 115:8.3729311 116:-11.120337 117:0.60617177 118:9.8451294 119:0.43979705 120:1.1574703 121:-4.824654 122:1.520672 123:9.1301581 124:5.3122446 125:0.15392453 126:6.9664599 127:8.9597078 128:4.7693582 129:-0.043838209 130:0.66819675 131:-2.1477763 132:0.12119083 133:1.4652836 134:8.4110118 135:-7.9969299 136:-3.8692437 137:-4.0367464 138:-5.2241124 139:-0.11727302 140:-4.0057796 141:6.3666139 142:-1.3978131 143:-6.8054981 144:0.7354438 145:-7.0627764 146:7.9350416 147:-2.6250421 148:6.4325689 149:4.827395 150:7.1524125 151:-9.8283896 152:-1.9231921 153:4.6246083 154:6.7874295 155:1.3455814 156:-4.6564534 157:1.1330323 158:3.8257168 159:6.7090425 160:-3.2588123 161:-1.8632145 162:-4.7673178 163:7.3911081 164:4.106706 165:6.1645433 166:6.1657658 167:0.56925923 168:-5.9753027 169:3.5926168 170:2.898413 171:-1.8891808 172:2.8331567 173:-6.8293462 174:3.938921 175:3.3073448 176:6.1342826 177:1.6691931 178:-4.7718013 179:-1.9835707 180:-0.18812399 181:6.0627535 182:3.5389846 183:-4.5675034 184:-6.5340199 185:-3.6857631 186:-2.6025523 187:1.7555456 188:-10.278291 189:2.6796127 190:-0.039568471 191:8.3872178 192:9.9083954 193:7.0841442 194:2.5335338 195:5.2693011 196:5.8353359 197:1.1196208 198:0.68463717 199:-3.1761195 
-7.4151768775358225e-06 0:4.0072241 1:4.9919686 2:7.5846275 3:10.963141 4:-7.8584648 5:0.54590042 6:-3.6022016 7:-0.39992457 8:-5.870557 9:-5.0805352 10:6.5136772 11:-5.6316505 12:-5.8372926 13:-3.344629 14:-7.5424486 15:2.83333 16:-4.2124059 17:5.5450476 18:-0.72450854 19:-3.2771688 20:-0.254631 21:-8.583598 22:-9.5082574 23:-2.6731527 24:-1.0375167 25:4.7950719 26:7.1008015 27:-0.89065681 28:-9.6274556 29:7.0746671 30:-1.5945971 31:-0.081052289 32:-7.8230827 33:3.8040216 34:-5.2475129 35:-3.571464 36:6.2010144 37:3.0849858 38:3.4609577 39:-8.3716304 40:-3.7701472 41:3.7669303 42:-7.1719588 43:8.8462681 44:9.4653112 45:-2.3713769 46:5.7952421 47:-8.7565574 48:-5.8528677 49:2.1870629 50:-6.0161931 51:5.3045404 52:5.9443603 53:-7.5338325 54:7.3079225 55:4.4421897 56:-1.7816574 57:8.2118585 58:0.61424516 59:-2.3026016 60:6.2041572 61:-1.6472706 62:-5.2421855 63:-3.8871373 64:-1.0692207 65:-4.8177432 66:-9.7891485 67:-10.150465 68:9.9330849 69:9.069904 70:9.0774732 71:8.0885746 72:-0.13535926 73:8.1446155 74:-1.4692513 75:5.5930718 76:-3.2308148 77:-1.4113491 78:8.313774 79:8.5139704 80:-2.9620621 81:1.6342627 82:-9.4100545 83:-2.7843787 84:-0.40244882 85:7.7640226 86:4.3424869 87:-5.2395954 88:-3.4305914 89:1.0241185 90:-5.1468369 91:-4.3252153 92:2.0269608 93:-3.9924037 94:-3.765215 95:2.4908734 96:7.0699486 97:-9.7403844 98:-3.5503734 99:-5.0998773 100:3.5547883 101:3.2829493 102:0.086561845 103:-3.0342113 104:-6.4763248 105:-1.4352282 106:2.0310369 107:-0.65995691 108:-2.9677383 109:-1.4546383 110:5.1352013 111:8.2230658 112:7.8068213 113:-0.23252049 114:7.4182219 115:8.2670379 116:-6.7268587 117:1.0248583 118:7.3868172 119:0.71246759 120:1.4697797 121:-3.2140658 122:3.525317 123:7.9555001 124:4.1364803 125:0.99250567 126:6.6463717 127:8.1429359 128:5.5382341 129:0.66804109 130:0.70242117 131:-2.4656473 132:-1.2297987 133:2.5665606 134:9.7528334 135:-5.9429024 136:-2.4095068 137:-3.864724 138:-2.6542481 139:-1.6050765 140:-4.1638296 141:4.3522715 142:-2.8405496 143:-2.9619279 144:0.057651891 145:-4.2976822 146:8.8834813 147:-1.1750089 148:3.7140335 149:5.597522 150:6.3591956 151:-10.762913 152:-2.6884089 153:3.2212848 154:5.9975449 155:1.8472993 156:-5.5405912 157:3.6168756 158:4.747846 159:8.0777951 160:-4.3040395 161:-1.5629307 162:-6.7112185 163:7.5987364 164:5.0944361 165:5.3798637 166:6.6117943 167:-0.023270133 168:-6.7507719 169:2.1691511 170:2.6861239 171:-1.2765327 172:4.0393282 173:-9.2547673 174:1.2699747 175:3.6035075 176:4.5276655 177:2.0996222 178:-3.9009918 179:-0.00055551637 180:0.67957333 181:5.2326695 182:1.9120587 183:-4.2723528 184:-5.9238676 185:-6.1383787 186:-3.4450129 187:2.7019495 188:-10.788885 189:-0.33606043 190:-0.020924822 191:8.2677131 192:8.6870537 193:7.6593278 194:1.8456286 195:5.5109471 196:7.3923247 197:2.5422775 198:1.524097 199:-1.1468956 
-1.0552575507786544e-06 0:4.8318882 1:2.9018672 2:7.6738618 3:9.002196 4:-8.0638064 5:1.6377979 6:-2.0481755 7:-2.457785 8:-4.5276311 9:-4.9208555 10:7.0407473 11:-5.8185315 12:-7.9871219 13:-5.2390936 14:-6.3572865 15:1.7334802 16:-4.2148723 17:4.8597086 18:-1.4439849 19:-2.5377291 20:-0.079300253 21:-9.260457 22:-10.430276 23:-2.9575767 24:-2.7407272 25:2.8746418 26:8.901857 27:0.7859297 28:-7.9400438 29:7.7311586 30:-0.73358271 31:-1.0055026 32:-7.5733402 33:3.8563072 34:-4.2846274 35:-3.645066 36:6.8654074 37:4.8153935 38:3.473953 39:-8.4123721 40:-3.9934332 41:4.8122959 42:-5.935178 43:10.212147 44:8.0140555 45:-2.3183072 46:5.9722761 47:-8.1417195 48:-2.6724927 49:1.9497802 50:-7.3965702 51:6.3211049 52:7.3784751 53:-5.7824829 54:7.6022974 55:5.1697414 56:-1.7571544 57:5.1525677 58:2.2857103 59:-2.7700541 60:6.4028593 61:-0.12516828 62:-3.9552196 63:-2.868376 64:-0.39606258 65:-4.6811847 66:-11.309325 67:-7.1618573 68:9.2265191 69:6.7416731 70:6.553789 71:9.7785227 72:-1.0695785 73:6.7146407 74:-0.32059214 75:7.887831 76:-2.6895845 77:-2.786695 78:8.0949054 79:9.06264 80:-2.9095702 81:1.689074 82:-8.5806446 83:-2.5063188 84:-0.16009828 85:6.9950303 86:2.6853844 87:-5.4144031 88:-5.3838708 89:0.80788277 90:-5.9976291 91:-3.3338422 92:0.41179438 93:-3.0847453 94:-3.3516703 95:4.8582974 96:6.1538744 97:-10.732716 98:-4.4434257 99:-2.9730985 100:3.9486161 101:5.3960354 102:1.399899 103:-1.3106167 104:-6.9035707 105:0.16959575 106:3.7979991 107:-0.45914003 108:-0.27533459 109:-0.51788477 110:6.1861111 111:6.1834615 112:7.4425624 113:1.769177 114:8.1704512 115:7.6949538 116:-9.4008522 117:0.98209815 118:9.5780301 119:-0.77996584 120:2.2412415 121:-3.0251718 122:3.3745896 123:7.0981328 124:3.9645132 125:0.02124814 126:8.0554079 127:7.7763579 128:6.2082109 129:-0.016843929 130:0.3924564 131:-2.1423824 132:-2.1184516 133:2.9101436 134:10.801353 135:-6.5675935 136:-4.0712155 137:-3.6768431 138:-2.841407 139:-0.16333215 140:-2.1490113 141:4.8246146 142:-1.6543447 143:-5.0410475 144:1.164258 145:-7.6524273 146:6.3229443 147:-4.6348135 148:5.9800669 149:5.68452 150:6.5641393 151:-9.1268997 152:-3.6282186 153:3.4186746 154:6.3589771 155:1.7128305 156:-5.919975 157:2.4199566 158:4.6611476 159:8.0013495 160:-3.0993559 161:-0.411248 162:-4.083386 163:7.2103782 164:3.430637 165:7.0824953 166:6.422986 167:-0.47772252 168:-7.0926439 169:4.3069902 170:1.844066 171:-1.519651 172:4.2785872 173:-7.9981698 174:1.7278623 175:4.3145019 176:5.8702761 177:2.0041671 178:-2.9606177 179:-1.7748385 180:1.0588349 181:5.4307499 182:2.9890735 183:-6.5363132 184:-5.2747317 185:-8.0939423 186:-1.7529605 187:3.0790176 188:-10.074035 189:3.3100095 190:1.2155685 191:9.1262092 192:9.2481391 193:7.6306576 194:2.7280331 195:3.8705222 196:8.7252115 197:3.6176449 198:0.96526402 199:-2.6886821 
-4.8207531120178752e-07 0:3.5532553 1:5.0913281 2:7.4280257 3:9.5365234 4:-7.781318 5:0.34248686 6:-3.0147033 7:-3.6144397 8:-4.7603247 9:-7.0949921 10:6.492492 11:-6.6673574 12:-8.9044142 13:-4.2755539 14:-5.8472926 15:6.0146859 16:-4.3337651 17:4.9047056 18:0.62851744 19:-1.167809 20:-0.60268629 21:-6.753688 22:-9.5215324 23:-3.4495757 24:-1.1498899 25:3.9751412 26:6.2795873 27:-0.63651644 28:-8.015318 29:7.6540163 30:0.20739165 31:-3.4832496 32:-10.2216 33:2.6649426 34:-5.2202949 35:-1.1010285 36:6.441316 37:3.4026771 38:2.8396884 39:-7.3477481 40:-4.7324409 41:3.1346407 42:-6.3761155 43:9.2795496 44:8.2188993 45:-3.6232474 46:7.1917054 47:-7.8581045 48:-3.0293885 49:1.5243532 50:-7.4058899 51:6.1800252 52:7.3180966 53:-8.0000024 54:6.5950825 55:3.8505891 56:-1.7354097 57:6.645459 58:2.3419108 59:-3.2923157 60:6.201075 61:-2.6117986 62:-1.9145899 63:-4.2173912 64:-2.2981644 65:-5.3636584 66:-8.7014011 67:-9.993541 68:7.2508682 69:7.4255856 70:6.9733621 71:8.7347023 72:1.7198638 73:6.4973693 74:-1.8640328 75:6.692767 76:-3.0324216 77:-3.2127869 78:8.9130059 79:8.3355119 80:-1.6301749 81:1.668013 82:-7.1933815 83:-2.7652819 84:2.2053324 85:6.0889197 86:0.71776064 87:-5.4391612 88:-3.6133335 89:2.2560754 90:-5.2451532 91:-4.5253755 92:0.91011102 93:-3.0914413 94:-4.7590668 95:4.1522647 96:6.9874676 97:-9.3971489 98:-3.2044939 99:-2.3101931 100:3.6703266 101:5.1968993 102:0.94251808 103:-3.43225 104:-6.8210478 105:-1.5427099 106:2.0588277 107:-2.3442892 108:-2.5934399 109:-1.5445949 110:4.3724195 111:7.4592456 112:9.3632615 113:1.2416229 114:8.306923 115:7.3245653 116:-9.7089251 117:2.5146315 118:9.3623795 119:1.613553 120:2.4308215 121:-3.255901 122:3.5920491 123:8.7036025 124:4.4909605 125:0.79725706 126:8.6225394 127:7.92231 128:4.9839891 129:1.5453987 130:0.23620612 131:-1.6527012 132:-1.8019078 133:2.6532351 134:7.8331575 135:-5.1120251 136:-2.702533 137:-4.8625895 138:-3.147426 139:2.3938492 140:-3.576887 141:5.3720046 142:-1.825029 143:-3.6609889 144:-0.31917665 145:-6.3291528 146:7.136794 147:-2.0808227 148:6.460444 149:5.7704877 150:5.4985316 151:-10.477873 152:-3.9168694 153:3.7583527 154:3.4047325 155:2.933541 156:-5.6730942 157:1.9080259 158:4.06133 159:8.3732867 160:-5.0365735 161:-4.5285538 162:-6.5246661 163:8.6824796 164:3.3619422 165:5.8065691 166:5.5492265 167:1.8220467 168:-6.2282258 169:4.5936153 170:1.7895745 171:-1.7554902 172:4.7873002 173:-8.7651862 174:2.0586568 175:3.529856 176:7.006709 177:1.5874323 178:-2.3559767 179:-1.0315295 180:0.56537058 181:4.2942114 182:1.5827474 183:-5.6351071 184:-6.7331392 185:-6.8670294 186:-3.4646706 187:3.1318232 188:-10.631526 189:2.052427 190:-0.34056622 191:8.199415 192:11.083835 193:7.3365694 194:1.7996875 195:6.4123018 196:10.506795 197:-0.061768698 198:-0.85625574 199:-2.3201227 
-8.2107674716428858e-06 0:4.8317694 1:2.9293671 2:6.2782252 3:8.3045929 4:-7.4924454 5:1.0497829 6:-1.4313937 7:-2.9714571 8:-7.190213 9:-4.9013794 10:8.8762238 11:-5.5997957 12:-6.7568429 13:-4.1311806 14:-9.512259 15:4.3251556 16:-2.8375244 17:4.5894508 18:1.4361488 19:-2.6176535 20:-1.9512071 21:-9.2704196 22:-10.627305 23:-2.0626256 24:-2.2871412 25:4.2499032 26:7.937037 27:0.31781159 28:-7.9560501 29:8.589659 30:-0.062888043 31:-0.0074207278 32:-7.4106976 33:1.4971183 34:-4.2170404 35:-2.0664909 36:6.1275302 37:4.0605992 38:2.7348275 39:-7.8231147 40:-3.8414234 41:2.3654326 42:-5.979949 43:9.8795752 44:7.2737272 45:-2.1763684 46:7.7601709 47:-8.6907887 48:-3.033621 49:1.7406013 50:-6.4681445 51:5.1395027 52:7.3200781 53:-6.6372787 54:5.8378844 55:5.8517402 56:-2.4256116 57:6.2899922 58:3.4311809 59:-2.1439481 60:7.3082401 61:-1.7872091 62:-2.4549736 63:-4.3885933 64:-2.2814732 65:-4.9732699 66:-10.567922 67:-7.7141339 68:7.8721551 69:8.5346112 70:7.4498326 71:9.1524679 72:-0.25092622 73:8.5850199 74:0.21751458 75:4.7674799 76:-2.1084873 77:-2.569763 78:6.3119793 79:8.711545 80:-2.4400765 81:1.0564015 82:-8.0079044 83:-2.7514364 84:1.2965544 85:6.5062905 86:2.2456667 87:-5.7083101 88:-3.1649293 89:1.1217337 90:-6.9569182 91:-5.7957574 92:1.4017959 93:-2.5741831 94:-5.1909596 95:5.7798195 96:6.249914 97:-9.3269129 98:-2.7014997 99:-2.1967685 100:2.5882576 101:2.7392336 102:2.1894965 103:-1.59537 104:-5.6486927 105:-1.7773868 106:4.4402572 107:-0.72328424 108:-1.8471026 109:-1.2075553 110:5.0004043 111:7.5883187 112:11.519268 113:3.0833945 114:8.234513 115:8.1890154 116:-6.754856 117:1.6814141 118:7.6961197 119:2.8130041 120:2.617812 121:-3.2854696 122:2.6248564 123:9.8557206 124:3.6793468 125:-0.28032611 126:7.0329092 127:9.0851769 128:6.1903486 129:1.6298424 130:0.40447784 131:-2.9192529 132:-1.102952 133:1.3626421 134:10.855479 135:-5.6026304 136:-3.9145994 137:-4.000358 138:-4.7458732 139:-1.0817537 140:-2.4272441 141:5.3918177 142:-0.88787854 143:-5.1423782 144:-0.14664267 145:-6.1585734 146:8.6606897 147:-2.3774925 148:5.4590792 149:4.8584226 150:6.1455149 151:-8.4939809 152:-2.5414804 153:3.3971503 154:5.6732842 155:0.47923179 156:-4.146605 157:0.84998647 158:4.7637737 159:8.8722738 160:-6.2203741 161:-1.0792509 162:-5.3821714 163:8.2984851 164:4.5504632 165:6.3976015 166:7.0322967 167:0.88531937 168:-6.8245362 169:2.1315811 170:2.0276198 171:-2.7534095 172:3.8564406 173:-6.3513459 174:3.4854317 175:2.7497654 176:5.5085316 177:4.1499917 178:-3.1352154 179:0.80261631 180:-1.4179972 181:4.7370364 182:3.2334578 183:-7.2033509 184:-6.634218 185:-6.4845581 186:-2.7968662 187:4.9687714 188:-10.754 189:1.0529309 190:0.31708487 191:7.753026 192:8.8272396 193:6.8050053 194:2.2152952 195:5.7001377 196:6.5944783 197:2.3207753 198:1.7917038 199:-1.3085279 
