svm_type c_svc
kernel_type linear
nr_class 2
total_sv 9
rho 0.075993354792116025
label 1 -1
nr_sv 4 5
SV
3.2646689074018703e-05 0:7.7246431 1:-5.0410296 2:-4.2802085 3:-2.0863068 4:4.0680237 5:9.9573689 6:-11.459654 7:-6.1172644 8:6.2954185 9:5.5357769 10:-7.7261 11:2.5935613 12:-7.4564886 13:-8.563474 14:-5.7296373 15:3.7747131 16:5.5033687 17:3.3898127 18:-6.7373038 19:-1.5044816 20:-2.9094049 21:2.6232371 22:-7.4474231 23:6.8981241 24:-0.73951973 25:4.1532568 26:0.48651903 27:-2.3816644 28:4.736444 29:8.8338403 30:6.1814806 31:4.348832 32:5.7063596 33:5.262438 34:7.1132378 35:3.6033088 36:7.1989555 37:6.0887604 38:-7.2244305 39:-3.6520236 40:-1.4429154 41:-0.49371298 42:-0.76757834 43:-8.6753516 44:1.9579496 45:5.9837269 46:-7.5804973 47:-3.4362772 48:-7.3309012 49:7.9525864 50:3.2383064 51:-3.0130918 52:6.7086846 53:-9.0865902 54:-2.0695321 55:-1.4175398 56:7.868126 57:-8.1086168 58:-0.23264188 59:-5.9063289 60:7.1296617 61:-5.4646562 62:8.6786814 63:0.56469542 64:-0.62105384 65:-3.1043658 66:-7.6903016 67:8.7288163 68:9.2043045 69:-4.1140785 70:0.82517834 71:2.0949759 72:-2.3433204 73:5.0587232 74:-1.5707934 75:5.1815171 76:2.1962457 77:-8.8213518 78:-0.1341775 79:7.0274695 80:-5.1901599 81:-3.3973712 82:3.0615912 83:6.968946 84:5.3244716 85:6.6169981 86:-3.8443544 87:-8.8153942 88:-1.3900184 89:-5.8063362 90:-2.8472705 91:-5.7564942 92:7.3226176 93:-7.2631086 94:-5.1572876 95:-6.7830364 96:9.5177914 97:-9.9359123 98:-6.1424705 99:-1.9549633 100:4.5629912 101:-5.2701879 102:6.897528 103:-6.6276563 104:-4.9605597 105:-8.1635149 106:1.4719413 107:-2.8341862 108:-9.5544579 109:5.8352507 110:9.704101 111:5.7136092 112:9.5285977 113:-4.8806785 114:10.181279 115:-7.8468861 116:-3.0522486 117:4.71582 118:3.5120561 119:3.2791266 120:8.6595188 121:4.5817248 122:-7.7427427 123:-1.9773212 124:2.4229458 125:7.1668366 126:-8.3793942 127:-1.5284398 128:4.2127013 129:4.7866923 130:-3.9292723 131:-4.0193089 132:8.1149916 133:-0.4661824 134:-1.7431087 135:7.2846187 136:-3.555479 137:7.556212 138:-7.2951822 139:1.4197789 140:-10.188817 141:-6.9789346 142:4.0738441 143:2.3190015 144:1.0710794 145:-6.6792425 146:-1.8738623 147:-7.9431893 148:-1.4018396 149:-0.83904047 150:-3.8245035 151:3.3124659 152:3.0298789 153:-3.9319487 154:-8.5417241 155:-9.3698549 156:7.5917101 157:-2.8309113 158:-2.0716533 159:1.9453705 160:4.9426943 161:7.7310274 162:-9.0090886 163:2.9822573 164:9.443745 165:1.8106192 166:-4.4804045 167:-5.3126138 168:3.2920198 169:-0.85451654 170:-8.7604226 171:-6.5683788 172:-4.9190864 173:7.4839124 174:-3.7424255 175:-6.4191978 176:7.1039711 177:-4.3536591 178:-3.920313 179:-5.2075299 180:2.7707468 181:6.1397466 182:4.1333326 183:1.8803506 184:2.4932063 185:-4.4002942 186:-3.7178461 187:-1.6843652 188:9.0003499 189:6.7481533 190:-9.4588273 191:-2.5654988 192:8.7147381 193:-6.8394623 194:1.2737062 195:-7.3811139 196:-9.9546557 197:-8.1275804 198:-3.973956 199:-6.2792667 
1.9033844669435079e-05 0:8.0293115 1:-2.1496309 2:-3.6131646 3:-3.0224928 4:4.1684521 5:11.147386 6:-9.1239917 7:-4.8911552 8:4.5557257 9:6.7047204 10:-7.5258184 11:4.1496232 12:-5.7607959 13:-8.8898216 14:-5.9937753 15:3.8679534 16:7.3410595 17:1.9572964 18:-5.6983139 19:-1.4458475 20:-3.4086222 21:3.6963375 22:-5.6313289 23:7.2820416 24:1.8280631 25:4.2533528 26:-0.83040858 27:-2.8388075 28:5.3202303 29:6.5465548 30:5.3934415 31:4.2865601 32:6.0416516 33:4.8399235 34:5.7934827 35:3.5717602 36:4.7339855 37:5.4390448 38:-7.727032 39:-4.7994286 40:-0.22467565 41:1.2684975 42:-1.4180753 43:-9.5778767 44:1.760349 45:7.5973376 46:-9.287874 47:-4.1521838 48:-6.4515192 49:6.797536 50:3.6611555 51:-2.9089074 52:7.5826791 53:-8.9204563 54:-1.8521561 55:-4.7705678 56:6.479092 57:-7.1039359 58:-2.9710312 59:-5.8629289 60:6.9306768 61:-5.425457 62:7.0641578 63:0.25043534 64:0.83657265 65:-0.82813679 66:-5.0173616 67:7.8395625 68:8.7174857 69:-3.5681696 70:-0.18005999 71:2.8160204 72:-0.98969829 73:5.7976201 74:-3.7589356 75:3.775389 76:1.0719845 77:-9.3451813 78:0.94185023 79:4.7398945 80:-4.6980599 81:-2.8786111 82:1.9359646 83:7.516022 84:6.845526 85:6.112435 86:-2.1517081 87:-9.3218569 88:-2.1323084 89:-7.8258074 90:-4.7742154 91:-6.0200428 92:8.8730918 93:-8.1348116 94:-4.6098329 95:-6.4009788 96:10.187591 97:-8.4682825 98:-7.6845691 99:-0.95114459 100:4.5563158 101:-2.5154661 102:6.4557314 103:-4.9695463 104:-4.4736704 105:-6.5443515 106:1.3814111 107:-4.1301504 108:-9.3598013 109:5.4338356 110:11.185111 111:5.5497551 112:9.5830485 113:-6.3297417 114:9.5052887 115:-7.11138 116:-5.1207194 117:4.7030696 118:2.2348628 119:2.6865272 120:8.5039259 121:4.3182702 122:-7.7162592 123:-2.2722827 124:3.313922 125:6.1797415 126:-7.42322 127:-1.5641301 128:6.0170004 129:5.2546275 130:-3.5984111 131:-4.1134519 132:10.288284 133:-0.55789628 134:-3.1252302 135:5.9918408 136:-1.9667576 137:5.9820929 138:-8.4900487 139:1.7746381 140:-10.293442 141:-5.4257183 142:5.7505007 143:5.181531 144:2.1176996 145:-7.398312 146:0.059868781 147:-7.8475076 148:-0.48776428 149:-2.182522 150:-1.9876365 151:4.1633792 152:4.9781413 153:-3.4421157 154:-9.2782753 155:-8.9585314 156:7.578282 157:-1.1391055 158:-2.9027195 159:0.63684916 160:4.298524 161:5.0985819 162:-9.2022907 163:2.3256213 164:8.3046231 165:0.95934742 166:-5.0324616 167:-6.858562 168:2.5338869 169:-2.2698678 170:-8.2755718 171:-8.2329595 172:-6.3946387 173:6.3677847 174:-3.2880948 175:-5.4365816 176:7.1631073 177:-2.325776 178:-4.7418771 179:-3.8672081 180:3.5998402 181:5.8856796 182:5.9096294 183:0.098218661 184:1.3713421 185:-5.1522951 186:-3.2388186 187:-0.69795854 188:8.4813969 189:5.2466652 190:-9.5603485 191:-3.31201 192:5.1928196 193:-7.5698243 194:0.33882881 195:-8.4616043 196:-8.5350119 197:-6.9098946 198:-4.7537841 199:-7.0780736 
7.4247688037905861e-05 0:7.9884288 1:-4.4087894 2:-4.3343475 3:-3.6773452 4:4.8071588 5:9.0621191 6:-9.677478 7:-3.9839681 8:5.4574955 9:5.6274429 10:-5.154522 11:2.8271984 12:-7.9631447 13:-11.210211 14:-3.5029615 15:5.0697237 16:5.9447454 17:1.9710268 18:-6.1183864 19:-0.5535709 20:-1.1886454 21:1.3676554 22:-7.0366559 23:9.3015923 24:1.2925489 25:6.4729119 26:0.84291761 27:-1.9708059 28:3.3585232 29:7.0346168 30:7.5472453 31:3.6098927 32:5.1359811 33:6.7863958 34:7.0287138 35:3.8841593 36:7.9564921 37:5.4918514 38:-7.5120424 39:-4.5534648 40:-2.5091478 41:1.581336 42:-1.1011389 43:-8.3969896 44:1.0839746 45:7.9422759 46:-9.6407269 47:-3.9613958 48:-9.2474402 49:6.9254112 50:4.6058855 51:-3.8453366 52:8.0506903 53:-9.1305586 54:-1.7459855 55:-3.269108 56:9.3301541 57:-7.66596 58:-2.7148566 59:-6.404131 60:8.1715541 61:-4.8510079 62:7.3995611 63:0.17052123 64:1.8252893 65:-1.0760409 66:-5.4002374 67:7.7260686 68:9.1857221 69:-2.6648508 70:2.145731 71:4.7502387 72:-0.54057808 73:4.9926218 74:-1.3521692 75:2.7511003 76:1.60172 77:-9.3501443 78:1.731464 79:5.7776144 80:-5.555898 81:-2.0145323 82:2.6251451 83:5.072971 84:6.4083846 85:8.135624 86:-2.3604169 87:-7.2864284 88:-2.5814206 89:-4.7046999 90:-4.4797989 91:-7.1025566 92:9.8208144 93:-6.8405728 94:-5.5109939 95:-6.4680658 96:8.5464086 97:-8.5550624 98:-6.1400882 99:-0.8860173 100:4.3818385 101:-3.4899844 102:5.1541336 103:-6.5164098 104:-5.5206241 105:-7.5805547 106:1.5449991 107:-2.6294458 108:-9.622428 109:2.6088705 110:8.5741719 111:3.864475 112:7.8696856 113:-5.2303733 114:10.323989 115:-9.3863211 116:-3.8662479 117:5.8247126 118:1.8606806 119:4.4016551 120:10.168834 121:2.6598815 122:-5.3697672 123:-5.3841117 124:2.1837035 125:7.6821068 126:-6.8441809 127:-0.91558858 128:6.4776442 129:6.6386664 130:-0.24595069 131:-2.2259553 132:10.420666 133:0.36053082 134:-1.0328388 135:5.2703042 136:-0.50157963 137:8.7926518 138:-8.1604649 139:1.0633558 140:-7.4982916 141:-7.0828491 142:5.0314155 143:1.9564545 144:0.90232083 145:-4.9941271 146:-2.2922787 147:-7.5808122 148:-0.060100351 149:0.00091815408 150:-4.6055809 151:4.870795 152:4.1076998 153:-3.7470274 154:-9.4803335 155:-8.2319031 156:8.4265595 157:-1.490615 158:-1.9381732 159:1.0719557 160:5.1788008 161:7.195684 162:-6.9834586 163:2.985658 164:9.1873053 165:2.840547 166:-4.8894711 167:-4.6923052 168:3.0637856 169:-2.6888616 170:-10.546337 171:-9.6826994 172:-5.3812785 173:7.1640504 174:-2.4342052 175:-4.6071907 176:8.6119797 177:-2.192549 178:-3.9146843 179:-4.9279458 180:2.6830522 181:6.9154349 182:7.1831997 183:-0.74833423 184:1.5034052 185:-5.3587333 186:-4.956424 187:-1.3970694 188:8.7524106 189:5.8824032 190:-8.4661762 191:-3.7605872 192:6.9043196 193:-7.3473154 194:0.97182866 195:-7.7217857 196:-7.2000731 197:-7.7359406 198:-2.9269016 199:-7.6105242 
5.0967476869780489e-05 0:8.4277511 1:-4.2734454 2:-4.8887568 3:-2.235119 4:6.5223566 5:8.9629759 6:-10.235475 7:-6.1509262 8:8.0413675 9:5.5755244 10:-7.7416339 11:4.6747092 12:-6.5498614 13:-9.7411905 14:-4.9434184 15:2.3286983 16:5.645787 17:1.882646 18:-5.6811248 19:-1.7555172 20:-2.5075725 21:1.3297997 22:-5.7707807 23:9.6704121 24:1.2661005 25:5.9262292 26:0.62297014 27:-0.1859193 28:3.0988228 29:5.8975268 30:5.5963637 31:3.63916 32:5.9140443 33:6.5982759 34:7.5801766 35:2.9199811 36:5.2269842 37:5.6927736 38:-7.1484606 39:-2.8801543 40:-0.75346028 41:0.37200653 42:-4.751164 43:-7.9266385 44:3.9231568 45:6.1017533 46:-10.451283 47:-5.5656121 48:-9.6991398 49:6.8256859 50:3.8743564 51:-2.1149772 52:6.8985543 53:-10.677787 54:-0.51263428 55:-2.4159816 56:7.1368324 57:-7.9652057 58:-0.77395044 59:-4.9269122 60:9.7936695 61:-5.5932787 62:8.5630864 63:0.87013423 64:0.35479909 65:-2.279898 66:-5.2309559 67:7.5986196 68:8.2619101 69:-4.6229381 70:0.16287908 71:2.8867437 72:-2.4704929 73:3.770598 74:-3.8640794 75:0.76914542 76:1.7661871 77:-7.6276477 78:0.39430619 79:5.8291229 80:-5.178958 81:-3.4909057 82:2.8342988 83:4.8325625 84:6.7838066 85:6.1562749 86:-4.6885209 87:-8.0504938 88:0.3889018 89:-5.3146002 90:-5.0814237 91:-8.3370864 92:7.1755858 93:-6.79548 94:-4.2126948 95:-8.8631697 96:8.2901228 97:-7.3082671 98:-7.5729775 99:-0.94107855 100:3.9946585 101:-4.0630803 102:6.4480805 103:-7.0401801 104:-5.8538217 105:-6.6941715 106:0.79081036 107:-4.1421109 108:-8.5130416 109:5.3042592 110:10.791807 111:5.1927569 112:7.6002808 113:-4.8469182 114:11.245988 115:-7.2152256 116:-3.9840986 117:5.7778067 118:4.4789336 119:3.8758286 120:8.2038675 121:3.7424448 122:-7.2891224 123:-4.0101504 124:4.4485316 125:6.2595042 126:-6.0779714 127:-0.04712064 128:7.3398935 129:4.3110124 130:-5.2025256 131:-2.0910029 132:9.5966278 133:0.11117087 134:-2.5379223 135:5.5157379 136:-3.586764 137:5.8240072 138:-8.993319 139:2.2145436 140:-9.3859902 141:-5.3640158 142:6.1318775 143:2.7570137 144:-0.19358883 145:-5.2957935 146:-1.6570365 147:-8.217426 148:-1.7323143 149:-1.0562212 150:-2.1575266 151:5.4182819 152:4.3414988 153:-4.3416065 154:-8.8515643 155:-6.9742556 156:8.0556772 157:-0.15159319 158:-3.6018148 159:3.1091485 160:4.6767519 161:8.018193 162:-9.4546505 163:3.6095646 164:9.6713931 165:0.70091073 166:-4.0962936 167:-6.0753506 168:2.3668919 169:-1.5457844 170:-10.294725 171:-7.0516863 172:-4.7291362 173:8.3464573 174:-4.0425998 175:-6.2192688 176:5.8656928 177:-3.8086026 178:-4.5849855 179:-3.5739965 180:2.2048577 181:5.9591216 182:4.2865428 183:-0.82626917 184:1.6107402 185:-5.14202 186:-3.2075997 187:-1.4984145 188:8.316763 189:7.5695672 190:-9.4405474 191:-0.05976722 192:6.7604084 193:-6.4567085 194:0.53794552 195:-6.2933919 196:-9.8535728 197:-8.2480699 198:-3.5086881 199:-8.4711023 
-1.6205130710414069e-05 0:3.853161 1:3.6883024 2:7.2965093 3:8.1685732 4:-8.1956193 5:1.0140873 6:-3.6149901 7:-3.4142985 8:-7.4534995 9:-5.5202874 10:6.8161909 11:-6.0771771 12:-6.7734072 13:-4.360981 14:-5.4422574 15:6.1705662 16:-4.0965081 17:5.3323036 18:-1.2093393 19:-2.9633333 20:-0.36542689 21:-8.5958432 22:-9.4407718 23:-5.2029731 24:-1.8644268 25:5.1255064 26:7.4291896 27:-1.333704 28:-7.0434317 29:10.36398 30:0.21748464 31:-1.5241612 32:-9.2446599 33:3.8104135 34:-3.2540872 35:-0.47620013 36:6.8734422 37:4.7293927 38:4.4500651 39:-8.7134972 40:-4.0974104 41:3.0751124 42:-8.3028604 43:8.9795799 44:10.158478 45:-2.6522965 46:5.1505127 47:-7.6855276 48:-2.7667747 49:1.2142224 50:-7.8039311 51:6.1085044 52:7.5115405 53:-7.267105 54:8.4016492 55:3.4791202 56:-2.7667331 57:6.1678112 58:3.1564892 59:-2.9005436 60:6.8348692 61:-1.0711519 62:-3.7507005 63:-3.0346758 64:-1.7260652 65:-5.0503518 66:-9.1315826 67:-7.3568229 68:9.6262705 69:6.9814529 70:8.1200499 71:9.6006816 72:-0.40027689 73:7.7448979 74:-0.29369053 75:5.3669955 76:-3.9993849 77:-2.1085605 78:8.7536525 79:8.3185735 80:-0.51622662 81:-0.86610827 82:-8.4694917 83:-2.6685086 84:2.2463255 85:6.6558591 86:2.8936083 87:-5.2684029 88:-2.7086966 89:0.46102385 90:-5.5277181 91:-6.3842134 92:-0.02903887 93:-0.78991995 94:-3.4620512 95:4.0171512 96:5.6142863 97:-10.362465 98:-4.0889371 99:-4.4624052 100:3.6984657 101:3.8239646 102:2.4854854 103:-3.9645838 104:-6.3798194 105:-0.33756356 106:1.3467474 107:0.76184921 108:-3.361533 109:-2.3476834 110:4.5581811 111:8.2258995 112:7.747819 113:3.8433616 114:7.1487137 115:8.5210182 116:-6.1295482 117:1.9172004 118:8.5752965 119:1.1871928 120:3.1605031 121:-3.1338414 122:2.5810997 123:8.6463457 124:4.7602977 125:1.1714269 126:6.9344195 127:8.1813389 128:5.3286213 129:-0.074149214 130:2.048998 131:-2.6272196 132:0.45670632 133:3.5299147 134:9.7140827 135:-6.046435 136:-4.5692155 137:-3.2656907 138:-1.5993226 139:-2.1311716 140:-2.1836605 141:3.9691407 142:-1.6743596 143:-5.4400527 144:0.46065945 145:-6.3417733 146:9.6142679 147:-1.3982447 148:4.2698054 149:2.809308 150:5.3200633 151:-10.654017 152:-3.2935064 153:1.9990416 154:5.1667561 155:0.58570918 156:-5.4813436 157:3.4027596 158:2.6082269 159:7.7782073 160:-2.1024605 161:-2.5434947 162:-6.1370065 163:9.0138336 164:5.6678315 165:3.7473242 166:6.4828139 167:0.52842091 168:-5.7719495 169:4.0420232 170:3.497408 171:-1.4103777 172:3.8072615 173:-9.8500051 174:3.6404114 175:4.576504 176:5.9237143 177:1.5216059 178:-2.7997834 179:0.71270573 180:0.13127358 181:5.1542971 182:5.0944811 183:-5.2345025 184:-8.5473429 185:-7.0866265 186:-2.4135227 187:2.3396355 188:-9.2701961 189:1.6518438 190:0.68712312 191:7.895519 192:10.380267 193:7.8288076 194:3.6916128 195:4.9370183 196:7.864775 197:1.3512248 198:2.5174145 199:-2.681604 
-3.933402188514466e-06 0:5.2670705 1:5.0911915 2:7.0938247 3:7.266957 4:-9.9404065 5:0.31592123 6:-4.8498383 7:-4.406064 8:-5.2111657 9:-5.7297417 10:7.9543335 11:-5.0628092 12:-7.8729337 13:-4.3892519 14:-7.0034395 15:4.4085522 16:-4.0571541 17:4.0911844 18:0.17741149 19:-1.7313754 20:-3.6371133 21:-10.828772 22:-9.4547835 23:-2.7112466 24:-1.664423 25:5.856531 26:7.9705641 27:-0.91655951 28:-10.393634 29:6.2556554 30:-1.5240979 31:-2.5375611 32:-8.7571682 33:2.1861229 34:-5.5317633 35:-2.0747241 36:5.12293 37:4.0180572 38:1.8602936 39:-8.7207797 40:-3.3763288 41:2.7215505 42:-7.6891267 43:9.1391478 44:8.3351714 45:-1.9184303 46:7.6654707 47:-7.8452543 48:-3.4190436 49:1.3523275 50:-7.2136001 51:4.8401713 52:6.7586663 53:-6.4526881 54:6.0723408 55:4.0240486 56:-2.2765839 57:7.1368478 58:2.7881131 59:-1.1354076 60:6.4050289 61:-0.37780465 62:-2.2567676 63:-2.3210287 64:-2.2881703 65:-6.1635766 66:-8.9557112 67:-8.4854515 68:8.8285794 69:6.8402615 70:7.1491675 71:8.7088441 72:-0.15352686 73:6.450047 74:-0.79291999 75:5.444743 76:-1.4451283 77:-3.3006616 78:8.2949354 79:9.4078061 80:-0.81719459 81:3.0235236 82:-9.2158078 83:-1.5406453 84:1.8032934 85:7.4685953 86:2.2872714 87:-4.4911844 88:-3.6846796 89:0.60301185 90:-4.5115428 91:-5.0110986 92:-0.52009232 93:-2.4556646 94:-4.9398959 95:4.4338644 96:6.5554851 97:-9.0178743 98:-4.9564327 99:-1.2648854 100:2.9351171 101:4.6196419 102:0.002313705 103:-2.8552393 104:-6.5557561 105:-3.0985375 106:0.57594405 107:-0.74609651 108:-0.567749 109:-0.67637554 110:5.5302744 111:6.7973651 112:8.8591899 113:2.7665603 114:7.7272356 115:8.3729311 116:-11.120337 117:0.60617177 118:9.8451294 119:0.43979705 120:1.1574703 121:-4.824654 122:1.520672 123:9.1301581 124:5.3122446 125:0.15392453 126:6.9664599 127:8.9597078 128:4.7693582 129:-0.043838209 130:0.66819675 131:-2.1477763 132:0.12119083 133:1.4652836 134:8.4110118 135:-7.9969299 136:-3.8692437 137:-4.0367464 138:-5.2241124 139:-0.11727302 140:-4.0057796 141:6.3666139 142:-1.3978131 143:-6.8054981 144:0.7354438 145:-7.0627764 146:7.9350416 147:-2.6250421 148:6.4325689 149:4.827395 150:7.1524125 151:-9.8283896 152:-1.9231921 153:4.6246083 154:6.7874295 155:1.3455814 156:-4.6564534 157:1.1330323 158:3.8257168 159:6.7090425 160:-3.2588123 161:-1.8632145 162:-4.7673178 163:7.3911081 164:4.106706 165:6.1645433 166:6.1657658 167:0.56925923 168:-5.9753027 169:3.5926168 170:2.898413 171:-1.8891808 172:2.8331567 173:-6.8293462 174:3.938921 175:3.3073448 176:6.1342826 177:1.6691931 178:-4.7718013 179:-1.9835707 180:-0.18812399 181:6.0627535 182:3.5389846 183:-4.5675034 184:-6.5340199 185:-3.6857631 186:-2.6025523 187:1.7555456 188:-10.278291 189:2.6796127 190:-0.039568471 191:8.3872178 192:9.9083954 193:7.0841442 194:2.5335338 195:5.2693011 196:5.8353359 197:1.1196208 198:0.68463717 199:-3.1761195 
-2.0761477674468851e-05 0:2.5133299 1:5.1844387 2:5.840132 3:8.6340701 4:-8.1392439 5:0.68152468 6:-3.9233742 7:-3.5214075 8:-5.7517312 9:-6.938233 10:7.2361556 11:-5.584579 12:-7.59519 13:-4.916039 14:-7.5417585 15:2.5437155 16:-3.0376821 17:5.5423735 18:0.46266331 19:-2.7805926 20:-0.9134521 21:-9.7861734 22:-8.9193031 23:-4.1406114 24:-2.5538873 25:4.776597 26:7.8047459 27:-1.2324563 28:-7.1381074 29:7.2325198 30:-1.5053811 31:-0.46494287 32:-10.112878 33:3.1673602 34:-6.2169956 35:-1.6769743 36:4.6469844 37:4.485021 38:2.2117585 39:-8.264994 40:-1.8642361 41:2.3800324 42:-7.8526797 43:7.3953234 44:10.108998 45:-2.6181474 46:7.4466938 47:-6.8133264 48:-3.8554833 49:2.7056386 50:-8.058408 51:6.0637131 52:7.4592576 53:-5.3496857 54:7.3348932 55:3.7411118 56:-2.485634 57:7.1260317 58:2.2353495 59:-3.2017595 60:5.7723247 61:-0.71747188 62:-4.039361 63:-0.025234748 64:0.2313634 65:-4.9047237 66:-10.100219 67:-6.6140541 68:9.4046518 69:7.10765 70:8.584236 71:7.9396962 72:0.72134928 73:5.8232129 74:0.29989613 75:5.2888267 76:-2.5106093 77:-0.77408482 78:9.0904901 79:9.799376 80:-1.9118948 81:0.1715013 82:-7.8590102 83:-3.9288826 84:1.680014 85:8.6983862 86:0.86080793 87:-6.2687608 88:-3.4066911 89:0.051039583 90:-4.990037 91:-6.9296869 92:3.1341548 93:-2.3171519 94:-5.6411923 95:5.3377345 96:8.587434 97:-11.210367 98:-4.634328 99:-2.8383949 100:3.2243098 101:4.2103255 102:0.21002585 103:-2.3294711 104:-4.2648479 105:-2.1556226 106:0.9394038 107:0.82298394 108:-1.0687205 109:-0.19585145 110:5.0480403 111:7.0558384 112:9.3258189 113:2.7563474 114:8.3340086 115:6.9905979 116:-9.7940873 117:0.74194831 118:10.502311 119:-0.15695563 120:3.0357281 121:-4.0827056 122:1.079728 123:9.7266526 124:4.6143003 125:-0.33927807 126:7.6248496 127:8.4189095 128:7.6464406 129:-1.4592032 130:1.7067887 131:-0.49376959 132:-0.79149565 133:2.7232389 134:8.8862856 135:-6.0675926 136:-4.0613467 137:-2.4571598 138:-3.1571972 139:-0.83597385 140:-2.4820374 141:5.8184176 142:-2.2993407 143:-4.4706234 144:0.14620535 145:-5.9548863 146:8.7667159 147:-3.7441991 148:4.5936784 149:4.8308224 150:7.364098 151:-9.268258 152:-4.006112 153:3.2114886 154:5.9661226 155:2.4336526 156:-4.7453908 157:0.89971774 158:6.330809 159:6.5008625 160:-4.0306065 161:-0.97306467 162:-6.866134 163:8.8781742 164:5.7241088 165:5.6851895 166:8.6884503 167:0.058450248 168:-6.576084 169:3.5067274 170:2.0236947 171:0.32316311 172:4.1531222 173:-6.3308668 174:0.4398752 175:1.3455807 176:6.9313086 177:0.86829768 178:-2.0792776 179:-1.2824928 180:-0.1757218 181:6.0332186 182:4.5804979 183:-4.8032201 184:-5.4996028 185:-6.7401912 186:-1.5491753 187:5.7998456 188:-9.4946773 189:1.1287288 190:-0.21840467 191:9.6197475 192:8.0502706 193:7.3510601 194:2.5971713 195:3.2327558 196:10.437076 197:1.0259026 198:1.9937668 199:-3.5119488 
-5.499564245868537e-05 0:3.1128993 1:3.9370677 2:6.598049 3:7.8217434 4:-8.1349402 5:-0.36563122 6:-3.0287661 7:-3.0247734 8:-6.6086755 9:-6.3251472 10:6.9749667 11:-5.2941792 12:-7.9663678 13:-5.8879503 14:-7.5367195 15:4.3113134 16:-4.3609873 17:3.9814552 18:-1.3059321 19:-2.9414808 20:-1.0468243 21:-8.2482601 22:-9.4509907 23:-2.8775015 24:-3.1813504 25:4.1673898 26:7.4614012 27:-0.68327892 28:-8.7197043 29:7.7748432 30:-2.6240823 31:-1.2268723 32:-12.143285 33:1.8988471 34:-2.5419763 35:-2.2360681 36:6.1781156 37:3.296965 38:1.4234489 39:-9.0655413 40:-2.048066 41:3.5694721 42:-7.8962041 43:8.0639295 44:6.612809 45:-2.4240772 46:8.7131359 47:-8.0390984 48:-5.0369025 49:2.3298104 50:-7.3280792 51:6.8288848 52:6.8283373 53:-8.2084012 54:7.9667668 55:3.0996059 56:-0.10105137 57:6.348924 58:1.8073778 59:-4.3032195 60:6.0184934 61:-1.1405923 62:-2.5701525 63:-2.5601167 64:-1.5053522 65:-5.021112 66:-8.5827457 67:-7.7813203 68:9.5314592 69:7.8257123 70:10.293434 71:9.2960583 72:1.1036042 73:7.0346549 74:-0.11989149 75:4.4017575 76:-2.5596808 77:-1.6920213 78:8.6751119 79:9.866781 80:-1.9015055 81:1.2111136 82:-10.085453 83:-1.2644084 84:-0.35896401 85:7.0019146 86:2.3575253 87:-6.2973781 88:-4.3560008 89:-1.2982808 90:-6.3602034 91:-5.7481597 92:1.7290729 93:-3.1063719 94:-3.1898156 95:4.0896156 96:6.2881759 97:-7.6642246 98:-4.1117878 99:-4.9929283 100:5.9663911 101:3.9019832 102:-0.16362714 103:-4.9279835 104:-5.7108997 105:-0.55580718 106:1.6893205 107:-1.8247364 108:-1.1626184 109:0.3709262 110:4.6890398 111:7.513874 112:8.1722432 113:1.0616923 114:8.8617419 115:8.9143972 116:-8.3035693 117:1.1312584 118:8.5028869 119:2.0931698 120:1.7867439 121:-4.1083438 122:1.6745984 123:9.5136776 124:4.8401534 125:-0.37091143 126:9.4540322 127:7.0980499 128:4.4955468 129:1.5105145 130:0.8620778 131:-2.2685973 132:-0.92330045 133:3.0533212 134:9.5930361 135:-7.0274175 136:-5.3169701 137:-4.5626558 138:-3.0241012 139:-0.82395936 140:-2.744321 141:5.1134591 142:-2.610308 143:-3.8180197 144:-0.44381866 145:-8.5671079 146:7.5638999 147:-2.7525571 148:5.2782797 149:5.6777894 150:8.2567395 151:-9.3188308 152:-3.3479359 153:3.161658 154:3.5387029 155:1.3785811 156:-4.8817769 157:1.4830293 158:4.5551785 159:9.1886469 160:-1.4875715 161:-3.1870859 162:-7.136755 163:8.8810582 164:5.7710777 165:7.0395159 166:6.2636488 167:-0.2740106 168:-6.2724102 169:1.8141496 170:1.773429 171:-0.065105089 172:6.1188784 173:-7.6473362 174:2.5144877 175:2.345693 176:6.6655789 177:2.003428 178:-2.2684934 179:-1.6708438 180:-0.67312333 181:4.9329699 182:3.7371489 183:-4.7779761 184:-6.5473477 185:-4.1372917 186:-3.4729484 187:2.7467485 188:-7.8304239 189:1.7294311 190:1.5454978 191:7.8388043 192:11.255465 193:7.9408615 194:2.3701324 195:4.1829067 196:7.3776446 197:0.87098156 198:1.8013185 199:-0.95606904 
-8.1000045619057377e-05 0:4.8317694 1:2.9293671 2:6.2782252 3:8.3045929 4:-7.4924454 5:1.0497829 6:-1.4313937 7:-2.9714571 8:-7.190213 9:-4.9013794 10:8.8762238 11:-5.5997957 12:-6.7568429 13:-4.1311806 14:-9.512259 15:4.3251556 16:-2.8375244 17:4.5894508 18:1.4361488 19:-2.6176535 20:-1.9512071 21:-9.2704196 22:-10.627305 23:-2.0626256 24:-2.2871412 25:4.2499032 26:7.937037 27:0.31781159 28:-7.9560501 29:8.589659 30:-0.062888043 31:-0.0074207278 32:-7.4106976 33:1.4971183 34:-4.2170404 35:-2.0664909 36:6.1275302 37:4.0605992 38:2.7348275 39:-7.8231147 40:-3.8414234 41:2.3654326 42:-5.979949 43:9.8795752 44:7.2737272 45:-2.1763684 46:7.7601709 47:-8.6907887 48:-3.033621 49:1.7406013 50:-6.4681445 51:5.1395027 52:7.3200781 53:-6.6372787 54:5.8378844 55:5.8517402 56:-2.4256116 57:6.2899922 58:3.4311809 59:-2.1439481 60:7.3082401 61:-1.7872091 62:-2.4549736 63:-4.3885933 64:-2.2814732 65:-4.9732699 66:-10.567922 67:-7.7141339 68:7.8721551 69:8.5346112 70:7.4498326 71:9.1524679 72:-0.25092622 73:8.5850199 74:0.21751458 75:4.7674799 76:-2.1084873 77:-2.569763 78:6.3119793 79:8.711545 80:-2.4400765 81:1.0564015 82:-8.0079044 83:-2.7514364 84:1.2965544 85:6.5062905 86:2.2456667 87:-5.7083101 88:-3.1649293 89:1.1217337 90:-6.9569182 91:-5.7957574 92:1.4017959 93:-2.5741831 94:-5.1909596 95:5.7798195 96:6.249914 97:-9.3269129 98:-2.7014997 99:-2.1967685 100:2.5882576 101:2.7392336 102:2.1894965 103:-1.59537 104:-5.6486927 105:-1.7773868 106:4.4402572 107:-0.72328424 108:-1.8471026 109:-1.2075553 110:5.0004043 111:7.5883187 112:11.519268 113:3.0833945 114:8.234513 115:8.1890154 116:-6.754856 117:1.6814141 118:7.6961197 119:2.8130041 120:2.617812 121:-3.2854696 122:2.6248564 123:9.8557206 124:3.6793468 125:-0.28032611 126:7.0329092 127:9.0851769 128:6.1903486 129:1.6298424 130:0.40447784 131:-2.9192529 132:-1.102952 133:1.3626421 134:10.855479 135:-5.6026304 136:-3.9145994 137:-4.000358 138:-4.7458732 139:-1.0817537 140:-2.4272441 141:5.3918177 142:-0.88787854 143:-5.1423782 144:-0.14664267 145:-6.1585734 146:8.6606897 147:-2.3774925 148:5.4590792 149:4.8584226 150:6.1455149 151:-8.4939809 152:-2.5414804 153:3.3971503 154:5.6732842 155:0.47923179 156:-4.146605 157:0.84998647 158:4.7637737 159:8.8722738 160:-6.2203741 161:-1.0792509 162:-5.3821714 163:8.2984851 164:4.5504632 165:6.3976015 166:7.0322967 167:0.88531937 168:-6.8245362 169:2.1315811 170:2.0276198 171:-2.7534095 172:3.8564406 173:-6.3513459 174:3.4854317 175:2.7497654 176:5.5085316 177:4.1499917 178:-3.1352154 179:0.80261631 180:-1.4179972 181:4.7370364 182:3.2334578 183:-7.2033509 184:-6.634218 185:-6.4845581 186:-2.7968662 187:4.9687714 188:-10.754 189:1.0529309 190:0.31708487 191:7.753026 192:8.8272396 193:6.8050053 194:2.2152952 195:5.7001377 196:6.5944783 197:2.3207753 198:1.7917038 199:-1.3085279 
